#include "policy.h"
#include <math.h>

/* ---- 重み配列 ---- */

/* layer0 weight: [128][3] (row-major) */
static const float W0[384] = {
    /* [0] */ 2.23505592f, 0.15410595f, -0.03795037f,
    /* [1] */ -0.04493916f, -0.02271992f, -0.02380616f,
    /* [2] */ 0.04097328f, 0.05650638f, 0.00584944f,
    /* [3] */ -1.83753884f, -1.94263470f, -0.03992292f,
    /* [4] */ -0.01272802f, 0.01249967f, 0.00166081f,
    /* [5] */ -0.02033326f, -0.01290667f, 0.01410587f,
    /* [6] */ -0.05701153f, -0.07917952f, -0.01422317f,
    /* [7] */ -0.00351549f, -0.08369282f, 0.01543823f,
    /* [8] */ 0.01248725f, -0.09989322f, 0.00845748f,
    /* [9] */ -1.25154495f, 0.02714945f, 0.06999956f,
    /* [10] */ -0.00383211f, -0.09184827f, 0.01705418f,
    /* [11] */ 1.02979839f, -0.92177701f, -0.10812101f,
    /* [12] */ -0.30849332f, -0.00627628f, 0.03852585f,
    /* [13] */ -0.02920279f, 0.07518692f, -0.03489111f,
    /* [14] */ -2.21276808f, 0.33584008f, 0.07727458f,
    /* [15] */ -1.86427736f, -0.02186790f, 0.06545322f,
    /* [16] */ 0.35748079f, 0.04071499f, -0.04223509f,
    /* [17] */ -0.65125698f, -0.66842610f, -0.02945079f,
    /* [18] */ -1.74863803f, 0.33911991f, 0.08643277f,
    /* [19] */ 0.05869197f, 0.04379293f, -0.01072754f,
    /* [20] */ -0.34674647f, 0.01506455f, 0.03751378f,
    /* [21] */ -0.03072120f, 0.01880009f, -0.02451515f,
    /* [22] */ 0.01238689f, -0.08458914f, 0.01870791f,
    /* [23] */ -1.44058645f, -1.24178338f, -0.05397533f,
    /* [24] */ 0.00058130f, 0.05553518f, -0.01069224f,
    /* [25] */ -2.29443359f, 0.56610197f, 0.08604253f,
    /* [26] */ 0.08061988f, 0.04837666f, -0.00405433f,
    /* [27] */ 2.15631700f, 2.27888131f, -0.20360743f,
    /* [28] */ 0.03578794f, 0.02332312f, -0.02757519f,
    /* [29] */ 1.86071527f, -0.35169291f, -0.10779826f,
    /* [30] */ -0.23277976f, -0.72333831f, -0.02529948f,
    /* [31] */ -0.16822824f, -0.09321747f, 0.02976680f,
    /* [32] */ -0.07803663f, -0.08129059f, 0.00669804f,
    /* [33] */ -0.02239698f, 0.03460921f, 0.00333571f,
    /* [34] */ 0.05189145f, 0.07090962f, -0.01396039f,
    /* [35] */ -0.06202707f, -0.10364499f, 0.01737355f,
    /* [36] */ 0.06700114f, 0.04523428f, -0.02349003f,
    /* [37] */ 0.01372047f, 0.08315019f, -0.01931834f,
    /* [38] */ 0.21292533f, -0.48916626f, -0.06959761f,
    /* [39] */ -0.00313970f, 0.02742412f, 0.01562769f,
    /* [40] */ 0.16625313f, 0.02718531f, -0.02476162f,
    /* [41] */ -0.05636445f, 0.06108946f, -0.01147617f,
    /* [42] */ 2.08292341f, 2.73268938f, -0.27427921f,
    /* [43] */ -2.41864467f, 0.57757664f, 0.05816260f,
    /* [44] */ -0.84610349f, -1.05903792f, -0.09160560f,
    /* [45] */ 0.04435401f, 0.09292307f, -0.02054731f,
    /* [46] */ -0.11925468f, -0.07591701f, 0.02843468f,
    /* [47] */ 2.75851727f, 0.94810438f, -0.04231178f,
    /* [48] */ -1.04382944f, 0.12200329f, 0.07056724f,
    /* [49] */ -0.00843209f, -0.05091376f, 0.00696404f,
    /* [50] */ -2.08281279f, 0.11463100f, 0.08058859f,
    /* [51] */ 0.05335655f, 0.00735217f, -0.01138337f,
    /* [52] */ -0.10067645f, -0.11431167f, 0.02851339f,
    /* [53] */ 0.11596230f, -0.01172901f, -0.01876768f,
    /* [54] */ -3.11996555f, 0.08991803f, -0.00127759f,
    /* [55] */ 0.02696525f, 0.06746097f, -0.02411905f,
    /* [56] */ 0.02898782f, -0.02779712f, 0.03147357f,
    /* [57] */ -0.85092795f, 0.09985728f, 0.06125519f,
    /* [58] */ -0.08353995f, -0.11674369f, 0.02176996f,
    /* [59] */ 0.03513231f, 0.06350347f, -0.01974881f,
    /* [60] */ 2.36809015f, 3.66155505f, -1.00083935f,
    /* [61] */ -0.29315385f, -0.02791386f, 0.03533003f,
    /* [62] */ -0.03232204f, -0.06265666f, -0.00313396f,
    /* [63] */ -0.03415922f, 0.10164583f, -0.01811928f,
    /* [64] */ 0.00880830f, 0.01498635f, 0.00205036f,
    /* [65] */ -0.32835892f, -0.02097633f, 0.04051712f,
    /* [66] */ -0.05839179f, -0.09713331f, 0.00820162f,
    /* [67] */ -0.30839872f, -0.81851494f, -0.03991574f,
    /* [68] */ 0.06533208f, 0.04611758f, -0.00278496f,
    /* [69] */ -0.31692702f, -0.02538373f, 0.03038013f,
    /* [70] */ 0.00129581f, -0.02916503f, 0.00870184f,
    /* [71] */ 0.10543887f, 0.00144986f, -0.02002876f,
    /* [72] */ 3.16153026f, 2.09989214f, -0.25583011f,
    /* [73] */ -0.93781042f, -2.41327786f, -0.20953749f,
    /* [74] */ 0.12085765f, 0.04812902f, -0.03507201f,
    /* [75] */ -0.02047582f, 0.03494925f, -0.01002956f,
    /* [76] */ 1.36424255f, 0.11976905f, -0.04859711f,
    /* [77] */ 0.04730968f, 0.03246466f, -0.04171368f,
    /* [78] */ 0.02383532f, 0.02824381f, 0.02162284f,
    /* [79] */ -0.03644350f, -1.79761696f, 1.16927350f,
    /* [80] */ 0.00565470f, -0.04062922f, 0.02807309f,
    /* [81] */ 0.05152466f, 0.07181963f, -0.00402236f,
    /* [82] */ -0.01089374f, 0.05201110f, -0.00789928f,
    /* [83] */ -0.00537213f, 0.07667097f, -0.01441207f,
    /* [84] */ 0.27473307f, -0.54640573f, -0.03125708f,
    /* [85] */ 3.14922905f, 0.78146631f, -0.06463664f,
    /* [86] */ -0.00370693f, -0.00635886f, 0.01203393f,
    /* [87] */ -0.02457087f, -0.00695632f, -0.01277612f,
    /* [88] */ -2.69779778f, -0.39947882f, -0.01135918f,
    /* [89] */ -0.07166178f, -0.03913345f, -0.00645106f,
    /* [90] */ 3.20390272f, 2.21867108f, -0.33036697f,
    /* [91] */ 0.08926978f, 0.11920006f, -0.02999803f,
    /* [92] */ 2.78037143f, 0.23955213f, -0.02085663f,
    /* [93] */ 0.02517317f, -0.03061655f, 0.00885291f,
    /* [94] */ 3.15364361f, 1.98565638f, -0.22213000f,
    /* [95] */ 0.04908881f, 0.09297214f, -0.02916065f,
    /* [96] */ 0.03412397f, 0.00805136f, -0.02602412f,
    /* [97] */ 0.14393105f, 0.05415090f, -0.03794019f,
    /* [98] */ -1.12722886f, -1.36011887f, -0.07708641f,
    /* [99] */ -0.01010532f, 0.08699293f, -0.01468925f,
    /* [100] */ 0.01789991f, -0.07207169f, 0.01082143f,
    /* [101] */ -0.00852071f, 0.01077635f, -0.01910237f,
    /* [102] */ -0.17296009f, -0.04408342f, 0.01878532f,
    /* [103] */ 0.04507881f, -0.01162306f, -0.00861924f,
    /* [104] */ -0.09736604f, -0.03034867f, 0.01226494f,
    /* [105] */ -0.00914224f, -0.02787860f, 0.00369654f,
    /* [106] */ -2.51922846f, 0.32017711f, 0.05789030f,
    /* [107] */ -0.12170032f, -0.12250325f, 0.02912229f,
    /* [108] */ 0.09215827f, 0.04651875f, -0.00626878f,
    /* [109] */ 2.73372579f, 3.34735441f, -0.63509727f,
    /* [110] */ 3.30758882f, 1.83252537f, -0.32897434f,
    /* [111] */ 0.07075156f, -0.01919896f, -0.01979456f,
    /* [112] */ -0.05224326f, -0.03753885f, -0.00993671f,
    /* [113] */ -1.83555877f, 0.39514765f, 0.10002613f,
    /* [114] */ 0.03690192f, 0.06584685f, 0.00281753f,
    /* [115] */ 0.06289357f, 0.08521178f, -0.01954773f,
    /* [116] */ -0.89179415f, 0.01839901f, 0.05702763f,
    /* [117] */ 0.01215047f, 0.10995464f, -0.01406818f,
    /* [118] */ 0.02548585f, 0.03710650f, -0.02028527f,
    /* [119] */ 0.11877633f, 0.03657008f, -0.02442997f,
    /* [120] */ -0.00985710f, -0.05836685f, 0.00475064f,
    /* [121] */ 0.41774544f, 2.46272087f, -1.61610734f,
    /* [122] */ -0.03022071f, -0.02656271f, -0.03053720f,
    /* [123] */ 1.84735548f, -0.26582068f, -0.09993859f,
    /* [124] */ -1.49812663f, 0.27725714f, 0.09241225f,
    /* [125] */ -0.06881365f, -0.09535301f, 0.02395246f,
    /* [126] */ -1.03935540f, -2.02958250f, 0.15273777f,
    /* [127] */ 0.06439040f, 0.09273206f, -0.00261451f
};

/* layer0 bias: [128] */
static const float b0[128] = {
    -0.10940725f, 0.00040952f, -0.00128209f, 0.05991106f, -0.00127487f, 0.00245535f, -0.00526884f, -0.00367066f, -0.00255430f, 0.06474772f, -0.00267376f, -0.04689813f, 0.01532276f, 0.00395966f, 0.10691345f, 0.09102866f, -0.01599357f, 0.03015720f, 0.09047998f, 0.00139333f, 0.01468450f, 0.00168708f, 0.00013588f, 0.04465623f, -0.00053655f, 0.10661031f, 0.00133321f, -0.09581336f, -0.00215122f, -0.09118920f, 0.01907226f, 0.00747116f, 0.00075746f, 0.00877253f, 0.00574505f, -0.00175091f, -0.00317191f, -0.00343082f, -0.00495578f, 0.00309378f, -0.01173112f, 0.00789232f, -0.10165008f, 0.12088422f, 0.06616994f, -0.00185876f, 0.01095307f, -0.12589541f, 0.05359241f, -0.00630008f, 0.10014187f, 0.00143045f, 0.00410509f, -0.00140752f, 0.14913681f, -0.00251918f, -0.00366376f, 0.04364910f, 0.00170743f, -0.00548206f, -0.06516819f, 0.01548520f, -0.00440747f, 0.00504790f, 0.00043988f, 0.01567869f, 0.00404417f, 0.02593718f, -0.00082025f, 0.01262849f, -0.00422972f, 0.00026557f, -0.14644840f, 0.10756193f, -0.00177883f, 0.00099126f, -0.07010155f, -0.00311967f, 0.01082499f, -0.05451506f, 0.00269661f, 0.00291409f, 0.00142460f, 0.00665144f, -0.01318391f, -0.15400758f, 0.01012807f, 0.00736015f, 0.16564785f, 0.00369928f, -0.14702910f, -0.00034394f, -0.13402672f, -0.00044204f, -0.15214586f, 0.00111653f, 0.00021587f, 0.00078412f, 0.05170717f, 0.00138150f, -0.00076461f, 0.00078071f, 0.00634011f, 0.00673815f, 0.00297166f, 0.00309409f, 0.12300491f, 0.00232689f, -0.00284053f, -0.11053991f, -0.14393148f, -0.00346901f, -0.00087315f, 0.08891673f, 0.00173523f, 0.00282384f, 0.04023396f, 0.00000202f, 0.00158556f, -0.00670849f, -0.00775717f, -0.02693787f, -0.00181943f, -0.09479312f, 0.07746062f, 0.00213225f, 0.04833717f, 0.00497379f
};

/* layer1 weight: [128][128] (row-major) */
static const float W1[16384] = {
    /* [0] */ 0.02304988f, 0.00865592f, -0.01622674f, -0.00434599f, 0.10115111f, -0.12236382f, 0.05931376f, -0.15351084f, 0.02527907f, 0.03945586f, 0.03494332f, 0.01565598f, -0.01424401f, 0.06882370f, -0.02435861f, -0.08891933f, 0.10606933f, -0.03615981f, 0.15531197f, 0.00460920f, 0.07365235f, 0.03070970f, 0.00059611f, -0.06937332f, 0.00944353f, -0.00737039f, -0.05596595f, 0.07912695f, -0.08258101f, 0.07759969f, -0.07065884f, -0.07320983f, 0.03239474f, -0.08262743f, -0.16521682f, 0.05490959f, -0.01008554f, -0.02637096f, 0.00871633f, -0.02866505f, -0.03665860f, -0.10477361f, 0.02058421f, 0.20009851f, 0.12753509f, 0.08156134f, -0.08864204f, -0.09770262f, -0.09850472f, 0.00653580f, 0.03936902f, 0.00000639f, 0.06339677f, -0.08447971f, -0.04431927f, 0.03367721f, 0.13298397f, -0.03779435f, -0.07903221f, 0.00511883f, -0.03947013f, 0.02268848f, 0.03078697f, -0.02908420f, -0.03918324f, 0.03165477f, -0.04066512f, -0.02251079f, 0.00782882f, -0.05434210f, 0.00696287f, 0.06949198f, 0.06260833f, 0.02672270f, -0.04680979f, 0.01744219f, -0.03176833f, 0.06526479f, 0.00193016f, 0.02792602f, 0.00126238f, -0.06964690f, -0.00858000f, -0.06694829f, -0.03778471f, 0.20734894f, -0.03915903f, -0.08728482f, 0.09711766f, 0.00773764f, 0.09288859f, -0.03668005f, -0.19960816f, -0.00641236f, 0.08376451f, -0.09728239f, 0.03133941f, -0.04708214f, 0.09226142f, 0.09522513f, 0.00912220f, 0.14862323f, 0.03055508f, -0.13229316f, -0.01470285f, -0.00369887f, 0.03469120f, -0.03530528f, -0.09177519f, -0.19061436f, 0.20916313f, -0.06816778f, -0.10183688f, 0.13317001f, -0.05276203f, -0.01093265f, -0.02238731f, -0.04530096f, -0.07991963f, 0.06179867f, 0.12209014f, 0.04885719f, 0.05313107f, 0.04902602f, -0.05336839f, -0.09042391f, -0.02269464f, 0.07567088f,
    /* [1] */ -0.03400192f, 0.00173812f, -0.03936521f, -0.03525729f, -0.13214366f, -0.01072889f, 0.10003790f, 0.04326711f, -0.05792248f, -0.07053529f, 0.03421303f, 0.04303052f, 0.03259309f, 0.00369374f, 0.01581203f, -0.01190232f, 0.07309255f, -0.07548457f, 0.00249249f, 0.07079732f, -0.07196695f, -0.07173394f, 0.08551548f, 0.08985519f, -0.02010862f, 0.11575951f, 0.00975103f, -0.03028518f, -0.08402468f, -0.08338582f, -0.14050823f, 0.02624298f, 0.07241015f, -0.02436822f, 0.07051229f, -0.07508215f, -0.04055790f, 0.04015582f, -0.06653281f, -0.09923118f, -0.02881297f, -0.04518557f, -0.15038608f, 0.02162917f, 0.19453906f, -0.10547815f, -0.07689962f, -0.10536216f, 0.03722271f, -0.10620669f, 0.02676058f, 0.04022845f, 0.02705723f, -0.03393513f, -0.02888704f, 0.01098860f, 0.02449382f, -0.01190015f, -0.08802819f, -0.05723205f, -0.11089327f, -0.01584845f, 0.01394454f, -0.00653431f, -0.03509595f, -0.00775383f, -0.02000669f, -0.09998549f, -0.00546433f, -0.06561222f, -0.04434033f, 0.01282559f, -0.04829091f, 0.09973271f, 0.01039678f, -0.04370586f, -0.01714679f, -0.00302891f, 0.04805141f, 0.05857523f, -0.01704067f, -0.05675545f, 0.05269247f, 0.02227107f, 0.00795605f, -0.05918336f, 0.14123367f, -0.07141299f, -0.27992859f, 0.09930389f, 0.03960659f, 0.03798886f, -0.05819403f, 0.01002669f, -0.01642150f, -0.01145290f, 0.18786077f, 0.07863906f, 0.09335280f, 0.01012398f, 0.01619033f, 0.07225224f, 0.04374667f, 0.01469566f, -0.06059928f, 0.02546147f, 0.03012139f, 0.01090145f, 0.02304679f, 0.09971019f, 0.00655122f, -0.01060030f, 0.02154874f, 0.10635236f, -0.12474559f, 0.00452229f, 0.00357195f, 0.03197991f, -0.09953393f, -0.09325989f, 0.08933850f, 0.00097643f, -0.04896770f, 0.00044423f, 0.10654637f, -0.15151176f, -0.13207157f, 0.01802721f,
    /* [2] */ -0.00732028f, 0.03071188f, -0.06213266f, -0.01264343f, 0.05071038f, 0.01632832f, -0.04770831f, 0.03264035f, 0.01392844f, 0.06019451f, 0.03500175f, -0.05935199f, 0.00565494f, 0.09404001f, 0.04026063f, 0.07760663f, -0.00819973f, 0.07236903f, -0.00171910f, -0.00024505f, -0.03287015f, 0.00937406f, 0.02356197f, 0.00688135f, -0.06023079f, 0.06225751f, -0.06858251f, 0.05403055f, 0.00409234f, -0.07937175f, 0.04146897f, 0.01816351f, 0.05020660f, 0.03824997f, -0.03069844f, -0.03067767f, -0.04592775f, -0.01910603f, 0.06107183f, 0.04955855f, -0.02872223f, 0.10137639f, -0.01303579f, 0.00368991f, 0.02248676f, -0.07582704f, -0.09883470f, -0.00454498f, 0.07709473f, 0.00338738f, -0.01801822f, -0.06560160f, 0.01738162f, -0.08749963f, 0.01726677f, 0.05784379f, 0.00248821f, 0.06140797f, -0.06479029f, 0.04642529f, 0.08050221f, -0.08703715f, -0.02110483f, 0.03537384f, -0.03356617f, -0.03331656f, -0.16436392f, -0.00545408f, 0.00710668f, -0.05812482f, 0.00856552f, -0.02584014f, 0.10093956f, -0.05162036f, -0.09318230f, -0.08713624f, -0.11307401f, 0.01492538f, -0.02397919f, -0.04059674f, -0.04650179f, -0.01406047f, 0.05742979f, -0.06455449f, -0.07014942f, 0.11234120f, -0.07956353f, -0.01569826f, 0.08742465f, 0.06006116f, 0.02109994f, 0.02240083f, -0.04134101f, 0.00952871f, 0.14197937f, 0.15669419f, 0.07646285f, 0.03433549f, 0.07431592f, 0.01479222f, 0.09244630f, 0.01047554f, -0.04798052f, 0.05447083f, 0.02383478f, 0.04032524f, -0.03580884f, -0.08822103f, -0.11522139f, -0.00523646f, 0.05227773f, -0.00471773f, -0.08909382f, -0.03475673f, 0.01667554f, -0.02164078f, 0.05322058f, 0.07206523f, -0.02737088f, 0.01517003f, -0.07137987f, -0.06048504f, 0.00318292f, 0.02808907f, -0.06183690f, -0.08646831f, 0.12881996f, -0.00345605f,
    /* [3] */ -0.09752487f, 0.03171655f, -0.01263732f, 0.03831436f, -0.04605456f, 0.01442270f, -0.15050976f, -0.06773192f, -0.09430254f, 0.02158274f, 0.04326143f, -0.02560223f, -0.06365009f, -0.05325166f, -0.09608313f, -0.00749741f, -0.00072712f, 0.04199177f, -0.06605531f, 0.06213797f, -0.03309828f, 0.08859576f, 0.04255877f, -0.04794259f, -0.10960291f, -0.07884474f, 0.09189495f, 0.00777385f, -0.01472392f, -0.02994192f, -0.09752494f, -0.01137304f, 0.03512850f, -0.03221865f, -0.04958720f, 0.00708920f, -0.06410914f, -0.01915353f, -0.07344268f, 0.02095219f, 0.02035949f, -0.05062964f, -0.02703893f, -0.18021627f, 0.09547547f, 0.06602148f, 0.04340999f, 0.04304813f, 0.04961203f, -0.06034097f, -0.14659823f, 0.00987124f, 0.04034341f, 0.14222337f, -0.04399192f, -0.00708733f, -0.02378822f, -0.00226532f, 0.00831947f, -0.02367860f, -0.03459413f, -0.04410971f, 0.05709201f, 0.00078629f, -0.05927335f, -0.04979613f, -0.05553513f, -0.07813723f, -0.10391937f, -0.02174747f, -0.01446589f, 0.01343995f, 0.00399249f, -0.12342375f, 0.06307834f, -0.02376483f, -0.01244630f, 0.16155802f, 0.02743290f, -0.04920152f, 0.02699498f, 0.00570591f, -0.08530619f, 0.11967383f, -0.05585520f, -0.04833544f, 0.08364498f, 0.11217456f, 0.03469947f, 0.00672945f, -0.08637511f, 0.00239109f, -0.01197842f, 0.02877951f, -0.07962823f, 0.11337496f, -0.01348742f, 0.17427577f, -0.00116863f, -0.04019023f, 0.08048968f, 0.02524826f, -0.08315388f, 0.02499005f, -0.00839244f, 0.02146653f, -0.04676928f, 0.01658374f, -0.00471326f, -0.00360987f, -0.00648442f, 0.02833936f, 0.03462133f, 0.04114027f, 0.03576112f, 0.02515537f, -0.00608012f, 0.05143671f, 0.09036018f, 0.02540212f, 0.02376097f, -0.00579287f, -0.02165732f, -0.02056627f, 0.00312128f, -0.06091514f, -0.05363924f, 0.00222890f,
    /* [4] */ -0.01944660f, 0.00552274f, 0.03694209f, -0.02041850f, 0.13767329f, -0.01531327f, -0.02152539f, -0.03126319f, 0.02754332f, 0.10268708f, 0.00867881f, -0.13689966f, 0.01804900f, -0.01596167f, -0.07037003f, -0.01614037f, -0.10426208f, -0.02545486f, -0.01843942f, 0.02596380f, 0.03691398f, -0.00664005f, -0.05429378f, -0.00253179f, 0.01303524f, -0.09371195f, -0.02426589f, -0.01651386f, -0.06970190f, 0.03515020f, -0.00252336f, -0.07575744f, -0.05004229f, -0.01052922f, -0.03770309f, -0.05482711f, -0.03628507f, -0.05510242f, -0.08253019f, -0.02569510f, -0.00401750f, -0.05981307f, 0.04745914f, -0.09247333f, 0.06253488f, 0.05485181f, -0.05556475f, -0.04642140f, 0.01110203f, 0.17734322f, -0.05064368f, -0.08066647f, -0.02578703f, -0.00406905f, -0.00798536f, -0.08860931f, 0.09200893f, 0.03109352f, 0.04956933f, -0.00178311f, 0.01586414f, 0.02952698f, -0.02349125f, -0.06944451f, -0.03744961f, 0.05596338f, 0.00604772f, -0.04439837f, -0.08638045f, 0.03311073f, 0.01942428f, -0.02888474f, 0.05345543f, -0.01546844f, -0.02186907f, -0.02544125f, 0.01034529f, -0.01075497f, -0.00389996f, -0.09011569f, -0.00474321f, -0.00412019f, -0.01648405f, 0.06523507f, -0.12209364f, -0.06008960f, -0.04533198f, -0.11349216f, 0.09478571f, -0.09805888f, -0.05521136f, -0.04400665f, 0.00975776f, -0.04912292f, 0.05601301f, -0.05976351f, 0.07735743f, -0.00942135f, -0.00705376f, -0.11570057f, -0.00362829f, -0.04605408f, 0.01030262f, -0.05334869f, -0.10931624f, -0.07250629f, -0.08004513f, -0.04384410f, 0.04126488f, -0.02946734f, 0.04454479f, -0.03726480f, -0.03034488f, -0.03718544f, 0.04531851f, -0.07118325f, 0.06940892f, 0.00938903f, -0.03357446f, 0.06400331f, 0.02685567f, -0.02116235f, -0.06021083f, 0.03999330f, -0.04481569f, 0.02836207f, -0.16854820f, 0.00142726f,
    /* [5] */ -0.00878045f, -0.05704564f, 0.02531511f, 0.00475710f, -0.04791646f, 0.02228347f, -0.05102047f, 0.05355516f, 0.02658824f, -0.01887089f, -0.03175059f, 0.01384058f, -0.05789570f, -0.06124454f, 0.09368315f, -0.00569349f, 0.01539499f, -0.08181005f, 0.05560621f, 0.01093497f, 0.04070114f, 0.06065859f, -0.01630272f, 0.05740326f, 0.02506290f, -0.02153695f, -0.07680837f, -0.07283130f, 0.03683306f, 0.07951666f, -0.11479684f, -0.06543983f, -0.04941409f, 0.00086178f, -0.02327906f, 0.00555135f, 0.09452929f, -0.03262427f, 0.16572325f, 0.00544483f, -0.05159412f, 0.04054349f, -0.11324207f, 0.10229426f, 0.02049758f, -0.07193926f, -0.02685535f, -0.07819135f, -0.01452679f, 0.04739373f, -0.03292197f, 0.00747672f, 0.01809507f, -0.00635534f, 0.16880669f, 0.01081092f, -0.13444538f, 0.01998947f, -0.08142652f, -0.09716754f, 0.03570267f, 0.03593716f, -0.08665320f, 0.04088498f, -0.11226471f, 0.05356776f, 0.02861449f, -0.05518689f, -0.02185907f, 0.01693001f, -0.05088280f, -0.00304403f, 0.09464803f, 0.05518436f, 0.08016128f, -0.00973230f, -0.08312237f, 0.01996415f, 0.05169591f, -0.01640133f, -0.03968238f, -0.01744120f, 0.03191779f, -0.15634136f, 0.06358132f, 0.02097167f, -0.05256915f, -0.03505562f, -0.04974255f, -0.06433999f, 0.18530120f, 0.04113802f, -0.19851944f, -0.01109920f, 0.09383128f, 0.09337932f, 0.03822257f, 0.10042880f, 0.00263751f, -0.04389144f, 0.00064289f, -0.04302355f, -0.09245510f, 0.05913533f, 0.01721850f, -0.00232021f, 0.12657592f, 0.00943791f, 0.00064859f, -0.02188360f, 0.24430288f, 0.06317297f, 0.04407147f, -0.00877088f, 0.03087085f, 0.08434748f, -0.00174972f, -0.04324401f, 0.18699878f, 0.01857918f, -0.02180427f, -0.15501671f, -0.03023846f, 0.00566039f, -0.06215816f, 0.01142124f, 0.06674884f, 0.07055407f,
    /* [6] */ 0.02808284f, 0.02077624f, -0.11704033f, 0.06352140f, 0.03507321f, -0.01209196f, 0.11464637f, 0.04435302f, 0.01610687f, -0.04927181f, 0.05624610f, 0.08904285f, -0.02243030f, -0.09537312f, 0.05503017f, -0.03468106f, 0.09666583f, -0.01920861f, 0.08768002f, -0.09568436f, -0.00846835f, 0.02325935f, 0.06599674f, 0.04564885f, -0.03900119f, -0.00964140f, 0.00076136f, 0.03198721f, 0.05165071f, -0.08815782f, 0.02551585f, 0.00247709f, 0.08184597f, -0.04725462f, 0.00666188f, -0.04341055f, 0.04447952f, 0.03417689f, 0.00120682f, -0.07105840f, -0.11095394f, 0.01875799f, 0.01346420f, 0.07415444f, 0.00029142f, -0.05158832f, 0.00004942f, -0.10726155f, -0.01007315f, -0.05449484f, -0.03925094f, -0.04306038f, -0.06617226f, -0.08707434f, -0.00942716f, 0.03396331f, -0.07572808f, -0.00987566f, 0.02081863f, 0.09004612f, -0.06910087f, -0.12458318f, 0.09210301f, -0.08367439f, -0.04128127f, -0.07254007f, -0.07374395f, 0.05589710f, -0.05194861f, -0.16773222f, -0.05749215f, 0.00152894f, -0.04682708f, -0.11532889f, 0.07870905f, -0.00812591f, 0.06139784f, -0.11135222f, 0.02449235f, -0.02367622f, 0.05301609f, -0.14508677f, -0.01259667f, -0.05741055f, -0.01497912f, 0.00915926f, -0.02110649f, 0.06574219f, -0.10749366f, 0.07162952f, -0.01462951f, -0.00330922f, -0.04144615f, 0.09359692f, -0.04718333f, 0.02188458f, -0.05178260f, -0.00302782f, 0.09367511f, 0.02586788f, 0.04576511f, -0.07849799f, 0.03670320f, -0.03877578f, -0.04327239f, -0.01969707f, -0.00735291f, 0.08900968f, 0.00719398f, -0.07635205f, -0.02597348f, 0.03799396f, 0.11310126f, 0.06997567f, -0.12369528f, 0.00341915f, -0.08850893f, -0.06304684f, 0.05940575f, 0.10686955f, 0.01825440f, -0.04288178f, 0.00777224f, -0.11999704f, 0.07941203f, -0.06827495f, 0.04273549f, -0.05673650f,
    /* [7] */ -0.01930349f, -0.04248270f, 0.01567993f, -0.02313527f, -0.07053779f, -0.04148298f, -0.06768792f, -0.01990332f, 0.05485130f, 0.06145049f, 0.05077181f, -0.01228481f, -0.01911748f, 0.03040027f, 0.11044011f, -0.03603823f, 0.03273683f, -0.03125173f, -0.04630635f, 0.04776675f, -0.09917756f, 0.03385535f, -0.08880599f, -0.05844115f, 0.01064413f, 0.08268732f, -0.03474866f, 0.10265521f, -0.09361488f, -0.04151110f, -0.06256719f, -0.03921382f, 0.04278844f, 0.06989681f, 0.07926323f, 0.02108889f, -0.04272519f, 0.02170164f, 0.03764752f, -0.08264183f, 0.03725380f, 0.02863305f, -0.06068406f, 0.02149632f, 0.09970118f, -0.04915733f, -0.01995619f, -0.00593610f, -0.02144293f, 0.03197570f, 0.01373454f, -0.03494352f, -0.06550334f, 0.03119026f, -0.02697447f, 0.00886877f, -0.01689496f, -0.00842139f, -0.05301539f, 0.03712828f, -0.01598559f, -0.06514924f, -0.03663595f, -0.00505930f, 0.02289454f, -0.09503362f, -0.01628831f, 0.00825072f, 0.02177075f, 0.03774989f, -0.04205776f, -0.07583156f, 0.08929968f, 0.00804090f, -0.03475920f, -0.05107048f, -0.06324805f, -0.12082344f, 0.01261836f, 0.01056420f, -0.00322934f, 0.02631552f, -0.03944968f, 0.07230622f, 0.02937892f, -0.01475673f, 0.04389839f, 0.10910658f, 0.00438677f, 0.03995536f, -0.00278035f, 0.00956890f, 0.04084569f, -0.01530384f, 0.00179033f, -0.02066503f, 0.04226549f, 0.05509103f, 0.06676388f, -0.13286200f, -0.00954943f, -0.07136255f, 0.06041325f, -0.08311434f, -0.05559621f, -0.06061166f, -0.02907827f, -0.02018596f, 0.06291887f, 0.05552417f, 0.07535496f, 0.03210364f, -0.00155661f, 0.02957734f, 0.01801345f, -0.10265078f, 0.06332551f, 0.03725754f, -0.01020689f, 0.14235021f, 0.00371774f, -0.00861332f, -0.08043541f, 0.01776600f, 0.07811114f, -0.08975001f, -0.03608970f, 0.12364198f,
    /* [8] */ 0.09894551f, 0.00710038f, -0.03500991f, -0.07355961f, -0.08649241f, -0.05360724f, 0.04610376f, 0.01390887f, -0.00378422f, 0.04304470f, -0.02754983f, -0.00527267f, -0.05135339f, -0.04718817f, 0.01766726f, 0.03118720f, 0.04698405f, -0.06528907f, 0.08299348f, -0.01276250f, -0.11544749f, 0.06598226f, 0.02402700f, -0.09441223f, -0.02399371f, -0.09060916f, -0.01057682f, -0.08085959f, -0.06087412f, 0.02532169f, -0.05828078f, -0.04176303f, 0.02936504f, 0.01463553f, 0.01456439f, -0.05125585f, -0.06631314f, -0.04078910f, 0.11348163f, -0.02260782f, 0.00970333f, 0.01895079f, 0.05284986f, -0.04353933f, -0.18510954f, 0.09228078f, -0.00852770f, 0.04681757f, -0.01954383f, -0.03963367f, 0.05791966f, 0.12229699f, -0.00388461f, 0.06241363f, 0.01468267f, -0.03962765f, -0.01550393f, 0.07358155f, 0.02697408f, -0.07571716f, -0.05853189f, 0.02198074f, 0.02525948f, 0.00930035f, -0.08300910f, -0.04867695f, 0.03377219f, 0.06035848f, -0.00478564f, -0.02846010f, 0.00335271f, -0.04965784f, -0.04957113f, -0.06073176f, -0.04649377f, 0.05047046f, 0.07090359f, 0.03145158f, -0.01731842f, -0.02150428f, -0.05443248f, -0.02965340f, 0.07767749f, 0.04395095f, 0.09061456f, -0.00880910f, 0.14872934f, 0.00469149f, -0.05643982f, 0.03225673f, -0.05705100f, 0.01872151f, 0.01229379f, 0.02355304f, -0.07726023f, 0.14668094f, 0.01383758f, 0.00182086f, 0.05583858f, -0.09973019f, 0.03597990f, -0.01640207f, -0.04397318f, 0.07930498f, -0.00869840f, -0.01212332f, -0.08451717f, 0.06913168f, -0.00452128f, -0.05192033f, -0.02361881f, 0.04068888f, -0.03944703f, 0.01287930f, 0.01607963f, -0.08016804f, 0.09154471f, -0.02283992f, -0.06301786f, 0.07361153f, -0.02511696f, 0.09565894f, 0.00241940f, 0.06428991f, 0.05541943f, 0.07777778f, -0.02724812f, 0.03603133f,
    /* [9] */ 0.03302678f, 0.04856291f, 0.03502211f, -0.10884627f, 0.00822481f, 0.10615402f, 0.00674793f, -0.02512494f, -0.01530484f, 0.04043263f, 0.06502558f, -0.06464218f, -0.01040387f, -0.03243747f, 0.04644490f, 0.04450095f, -0.13019881f, 0.04875268f, 0.06076649f, 0.06383340f, 0.06984585f, -0.06960167f, 0.03133590f, -0.03673631f, -0.06205282f, -0.05086483f, 0.12873814f, 0.10461473f, -0.02391995f, -0.03139787f, 0.03515927f, 0.02387069f, -0.04968405f, 0.01009364f, 0.15751119f, 0.02358969f, -0.06747898f, -0.05626563f, -0.08071409f, 0.04088065f, -0.02601087f, 0.00570741f, -0.01158368f, -0.16295533f, -0.03048638f, -0.08055172f, -0.11125022f, -0.02107801f, 0.07549993f, 0.06058243f, -0.05636356f, 0.05489773f, -0.02478357f, 0.08080792f, -0.04973280f, -0.08507510f, -0.06407876f, 0.05453709f, -0.00616157f, 0.01171634f, -0.09824118f, 0.01260332f, -0.05120781f, 0.06068121f, -0.07114579f, -0.02464691f, 0.00685988f, -0.00216923f, -0.06360386f, 0.02001725f, 0.02762864f, -0.00471833f, 0.02639049f, 0.02206770f, 0.02816588f, -0.05077169f, -0.01818107f, 0.03505402f, -0.06451038f, -0.00321827f, -0.01458425f, 0.01113765f, 0.02710097f, 0.00928756f, -0.05382352f, 0.02183549f, 0.03646472f, 0.07215626f, -0.03047133f, -0.07081212f, 0.02966793f, 0.02383735f, -0.05254849f, 0.00534009f, -0.06439285f, -0.06797724f, 0.01792122f, 0.02921285f, -0.01545626f, 0.03650684f, 0.04911318f, -0.04837700f, -0.00671572f, -0.01126339f, -0.04155209f, 0.04466692f, -0.04793726f, 0.01780722f, 0.03225516f, -0.08752345f, 0.00287793f, 0.04995580f, -0.05288982f, -0.08795516f, 0.00466150f, 0.03693659f, -0.00178714f, 0.04122422f, 0.05887236f, 0.07905181f, 0.04590753f, 0.09592912f, 0.05866781f, 0.01232867f, 0.11873496f, -0.02256943f, 0.07086337f, -0.00568049f,
    /* [10] */ -0.05644166f, -0.02601469f, 0.05205427f, 0.62807041f, 0.00786768f, -0.02260417f, -0.04118842f, -0.06028435f, -0.02402922f, -0.20368746f, -0.01713626f, 0.23797937f, -0.09371467f, 0.00951973f, -0.30754873f, -0.06514879f, 0.07945944f, 0.16599685f, -0.36679924f, 0.05839596f, -0.16189840f, -0.03277703f, -0.03203306f, 0.48680839f, 0.02245338f, -0.45766172f, 0.05668570f, -0.83828777f, 0.00365331f, 0.31431934f, 0.03404999f, -0.03655433f, -0.06209775f, 0.03850359f, 0.00742052f, -0.02980594f, 0.01363308f, 0.03178033f, 0.17660658f, 0.01610121f, 0.10982210f, 0.02838248f, -0.94382292f, -0.46733406f, 0.04914851f, 0.03359728f, -0.01165374f, -0.47373608f, -0.24975997f, 0.01767016f, -0.20795958f, 0.00119655f, -0.06511547f, -0.02436304f, -0.07490488f, 0.03593082f, 0.00531244f, -0.27619144f, -0.06747443f, 0.04760388f, -2.58217239f, -0.10752665f, -0.06350590f, 0.02387098f, 0.04844696f, -0.11731388f, -0.06868601f, 0.04014013f, 0.06964187f, -0.05860481f, -0.00570323f, 0.00876905f, -1.14584446f, 0.01029181f, 0.00448292f, -0.02676277f, -0.06731735f, 0.00504022f, 0.03451025f, 0.56553566f, 0.01234959f, 0.05491466f, -0.01186515f, 0.05376925f, 0.09913360f, -0.26816222f, 0.02078894f, -0.04614312f, -0.31401664f, -0.04696216f, -1.19520783f, 0.02566953f, -0.20597604f, 0.01828692f, -0.94699377f, 0.02351879f, -0.02302165f, 0.01798067f, 0.45581377f, 0.04362379f, -0.02211574f, -0.00472805f, -0.06454016f, -0.00463793f, -0.10355671f, -0.03161624f, -0.31125075f, -0.08101989f, 0.01108440f, -2.04945135f, -0.86914420f, -0.01092072f, -0.01392613f, -0.37515235f, 0.04533913f, 0.05904628f, -0.10704473f, 0.01198061f, -0.03162858f, 0.01327374f, -0.03653187f, -0.63038868f, -0.02890574f, 0.31757298f, -0.32995936f, -0.01216414f, 0.04524896f, 0.05614026f,
    /* [11] */ -0.09868872f, 0.01833795f, -0.02916836f, -0.00597099f, -0.09931976f, 0.01243648f, 0.05773256f, 0.04499758f, 0.00377815f, -0.12845853f, -0.02959406f, 0.14789057f, -0.04084278f, -0.02590665f, -0.02771327f, -0.14676172f, 0.06616887f, 0.10154529f, 0.01490318f, -0.03850907f, -0.06987084f, 0.02946660f, 0.01050916f, 0.10063212f, 0.01915138f, 0.06627350f, -0.07087164f, -0.07644779f, -0.04429789f, -0.07520577f, 0.09011374f, 0.04978906f, 0.02500122f, -0.06611998f, 0.05344775f, 0.07290779f, -0.04370899f, 0.02682040f, -0.13651837f, -0.07924367f, -0.10412987f, 0.06472887f, 0.06619758f, 0.00919917f, -0.15026021f, 0.03921294f, -0.04105170f, -0.01599309f, -0.00396014f, -0.04449591f, -0.02987285f, 0.02785275f, -0.02836711f, 0.01375640f, 0.06782729f, 0.00744856f, -0.02257053f, 0.03438137f, 0.01445080f, 0.02000745f, -0.05616997f, 0.01059990f, -0.01858025f, -0.01124239f, -0.01114473f, -0.05901126f, 0.06995142f, 0.11447748f, -0.08156182f, -0.09739249f, -0.10711261f, -0.06980290f, 0.04753181f, -0.16585498f, 0.10258833f, 0.04548497f, 0.10865399f, 0.08196460f, 0.00189855f, 0.01448318f, -0.08392690f, -0.05017461f, -0.03365437f, 0.05007574f, 0.08403032f, -0.10852121f, 0.03848826f, 0.03601565f, 0.01343827f, -0.06343387f, -0.01917792f, 0.11289636f, -0.04118028f, -0.00787906f, 0.06731302f, 0.01434109f, -0.05073417f, -0.04598107f, -0.00701832f, -0.12456367f, 0.10856177f, 0.01430528f, -0.00049647f, 0.01024894f, 0.01665906f, -0.03771700f, -0.00069364f, -0.06069148f, 0.07002710f, 0.02599843f, -0.09035439f, 0.02047164f, 0.02437163f, 0.01500338f, -0.00637692f, 0.03653944f, -0.16235669f, 0.03752089f, 0.07584727f, 0.05380930f, -0.01261182f, 0.02177954f, 0.11221290f, 0.01218879f, 0.07673827f, -0.02143432f, 0.07283046f, -0.08566072f,
    /* [12] */ -0.18873905f, 0.05186162f, 0.04962049f, 0.04635440f, 0.05956514f, 0.00258388f, 0.07853036f, 0.02381939f, -0.04722811f, 0.08508579f, -0.01907445f, -0.00667563f, -0.07976309f, 0.10746075f, 0.01280601f, 0.01763698f, 0.00661223f, -0.01973489f, -0.05237414f, -0.01226922f, 0.00720904f, -0.00952755f, -0.04886917f, 0.09399474f, 0.04775899f, 0.02913370f, -0.03449158f, -0.04865672f, -0.01263063f, -0.09017909f, -0.04591526f, -0.00076438f, -0.02034963f, 0.02911783f, -0.04157237f, 0.03396841f, -0.00422816f, 0.03088853f, -0.00208424f, -0.03449034f, -0.10517741f, 0.02739823f, -0.01458141f, 0.05904407f, 0.08448274f, 0.08163390f, 0.03438041f, 0.00959435f, -0.04770690f, 0.06323946f, 0.16455020f, -0.06168530f, 0.03067104f, -0.16828062f, 0.15184750f, -0.01435110f, 0.01806960f, -0.01875565f, 0.06433108f, 0.01759844f, -0.05783761f, -0.05442096f, 0.01305194f, -0.04603672f, 0.02747436f, -0.04996788f, 0.06797078f, -0.08017124f, -0.10402834f, 0.00682053f, 0.03120914f, -0.08225808f, 0.12443003f, 0.12447725f, -0.09213277f, 0.00420128f, -0.04252597f, -0.04498468f, 0.02362446f, -0.02480970f, 0.00161729f, -0.05407447f, 0.06780837f, -0.00084067f, -0.09424191f, -0.04812362f, 0.03951137f, -0.07489964f, -0.01659428f, 0.04412540f, 0.23835480f, 0.00177988f, -0.08333355f, 0.08051332f, 0.09801635f, 0.02407122f, 0.02398979f, -0.03992960f, 0.14527217f, 0.06905484f, -0.03505177f, -0.00872326f, -0.01225646f, -0.13030666f, 0.03530825f, -0.05453466f, 0.02301404f, 0.05257483f, 0.03594915f, 0.21101287f, 0.18836780f, -0.05607248f, 0.03639942f, -0.04306201f, -0.01028122f, -0.05573610f, -0.06964789f, 0.04541522f, -0.07176323f, 0.06210792f, 0.03989209f, -0.23993635f, 0.05569137f, -0.00099334f, -0.00136773f, 0.00055041f, 0.04836614f, -0.09827764f,
    /* [13] */ -0.05718279f, 0.04424994f, 0.08224631f, -0.03601452f, 0.05540619f, 0.01170356f, -0.00616544f, 0.01542075f, 0.00874685f, -0.04982876f, -0.05579088f, 0.00201108f, -0.01814015f, 0.01829240f, -0.01578122f, 0.05243442f, -0.00438565f, -0.13109462f, -0.03728520f, -0.00890617f, 0.00954242f, -0.05823817f, 0.01324095f, 0.03232659f, -0.04644940f, -0.06218605f, -0.09833852f, -0.07066445f, -0.02939815f, 0.10866531f, -0.03818423f, 0.00396571f, 0.06698800f, -0.04275537f, -0.03159052f, 0.11465602f, -0.01732791f, -0.02046515f, -0.02160059f, -0.00100469f, 0.04479178f, -0.00502010f, -0.06496880f, -0.00704761f, -0.05489608f, -0.04347669f, 0.07441294f, -0.08975118f, -0.00211574f, -0.00605710f, 0.14059348f, 0.04403301f, 0.08449377f, -0.02754544f, -0.09199020f, -0.06738424f, -0.01115113f, -0.00475567f, 0.02538042f, -0.08613787f, -0.16242373f, -0.03609063f, -0.05754810f, 0.06820992f, 0.03893868f, -0.05860925f, -0.05852462f, 0.02119275f, -0.01861700f, 0.05189933f, 0.07190719f, 0.06021825f, -0.06265111f, 0.05928021f, 0.00169679f, 0.01121848f, 0.07901593f, -0.03516727f, 0.08159152f, -0.01029711f, -0.04333496f, -0.01724865f, -0.03637233f, -0.11005703f, 0.01032669f, -0.02391829f, -0.05438705f, -0.03303849f, -0.03120461f, -0.00341235f, 0.08078865f, -0.05043940f, 0.12974285f, 0.01954389f, -0.07808144f, 0.04765103f, -0.02844012f, -0.04156024f, -0.02472567f, -0.07157052f, 0.08512156f, 0.04030057f, 0.09319059f, -0.04327905f, -0.03176996f, -0.03188908f, -0.00090116f, 0.00439716f, 0.01218955f, 0.00709176f, -0.04028417f, 0.04391798f, 0.01220548f, -0.07387613f, 0.05278424f, -0.10612402f, 0.07115310f, 0.00581406f, -0.08050589f, 0.00126004f, 0.00415101f, 0.06321816f, 0.01803847f, 0.04295553f, -0.01772494f, 0.00491275f, -0.15633515f, 0.00201286f,
    /* [14] */ -0.08495177f, 0.00887040f, -0.06035733f, -0.04681868f, 0.05882595f, 0.03342148f, -0.01749607f, 0.00186091f, -0.02678523f, 0.00655962f, 0.00420326f, 0.04872178f, 0.01298900f, 0.04532875f, 0.04489798f, 0.07045224f, -0.01220703f, -0.14338124f, -0.02402655f, -0.03888473f, -0.09484354f, 0.01501642f, -0.01070768f, -0.03082845f, 0.01620576f, -0.05833604f, -0.01333727f, -0.03049892f, 0.01309023f, 0.06835880f, -0.07854820f, -0.05800312f, 0.06194435f, -0.06174475f, 0.00213820f, 0.07017761f, 0.01829980f, 0.01982392f, -0.04223873f, -0.02035912f, 0.05759552f, -0.03479928f, -0.04955630f, -0.04712050f, 0.09316278f, 0.00687528f, -0.05799054f, 0.04681128f, -0.04080217f, -0.04171708f, 0.05751790f, 0.04919483f, -0.07180038f, 0.04555731f, -0.01182719f, -0.02125769f, -0.02776915f, -0.03406475f, 0.04333685f, -0.01350484f, -0.02841365f, -0.02670430f, 0.02396240f, 0.14286859f, 0.01212307f, -0.02516104f, 0.03085341f, 0.00224575f, -0.06210060f, -0.04526924f, 0.02532079f, -0.03922477f, 0.02700658f, 0.02179467f, 0.06121999f, 0.04029181f, 0.01690759f, 0.11772849f, 0.07993752f, -0.06427865f, -0.13293891f, -0.12525783f, -0.04015603f, -0.02676070f, -0.01654203f, -0.00005311f, -0.00285358f, -0.01201579f, 0.04038035f, -0.11552953f, 0.07903469f, 0.00710260f, -0.06727714f, -0.01566156f, 0.09615953f, 0.06092985f, 0.02819742f, -0.01059014f, -0.06876554f, -0.11238717f, 0.08792669f, -0.01465620f, 0.02576071f, -0.05366837f, -0.02568247f, 0.01914004f, -0.00588953f, -0.03020195f, 0.01085672f, -0.06060033f, -0.00234079f, -0.03982503f, -0.00871347f, 0.03418301f, -0.04133949f, -0.02867879f, 0.00676228f, -0.00393571f, -0.06193067f, 0.07164513f, -0.02588228f, -0.04115647f, 0.09166747f, 0.03576702f, 0.01786667f, 0.02967100f, -0.06705563f, -0.04675470f,
    /* [15] */ 0.02007521f, 0.05354854f, 0.01767571f, 0.04564350f, 0.02018616f, -0.00920860f, 0.04323541f, -0.00776211f, 0.00446107f, -0.00393567f, -0.03798939f, 0.07740831f, 0.03563149f, 0.00284656f, -0.00154389f, -0.01039808f, -0.02016715f, -0.11452266f, 0.02441597f, 0.03008862f, 0.10673940f, 0.07929849f, 0.04411468f, 0.06853035f, 0.00314933f, 0.01806296f, 0.00435765f, 0.08243362f, 0.04065871f, 0.02957059f, -0.08765668f, -0.07721281f, 0.03256768f, 0.01295095f, -0.01830651f, -0.00788657f, 0.02157988f, 0.00952172f, 0.00730162f, -0.09129985f, -0.05007647f, -0.13863854f, 0.05792426f, 0.04387720f, -0.08661487f, 0.01797854f, -0.08827769f, -0.08381546f, 0.02442261f, 0.00771145f, -0.06855424f, 0.05853527f, 0.04125915f, 0.01146954f, -0.02510512f, 0.02716902f, -0.01615502f, 0.04170884f, -0.05425085f, -0.04078270f, -0.01747831f, 0.05119227f, -0.00308929f, -0.03648421f, 0.02659621f, 0.10344931f, -0.06623539f, -0.09938646f, 0.00983480f, -0.00789690f, 0.04672242f, -0.01684481f, -0.12084560f, -0.06309870f, -0.03070794f, -0.00850359f, -0.01321121f, 0.06605189f, -0.13519092f, -0.01027152f, -0.05979408f, -0.01584098f, -0.00992080f, -0.04228408f, 0.07539228f, -0.10995842f, 0.04235502f, -0.05504565f, 0.10700072f, -0.04856692f, -0.00764237f, -0.02812524f, 0.06211581f, 0.06276655f, -0.06942809f, -0.05238322f, -0.01997059f, 0.00780321f, -0.06285290f, -0.02406596f, 0.04168111f, 0.02110287f, -0.04204316f, -0.04658842f, -0.06568950f, -0.06767239f, -0.02831422f, -0.06035657f, -0.06268950f, -0.06851949f, -0.01373134f, 0.02490988f, 0.02859191f, -0.01997969f, -0.05168449f, -0.04405830f, -0.05146149f, 0.02650199f, -0.07919533f, -0.06743728f, -0.03118302f, 0.02661055f, 0.03474277f, 0.04251105f, 0.00293163f, -0.00912539f, 0.04000988f, 0.05059813f,
    /* [16] */ -0.00155678f, 0.02855692f, 0.01178546f, -0.08267076f, -0.03313380f, -0.02922189f, 0.03292418f, 0.01572465f, -0.04873369f, -0.02804903f, 0.04324309f, -0.06360631f, 0.05262434f, 0.06153576f, -0.00060766f, 0.03660905f, -0.04519263f, 0.13189879f, -0.07025008f, 0.03845444f, -0.13975342f, -0.03688484f, -0.00371489f, -0.10012393f, 0.00664284f, -0.11912988f, 0.03516253f, -0.09115216f, -0.00870684f, 0.11201775f, -0.00956917f, 0.01461342f, 0.05696719f, 0.09288064f, -0.01948094f, -0.02933328f, -0.08982374f, 0.02908090f, 0.06385231f, 0.08866003f, -0.01326932f, -0.04696952f, 0.03006633f, -0.09434222f, 0.01585563f, -0.04096330f, -0.00101571f, -0.00603191f, -0.09270608f, -0.09749904f, 0.03968268f, 0.14397044f, 0.00088319f, 0.02243809f, -0.07095845f, 0.02929729f, -0.02011329f, -0.05442591f, -0.00902483f, 0.02079824f, -0.02337663f, 0.00178005f, 0.00737854f, 0.07662790f, 0.00357924f, -0.01175952f, -0.00867833f, -0.09966816f, 0.03847004f, 0.05003827f, -0.02246423f, 0.00540224f, -0.07825010f, -0.01410823f, 0.02562154f, -0.03294842f, -0.09362040f, -0.03422558f, 0.03440430f, -0.04364324f, 0.05383918f, 0.02254109f, -0.03059512f, -0.00056574f, -0.00887231f, 0.08598312f, 0.02111774f, -0.05137398f, -0.03546683f, 0.08274907f, 0.02722842f, 0.02783484f, 0.04357376f, 0.04664025f, 0.05948243f, 0.05510580f, 0.08808922f, -0.05651837f, -0.00010746f, -0.03330610f, 0.01715903f, -0.10309658f, 0.08333526f, -0.08405102f, 0.04227505f, -0.00828534f, -0.09928308f, 0.11231538f, 0.08114702f, -0.03583239f, -0.03689098f, -0.00209704f, -0.01234214f, -0.04403722f, 0.05783698f, 0.05181721f, 0.01660929f, -0.00940506f, 0.01260151f, 0.04635995f, 0.06184220f, -0.03325174f, -0.00549424f, 0.07938555f, -0.05011085f, -0.08377098f, 0.07471556f, 0.00805756f,
    /* [17] */ -0.05620496f, 0.04019677f, 0.07148690f, -0.01294840f, 0.04160283f, 0.04627962f, 0.05257544f, 0.03257183f, -0.05091563f, 0.04666338f, 0.05531877f, -0.00635789f, -0.00709868f, -0.06282242f, -0.07054269f, -0.03658854f, 0.00946485f, -0.14783546f, -0.02530048f, 0.04860402f, -0.04175496f, -0.03234855f, 0.01288737f, 0.01662721f, -0.05954210f, -0.07099032f, -0.07382180f, 0.12653759f, 0.04757071f, -0.04904005f, 0.07726470f, -0.01072074f, 0.04755959f, -0.06972406f, 0.06658512f, 0.01912359f, -0.00842623f, -0.00975105f, -0.01107553f, -0.00983973f, -0.01074477f, 0.04634004f, 0.04557159f, -0.07841488f, -0.03723456f, 0.08425923f, -0.04506281f, 0.01779807f, 0.00712088f, 0.01079174f, 0.11236304f, -0.10628137f, 0.03761718f, -0.03041505f, 0.05207919f, -0.04245940f, 0.08227407f, -0.00789881f, 0.06501906f, -0.02306543f, -0.04129758f, -0.09153984f, 0.03357282f, -0.00983856f, -0.02836535f, -0.08046837f, 0.02218442f, -0.01885922f, -0.01762827f, -0.02731688f, 0.01984949f, -0.02228595f, -0.05368691f, -0.15908000f, -0.06990937f, 0.06635761f, 0.05602151f, 0.03784839f, 0.04752932f, -0.06764009f, -0.08028673f, -0.06994346f, 0.04100067f, -0.05775415f, -0.00722796f, 0.08542047f, -0.02390236f, -0.01432587f, 0.12610407f, -0.09467407f, 0.00527106f, -0.06514769f, -0.01869137f, 0.03141565f, 0.03212105f, -0.07935819f, 0.05005579f, -0.00486792f, -0.00985457f, -0.06216992f, -0.01087717f, 0.14788505f, 0.04511670f, -0.01098415f, 0.03286111f, -0.04093807f, 0.00443822f, 0.00506347f, 0.04671002f, -0.02486651f, 0.09142752f, 0.03220983f, -0.00890742f, -0.05666001f, -0.01687528f, -0.05370083f, -0.04828329f, -0.02220088f, -0.09234519f, 0.08942635f, 0.06729979f, 0.03192868f, 0.05320659f, -0.05559013f, -0.00112356f, 0.06590642f, -0.02252163f, -0.02450197f,
    /* [18] */ -0.08980557f, -0.03027126f, 0.04451044f, 0.02950832f, 0.06701481f, 0.00304924f, -0.06766082f, -0.13670085f, -0.11237235f, -0.04018793f, -0.07086881f, -0.13870426f, -0.00321823f, 0.15749222f, 0.01388343f, 0.07736095f, 0.01073346f, -0.14940712f, -0.04716638f, 0.01906088f, -0.03429814f, -0.02348893f, -0.14449617f, 0.10677955f, 0.05252380f, 0.06158094f, 0.08713884f, 0.09154204f, -0.02984550f, -0.01177871f, -0.00199101f, -0.00355395f, -0.06693964f, -0.05476579f, -0.04979347f, -0.01330207f, 0.03633928f, 0.06457393f, -0.10058161f, 0.04254192f, 0.13747463f, 0.06424171f, 0.30350050f, -0.17077126f, -0.03890269f, 0.10151890f, 0.01985319f, 0.09638283f, 0.00858522f, -0.04223682f, 0.07312729f, -0.04391363f, -0.02481990f, 0.07588739f, -0.11678799f, -0.01086094f, -0.02678363f, -0.06697695f, -0.00436558f, 0.02378980f, 0.00133989f, -0.03000207f, -0.03673602f, -0.09835927f, -0.02374399f, -0.07502296f, -0.12329777f, 0.01032256f, 0.01779605f, -0.03129485f, 0.08813239f, 0.00773858f, 0.16753902f, -0.04077049f, -0.07581440f, -0.05765465f, -0.03165715f, 0.06973485f, 0.01964269f, -0.07563062f, 0.00074622f, 0.06269780f, 0.01654002f, -0.06881527f, -0.00200514f, -0.00735285f, -0.12338301f, -0.05881072f, -0.20655607f, -0.02114461f, 0.22090721f, 0.01625481f, -0.00636207f, 0.08275656f, 0.15541232f, -0.03156622f, -0.07915685f, -0.01036165f, -0.03402139f, 0.08294943f, -0.02287392f, -0.02010719f, -0.01021231f, -0.00926360f, -0.14149301f, -0.08202630f, 0.04145569f, -0.02287652f, -0.06289084f, 0.29637802f, 0.08837611f, -0.04324146f, 0.04298218f, 0.15935645f, 0.02675376f, 0.05632183f, 0.10124538f, 0.03506202f, -0.12510432f, -0.03988126f, -0.01381709f, -0.41366735f, -0.04053908f, -0.05200892f, 0.09019227f, -0.06370039f, 0.05431133f, 0.07874993f,
    /* [19] */ 0.03655731f, -0.01115270f, -0.01784153f, -0.06484768f, -0.12016880f, -0.02376061f, 0.02332546f, -0.08806533f, -0.04683776f, 0.02332687f, 0.00200108f, 0.00133061f, -0.05121771f, 0.06848177f, 0.05609451f, 0.03767615f, 0.01230396f, -0.06645893f, -0.01594796f, -0.02930694f, -0.08681506f, 0.02362635f, -0.07985780f, -0.07395878f, -0.02372934f, 0.03810443f, -0.05203540f, -0.08105814f, -0.06132592f, 0.03159763f, -0.00928192f, -0.12245494f, 0.06589627f, -0.10717686f, 0.02571599f, -0.08717696f, -0.06239237f, 0.05366444f, 0.07303900f, 0.00065608f, 0.04177250f, 0.13040066f, -0.03279724f, 0.10072190f, 0.01407924f, 0.07545106f, -0.01674595f, -0.00440570f, -0.03536192f, -0.05843493f, 0.00118518f, 0.12635131f, 0.02379560f, -0.05225109f, 0.02234988f, 0.03985052f, -0.01869426f, -0.04011969f, -0.07677393f, -0.07973490f, -0.08543805f, -0.06809663f, -0.01251049f, 0.12793551f, -0.04686888f, -0.05303232f, 0.05596175f, -0.14644697f, -0.06849437f, 0.04075802f, -0.01852542f, -0.07064659f, 0.03905080f, 0.00013723f, 0.02543074f, 0.01122279f, -0.07342139f, 0.06231221f, 0.01246427f, -0.05972382f, -0.08605859f, -0.05473444f, 0.05106491f, 0.02056945f, 0.05980698f, 0.02388356f, 0.11508855f, -0.08309540f, 0.00108833f, 0.01638284f, 0.06413659f, 0.07283613f, -0.02867007f, 0.01047874f, 0.11802220f, 0.15591879f, 0.04447830f, -0.04600926f, -0.00641780f, 0.02336308f, 0.04333022f, -0.01730279f, 0.02106708f, -0.03569360f, 0.06671797f, -0.03627935f, 0.01901202f, 0.03586097f, 0.10163870f, 0.00984234f, -0.05441826f, 0.04008253f, 0.07510041f, -0.03657245f, -0.04750775f, -0.01164191f, -0.00149541f, 0.04447400f, 0.00740472f, 0.11323691f, 0.08128743f, -0.01409661f, 0.04551230f, 0.01558298f, 0.01602873f, -0.04722027f, -0.10629240f, 0.03576372f,
    /* [20] */ -0.05113324f, 0.04842209f, 0.04828641f, -0.07745201f, -0.06493800f, 0.03933761f, 0.00722960f, -0.02873195f, 0.04952243f, 0.01243248f, 0.06584833f, 0.05294177f, 0.02418197f, -0.06939716f, 0.00099280f, 0.17944932f, -0.01804962f, 0.03643161f, -0.08094277f, 0.00999068f, -0.01998915f, -0.03694172f, 0.01917403f, -0.03076890f, -0.11157446f, 0.03085763f, 0.14967781f, 0.03114412f, -0.01345153f, 0.05159234f, -0.01101567f, 0.05451326f, 0.03745167f, 0.13047904f, -0.04580339f, 0.05666432f, -0.05989526f, -0.02513416f, 0.11152869f, 0.01271143f, 0.05695803f, 0.08486418f, -0.03335311f, 0.00696977f, 0.06105530f, -0.02086034f, -0.00576295f, 0.06194489f, -0.06903376f, -0.00179232f, 0.07334438f, -0.00995398f, 0.04691252f, -0.11635033f, 0.01444395f, -0.03999739f, -0.11935246f, -0.12475951f, 0.03683810f, -0.00514979f, 0.09917882f, 0.03262287f, -0.03247137f, 0.10292982f, 0.01907561f, 0.04635609f, 0.00771108f, 0.02271573f, 0.03223676f, 0.01737472f, -0.09412245f, -0.03851049f, -0.01408070f, -0.03429294f, 0.08736920f, -0.02012434f, -0.12513380f, -0.05829807f, 0.00305692f, -0.02454219f, 0.05848841f, 0.04005412f, 0.01765359f, 0.12495597f, -0.00042113f, 0.03629955f, 0.12532859f, -0.05550546f, 0.00197790f, -0.11732187f, 0.04656086f, 0.05323321f, 0.02303938f, 0.09839021f, 0.04968794f, 0.04202934f, 0.05781041f, -0.04185730f, 0.10278361f, 0.01194933f, -0.05185167f, 0.01526764f, 0.06018760f, -0.04005393f, -0.01676909f, 0.02475620f, -0.04113235f, -0.02834934f, 0.00421801f, -0.05348849f, 0.00589260f, 0.00230004f, -0.06241944f, -0.08670939f, 0.06478141f, 0.04823622f, 0.06877557f, 0.04657331f, -0.03899207f, 0.05113396f, 0.02788915f, -0.03441506f, -0.13699065f, -0.02242501f, -0.10795970f, 0.05374676f, -0.09929147f, 0.00288325f,
    /* [21] */ -0.00955364f, 0.06263517f, -0.11599649f, 0.06910329f, 0.02268726f, -0.02335414f, 0.08077668f, -0.02664150f, -0.00363324f, -0.02025260f, 0.02379637f, 0.04752697f, 0.03717219f, 0.09311847f, 0.05446852f, 0.04234658f, 0.04073308f, -0.07481270f, 0.00490400f, -0.06932891f, -0.03342234f, 0.03040561f, 0.00777826f, 0.07533275f, 0.02545023f, 0.10862035f, -0.06886647f, -0.03691317f, -0.01730994f, 0.05914114f, 0.02570595f, -0.00444744f, -0.06146772f, -0.03979871f, -0.04750547f, 0.01496889f, -0.06489782f, 0.03423400f, 0.00215599f, -0.00171049f, -0.02094550f, -0.04469638f, 0.11057606f, 0.12026131f, 0.00738260f, -0.00116834f, -0.02564524f, -0.07462510f, -0.04139633f, 0.07254658f, 0.03373234f, 0.02018100f, 0.01922386f, -0.03854797f, 0.07700423f, -0.02112029f, -0.09740835f, 0.01612986f, -0.04874789f, -0.00445953f, -0.00463963f, -0.13096543f, 0.00318254f, 0.07918000f, 0.02676998f, -0.04838921f, -0.05717198f, -0.00250070f, -0.02159830f, -0.12164363f, 0.04436605f, -0.09210710f, 0.03053661f, 0.00168060f, -0.02667569f, 0.02768351f, 0.06764741f, 0.03418650f, 0.09450021f, -0.07078675f, -0.05698821f, 0.00508737f, -0.02173931f, 0.03466926f, 0.03704445f, 0.06236405f, 0.00645569f, -0.08443423f, -0.16804537f, 0.08411958f, 0.06303678f, 0.00923467f, -0.23116244f, 0.02409140f, 0.09072491f, 0.06127093f, -0.04038707f, -0.02269997f, 0.08842969f, 0.02481464f, -0.08526719f, -0.05811567f, -0.01251979f, -0.09972066f, -0.02767999f, 0.00891462f, 0.04490649f, -0.02403022f, 0.10537104f, 0.04062667f, 0.19057351f, 0.00020722f, 0.03384444f, 0.15585595f, -0.02584522f, -0.04845510f, -0.12461425f, -0.01558178f, 0.06333403f, -0.05434912f, 0.04540102f, -0.15578981f, 0.07057539f, 0.03856968f, -0.02781530f, -0.15023349f, 0.08605909f, -0.07430913f,
    /* [22] */ 0.06834707f, 0.00254103f, 0.01952793f, -0.09120194f, -0.00211618f, 0.07888953f, -0.03416656f, -0.10831341f, -0.03174936f, 0.00055536f, 0.00238523f, -0.08007548f, 0.00436092f, 0.02853612f, 0.06079106f, -0.00299332f, -0.02889507f, -0.01770019f, -0.00618058f, 0.00674051f, -0.01017689f, -0.00212135f, -0.01976892f, 0.02168364f, -0.01344838f, -0.07247247f, 0.00175610f, -0.05682886f, -0.04768909f, -0.11718700f, 0.06545941f, -0.02132737f, -0.03459486f, 0.02814212f, -0.00871656f, -0.07856241f, -0.00019140f, -0.01226529f, 0.01089534f, 0.01310322f, -0.07844481f, -0.04869304f, -0.12989059f, -0.04054124f, 0.01932516f, -0.04464850f, 0.04120960f, -0.03831294f, 0.07775556f, -0.05083625f, 0.03390679f, -0.02439737f, -0.00014908f, 0.13161366f, -0.05753879f, 0.02848439f, -0.00145094f, -0.01075931f, -0.01502898f, 0.00430265f, 0.03570961f, -0.01472572f, 0.04192712f, 0.00698245f, -0.05872875f, -0.03108979f, -0.04598034f, 0.01800212f, -0.03556228f, 0.02567330f, -0.03233628f, -0.03953583f, -0.07367685f, -0.11147550f, 0.00258098f, 0.04184065f, 0.06413765f, 0.11206861f, 0.05811563f, -0.05524186f, 0.00971675f, 0.07785195f, -0.02995963f, 0.07997381f, 0.01673659f, 0.10225635f, 0.10174297f, -0.01080112f, -0.22796188f, -0.00067075f, -0.08587851f, 0.04186794f, 0.02339448f, -0.01453577f, -0.13282700f, 0.11003478f, -0.02952791f, -0.00121522f, 0.05682157f, -0.01205827f, 0.00559108f, 0.00105289f, 0.03434774f, -0.08770387f, -0.01932762f, 0.02717801f, -0.05604668f, -0.07829718f, 0.05998164f, -0.11934885f, 0.10916557f, -0.03514726f, 0.00590169f, 0.01864913f, 0.10771818f, 0.01052881f, -0.06490743f, 0.18042299f, 0.10493402f, -0.02111353f, 0.04511457f, 0.10120628f, 0.06234911f, 0.03511598f, 0.11386126f, 0.04500967f, -0.05266764f, 0.06149687f,
    /* [23] */ -0.01605774f, -0.01191606f, 0.00066623f, 0.07461204f, -0.01907643f, 0.00243243f, -0.01284675f, 0.02145250f, 0.01957252f, 0.02860594f, 0.00075889f, 0.07197362f, 0.10874379f, 0.02407486f, -0.14392339f, -0.00204722f, -0.00052340f, -0.09843209f, -0.02302907f, -0.00703270f, -0.14476243f, 0.01922775f, -0.04173749f, 0.10269307f, -0.07049608f, -0.08531585f, 0.07296517f, -0.04175820f, -0.01617675f, 0.01401073f, 0.03767900f, 0.01909127f, -0.02615782f, 0.01189869f, 0.05778222f, -0.01575839f, 0.00798594f, -0.03792408f, -0.01449819f, 0.13901784f, -0.00243464f, 0.11195718f, 0.02169297f, -0.14082795f, 0.04683410f, -0.02441821f, -0.03478517f, 0.06430706f, 0.07573009f, -0.07712720f, 0.01169268f, 0.11887876f, 0.00702158f, 0.09552041f, -0.22637422f, -0.03311988f, 0.01090476f, 0.07132965f, 0.02556065f, -0.04910886f, 0.08230127f, -0.00239200f, 0.02677340f, -0.00710449f, 0.00013403f, -0.01382392f, 0.04917467f, 0.00538679f, 0.09224900f, 0.02073058f, 0.00579863f, 0.04261074f, -0.14098097f, -0.15995635f, -0.01009549f, -0.02223365f, -0.11519231f, -0.03856645f, -0.00322430f, 0.02845325f, 0.00003158f, -0.02798164f, -0.00104535f, 0.04140772f, -0.06204289f, 0.01688666f, -0.03253763f, -0.02741138f, 0.00360839f, -0.07330181f, -0.14563231f, 0.09400938f, 0.09141328f, 0.02345458f, -0.11472248f, 0.03137673f, -0.03938689f, 0.00077108f, 0.02230333f, 0.02986195f, -0.06058463f, 0.13033430f, 0.00139215f, -0.01729547f, -0.02028888f, -0.00446661f, -0.11625329f, 0.02162944f, -0.08592417f, -0.08955718f, -0.07888395f, -0.04560789f, -0.02243371f, 0.12386604f, -0.04959793f, -0.06344111f, 0.01069722f, -0.07746014f, 0.04616285f, 0.05625294f, 0.03172232f, 0.08136626f, -0.08269362f, -0.06355730f, 0.07868787f, -0.13661271f, -0.05534409f, -0.04802911f,
    /* [24] */ 0.02037735f, 0.02119295f, 0.03979398f, -0.01240604f, -0.04665383f, 0.02786276f, 0.03752956f, 0.00907545f, 0.06072615f, -0.09150200f, 0.05006558f, -0.11125220f, -0.00876921f, 0.02333057f, -0.02518934f, -0.05335585f, -0.05856720f, 0.06724992f, 0.00787322f, -0.01985889f, 0.04359318f, 0.11483248f, 0.08607411f, 0.07818048f, -0.06293477f, 0.00528710f, 0.03879524f, 0.00211362f, -0.06159854f, 0.04948175f, -0.05104416f, -0.08196812f, 0.04757077f, -0.08636150f, -0.01371477f, 0.03258886f, -0.03277657f, -0.02779196f, -0.00653843f, 0.10803793f, 0.00204308f, 0.03474355f, 0.03788077f, -0.09222986f, -0.02886957f, 0.05486030f, -0.06155848f, -0.00940026f, 0.04716204f, -0.00065414f, -0.06728596f, 0.02060136f, -0.03998635f, 0.05118674f, -0.00625209f, -0.05655618f, 0.05547095f, 0.02259006f, 0.06601818f, -0.05605769f, -0.05391853f, 0.03610621f, -0.01938034f, 0.07331052f, -0.00670933f, 0.07208614f, -0.02494634f, -0.08859330f, 0.07382672f, -0.02289449f, -0.02099092f, 0.05238031f, -0.13041162f, -0.01603240f, 0.02788309f, -0.04976907f, 0.01730621f, -0.11395042f, -0.05719863f, 0.06655224f, -0.05822572f, 0.04602218f, -0.06275699f, -0.04264829f, -0.04673975f, -0.00989244f, 0.05774072f, -0.04771820f, 0.16751912f, 0.08089610f, -0.00825598f, 0.02893331f, 0.05121228f, -0.01311375f, -0.04206569f, -0.03285894f, 0.01000731f, -0.04872412f, 0.06711382f, -0.01275184f, 0.10651486f, -0.01796475f, 0.01051375f, -0.08372281f, 0.00079127f, -0.03535773f, -0.08082428f, -0.00903041f, 0.01797215f, -0.06284245f, -0.03228390f, -0.06590664f, -0.02123393f, -0.00259733f, 0.04540186f, -0.01116175f, -0.00945431f, 0.00299146f, -0.05205638f, 0.03349100f, 0.04687519f, 0.05643711f, -0.02937782f, 0.00956493f, 0.03458541f, 0.00599865f, -0.02152073f, 0.00396987f,
    /* [25] */ -0.07658637f, 0.04559069f, -0.02278136f, -0.01086336f, -0.08740926f, 0.01081891f, -0.05527822f, 0.01766657f, -0.02934058f, 0.04658921f, 0.02330683f, 0.02320862f, -0.04236491f, 0.00327416f, 0.04322100f, 0.00409740f, 0.06139708f, -0.04357485f, -0.00825151f, -0.02176193f, 0.00417904f, 0.03628403f, -0.01130137f, 0.00899892f, -0.05825884f, 0.06561630f, 0.02594887f, -0.01933804f, -0.00680792f, -0.00983353f, -0.00774068f, 0.01655803f, 0.00280749f, -0.01562688f, -0.00226873f, -0.03228437f, 0.02520582f, -0.09901645f, -0.03144084f, 0.02358399f, -0.17734413f, -0.09457116f, -0.14681131f, 0.01703326f, 0.07922006f, 0.06017981f, -0.03830707f, -0.12210573f, -0.00566628f, -0.00923463f, -0.15050247f, 0.13630693f, -0.08890973f, 0.03822633f, -0.04173449f, -0.13290225f, -0.01655138f, 0.00853165f, -0.01064244f, 0.01339889f, -0.01570647f, -0.09023992f, -0.00216780f, -0.08550432f, -0.00114511f, -0.01496732f, -0.06785956f, 0.01893953f, -0.02416840f, -0.12288072f, -0.11906847f, 0.12900923f, -0.05822447f, -0.07322661f, -0.00616560f, 0.03060069f, 0.00996118f, 0.05642831f, -0.04320583f, -0.02573696f, 0.00743385f, -0.00221050f, -0.05042323f, -0.06741100f, -0.06250798f, -0.05401674f, -0.15281649f, -0.00557486f, -0.08349074f, -0.02666118f, 0.00023151f, 0.03517364f, -0.07132278f, -0.07782568f, -0.06251307f, 0.01749842f, -0.00827091f, 0.08512966f, -0.04710685f, -0.05454131f, -0.00413906f, 0.00851307f, -0.07797112f, 0.02679056f, 0.05333930f, 0.04071350f, 0.06446044f, -0.08897255f, -0.04701368f, -0.02642977f, -0.06773087f, 0.02346606f, -0.01193450f, 0.05791812f, -0.04460722f, 0.10453247f, 0.02749101f, -0.05149831f, 0.04500761f, -0.12388247f, -0.00922559f, -0.01300546f, 0.12348904f, -0.04650631f, 0.07363895f, 0.07217807f, 0.04284788f, 0.01542414f,
    /* [26] */ 0.00401244f, 0.02169468f, 0.01693633f, -0.00792724f, 0.00939499f, -0.09870654f, 0.09968445f, -0.02320022f, -0.05387336f, -0.04513805f, -0.09137429f, 0.04719648f, -0.05819813f, 0.03178148f, -0.03245535f, 0.08097891f, 0.00930704f, 0.03083680f, 0.04979355f, 0.07298768f, -0.11735613f, 0.00229116f, -0.02935259f, 0.01675732f, 0.08239670f, 0.09607270f, -0.07209363f, 0.07566103f, 0.02835753f, -0.07407773f, 0.00181972f, -0.00221042f, -0.06889150f, 0.03696345f, -0.00804841f, 0.11497480f, 0.02396403f, 0.02898991f, -0.09590009f, -0.02276612f, 0.12656307f, -0.02748946f, 0.16017643f, 0.09109977f, 0.01845182f, 0.12994245f, -0.11978190f, -0.06850310f, 0.03559918f, 0.01838644f, -0.00255776f, -0.06423365f, 0.07839496f, -0.04308948f, 0.00614695f, -0.04512060f, 0.12093844f, 0.00325223f, 0.03843309f, 0.00518337f, -0.09488427f, -0.07433606f, 0.03574923f, 0.00742496f, 0.03038862f, -0.05712095f, 0.06030689f, 0.06616557f, -0.04443817f, 0.01928071f, 0.03004332f, -0.09145764f, 0.04308802f, 0.08450247f, -0.08895233f, 0.03292774f, 0.00046121f, 0.03246171f, -0.10366818f, -0.04541418f, -0.06649785f, -0.02843456f, 0.00693689f, -0.01695741f, -0.00354042f, -0.03480283f, -0.01959642f, 0.00159552f, 0.06551210f, -0.09724896f, 0.05493753f, -0.03365581f, -0.08215365f, -0.04656824f, 0.15087017f, -0.07369875f, 0.05826456f, -0.11616118f, -0.00497781f, -0.05826422f, -0.07681035f, -0.06148128f, -0.01278802f, -0.04545144f, 0.02771460f, 0.03238760f, 0.03259455f, 0.02571405f, 0.02858292f, 0.13255376f, 0.16920339f, -0.02704118f, 0.07808796f, -0.01117230f, -0.04962665f, -0.01480056f, 0.06965242f, 0.13238114f, -0.05316297f, 0.09757629f, -0.00409275f, -0.10501969f, 0.01025923f, 0.05738760f, -0.02897129f, -0.02917612f, -0.01691717f, -0.00683969f,
    /* [27] */ 0.04142258f, 0.01660811f, -0.04858108f, -0.19095685f, -0.01891483f, -0.02966315f, -0.11061983f, -0.02864265f, 0.04237927f, 0.08065350f, 0.01590690f, -0.12929925f, 0.12718639f, 0.07531723f, -0.16469347f, 0.04612052f, 0.05162845f, -0.05978074f, -0.03645480f, -0.07397263f, -0.03369558f, -0.00399912f, 0.00490764f, -0.06835777f, -0.00986107f, -0.18196128f, 0.00616766f, -0.02297157f, -0.00866324f, 0.10969032f, -0.01942386f, 0.08315356f, 0.05098592f, -0.03103787f, -0.07879485f, -0.02706208f, 0.07485761f, 0.03311874f, 0.14375556f, -0.06646060f, 0.09334830f, 0.00272551f, -0.10321417f, -0.30537087f, -0.26531383f, -0.04896134f, -0.02856323f, 0.02662696f, 0.16455093f, -0.01688713f, 0.06731650f, 0.11007363f, -0.00617922f, -0.03604102f, -0.17779467f, -0.02196529f, 0.11139352f, 0.13508785f, 0.03099199f, 0.02493581f, 0.06848122f, 0.06494471f, -0.03406734f, -0.08715086f, 0.01838923f, 0.04775099f, 0.01120169f, -0.04264992f, 0.02285115f, 0.00604881f, 0.00709029f, -0.01147028f, -0.12117985f, -0.46885207f, -0.10343432f, -0.05100613f, -0.07548367f, 0.02687895f, 0.05113526f, -0.06042477f, 0.01688919f, -0.01018703f, -0.01930283f, 0.01756740f, -0.00818477f, 0.10669647f, -0.06193504f, -0.05372450f, 0.01818845f, 0.00019327f, -0.22802185f, -0.04476991f, -0.04394653f, -0.01331759f, -0.14555196f, -0.04841822f, 0.02980786f, 0.15237266f, -0.01653178f, -0.06431779f, -0.01779810f, 0.15726966f, -0.01965876f, 0.09377774f, -0.00952982f, -0.01504358f, -0.15572235f, 0.01241656f, -0.05354896f, -0.11967379f, -0.22594665f, 0.07511842f, -0.11316910f, -0.01734965f, -0.09469561f, 0.00581882f, 0.12959890f, 0.08745994f, -0.06547061f, -0.05607805f, 0.01517802f, 0.29147279f, 0.00104441f, 0.03732214f, 0.00769030f, 0.02003985f, -0.07808858f, -0.04549617f,
    /* [28] */ 0.04450544f, 0.00258695f, 0.01426988f, -0.11599928f, -0.09615285f, -0.02216100f, 0.06432309f, 0.06184629f, 0.05258989f, 0.02822727f, 0.05416666f, 0.02966411f, -0.01350725f, 0.02660149f, 0.02468289f, 0.00595512f, -0.06347097f, -0.01002328f, 0.11732361f, 0.06735753f, 0.05899391f, -0.06980424f, -0.02485640f, -0.03237515f, -0.01457365f, 0.07527622f, 0.01473338f, -0.07056952f, -0.01024019f, 0.01431657f, -0.02412026f, 0.04821748f, -0.01798766f, -0.07937428f, -0.04395433f, 0.08021104f, -0.07069527f, 0.02081833f, 0.03990709f, 0.02301900f, 0.01037064f, 0.04415460f, -0.10724387f, 0.00433519f, 0.13018781f, -0.00921945f, 0.09781387f, -0.07852682f, -0.06052500f, 0.02805465f, -0.00888167f, 0.05790837f, 0.00858752f, 0.11386628f, -0.06545825f, -0.00296324f, -0.01959022f, 0.02215657f, 0.08252318f, -0.00986048f, -0.06756062f, -0.00573433f, 0.03804559f, -0.06179618f, -0.03152728f, -0.02784037f, 0.02255699f, -0.00306852f, -0.02081864f, 0.03658929f, 0.04688549f, 0.00831921f, -0.02344215f, -0.07252163f, -0.00024497f, -0.03886060f, 0.01803836f, 0.03003040f, -0.04423552f, -0.00774246f, 0.00185255f, 0.03432357f, -0.06199325f, -0.02067776f, -0.01528105f, 0.02091289f, -0.06209447f, 0.19128068f, -0.19363742f, 0.04445814f, -0.03257379f, -0.04073308f, -0.00236896f, -0.04001609f, -0.13278411f, -0.09720919f, -0.04387782f, -0.02274863f, -0.00332582f, -0.03308427f, -0.01287210f, -0.04948632f, -0.04850282f, 0.05248820f, 0.03738606f, -0.05558194f, -0.02979903f, 0.06096482f, -0.00078309f, -0.07569572f, -0.03971897f, 0.01449610f, 0.08156640f, 0.08264089f, 0.01082942f, -0.05246770f, 0.00510064f, 0.02257629f, 0.02631206f, -0.01213556f, 0.01499230f, 0.08327007f, -0.04424450f, 0.00116967f, -0.06962370f, 0.03864022f, 0.00619086f, -0.05284247f,
    /* [29] */ 0.49822718f, 0.01432866f, -0.02886129f, -0.95903844f, -0.05844023f, -0.02243074f, 0.00840350f, 0.01969004f, 0.02881266f, 0.02284564f, -0.00335698f, -0.33957642f, 0.07171241f, -0.03166148f, -0.12954606f, -0.23321301f, -0.03675894f, -0.43058699f, 0.13431697f, -0.04431007f, 0.12368288f, -0.00965237f, 0.06210672f, -0.77555102f, -0.02255949f, -0.06465437f, -0.05062343f, 0.48401359f, 0.03625758f, -0.07224331f, -0.22685696f, -0.02232063f, 0.02426422f, -0.04284633f, 0.05877301f, 0.00063480f, 0.01764118f, -0.00393341f, -0.30537781f, 0.00147911f, -0.13070016f, -0.03296094f, 0.44110498f, -0.09857339f, -0.92602623f, -0.05526234f, 0.00762033f, 0.98246878f, 0.12988478f, -0.01708770f, -0.19837965f, -0.01648479f, 0.02650364f, 0.00854001f, -0.91596752f, 0.00471088f, 0.04392232f, 0.17571457f, 0.01668180f, -0.00073414f, -1.34599996f, 0.06860154f, 0.02988253f, -0.00840948f, -0.01735101f, 0.08313089f, 0.02726059f, -0.22985817f, -0.03298439f, 0.00230559f, -0.03679447f, 0.06298096f, 0.68204987f, -1.57443428f, 0.02406736f, 0.02403400f, 0.23040518f, -0.03812962f, -0.04569286f, 1.88689518f, -0.01067381f, -0.03254319f, 0.00461398f, -0.03663869f, -0.25280035f, 1.02269816f, 0.00399211f, 0.03845066f, -0.78288573f, 0.06823658f, 0.34980041f, 0.02064382f, 0.80281788f, -0.03594017f, 0.77771389f, -0.01159358f, 0.02806074f, 0.02356529f, -0.72421539f, -0.01581910f, -0.00032914f, 0.01186558f, 0.01825039f, 0.00866117f, 0.06246956f, -0.00844537f, -0.33058700f, 0.01863928f, 0.01532554f, -0.11892036f, 0.02740682f, 0.03840907f, -0.01648715f, 0.09934687f, -0.01108767f, -0.05142501f, -0.01140391f, -0.05689025f, 0.03718364f, -0.06386369f, 0.00964192f, -2.40672588f, 0.01325897f, -0.04262829f, 0.14667661f, -0.02740341f, 0.46968293f, -0.00182107f,
    /* [30] */ 0.01482322f, -0.02014203f, -0.01216655f, -0.02948830f, -0.00634357f, -0.02938822f, -0.03946744f, 0.02922468f, -0.04205720f, 0.09096137f, 0.00241023f, 0.01115200f, -0.00217449f, -0.01454496f, 0.01891496f, -0.03986778f, -0.06381667f, -0.11045767f, 0.12220378f, 0.07056378f, -0.03390725f, -0.07409073f, 0.01884622f, -0.12015487f, 0.01261125f, -0.07759049f, 0.03807044f, 0.02252324f, 0.04892052f, 0.08223920f, 0.02477405f, -0.01627252f, -0.07537701f, -0.08843177f, -0.09839931f, 0.05535545f, -0.01252708f, -0.01296544f, 0.04190370f, -0.00684093f, -0.00453166f, 0.01209252f, -0.08129104f, 0.03091495f, 0.02540854f, 0.02354897f, -0.01713630f, -0.06229383f, -0.00878717f, -0.00400834f, 0.02387615f, 0.04920555f, 0.07480985f, -0.00314255f, 0.04614787f, 0.04907951f, 0.09331621f, 0.00761612f, 0.02595759f, 0.05619640f, -0.00517494f, 0.03742115f, -0.05706641f, -0.03326675f, -0.07347181f, 0.03076460f, -0.06697426f, -0.03739524f, 0.03807181f, 0.10112572f, -0.04983678f, -0.01149613f, 0.00890485f, 0.13638170f, -0.00382160f, 0.02059628f, 0.00847137f, -0.03075857f, 0.06157420f, 0.03604095f, 0.00610254f, 0.01821381f, 0.00801271f, -0.08521648f, 0.01733543f, 0.07049199f, -0.03598842f, 0.04618649f, -0.03898251f, -0.03957266f, 0.01335477f, -0.02641653f, 0.06902079f, 0.02753065f, -0.09461325f, -0.12317397f, -0.00813615f, 0.01530314f, 0.07631540f, 0.03791169f, -0.02162306f, 0.08437721f, -0.03536132f, 0.04187503f, -0.14205258f, 0.03619906f, 0.00984984f, 0.01402242f, -0.05602206f, -0.08533984f, 0.13484016f, -0.00216446f, 0.03774551f, 0.02290268f, 0.06614346f, 0.06403025f, 0.08218789f, 0.02573892f, 0.03987105f, 0.04099824f, 0.08524909f, 0.05820090f, 0.02096064f, -0.02656512f, 0.01722918f, 0.05932579f, -0.14855698f, -0.05368545f,
    /* [31] */ -0.02825143f, -0.06239388f, -0.00234586f, -0.10098239f, 0.07318134f, 0.10833365f, -0.03357175f, 0.08966210f, -0.07593890f, 0.05321265f, -0.07466435f, 0.02406406f, 0.03183205f, 0.04640775f, -0.00216735f, 0.03152176f, -0.01543380f, 0.03665143f, -0.09558411f, -0.02968664f, -0.01682329f, -0.01320746f, -0.00359699f, 0.03220102f, 0.00174708f, -0.03533318f, -0.00340115f, -0.05231836f, 0.01869246f, -0.08518363f, -0.02370943f, 0.07601793f, 0.03814662f, -0.03825826f, 0.04485847f, 0.00971547f, 0.13476284f, 0.00726334f, 0.08333863f, 0.08296798f, 0.08122645f, -0.08652646f, -0.10878633f, -0.13110335f, 0.13123499f, -0.02029518f, 0.07678789f, 0.00301221f, 0.05927815f, -0.02586210f, -0.06187078f, 0.01782277f, 0.02172612f, 0.03701569f, -0.11989370f, 0.05068749f, -0.03617055f, 0.06453107f, 0.04017156f, -0.02750258f, 0.08130567f, 0.02756348f, -0.13977078f, 0.00401011f, -0.01741863f, 0.06466254f, -0.03480673f, 0.01899942f, 0.02149683f, 0.06392765f, -0.04988042f, 0.07942373f, -0.05220414f, -0.06775654f, 0.02970869f, -0.06524526f, -0.12679814f, 0.04555547f, 0.08382241f, 0.03301126f, 0.09223185f, -0.02115056f, 0.01136347f, -0.00306225f, -0.04463065f, -0.00469788f, -0.04098422f, 0.01715913f, -0.14584282f, -0.05215486f, -0.08069531f, 0.07732288f, 0.17731577f, -0.01271827f, -0.05762543f, -0.06878802f, -0.00223167f, 0.03916676f, 0.02063507f, -0.03073311f, 0.01915511f, -0.00538816f, -0.04806860f, 0.03159954f, -0.03870669f, 0.01143824f, -0.01685577f, -0.00587981f, -0.07587839f, -0.08714312f, -0.02138966f, 0.08351536f, -0.09928849f, 0.11304653f, -0.03804220f, 0.05965369f, 0.09948479f, 0.05632420f, 0.05403395f, -0.04652194f, -0.05627470f, 0.08419925f, -0.01230862f, -0.04526503f, 0.05688335f, -0.01534627f, -0.05216566f, 0.01758831f,
    /* [32] */ -0.04442579f, -0.01829051f, -0.05292588f, -0.12598307f, -0.16074625f, 0.05807132f, -0.11479673f, 0.02936217f, -0.05817662f, -0.04029761f, -0.03898027f, 0.10084724f, -0.04964513f, 0.01160714f, 0.00209627f, 0.03126784f, 0.00835238f, -0.00128572f, 0.05688534f, -0.08915197f, -0.01036513f, -0.03250546f, 0.04711949f, 0.05268887f, -0.03711710f, 0.01944302f, 0.02409956f, -0.11483879f, -0.09045548f, -0.07621046f, 0.08111852f, 0.03921066f, 0.00172404f, -0.04428924f, 0.11855959f, -0.01969514f, -0.05237461f, -0.07553966f, 0.17456214f, 0.05808336f, 0.06598388f, 0.02699178f, -0.05224697f, -0.06012664f, 0.00800877f, 0.01137048f, -0.03319255f, -0.00818091f, -0.01752968f, -0.06590289f, 0.03023511f, -0.00247909f, -0.05527995f, -0.00681336f, -0.04517357f, -0.02124330f, 0.03015124f, -0.04095282f, 0.02899403f, -0.06876211f, -0.06387605f, -0.03746730f, 0.03270078f, 0.01615241f, -0.03975588f, -0.00968901f, -0.01419700f, 0.03064640f, 0.01243953f, -0.07390489f, 0.01436959f, 0.10415968f, 0.02016579f, 0.00691377f, 0.01702462f, -0.06467727f, -0.07863938f, -0.05218084f, 0.04765998f, 0.04006050f, -0.01736828f, -0.03535714f, -0.02496533f, -0.08029256f, 0.05889364f, 0.14255689f, 0.02558140f, 0.02864971f, -0.12920699f, 0.02100884f, -0.08011726f, 0.07637326f, -0.03960410f, -0.09336912f, -0.04996030f, -0.02761387f, -0.08191480f, 0.04755387f, 0.03525878f, 0.00059467f, 0.05475087f, -0.00712908f, -0.04309613f, 0.05474354f, -0.02397329f, 0.05751912f, 0.05172961f, -0.06267071f, 0.01454649f, -0.03578885f, -0.01963199f, -0.06253587f, -0.03146258f, 0.00688980f, -0.08043545f, 0.00339751f, -0.16495448f, 0.02073406f, -0.09180278f, -0.10786107f, 0.07872836f, 0.02347054f, -0.07607194f, -0.04461685f, -0.00033239f, -0.04493139f, -0.02837810f, -0.02670998f,
    /* [33] */ 0.01376838f, 0.09639240f, 0.04404262f, -0.05159631f, 0.02327770f, -0.00006444f, 0.06189795f, 0.00351554f, 0.02414256f, -0.02778726f, -0.02771923f, 0.10889638f, -0.02557507f, 0.03904058f, -0.06585941f, -0.01261097f, 0.08957569f, -0.01789096f, -0.02875992f, 0.04620078f, 0.01111149f, 0.08948299f, -0.09394966f, -0.03092271f, 0.09368651f, 0.06547685f, -0.06268750f, 0.02182493f, 0.00416497f, 0.05411708f, -0.00615782f, -0.00913179f, -0.02219338f, 0.10295926f, -0.03909569f, 0.01687394f, 0.04410281f, -0.09535442f, 0.05502737f, 0.02457359f, 0.03397284f, -0.05710992f, -0.04539574f, 0.04319894f, -0.07601053f, -0.02568515f, 0.03818759f, 0.03736366f, -0.04085507f, 0.04363540f, -0.02236539f, 0.08541116f, 0.03315798f, -0.00901604f, -0.03890057f, -0.05262626f, -0.16915718f, -0.06733979f, 0.05470832f, -0.05382993f, -0.07242234f, -0.01862225f, 0.00591529f, -0.03102909f, 0.01861665f, -0.00762490f, 0.10597875f, 0.04262791f, -0.02959388f, -0.06663732f, 0.06278211f, -0.01822257f, -0.10334782f, -0.00739795f, 0.03176547f, 0.08118547f, 0.01406321f, 0.05850561f, -0.04877870f, -0.06257182f, -0.03796192f, 0.08396209f, 0.08095501f, -0.09339034f, 0.04499079f, -0.06587661f, -0.02100988f, 0.04679956f, 0.01276878f, 0.00890168f, -0.07364675f, -0.02894865f, -0.01033605f, 0.10273522f, -0.03327393f, -0.04489484f, -0.14411405f, -0.03685506f, -0.05721758f, 0.04091201f, -0.06037985f, 0.09264818f, 0.06876393f, 0.01408565f, 0.06192239f, 0.07984229f, -0.06970558f, 0.10126906f, 0.07614452f, 0.03059900f, 0.03315736f, 0.03471574f, 0.00769406f, 0.00038663f, 0.06907219f, -0.00399957f, 0.04501968f, 0.05017334f, 0.11140126f, 0.03382093f, -0.04605993f, 0.03491428f, 0.11162307f, 0.06003182f, -0.08370024f, 0.03907224f, -0.16482750f, -0.02041801f,
    /* [34] */ 0.06783886f, 0.02860788f, -0.01273337f, 0.15305443f, 0.03508232f, 0.06069115f, -0.09957881f, -0.09824961f, 0.05484617f, 0.01243606f, -0.03378949f, 0.02180252f, -0.04043034f, 0.06078234f, -0.00650486f, -0.03901270f, 0.10220852f, -0.14947213f, 0.05696929f, 0.02823257f, 0.03629621f, -0.02840938f, -0.02571233f, 0.11222837f, -0.05237523f, -0.01102616f, -0.00577570f, -0.03078901f, 0.08384407f, -0.04397465f, 0.12949686f, 0.01098236f, -0.05237481f, 0.05251053f, 0.04185995f, 0.11759263f, 0.14962675f, -0.02991744f, 0.09472012f, 0.03885778f, 0.09006958f, 0.11133223f, -0.05802487f, 0.07050090f, -0.36073613f, 0.03253180f, -0.05523733f, 0.07704360f, -0.02040982f, 0.01155801f, 0.08745294f, -0.02267937f, -0.07435558f, -0.05596051f, -0.05713791f, 0.03027518f, -0.08202096f, 0.04747120f, 0.12513167f, 0.04436483f, -0.06675021f, -0.00670560f, -0.02124130f, 0.06530286f, 0.01882221f, 0.01088479f, 0.08559141f, 0.14471720f, 0.01536755f, -0.07597740f, 0.14400020f, 0.03871514f, 0.02570713f, -0.18564929f, 0.03895012f, -0.01881089f, 0.01802101f, 0.01488928f, 0.01722793f, -0.08045395f, 0.00859450f, -0.02987788f, -0.00054866f, -0.07097591f, 0.09532657f, -0.09997862f, -0.04245965f, 0.04818430f, 0.12509896f, -0.12422200f, -0.07349702f, -0.02993326f, 0.07926477f, 0.01866834f, -0.01095101f, -0.12253834f, -0.02244303f, 0.09321405f, 0.01723403f, 0.01433494f, 0.01034104f, 0.01374602f, 0.06351069f, 0.06827714f, -0.03254001f, 0.13302334f, -0.07145151f, 0.16893488f, -0.03443080f, 0.02223008f, -0.09464337f, 0.08520754f, -0.00062071f, -0.02934504f, -0.02484255f, 0.03655770f, -0.05563537f, -0.00702164f, -0.02168568f, 0.06829500f, 0.04750166f, 0.04697734f, 0.04076781f, -0.05514178f, -0.01594243f, 0.02224494f, -0.00209541f, 0.03663439f,
    /* [35] */ 0.00121321f, -0.03056652f, 0.03805935f, 0.09833623f, -0.02312572f, -0.02878511f, 0.01434938f, -0.09055252f, -0.06939338f, 0.00192230f, 0.11168064f, 0.02326785f, 0.01764915f, -0.05130928f, 0.03094985f, 0.08978932f, -0.00273420f, 0.05531080f, 0.07120813f, -0.09985290f, -0.07547464f, 0.01004933f, -0.08859664f, 0.01077533f, 0.05620408f, 0.02465364f, -0.03814788f, -0.00946390f, -0.03805460f, -0.11637790f, -0.03595948f, -0.06714473f, -0.01600966f, 0.01583713f, -0.06135478f, -0.03862250f, 0.06909871f, -0.11395979f, 0.03247852f, -0.01887692f, 0.01063059f, -0.01212871f, -0.01843125f, 0.02285867f, -0.01003617f, 0.01643420f, -0.05895951f, 0.04424394f, 0.09183002f, -0.01201991f, -0.04351977f, 0.06118594f, -0.08985360f, 0.03374957f, 0.02995316f, -0.01514090f, 0.09751606f, 0.05083802f, 0.00606146f, 0.04648146f, 0.10289387f, -0.06489188f, -0.05685897f, -0.10579246f, -0.07210658f, -0.05649655f, -0.15212426f, -0.03177200f, 0.09132009f, -0.07913759f, -0.03806356f, -0.01070227f, 0.00924593f, 0.15025675f, 0.03673001f, 0.04475750f, -0.03286162f, 0.00643164f, -0.02129923f, 0.06544529f, 0.06229633f, 0.03651686f, 0.04941616f, -0.00336206f, -0.01016604f, -0.05750895f, 0.01104690f, 0.07422877f, 0.02707152f, -0.05273887f, 0.03898447f, 0.01221531f, 0.00894249f, -0.04465841f, 0.05236840f, -0.14341874f, 0.06236554f, -0.03653514f, 0.00311713f, 0.00651279f, -0.05467325f, -0.01733485f, -0.04976786f, -0.04839593f, 0.06326634f, -0.04225104f, -0.04188797f, 0.05718094f, -0.11416736f, 0.13774681f, 0.09897120f, -0.03972309f, -0.06869030f, 0.05803406f, 0.05067334f, 0.03495381f, -0.00128180f, -0.00028631f, -0.02514691f, 0.05326423f, 0.08682878f, -0.07154469f, -0.01567490f, -0.07857775f, 0.03323391f, -0.03729327f, -0.13568866f, -0.02797960f,
    /* [36] */ 0.00037243f, 0.00436017f, -0.02073403f, 0.09403193f, 0.00579006f, -0.06474882f, 0.12868787f, -0.04270777f, 0.03569812f, -0.09566373f, -0.04474119f, -0.00058995f, -0.09599683f, -0.14168945f, 0.07065111f, -0.04910414f, -0.06320993f, -0.05687601f, 0.06341610f, -0.15602732f, 0.05102453f, 0.06630739f, 0.04077926f, 0.09416555f, -0.03171827f, 0.02070884f, -0.08508354f, -0.01033890f, -0.18439667f, 0.02565069f, -0.03853552f, -0.04249308f, 0.02136312f, -0.04819935f, 0.08144853f, 0.04280174f, 0.06284210f, 0.19140752f, -0.09847508f, -0.03908599f, -0.07276917f, -0.11080384f, -0.01797339f, 0.09243784f, -0.01207664f, -0.01111499f, -0.21275549f, -0.14810690f, -0.02183525f, -0.09648773f, -0.04075748f, 0.02336274f, -0.10298430f, -0.03696713f, -0.01426444f, 0.09021316f, 0.14451681f, 0.02994748f, -0.04364817f, 0.03660183f, -0.07751040f, -0.06559866f, 0.07539194f, 0.02268368f, -0.00409177f, -0.00364970f, 0.04680935f, 0.07677919f, -0.04156999f, -0.12143950f, -0.10691542f, -0.05517909f, 0.06141774f, -0.09428154f, 0.02015903f, -0.00336043f, 0.08029336f, -0.07479913f, 0.12804510f, -0.01855030f, 0.03736963f, -0.05867856f, 0.11480088f, 0.00502416f, -0.06353644f, -0.02366366f, 0.08809912f, -0.02453354f, -0.15618892f, -0.12231796f, 0.05516803f, 0.05179843f, -0.06888328f, 0.16197002f, 0.02892438f, 0.14717068f, 0.03847457f, -0.01797610f, -0.00868442f, 0.00369477f, -0.02287876f, 0.12304980f, -0.12796983f, -0.14963523f, -0.04361180f, -0.01117850f, -0.07155534f, -0.11413632f, 0.17311206f, -0.14363421f, -0.01314694f, -0.00151235f, -0.06977330f, 0.00525564f, -0.07426217f, -0.11890978f, -0.00359920f, 0.06993387f, 0.11023828f, -0.01478133f, 0.02157281f, -0.01768037f, 0.06376379f, 0.05420268f, 0.05381551f, -0.09321607f, 0.03645048f, 0.00572634f,
    /* [37] */ -0.24830543f, -0.02599498f, -0.08431709f, 0.07248709f, -0.00175246f, 0.04805054f, 0.06569735f, 0.08344884f, 0.07781549f, 0.08957863f, 0.05352793f, 0.21097608f, -0.01585370f, -0.02629101f, -0.09992731f, 0.10297026f, -0.03068984f, 0.15954581f, -0.07067523f, -0.10690662f, 0.03320268f, 0.05274152f, 0.05340171f, 0.01603618f, -0.06324879f, -0.28608194f, -0.08038457f, -0.42963323f, -0.04505791f, 0.25724611f, 0.23177603f, 0.02803875f, 0.09864055f, -0.11135837f, -0.04082406f, 0.06027977f, -0.00804274f, -0.09641995f, 0.42357942f, -0.02558668f, -0.09820424f, -0.11366390f, -0.81564265f, -0.06975667f, 0.55093056f, -0.03232701f, 0.03632014f, -0.38665247f, -0.12698655f, 0.05433581f, -0.12882727f, 0.02639811f, 0.10891657f, 0.12899943f, 0.34218425f, -0.10804310f, -0.03145678f, -0.01720905f, 0.07017388f, -0.09871484f, -1.07464314f, 0.04107381f, 0.10638627f, -0.09792949f, -0.06966566f, 0.04048994f, 0.08633976f, 0.25176778f, -0.12965669f, -0.04080717f, 0.00220801f, 0.01563211f, -1.26887548f, 0.83080333f, -0.00181079f, 0.02327964f, -0.15572433f, 0.00433127f, -0.04159002f, -0.56874233f, 0.01199103f, -0.09957116f, -0.00414835f, -0.03292247f, 0.14427154f, -0.44259319f, 0.05008154f, 0.04275672f, 0.67505056f, 0.00037347f, -1.55802870f, -0.03862726f, -0.35777986f, 0.01663721f, -1.48739779f, -0.03012230f, 0.01866921f, 0.01973151f, 0.22601117f, -0.08408865f, 0.05847589f, -0.03563729f, -0.01462640f, -0.02993161f, 0.18664637f, 0.04074626f, -0.03891961f, 0.07143294f, -0.01260634f, -1.13384938f, -1.29016995f, 0.03781033f, 0.06771360f, -0.21416828f, -0.09133589f, -0.12038422f, -0.11535470f, -0.01138612f, 0.02127371f, 0.00514734f, 0.07059027f, -0.01950944f, 0.04488971f, 0.14759012f, -0.15288018f, -0.00343192f, -0.17612067f, -0.08384267f,
    /* [38] */ -0.12437854f, 0.07047355f, -0.00073171f, -0.01018320f, -0.05562652f, -0.08198562f, -0.01471188f, -0.02191272f, 0.04458077f, -0.08158232f, -0.02620842f, -0.08359435f, 0.06778610f, -0.01974613f, -0.00845350f, -0.09204976f, -0.03779136f, -0.01762904f, -0.01548023f, 0.02101007f, -0.01917643f, 0.06564205f, -0.02273544f, 0.01991407f, -0.00674960f, -0.07841893f, 0.02798265f, -0.05791380f, -0.02676355f, -0.06127365f, 0.05238139f, 0.04969497f, -0.03656865f, 0.08350045f, 0.02575946f, -0.05997950f, -0.05396950f, -0.00992817f, 0.00205241f, -0.00191768f, 0.02705829f, -0.02546224f, 0.04316322f, -0.03799108f, -0.10328440f, 0.04652559f, 0.10748615f, -0.11194727f, 0.02648855f, -0.04474514f, 0.06841881f, -0.03744268f, -0.05503153f, -0.03696886f, -0.04624765f, 0.01624231f, 0.02326031f, 0.04016209f, 0.04426845f, 0.03242591f, 0.01596233f, 0.04108867f, -0.01440205f, -0.04109691f, 0.03971229f, 0.08265431f, 0.08845282f, 0.10547433f, 0.06271774f, 0.02692299f, 0.03561371f, -0.08745741f, -0.08147718f, 0.01940834f, 0.13049921f, -0.05435587f, -0.13156173f, 0.04447087f, -0.02661621f, -0.04948402f, 0.01551111f, 0.02605895f, -0.05180966f, 0.00748357f, 0.01465079f, -0.11599503f, -0.02976077f, 0.00387116f, 0.06299447f, 0.03914407f, 0.01335697f, 0.06755236f, -0.06891193f, 0.01942945f, 0.04252543f, 0.04886767f, -0.01673201f, 0.05827389f, -0.07989127f, -0.08894039f, 0.05782459f, -0.00347491f, 0.01640370f, 0.06007810f, -0.05408382f, 0.03505372f, -0.01009077f, -0.02346974f, -0.00034531f, 0.07563179f, 0.06612730f, -0.00281624f, 0.07230989f, -0.07704921f, -0.02734113f, 0.07303189f, 0.01597345f, -0.02455544f, -0.03045115f, 0.06054327f, 0.01890957f, -0.03289373f, -0.01164189f, -0.03003470f, -0.03866087f, 0.05951313f, -0.07828575f, 0.02276404f,
    /* [39] */ 0.13360581f, -0.00169954f, 0.03954803f, 0.07418095f, 0.06797808f, 0.00494931f, -0.10721189f, 0.01594452f, -0.06552449f, -0.12422712f, -0.07417957f, -0.07305311f, -0.02354600f, 0.03913080f, -0.15378720f, -0.22994342f, -0.02224834f, -0.05208385f, -0.00560313f, 0.06211346f, -0.13061298f, -0.01782455f, -0.01321179f, -0.11469668f, -0.00059821f, -0.09975098f, 0.15172610f, -0.03511511f, 0.01165026f, -0.01026789f, -0.14653842f, 0.06973205f, -0.09032105f, 0.03716633f, 0.09182194f, -0.01494267f, 0.04136898f, 0.05563546f, -0.00967584f, 0.08994418f, 0.09437773f, -0.02187677f, -0.16230395f, -0.02663164f, -0.46271652f, -0.06758890f, 0.13037930f, -0.05797990f, -0.06193202f, 0.00892272f, -0.34213397f, 0.10062363f, -0.01592290f, 0.05142179f, -0.15558197f, 0.05610118f, -0.00873189f, -0.05046877f, -0.07326800f, 0.07189834f, -0.21417412f, -0.08785319f, -0.11626679f, -0.01085101f, 0.05887250f, -0.07283808f, -0.05099480f, -0.10146456f, 0.11619099f, -0.01321867f, 0.09584656f, 0.11754700f, -0.00748131f, -0.47924495f, 0.02241071f, -0.10116632f, 0.08219066f, -0.07915767f, -0.00313650f, -0.69027692f, 0.07148881f, 0.11091037f, -0.02189516f, -0.13761555f, -0.04267486f, 0.16712967f, 0.00500862f, 0.02265334f, -0.30367154f, 0.00458552f, 0.02401863f, -0.00146432f, 0.01408828f, 0.06663279f, 0.02639423f, 0.03451099f, -0.05299979f, -0.02206236f, -0.23123808f, 0.07249762f, -0.01567438f, -0.06132753f, -0.11987405f, 0.06886731f, -0.16069624f, -0.00486986f, -0.21360649f, -0.06910451f, -0.07159324f, -0.04009820f, 0.00745598f, -0.02882439f, 0.04147352f, -0.03765468f, 0.06440034f, 0.07099913f, -0.20236595f, -0.07102016f, 0.00873797f, -0.06865904f, -0.01104486f, -0.39726919f, -0.10504348f, 0.07190831f, -0.09850534f, -0.04812239f, -0.08507607f, 0.04620291f,
    /* [40] */ -0.06131414f, 0.00820463f, 0.02219753f, 0.01618480f, -0.00752018f, 0.06026791f, 0.05551228f, 0.00939435f, -0.02282331f, 0.04072355f, -0.03215744f, -0.04596273f, -0.06122440f, -0.03039190f, -0.00560219f, 0.03405507f, 0.11671487f, 0.03512990f, -0.04526683f, -0.00504737f, 0.06926245f, 0.00254530f, -0.10681979f, -0.03445241f, 0.03438850f, 0.05143675f, 0.05114010f, 0.04124949f, 0.00227262f, -0.00997832f, 0.05159746f, -0.00196794f, -0.00603676f, -0.05279614f, -0.02266976f, 0.04696494f, -0.00791311f, -0.00204171f, 0.06001186f, -0.01699833f, -0.09526043f, 0.05608330f, 0.10631581f, -0.03227013f, -0.00855613f, 0.08432918f, -0.12622763f, -0.03912720f, 0.02565527f, 0.01959362f, 0.02942811f, -0.06865084f, -0.05577494f, -0.02387512f, 0.08856768f, 0.07811825f, -0.09817024f, 0.03654295f, 0.01077150f, 0.08013879f, -0.01659916f, -0.01355584f, -0.07216162f, -0.03580598f, 0.02967417f, -0.01383504f, 0.01544105f, -0.00438904f, -0.02005224f, 0.04206090f, 0.05941980f, 0.06046335f, 0.01652615f, -0.00666921f, 0.09957536f, 0.04635678f, 0.00395681f, 0.11046030f, -0.02164853f, -0.05892587f, -0.08306084f, 0.04473577f, 0.00490530f, 0.14311731f, 0.00889665f, -0.08003318f, 0.02769206f, 0.02519203f, 0.11394661f, 0.03666645f, 0.13235380f, 0.05398183f, -0.01583623f, 0.01096216f, 0.01032764f, 0.00408501f, -0.05070442f, -0.02345848f, 0.04035192f, 0.05238347f, -0.04708401f, 0.01054075f, 0.04127835f, -0.00721088f, -0.04002732f, 0.04836053f, 0.03590494f, 0.06886431f, 0.01131605f, 0.10636638f, 0.06082480f, 0.00396581f, 0.05512952f, -0.08506948f, -0.01577530f, -0.00318665f, 0.08002096f, -0.04346558f, 0.05086021f, 0.02417536f, 0.01824985f, -0.12881912f, 0.08159828f, 0.01295274f, -0.06369371f, -0.03114703f, 0.04641090f, -0.10797115f,
    /* [41] */ -0.02391133f, 0.03706926f, 0.00963714f, 0.07402419f, 0.06406412f, -0.02251091f, -0.00983702f, -0.00030174f, -0.07658821f, -0.05542392f, 0.00497068f, -0.01945786f, 0.02954031f, -0.03726690f, -0.01316736f, -0.01612628f, 0.01647447f, -0.03257292f, 0.02290733f, -0.03431471f, 0.11893380f, -0.09142369f, 0.08071373f, 0.12473326f, 0.00041230f, -0.09370030f, -0.01762684f, -0.02884956f, 0.05187900f, 0.08393327f, 0.04171406f, 0.01011273f, -0.01493272f, -0.01763374f, 0.04309643f, 0.00903350f, -0.01305469f, 0.06318603f, -0.00422428f, -0.01794732f, -0.10303017f, -0.04852270f, 0.06211503f, -0.03387268f, -0.04942286f, -0.03293316f, -0.02248608f, 0.02290353f, -0.03994829f, -0.04114797f, 0.03126568f, -0.00574391f, -0.04179714f, 0.03302312f, 0.09391798f, 0.00975911f, 0.03401378f, -0.00264471f, 0.03104442f, 0.07270893f, -0.03441441f, 0.01172880f, -0.03400351f, 0.03002577f, -0.07813926f, 0.07072107f, -0.04628025f, 0.07090529f, 0.02277928f, -0.02298469f, 0.02749023f, 0.04617693f, 0.04857903f, 0.02098205f, -0.08067994f, -0.01092191f, -0.00496863f, -0.02648179f, 0.00150180f, 0.08067349f, -0.05071195f, -0.00233233f, -0.01942673f, 0.06478743f, -0.04993108f, -0.13766780f, 0.01002240f, 0.07029632f, 0.12218702f, 0.07283307f, 0.01177280f, -0.01419017f, -0.03394931f, 0.05450073f, 0.03230993f, -0.09638757f, -0.02237904f, -0.08461836f, 0.07551541f, -0.08324959f, -0.07808392f, -0.04367153f, 0.03907020f, -0.01494318f, 0.01749459f, -0.09112085f, 0.07022782f, -0.01057603f, 0.01579231f, 0.07502957f, -0.04925061f, -0.04225000f, -0.01483578f, 0.06143884f, 0.07374757f, 0.06873303f, -0.05333144f, 0.01303730f, 0.00146627f, -0.13714485f, -0.00035607f, -0.02935190f, -0.05190977f, -0.03573452f, 0.02593878f, 0.03623134f, -0.09332751f, 0.03765077f,
    /* [42] */ -0.03899114f, -0.10234976f, -0.01570591f, -0.05733011f, 0.02315025f, -0.00638548f, -0.01176266f, 0.02765896f, 0.08256836f, -0.07994030f, 0.04545250f, 0.02234919f, 0.01023541f, 0.04406820f, -0.00092041f, -0.07706121f, -0.04886230f, -0.06744083f, -0.01629827f, -0.05429613f, -0.10752758f, 0.03230491f, 0.03964645f, -0.01558585f, -0.04146360f, -0.02511696f, -0.13849679f, -0.11233474f, -0.00393247f, 0.02184148f, -0.17718065f, -0.03830921f, -0.02527866f, 0.02402672f, -0.01212967f, -0.04291362f, 0.00326300f, 0.06292938f, -0.01177845f, -0.04954623f, 0.04489266f, -0.02443650f, -0.16751747f, -0.02370032f, 0.10101315f, 0.01264725f, 0.05141366f, -0.06066314f, -0.02679048f, 0.11155447f, 0.00255954f, -0.00594867f, -0.00476016f, 0.06782398f, -0.11071661f, 0.00495081f, 0.03655086f, -0.01757561f, -0.01350031f, -0.09489664f, -0.08972369f, -0.02389981f, 0.04258505f, -0.04202614f, -0.05391426f, -0.04123461f, 0.00816235f, -0.18540838f, -0.04492988f, 0.01983092f, 0.05019606f, 0.05556606f, -0.05021668f, 0.03639619f, -0.08796683f, -0.01704508f, -0.06344196f, -0.05157815f, 0.00288790f, 0.02553933f, 0.00830432f, 0.00166997f, -0.03984898f, -0.03716005f, -0.11818083f, -0.03229046f, -0.09127868f, -0.01645274f, -0.12145592f, -0.02195462f, -0.05709719f, 0.00957561f, 0.03453240f, -0.06079306f, -0.01997714f, -0.07831182f, 0.01618459f, 0.07513318f, 0.00185236f, -0.00446719f, 0.06690302f, -0.13099432f, -0.04733326f, 0.06654599f, 0.02133442f, -0.04299648f, -0.00228019f, 0.10187483f, -0.01969603f, 0.05311975f, 0.00047867f, 0.00461343f, 0.08788222f, 0.04324231f, -0.02783746f, -0.05614515f, -0.00789362f, -0.00515215f, 0.15132441f, 0.07665270f, -0.01505035f, 0.02274900f, 0.13158913f, -0.03800623f, -0.00172363f, -0.05745802f, -0.04605571f, 0.01448666f,
    /* [43] */ -0.14851278f, 0.00919497f, 0.09843400f, -0.09186945f, 0.03347704f, 0.07997432f, -0.00622249f, 0.02919470f, -0.08239444f, -0.00427369f, -0.00485683f, 0.06258754f, 0.04396689f, -0.06007602f, -0.02539127f, -0.03812277f, 0.08485518f, -0.03836039f, 0.00880296f, 0.09791814f, -0.01571850f, 0.07838010f, -0.03761083f, -0.01487958f, -0.03300913f, 0.09395055f, -0.03119223f, -0.09976619f, -0.05648502f, 0.00116055f, 0.00404990f, 0.07750368f, -0.06431413f, 0.03611147f, 0.06980515f, -0.02858742f, -0.11208826f, -0.09548207f, 0.04446233f, -0.01903024f, 0.00694405f, 0.08674625f, -0.04676763f, -0.01886545f, 0.01159602f, -0.01979327f, 0.00143281f, -0.08445866f, 0.01237349f, 0.04666674f, -0.02067316f, -0.06587009f, -0.03536525f, -0.07441578f, -0.01494417f, -0.01863888f, -0.04892354f, -0.03247873f, 0.08732460f, 0.04190693f, -0.01877828f, -0.01396889f, -0.10046863f, 0.03783047f, 0.07589523f, -0.06515837f, 0.02778737f, 0.05514861f, 0.06329236f, -0.01599361f, 0.06523588f, -0.02616249f, 0.01331075f, 0.00150489f, 0.05633237f, -0.05109971f, -0.06924995f, 0.07970054f, 0.04609065f, -0.04036430f, 0.00575875f, -0.00210639f, 0.11298133f, 0.10456525f, 0.03579343f, -0.06685479f, -0.03290480f, 0.01204332f, -0.00590640f, 0.03302301f, 0.02214661f, -0.06021134f, -0.00259283f, 0.09031311f, 0.04126446f, 0.02641795f, 0.13349578f, -0.02153278f, -0.02797259f, -0.09699254f, -0.00339956f, 0.10864846f, 0.06823394f, 0.07250547f, -0.00570801f, -0.02629707f, -0.00987039f, 0.02774723f, 0.02092533f, 0.01686539f, 0.11491118f, 0.06126063f, -0.10658757f, 0.04725553f, 0.08592600f, 0.04337987f, -0.04006791f, -0.02681296f, -0.02794697f, 0.01110455f, -0.00350160f, 0.00848391f, -0.02006767f, 0.08284242f, 0.01751312f, 0.11976407f, -0.04810541f, 0.02250064f,
    /* [44] */ -0.08002903f, -0.09688849f, 0.06471444f, 0.09360971f, 0.04127637f, 0.05413757f, 0.00709137f, 0.04583490f, 0.05756059f, 0.05231166f, 0.08221461f, -0.10082014f, -0.10876181f, 0.00601477f, 0.14616387f, 0.04562819f, -0.08172321f, 0.11657098f, 0.18837999f, -0.03862572f, -0.06893171f, -0.01583876f, -0.09837513f, 0.03312462f, -0.04584531f, 0.19094537f, 0.06313250f, 0.07579704f, -0.13200948f, -0.16253743f, -0.02305278f, 0.04311539f, -0.02069936f, -0.00206110f, -0.13408080f, 0.06731018f, -0.07074936f, -0.03964370f, -0.02817204f, 0.07385453f, 0.16889894f, -0.07962400f, 0.00031332f, 0.29090932f, 0.13733535f, -0.09036373f, 0.14516398f, 0.05804478f, 0.01622536f, 0.10950184f, 0.04110266f, 0.08755941f, 0.04484490f, 0.04211367f, 0.05871912f, -0.11910582f, -0.06958916f, -0.01482176f, 0.02978669f, -0.03724441f, -0.01979263f, 0.00643905f, 0.02299735f, -0.08614650f, -0.02372256f, -0.04451871f, 0.02891996f, 0.02217055f, -0.01946380f, 0.04180279f, 0.06917512f, -0.03736471f, 0.08455393f, 0.07775999f, -0.02076927f, -0.08323953f, -0.15900660f, -0.04427683f, 0.13014643f, 0.11807528f, 0.11974604f, 0.05026837f, -0.13308029f, -0.01457655f, -0.03237271f, 0.14926238f, 0.07715473f, -0.06414187f, -0.01215304f, -0.11502483f, 0.16944356f, -0.09785373f, -0.02826021f, 0.18063024f, 0.16831319f, 0.03243164f, -0.11467391f, -0.07653236f, 0.20527606f, 0.04243340f, 0.06548204f, -0.12506814f, -0.13264392f, -0.09492181f, -0.11038492f, -0.02668492f, 0.11469883f, 0.07797366f, 0.04864907f, 0.09093720f, 0.22855377f, -0.02350437f, 0.07154106f, 0.12464733f, 0.02291526f, 0.01501108f, 0.02345696f, -0.01675053f, -0.06803306f, 0.04490488f, 0.03925943f, 0.14799745f, -0.05041802f, -0.08653570f, 0.07377934f, 0.05192934f, 0.07718819f, -0.08471242f,
    /* [45] */ -0.06040978f, 0.08136075f, -0.07456586f, -0.00186713f, 0.01389851f, -0.06020676f, 0.03607621f, -0.06961562f, 0.04744328f, -0.00291846f, -0.00890780f, -0.10329663f, -0.00813902f, 0.01477219f, -0.02210836f, 0.05093403f, -0.03816621f, -0.01970792f, -0.12257805f, 0.01307697f, -0.02901765f, 0.00952856f, 0.02517295f, -0.01774727f, 0.00364638f, 0.02318297f, -0.00995763f, 0.00165942f, 0.07028428f, -0.05324251f, -0.05543153f, -0.00325610f, -0.00715345f, -0.02551618f, -0.01949556f, -0.03404541f, 0.03576440f, 0.06337445f, -0.07187977f, 0.02628177f, -0.04854093f, 0.06819993f, -0.02727573f, -0.02955841f, 0.03029391f, 0.00018309f, -0.07724905f, -0.04528991f, -0.14931382f, 0.07526870f, -0.00924062f, -0.02782747f, -0.01235020f, -0.00262991f, 0.10976920f, 0.07500095f, -0.08209135f, -0.13214177f, -0.00788292f, 0.06444338f, -0.12927498f, 0.06517042f, 0.01082351f, 0.09921004f, 0.03860451f, 0.02743930f, 0.01558058f, -0.10055213f, 0.02756363f, 0.00872424f, 0.05423125f, 0.04513681f, 0.05205627f, 0.10796431f, -0.04933051f, -0.05726513f, 0.02048522f, 0.08642153f, -0.02227697f, -0.03526831f, -0.02797988f, -0.03933892f, -0.00946934f, -0.03381903f, -0.05393416f, -0.09589294f, -0.00099638f, -0.05569356f, -0.05076957f, 0.01332299f, 0.06808172f, 0.07764559f, -0.10521942f, -0.06400358f, 0.09668336f, 0.04892554f, 0.02543999f, -0.02241651f, -0.05829201f, -0.01586160f, 0.01316257f, -0.08265537f, -0.05964669f, -0.03014916f, 0.01053761f, 0.01984712f, 0.04197417f, 0.02531761f, -0.01714794f, 0.01021326f, -0.04625768f, -0.06454728f, -0.03846698f, -0.01874227f, -0.02026798f, -0.10559457f, -0.02205904f, -0.01401266f, -0.09848065f, 0.05057588f, -0.03258291f, -0.03514747f, 0.00695325f, -0.03881923f, -0.10684788f, 0.01529915f, -0.01342371f, -0.09112499f,
    /* [46] */ -0.10816003f, 0.05185825f, -0.06298681f, -0.06600411f, 0.02961332f, -0.00663659f, 0.09873278f, -0.06098371f, 0.06991830f, -0.05711846f, 0.04074395f, -0.08053757f, -0.06419358f, 0.02687782f, -0.01342608f, 0.03400615f, -0.00690369f, -0.09797106f, -0.04639192f, 0.02934134f, -0.01281408f, 0.02575932f, 0.05667570f, 0.10188413f, 0.04582474f, -0.04795356f, -0.11728110f, 0.09878761f, 0.08325700f, 0.03621006f, -0.04951415f, -0.07322099f, 0.04372408f, -0.04610140f, -0.10495663f, -0.02182122f, 0.08494354f, 0.07361899f, -0.05471399f, -0.14197221f, 0.04184624f, -0.03029893f, 0.11749168f, -0.02264369f, 0.05628161f, 0.03247469f, -0.02735274f, -0.05116161f, 0.01814597f, -0.01976244f, -0.02632215f, -0.11614269f, 0.02394834f, -0.00023857f, 0.06029349f, 0.04286089f, 0.07956773f, 0.04184152f, -0.03066254f, -0.02453269f, 0.02293033f, -0.04285255f, 0.09548194f, -0.04105186f, -0.12067577f, -0.03967886f, -0.03681145f, -0.06051369f, -0.06694639f, -0.03233616f, -0.00646437f, 0.06993017f, 0.03719796f, 0.03636123f, -0.03821878f, 0.00095466f, 0.07180952f, 0.05452143f, -0.03351637f, -0.00652987f, -0.05808141f, -0.12131926f, -0.02900364f, 0.04897363f, -0.07744761f, -0.12356783f, 0.00468913f, -0.04200639f, 0.03274345f, -0.02091647f, 0.00382403f, -0.00351153f, -0.15652631f, -0.03386549f, -0.00523385f, -0.03949729f, 0.05431864f, 0.00467213f, -0.00679914f, 0.02999940f, 0.02386536f, 0.01658090f, -0.09991357f, -0.05368134f, 0.04076478f, -0.04264449f, -0.01175875f, -0.04190507f, -0.02900510f, -0.02027920f, 0.02528684f, -0.01023169f, 0.03044391f, -0.02720102f, -0.04264581f, -0.01363892f, -0.00764363f, -0.01865640f, -0.11902218f, -0.13021344f, 0.13207455f, -0.13319996f, 0.01331801f, -0.04538627f, -0.06675122f, -0.15529643f, 0.06292697f, -0.02568365f,
    /* [47] */ -0.01608521f, 0.06769845f, 0.03913753f, -0.11107305f, 0.07857873f, -0.01356403f, 0.02621482f, 0.01805748f, -0.02435437f, 0.03717383f, -0.04567844f, 0.01872104f, -0.00472894f, -0.03764141f, -0.09432445f, 0.08106894f, -0.00307921f, -0.04602678f, -0.06406504f, 0.10074512f, 0.02938106f, -0.08503411f, 0.00807228f, -0.01301160f, -0.04124501f, -0.08576998f, 0.03435431f, -0.09496061f, 0.04828061f, -0.00411700f, 0.07973613f, 0.07174402f, -0.08696518f, 0.04703465f, -0.01654223f, -0.00431303f, -0.02890533f, 0.07039446f, -0.03165595f, -0.03044364f, -0.07838434f, 0.03017721f, -0.00978569f, -0.11575896f, -0.03519468f, -0.03840593f, 0.07941175f, 0.02230003f, -0.04937638f, -0.02369461f, -0.01219960f, 0.03164341f, -0.01421530f, -0.06094418f, 0.05673322f, 0.07224489f, -0.09541930f, 0.01303642f, 0.00955447f, 0.02750568f, 0.04137850f, 0.04044528f, -0.06467923f, -0.01314852f, 0.09445784f, 0.03128287f, 0.04189266f, 0.01831190f, 0.00127662f, -0.03251097f, -0.01390363f, 0.00869347f, -0.03637740f, -0.02364848f, -0.00619862f, -0.07798745f, 0.01967206f, 0.04364252f, 0.00702648f, -0.07552402f, 0.06918929f, 0.08012740f, 0.01396532f, 0.04273767f, 0.01511499f, 0.06118847f, -0.02776296f, 0.04529808f, -0.01012140f, -0.06962009f, 0.06152661f, -0.15354399f, -0.10645098f, 0.04653960f, -0.05615933f, 0.04218027f, 0.01346540f, -0.06356329f, -0.19258431f, 0.00942376f, -0.02933373f, -0.00305090f, -0.01866981f, 0.02616453f, 0.01118707f, -0.01528207f, 0.07287209f, 0.03817369f, -0.05056945f, -0.04289042f, -0.03596333f, -0.02509265f, 0.07094274f, -0.06109368f, 0.02587856f, 0.15225106f, -0.03191383f, -0.00625858f, 0.03986435f, -0.06874454f, -0.04697431f, 0.04453184f, 0.02265808f, -0.03485327f, -0.12760034f, 0.04097591f, -0.06095501f, -0.01293046f,
    /* [48] */ -0.04102233f, 0.00490186f, -0.02086622f, -0.06499261f, 0.07002704f, 0.02129591f, -0.00906523f, 0.03961485f, 0.08700836f, 0.01196745f, 0.12715071f, 0.05137748f, 0.03095712f, 0.03924376f, 0.06276863f, 0.03744576f, -0.02903481f, -0.02353316f, 0.08182924f, 0.02329860f, 0.02256250f, 0.00987056f, -0.02581396f, 0.06661387f, -0.04956830f, 0.02796838f, -0.02386601f, -0.02965381f, 0.00615251f, -0.08774874f, 0.03905540f, -0.05120686f, 0.05916972f, 0.03594042f, -0.01128326f, 0.07976087f, 0.01629454f, 0.04476084f, 0.02425072f, -0.05189969f, -0.01268442f, -0.03660021f, -0.06402187f, -0.05275150f, 0.07704901f, -0.12275556f, 0.01233764f, -0.09802042f, 0.05697772f, -0.05334453f, -0.05587225f, 0.16862643f, -0.02385436f, 0.08573359f, 0.06682917f, 0.01562308f, 0.04804303f, 0.00074097f, 0.01296733f, -0.05336231f, 0.05470202f, 0.08024478f, -0.01186615f, -0.01130402f, 0.00248912f, 0.03061329f, -0.07972028f, -0.05231632f, 0.05762334f, 0.06619656f, 0.09936025f, 0.04670358f, -0.01253445f, 0.03544619f, 0.00914398f, 0.00601729f, 0.01943680f, -0.00867900f, 0.06215782f, 0.04555605f, -0.07505568f, -0.01927606f, -0.00270043f, 0.00069365f, 0.01187474f, -0.07774268f, -0.00263298f, -0.01579270f, -0.05715349f, -0.06440023f, 0.04959587f, -0.00005224f, 0.04125677f, 0.07022093f, 0.01084594f, 0.09643775f, 0.06229635f, 0.04927045f, 0.06169287f, -0.06343416f, 0.07388169f, -0.02209041f, 0.01429900f, -0.04840277f, -0.03972438f, 0.03161203f, -0.09474317f, -0.04655333f, 0.08541025f, -0.04435201f, -0.06152240f, 0.01202970f, -0.02562333f, -0.01017359f, 0.01775774f, 0.01630211f, -0.00694098f, 0.09908087f, -0.03873648f, 0.04995875f, 0.02378772f, -0.09235384f, 0.00873743f, 0.06368150f, -0.11761762f, -0.12387424f, -0.08204184f, -0.01590438f,
    /* [49] */ 0.10947236f, -0.05838129f, -0.02324939f, 0.01350230f, -0.09328042f, 0.04306812f, -0.10043055f, -0.08263453f, -0.06248350f, 0.04565376f, -0.01038795f, -0.00744110f, -0.04024488f, 0.05074462f, -0.14933644f, 0.02174989f, -0.03485259f, 0.04188304f, 0.07329105f, -0.11350513f, -0.03486885f, 0.01418664f, -0.04200745f, 0.05294514f, -0.02273657f, -0.04811018f, -0.03215104f, -0.03573630f, 0.02948872f, 0.07503331f, -0.00705623f, -0.05795710f, 0.02568953f, -0.05027418f, -0.05559793f, 0.06239884f, -0.00001363f, 0.04163706f, 0.07687689f, 0.10095963f, 0.05944555f, 0.00670602f, -0.07347060f, 0.00630233f, -0.17780830f, 0.00245570f, -0.03296657f, 0.00796389f, -0.02003351f, 0.08854777f, 0.01237478f, 0.08882365f, 0.01157722f, -0.03195387f, -0.06301116f, -0.01502660f, 0.06237564f, 0.00828108f, -0.01653074f, -0.06080886f, 0.03053122f, 0.00221417f, 0.05460894f, 0.05120389f, 0.01958906f, -0.05136057f, -0.01369962f, 0.09319666f, -0.03037566f, 0.04323248f, -0.05302392f, 0.04922777f, -0.10640986f, -0.07258248f, 0.05436577f, -0.07144043f, 0.00873690f, -0.11177161f, -0.04494804f, 0.03103588f, -0.02975618f, -0.03205321f, 0.02255972f, -0.02939372f, -0.02821100f, -0.02869513f, 0.06727944f, 0.02471875f, -0.00752077f, 0.05704454f, -0.07742026f, -0.03115719f, 0.17340448f, 0.04921051f, -0.13408555f, 0.06855042f, -0.00076810f, 0.02921005f, -0.02675230f, 0.01855780f, 0.03847352f, -0.06411662f, -0.06923889f, -0.16309601f, 0.01619048f, 0.06372605f, -0.03443107f, -0.08527861f, 0.02691252f, -0.02421301f, -0.14875931f, 0.03739744f, -0.01200926f, -0.06950982f, -0.07510926f, -0.00112028f, 0.02900095f, -0.00486186f, -0.09496301f, 0.05855551f, 0.07103214f, 0.03040113f, -0.00918523f, 0.00523718f, -0.06246519f, 0.01452215f, 0.08744125f, -0.03801452f,
    /* [50] */ -0.06536372f, -0.01747844f, -0.02743958f, -0.03655195f, 0.10571025f, 0.15568529f, 0.06109448f, -0.00806606f, 0.02067630f, 0.03930852f, -0.01172029f, -0.17125537f, 0.05861314f, -0.09716433f, -0.02358713f, 0.09904053f, 0.00368628f, 0.02020387f, -0.01814540f, 0.06748299f, -0.02580797f, 0.02329824f, 0.02261382f, 0.00474703f, -0.02837229f, -0.11000852f, -0.01635649f, -0.01216604f, 0.08553258f, 0.00256085f, -0.19712998f, -0.00750844f, 0.02051074f, -0.08920698f, 0.05311907f, 0.04435841f, 0.05230397f, -0.01253767f, 0.02999807f, 0.01105778f, -0.03919111f, 0.06119727f, 0.04921053f, 0.03029574f, 0.17681494f, -0.01955758f, -0.01307844f, 0.01818375f, 0.06331726f, 0.00641981f, 0.05692676f, -0.07643957f, 0.00361762f, 0.05714283f, 0.00259605f, 0.05753141f, -0.00925116f, 0.00713365f, -0.01284080f, -0.03338034f, 0.00600329f, 0.02543831f, -0.10465708f, 0.02862422f, 0.01806687f, 0.01422356f, -0.04673816f, -0.04616378f, -0.10150565f, -0.03998926f, 0.02883639f, 0.03827000f, -0.00820689f, 0.11305045f, -0.06576970f, -0.04133561f, 0.06270023f, 0.03238537f, 0.11347623f, 0.03874227f, 0.01830347f, -0.05152020f, 0.01958255f, -0.05550380f, -0.06796636f, 0.00667934f, -0.02353229f, -0.02308873f, 0.03720095f, 0.00593550f, -0.02527061f, -0.03679508f, -0.08310616f, 0.00947844f, 0.10495911f, 0.02066883f, 0.05684308f, 0.07483879f, 0.05024737f, 0.05758878f, 0.09856915f, -0.07331727f, 0.05018554f, 0.01240305f, -0.02935503f, 0.08108587f, -0.04482999f, -0.02098014f, -0.10039017f, 0.03051914f, -0.02115137f, 0.08634178f, -0.03066043f, -0.08449133f, -0.02679435f, -0.01964152f, -0.03220624f, 0.04551121f, 0.02674488f, 0.00619234f, 0.03023688f, -0.05393223f, 0.05603552f, -0.15641837f, -0.00131723f, 0.00359472f, 0.02061729f, 0.01602967f,
    /* [51] */ -0.07305010f, -0.00967263f, -0.01549918f, 0.05301030f, 0.03686288f, 0.05259495f, -0.01970948f, 0.00000090f, 0.01859915f, 0.01041052f, 0.03055814f, -0.03589822f, 0.09696887f, 0.04288305f, -0.04343563f, -0.09012190f, 0.05021393f, -0.01950623f, -0.00290657f, 0.07009570f, 0.11752529f, -0.06169218f, 0.02267241f, -0.01789769f, -0.04200205f, -0.09629365f, 0.03541079f, -0.01850103f, 0.01194769f, 0.10532242f, -0.00356839f, 0.00605469f, -0.01849227f, -0.00795907f, 0.11477292f, 0.05858134f, -0.02365941f, -0.03922750f, 0.03892294f, 0.09304258f, -0.00141010f, -0.08323009f, 0.02972354f, -0.17059845f, 0.08789640f, -0.06938365f, 0.09834823f, -0.06359455f, 0.08326121f, -0.08706891f, -0.02102650f, 0.02340583f, 0.00168461f, 0.06268638f, -0.02926933f, -0.01388491f, 0.01318848f, 0.11575564f, -0.01266406f, -0.01431543f, 0.09654038f, 0.03151203f, -0.01724226f, -0.02589295f, 0.06442015f, 0.00977725f, -0.00618027f, 0.07510825f, 0.04943620f, 0.02415590f, 0.04958415f, -0.00286724f, 0.02281117f, 0.06178828f, 0.05717314f, -0.04350693f, -0.00057609f, -0.05720143f, -0.03339332f, 0.11182784f, -0.00743637f, 0.05665282f, -0.07528053f, 0.01550095f, -0.00445091f, -0.11612570f, 0.02827582f, 0.00917090f, 0.03931859f, -0.00981257f, -0.01032142f, 0.05967195f, -0.08644828f, 0.00275635f, -0.11528182f, 0.02552970f, 0.00386989f, 0.05408782f, -0.01318759f, 0.01350433f, 0.06031150f, 0.02241399f, 0.01349219f, 0.04788755f, -0.08949588f, 0.05536837f, -0.06055443f, -0.00362063f, 0.00489951f, -0.03432162f, -0.01789331f, -0.10717318f, -0.02971299f, 0.08894505f, 0.01958807f, 0.02553864f, -0.01839948f, -0.03644251f, 0.07677808f, -0.02556439f, -0.10839361f, -0.02967033f, -0.03706279f, 0.00762465f, 0.04277604f, -0.05570298f, -0.01791750f, 0.06274234f,
