#ifndef PARAMETERS_H
#define PARAMETERS_H

const float W1[] = {-0.1346865296f, 0.0468394384f, 0.0481970198f, 0.0966062099f, -0.1466264278f, -0.0593138076f, 0.0323707871f, -0.1260746270f, 0.1262290180f, 0.0274019521f, -0.3904889524f, 0.0814035535f, 0.1339498460f, -0.0907611102f, 0.0617859513f, -0.6753760576f, 0.0246223491f, -0.0768117830f, 0.0470667332f, 0.0019033854f, -0.3638589382f, -0.1302614510f, 0.1375038922f, -0.1429982632f, -0.2753739059f, 0.1032131761f, -0.2117377967f, 0.0199464522f, -0.1299689412f, -0.0065180180f, -0.0586783811f, -0.0312393811f, -0.1215087920f, 0.3151820004f, 0.1945362538f, -0.3879077137f, 0.2399774641f, 0.1005235240f, 0.3820570707f, -0.0463136919f, -0.2661468387f, 0.1582875252f, -0.2187508196f, -0.1116375700f, -0.0724081248f, -0.1266868860f, -0.1439430267f, 0.2217264920f, -0.1520064026f, 0.2197545767f, -0.6294316053f, -0.3351314366f, 0.0652083978f, -0.1143644899f, -0.2560070455f, -0.2040858418f, -0.1384698898f, -0.1215346754f, 0.0906392783f, 0.2011558414f, 0.1376982629f, -0.0697142705f, 0.1672829688f, -0.0228227898f, -0.1638310403f, -0.7368296981f, 0.0497985817f, -0.1101148129f, 0.1249550283f, -0.0063799508f, -0.0280400477f, -0.0500486717f, 0.0765998960f, -0.0729677305f, 0.0770807043f, -0.1167055145f, -0.1124642119f, -0.2888506949f, 0.2088249326f, 0.0856631398f, -0.1021294147f, 0.2426553220f, 0.0687737688f, -0.0306105483f, 0.0936717689f, -0.6090525389f, -0.1641390324f, -0.0558098815f, 0.0105932355f, 0.1361449063f, -0.2973643839f, -0.1252605021f, 0.1963320524f, -0.2406265587f, 0.0322520696f, -0.0808208734f, -0.3435586691f, -0.0230454225f, -0.0822495297f, 0.3075169623f, -0.1008161008f, 0.5355003476f, 0.0011593320f, 0.0919439346f, 0.0068222275f, -0.0443568416f, 0.1177893281f, 0.1853295118f, -0.1606793553f, 0.2742100060f, -0.5099818707f, 0.0316768959f, -0.0994080380f, 0.1096956730f, -0.0486452058f, 0.2594425976f, 0.0978234932f, 0.0399883017f, -0.0403303616f, 0.0495819561f, 0.1391783208f, 0.0956076309f, 0.2197331488f, -0.2218085676f, 0.0786263123f, 0.3152976334f, 0.0603199117f, 0.1966841668f, -0.1015277803f, -0.0030246931f, -0.0341914445f, -0.0914166495f, -0.0740011036f, 0.0593043789f, 0.1544007659f, 0.0688825548f, -0.1724591404f, 0.1410990059f, -0.0751191229f, 0.2502017319f, 0.3833090663f, 0.1534311622f, 0.2138360441f, -0.1645107120f, -0.2640742660f, -0.1170138717f, -0.2165962607f, 0.0759920701f, -0.0788170025f, 0.1724243760f, 0.2989047170f, 0.1384797841f, 0.0311049148f, -0.0378108770f, 0.3690491319f, -0.0563097186f, -0.0757738501f, -0.1722705066f, 0.1952436864f, -0.0511558354f, -0.0064775879f, -0.1936733276f, -0.1277642697f, 0.0512816794f, 0.0634174645f, -0.1443902254f, 0.3771974146f, 0.0242348220f, -0.2830431163f, 0.0018499189f, -0.2120359838f, -0.0437402055f, -0.0370353796f, -0.0412972644f, -0.3587135375f, -0.0988892317f, 0.1440001875f, 0.1486473680f, -0.0766967759f, -0.0227618665f, -0.0497998223f, 0.0995920449f, -0.1341574490f, 0.1311996877f, 0.0264164172f, 0.0202514939f, 0.0616150126f, 0.1518053412f, -0.0581104085f, 0.4053688049f, 0.5582024455f, 0.1868688762f, -0.1414997727f, 0.1886371672f, -0.1160824895f, 0.0481185578f, -0.1149703562f, -0.1995598525f, -0.3240766525f, 0.1802801937f, -0.5920631289f, 0.0686889961f, 0.2162173688f, -0.1789139807f, -0.1070777103f, 0.1575461179f, -0.1125757843f, 0.1955156326f, -0.2414117157f, 0.1734882444f, -0.0408160239f, -0.0219281558f, -0.0510487594f, 0.0400565006f, 0.2549257278f, -0.0465672687f, 0.2984335721f, -0.0479529761f, 0.0682177767f, 0.4132575095f, 0.2210618705f, -0.2551097572f, -0.0325386748f, 0.0178217441f, -0.0588192455f, 0.3423827291f, 0.0120302206f, -0.1882668287f, 0.2509512305f, -0.0410716794f, -0.0585937873f, 0.0012428409f, 0.0277856532f, -0.0778246820f, -0.1916401088f, 0.0556844771f, -0.1640833914f, -0.1844998002f, 0.2074077725f, -0.0165319052f, -0.1916375607f, -0.1959464103f, -0.4000253379f, -0.0617977828f, 0.0434016660f, 0.5698773265f, 0.0940422490f, -0.0115221450f, 0.0476402566f, -0.0222518612f, 0.1286448389f, -0.1258487403f, 0.0793727338f, -0.0150714973f, -0.3544244766f, 0.2781058252f, 0.0838128775f, 0.0511502102f, -0.0246012677f, -0.0728469789f, 0.2636329234f, 0.1711662859f, -0.1927438527f, -0.1770285219f, 0.0139800888f, -0.0280368533f, 0.0139478045f, -0.0220595356f, 0.1905609220f, 0.2411902249f, -0.0628441498f, 0.0228820741f, 0.1445800215f, 0.2578187883f, 0.0374798104f, -0.2013672739f, -0.1385532022f, -0.2348784357f, 0.2124992758f, 0.1267160922f, -0.1285619140f, -0.0269765388f, -0.0218517929f, -0.2317208648f, 0.3484939933f, -0.0390763767f, 0.1073864028f, 0.0298698135f, 0.1368170083f, -0.0148863960f, 0.0879893005f, 0.0772749931f, 0.0063157575f, 0.2626439631f, 0.2015121877f, 0.7342745066f, 0.1887751073f, -0.1174898893f, 0.1670045704f, -0.0252670273f, -0.1759230793f, -0.1782077551f, -0.1744643152f, 0.1269652843f, -0.1722274721f, 0.2737231255f, 0.1086854041f, 0.0580875203f, -0.0176864546f, -0.0663603097f, -0.0030803713f, 0.2995585203f, -0.1455802768f, -0.1203601211f, -0.2296696752f, 0.1398688555f, 0.0564923733f, -0.2078614533f, -0.0371782966f, -0.0438105874f};
const float b1[] = {-0.0225255657f, 0.0022698166f, 0.0163959805f, 0.0107088173f, -0.0034607637f, 0.0071208007f, 0.0034131303f, 0.0240847822f, -0.0021238413f, -0.0041869879f, -0.0149880871f, -0.0031089806f, -0.0134342555f, -0.0050338879f, -0.0006560270f, 0.0264903232f, 0.0041373856f, -0.0127211297f, 0.0078722993f, 0.0062492206f, 0.0175837651f, -0.0114964982f, 0.0219172090f, -0.0230784975f, -0.0247471854f, -0.0431119464f, 0.0120231314f, -0.0199863892f, 0.0008692787f, -0.0091038560f, 0.0028729413f, -0.0011423496f, 0.0084751379f, 0.0091644730f, -0.0117094209f, -0.0007130138f, -0.0095565449f, 0.0017494962f, 0.0129174935f, -0.0025923953f, 0.0139858192f, 0.0098227095f, -0.0059466665f, 0.0026148020f, 0.0000125691f, -0.0227284711f, -0.0019190743f, 0.0035157725f, 0.0201270301f, -0.0017934090f, 0.0035185860f, -0.0152301593f, 0.0054564723f, 0.0087635051f, 0.0060866852f, 0.0038708379f, 0.0077071209f, 0.0162538607f, 0.0138835358f, 0.0079432577f, 0.0268649962f, 0.0000031087f, -0.0138693955f, 0.0152713573f};
const float W2[] = {-0.1489351541f, -0.2564926744f, 0.2955953479f, 0.1745989621f, 0.2051933557f, 0.1381702423f, -0.0270337127f, 0.3622916043f, 0.1124033108f, 0.0776204765f, 0.1412732452f, 0.0069464231f, 0.1986926794f, 0.1575982124f, -0.0198496208f, 0.0363207385f, -0.1948625892f, -0.1142385975f, 0.1884211153f, 0.0790516511f, -0.1503655463f, -0.0475092679f, 0.0364857092f, 0.1496858001f, -0.2259509265f, -0.1803172976f, 0.0773675665f, 0.3694043159f, -0.2495016456f, -0.3585313857f, 0.0859045684f, -0.0454818122f, -0.3519823551f, 0.1659657061f, -0.0023886694f, 0.0227901284f, 0.0647696480f, -0.2046560496f, -0.1399880797f, 0.0623012558f, -0.0742418692f, -0.0098965140f, 0.0665035024f, 0.0193001535f, 0.3453628719f, 0.0089833774f, 0.0197278466f, -0.0437624678f, 0.1706223041f, -0.2655885220f, -0.1243979409f, -0.0575255156f, -0.3346635699f, -0.0425868072f, 0.0055897520f, -0.0218860079f, 0.3010059297f, 0.3878492713f, 0.2548373640f, 0.1293938458f, 0.0244533997f, 0.0072690872f, 0.0997338444f, 0.1882847250f, 0.0613376796f, -0.1566098630f, -0.3836890459f, 0.1336119473f, -0.1523227692f, -0.4418634474f, 0.0255323052f, -0.2250927091f, 0.4016772509f, 0.0509726442f, 0.0645110533f, -0.2385251671f, 0.0742281228f, -0.0404660627f, -0.0664950982f, -0.2546608746f, -0.0541464835f, -0.1466822475f, -0.0690358728f, 0.1323414296f, 0.0173120685f, 0.2024742663f, -0.0450033844f, -0.0468965657f, 0.1832455695f, -0.0423810929f, -0.0824721828f, 0.0639112666f, 0.2214929610f, 0.1052252948f, -0.1384580582f, 0.0505533814f, -0.1858800203f, 0.0393254384f, -0.1725245714f, -0.1089394763f, 0.1087455526f, 0.1482432187f, 0.2019099593f, -0.1498285681f, -0.0559656136f, 0.0253015943f, 0.0261264108f, 0.1043225899f, -0.0709218755f, -0.0563381799f, 0.1277951598f, -0.1187110394f, 0.3926840127f, 0.0397591442f, 0.0728661045f, -0.1149529368f, 0.1149171293f, 0.3410750926f, -0.2816831768f, 0.0097281197f, 0.4827652872f, 0.1491144150f, -0.0507872999f, 0.2316658646f, -0.1705459505f, 0.2602159381f, 0.1215664446f, 0.0083636977f, -0.0771394596f, -0.2047412843f, -0.0056895143f, -0.2424406707f, -0.0677541569f, 0.1810872853f, 0.3126658499f, -0.0925769508f, -0.1728025824f, -0.0051615201f, -0.1947318912f, -0.1107211784f, -0.1491256058f, -0.3535405993f, 0.1180024445f, -0.1339737922f, -0.1366127282f, -0.1615189314f, 0.0507557504f, -0.1192834303f, -0.0513311438f, 0.0136897368f, 0.0732388496f, -0.1795344651f, 0.0871669054f, -0.1525377333f, 0.0270510949f, -0.0049269381f, -0.1571270972f, -0.0728214607f, -0.2195144743f, -0.0296597928f, -0.0031452184f, -0.4767559469f, -0.3399249017f, 0.1488150209f, 0.1973259002f, 0.2402871847f, -0.1125103086f, -0.0636381358f, 0.0471851304f, 0.1847327501f, -0.1480917335f, -0.2442941964f, 0.3962724805f, 0.0625467300f, -0.3002467752f, 0.2602821887f, 0.0443770923f, 0.0967402980f, 0.3149157166f, -0.1021963134f, 0.1708129942f, 0.0734556764f, -0.1376979202f, 0.1045234427f, 0.1069405973f, 0.1776628792f, -0.0942920372f, 0.1144074500f, 0.1061169431f, -0.1656614244f, -0.0156911556f, 0.2230103910f, -0.1104165241f, -0.0186562426f, 0.0570055246f, 0.1384541243f, 0.0141645661f, -0.1551662236f, -0.0698417872f, -0.0543535538f, 0.1190297753f, -0.0097077033f, 0.0740082636f, -0.1854307801f, 0.2219405025f, -0.1333303750f, -0.0747232437f, 0.2315337956f, -0.0690406784f, 0.0733348355f, -0.2964275777f, 0.2019916624f, 0.0772921294f, -0.0242491309f, -0.0393390357f, -0.1813602895f, 0.0513231196f, 0.2336028963f, 0.1063849330f, 0.1895893365f, -0.0131672453f, -0.1245640516f, -0.3025655746f, 0.0066067399f, 0.4793207347f, 0.1671570539f, 0.0727541298f, 0.3074145913f, -0.0448290221f, -0.0179131273f, -0.3319908381f, 0.1832302809f, 0.0990019217f, -0.0982560590f, 0.3249383271f, -0.0148404613f, 0.2692609131f, -0.0213738699f, 0.0837575570f, 0.1977306455f, -0.1291057169f, 0.1435125917f, 0.0664184242f, -0.1638320684f, -0.3418147266f, 0.0925213173f, -0.2313602269f, 0.2392217964f, -0.0256050769f, -0.1497900486f, -0.2443693578f, 0.0285198670f, 0.1884870529f, 0.1964474469f, -0.3232210875f, 0.0519163646f, 0.5330513716f, -0.3170191944f, 0.1503805369f, 0.2261649221f, 0.1808717996f, -0.0204554200f, 0.0140386494f, -0.0565252043f, -0.0506631844f, 0.0421387404f, 0.2902786136f, 0.1433525532f, 0.0181548875f, 0.1344948709f, -0.1364768445f, -0.0728683472f, 0.2542360127f, 0.1734355092f, 0.1224347278f, 0.0788978338f, 0.2197685838f, 0.1537972093f, 0.0291744564f, -0.2256588340f, -0.0727451891f, 0.0202879235f, -0.2837112248f, 0.2742832005f, -0.0947123244f, -0.1232605204f, -0.1553045064f, 0.0210746378f, 0.0973078460f, -0.1009574011f, 0.0341393538f, -0.3166329563f, 0.0330360755f, -0.0573045835f, 0.2961031497f, -0.0580093786f, -0.2214956284f, -0.2579171956f, -0.0227123033f, -0.2225887626f, 0.0209597107f, 0.3686350882f, 0.0091087157f, 0.0161782783f, -0.0472501405f, -0.0523575470f, -0.0975134149f, 0.0673403889f, 0.1027145237f, 0.0430120267f, -0.2465562373f, -0.0767248124f, -0.1803057492f, 0.1558760554f, -0.2946068048f, -0.0856824443f, 0.2135049850f, -0.0345493592f, -0.1456987411f, 0.1908232123f, 0.0229067132f, -0.1931189597f, 0.1254089028f, -0.2416021377f, -0.0624021366f, -0.0852501094f, -0.2464007288f, 0.3231963813f, 0.1660329401f, 0.1038248911f, 0.0292933360f, 0.0577284992f, -0.2236282974f, -0.3763882816f, -0.1021742299f, -0.3033499718f, 0.0864937305f, -0.2431464940f, 0.0314912088f, 0.0818858221f, 0.1197828054f, -0.2476380765f, -0.1476342231f, -0.0559916422f, 0.1173848361f, -0.1622761637f, -0.0889745355f, -0.1435989887f, -0.2595055401f, -0.0288795028f, -0.3677133322f, 0.1986602694f, -0.2155923843f, 0.2405819446f, -0.0724889338f, -0.0513241217f, 0.2241001278f, 0.0881322548f, 0.2047345638f, 0.2326096594f, 0.0448259301f, 0.2012099177f, 0.1257305890f, 0.0429755896f, -0.2387636006f, -0.1019407734f, 0.1363800466f, -0.0024035983f, -0.3228635788f, 0.2370260060f, -0.0184703097f, -0.0714157820f, 0.0037946373f, -0.2676143348f, -0.1516732275f, 0.1908909082f, -0.2359601259f, 0.1425151676f, 0.1850571036f, -0.0901490450f, 0.0810388997f, 0.2615908980f, -0.0185947493f, -0.0137366606f, -0.1279061437f, 0.1127579063f, 0.0557002798f, -0.3998577595f, -0.0533815846f, -0.1070940420f, 0.1358971000f, 0.0949486196f, 0.1155716330f, 0.2401362062f, 0.0696913302f, 0.1508834660f, 0.3184221983f, 0.0016455909f, 0.2549965680f, -0.4857786000f, -0.1533119380f, -0.0983515680f, -0.1048540622f, 0.1885390580f, 0.3298611045f, 0.1523641646f, -0.0420747437f, -0.0382024422f, -0.1132528335f, 0.0152552389f, -0.1614641249f, 0.3082109988f, -0.0276704170f, -0.1332557499f, 0.0120595051f, -0.1915301532f, 0.2170575559f, 0.0072988193f, -0.1226993427f, 0.0117842741f, -0.0311176050f, -0.2540933192f, 0.0306341741f, -0.0145988809f, 0.3071551323f, 0.1507938355f, 0.0066919993f, -0.1069792956f, 0.0081718583f, -0.0413890220f, -0.0305825397f, -0.3384134173f, -0.0050548953f, 0.1281102300f, -0.2418545634f, -0.1767796874f, 0.0741916075f, 0.0679777488f, 0.2089293748f, -0.1772636920f, 0.0608546212f, -0.3061880469f, -0.1269545108f, -0.2507631481f, 0.1026458517f, -0.2079629749f, 0.1630689800f, 0.1876227558f, 0.0639130846f, -0.3617698550f, 0.0247974750f, -0.0624579191f, -0.1141576618f, -0.0719908401f, 0.0920016468f, 0.2168011367f, 0.2616783977f, 0.3573386371f, -0.1253529340f, 0.1877061576f, 0.1943602562f, 0.1416548043f, 0.2231414020f, 0.2253742367f, 0.1424230337f, -0.2012097239f, 0.0485425442f, -0.0694156587f, -0.1031540036f, 0.1304608136f, 0.1346570104f, 0.1394189298f, -0.1446175128f, 0.1010797396f, -0.1195398644f, -0.3906586170f, 0.1302983165f, -0.1891150177f, 0.1052533314f, 0.0528152585f, 0.0750049949f, 0.1035154909f, -0.0583592206f, 0.1681033075f, -0.1423588842f, 0.1953099221f, 0.3094849586f, 0.1179112121f, -0.0179143585f, -0.0120860254f, -0.1330900341f, -0.1749795526f, 0.1951075941f, -0.3039148748f, -0.1321327835f, -0.0602767728f, 0.0433665998f, -0.0195340402f, -0.1062827110f, -0.1188888401f, 0.2223619223f, -0.1593889594f, -0.0666751787f, 0.1066149175f, -0.1066194400f, -0.2011848986f, -0.1055355743f, 0.4823327959f, -0.1096115634f, -0.0160712209f, -0.4173943996f, -0.0197035372f, 0.0478769615f, -0.0083259922f, 0.3100670278f, -0.2084933966f, 0.2205320150f, -0.1116641313f, 0.0899101570f, -0.1805969179f, 0.1339370608f, -0.0170641579f, 0.3050101101f, -0.0869855136f, -0.0959610790f, -0.1650449634f, -0.0168221183f, 0.2383420467f, -0.0804398507f, -0.0482093953f, 0.1000725552f, -0.0177960936f, 0.3077553213f, -0.1980306208f, 0.3966630697f, -0.0053254222f, 0.0815151557f, 0.0055529773f, 0.1650791615f, 0.1263136119f, 0.0083829630f, 0.3907242715f, -0.0570800714f, -0.0463523604f, -0.0478630476f, 0.3131766617f, 0.0075618140f, -0.1126021147f, -0.2282524109f, 0.0584665425f, -0.1054600030f, -0.2923285663f, 0.0822004527f, 0.4130355120f, -0.0069263238f, -0.0038477113f, 0.0117237521f, 0.1788135022f, 0.0244529359f, -0.1790531576f, 0.0498184822f, -0.0779553950f, 0.0872029811f, -0.1505888104f, -0.0552647747f, -0.0179556254f, -0.2165878117f, -0.2500627935f, -0.1457866728f, -0.1044976786f, 0.2141993791f, 0.2502697408f, -0.3084467649f, -0.1836618036f, -0.2462815493f, 0.0970966965f, 0.1268568039f, -0.1957221478f, 0.0836651698f, -0.0098300539f, -0.0868261084f, 0.0477837548f, 0.1621808112f, -0.2466409951f, 0.1827301681f, -0.1437188685f, -0.2840636969f, 0.1647429168f, 0.0257850885f, 0.1290552169f, -0.2570219040f, -0.0087958127f, 0.0692646727f, -0.0753065646f, -0.4578468800f, -0.1008005515f, -0.3435567617f, -0.1569511592f, -0.0649670213f, -0.0124670891f, -0.3685122132f, 0.3119201958f, 0.0171898771f, -0.0657749623f, -0.4373559654f, 0.0967632905f, -0.3763013482f, -0.0228170343f, -0.3202548921f, 0.0921925083f, -0.1401886940f, -0.0521980897f, -0.1505009234f, -0.1614506543f, -0.1393645257f, -0.1972944736f, -0.1052982733f, 0.0385780931f, -0.0427493118f, 0.0225483775f, -0.0159758069f, 0.0620448254f, 0.1741742492f, -0.1180193499f, -0.0723199993f, -0.0974034891f, -0.1504642814f, -0.0155805442f, 0.1673528701f, 0.2108580768f, 0.1952532232f, 0.1893293709f, 0.0399621390f, -0.2025774568f, 0.0057184640f, -0.1869699955f, -0.1230354011f, -0.1224516928f, -0.1159678102f, 0.1775424778f, -0.0578926317f, 0.1313382238f, 0.0979351476f, 0.0327855423f, -0.1593395025f, 0.4358980358f, -0.2451947778f, 0.0607773662f, 0.1481566429f, -0.0933487266f, 0.0242213011f, -0.0936063081f, 0.1623935103f, -0.2436205894f, -0.0996353552f, 0.1841815859f, 0.1539537758f, -0.2203116864f, -0.2957054079f, -0.2672066689f, 0.1716002971f, 0.1677599549f, 0.1696601957f, -0.0500317849f, 0.1545206606f, 0.0683201998f, 0.0972941294f, -0.0296532325f, -0.3677077889f, -0.2156522274f, -0.0237431247f, 0.0764784068f, 0.4029466808f, -0.0212861244f, 0.1519762874f, -0.1605297327f, 0.1774004400f, 0.0416800417f, 0.3252513707f, -0.0915162414f, 0.0765389353f, 0.0393059663f, -0.0420835130f, -0.0062661739f, 0.0997688025f, -0.1532766223f, 0.0832359195f, -0.2343681306f, 0.2638300955f, 0.0132750440f, 0.1767965555f, 0.1282817572f, 0.0411490276f, 0.2829070389f, 0.2795019150f, -0.1792194694f, -0.0469661392f, 0.3205080032f, -0.0103274938f, -0.0643409938f, -0.2122142166f, 0.1111960784f, -0.0841505527f, -0.0154809160f, -0.3045927584f, -0.3208507597f, -0.2916229069f, 0.3303392828f, -0.2354333252f, -0.1608346403f, -0.1429540217f, -0.0606151782f, -0.1777956635f, 0.1468467414f, 0.1109241769f, 0.0603734180f, -0.1215576157f, 0.1439932734f, -0.1433079392f, -0.1504997164f, -0.0480434410f, -0.0434460416f, 0.0799772665f, -0.0863582268f, 0.0571131557f, -0.0444718003f, 0.0295343641f, -0.0648603663f, 0.0167638212f, -0.1127481461f, -0.1965796649f, 0.2119817138f, -0.3499037623f, -0.0946876630f, 0.1469561905f, 0.2431353778f, 0.0968458205f, -0.0974421948f, 0.1172517389f, -0.0483871698f, -0.3384855688f, 0.2438270003f, -0.2979821265f, -0.3950136006f, 0.2465210110f, -0.0667171776f, -0.0108259358f, -0.1365878135f, -0.1196704283f, -0.3253449798f, 0.1436236352f, -0.0037278694f, -0.0057450039f, -0.2485139817f, -0.0270620361f, -0.2267703563f, -0.2620762289f, -0.1605003625f, -0.0041979891f, 0.1328079402f, -0.2004057765f, 0.0084497202f, -0.1195465103f, -0.2042861134f, -0.2284955233f, -0.1652445644f, 0.0440747328f, -0.0527717844f, 0.0642741546f, -0.1970719546f, -0.0415003039f, 0.0397236086f, -0.1330325752f, 0.0502955690f, -0.0465141647f, -0.1988756210f, 0.0559317619f, 0.0833993852f, -0.2325553894f, -0.3322640061f, -0.0935131684f, 0.0613662861f, -0.1069811359f, 0.2159492671f, -0.5047995448f, 0.0051515987f, -0.0833756477f, 0.0511122197f, 0.2813743353f, 0.0346611030f, -0.1211720333f, 0.3695909381f, 0.1765650064f, 0.1682686657f, -0.0093080681f, -0.1559521854f, 0.0658135414f, -0.0573804565f, 0.1242055669f, -0.0490168892f, -0.0291708782f, 0.2145379335f, -0.3296248615f, -0.1441095918f, 0.0195456948f, 0.0662889704f, -0.0170897003f, 0.0473029092f, -0.2725570798f, -0.1636962146f, -0.2384011894f, -0.1063334569f, -0.0644674897f, 0.0187322237f, -0.1261989325f, -0.2252085507f, -0.2737890780f, 0.0913655832f, 0.1128986254f, -0.3456069529f, -0.1330014020f, -0.1364995688f, 0.1869714707f, -0.2717816532f, 0.0871782079f, 0.2177576423f, -0.0223225169f, -0.2634044290f, 0.2770203054f, 0.0151445884f, -0.1967802197f, 0.0767921880f, 0.1396830529f, -0.1342368573f, -0.0859096870f, -0.0204630177f, 0.1839352846f, -0.1206099764f, 0.1442655623f, -0.0438473448f, 0.0375973992f, -0.1392098069f, 0.0758854002f, -0.2067120522f, 0.1808601171f, -0.0027659046f, 0.0810197368f, -0.1096161380f, 0.4132358432f, -0.0312654041f, 0.0621501282f, -0.0326063186f, 0.0178695153f, 0.0961541831f, -0.1882161349f, 0.1171419472f, -0.0321463719f, 0.2412413955f, 0.0253076628f, 0.2709687352f, 0.1297099888f, -0.1063591242f, -0.1839877963f, 0.2135168463f, -0.0487171076f, -0.0722640231f, 0.1862268448f, 0.3575203717f, 0.0354674086f, -0.0158781298f, -0.3056026101f, 0.1787951738f, -0.2537678182f, 0.0266221724f, 0.0399754606f, 0.0113397185f, -0.1424008310f, -0.1506510824f, -0.0502158217f, 0.0375665464f, -0.0753676072f, 0.1927703321f, 0.0264662225f, -0.4220252633f, 0.2614729702f, 0.1010937318f, 0.3909971714f, -0.2808507085f, -0.2351708114f, 0.2966714203f, 0.2492949963f, 0.1731013209f, -0.1641629934f, -0.0509732254f, 0.0788927823f, -0.1901223809f, 0.2785881758f, -0.0297294166f, 0.0823642015f, -0.0663767606f, 0.0546699129f, 0.0262197368f, 0.0225829557f, -0.0463955030f, -0.1864663363f, 0.4052652419f, -0.2037299573f, 0.0784145817f, -0.0548269413f, 0.0004519330f, -0.4107148945f, 0.0095596742f, -0.1315373480f, 0.4190354645f, 0.1696924120f, -0.0128777046f, -0.0797571763f, -0.0171073824f, 0.0187783483f, -0.0370940417f, 0.0348199680f, 0.0205568466f, -0.2657110095f, 0.2060589194f, 0.0358998217f, -0.1495561749f, 0.0409966372f, 0.1582420915f, 0.3513951898f, 0.2444184572f, -0.0539089665f, -0.1931953728f, 0.1971495152f, 0.0808945522f, -0.2451797277f, 0.1118016616f, 0.1474947482f, 0.2000637203f, 0.2164669037f, 0.0888257399f, -0.1232410297f, -0.2233831286f, -0.1711333543f, 0.1801268011f, -0.0858147815f, -0.1402477771f, 0.0000918886f, 0.1754093319f, 0.2815854549f, 0.0288952906f, 0.1946742833f, -0.0048149065f, 0.3678620458f, -0.0492625721f, 0.2112531513f, -0.0087360013f, -0.3472370207f, 0.0611406378f, -0.1345223337f, 0.1844260693f, 0.0104509592f, 0.0430184342f, -0.1600587070f, -0.0155545641f, 0.4498506486f, -0.3291183412f, 0.0312080923f, 0.1246074736f, 0.2969317436f, 0.1526674330f, 0.0243648253f, 0.0680069029f, -0.1570764482f, 0.0678477585f, 0.0438593738f, 0.1200564206f, -0.0895597860f, 0.1782587469f, 0.0545216724f, -0.2739285827f, -0.0219190195f, 0.1719878316f, 0.1054550111f, -0.2365033180f, 0.1936662048f, 0.1127614006f, -0.0887516513f, -0.0994537547f, -0.3158136308f, -0.0016878678f, 0.1076440364f, -0.1926162243f, 0.1105092242f, 0.2520542443f, 0.2300410420f, 0.2958617210f, 0.2193014175f, -0.2059242278f, -0.1417814642f, -0.3347568214f, -0.0562357157f, 0.0512592420f, -0.0679743588f, -0.4309990108f, -0.0732591152f, 0.0225920286f, 0.0062091830f, -0.0909562707f, 0.0323138610f, -0.2451849282f, 0.1114653051f, 0.0299409591f, 0.1936161220f, -0.0221799072f, 0.0682266131f, 0.2859944999f, 0.0964870080f, 0.0874400809f, 0.2209779024f, -0.2335565835f, 0.3385165036f, -0.0071150018f, 0.0988971516f, -0.2642412484f, -0.3087736666f, -0.2079527378f, -0.0415390097f, -0.1181203797f, 0.0546317771f, 0.0974418521f, 0.1319098026f, 0.1246503294f, -0.0397362374f, -0.1858076751f, 0.0040378938f, 0.0601591878f, 0.4775863886f, -0.2882612944f, -0.1360439658f, 0.2517479062f, 0.0880484059f, 0.0577480197f, 0.0910035446f, -0.2804709673f, -0.1129057854f, 0.1482806504f, -0.4078049362f, 0.0700996667f, 0.4511577785f, 0.2805927098f, -0.4059691429f, -0.0775239021f, 0.1546689868f, 0.0584575385f, -0.0375462696f, -0.0157983433f, -0.0716187581f, -0.0101033673f, -0.0388229340f, -0.0897148922f, -0.0953440145f, 0.2163863927f, -0.0777164921f, 0.0213055052f, 0.0150796184f, -0.0459949635f, 0.0904277638f, 0.0362071395f, 0.0042572985f, 0.0799243823f, 0.0236304142f, -0.3389113247f, -0.0668117180f, 0.0962960497f, -0.1311492026f, 0.2857453525f, -0.0777503252f, 0.0174275395f, -0.3148837090f, 0.0179408696f, -0.0018386962f, -0.0371052437f, 0.2139787972f, 0.0083593819f, 0.0490491353f, -0.2217857242f, 0.1633447409f, 0.2054238319f, -0.0973756835f, -0.0921222940f, 0.2984745204f, 0.2760912776f, 0.0451560058f, 0.1652589142f, -0.2032722533f, -0.3315275908f, 0.0130383819f, -0.0656058267f, 0.0012019062f, -0.1179849431f, 0.1202555522f, -0.0000487686f, 0.1151298359f, 0.0192627721f, -0.1368966699f, -0.0397546850f, 0.1631651968f, -0.1785654426f, -0.1099136695f, 0.2558211982f, 0.0016779788f, -0.4871923923f, -0.1156424955f, -0.0274952967f, -0.2908907235f, 0.0131365657f, 0.0663824975f, 0.1164675206f, -0.1066225544f, -0.1656645834f, -0.0839021653f, -0.1362265497f, -0.0363736525f, 0.0317115895f, 0.2287047952f, -0.0608379878f, -0.0870543420f, 0.0812063664f, 0.3155416548f, 0.1443702728f, -0.0562128127f, 0.3667655885f, -0.1179156229f, 0.1258938164f, -0.1005102396f, -0.3018350899f, -0.3174091280f, -0.3540416658f, -0.0436888114f, -0.2706107497f, 0.0818984434f, -0.1947391927f, 0.1442456096f, 0.1026867926f, 0.0125709595f, 0.0431573316f, -0.1583757102f, 0.1857437640f, 0.0370713845f, 0.0899327248f, -0.0623636916f, -0.2822478414f, 0.0545928590f, -0.1559183598f, -0.0946311653f, 0.0258375648f, 0.0648521110f, -0.0007080568f, 0.2668949366f, -0.0574205592f, -0.1095007062f, 0.1957749575f, -0.1246032789f, -0.1045951173f, -0.1730537266f, 0.0337554477f, -0.0247422736f, 0.1476164162f, 0.0567611381f, 0.0734123364f, 0.1296188831f, -0.1974701881f, 0.0917291343f, -0.0308824740f, 0.0041859094f, -0.1627339870f, -0.4817383885f, -0.0593063831f, -0.1132166684f, -0.4200910032f, -0.2258264422f, 0.1481774151f, 0.1048080996f, 0.1304093897f, 0.0529349335f, -0.0331021622f, 0.2795962095f, 0.1583463103f, -0.0275630448f, 0.1140090823f, 0.1680654883f, 0.1067470908f, 0.1151179299f, 0.1497190744f, 0.4675399959f, -0.0001392122f, -0.1065523550f, 0.0625610650f, -0.0892738104f, -0.1306181252f, -0.0410253070f, 0.1627629250f, -0.0825020149f, -0.1974828541f, -0.4002323151f, 0.4028960168f, -0.0659383982f, -0.3202870786f, 0.1355451941f, 0.0486330763f, 0.0248706583f, -0.0162828527f, 0.2066891640f, -0.0248814616f, 0.2463927269f, 0.1372804195f, -0.0842364356f, 0.0257396307f, 0.3344424367f, 0.2342187613f, 0.0678725913f, -0.1908108294f, -0.0293106250f, 0.0320364349f, 0.0872496963f, -0.0839175433f, -0.0640227348f, -0.1070271954f, 0.0139655787f, 0.3296156526f, 0.0940821022f, -0.0719774440f, -0.0446169823f, 0.2762896419f, -0.1549199224f, 0.0884623975f, 0.1362982839f, 0.0763374940f, -0.0199837275f, 0.3142679632f, 0.0784672424f, -0.1755175591f, -0.3232176006f, -0.2056941986f, -0.1639801860f, 0.0064187446f, -0.2755253315f, -0.1601901948f, -0.1117635593f, -0.0730766058f, 0.2396524101f, 0.2533422410f, 0.4437198043f, 0.0280222688f, -0.0248934105f, 0.0150745101f, 0.1786171794f, 0.0017187482f, -0.1258672625f, -0.0548457988f, -0.0787871033f, -0.1051994190f, 0.3244711161f, 0.2431041300f, -0.0786097869f, 0.0371549129f, 0.2109421939f, 0.1821635514f, -0.0891422480f, -0.0296176374f, -0.1286356151f, -0.2734568417f, 0.0946620107f, -0.0284310188f, -0.1149320006f, -0.0331881829f, -0.2769241929f, -0.5056861043f, -0.0933858454f, 0.0650982484f, 0.1077757850f, 0.1052454412f, 0.0099307764f, -0.4319999516f, 0.0725205168f, -0.2058531046f, -0.3014070690f, -0.0047511212f, -0.2085926086f, -0.2771065235f, 0.3420888782f, -0.1333373487f, 0.0908189714f, 0.0419337042f, -0.1042659432f, 0.2003017515f, -0.1165936440f, 0.0740419179f, -0.0350581184f, -0.2622846365f, -0.2122752517f, 0.0851716399f, 0.0845776871f, 0.1687508076f, -0.1480702758f, -0.4938265085f, -0.1805456728f, -0.1032580584f, 0.1216716543f, 0.0337442607f, -0.0924550593f, 0.3163395226f, 0.0476563461f, -0.1529907584f, 0.1623636037f, 0.0522816889f, -0.0272733625f, -0.0713657290f, 0.0932872221f, -0.0449322015f, 0.1346673369f, -0.2252157182f, -0.1499742568f, -0.1882178485f, 0.1605571061f, 0.0560428053f, 0.1353355944f, -0.1221804172f, -0.1585702449f, 0.1199813783f, -0.1947206706f, -0.3405075371f, 0.0464636758f, 0.0481597446f, 0.1063141599f, 0.2299404144f, 0.3122353256f, -0.0296719298f, 0.0792452246f, -0.1648600399f, -0.1102765277f, 0.0872160420f, -0.1655928940f, 0.1387912780f, 0.2660599947f, 0.1878564656f, -0.0985794291f, -0.3263710439f, -0.0395208634f, -0.3133995235f, -0.1527932733f, -0.2391730249f, 0.1112212688f, 0.0852853209f, -0.1774507016f, -0.0815942734f, 0.0305115506f, -0.0878260583f, 0.0143324174f, -0.1437257081f, 0.0481708795f, -0.3812587261f, 0.2353461236f, -0.2538184226f, 0.1453053802f, -0.1258548051f, -0.1503212303f, -0.3068772852f, -0.0438835658f, 0.0396987014f, 0.2137576938f, -0.1254118979f, -0.1051762477f, -0.3079541922f, 0.0576709695f, 0.0281069968f, 0.1598725319f, -0.0869212300f, -0.0085304072f, -0.0754305050f, -0.1311698407f, 0.0481957681f, -0.1710534990f, 0.2969271243f, -0.2060131580f, -0.3108409345f, -0.1627736986f, 0.1745576859f, 0.0785343572f, 0.0860459954f, 0.3585125804f, -0.1046029925f, -0.1631157547f, -0.1449660659f, 0.1459024251f, 0.2687413990f, -0.1719491333f, -0.0925598815f, -0.0437352285f, -0.0982661322f, 0.2016972452f, -0.0000977456f, 0.0956795737f, 0.2897972465f, -0.0366028845f, -0.3578467369f, -0.0160241760f, 0.0500702113f, 0.0201137271f, 0.0925217718f, 0.0972389355f, 0.2060831785f, 0.0336142406f, 0.1625801623f, -0.2448391169f, 0.0938935801f, 0.0275574345f, -0.1264593303f, 0.2026511729f, 0.0229485780f, -0.1852959692f, -0.1447126120f, 0.0005396262f, -0.1950005740f, -0.1422082186f, 0.1233928874f, 0.2224896997f, -0.1367342174f, 0.2909533679f, 0.2338505387f, -0.4506937861f, 0.2952554822f, -0.3705507815f, 0.3119523227f, -0.0277156606f, -0.2364494801f, -0.0645298138f, -0.0234274529f, -0.3208536804f, 0.0795744956f, 0.3042739034f, 0.0015041250f, -0.1889860928f, 0.0752217844f, -0.3422466815f, -0.0058079767f, 0.0064360541f, -0.2895906568f, 0.0402531028f, 0.1047776788f, -0.2020476758f, -0.0811965689f, 0.0750837177f, 0.1205829382f, 0.0037834225f, 0.2149105221f, 0.0751792789f, -0.0012261186f, 0.0397350304f, -0.0030050832f, 0.0555015989f, -0.1267865449f, 0.0292241015f, -0.0003694828f, 0.1487624645f, -0.1206260398f, 0.1629094929f, 0.3086243570f, 0.0020921926f, 0.1634883136f, 0.2512590289f, 0.0404597223f, -0.1031377763f, -0.1298653483f, 0.1532706171f, 0.2086551487f, 0.0292221643f, 0.0989051163f, 0.2471997291f, 0.1927367896f, 0.2488941550f, 0.0953940973f, 0.1541850865f, 0.0511782989f, 0.1307900995f, 0.0717270002f, -0.0212686323f, 0.1377551109f, -0.1617309153f, -0.3337588310f, -0.0392908081f, -0.0559909754f, 0.1408484429f, -0.2630008459f, 0.1923438907f, 0.1125864312f, -0.0843015611f, -0.1699437350f, -0.0175964031f, -0.0275648218f, 0.1291863471f, 0.0175224859f, -0.1849102825f, 0.4370026886f, 0.0832781568f, -0.0684170872f, 0.1431992799f, -0.2651118040f, 0.0433786809f, 0.1728982329f, -0.2941001654f, -0.1623512805f, 0.1246076375f, -0.2546623945f, 0.2137892544f, 0.0721235722f, -0.0688077435f, 0.1733958423f, 0.0672828779f, 0.1015759036f, -0.0687920675f, 0.0054490105f, 0.1036848426f, 0.1234514564f, 0.4126488268f, -0.0571377240f, 0.1414486766f, -0.1518956721f, 0.2646179795f, -0.2124651670f, -0.0496127233f, -0.1227691025f, 0.3700435758f, -0.1339261979f, 0.1332512349f, -0.3901080489f, 0.2337608784f, 0.0774109960f, -0.2713355422f, 0.1868072897f, 0.0569094494f, -0.2216376513f, -0.3570033610f, 0.0263148919f, 0.0624341294f, -0.0906360373f, -0.1289943606f, 0.2010160089f, -0.1175804958f, -0.0676760674f, -0.0180916749f, 0.3967864811f, -0.1022873521f, -0.1083466783f, -0.1187273338f, 0.0413422771f, 0.1962164491f, -0.0409775637f, 0.0984588787f, 0.2829383016f, 0.0936243087f, 0.1932733804f, 0.0688134283f, 0.1831379384f, -0.0598052517f, -0.1515976191f, -0.0315715857f, 0.3526200652f, -0.0607191138f, -0.4006322026f, 0.0452645347f, -0.0062668966f, 0.1890024692f, -0.0829639062f, 0.0334011838f, 0.2621928751f, 0.0485068709f, 0.4386678934f, -0.0038639207f, 0.0503094196f, 0.0325968079f, 0.1140375286f, -0.3038972020f, -0.1067364365f, 0.0507153124f, -0.1901953220f, -0.2057404220f, -0.1209698915f, 0.0453020558f, -0.0298512727f, -0.1512079686f, 0.1418342590f, -0.0693963170f, -0.1369071752f, -0.0320979171f, -0.0356899276f, 0.0215002019f, -0.3686288893f, 0.2337077856f, 0.0865166560f, 0.1456941515f, -0.1025677547f, 0.0701249465f, -0.0261054765f, -0.1781035364f, 0.0320807174f, -0.0060547371f, -0.0404589400f, 0.0874166489f, -0.2018645704f, 0.2346342653f, 0.2372249812f, -0.0285458695f, 0.0861284733f, 0.0576987676f, -0.1513268054f, -0.0221965946f, -0.0844773874f, -0.0304792896f, -0.1732029915f, 0.1236822233f, 0.3309422731f, 0.1376629174f, 0.1137772873f, -0.1919368654f, -0.0855466872f, 0.1926580817f, -0.2244724631f, 0.2790572047f, -0.0070175212f, 0.2018452585f, 0.2769753337f, -0.0128959259f, 0.1897886693f, -0.2442666888f, 0.3165637851f, 0.2685866058f, -0.1425222605f, -0.5036160946f, -0.0868143961f, 0.1135085076f, -0.1125361770f, 0.2092952877f, 0.0742674693f, -0.2082503140f, -0.0538878590f, -0.0808548704f, -0.1248214990f, 0.0150856050f, -0.2124516368f, 0.1405873895f, 0.2558667362f, 0.0439614989f, 0.1275094301f, -0.1816360503f, 0.0881200433f, -0.2650801837f, 0.2040507048f, -0.0683348700f, -0.1733330637f, 0.0240204204f, 0.0578625053f, -0.0459881499f, 0.4206518829f, 0.0622733012f, -0.1660990119f, -0.1262256801f, 0.0149035295f, 0.1154767573f, -0.0352686048f, 0.1115966588f, -0.1611703783f, -0.0386785120f, 0.3712365627f, 0.2947182059f, 0.1194030195f, -0.0792699754f, -0.0097666141f, 0.1723254025f, 0.1805542409f, -0.1006436720f, -0.0199918151f, -0.1497967988f, -0.2903193533f, -0.1713296026f, -0.0606896877f, 0.2850769460f, 0.3349333107f, 0.0526581146f, -0.1004352570f, -0.0641783848f, 0.0708046034f, -0.0188206397f, 0.0734381750f, -0.3545360863f, -0.3807030022f, 0.3106705248f, -0.2254785597f, -0.1858069599f, -0.0653948039f, -0.0248698667f, -0.2572142780f, 0.0631196201f, 0.0480339043f, -0.1191597655f, -0.1421464235f, 0.0748835802f, 0.3665863574f, -0.3055758774f, -0.2030732334f, 0.0983976200f, -0.0370971411f, 0.0440970138f, 0.2079044431f, 0.1117623597f, 0.0535230562f, -0.1688768715f, -0.1591860056f, 0.1357202381f, 0.2091820389f, -0.1036948636f, 0.1308885217f, 0.0617143363f, 0.1979480237f, 0.0702153444f, -0.0268080700f, 0.2735332847f, 0.1865565479f, 0.1874476671f, -0.0619141050f, -0.2443373650f, 0.0313667655f, -0.1139892414f, 0.0590052232f, 0.3182792068f, 0.0555593520f, 0.0242341738f, -0.2138426155f, 0.2891445756f, 0.0028698996f, 0.0469427183f, 0.0321112387f, 0.0763889551f, 0.2204095423f, -0.2632072568f, 0.1370843500f, -0.4040131569f, -0.0897768140f, 0.1929234415f, -0.1485486180f, -0.1959894001f, -0.2521927655f, -0.1094272360f, -0.2721468210f, 0.0622498356f, 0.0754198655f, -0.0065274690f, -0.3235237002f, -0.0569275618f, -0.3015319109f, -0.0717030019f, 0.1189602911f, 0.1532712877f, -0.0656680763f, 0.1056244373f, 0.3191393912f, -0.0085760700f, 0.1583020538f, 0.1552052051f, -0.0983970687f, -0.2948266268f, -0.0394900143f, -0.1213764548f, -0.0872458145f, -0.0764156207f, 0.1631373614f, -0.1006238014f, -0.3255464733f, -0.0515547954f, -0.0772809237f, 0.0785583407f, 0.0913571939f, -0.0692710727f, -0.1116902456f, -0.2059121877f, -0.2612630725f, 0.3445770442f, 0.0920195803f, -0.0404384136f, 0.2264270484f, 0.2223415375f, 0.1213261187f, -0.0579534844f, -0.0653722063f, -0.5453091264f, 0.0245784912f, -0.1517852843f, 0.2572864592f, 0.1989559680f, 0.1370480508f, 0.2174847573f, -0.0027983922f, -0.0164743531f, 0.1223234162f, 0.2869426906f, -0.2675636709f, -0.0493493564f, -0.1071353033f, -0.0715206265f, 0.3713046312f, 0.2827257216f, 0.0257931966f, 0.0094841858f, -0.0106355138f, 0.0877741501f, 0.1134829670f, 0.0007431114f, -0.0004710440f, 0.1001900584f, -0.2057694942f, -0.0345036015f, -0.0240244698f, 0.1362228245f, 0.0550792627f, 0.0038594818f, -0.1245414019f, 0.0980438665f, -0.2221334577f, 0.2012487352f, -0.4185349941f, 0.0240118820f, -0.0327490233f, 0.0789228156f, 0.0900721475f, 0.0187669545f, 0.1306959242f, 0.0021231729f, 0.2839996815f, 0.4606885910f, 0.1791191399f, -0.1339626461f, -0.1298306733f, 0.1744623929f, -0.3700231910f, 0.0083851321f, -0.0051392890f, 0.0223203208f, 0.0060474891f, -0.1372883022f, -0.0403314047f, 0.0393895544f, 0.0828238353f, -0.0306595527f, -0.0857481733f, -0.2797509730f, 0.0750984699f, -0.3413441479f, 0.1702505797f, 0.2441143841f, 0.0617912039f, 0.1112627164f, 0.0203993898f, 0.2452352941f, -0.3375193179f, 0.1854993850f, 0.1218742356f, -0.4330605268f, 0.1571320742f, -0.1334962398f, -0.3150767088f, -0.2954939008f, -0.1115673184f, 0.0312052667f, -0.1067937836f, -0.1000040397f, -0.1833975613f, 0.0813723505f, 0.1875249743f, 0.1837250590f, 0.2669359148f, -0.2783625424f, -0.0792493448f, -0.1663399190f, 0.2953103781f, 0.2947304845f, -0.2105381936f, 0.1101076454f, 0.0846964046f, 0.0068922197f, -0.1561289132f, 0.1513372213f, 0.0202528536f, -0.0982354954f, -0.0769192278f, 0.1020519659f, 0.2264710665f, -0.0723334402f, -0.0767391771f, -0.2912001610f, -0.1800335348f, -0.1293690056f, 0.0767473802f, 0.1338834763f, -0.0196197852f, -0.0244419798f, 0.0877566934f, 0.1101630479f, -0.0347342193f, -0.0748455524f, 0.0739053339f, -0.3776182532f, 0.0950586870f, -0.1202915832f, -0.0449671261f, 0.2569581270f, -0.0097432677f, -0.0091812415f, 0.2540306449f, -0.0158622470f, -0.1053524986f, -0.0607052520f, 0.0415305719f, -0.2746610343f, 0.1813667417f, 0.1197370812f, -0.0606386252f, -0.1695671827f, -0.2393011004f, -0.0952291787f, 0.0851590857f, 0.0229093507f, 0.1191753522f, 0.0208178330f, 0.0141196260f, 0.0524260476f, -0.1229858994f, 0.0653643832f, -0.0287054796f, -0.0467698313f, 0.0250804964f, -0.2024787217f, 0.3938463330f, 0.0531273484f, -0.0512590781f, -0.0392508619f, -0.2748110592f, -0.0435553528f, -0.0716838911f, 0.0446711071f, -0.0037792609f, -0.2906277776f, 0.1160813794f, -0.1366906166f, 0.1158064157f, 0.1088793427f, -0.3002590537f, 0.0537973680f, 0.0314598903f, -0.1150221750f, 0.0057030288f, -0.2186337113f, 0.1849523038f, 0.1095723212f, -0.1202339232f, 0.5100171566f, -0.1872501373f, -0.0888119340f, -0.2051087171f, -0.0568058342f, 0.0768871382f, 0.3456449509f, 0.1510451287f, -0.1118660122f, -0.2090035081f, 0.1595504284f, -0.3926438689f, -0.2646083832f, -0.3538559079f, 0.2396935970f, -0.0597997829f, 0.1667935848f, 0.0860600322f, -0.0449213982f, 0.1142035499f, -0.3125411868f, -0.0770527124f, -0.1525932252f, -0.2267553657f, -0.1209348813f, -0.0679866150f, 0.0100114373f, -0.2051059008f, -0.1231194064f, -0.0489174277f, 0.0372795053f, 0.2698949873f, 0.0238846727f, -0.1332316548f, -0.2204193175f, 0.1866372228f, -0.1980025172f, -0.0867835954f, 0.0289023984f, 0.3389679492f, 0.1367491931f, 0.2462090701f, -0.0180425253f, 0.0857688561f, -0.0185223911f, -0.1858011335f, 0.0757073015f, 0.0577218831f, -0.1998455524f, 0.0568064377f, 0.0348925814f, 0.0197953489f, -0.0167856421f, 0.1985750645f, 0.0889189094f, 0.0517056920f, -0.0218011700f, -0.1052730978f, 0.0821432024f, -0.0745375678f, -0.2353455275f, -0.0197725073f, -0.0914983749f, -0.0363467634f, 0.0577520467f, -0.0290015079f, -0.0857442170f, 0.0364303365f, -0.5855708718f, 0.1788656563f, -0.1111225188f, 0.2978467047f, 0.2088886797f, 0.3372282982f, 0.0600424781f, 0.0134186773f, -0.0784881711f, 0.2595924437f, -0.2617651224f, 0.5612789392f, -0.0625181943f, -0.0746356398f, 0.2104725838f, -0.1641147584f, 0.0630708188f, -0.3659508824f, -0.0615721419f, -0.1017277539f, 0.0803878382f, 0.2212666273f, -0.0713590682f, -0.2807402015f, 0.1877857000f, 0.0664200261f, 0.0960776657f, -0.3347746134f, -0.0233960301f, 0.1073889807f, 0.0824978128f, -0.1852638274f, -0.0961912796f, -0.1317749470f, -0.3654786944f, 0.0586590096f, -0.2989046872f, 0.1381904930f, -0.2297116369f, -0.0366313234f, 0.1644723266f, -0.0452279411f, 0.1516934335f, 0.0455440655f, -0.0578087457f, -0.0960357189f, 0.3654037416f, 0.3131216168f, 0.1524902880f, -0.1861599386f, 0.0225649420f, 0.0858362988f, -0.0318095163f, -0.2293459028f, 0.1630707234f, -0.1084440649f, 0.1600709110f, 0.2672101259f, -0.1324677467f, 0.0263244640f, -0.2091374099f, 0.1547023654f, -0.0775937438f, 0.1858516634f, -0.1115560681f, 0.3060170114f, -0.2255197465f, 0.3661168516f, -0.1227331087f, -0.1059528589f, -0.1423579305f, -0.1553037763f, 0.0225139242f, -0.0880944505f, 0.3173000813f, 0.2215338051f, 0.1292510331f, -0.0421760902f, -0.2094844431f, -0.0643690228f, -0.2726298273f, -0.0990570188f, -0.2624672651f, -0.1151966602f, -0.0499877147f, -0.1867734790f, -0.0079211611f, 0.1205306724f, -0.0204804894f, 0.1249623522f, -0.0322962478f, -0.3743773401f, 0.0473790839f, -0.1348149180f, -0.3410729766f, 0.0684756115f, -0.1235607564f, -0.2621813715f, 0.1398878545f, -0.2251539975f, -0.1083437353f, -0.0875270218f, -0.0113996370f, -0.1635148972f, -0.3304277658f, 0.2085065693f, 0.0939561352f, 0.0688491762f, 0.2960396409f, -0.0177853070f, -0.2257560492f, -0.0867032409f, -0.0142782759f, 0.1512795389f, 0.2825988829f, 0.0687946528f, 0.1967927068f, -0.1919863373f, 0.1555467695f, -0.1386963129f, 0.0349675752f, -0.0785815194f, -0.2563161254f, 0.0149334623f, -0.0863629282f, 0.1667084992f, -0.3083939552f, 0.1728039682f, 0.1566561311f, 0.1485544890f, -0.0955360234f, 0.2203495502f, 0.0675025508f, -0.3401522040f, 0.0163681433f, -0.2187867612f, -0.2239379138f, 0.1123235226f, -0.2644332051f, -0.1031695306f, -0.1913908273f, -0.0741621330f, -0.0266072173f, 0.2541069388f, -0.0321256258f, -0.1192132980f, -0.0175205003f, 0.2781131268f, 0.2148011178f, -0.0094998972f, -0.0491481237f, -0.0264159217f, -0.1667215675f, 0.0899381489f, -0.1525496989f, -0.0488084443f, 0.2118855417f, -0.2697163522f, 0.2787258029f, -0.1598993093f, 0.0292764548f, 0.0717891827f, -0.2610780299f, -0.1886869818f, 0.1313817948f, -0.1848167926f, 0.1382554919f, -0.1410499662f, 0.0258955546f, -0.2115781009f, -0.1392504275f, -0.1114754528f, 0.0965583920f, 0.3273299932f, 0.0637494400f, 0.2488586754f, 0.2203603536f, 0.3375791013f, -0.1654659510f, 0.1132749543f, -0.1561315358f, -0.1527604908f, 0.0784715265f, 0.0781467855f, -0.2470897734f, 0.0460454971f, -0.2841824889f, 0.2247307301f, 0.3091172576f, -0.1585314870f, 0.1319680512f, 0.3167258799f, -0.0510203503f, -0.2468571961f, -0.3665614128f, -0.0400493890f, 0.1430363655f, 0.0800049007f, -0.1023353040f, -0.0901098177f, -0.0337023996f, 0.2009770870f, 0.0398513898f, -0.2589891553f, 0.0216079876f, -0.1718101948f, 0.1592742354f, 0.0339261256f, 0.3461064994f, -0.1609317660f, 0.2407774925f, 0.0363375396f, -0.2956413627f, -0.2112283409f, -0.0551103354f, -0.2122310400f, -0.1308291703f, -0.1174848378f, -0.4091145396f, -0.0766429603f, 0.2051607668f, -0.3087835610f, -0.0589197949f, -0.1435113847f, -0.1089183688f, 0.1657577306f, 0.1185759306f, 0.0715221614f, -0.0454741307f, 0.0675457418f, 0.1352713108f, 0.2131294161f, 0.0470135882f, -0.1214042902f, 0.2734931409f, -0.0419031158f, -0.0479654968f, 0.0513152070f, -0.0480026565f, -0.1965579540f, 0.0802419931f, 0.0005224426f, 0.2587725222f, -0.0664060563f, 0.1279291362f, 0.1550197452f, -0.1070189029f, -0.2399829328f, 0.2330369055f, -0.2021383345f, 0.1092192680f, -0.0888990909f, 0.0900706276f, -0.0348722674f, 0.0738762468f, -0.0619024225f, 0.3062935472f, 0.1141674072f, -0.4645114541f, -0.0005578748f, 0.0602795109f, -0.1492404640f, 0.0616895892f, 0.0417323038f, -0.2600469291f, 0.0916411132f, 0.2295100838f, 0.2207456529f, 0.3111416101f, -0.0547606796f, 0.0909256861f, -0.0802949145f, -0.1533500999f, 0.0039202846f, -0.0388644747f, 0.0276011433f, 0.2473771274f, -0.0238273144f, -0.0126087228f, 0.1250572652f, 0.3708995283f, -0.1056134775f, -0.1594022810f, -0.0156284533f, 0.0953646377f, 0.3916339576f, -0.3132590353f, 0.0937670171f, 0.2468266636f, 0.5212745667f, 0.1694839746f, 0.0588130467f, -0.0283050537f, 0.0431836247f, 0.2700466216f, -0.2138720006f, 0.0699520558f, -0.3218933344f, 0.3258158565f, -0.0548686199f, -0.0258415043f, -0.0861658454f, -0.3656214178f, 0.1481352746f, 0.0960409120f, -0.0103947949f, -0.4832572937f, 0.0044891653f, -0.3164486587f, 0.0285735261f, -0.0238947216f, 0.1336844862f, 0.4158640504f, -0.0624294765f, -0.1921224445f, -0.0747978389f, -0.1747934371f, -0.0622575581f, -0.1045203283f, -0.0917637348f, -0.0073498059f, -0.0676831231f, -0.0594910420f, 0.0041007055f, -0.0765281245f, 0.0024838385f, 0.0642005354f, -0.1352705806f, -0.0849290192f, 0.1320226341f, -0.0179893039f, -0.1062511057f, 0.1240749508f, -0.1312770844f, 0.1710648239f, -0.0373147614f, -0.1515423357f, -0.2735639215f, 0.1501631886f, 0.1772477925f, 0.1557994783f, -0.2507014275f, 0.2416731864f, -0.0081923278f, -0.5229622722f, -0.1824154854f, 0.1050131544f, 0.1014952660f, 0.1148597226f, 0.0090350211f, -0.1505115628f, -0.0711209998f, -0.0381043889f, -0.1028611138f, -0.1456950605f, -0.0599363446f, 0.0236907266f, 0.0688173398f, -0.1908972710f, -0.0880815536f, -0.0791446418f, -0.0850357190f, 0.3459579647f, -0.2293542176f, 0.1420852095f, -0.2181505263f, 0.0932198614f, 0.0224361084f, 0.2199555188f, 0.2131928355f, -0.2042908967f, -0.2386216968f, 0.2061959207f, -0.0063747228f, 0.0925479531f, 0.2336707115f, -0.1388302892f, 0.3493761420f, -0.0484325178f, -0.1929202974f, -0.1822875142f, 0.1858913600f, 0.1812401712f, -0.1611993462f, 0.2843284607f, 0.2031146884f, 0.1228143498f, -0.0956747830f, -0.0665862337f, -0.0698669106f, 0.1199214309f, 0.2658760548f, 0.0428507067f, -0.0375471599f, -0.0799147934f, 0.0439338908f, -0.1519375443f, -0.2112725079f, 0.0065743383f, -0.2627857625f, -0.0358768180f, -0.2728467584f, 0.1678428501f, -0.0057963035f, 0.1785708070f, -0.0565778129f, -0.0073013166f, 0.0859407783f, 0.1633980423f, 0.2694711685f, 0.2709758282f, 0.1325724274f, -0.4956198633f, -0.3758259118f, 0.0228772461f, 0.1348700076f, 0.0906063467f, 0.3320120871f, -0.1028112695f, 0.2326706648f, -0.0919065252f, 0.0782788396f, -0.1114151925f, -0.1448553354f, -0.1468546987f, 0.2650871873f, 0.2642593086f, -0.1037186086f, 0.2089624107f, -0.0027477117f, 0.1325693280f, 0.0401655883f, -0.0697653964f, -0.2048420161f, 0.0148259783f, -0.1301335096f, 0.2792650759f, 0.0656993315f, -0.1226536185f, -0.0751438439f, 0.1934481263f, -0.2769347429f, -0.2648930848f, 0.1668259799f, 0.3329651952f, -0.2297173440f, 0.1783217043f, -0.2209125459f, -0.0855973065f, 0.0662855878f, -0.1427206844f, -0.0166392792f, -0.1009583026f, 0.1003761590f, 0.0733982399f, -0.0767125115f, 0.0404798202f, -0.0519173406f, -0.0507330596f, -0.2014541030f, -0.1654831916f, -0.1088991389f, 0.1357996911f, -0.1196622998f, -0.2010701299f, 0.1519692838f, 0.1499482691f, -0.3278212845f, 0.0011474452f, -0.0542561710f, -0.2642816603f, 0.0729611591f, -0.2601507902f, 0.2420859337f, -0.0802519098f, -0.0960472003f, 0.0309904777f, 0.0089572323f, 0.0078750355f, 0.1189233288f, 0.1675178558f, 0.1163679734f, -0.1167264879f, -0.2991670370f, -0.0690809116f, 0.1822629273f, -0.1224270090f, 0.0285364576f, -0.0045758644f, 0.0585747026f, 0.0965840816f, 0.1696807742f, -0.1121282876f, -0.1119933352f, -0.0146941971f, 0.2128903866f, -0.2363971919f, 0.2085249871f, -0.2238257080f, -0.2133356333f, 0.3061863482f, -0.0659139529f, 0.0276781321f, -0.2442444414f, -0.0953779668f, -0.1222149730f, -0.0422562473f, 0.1844103783f, -0.2441679239f, -0.1221593916f, 0.0129438546f, 0.2885446846f, 0.1888644993f, -0.1367838383f, 0.0285123587f, -0.2922827005f, -0.0533873215f, 0.2542841434f, -0.2020204663f, -0.1602524370f, -0.0990906283f, -0.3199934065f, -0.1611757874f, 0.3228432536f, 0.3960517943f, -0.0882760659f, 0.0086707491f, -0.0640460923f, 0.0414439104f, 0.1180449948f, 0.1280861050f, -0.0044336258f, 0.2116748095f, -0.1590845585f, -0.1695757508f, -0.1203047633f, 0.2090045065f, -0.0394672602f, 0.1366821378f, -0.0056187850f, 0.3025122583f, -0.2724865675f, -0.0770227164f, -0.0443423577f, -0.4225843847f, 0.2734949291f, -0.0571641065f, -0.1271767318f, -0.2536423504f, -0.1932069659f, 0.0430780016f, -0.0509036146f, -0.2137106359f, 0.0823908672f, -0.0313536786f, 0.1078188941f, -0.1317726225f, -0.0988455862f, 0.4037585557f, 0.1003320143f, -0.1482365578f, -0.1631984413f, -0.2925013900f, 0.2515169978f, -0.0549302064f, 0.4002718329f, 0.2588897347f, 0.0139005734f, -0.1758164912f, 0.0466663241f, 0.2710848451f, -0.1043049172f, -0.0591142550f, -0.0317393579f, 0.2368376702f, 0.0246960409f, 0.0136584910f, 0.1245437637f, 0.2016355991f, 0.0747423768f, 0.1957277060f, -0.1677204221f, 0.1187830716f, -0.1793473959f, -0.2830479443f, -0.0162011925f, -0.2682293952f, 0.0453547984f, -0.0267303102f, 0.0375556722f, 0.1733395755f, 0.0590730496f, 0.1203537434f, -0.0914564133f, -0.2127887756f, 0.0099642305f, 0.2000126094f, -0.1356901377f, -0.0728436485f, 0.1748203933f, -0.2036297321f, -0.1483236253f, -0.1554399282f, 0.0172211509f, -0.0212227441f, 0.2378784865f, -0.1728456914f, -0.0087958202f, -0.0629261211f, -0.0759163126f, -0.1660239697f, -0.2072028220f, 0.2938252687f, 0.0522114970f, 0.3436508477f, -0.0853006989f, 0.0106230155f, 0.2485785633f, -0.2574780583f, -0.0490287505f, -0.1275489181f, -0.0402320810f, 0.2444584817f, -0.0709600747f, -0.2503679693f, 0.0468767248f, -0.2022101283f, -0.0645955056f, 0.0117765684f, -0.1602884084f, -0.2208191007f, 0.0907967538f, 0.3818445802f, -0.0528838225f, -0.0721426830f, 0.2318002880f, 0.3747917116f, 0.1386778951f, 0.1773349345f, 0.1066992655f, 0.0468966924f, 0.5415765047f, 0.0131150922f, 0.0757830441f, 0.0847861916f, -0.0634739399f, -0.0086181266f, -0.0516170189f, -0.0579396188f, -0.0295934323f, 0.0152511010f, 0.2059211433f, -0.0456593335f, 0.3224276006f, 0.1193456277f, -0.1028463989f, -0.1740248501f, -0.2031359673f, 0.1971493214f, 0.0831637755f, -0.0099644065f, -0.2414260209f, -0.1335852593f, 0.2210781425f, 0.0457174554f, -0.1991977096f, -0.0819213465f, 0.0169109982f, 0.2827735841f, -0.0747697055f, 0.1178976074f, -0.1855700016f, 0.0099561708f, 0.2640153170f, -0.1218497604f, -0.0147123383f, 0.2334515601f, 0.1051148772f, 0.3850716054f, -0.2162182629f, -0.0561620183f, 0.2062222809f, 0.2456816286f, -0.0728101656f, 0.0132597676f, 0.1274271607f, 0.0598428436f, 0.0583601296f, -0.1332609653f, -0.2419782579f, 0.3431391120f, -0.2346069366f, -0.1012906507f, 0.0455476120f, 0.0076458645f, -0.0241507199f, -0.2836592197f, 0.0657417178f, -0.1172688082f, 0.0533163957f, -0.2751300633f, -0.2072292417f, -0.2638072371f, 0.1255642176f, -0.2269577384f, 0.0347970687f, 0.1354643255f, 0.0854371488f, -0.1299038380f, -0.0705850944f, 0.1965309680f, 0.1915521473f, 0.3716245294f, -0.1096081436f, 0.0530601293f, 0.0636653900f, 0.1033885702f, 0.1393440813f, 0.0130270114f, 0.3697276115f, 0.1289218515f, -0.0673622340f, -0.1479561329f, 0.0305564739f, 0.4834340811f, 0.1126957536f, 0.1426092833f, -0.2733917236f, 0.0856483653f, -0.2613624036f, -0.1111680493f, -0.3305892348f, 0.2243122309f, -0.2170953453f, 0.2148598731f, 0.1155760288f, 0.1384105384f, -0.1627439708f, 0.3766516149f, 0.1427038461f, 0.2444280982f, -0.1244289353f, -0.0345756896f, 0.1886081100f, -0.1871955991f, -0.0783943012f, -0.0867721885f, 0.0297609586f, -0.1731957644f, -0.0194108207f, 0.0624370836f, 0.0945179835f, -0.0647152364f, 0.0901594833f, -0.2212692648f, -0.1495041549f, 0.2776961327f, -0.1051569656f, 0.0873075426f, -0.1426525265f, 0.1091516241f, -0.2057689279f, -0.0005958044f, -0.0939809531f, -0.0860616714f, -0.3507353365f, -0.1780961603f, 0.0487703606f, -0.0265492070f, 0.0205379706f, -0.0151969297f, 0.2188280523f, -0.2563310564f, 0.0649357662f, 0.1085482091f, 0.3072859943f, -0.0445189290f, -0.3489391506f, -0.1032140702f, -0.0839090422f, -0.1928337663f, 0.0847243890f, 0.0060736467f, -0.0763265640f, 0.0228349864f, -0.0714352429f, -0.2327508032f, -0.0021935182f, 0.1065275222f, 0.3140151501f, 0.0183769763f, -0.3648490608f, -0.2082590461f, 0.0661161914f, 0.2010099590f, 0.1217115670f, -0.0376850069f, -0.1041521281f, 0.0582943335f, -0.0992139950f, 0.2406759858f, 0.1111690998f, 0.0676246732f, -0.2224692106f, 0.1443799883f, 0.0749565139f, 0.2277139276f, 0.1915372461f, 0.1219972000f, 0.1348817199f, 0.2823041379f, 0.1662317216f, 0.0734850094f, -0.3469894528f, -0.1151120067f, -0.0778808370f, -0.3667719364f, 0.3241783381f, 0.1777536869f, 0.3145390749f, -0.1149310991f, 0.3483041823f, 0.1851903945f, -0.0090406770f, 0.2072255462f, 0.1165698618f, -0.0122300126f, 0.1024755538f, -0.0099557824f, 0.0199540909f, 0.1776036769f, 0.0460503250f, -0.1138510704f, 0.0824885294f, -0.0896490514f, 0.0579563901f, 0.0539399981f, -0.1665778160f, 0.0641164631f, 0.0741046220f, 0.4014307261f, -0.0207776967f, -0.2001227289f, -0.1657711267f, 0.2066082954f, -0.1100477204f, -0.1123914570f, 0.0280780420f, -0.0104853231f, -0.0119113745f, 0.0760929286f, -0.0907121077f, 0.1720861644f, 0.1258089840f, -0.1974459291f, -0.2998570204f, -0.0185367204f, 0.1221701652f, 0.0948839635f, 0.4180890620f, 0.3817626238f, 0.1236676872f, -0.1242569759f, 0.0763640925f, 0.0577741265f, -0.1269538701f, 0.1085916311f, 0.3775313795f, -0.0410573669f, -0.0179668386f, -0.0036896190f, -0.1249824241f, -0.0153734880f, 0.0291351341f, 0.0233245250f, -0.2361446917f, -0.2973448634f, 0.0345036760f, 0.1260911524f, -0.0421113409f, 0.0969227031f, 0.0372991227f, 0.1197852716f, 0.0952907726f, 0.0662522390f, 0.1546721160f, -0.0950173885f, -0.0839681551f, -0.0107780425f, -0.2394127250f, -0.2783004940f, 0.3005767167f, -0.1185375527f, 0.0694611073f, -0.2818076611f, 0.1641287208f, 0.2235268354f, 0.2820418477f, 0.2382484823f, -0.3876015544f, 0.1175126508f, -0.1115004867f, -0.2788398266f, -0.0153067773f, 0.0538253896f, 0.0237495452f, 0.2479148358f, -0.2783357203f, -0.0891293362f, -0.0379250161f, 0.1375094652f, 0.0721501410f, 0.1900031716f, 0.0872566700f, 0.0570319071f, 0.2378459275f, -0.0291272681f, -0.3611266315f, -0.1292981654f, 0.0736527815f, 0.0923669860f, 0.1126836091f, -0.1355188340f, 0.2213214636f, 0.1248929575f, -0.2545242310f, 0.0609847829f, 0.1795566529f, -0.0125473281f, -0.0989915952f, -0.0096664261f, -0.0156332050f, 0.0118318060f, 0.0240135603f, -0.2928159833f, -0.0372349545f, -0.0639661103f, -0.2667681277f, -0.0747561976f, -0.0212485176f, 0.2805863023f, -0.3021136522f, 0.0110166911f, -0.1594483256f, -0.1917615533f, 0.0646788850f, -0.0545063093f, 0.0611224845f, -0.2766853571f, -0.0274544284f, 0.1799982637f, -0.3485289812f, 0.2328381389f, 0.1455339938f, 0.0180906840f, 0.3349596262f, 0.0003249536f, 0.1723247170f, -0.1927512139f, 0.2169160843f, -0.0841767043f, 0.1802418530f, 0.2452093810f, 0.1044032946f, -0.1529186070f, 0.3569775522f, 0.3077686131f, 0.1071688533f, -0.1034406051f, 0.1507306844f, 0.1366873831f, -0.1547989398f, 0.0721359998f, -0.1653062254f, -0.2558771968f, -0.0579497367f, -0.0355712883f, 0.4639276862f, -0.1571109593f, 0.2463982552f, 0.3132066131f, 0.1526997387f, -0.0385130681f, 0.1315454245f, -0.0167817194f, 0.0627549440f, 0.1028843075f, -0.0853981450f, -0.1050597131f, -0.2762159109f, 0.1327336878f, -0.1031792238f, -0.0013071353f, -0.0809640288f, -0.1832605451f, 0.1738670319f, -0.1558187008f, 0.0016068351f, 0.1926667392f, -0.0988491699f, -0.0441689640f, -0.0284338184f, -0.2421285510f, -0.2853755951f, -0.0051000053f, -0.2994442284f, 0.0062199603f, -0.0787636340f, -0.1050099432f, -0.0015208659f, -0.0364772417f, -0.2726387382f, -0.0845917314f, 0.1691547036f, -0.4671782255f, -0.0714961365f, -0.0670574829f, -0.0286441334f, -0.0668437108f, -0.2003745437f, -0.3539590240f, 0.0308956411f, -0.0616804659f, -0.0561915189f, 0.0300941877f, 0.2413499206f, -0.4014237225f, -0.0857520625f, 0.0167595055f, 0.0922744200f, -0.0037320505f, -0.0126475384f, 0.0016653516f, 0.2117094845f, -0.0937067866f, 0.2422023565f, 0.0041990383f, -0.1663793921f, -0.2735939324f, 0.1910803318f, 0.2477177382f, 0.1527566612f, -0.0198356807f, 0.1598048657f, 0.1792660654f, 0.1218404993f, 0.3203494847f, 0.2708195746f, -0.0128340982f, -0.1372525245f, -0.3742111921f, 0.2684041262f, -0.1627416462f, -0.1317529678f, -0.0475269519f, 0.1465877891f, -0.0687532127f, -0.2572032809f, -0.1153127402f, 0.0239375960f, -0.0486760885f, 0.2950094342f, -0.2030471563f, -0.2286333442f, 0.2289019674f, -0.1811782122f, 0.1390037835f, 0.2970039845f, 0.0247755758f, 0.2385405004f, 0.0366801135f, 0.2499070466f, 0.0672218129f, 0.0829684809f, -0.0132891955f, 0.2605290711f, 0.0521146320f, 0.0137889767f, 0.1883432120f, -0.2750541568f, -0.0582606196f, -0.2109439522f, 0.0044429428f, 0.0682484061f, -0.1177774295f, -0.0127875004f, 0.1780099720f, -0.0712015778f, -0.0702572912f, 0.1756469309f, 0.0172995012f, -0.2115019709f, -0.1372016668f, -0.3890776932f, 0.1155793443f, -0.0992463306f, 0.1500919312f, -0.1244132519f, -0.1181505695f, 0.2491202950f, -0.1182591692f, -0.0126366997f, 0.0239172466f, 0.3325116634f, 0.1704696268f, 0.0668888986f, 0.0290859472f, -0.1545664817f, -0.2067201883f, 0.0123984842f, 0.2883205116f, 0.0977161005f, -0.1377495527f, -0.2799362838f, 0.0773135871f, -0.2979213297f, -0.0832413808f, -0.1722719669f, -0.1716991365f, -0.0559130348f, 0.0537107028f, 0.2006976008f, -0.1734120250f, 0.3139132857f, -0.0723989084f, -0.0201981086f, 0.2865426242f, -0.0664682239f, -0.1023277789f, 0.0470196344f, -0.3379279673f, -0.1173912138f, 0.0242099427f, -0.4636811018f, -0.0178234801f, 0.1728783101f, 0.0399928465f, 0.1021239385f, 0.0043015382f, 0.1709501147f, -0.1587956548f, -0.2420397252f, 0.1360032707f, -0.2880125940f, -0.1943980753f, 0.0270700417f, 0.0146167735f, 0.3685123920f, 0.0640906319f, -0.1807031929f, -0.1579356194f, -0.2678883076f, 0.0316508152f, -0.0736446306f, 0.2586951256f, -0.0014351989f, -0.0255110767f, -0.2674065530f, -0.2218361795f, 0.0475661010f, 0.0571336634f, -0.0188280810f, 0.0466625094f, 0.0487866402f, 0.1078276858f, -0.2265047282f, 0.1414434910f, -0.2349392474f, -0.0046505081f, 0.0440631323f, 0.1416819841f, -0.2172524929f, 0.1501797289f, 0.1138063222f, 0.2090269476f, -0.1742899418f, 0.1884647012f, -0.0106307026f, 0.2000665069f, 0.0393747650f, -0.1281577498f, 0.0136380391f, -0.3176203370f, -0.0869284421f, -0.3327090740f, -0.0114582237f, -0.0614387207f, -0.0732682720f, 0.3136051893f, 0.3198278844f, -0.1206625402f, -0.1778388619f, 0.2498548031f, 0.0146673033f, -0.1201441512f, -0.2083376199f, 0.0232510231f, 0.0717054829f, -0.0425750352f, 0.1105444878f, -0.3223851621f, -0.0912281573f, 0.1658118963f, -0.1073656380f, -0.2570622861f, -0.1453867108f, 0.0785492510f, 0.2772471011f, -0.0112172375f, -0.1556345969f, 0.2571021616f, 0.0655237511f, 0.0902138278f, -0.2690838873f, -0.1139941141f, 0.3781629205f, 0.4021707773f, -0.1168522164f, -0.1334535331f, -0.0775920451f, -0.0960505977f, -0.0692349374f, 0.2849063873f, 0.1929273307f, -0.1684952825f, 0.0581378154f, -0.0372930467f, -0.0168757401f, 0.0100335749f, -0.2480896562f, -0.1154960617f, -0.0671141371f, -0.1570421159f, 0.2314634621f, -0.1958105862f, 0.0625562593f, 0.1995045543f, -0.1103755459f, 0.1363068223f, -0.0031260150f, -0.2237015367f, 0.0564269125f, 0.0168783981f, 0.0733555332f, 0.1278156191f, 0.1001820266f, -0.0479473323f, 0.0779424459f, -0.0635602027f, 0.1477330327f, -0.1294249743f, 0.0039083180f, 0.3289099932f, -0.1190112457f, -0.3454618752f, 0.0107441153f, -0.3345318437f, -0.0507288910f, 0.2142401934f, 0.0650159940f, -0.1539325416f, 0.1774310321f, -0.0737015978f, -0.0003852259f, -0.0564692244f, -0.3240405023f, -0.0456910394f, -0.0044321525f, 0.0359642059f, -0.0481258184f, 0.0639876276f, -0.0889739394f, 0.0797394067f, 0.0181972459f, 0.1153775156f, 0.1895220280f, 0.0239165928f, -0.4065244794f, 0.0111922342f, -0.3045854568f, 0.0759774446f, -0.0379325710f, -0.0716894940f, 0.1581946909f, 0.3073149025f, -0.2306482643f, -0.3018437028f, -0.0548568629f, 0.1071805209f, 0.3177477121f, 0.1385974884f, -0.0185996667f, 0.1973392516f, 0.0755398199f, -0.5486150384f, -0.0687149242f, -0.0702794641f, 0.0248324815f, -0.1738179922f, 0.1834113449f, 0.0399126038f, 0.0381123237f, -0.0900491253f, 0.0911593512f, -0.0140774772f, -0.2224375159f, 0.0337093621f, 0.1764964014f, -0.1746759862f, -0.0079716574f, 0.1602085531f, -0.4084675312f, -0.4014337063f, 0.1283074319f, 0.0607743748f, -0.1084789857f, -0.2375227064f, -0.1373282075f, 0.1269700527f, 0.0201144256f, -0.0599199422f, 0.2149426490f, -0.0079294825f, 0.2083543688f, -0.1071474552f, 0.1957294196f, -0.1286097765f, 0.1913615912f, 0.0971483141f, 0.3443459868f, 0.0738800764f, 0.0353066623f, 0.0868353844f, 0.1061593294f, 0.2691234946f, 0.3074851334f, 0.1837586164f, -0.4296845198f, -0.0589062236f, 0.0743664280f, -0.0022711495f, 0.0578527898f, -0.3344824016f, -0.2359663695f, 0.0829409212f, 0.0953152776f, 0.1565650851f, 0.0015248682f, -0.0401683934f, 0.2853380740f, -0.0327536948f, 0.0705772862f, -0.0314939506f, -0.0419995598f, 0.1857251972f, 0.1662601978f, 0.0304862745f, -0.3349988759f, -0.2308325320f, -0.1067279503f, -0.0032050319f, 0.0159354676f, -0.0307258386f, -0.2549959719f, 0.3060173392f, -0.1708374768f, 0.2192831784f, -0.0055393190f, 0.1983595490f, -0.2739589512f, -0.0519119948f, 0.3407237232f, -0.0252858810f, 0.1161412895f, -0.0522064194f, -0.2583649457f, -0.1271323711f, 0.0064041461f, 0.0413411520f, -0.1305779815f, -0.1656762064f, -0.0644851625f, -0.0144911725f, 0.2693672776f, 0.1145536900f, -0.0204675701f, -0.0418709852f, -0.1312689930f, -0.0731842220f, -0.1476805657f, -0.1035279632f, 0.0217327047f, 0.2805365026f, -0.0308302864f, 0.1553027034f, -0.0663125962f, 0.1532564908f, 0.3016737401f, -0.1023504883f, -0.1358426660f, -0.1610117853f, 0.2508666217f, -0.1519385725f, 0.4303251803f, 0.1039401442f, 0.0676593706f, -0.1553686261f, 0.0356998779f, 0.0447859727f, -0.2033205777f, -0.2969200015f, 0.0001389276f, -0.3307555616f, -0.0079830606f, 0.0112909190f, -0.2158207744f, -0.0238636564f, 0.0713770315f, -0.3930412829f, -0.0620884188f, 0.0267521925f, 0.3495658040f, -0.1240467057f, -0.1606292874f, -0.1745899767f, 0.2762879431f, 0.1317462325f, 0.2870780826f, -0.0584775023f, -0.3514054716f, 0.2130707353f, -0.2555136979f, -0.0515585467f, -0.1449983269f, 0.2837494612f, 0.1209640205f, -0.0048052995f, -0.0617228560f, -0.2277984917f, -0.1102539375f, 0.2240096629f, -0.2800711989f, -0.0100054825f, -0.0513699278f, -0.1916900873f, -0.1413777769f, 0.0943640321f, 0.0878606662f, 0.2305397838f, 0.2765750289f, 0.0896975547f, -0.2158905864f, -0.0240996387f, -0.1176273525f, 0.1245975420f, -0.0543040708f, 0.0566393435f, -0.0327313319f, -0.2336907685f, -0.0776449218f, 0.1689216197f, -0.2129716128f, 0.3178932667f, -0.0525122918f, 0.2714121938f, -0.1590595692f, 0.2228864282f, -0.1725871563f, 0.1366287172f, -0.1252581328f, -0.1724236161f, 0.2432927340f, -0.3560760617f, -0.1801544577f, -0.1449207515f, -0.1795969605f, 0.0251086503f, -0.1026282534f, 0.0157147981f, -0.2585523725f, 0.1297821254f, 0.0383742601f, 0.1984667033f, 0.0806043148f, 0.0490437411f, 0.0331864096f, 0.0478341691f, 0.1699530780f, -0.1185561717f, -0.1763023287f, 0.0718230903f, -0.0082064765f, 0.1347680390f, -0.0377556719f, -0.0637427345f, -0.0862250850f, -0.3903903663f, 0.0217812639f, -0.1437515467f, 0.1606214046f, -0.0226135310f, -0.0266070198f, 0.2681275904f, 0.1410564631f, -0.4155062437f, -0.0596144386f, 0.2398667186f, 0.2493453920f, -0.0093183322f, -0.1014879718f, 0.1623322964f, -0.2027763277f, 0.2831058502f, 0.1839864850f, 0.0301856175f, -0.1995552182f, 0.0625777468f, -0.3484133482f, -0.3731116652f, 0.2195207924f, -0.1137026921f, -0.1754633039f, 0.0132711083f, 0.2554221749f, -0.1284025460f, -0.2774729133f, 0.1030299067f, -0.0595104508f, -0.0063749743f, -0.1125993058f, 0.0255165547f, -0.0770086646f, -0.2370768636f, -0.0084712114f, 0.2581843138f, -0.0821608454f, 0.1737118065f, -0.1675965190f, -0.0988445953f, 0.1264573634f, 0.0843930095f, 0.2315323800f, 0.0023830303f, -0.3042365909f, -0.0473917201f, -0.1300469488f, 0.0906414911f, -0.0882841349f, -0.1145814806f, 0.3410329223f, -0.0698451027f, 0.0521704257f, -0.2804943621f, 0.2835263610f, 0.1057792827f, 0.0849503130f, -0.1919102371f, -0.1517054588f, 0.3041987717f, -0.1024393812f, 0.1066370234f, -0.0066125556f, 0.0896554664f, -0.1881843954f, -0.1438516080f, 0.4015980065f, 0.2861815393f, 0.2185773402f, -0.0740302280f, 0.0918830261f, 0.3232090771f, 0.1118608266f, 0.0143000865f, 0.2067483366f, 0.1192830577f, -0.1629062593f, -0.0816681683f, 0.1530040205f, -0.0541790538f, 0.1057847589f, -0.1453732699f, -0.1081761941f, -0.0358884819f, 0.2908936441f, 0.1053555682f, 0.0783915818f, -0.0717256218f, -0.1126597673f, 0.1841369420f, 0.3174217641f, 0.1124063358f, -0.0704943910f, -0.1172585562f, 0.1318203211f, -0.0783666074f, 0.3013703525f, 0.1271162182f, 0.1074729785f, 0.2735035717f, 0.0907173604f, -0.0081919394f, 0.1758214384f, -0.2549354434f, 0.0404797308f, 0.1007859781f, 0.0100239860f, 0.1479036510f, 0.3546548188f, -0.2205097675f, 0.0618858337f, 0.2952718139f, -0.2029908150f, 0.1001541540f, -0.0447334535f, -0.0103505999f, 0.2822220325f, -0.3323409259f, -0.1729131341f, -0.0899793208f, -0.2514422834f, 0.0867101401f, -0.1317895204f, -0.0698194429f, -0.2345664948f, -0.0379238948f, -0.0665506795f, -0.1183906198f, 0.0893156454f, -0.1546445489f, -0.1045359895f, 0.0863447562f, 0.0514792167f, 0.3519671261f, 0.0681341961f, -0.3052661419f, 0.3020032346f, 0.1635884345f, -0.3318111897f, -0.1283216327f, 0.0742961019f, -0.0279690493f, -0.0103133116f, -0.3444779217f, 0.0049363575f, 0.1067080870f, 0.0554410294f, 0.1274972409f, 0.1714149415f, 0.0508189313f, 0.0508746132f, -0.0070683816f, 0.0653698444f, 0.0785313174f, 0.0890420303f, 0.0716555789f, 0.0158260018f, 0.1632490456f, -0.1309749633f, -0.0375003479f, -0.0207469352f, -0.0015498443f, 0.3705202043f, 0.0204699356f, -0.0585087501f, 0.3011282682f, -0.2525297403f, 0.1966978610f, 0.0954374000f, -0.0340853520f, -0.1762616783f, 0.4799049795f, 0.0267427024f, -0.0093864594f, 0.1711148471f, 0.0461701639f, 0.3777062595f, 0.2195212692f, 0.1035263836f, -0.0658878982f, 0.3047379255f, 0.0194023550f, 0.0322818235f, -0.0450377539f, 0.1704235524f, -0.3528513908f, -0.2057983428f, 0.1423942000f, 0.0999829248f, -0.0424277969f, 0.0442880355f, 0.2955491245f, 0.0178753585f, 0.0370635465f, -0.4011416137f, -0.1902362406f, 0.1673423797f, 0.1320794821f, -0.0215175059f, 0.1378587484f, 0.0852545500f, 0.0003368019f, 0.2686780393f, 0.1475472003f, 0.0477244556f, -0.0538690314f, -0.1340771019f, -0.1333781332f, 0.0360797644f, -0.4249881804f, 0.2340476215f, 0.0430874228f, -0.0150405308f, -0.0707652867f, -0.0307503734f, -0.2447328717f, 0.3477523327f, 0.0317273699f, -0.0058216671f, -0.1437785774f, 0.3675432503f, -0.1035352573f, 0.0029243892f, -0.2956989706f, 0.0821670741f, -0.1866026670f, 0.1421580017f, -0.0436977595f, 0.0363437384f, 0.2657463253f, -0.0487712696f, -0.1784249395f, 0.2211132050f, -0.1117948815f, -0.0648216829f, 0.2020361423f, -0.2396266460f, 0.1877697259f, -0.2802208066f, 0.0310047138f, -0.1057593301f, 0.1296230406f, 0.0980739743f, -0.2490108013f, -0.1437602788f, -0.2348895520f, -0.2291515172f, 0.1669588089f, 0.2273861617f, 0.0696700588f, -0.0933424160f, -0.0267143287f, 0.0155334286f, 0.1032725647f, -0.2272861600f, 0.0208169930f, -0.1423282623f, -0.3741290569f, -0.0005821451f, -0.0924046263f, -0.0748221949f, 0.1184691042f, 0.0783155635f, 0.2574582994f, -0.2300913334f, 0.0656788200f, -0.2325283289f, -0.1705166101f, 0.0709153041f, 0.2828947902f, -0.3270762563f, 0.0607734621f, 0.0276063383f, -0.1934741139f, -0.2088740021f, 0.2595160604f, -0.1955135167f, 0.0958473608f, -0.0551690459f, 0.1227468848f, 0.0536569506f, -0.1492580473f, -0.2113613784f, -0.0906782895f, 0.0396608189f, -0.1483600736f, -0.0526627563f, 0.0057985517f, 0.2969274223f, 0.0566966012f, -0.0905907154f, -0.1056492105f, -0.2042280138f, 0.0758777857f, 0.2055099607f, 0.0056261714f, -0.1166932210f, 0.4616009891f, 0.2158130854f, -0.0059503447f, -0.0370169841f, -0.0567974597f, -0.3710455298f, -0.1426283717f, 0.0030127410f, 0.0908554494f, 0.0263572726f, -0.1693734378f, 0.3205115199f, -0.0046924613f, -0.0164860208f, 0.0880740285f, -0.0819948688f, -0.3796716034f, -0.1297379732f, 0.1207939386f, -0.2312704176f, 0.1791714430f, -0.2383551747f, -0.0255018193f, 0.3370415568f, -0.0780207291f, -0.1128445938f, 0.5552553535f, 0.2680487037f, 0.0257660765f, 0.2779445946f, 0.0555446856f, -0.3038123548f, -0.0552611724f, -0.1230873913f, -0.1374893486f, -0.1432947218f, -0.0192018729f, 0.0138154691f, -0.1084465310f, 0.1552888304f, -0.1202711537f, -0.1103107110f, 0.0005022509f, 0.1871463060f, -0.0709796697f, 0.1493034363f, 0.0010082540f, -0.2937859297f, -0.0827802494f, -0.3012603521f, -0.1327038705f, 0.0591956936f, 0.0607329905f, 0.0096905753f, 0.0011490090f, -0.2120024413f, -0.0501161814f, -0.0900231451f, -0.1506216675f, 0.1184035614f, 0.1192317382f, 0.3462038040f, 0.0148289474f, -0.0078580072f, -0.0693483800f, -0.2672177553f, -0.1266519427f, -0.2246269286f, 0.1873394549f, 0.2506219149f, -0.1639105827f, -0.0500183292f, -0.1354279667f, 0.0711709857f, -0.0196680631f, -0.1742672026f, 0.0095575470f, 0.2554331422f, 0.0605590157f, 0.2185213119f, -0.2244611233f, 0.1713782102f, 0.0275746360f, -0.1994925588f, 0.0970079005f, 0.3919816315f, 0.1118264869f, 0.0892504975f, 0.1979373544f, 0.1370816380f, -0.1768036187f, -0.1407074034f, 0.0041445331f, 0.2598301768f, -0.0316487923f, -0.2111961693f, 0.2721896768f, -0.4549657106f, -0.0865449980f, -0.1367902756f, 0.2109269500f, -0.1378120035f, 0.0347193554f, -0.1597880721f, 0.0946921334f, -0.0670990571f, -0.1032646224f, 0.2451432794f, -0.1845596433f, -0.0301961638f, 0.0025154511f, 0.2886958122f, 0.2944397926f, -0.1389909387f, -0.0521699749f, -0.1792370528f, -0.2556885183f, -0.0246374421f, -0.1207512468f, -0.1052509621f, 0.1705038995f, 0.1436651647f, -0.2188508511f, -0.2842026353f, 0.0518956445f, 0.2291915864f, -0.1825043112f, 0.0401396602f, -0.2200624496f, -0.0226390474f, 0.0987098292f, 0.1906797439f, -0.0218026470f, -0.1437913179f, -0.0302812196f, 0.2434338182f, -0.1355394125f, 0.0973075852f, 0.1110481247f, -0.0239566416f, 0.0283554681f, 0.1573631316f, 0.1039308310f, 0.0695149228f, 0.1376423985f, -0.2077608854f, 0.2693845630f, 0.0242196582f, -0.1065041199f, 0.3890675604f, -0.0354148969f, -0.3187598884f, 0.1115967184f, -0.1145315692f, 0.2534925640f, -0.0578896329f, 0.0057526748f, 0.1546605378f, -0.1737858653f, 0.0264763478f, -0.1131410450f, 0.2538493276f, -0.1284443736f, 0.2670951188f, 0.1493772119f, -0.0658527389f, 0.2498134524f, -0.1498336494f, -0.3893348277f, -0.0425733142f, -0.0318325981f, 0.2317066640f, -0.1352687776f, 0.1113839447f, 0.1979017556f, -0.1334377378f, -0.2567824423f, -0.0465294011f, -0.0357541516f, 0.1678754091f, 0.2445707917f, -0.1794364601f, 0.0454654247f, 0.1350907236f, 0.0549086556f, 0.3989802003f, -0.2243216783f, -0.1423898041f, -0.0657998845f, -0.1928480417f, 0.1605465710f, 0.0162723716f, 0.1917313188f, -0.1250800043f, -0.0806018561f, 0.1317787319f, -0.0874408111f, 0.0648381934f, -0.2329107672f, -0.0547097027f, -0.2948704958f, 0.2125651985f, 0.1740339398f, 0.0861530229f, 0.2986629307f, 0.1606882513f, 0.1627597660f, 0.1177895442f, -0.0132863047f, -0.0125882560f, 0.2092156857f, -0.0058732308f, -0.0936072096f, 0.0590882227f, 0.1499445587f, -0.0175924469f, 0.1326124370f, 0.0883260593f, -0.1309596747f, 0.0093706939f, -0.0667844862f, -0.1087656096f, 0.1875946373f, 0.0658040792f, -0.1973876208f, -0.2115982920f, -0.1052080840f, 0.0286346227f, 0.0993390158f, 0.1544338763f, -0.0882643387f, -0.0036515919f, 0.0159520898f, 0.1623744369f, 0.0572108217f, 0.2241982222f, -0.0641228259f, 0.0740785077f, 0.2696693838f, -0.0709382072f, -0.0976118073f, -0.1089703813f, -0.0903610513f, 0.1292782873f, 0.3629148602f, 0.3004333377f, -0.5899668336f, -0.0738794878f, -0.0332886390f, -0.4258263409f, 0.2010524124f, -0.1048905104f, 0.0384757146f, 0.0084676966f, 0.2781295180f, 0.0353604928f, -0.0363209583f, 0.1901580095f, 0.0527001321f, 0.0618718229f, -0.0946822390f, 0.1378781796f, -0.2618337870f, 0.0831795111f, 0.4445357621f, 0.0887381062f, 0.1029502153f, 0.2220835984f};
const float b2[] = {0.0181910470f, 0.0124518992f, -0.0001429722f, 0.0159538612f, -0.0045429375f, -0.0068351869f, 0.0016180835f, -0.0088352757f, 0.0018494320f, 0.0059922878f, 0.0040655239f, 0.0083514648f, -0.0215697419f, -0.0022927790f, 0.0116107827f, -0.0003592707f, -0.0188100319f, 0.0173390675f, 0.0098999413f, 0.0039775986f, 0.0074938019f, -0.0097616483f, -0.0027798836f, 0.0165167376f, 0.0040424922f, -0.0095055504f, 0.0028984766f, 0.0011779491f, 0.0075811478f, -0.0026192414f, 0.0103139523f, -0.0154038658f, -0.0090307957f, 0.0040528621f, 0.0109700598f, -0.0067955828f, 0.0118937213f, -0.0099443030f, 0.0098318104f, -0.0103758555f, -0.0006322925f, -0.0180071183f, 0.0071991719f, -0.0026613043f, 0.0038171210f, 0.0129237315f, -0.0031578427f, 0.0018103758f, -0.0051958980f, -0.0142970532f, 0.0118950736f, -0.0013995274f, -0.0078538461f, -0.0020043708f, -0.0143226404f, 0.0058668484f, 0.0078823920f, -0.0049931398f, 0.0003660084f, 0.0024517723f, -0.0022220465f, -0.0106946183f, 0.0063541271f, 0.0143276239f};
const float W3[] = {-0.0561057702f, 0.0833491236f, 0.0780968815f, -0.0000328448f, -0.0532639101f, 0.0419811383f, -0.0025063406f, 0.0743987262f, -0.0149797369f, -0.0027176037f, 0.0209096540f, -0.1402330995f, 0.0202230010f, 0.0126682818f, -0.0338028744f, -0.1267663091f, 0.0692017674f, -0.0571926087f, -0.0273983181f, -0.1072705165f, -0.0193330795f, 0.0835045874f, 0.0224626698f, -0.0662406459f, -0.0254864544f, -0.0840321779f, -0.0041555543f, -0.0309804529f, 0.0078333542f, 0.0782191008f, 0.0208217110f, 0.1294884384f, 0.1001972780f, 0.0817207471f, -0.0376224630f, 0.0101117669f, -0.1944240630f, 0.0080603939f, -0.0527736731f, 0.0399209857f, 0.0597248860f, -0.0258596148f, -0.0187408254f, -0.0051224325f, -0.0329098068f, -0.0634059533f, 0.0313219167f, 0.0103202583f, 0.0804430619f, 0.0115667963f, -0.0480071828f, -0.0524532124f, 0.0015459912f, -0.0139357392f, 0.0099810958f, -0.0065116310f, -0.0458168611f, 0.0747360960f, -0.0367194191f, -0.0122620538f, -0.0056747771f, -0.0086616650f, -0.0238263290f, -0.0358894207f};
const float b3[] = {-0.0085279047f};

#endif