#include "policy.h"
#include <math.h>

/* ---- 重み配列 ---- */

/* layer0 weight: [128][3] (row-major) */
static const float W0[384] = {
    /* [0] */ -0.07565676f, -0.01980560f, 0.02163807f,
    /* [1] */ 0.00576217f, -0.00222468f, 0.00332477f,
    /* [2] */ -1.49849129f, -2.14423227f, 0.22028331f,
    /* [3] */ -0.02200646f, -0.00489352f, 0.00667631f,
    /* [4] */ -0.00890484f, -0.01611968f, 0.00290490f,
    /* [5] */ -0.00629710f, 0.00084371f, 0.00138051f,
    /* [6] */ 1.92964840f, -0.28953180f, -0.03851837f,
    /* [7] */ 2.91506505f, 0.03273197f, -0.04233735f,
    /* [8] */ 0.71545732f, 0.97004479f, -1.50756276f,
    /* [9] */ 0.01930282f, 0.01377771f, -0.00643682f,
    /* [10] */ 0.02820851f, 0.00426983f, -0.00756484f,
    /* [11] */ -0.00989633f, -0.00152691f, 0.00029833f,
    /* [12] */ 0.00997615f, 0.00367092f, -0.00084626f,
    /* [13] */ -0.00193339f, 0.00567372f, -0.00558290f,
    /* [14] */ 0.00930943f, -0.00325908f, -0.00497344f,
    /* [15] */ 0.00764199f, 0.00375741f, -0.00765221f,
    /* [16] */ 1.68711305f, -0.24043125f, -0.04184630f,
    /* [17] */ 0.03100415f, 0.00205526f, -0.00475038f,
    /* [18] */ -0.01145029f, -0.00389180f, 0.00650793f,
    /* [19] */ -0.01090118f, -0.00216079f, 0.00679091f,
    /* [20] */ -0.00403179f, -0.01136297f, 0.00247844f,
    /* [21] */ 0.00860966f, 0.00476494f, -0.00139671f,
    /* [22] */ -0.36950466f, -0.02298679f, 0.01045460f,
    /* [23] */ 0.01752951f, 0.00902565f, -0.01260517f,
    /* [24] */ -0.00827168f, 0.01080760f, -0.00387208f,
    /* [25] */ 0.01833225f, -0.00254848f, -0.00586876f,
    /* [26] */ -0.37920871f, 0.01413437f, 0.02092070f,
    /* [27] */ 0.00092485f, -0.00532594f, -0.00117865f,
    /* [28] */ 0.04139648f, -0.01021060f, -0.01072878f,
    /* [29] */ -0.01777758f, -0.00091903f, 0.01189246f,
    /* [30] */ 2.39322186f, 1.82262039f, -0.27397978f,
    /* [31] */ -0.00835298f, -0.00695145f, 0.00140305f,
    /* [32] */ 0.02080790f, 0.01004817f, -0.01013985f,
    /* [33] */ 0.01446936f, -0.01807220f, 0.00846432f,
    /* [34] */ -0.00860171f, -0.00638402f, 0.00166222f,
    /* [35] */ 0.08099264f, 0.01330879f, -0.01358108f,
    /* [36] */ 1.68878543f, -0.23577301f, -0.03704473f,
    /* [37] */ 0.05455364f, -0.01396633f, -0.00908109f,
    /* [38] */ 0.00176032f, 0.00440754f, 0.00261208f,
    /* [39] */ -0.03499443f, -0.01062902f, 0.00622740f,
    /* [40] */ -0.02040765f, -0.00046134f, 0.00635124f,
    /* [41] */ -0.03827149f, -0.01094253f, 0.01601131f,
    /* [42] */ 0.01988985f, -0.01286400f, -0.00220949f,
    /* [43] */ 0.03600448f, 0.00856260f, -0.01602401f,
    /* [44] */ -1.35847545f, -1.05711877f, 0.18420392f,
    /* [45] */ 0.04687482f, 0.01073903f, -0.01781800f,
    /* [46] */ 0.00883242f, 0.00535911f, -0.00570979f,
    /* [47] */ 0.08364510f, -0.01049082f, -0.01497349f,
    /* [48] */ -0.02208036f, -0.00081699f, 0.00291058f,
    /* [49] */ -0.01685624f, -0.01000284f, 0.00720940f,
    /* [50] */ 0.02075418f, 0.00880857f, -0.00637436f,
    /* [51] */ 0.02358089f, -0.00910752f, 0.00324081f,
    /* [52] */ -0.01149259f, -0.00285744f, 0.00650360f,
    /* [53] */ -0.02287920f, -0.00618839f, 0.01071413f,
    /* [54] */ 0.02485730f, 0.00660238f, -0.00584927f,
    /* [55] */ -0.02024506f, 0.00492805f, 0.00274780f,
    /* [56] */ 0.04692637f, 0.00419562f, -0.01276310f,
    /* [57] */ 0.02050635f, 0.01052136f, -0.00707313f,
    /* [58] */ -0.00200027f, 0.00139771f, -0.00213734f,
    /* [59] */ -0.01741277f, 0.00416758f, 0.00500843f,
    /* [60] */ 0.00698915f, -0.00503562f, 0.00088252f,
    /* [61] */ 2.57951450f, -0.20571686f, -0.04663889f,
    /* [62] */ -0.01543996f, -0.01060623f, 0.00558879f,
    /* [63] */ -0.04216174f, 0.00090291f, 0.01267590f,
    /* [64] */ 2.19251537f, -0.03440135f, -0.04960652f,
    /* [65] */ -0.02842868f, -0.01008777f, 0.00608343f,
    /* [66] */ 0.01024991f, -0.00141614f, -0.00711407f,
    /* [67] */ 0.01900495f, 0.00320956f, -0.00274342f,
    /* [68] */ 2.17586064f, 2.24277282f, -0.40311927f,
    /* [69] */ 0.00779761f, 0.00169320f, -0.00442599f,
    /* [70] */ -2.20064497f, -3.13663983f, 0.26058060f,
    /* [71] */ 0.01949402f, 0.01255599f, -0.00504231f,
    /* [72] */ 0.00222382f, 0.00166504f, -0.00257261f,
    /* [73] */ 0.00289632f, 0.00240157f, -0.00105728f,
    /* [74] */ -1.65373719f, -2.82906842f, 0.39994788f,
    /* [75] */ -0.00325428f, -0.00547747f, 0.00347755f,
    /* [76] */ -0.02465956f, -0.00400530f, 0.00473168f,
    /* [77] */ -0.02014872f, -0.01054834f, 0.00975308f,
    /* [78] */ -0.00945845f, 0.00080697f, 0.00321651f,
    /* [79] */ 0.00291441f, -0.00297947f, 0.00479328f,
    /* [80] */ -0.00011751f, 0.00119786f, 0.00157142f,
    /* [81] */ 0.02765395f, -0.00038218f, -0.00407491f,
    /* [82] */ 0.77958107f, -2.17627120f, -0.37198639f,
    /* [83] */ 0.91964781f, 2.05584335f, -0.64382857f,
    /* [84] */ 0.01455177f, -0.01012923f, 0.00505628f,
    /* [85] */ -0.01026761f, 0.00501078f, -0.00215371f,
    /* [86] */ 0.01556843f, -0.00570652f, -0.01012145f,
    /* [87] */ 0.02047298f, 0.00611371f, -0.00878961f,
    /* [88] */ -0.00030720f, -0.01587826f, 0.00631276f,
    /* [89] */ 0.00242620f, 0.00060708f, -0.00409202f,
    /* [90] */ -0.00323582f, -0.01425976f, 0.00747686f,
    /* [91] */ 0.00128229f, 0.01768205f, -0.00488900f,
    /* [92] */ 0.98643696f, -0.07573188f, -0.00733877f,
    /* [93] */ 1.21679080f, -0.19016837f, -0.00365146f,
    /* [94] */ 0.03228980f, 0.01210077f, -0.01093757f,
    /* [95] */ -0.03566416f, -0.00790634f, 0.01110787f,
    /* [96] */ -0.07396974f, -0.00557712f, 0.01879242f,
    /* [97] */ 0.00295072f, 0.00581715f, -0.00533119f,
    /* [98] */ 0.01688400f, -0.00322324f, -0.00680697f,
    /* [99] */ 0.02355282f, 0.00751294f, -0.00940862f,
    /* [100] */ 0.00349087f, -0.00456731f, -0.00500433f,
    /* [101] */ -0.46446264f, 0.09046435f, -0.02514526f,
    /* [102] */ 0.00775136f, -0.00990766f, -0.00604535f,
    /* [103] */ 0.00082791f, -0.00032354f, -0.00105621f,
    /* [104] */ -1.84717953f, 0.15720405f, -0.01301757f,
    /* [105] */ -0.01904141f, -0.00668444f, 0.01138209f,
    /* [106] */ 2.18656588f, -0.44377470f, -0.02094400f,
    /* [107] */ 2.10271788f, 0.91500330f, -0.13245632f,
    /* [108] */ -0.01749892f, -0.00458229f, 0.00632378f,
    /* [109] */ -0.02825321f, -0.00144536f, 0.01186453f,
    /* [110] */ 1.31653273f, -0.31430155f, 0.01031199f,
    /* [111] */ -0.02741677f, -0.01811639f, 0.00883103f,
    /* [112] */ -0.01853995f, -0.01282733f, 0.01145249f,
    /* [113] */ -0.02257055f, -0.00156441f, 0.00993010f,
    /* [114] */ 1.42574048f, -0.23043360f, -0.01152533f,
    /* [115] */ -0.02547766f, -0.01725647f, 0.00586228f,
    /* [116] */ -0.01462461f, -0.00570251f, 0.00671362f,
    /* [117] */ 0.00934824f, 0.00416314f, -0.00141855f,
    /* [118] */ -0.01847638f, -0.00226510f, 0.00859539f,
    /* [119] */ 1.24294293f, -0.12352115f, -0.01741898f,
    /* [120] */ 0.00648644f, 0.01089083f, -0.01390968f,
    /* [121] */ 0.01606733f, 0.00728095f, -0.01186873f,
    /* [122] */ -0.03685660f, -0.01618144f, 0.01575505f,
    /* [123] */ 0.00148924f, 0.00377771f, 0.00124328f,
    /* [124] */ -3.35052180f, -0.51466942f, 0.07488435f,
    /* [125] */ 0.02444046f, 0.00693902f, -0.00957299f,
    /* [126] */ -0.03133064f, -0.01199668f, 0.01074147f,
    /* [127] */ 0.00506866f, 0.00566693f, -0.00693890f
};

/* layer0 bias: [128] */
static const float b0[128] = {
    -0.00529273f, -0.00118513f, 0.08090676f, -0.00025181f, 0.00001833f, 0.00087186f, -0.08806225f, -0.12072552f, 0.04010783f, 0.00083680f, 0.00144563f, 0.00082005f, 0.00016102f, 0.00316749f, 0.00074172f, 0.00251531f, -0.08748379f, 0.00095276f, -0.00207345f, -0.00076602f, -0.00059040f, -0.00023864f, 0.04776314f, 0.00399419f, 0.00037462f, 0.00152254f, 0.00109691f, 0.00003210f, 0.00130977f, -0.00320313f, -0.09641609f, 0.00004941f, 0.00532763f, -0.00485010f, 0.00048112f, 0.00995482f, -0.08468254f, 0.00164165f, -0.00082905f, -0.00013653f, -0.00289538f, -0.00409295f, 0.00156236f, 0.00365501f, 0.08399425f, 0.00414321f, 0.00091884f, 0.00858185f, 0.00008363f, -0.00014151f, 0.00142016f, -0.00310132f, -0.00146264f, -0.00371548f, 0.00083319f, -0.00130395f, 0.00531822f, 0.00116675f, 0.00174172f, -0.00234017f, -0.00118475f, -0.10848216f, -0.00092594f, -0.00537525f, -0.09199787f, -0.00016651f, 0.00237588f, -0.00142354f, -0.09236110f, 0.00179936f, 0.06704029f, 0.00041472f, 0.00125637f, -0.00065570f, 0.08541783f, 0.00009270f, 0.00004427f, -0.00190518f, -0.00184677f, -0.00152737f, -0.00103731f, 0.00047850f, -0.04717775f, -0.02287387f, -0.00104854f, 0.00155001f, 0.00229999f, 0.00287958f, -0.00260948f, 0.00151103f, -0.00245846f, 0.00212139f, -0.09006589f, -0.06935561f, 0.00179197f, -0.00308480f, -0.00927478f, 0.00156339f, 0.00044677f, 0.00255993f, 0.00479925f, 0.04647739f, 0.00206651f, 0.00067599f, 0.06766219f, -0.00328176f, -0.08442366f, -0.10047608f, -0.00084890f, -0.00363239f, -0.05440607f, -0.00202983f, -0.00245589f, -0.00305697f, -0.07109261f, -0.00085917f, -0.00040910f, -0.00068653f, -0.00267159f, -0.08650362f, 0.00459688f, 0.00348071f, -0.00359755f, -0.00116722f, 0.13327675f, 0.00103766f, -0.00099261f, 0.00278945f
};

/* layer1 weight: [128][128] (row-major) */
static const float W1[16384] = {
    /* [0] */ 0.06053762f, 0.03786213f, 0.05105393f, -0.07677796f, 0.08306242f, -0.06289931f, -0.00316834f, 0.04919221f, -0.00147682f, -0.08891931f, -0.01513043f, 0.06280516f, 0.02862683f, 0.01871916f, 0.04815515f, -0.00681407f, -0.01125351f, -0.02937911f, 0.00306699f, 0.00264908f, -0.03077490f, 0.05402394f, -0.00887286f, -0.02720855f, 0.00122709f, -0.00835273f, -0.08609705f, 0.01027268f, 0.00592165f, 0.09939310f, -0.00790492f, -0.01330629f, 0.01169075f, 0.02142999f, 0.00128202f, -0.00343168f, -0.00982591f, 0.00934916f, -0.05600062f, -0.00253560f, -0.05497932f, -0.00002112f, 0.00786819f, -0.01128405f, -0.09726898f, -0.03749274f, 0.05604581f, 0.04400602f, 0.02439703f, -0.03878138f, -0.02893040f, -0.02598633f, 0.05779210f, -0.06813911f, 0.04809277f, -0.02057570f, 0.07637128f, 0.10146105f, 0.04214942f, 0.01126217f, -0.01913878f, 0.02655323f, -0.02782823f, -0.01758453f, 0.00090972f, -0.01224110f, -0.01164493f, 0.04560173f, 0.01977902f, 0.01536182f, 0.01670450f, -0.06112863f, -0.00313448f, -0.02154050f, 0.04951889f, 0.06286610f, 0.02599731f, 0.02589348f, -0.06416298f, -0.02309456f, -0.02077501f, -0.02799063f, 0.00477303f, 0.02003686f, -0.01307538f, 0.02748565f, 0.08537603f, -0.04594376f, 0.01566950f, -0.02531129f, 0.07128119f, -0.00462762f, -0.04589688f, 0.05043172f, -0.00835678f, 0.04240459f, 0.07992139f, -0.02524581f, 0.00835406f, 0.02936388f, -0.01009670f, 0.04367347f, 0.01372008f, 0.05808354f, 0.00609354f, -0.03511271f, -0.11011633f, -0.03900564f, -0.00194648f, -0.13506526f, 0.07504242f, -0.02846198f, 0.02121817f, -0.05750233f, -0.10587849f, 0.03057676f, 0.05175771f, 0.05101367f, -0.04621969f, -0.00740263f, -0.07832896f, -0.07374954f, 0.02510729f, -0.00718256f, -0.06061636f, 0.00869285f, 0.05672845f, -0.01463264f,
    /* [1] */ 0.02121972f, 0.01043765f, 0.07468181f, 0.01510107f, -0.07947352f, 0.04174840f, 0.03560420f, -0.04052852f, 0.00408130f, -0.03042677f, 0.00820039f, -0.01404205f, 0.02652452f, -0.04550131f, -0.02456039f, -0.04850052f, -0.01703414f, 0.05726273f, 0.02826976f, -0.05130876f, -0.06345381f, -0.01165065f, 0.01729465f, 0.02054566f, -0.00776519f, -0.05481416f, -0.05093912f, -0.05001137f, -0.01883562f, -0.04198597f, 0.02615137f, -0.03167163f, -0.00679739f, 0.03376070f, 0.04316118f, -0.02763746f, -0.05125692f, -0.01204692f, 0.02852213f, -0.04815267f, 0.01396616f, -0.02726494f, -0.01959459f, -0.05785657f, -0.02743003f, 0.00024314f, 0.02772975f, -0.01521396f, -0.00076934f, 0.04730108f, 0.02123499f, -0.07129655f, -0.05735252f, -0.04346199f, -0.01761382f, -0.01418965f, -0.05794789f, -0.08643077f, 0.01279113f, -0.04100460f, -0.01044633f, -0.08567284f, 0.06090493f, 0.01134332f, -0.01728968f, 0.00308485f, 0.01142576f, -0.01119469f, -0.00692662f, -0.05201431f, -0.02176062f, -0.01168581f, -0.00468751f, 0.05044691f, 0.06572221f, 0.06765226f, -0.00112580f, -0.05369746f, 0.04932851f, -0.02894801f, -0.00521748f, 0.04621178f, -0.05519542f, 0.06639555f, 0.04889243f, 0.00858341f, 0.00302007f, -0.04375534f, 0.04151987f, -0.02679438f, 0.03479778f, -0.02238053f, 0.02797064f, 0.03800331f, -0.00009346f, -0.09279515f, 0.10368464f, -0.00487063f, -0.02689390f, 0.00898926f, 0.00712160f, -0.00861590f, -0.00551351f, 0.00485820f, -0.05991562f, -0.04705124f, 0.11154054f, -0.00529677f, 0.04156062f, 0.00609157f, 0.01782387f, 0.05206835f, 0.01289073f, 0.03461464f, -0.02364661f, -0.04597869f, -0.04621724f, -0.02135479f, -0.02174980f, -0.03350840f, -0.05106714f, -0.08393775f, 0.04740865f, -0.00948273f, -0.06845669f, -0.05952228f, 0.00227153f, 0.09429844f,
    /* [2] */ 0.01667946f, 0.00448473f, 0.23204692f, 0.00918503f, 0.00265669f, 0.00439771f, -0.08653995f, -0.35985494f, 2.39430308f, -0.00514253f, -0.00472520f, -0.00256614f, 0.00100995f, -0.00916870f, -0.00647826f, -0.01149751f, -0.07428043f, -0.00541342f, 0.01025935f, 0.00987186f, 0.00103934f, -0.00070950f, 0.03250329f, -0.01654492f, -0.00574179f, -0.00219287f, -0.00094844f, -0.00618727f, -0.00711697f, 0.01473254f, -0.06629631f, 0.00184670f, -0.01023219f, 0.01161586f, 0.00266044f, -0.01244790f, -0.07482243f, -0.00653578f, 0.00327890f, 0.00182993f, 0.00901898f, 0.01516303f, 0.00204866f, -0.01561438f, 0.18760984f, -0.01710311f, -0.00837570f, -0.00858129f, 0.00472609f, 0.01047699f, -0.00906880f, 0.00752107f, 0.00705229f, 0.01070271f, -0.00283203f, 0.00509689f, -0.01597520f, -0.00636648f, -0.00500789f, 0.00671100f, 0.00172320f, -0.22934267f, 0.00312615f, 0.01225212f, -0.22623074f, 0.00748608f, -0.00976647f, -0.00090662f, 0.26647982f, -0.00335633f, -0.15663570f, -0.00490599f, 0.00292846f, 0.00097161f, -0.55862606f, 0.00456920f, 0.00993165f, 0.01413454f, -0.00106073f, 0.00933121f, 0.00321898f, -0.00437193f, 0.50502521f, 1.50177085f, 0.01092914f, -0.00377780f, -0.00994473f, -0.00784619f, 0.00805231f, -0.00807209f, 0.00183815f, 0.00197458f, -0.04083550f, -0.02591487f, -0.01306319f, 0.01499858f, 0.01319150f, -0.00545014f, -0.00987958f, -0.01136534f, -0.00673013f, 0.04847642f, -0.00873864f, -0.00169570f, 0.13454355f, 0.01445752f, -0.07126609f, -0.36803645f, 0.00562451f, 0.01213614f, 0.00668757f, 0.01249311f, 0.01461490f, 0.01215913f, -0.03889378f, 0.00620885f, 0.00689128f, -0.00348933f, 0.00413380f, -0.04532199f, -0.02004824f, -0.01145658f, 0.01516908f, -0.00206754f, 0.55590266f, -0.01768518f, 0.01192879f, -0.00522826f,
    /* [3] */ -0.04074677f, 0.02501796f, -0.06609908f, 0.02658674f, 0.00696388f, -0.01343066f, -0.09023458f, -0.03217573f, -0.01999331f, 0.03386102f, 0.00328485f, -0.02374763f, -0.04666306f, 0.00394456f, 0.03322372f, -0.03223507f, -0.07405695f, 0.05676060f, 0.15768743f, -0.03131871f, 0.03807663f, -0.04606370f, -0.00124048f, -0.05362101f, -0.00348419f, 0.03929231f, 0.05236171f, 0.04695383f, 0.01025297f, 0.03753341f, -0.01640554f, 0.00609561f, -0.02814680f, 0.06173325f, 0.01146271f, 0.00112657f, 0.05389573f, 0.01832845f, 0.04683188f, 0.00232721f, 0.05281411f, -0.01050325f, 0.05252430f, -0.00147218f, 0.00719531f, 0.09626893f, 0.05578016f, -0.03123958f, -0.02669092f, -0.00597696f, 0.06888428f, 0.01294635f, -0.02600983f, -0.07200381f, 0.00604241f, -0.01761636f, -0.02209075f, 0.05717833f, 0.00306749f, -0.02516975f, 0.04427347f, 0.13103016f, -0.03080519f, 0.01816914f, -0.03919352f, 0.02798003f, 0.02202320f, 0.00534913f, 0.00321920f, 0.02274132f, -0.00995520f, -0.00354743f, 0.00811240f, 0.04086934f, -0.02776805f, 0.00424089f, 0.03022398f, -0.00145800f, 0.00465221f, 0.03815758f, -0.04585225f, 0.00508574f, 0.08326353f, -0.00450556f, 0.00616673f, 0.01659467f, 0.05984203f, 0.07325634f, 0.04681268f, -0.00905045f, -0.04933177f, -0.03223934f, -0.04477650f, 0.02187761f, 0.02934036f, -0.01414261f, -0.01723310f, 0.01592676f, 0.03255985f, 0.01363622f, -0.01182030f, -0.04980333f, 0.08410858f, 0.03652924f, 0.08961228f, -0.04766666f, -0.02354664f, -0.10997923f, -0.03948114f, 0.06113819f, 0.05180886f, 0.04117774f, 0.03629370f, 0.05652355f, 0.01981814f, -0.01710884f, -0.06934616f, -0.01113812f, -0.03421397f, 0.03659875f, 0.04454546f, 0.01700626f, -0.01713949f, -0.01591599f, -0.02546686f, 0.00705991f, -0.01106856f, 0.00813120f,
    /* [4] */ 0.02910188f, -0.01599149f, 0.05289224f, 0.08695184f, -0.00734734f, -0.02536025f, 0.07457333f, -0.05349120f, -0.00728757f, 0.08208998f, -0.00867185f, 0.00713565f, 0.00393996f, -0.04739782f, -0.02367048f, -0.05990416f, 0.01464275f, -0.01704318f, 0.00351248f, -0.00590255f, 0.00124516f, -0.01129524f, 0.04032377f, 0.03664388f, -0.01109922f, 0.01249549f, -0.03287823f, 0.01994515f, 0.07807668f, -0.04033549f, 0.03249821f, 0.10256396f, -0.06251320f, -0.02993699f, 0.03714429f, -0.01515882f, -0.02807729f, 0.01499408f, -0.04011042f, -0.03501743f, -0.10336430f, -0.04339895f, 0.01252942f, -0.00915234f, 0.02758282f, -0.07303551f, -0.04281520f, 0.02126040f, 0.04132072f, 0.03342001f, 0.02711282f, 0.04665425f, -0.00596914f, 0.02587608f, 0.00833153f, 0.04125971f, -0.05800644f, -0.02514873f, 0.04104312f, -0.06924184f, 0.00441483f, -0.03837005f, 0.06609743f, -0.03941621f, -0.11158659f, 0.01212962f, 0.03026320f, -0.00316485f, -0.01680586f, 0.04353987f, -0.03129584f, 0.02247290f, 0.01874997f, -0.03927716f, 0.03864711f, -0.09893569f, 0.02900310f, -0.00369542f, 0.03941427f, 0.02514083f, 0.01441621f, -0.01902476f, -0.01416201f, 0.07308679f, 0.01409824f, -0.01434518f, -0.01040979f, 0.03808859f, 0.00740973f, -0.00149053f, 0.00855241f, -0.00909212f, 0.03482617f, 0.06198249f, -0.01106333f, 0.05699307f, 0.00449846f, -0.01109334f, -0.02656927f, -0.03615303f, 0.00032575f, 0.02898578f, 0.00318621f, -0.03670430f, -0.04874265f, -0.03171869f, 0.03899785f, -0.06792697f, 0.04800652f, 0.04963472f, 0.04517347f, -0.00699436f, -0.02420387f, -0.00458457f, -0.02204219f, -0.04127978f, 0.00096873f, -0.05444783f, -0.01387599f, -0.00280776f, -0.03860617f, 0.04479286f, 0.04287056f, -0.01431304f, -0.06790678f, -0.03565123f, -0.00131207f, -0.07315324f,
    /* [5] */ -0.01936961f, 0.03969901f, -0.00434351f, -0.06720173f, -0.03713234f, 0.03665484f, -0.00114706f, 0.04199385f, -0.02291644f, -0.00433627f, 0.01839240f, 0.00328087f, 0.01528293f, 0.02558667f, -0.02981008f, -0.01577434f, 0.01021444f, 0.04545542f, -0.03245032f, -0.01253634f, 0.05454456f, 0.00807110f, 0.07752856f, 0.09042584f, 0.01964456f, -0.01421476f, 0.05455936f, 0.02367167f, -0.01158548f, 0.01130969f, 0.02636817f, -0.00976895f, -0.04631306f, -0.00870106f, -0.05963758f, 0.02799808f, -0.04697659f, 0.00066138f, 0.00294598f, 0.02239936f, -0.00684807f, 0.03966605f, 0.01454639f, -0.02716986f, 0.06060684f, 0.00871588f, -0.00450242f, -0.07152559f, -0.02419461f, 0.00396789f, -0.00881083f, 0.05047300f, 0.04771698f, -0.08698609f, 0.00032899f, -0.04161898f, 0.06079850f, 0.03413206f, -0.04634650f, -0.05419867f, 0.02670899f, -0.06961574f, 0.00207260f, 0.00251568f, -0.01886341f, -0.00101594f, -0.05096233f, -0.03963494f, -0.03476312f, -0.02572297f, 0.12609792f, 0.03009258f, -0.04836232f, -0.00345908f, -0.08143694f, -0.06715691f, -0.05487873f, -0.03965981f, 0.00487400f, -0.06320134f, 0.02281188f, 0.06287715f, 0.06205496f, 0.00738484f, 0.03157667f, -0.03771459f, -0.01718149f, -0.00999949f, 0.00583890f, 0.03209851f, 0.04638174f, -0.07817529f, 0.01628937f, -0.04155572f, 0.01469300f, -0.13752419f, 0.01250195f, 0.04739576f, -0.01172092f, 0.03625687f, 0.00587960f, 0.03305539f, -0.00548953f, -0.02406786f, 0.06433689f, -0.02026671f, -0.05399568f, 0.11787639f, 0.02102523f, 0.04368798f, -0.03100366f, -0.03332748f, 0.00416833f, -0.03736170f, 0.01451037f, -0.01468481f, -0.08408936f, -0.00560079f, -0.03859338f, 0.00808734f, -0.02298542f, -0.00672996f, 0.02551423f, 0.06489618f, -0.10430390f, 0.03998238f, 0.04654899f, 0.02890394f,
    /* [6] */ -0.06626253f, -0.01434946f, -0.11362616f, -0.00638777f, -0.05110476f, -0.06470754f, 0.03301385f, -0.05665606f, -0.04351908f, -0.04248979f, -0.06629650f, 0.08640185f, 0.01953706f, -0.00405356f, -0.00207579f, -0.06580651f, 0.05338589f, -0.02443807f, 0.03414929f, -0.08095130f, 0.03314456f, 0.02405600f, 0.06509452f, 0.02809222f, 0.01076185f, 0.03231171f, -0.02143928f, 0.00226888f, 0.04394194f, -0.01458805f, -0.00403201f, 0.00842263f, 0.00458350f, -0.05044223f, 0.01568324f, -0.00865253f, -0.00886506f, 0.01916897f, -0.00196640f, -0.02232846f, -0.00113481f, 0.00286455f, 0.03336214f, 0.00889694f, -0.01039084f, 0.02427062f, -0.02652946f, -0.01844321f, 0.02373831f, -0.01777988f, 0.04229223f, -0.02113883f, -0.03958875f, -0.07840075f, 0.04763130f, -0.00765861f, 0.08017842f, 0.00870440f, 0.01226131f, -0.03132883f, -0.07194865f, -0.11072616f, -0.07000113f, 0.10107079f, -0.06321748f, -0.00369310f, -0.01830762f, -0.07801152f, -0.02880126f, 0.03787806f, -0.01270845f, -0.02812612f, 0.02321308f, 0.01992658f, 0.03281581f, 0.01940159f, 0.01839483f, -0.01184318f, -0.03860231f, 0.00757724f, -0.04850964f, -0.01902583f, 0.10860197f, 0.03859664f, 0.04208426f, 0.05588223f, 0.04246087f, -0.02672477f, 0.01261626f, -0.02709549f, 0.03913722f, -0.07707161f, -0.05202449f, 0.02861131f, -0.00839642f, 0.03010118f, -0.06133672f, 0.06039088f, 0.01751879f, 0.01886215f, -0.00221971f, -0.09970837f, 0.02925749f, -0.03524366f, -0.07977547f, -0.01277276f, 0.02976295f, 0.05222440f, 0.03010401f, -0.07654066f, 0.03763572f, -0.09507698f, -0.03813719f, 0.05053928f, -0.01537034f, 0.03222195f, 0.07631718f, -0.00788082f, -0.00046719f, -0.02603066f, -0.00783609f, -0.09628639f, -0.06327246f, -0.00145740f, 0.00929644f, -0.02743169f, 0.01711697f, 0.01870549f,
    /* [7] */ 0.01433948f, -0.05531093f, 0.00788145f, 0.02186724f, -0.04526998f, 0.01824051f, -0.01251874f, -0.06489372f, -0.01121561f, 0.00562288f, -0.03013842f, 0.01013367f, 0.01511435f, -0.01761057f, -0.01460844f, 0.01122999f, -0.02478677f, -0.01113964f, 0.02854844f, -0.03585364f, 0.01577802f, 0.00056504f, -0.00996146f, 0.00237643f, -0.01450535f, -0.02909272f, 0.02430113f, 0.08949266f, -0.02888460f, -0.06834687f, 0.11773665f, 0.01318711f, 0.09960113f, 0.01058704f, -0.02093943f, -0.00114431f, 0.05431925f, -0.01167841f, 0.04080733f, 0.00208172f, 0.01245422f, -0.01218393f, -0.01069640f, 0.01362342f, -0.02995288f, 0.06518959f, -0.06529943f, 0.06063925f, 0.02973904f, -0.04173633f, -0.02965037f, 0.00640545f, -0.01682005f, -0.04895036f, -0.00312984f, 0.03826760f, -0.01299404f, 0.00317461f, 0.08372932f, 0.01894672f, 0.04494477f, -0.01333570f, -0.06472220f, -0.01813621f, 0.08244135f, 0.00414010f, 0.00787126f, -0.01008253f, -0.05503208f, -0.01843289f, -0.02465524f, 0.00730090f, 0.03999240f, 0.02681229f, -0.04861488f, 0.01573882f, 0.00307920f, 0.02964985f, 0.11003138f, -0.04718616f, -0.00804008f, -0.06271179f, 0.04645673f, -0.05338807f, 0.02066116f, 0.05621427f, -0.08526659f, -0.04226763f, -0.02919978f, -0.05113930f, -0.00819978f, -0.02972949f, -0.00134187f, -0.04551918f, -0.00473849f, 0.01344070f, 0.01595647f, -0.01400763f, 0.04251010f, -0.04112046f, -0.01431220f, -0.05123207f, 0.00680192f, -0.02096418f, 0.04106428f, 0.05572492f, 0.02443101f, -0.01854890f, -0.01575706f, -0.08368985f, 0.01786617f, 0.02348914f, 0.05041457f, 0.09037376f, 0.07042520f, 0.08376651f, -0.03127461f, 0.00977455f, 0.10707388f, -0.03256420f, 0.01804115f, 0.05469140f, -0.08507175f, -0.02115868f, 0.12341245f, -0.01686572f, -0.02453323f, 0.01425336f,
    /* [8] */ -0.01590623f, 0.01887637f, 0.03739102f, 0.01325101f, -0.03756651f, 0.08582480f, 0.06539615f, -0.00475670f, 0.00175695f, -0.01858206f, -0.01326816f, 0.01788768f, -0.04247151f, 0.05348463f, 0.02819342f, -0.06613591f, 0.06768747f, 0.04647794f, -0.08094072f, 0.06776025f, 0.01640799f, -0.05865546f, -0.00137904f, -0.03092175f, -0.02942832f, 0.03625396f, 0.02293499f, 0.01181203f, 0.00011535f, -0.06514445f, 0.02459159f, -0.03120449f, -0.06756233f, 0.05940934f, 0.00970305f, 0.02014661f, 0.04714051f, 0.00045086f, 0.00876955f, -0.01213947f, -0.04085633f, 0.04719979f, 0.03431649f, -0.03582187f, 0.12226386f, -0.01859940f, 0.00294155f, -0.07330884f, -0.01046593f, 0.05620075f, 0.01395235f, 0.02280568f, 0.01636460f, -0.00275719f, 0.05264972f, -0.00608547f, 0.08373492f, -0.00081814f, -0.02073649f, 0.00312758f, 0.06587061f, 0.03200184f, -0.01945258f, -0.04261085f, 0.04476111f, 0.02248462f, -0.02227645f, -0.03154829f, -0.00572219f, -0.01468344f, 0.06074845f, -0.00537512f, 0.00760826f, 0.03753054f, 0.04216782f, 0.03021919f, 0.01658612f, 0.01574028f, 0.01769082f, -0.00659963f, 0.01076759f, 0.04884239f, -0.14838269f, 0.16073573f, 0.04460907f, -0.01953351f, -0.09896394f, -0.01440389f, -0.02019588f, 0.01849246f, -0.01635862f, 0.05809297f, -0.01115713f, 0.01808805f, -0.01961919f, -0.01579373f, -0.10468505f, 0.01315279f, 0.03363612f, 0.07620478f, 0.05400910f, -0.08446342f, -0.03449731f, -0.01099583f, -0.01495880f, -0.00351367f, 0.01906787f, -0.12828593f, 0.02613134f, 0.04071584f, -0.00585131f, 0.03497522f, 0.01418987f, -0.02588113f, -0.01895154f, -0.03108860f, -0.01311552f, 0.00557571f, 0.00050175f, -0.04684846f, -0.07290250f, 0.01967152f, 0.04839495f, -0.01570024f, -0.07050068f, -0.03914783f, 0.04471135f, 0.05142179f,
    /* [9] */ -0.02599050f, 0.00474972f, -0.06653590f, -0.00134919f, -0.08933000f, -0.01798027f, 0.10247839f, 0.01673561f, 0.02405869f, -0.00409167f, -0.01253416f, -0.00051199f, 0.00158368f, -0.02833052f, 0.03336953f, -0.02073825f, 0.04591814f, 0.06188271f, 0.05466838f, -0.04380260f, 0.08360939f, 0.00322943f, -0.03692643f, -0.05664915f, -0.07987978f, 0.03161143f, 0.00095454f, -0.05123850f, 0.10545152f, -0.04704149f, 0.00004860f, -0.02836564f, 0.02427116f, -0.01919946f, 0.00792409f, 0.11193691f, -0.01077170f, 0.03060684f, 0.01492791f, -0.02499562f, 0.02208836f, -0.03898970f, 0.01903733f, -0.00321848f, 0.05916808f, -0.00620460f, 0.05844952f, 0.02417729f, -0.02812762f, -0.11210333f, 0.06141140f, -0.06110105f, 0.08118509f, 0.02492269f, 0.01519747f, 0.01497012f, -0.09576943f, -0.01449347f, 0.04389619f, 0.02863996f, -0.03153884f, -0.05546056f, 0.04444020f, -0.02932460f, -0.01986243f, 0.00271555f, -0.02905396f, 0.11787966f, -0.04470439f, -0.00224330f, 0.01738860f, -0.03879621f, 0.03222237f, 0.01472885f, 0.03840675f, -0.03180820f, -0.02377636f, 0.01787091f, -0.03480632f, -0.03391702f, -0.01919099f, -0.06598683f, -0.09742781f, 0.06018405f, -0.00395503f, -0.02687149f, 0.01991402f, 0.05768023f, -0.04495651f, -0.00058411f, 0.08920681f, 0.00108541f, -0.01208354f, 0.04617845f, -0.01004325f, -0.01909057f, -0.08302976f, -0.02439452f, -0.02221075f, -0.06433070f, 0.02228382f, 0.01143526f, -0.08097671f, 0.05694796f, 0.01775506f, 0.01307599f, -0.01914021f, -0.07937185f, -0.06876376f, -0.00836372f, 0.07571988f, -0.04140845f, -0.00996181f, 0.04916885f, 0.02188609f, 0.01758385f, 0.00180805f, -0.03881766f, 0.03307884f, -0.01647799f, 0.00592247f, 0.04702923f, -0.07044752f, -0.00233592f, -0.06927414f, 0.08945940f, -0.04318165f, -0.10045347f,
    /* [10] */ -0.01040304f, -0.01645776f, 0.03518494f, -0.00260189f, 0.08336212f, -0.01611841f, 0.00638045f, 0.09599029f, -0.01575904f, 0.01718735f, -0.05228224f, 0.05463430f, -0.00543891f, 0.02732118f, -0.01932892f, -0.02658437f, -0.03240330f, -0.01675313f, -0.02477231f, -0.06570844f, 0.02221346f, 0.02219918f, -0.00845961f, -0.04987663f, 0.01849038f, -0.00303035f, 0.08547118f, 0.03375346f, -0.01359980f, 0.04000235f, -0.01450175f, -0.00425996f, 0.00723297f, 0.03594571f, 0.05051643f, 0.02206485f, 0.01003444f, 0.01489106f, 0.07433242f, -0.02741872f, 0.04932550f, -0.01990165f, -0.05725606f, 0.03548746f, 0.01021857f, 0.01518864f, 0.08289790f, 0.05245925f, 0.01376667f, -0.05171379f, 0.04513375f, -0.09867583f, 0.09583722f, -0.01043187f, -0.00453266f, -0.03366909f, -0.05797807f, -0.01041059f, 0.07571068f, 0.02699098f, -0.05062891f, -0.01367605f, -0.00967932f, -0.05736066f, -0.05204343f, -0.04340313f, -0.02570974f, -0.07030547f, 0.00106926f, 0.05928214f, 0.03740898f, -0.00006537f, 0.00809351f, -0.02266918f, -0.03566541f, 0.00329528f, 0.01276613f, 0.06583200f, -0.00493573f, -0.00619747f, -0.08278606f, -0.09833489f, 0.03277941f, 0.00441488f, -0.03670885f, 0.02138563f, -0.04076742f, -0.05942803f, 0.01855532f, -0.10589419f, 0.03393470f, -0.07329213f, 0.01543747f, -0.17939711f, 0.02591589f, 0.07713552f, -0.03913965f, 0.00791293f, -0.00000850f, 0.01601254f, -0.04948650f, 0.02006690f, 0.03472046f, 0.03836557f, -0.06740711f, 0.02659210f, -0.03572919f, 0.10506733f, -0.04792764f, 0.00527446f, -0.01673521f, 0.04773513f, -0.01580434f, -0.03796127f, 0.01582190f, 0.01366555f, -0.02518806f, 0.12190919f, 0.01304180f, -0.04696266f, 0.04008429f, -0.01706230f, -0.02911005f, 0.03334373f, -0.01570927f, 0.00280148f, 0.00376965f, 0.01054373f,
    /* [11] */ -0.04144801f, -0.06331133f, -0.01927568f, 0.00274457f, -0.05279876f, -0.00810587f, -0.03788088f, 0.04921200f, 0.00265396f, -0.07611745f, -0.00741835f, 0.06035123f, 0.06113196f, -0.01740766f, 0.01042979f, 0.02356301f, -0.02403285f, -0.00335697f, -0.03583539f, 0.00732464f, -0.02139392f, -0.02683438f, -0.02767572f, 0.01261477f, -0.06838383f, 0.01417144f, 0.01265180f, -0.02081686f, 0.09004741f, -0.04401289f, 0.00948453f, -0.02254135f, 0.00427008f, -0.03248831f, -0.01106442f, -0.04810643f, -0.02542215f, -0.07109284f, 0.00023032f, -0.00576747f, -0.10136754f, 0.04126134f, -0.02024586f, -0.01886153f, 0.07388891f, -0.04211962f, 0.00530996f, 0.06466336f, 0.04652169f, -0.00603029f, 0.02988509f, 0.00300983f, -0.01958795f, -0.04242777f, 0.04021580f, 0.02129762f, 0.07221494f, -0.02748051f, -0.01990771f, -0.00456655f, -0.00417162f, -0.05620004f, -0.01616739f, -0.03568122f, 0.08799501f, 0.03162604f, -0.01033248f, 0.06301195f, -0.05533299f, 0.10839402f, 0.00482423f, -0.04551274f, -0.02010001f, -0.02186215f, 0.03428269f, -0.00252881f, -0.01541704f, 0.02525412f, 0.06007339f, 0.08264246f, -0.01763248f, -0.06948838f, 0.01080615f, 0.03270590f, -0.00130986f, -0.04398448f, 0.03709309f, 0.02231693f, -0.01014575f, 0.04414750f, 0.02018095f, -0.04235253f, 0.03920957f, 0.01830146f, -0.01345470f, 0.03368880f, 0.03223522f, 0.04551126f, -0.02562884f, 0.03296882f, 0.02199116f, 0.06822139f, -0.05580562f, 0.01487163f, 0.01048793f, -0.01636039f, -0.03416163f, 0.10017022f, -0.01576128f, -0.00540710f, -0.07328895f, -0.03634786f, 0.05702985f, 0.02813792f, 0.07701865f, 0.00047180f, 0.02825269f, 0.03647305f, 0.03510232f, -0.03841040f, -0.03845466f, 0.04165135f, 0.02378202f, -0.08327660f, -0.03582015f, -0.02665599f, 0.03529232f, -0.03944826f,
    /* [12] */ 0.05722633f, 0.00219144f, -0.49425504f, 0.01382189f, 0.00664112f, -0.00462699f, 0.21339208f, -0.09302086f, 0.08528024f, -0.01653702f, -0.01158802f, -0.00068444f, -0.00801901f, -0.02190775f, -0.00220577f, -0.01587968f, 0.31687033f, -0.02117268f, 0.02506431f, 0.00557557f, 0.01234982f, -0.00423296f, -0.15703079f, -0.03140479f, -0.01045460f, -0.00692991f, 0.11786047f, -0.00362999f, -0.01459981f, 0.01467490f, 0.09987658f, 0.01134899f, -0.03406362f, 0.02496923f, 0.00501864f, -0.08396199f, 0.28446975f, -0.03162467f, -0.00288179f, 0.01301943f, 0.01984918f, 0.03190291f, -0.00075786f, -0.03005882f, -0.27401096f, -0.03288459f, -0.01583775f, -0.07209235f, 0.00962225f, 0.01219306f, -0.01893392f, 0.01357877f, 0.01345851f, 0.02681365f, -0.01331155f, 0.01603123f, -0.05519385f, -0.01697423f, -0.01330216f, 0.01798934f, 0.00971684f, 0.03483574f, 0.01499366f, 0.05133887f, 0.04530060f, 0.01463886f, -0.01470496f, 0.00244111f, 0.56824601f, -0.00805110f, -1.03403294f, -0.01855841f, -0.00689814f, 0.00244039f, -1.22839999f, 0.00011078f, 0.01265928f, 0.02060335f, 0.00793642f, 0.00595871f, 0.00859095f, -0.01274297f, -0.48180717f, 0.50200707f, 0.00298002f, -0.00845157f, -0.01293208f, -0.02095494f, 0.02038792f, -0.00613608f, 0.01209083f, -0.01868648f, 0.30726182f, 0.22679335f, -0.02430837f, 0.03935383f, 0.07174729f, -0.01688521f, -0.00348118f, -0.02832716f, -0.03108036f, -0.23599584f, -0.00803922f, -0.00551677f, -0.14285323f, 0.02931000f, 0.04678007f, -0.04416420f, 0.01357053f, 0.02498755f, 0.09841608f, 0.02582548f, 0.02582035f, 0.03060726f, 0.22121947f, 0.02578980f, 0.00537429f, -0.01042194f, 0.01775115f, 0.31069240f, -0.02851065f, -0.02127185f, 0.02901340f, -0.00243156f, 0.24447149f, -0.01498164f, 0.01622742f, -0.01674845f,
    /* [13] */ -0.04814316f, -0.00164507f, -0.01829583f, 0.03536383f, -0.00643875f, 0.01264651f, 0.03026893f, -0.05074449f, -0.03217523f, 0.05145224f, 0.06014062f, 0.05968807f, -0.07160693f, 0.07711294f, 0.00820383f, 0.05903128f, -0.00268904f, -0.02568523f, -0.01747997f, 0.02610174f, 0.01180759f, 0.03268427f, 0.01017430f, -0.01099479f, 0.01860047f, 0.01364674f, 0.05779329f, -0.06603365f, 0.04605405f, -0.03421408f, 0.05239173f, 0.02351245f, 0.03753711f, -0.01217289f, 0.03244652f, 0.01244027f, -0.06957161f, 0.03632167f, -0.01828063f, 0.01038790f, -0.00110923f, -0.01050892f, 0.01495163f, -0.08728168f, 0.01699513f, 0.01588166f, 0.08609318f, -0.07522479f, -0.00446123f, 0.02089273f, -0.02324598f, 0.01297396f, 0.04468911f, -0.02066305f, 0.00471063f, 0.03898289f, -0.04667715f, -0.00872280f, -0.04205336f, 0.00922609f, -0.01443030f, -0.05612272f, -0.02712024f, 0.02686715f, 0.00287995f, -0.00757919f, 0.01640876f, 0.01175276f, -0.03208225f, 0.02385724f, -0.05238709f, 0.05178772f, -0.01781416f, 0.01618876f, -0.03204583f, -0.07390809f, -0.01764298f, -0.04750899f, -0.02660969f, 0.04448260f, 0.02328697f, -0.02754261f, 0.10218591f, -0.01260988f, -0.03092382f, 0.04468135f, 0.06076626f, 0.04001043f, 0.01106032f, 0.02514574f, -0.01395794f, 0.00337024f, 0.02365888f, 0.08640741f, 0.01922918f, 0.06424859f, -0.00677401f, -0.02651687f, 0.04046777f, -0.01014331f, -0.01629518f, -0.01257179f, 0.06626239f, 0.05809275f, 0.01512545f, -0.05897140f, 0.02861928f, -0.02947495f, -0.00928336f, 0.00830458f, 0.05577262f, -0.03709891f, -0.00830253f, -0.02326898f, -0.01624312f, -0.02395974f, -0.08254379f, 0.01717278f, -0.00346368f, -0.01324543f, 0.08499052f, 0.01106148f, -0.00965700f, 0.02996879f, 0.06229964f, 0.11159232f, -0.02396655f, 0.00145576f,
    /* [14] */ 0.02698406f, 0.05016690f, -0.13286254f, 0.01891159f, 0.00337983f, -0.06391268f, 0.00875853f, -0.02333741f, -0.01343986f, 0.07155711f, -0.08347394f, 0.10013111f, 0.03276297f, -0.09121469f, -0.02013316f, -0.00610461f, 0.00075701f, 0.01433931f, -0.02689083f, 0.01474021f, -0.03909123f, 0.06858426f, 0.06649318f, -0.00669052f, -0.01377363f, 0.01259147f, 0.00913411f, 0.01596759f, -0.08153209f, -0.08643880f, 0.03981029f, 0.00921662f, 0.04276789f, 0.03449501f, -0.03443916f, 0.02158304f, -0.02768782f, -0.07990316f, -0.04610397f, 0.06553386f, 0.03242610f, -0.00567502f, -0.03660100f, 0.04305557f, 0.02575681f, -0.01192170f, 0.04591130f, -0.01681753f, -0.01074977f, -0.01921531f, -0.01247803f, 0.01051686f, -0.04650863f, 0.03089893f, -0.05035078f, 0.03543093f, 0.08202130f, -0.02864875f, -0.00553982f, -0.02768491f, -0.02155231f, -0.02718619f, -0.02086610f, -0.03197132f, 0.09712064f, -0.01529739f, 0.05989412f, 0.03188559f, 0.05167449f, 0.01194833f, 0.01475266f, 0.03053692f, -0.06286287f, 0.00612187f, 0.03081095f, 0.00631033f, -0.01749790f, 0.04730786f, 0.03055349f, 0.02100096f, 0.00217481f, -0.02703427f, 0.09421632f, -0.07075199f, 0.04658788f, -0.05449941f, 0.09464487f, 0.02290654f, 0.11076715f, -0.00598881f, 0.07428968f, -0.06325605f, -0.01017217f, 0.05140461f, 0.00689797f, 0.03385064f, -0.04495820f, 0.00471716f, 0.03276248f, -0.04368367f, -0.01793616f, -0.02733950f, -0.00502088f, -0.00644122f, 0.00095632f, -0.03714351f, -0.01346933f, 0.04186810f, 0.00380379f, -0.02103213f, -0.01494019f, 0.00011005f, 0.01818733f, -0.01661679f, -0.03142995f, 0.00895392f, 0.06851824f, -0.02475084f, 0.04120560f, -0.05093265f, 0.01527247f, -0.04162748f, -0.02793103f, -0.03902941f, 0.10131365f, -0.06658687f, 0.00263631f, -0.07021917f,
    /* [15] */ -0.00162259f, -0.01654795f, 0.04774015f, -0.04366548f, 0.05769370f, 0.00620946f, 0.06019687f, 0.00394999f, -0.02036813f, -0.00426984f, -0.04032890f, 0.01478504f, -0.03135388f, -0.02472424f, -0.03584038f, 0.04186928f, -0.00552341f, -0.02607766f, -0.04504763f, -0.05565699f, 0.02946256f, 0.01627749f, -0.00995652f, -0.01946465f, 0.03695877f, -0.03235075f, 0.05108716f, 0.09082053f, 0.16224435f, -0.08631142f, 0.03263000f, 0.01183500f, 0.01570912f, -0.00848041f, -0.03346782f, -0.07396036f, -0.00457477f, -0.02487564f, 0.08666252f, 0.01636048f, 0.01986634f, 0.00679881f, -0.01357102f, 0.01446817f, -0.05385156f, 0.00068135f, 0.04133482f, -0.03077119f, 0.07214054f, 0.01969455f, -0.00004524f, -0.01481225f, -0.05101472f, -0.09446950f, -0.03535897f, -0.04315649f, -0.01613519f, -0.01797517f, 0.02765125f, -0.04778876f, -0.05768311f, -0.05235966f, 0.02846201f, 0.00278337f, -0.10718082f, -0.03061681f, 0.03776583f, -0.03901597f, 0.03774759f, 0.06324048f, -0.03454623f, -0.01050746f, 0.00756777f, -0.06725466f, 0.00709806f, 0.00750401f, -0.00931174f, 0.01124514f, -0.10312985f, -0.01520146f, -0.01578369f, 0.01310036f, 0.00172084f, 0.01979731f, 0.01875919f, 0.02142105f, 0.01156874f, -0.05698795f, -0.00174326f, 0.02161995f, 0.04939045f, -0.04759707f, -0.02262601f, -0.00305929f, -0.06282698f, 0.01499424f, -0.01978138f, 0.06000562f, 0.00838278f, 0.00608900f, -0.00452014f, -0.06008210f, 0.02363809f, 0.03805471f, -0.03234228f, 0.00681261f, 0.10150043f, -0.06250649f, 0.04589800f, -0.08357414f, 0.11912219f, -0.01927477f, 0.01156562f, -0.04255406f, 0.01942331f, 0.00832646f, 0.02478028f, -0.04536103f, -0.08304540f, -0.05242602f, -0.03992101f, -0.07074292f, -0.01732423f, 0.07841656f, 0.08640363f, 0.00057059f, 0.03529560f, -0.02774183f,
    /* [16] */ 0.04399539f, 0.00904212f, -0.01914842f, -0.04427016f, 0.04958739f, 0.06072829f, -0.03873676f, -0.08070008f, -0.03757575f, 0.02291226f, 0.04825268f, 0.00686879f, 0.04221880f, 0.02180469f, -0.00020724f, -0.09943455f, -0.03707143f, -0.02071759f, -0.06526673f, -0.03254612f, -0.01102842f, 0.02560904f, 0.06091942f, -0.05804532f, 0.00322444f, -0.00519908f, -0.10096686f, 0.05777970f, 0.09061037f, -0.05093025f, 0.00770121f, 0.06479493f, 0.09749044f, -0.03652839f, 0.04472556f, -0.07173678f, -0.02089453f, -0.00585410f, -0.04619593f, -0.05549031f, 0.02029278f, 0.03231432f, -0.03351258f, 0.05519695f, -0.02459222f, -0.01107668f, -0.02912772f, -0.07106222f, 0.05369578f, 0.00759689f, 0.00987422f, -0.00868506f, 0.01546077f, -0.08552522f, 0.03943908f, -0.00140664f, 0.03158449f, -0.05756461f, -0.07050579f, -0.05518337f, 0.07535983f, -0.03701662f, 0.02825400f, 0.02636023f, 0.04033452f, -0.03672202f, 0.10829628f, 0.01402377f, -0.02096234f, -0.03733142f, -0.07410160f, 0.06628711f, -0.01919307f, 0.04403824f, 0.00451581f, -0.02616700f, -0.01429022f, 0.00619833f, 0.01684566f, 0.03701952f, -0.02384832f, -0.01490086f, 0.05088075f, 0.01531646f, 0.00275337f, 0.00295208f, -0.01305621f, -0.01229425f, -0.06925415f, 0.03469572f, 0.00571460f, -0.03251836f, -0.07096353f, 0.01050775f, -0.06623785f, -0.11728600f, 0.03837305f, 0.03398726f, 0.01998612f, 0.04006914f, -0.04765683f, 0.02653168f, 0.03477703f, -0.01001007f, -0.04420295f, 0.06350713f, 0.02126960f, -0.01580548f, -0.01058951f, -0.01082922f, 0.05675590f, 0.02636384f, 0.01131811f, 0.01414292f, 0.10432155f, 0.02763594f, -0.03874107f, 0.00553200f, -0.10756899f, -0.05391204f, 0.04643094f, -0.06321979f, 0.02416657f, 0.05440390f, 0.01884189f, -0.07798973f, -0.06012639f, 0.07888205f,
    /* [17] */ -0.02994039f, -0.04023620f, 0.07272221f, 0.03128215f, -0.01723292f, 0.03992228f, 0.00425063f, -0.07790597f, 0.02263140f, -0.01017243f, 0.01840535f, -0.02201977f, 0.01236181f, 0.07709799f, -0.04201671f, 0.01747199f, 0.00554840f, -0.03986198f, -0.02605897f, -0.01054794f, -0.01202792f, 0.06753103f, -0.00999517f, -0.02956453f, -0.03343631f, 0.02840731f, 0.02811207f, 0.03808942f, -0.03874082f, -0.05600998f, 0.00007043f, 0.01354873f, -0.00315661f, 0.01114833f, 0.07227633f, 0.02396379f, 0.05006029f, -0.06828130f, -0.06213099f, -0.02663937f, -0.00184813f, -0.03175730f, -0.02077977f, -0.02543856f, -0.04276587f, 0.07603057f, 0.06706479f, -0.03990339f, 0.01664642f, 0.04022430f, 0.07550088f, -0.06254310f, 0.04240892f, -0.03526504f, 0.01124049f, 0.02692064f, 0.01326773f, 0.01704289f, -0.07818941f, 0.04062380f, -0.07327862f, 0.04491338f, -0.05330560f, 0.01712161f, -0.04674804f, 0.02641199f, 0.00005226f, -0.05221253f, -0.03182380f, 0.10198802f, 0.00903541f, 0.00769755f, -0.03095162f, -0.05528952f, -0.03912461f, -0.00986906f, 0.00034440f, -0.01606258f, -0.05122044f, 0.00732901f, -0.02487771f, 0.02691317f, -0.06000367f, 0.00032363f, -0.06424351f, -0.01583366f, -0.00808756f, 0.02172594f, 0.00985891f, -0.03183405f, 0.02331570f, -0.02459509f, -0.00919887f, 0.08214142f, 0.00427390f, 0.07321601f, -0.11672629f, -0.04713910f, 0.01122073f, -0.01218362f, -0.04709867f, -0.07597458f, -0.01105564f, 0.01668496f, -0.00723800f, 0.04722954f, -0.02010013f, 0.00354209f, 0.01603539f, -0.02942482f, 0.05158076f, -0.04150503f, -0.03529811f, -0.00004653f, -0.01690748f, -0.02040226f, 0.03615387f, -0.05960250f, 0.00740457f, -0.02815988f, 0.07362305f, -0.02504571f, -0.07716635f, -0.05340961f, -0.07255103f, 0.03109981f, 0.01844453f, -0.02092411f,
    /* [18] */ 0.00868951f, 0.02907957f, -0.01083284f, -0.04190981f, -0.05665481f, -0.05107180f, -0.00434413f, -0.02119717f, 0.01351882f, 0.01529211f, -0.07743625f, 0.00085548f, -0.03734573f, 0.00382156f, 0.02974976f, -0.01865505f, -0.04445117f, -0.03149369f, -0.02797060f, -0.04983041f, 0.04850550f, 0.00036774f, 0.08267924f, 0.04111923f, 0.00637772f, -0.02474309f, -0.02118150f, -0.01340356f, -0.04773947f, -0.04848565f, -0.01744427f, -0.03741796f, 0.01093428f, -0.05037210f, 0.02567053f, -0.04873935f, 0.02115414f, -0.06696274f, -0.00146505f, -0.00362822f, -0.00103454f, 0.03205453f, -0.06930238f, -0.02270076f, -0.04065054f, -0.05370092f, 0.05987763f, 0.00485097f, 0.05269023f, -0.01138631f, 0.03678259f, 0.00088990f, -0.07352026f, -0.04869221f, -0.05163581f, 0.02165125f, -0.05701109f, -0.00444306f, -0.03490861f, -0.02753851f, -0.01165902f, -0.07003861f, -0.01943210f, -0.02125880f, -0.05207330f, -0.05069053f, 0.02151260f, 0.04526113f, 0.00059213f, -0.02256933f, 0.01208087f, 0.05614846f, -0.06566958f, 0.01519968f, -0.03501846f, 0.02109277f, 0.00944812f, 0.00652729f, 0.02723573f, -0.05746773f, -0.08149204f, -0.01591771f, 0.02827089f, -0.07912076f, -0.03826470f, 0.03149503f, 0.06316095f, 0.01723712f, -0.00765786f, 0.01293454f, 0.04067556f, -0.02164894f, 0.01032165f, -0.02766647f, 0.02227974f, -0.01685210f, -0.01367848f, -0.00233592f, -0.03367786f, -0.00880074f, 0.03427232f, 0.04258801f, -0.04796618f, -0.02249101f, 0.01318923f, 0.01222792f, 0.04545090f, 0.09839269f, 0.04456698f, -0.06095680f, -0.02047746f, -0.03368158f, 0.05783028f, 0.04429516f, 0.03277031f, -0.00969268f, 0.05741085f, 0.04986329f, 0.07056811f, 0.00160907f, 0.00073258f, 0.02743618f, -0.10392113f, 0.02442885f, -0.05388686f, 0.09265613f, 0.01690737f, -0.06719562f,
    /* [19] */ -0.01970493f, 0.00546994f, 0.02390061f, -0.00308907f, -0.04786542f, 0.04105702f, -0.03391235f, 0.00361084f, -0.01602889f, 0.02640864f, 0.06656968f, -0.02684750f, 0.06297893f, -0.00568179f, 0.03866055f, 0.02299257f, -0.01602932f, 0.05839595f, 0.02796442f, -0.04154456f, -0.03836974f, -0.00654858f, -0.01701009f, -0.01621183f, 0.02168518f, -0.00330823f, 0.03566510f, -0.02122316f, 0.03103986f, 0.02939814f, -0.07049329f, -0.00780480f, 0.06882328f, -0.09753377f, -0.02404707f, -0.03081827f, -0.08329526f, -0.03377812f, -0.00000364f, 0.00196899f, 0.00258532f, 0.04656556f, -0.05463810f, -0.03870592f, 0.02817228f, -0.06883028f, -0.00975952f, -0.12544915f, -0.06023668f, -0.06299160f, -0.03235205f, -0.05991656f, 0.06351746f, -0.03729338f, -0.08576117f, -0.00852951f, 0.04128775f, 0.00567933f, 0.03588893f, 0.01088391f, -0.01490067f, 0.09674004f, -0.06402329f, 0.03270397f, 0.03653951f, -0.01697388f, -0.00387286f, -0.04217882f, -0.00742306f, -0.01236681f, 0.02944221f, 0.00857981f, -0.00840344f, 0.00947075f, -0.04058871f, 0.08542172f, -0.02417277f, -0.00539469f, -0.06635906f, -0.03573984f, -0.04651929f, -0.03497561f, -0.06389464f, 0.08410121f, -0.04793305f, -0.01799694f, 0.05443811f, -0.03190427f, -0.02830035f, -0.02392049f, -0.01700776f, 0.02130468f, 0.00033368f, 0.02986348f, 0.00420277f, 0.04073320f, 0.02255905f, 0.07843713f, -0.05692755f, -0.02508782f, 0.00378779f, 0.05128301f, -0.03981881f, 0.01863674f, -0.04287813f, -0.02849969f, 0.02099176f, -0.00392996f, -0.03572862f, 0.04730069f, 0.01779938f, -0.04060260f, 0.01528226f, 0.06038482f, -0.02306414f, 0.00930685f, -0.00490421f, 0.03824265f, -0.04394187f, 0.03142164f, -0.06374178f, 0.00167042f, -0.02575429f, -0.03940850f, -0.03604355f, 0.01404199f, -0.01128272f, 0.01482377f,
    /* [20] */ -0.01240904f, -0.05207064f, 0.07404233f, 0.00530881f, 0.00937377f, -0.01994303f, 0.06993476f, 0.04569344f, 0.01076582f, 0.02638287f, 0.08013070f, -0.01750218f, 0.03871193f, -0.00559997f, -0.06136701f, -0.02848516f, 0.03683804f, -0.01620805f, -0.01053105f, -0.00024758f, 0.03687454f, 0.03191549f, -0.03266623f, 0.03064947f, 0.02704826f, 0.02349147f, 0.00439902f, 0.00118553f, 0.02739537f, -0.00006436f, -0.04618742f, -0.00475997f, 0.02051755f, 0.02621560f, -0.04871624f, 0.02459826f, -0.03439263f, 0.05018631f, 0.04429194f, -0.04810670f, -0.03503384f, -0.01311373f, -0.00306375f, 0.03877496f, 0.11840418f, 0.00490327f, 0.01324521f, 0.02674148f, -0.03212469f, -0.02725013f, 0.03225310f, 0.00263403f, 0.01933423f, 0.02949742f, 0.04115397f, -0.00770816f, -0.03275014f, -0.00560074f, 0.06647883f, 0.09664828f, -0.02239019f, -0.04657736f, -0.00613617f, 0.01413429f, 0.02550438f, -0.03286799f, -0.00589790f, 0.04469550f, -0.07888658f, 0.01812144f, 0.03457093f, -0.01368588f, -0.01163648f, 0.05269793f, -0.17101301f, 0.06900188f, -0.03166013f, 0.01356544f, 0.01610332f, -0.06199805f, 0.01385280f, 0.05196163f, -0.07160123f, 0.03322939f, -0.00288137f, -0.07447647f, -0.02694172f, -0.00419068f, -0.04181805f, -0.00774357f, -0.02513414f, 0.00789626f, 0.05363495f, -0.03110786f, 0.06270223f, -0.04660572f, 0.00175327f, -0.01971876f, -0.05743378f, -0.01742354f, -0.03061883f, 0.05915486f, 0.02100036f, 0.00969911f, -0.07247152f, -0.00559201f, -0.07191174f, -0.03236096f, 0.02648042f, -0.06570873f, -0.06499988f, 0.04620129f, -0.05097897f, -0.05232748f, 0.01679933f, 0.00011300f, -0.04762515f, 0.06516394f, -0.02447143f, -0.00067693f, 0.00039239f, 0.03076522f, 0.06364378f, 0.03968756f, -0.03337796f, 0.00502295f, -0.00919272f, 0.06690649f,
    /* [21] */ -0.00318850f, -0.02883996f, 0.08138458f, 0.00111803f, 0.03850117f, -0.05034876f, 0.03579542f, 0.09333409f, -0.01197425f, -0.01480171f, -0.02194106f, 0.06927613f, 0.04390403f, 0.02584618f, -0.01847819f, -0.03382901f, -0.01956478f, 0.03409024f, -0.05884223f, 0.05433129f, -0.00964558f, 0.05495008f, -0.07145977f, 0.06842640f, -0.03857417f, 0.01025782f, 0.01372029f, 0.00784391f, 0.00316262f, 0.02801212f, -0.11368611f, -0.09186007f, -0.03911253f, 0.01577261f, -0.00849551f, -0.03178380f, -0.00495952f, -0.09622879f, 0.04275852f, 0.00383922f, -0.03313152f, 0.02377626f, 0.04516334f, -0.03945196f, -0.01739905f, -0.02842341f, 0.00752505f, 0.00551974f, 0.01138250f, 0.00134603f, -0.00104198f, 0.04755039f, -0.09330332f, 0.01073557f, -0.01542026f, -0.01494326f, 0.00964198f, 0.00197278f, 0.02789327f, 0.05184844f, 0.02080994f, 0.03809356f, -0.04380057f, 0.01686262f, 0.03581313f, -0.01938496f, 0.00558041f, 0.01627153f, -0.00974367f, 0.04256317f, -0.03782357f, 0.02028063f, -0.09399033f, 0.02961816f, 0.08252309f, 0.01499203f, -0.03195199f, 0.02178438f, 0.06100287f, 0.01892175f, -0.02586959f, 0.03981092f, -0.14930578f, 0.17479192f, 0.00639749f, 0.04484426f, -0.00017165f, -0.03103861f, 0.05276369f, 0.10325202f, 0.06264734f, -0.02133151f, -0.01718617f, 0.02066098f, 0.05201594f, -0.02096871f, -0.01464525f, 0.00152654f, 0.01092408f, 0.04376838f, 0.01622855f, 0.01105273f, 0.05215189f, 0.00465947f, 0.00726650f, 0.00806076f, -0.05173113f, -0.05456506f, -0.02264382f, -0.01360982f, 0.02867896f, 0.04161671f, -0.05665454f, -0.10485193f, 0.06966492f, -0.00752664f, 0.00394738f, -0.03042771f, 0.00681319f, 0.03324591f, 0.00478657f, -0.03896436f, 0.05163793f, 0.03953803f, 0.02059292f, 0.05411395f, 0.04986450f, -0.02431792f,
    /* [22] */ -0.07818529f, 0.02211221f, 0.05698048f, 0.02222528f, -0.01837998f, 0.00483693f, -0.01542966f, 0.03946913f, 0.04039761f, -0.06005568f, 0.02488847f, -0.02482909f, 0.02699465f, -0.00670488f, -0.02524079f, 0.07298712f, -0.01889856f, 0.00718272f, -0.03000012f, 0.03029915f, -0.05040476f, -0.01422963f, 0.01725516f, -0.03131213f, -0.01315806f, 0.01332120f, 0.06657169f, 0.00818485f, -0.05409832f, -0.01821717f, -0.05489258f, -0.02193530f, 0.06251027f, -0.01660812f, -0.02313733f, 0.01199510f, 0.02280143f, 0.02227941f, 0.07498407f, -0.05200856f, 0.05137207f, -0.02994629f, -0.04412933f, -0.01355897f, 0.18150826f, 0.01347301f, -0.03693867f, -0.00618479f, 0.02727610f, 0.02565011f, 0.00984506f, -0.00906806f, 0.01218480f, 0.03965297f, 0.07552677f, 0.01654330f, -0.06327088f, 0.10155514f, -0.02302057f, 0.02788663f, 0.03317938f, 0.02203085f, -0.05142300f, 0.00498795f, -0.00515083f, -0.01411869f, 0.00652502f, -0.04439738f, 0.04884668f, 0.01132010f, 0.05476744f, -0.00425715f, -0.00081926f, -0.03882254f, -0.13109194f, 0.05827377f, 0.05212707f, -0.00520770f, 0.04138860f, 0.04390632f, -0.09585483f, -0.00349770f, -0.12808537f, 0.00016144f, 0.02657389f, 0.09076855f, -0.03701699f, -0.04378363f, 0.01503241f, -0.00583552f, 0.01744638f, -0.01461784f, 0.10576811f, -0.04199656f, 0.04816165f, -0.00423850f, 0.04719796f, -0.05156701f, -0.06799109f, -0.01751884f, -0.10056984f, -0.04438458f, 0.02277855f, 0.02437436f, 0.02130299f, 0.02142094f, 0.09259439f, -0.05026395f, 0.04498022f, -0.07892977f, -0.05198348f, 0.08090205f, 0.05340439f, 0.01000048f, 0.06983246f, 0.00632505f, 0.00771858f, -0.08159246f, 0.01219896f, 0.04711288f, -0.01554624f, -0.02410636f, 0.01617022f, 0.05383875f, -0.03658042f, -0.02532777f, 0.07918928f, -0.01993668f,
    /* [23] */ -0.03704873f, -0.04347094f, -0.01839322f, 0.01977707f, -0.01801765f, -0.10822086f, -0.01076607f, -0.04450319f, -0.00912704f, 0.00960671f, -0.01535820f, 0.06440365f, -0.02671723f, 0.00089472f, 0.04452495f, -0.06358150f, -0.00064303f, -0.04465656f, 0.00062965f, 0.00898773f, 0.04228402f, 0.00449349f, -0.02153826f, -0.02030122f, 0.01327589f, -0.00176339f, 0.05772218f, 0.00683099f, -0.04777445f, -0.01035768f, -0.01628100f, -0.02346493f, 0.05274035f, 0.04691425f, -0.01538357f, -0.08670892f, 0.01163821f, 0.00064615f, 0.00985970f, 0.02973540f, 0.04510555f, 0.00517595f, -0.00127535f, 0.03854848f, -0.03394113f, -0.02832773f, 0.03127870f, -0.02812058f, 0.06981424f, -0.04476610f, 0.02387061f, 0.03999858f, -0.01300627f, -0.00163978f, 0.02017917f, 0.00361749f, -0.05679014f, -0.04183515f, 0.00663433f, 0.00821480f, 0.00220942f, -0.01453551f, 0.01648021f, 0.02612498f, 0.00624350f, -0.02673167f, 0.02230602f, -0.06132548f, -0.04043438f, 0.02713815f, -0.00674075f, -0.03951804f, -0.01050618f, 0.00293120f, 0.01662187f, -0.03038438f, -0.01080187f, -0.00452064f, 0.09140624f, 0.08659290f, -0.02169080f, 0.05198457f, 0.01665447f, 0.02308931f, 0.00615476f, 0.02840131f, -0.02331346f, -0.00243290f, -0.00299370f, 0.05134740f, -0.05173393f, 0.00789405f, -0.03171933f, -0.03566123f, -0.05005958f, 0.01000651f, -0.00754998f, 0.02058659f, -0.01762062f, 0.00961336f, 0.02453758f, -0.14016882f, 0.02781029f, 0.01992163f, 0.00909937f, -0.08965706f, 0.02649684f, 0.06758955f, -0.01225647f, 0.05446788f, -0.00324099f, -0.03428067f, 0.04370994f, -0.03335984f, 0.00085600f, -0.00112162f, 0.00542366f, 0.00837642f, -0.05740637f, -0.03984471f, 0.04010198f, 0.07682030f, -0.05705846f, 0.03008346f, -0.02274045f, 0.01174219f, 0.01894128f, 0.00265620f,
    /* [24] */ 0.00154205f, 0.05303783f, -0.11083170f, -0.01488658f, -0.00581611f, -0.03105447f, -0.00652388f, 0.07345837f, -0.04514785f, 0.04200798f, 0.02632583f, -0.00991230f, -0.00686408f, 0.00360767f, 0.00166930f, -0.02615387f, -0.01390371f, 0.07458547f, -0.01768934f, 0.07129420f, -0.06295631f, -0.01139622f, 0.03751396f, 0.02457394f, 0.01128947f, -0.03566235f, 0.01407225f, -0.07187099f, 0.05902996f, -0.05180931f, -0.01480857f, -0.09135710f, 0.00573228f, 0.07503252f, -0.00814366f, -0.00879969f, 0.03119682f, 0.00953455f, 0.03090402f, -0.01100196f, -0.03468055f, -0.06314436f, -0.00133439f, -0.02975066f, 0.00446448f, 0.03732052f, 0.02479385f, 0.03572493f, -0.00021010f, 0.03418760f, 0.00891272f, 0.05544536f, -0.00941415f, 0.01044394f, -0.05100593f, -0.09609561f, 0.07125627f, 0.01830173f, -0.02353640f, 0.06001817f, -0.01865665f, -0.05583856f, -0.00462663f, 0.04905616f, -0.06461522f, -0.03030613f, 0.01443386f, 0.00136197f, -0.03895338f, -0.03554402f, 0.03896812f, 0.01880219f, -0.03626239f, 0.00011860f, -0.01192905f, -0.04178730f, -0.02067592f, -0.11360838f, 0.01484228f, -0.01037735f, -0.01271795f, 0.02020912f, 0.03213439f, 0.03549778f, 0.00886372f, 0.04330867f, 0.03773520f, 0.01868110f, -0.03786312f, -0.00153920f, 0.07961428f, 0.00610150f, 0.00660633f, -0.06660986f, 0.07105764f, 0.00742629f, 0.00727150f, 0.00356879f, -0.02048592f, -0.03059773f, 0.03079057f, -0.03207386f, 0.00214407f, 0.01676856f, 0.04951609f, -0.04432779f, 0.10238136f, 0.10018858f, -0.07419685f, 0.01648036f, -0.04414092f, -0.03828877f, -0.05302453f, -0.00644803f, 0.03036049f, -0.01221819f, 0.01852026f, -0.00801807f, 0.04834251f, -0.06676531f, 0.00570459f, 0.01996977f, -0.05463978f, -0.01305697f, 0.07107603f, 0.00843127f, 0.00588657f, -0.01612339f,
    /* [25] */ -0.03679145f, 0.01014593f, 0.08609027f, -0.02546164f, -0.02812861f, -0.01543312f, 0.02090893f, 0.05832991f, 0.00824608f, -0.03089055f, 0.00647101f, -0.01143485f, -0.01313272f, -0.03606470f, -0.04154376f, 0.03150200f, 0.06393496f, 0.07202594f, 0.00093774f, -0.05218054f, -0.01782344f, 0.01220832f, -0.07728617f, 0.02571919f, -0.00864469f, 0.00701756f, 0.05655215f, -0.00771568f, -0.00611994f, -0.00412026f, -0.05544428f, -0.02924125f, -0.00129969f, -0.04254075f, -0.03459250f, 0.03418225f, -0.07145055f, -0.02227134f, 0.00611787f, -0.03565707f, 0.02487656f, 0.07059418f, 0.00191322f, -0.02894821f, -0.02988086f, 0.00038358f, -0.00171419f, -0.04345707f, 0.01079501f, 0.00579989f, -0.01262325f, -0.00347110f, 0.02815498f, -0.02403762f, -0.01549379f, 0.08468778f, 0.04907506f, 0.01774460f, 0.03079082f, 0.00107632f, -0.05480522f, -0.03761934f, -0.03916912f, 0.05471845f, 0.08514329f, -0.01181909f, 0.01097522f, 0.02595016f, -0.03829820f, 0.05780734f, 0.03246583f, 0.01614151f, -0.04832027f, -0.03295534f, -0.02494696f, 0.06046699f, -0.03180716f, 0.02998966f, 0.03439362f, -0.02684203f, 0.00455621f, -0.00593343f, -0.14433828f, 0.09472551f, -0.00291665f, 0.02266118f, -0.00647348f, 0.02352729f, -0.04844639f, 0.05362978f, -0.03815988f, 0.04098931f, 0.07115418f, 0.02908412f, 0.03470956f, 0.04921135f, -0.04050856f, 0.00455581f, 0.00899743f, -0.05809673f, -0.00008830f, 0.01864462f, 0.02092435f, -0.00560566f, -0.01462753f, -0.05559032f, 0.04360733f, -0.01346885f, 0.06634405f, 0.04141520f, -0.01213309f, -0.04042584f, 0.00170349f, -0.02059674f, 0.00748412f, -0.02482903f, 0.01702123f, -0.06284914f, -0.02402884f, -0.02674156f, 0.00714435f, -0.02350209f, 0.00486609f, 0.02383816f, -0.00628994f, 0.02049979f, 0.07306290f, -0.00188610f,
    /* [26] */ 0.01748860f, 0.00001020f, 0.05033677f, 0.04872506f, -0.02304973f, -0.01879048f, -0.01134500f, 0.03128804f, 0.04701032f, 0.00807166f, 0.00320444f, 0.01351276f, 0.07121602f, -0.01783437f, -0.05072337f, 0.02699120f, -0.00069859f, -0.02839344f, -0.00126028f, 0.02730272f, 0.04622666f, 0.00876972f, 0.05327463f, 0.00619086f, -0.01030843f, -0.03350918f, -0.02005140f, -0.04345519f, -0.03045101f, 0.04300068f, -0.00996449f, -0.01109484f, 0.07719219f, 0.00386907f, 0.02498609f, 0.00801220f, -0.01095864f, -0.00769346f, 0.03593146f, 0.05719639f, 0.00517668f, 0.00111522f, 0.02249926f, -0.00372108f, 0.03656888f, 0.05447362f, 0.02185927f, 0.00579042f, -0.03192062f, 0.08733742f, 0.01796190f, -0.02452657f, -0.03933033f, 0.05851505f, -0.03303944f, 0.06345867f, 0.00014371f, -0.00167317f, 0.03849714f, 0.00320964f, 0.00101010f, -0.00389154f, -0.00132006f, 0.00521408f, 0.04459682f, -0.04950520f, 0.00020953f, 0.02246245f, -0.08985639f, -0.03242552f, 0.11156520f, 0.01704700f, -0.05725937f, -0.01152101f, -0.07492811f, -0.05071826f, -0.05522714f, 0.06216397f, 0.02761567f, 0.01107271f, 0.02638784f, 0.00558348f, -0.17193353f, 0.05730652f, 0.03923626f, 0.02621130f, -0.04054586f, -0.01503142f, 0.04115702f, 0.07557201f, -0.03574914f, 0.05880055f, 0.12995823f, -0.13351850f, 0.00259056f, 0.00425905f, 0.01427847f, 0.05365313f, 0.02114218f, -0.05487847f, -0.05425007f, -0.08155294f, -0.01665149f, -0.10287408f, -0.07749078f, 0.04660759f, 0.06851339f, 0.08689358f, -0.04833424f, 0.09443045f, -0.11307159f, 0.04283369f, -0.02362797f, 0.06390386f, 0.05823452f, 0.00703048f, -0.01131780f, -0.02601525f, -0.03847371f, 0.04196847f, -0.00707444f, -0.04262609f, 0.01444245f, 0.05790032f, -0.00348832f, -0.01235379f, -0.02835597f, -0.00223333f,
    /* [27] */ -0.01712636f, 0.01751481f, -0.06415170f, -0.00085443f, 0.07099741f, -0.01352529f, 0.01289385f, 0.05645464f, 0.01989691f, -0.04365133f, -0.01873546f, -0.03683900f, -0.04935294f, 0.05479598f, 0.00116363f, 0.00548205f, 0.00854019f, 0.00604336f, 0.00210837f, -0.02150786f, 0.02761798f, 0.02661625f, -0.08277851f, -0.05570458f, -0.02927275f, -0.02310300f, -0.06126574f, 0.09415668f, 0.02215216f, -0.02485888f, 0.02425753f, -0.04043385f, -0.03937388f, -0.02504186f, -0.00147936f, 0.00146617f, 0.01242459f, 0.03890599f, 0.01791351f, 0.02797653f, -0.02055020f, 0.01403656f, -0.02422009f, -0.01853835f, -0.07730269f, 0.01656187f, -0.03433766f, 0.02177851f, -0.01595113f, 0.02573730f, 0.02570253f, -0.08732608f, -0.02264629f, 0.04643214f, 0.03916029f, -0.08587750f, 0.03741276f, 0.04198306f, -0.00094249f, 0.01354800f, 0.05206021f, 0.01197143f, 0.04292436f, -0.06162537f, -0.05353046f, -0.00223414f, -0.04980334f, -0.02228343f, -0.04857231f, -0.05275575f, 0.06833252f, 0.05733443f, 0.04242678f, -0.00027557f, 0.02614772f, 0.00775668f, 0.02308372f, 0.06128247f, 0.00248509f, 0.01352812f, -0.00641411f, 0.02855405f, -0.00693881f, 0.00493316f, -0.03399672f, 0.01531111f, -0.06527348f, -0.03838788f, 0.03188840f, -0.01373711f, 0.02963336f, -0.08188689f, 0.01326921f, -0.09154727f, 0.00986277f, 0.01013986f, 0.07720102f, -0.00349009f, -0.07381941f, -0.03109182f, -0.09412762f, 0.02124909f, 0.00332989f, 0.05539214f, -0.03524129f, -0.02511820f, -0.11223654f, -0.11269259f, -0.04246256f, 0.02093830f, -0.00576149f, 0.04523792f, 0.00638923f, -0.07870413f, -0.06467294f, -0.01430185f, -0.02136904f, 0.10889591f, -0.00145032f, 0.02594049f, -0.09448273f, -0.01135627f, 0.00848257f, 0.07011048f, -0.15105557f, 0.00945510f, 0.07610367f, -0.02100750f,
    /* [28] */ 0.00120048f, 0.06239920f, 0.14939712f, -0.01259871f, -0.05085140f, 0.03724661f, 0.05836527f, 0.07329094f, 0.02591600f, -0.09151863f, -0.00271307f, 0.04418826f, -0.00399906f, 0.09409471f, -0.03960072f, 0.02485202f, 0.06267422f, 0.01199219f, -0.01884505f, 0.04650619f, -0.05728411f, -0.01452345f, 0.03359511f, 0.04147872f, 0.06549602f, 0.03334073f, 0.12506615f, 0.02250877f, -0.01312492f, -0.00007834f, -0.05234874f, 0.01009620f, -0.05194844f, 0.05898863f, 0.11271963f, -0.08954570f, -0.04144856f, -0.03073444f, 0.06549521f, 0.03071020f, -0.03980460f, -0.01423829f, 0.09039041f, -0.05394787f, 0.04773813f, -0.01193758f, 0.01477344f, 0.01190322f, 0.01108721f, 0.01081451f, 0.05687436f, 0.04352871f, 0.03110982f, -0.04436808f, -0.05259787f, 0.00450234f, -0.07398279f, 0.00568288f, 0.05548739f, 0.02044239f, -0.03515770f, -0.11660713f, -0.00554770f, 0.03740869f, -0.08152920f, 0.04419099f, 0.04645382f, -0.02581412f, -0.02939528f, 0.10513911f, 0.00901738f, -0.04044776f, -0.05645546f, -0.01744054f, -0.11059374f, 0.03675895f, 0.01575207f, 0.02344746f, 0.04248817f, 0.02563688f, -0.01288661f, 0.03916066f, -0.02503786f, 0.00441976f, 0.07664827f, 0.03412038f, 0.08512896f, -0.02438648f, 0.03789839f, -0.05685847f, 0.04499147f, -0.00260015f, 0.10901868f, -0.05739594f, -0.09517946f, -0.03867157f, -0.00443296f, 0.00776629f, -0.07783909f, -0.00800546f, -0.04658145f, -0.02334225f, 0.03172682f, 0.03440734f, 0.08327701f, 0.04475909f, -0.10401744f, 0.02049119f, 0.05658764f, 0.00849410f, 0.00144163f, -0.01936975f, -0.02112939f, -0.01524692f, 0.05526780f, 0.03674809f, 0.09291630f, 0.07134236f, 0.00401835f, 0.09556960f, 0.04004173f, 0.03184963f, 0.01256806f, 0.01731873f, -0.16128483f, 0.02370448f, 0.11421117f, 0.00652264f,
    /* [29] */ -0.03569837f, 0.11555036f, -0.05187802f, 0.01351765f, -0.02617447f, 0.00734082f, -0.02289987f, -0.10345331f, 0.00612748f, -0.01616391f, -0.02567663f, -0.02385689f, -0.00181733f, 0.03206330f, -0.01426671f, 0.06575009f, 0.06204990f, 0.01067686f, -0.06859531f, 0.04353647f, 0.04163673f, -0.00615322f, 0.05998988f, 0.03696740f, 0.03610588f, 0.08576559f, -0.04282209f, 0.01824347f, 0.01040953f, 0.00858313f, 0.04755342f, -0.04686524f, 0.02199467f, -0.02293797f, 0.03091368f, -0.04498160f, 0.03777319f, -0.05890185f, -0.03342335f, 0.04477198f, 0.03772925f, -0.01415611f, -0.05172148f, 0.00644850f, -0.00316439f, 0.05384742f, 0.04609753f, 0.00912680f, -0.06439920f, -0.03083139f, 0.08362784f, -0.02914484f, -0.01985311f, -0.01491942f, 0.01910416f, -0.04803048f, 0.03698862f, -0.02564374f, -0.00647526f, -0.04023961f, -0.01969412f, -0.07688757f, -0.02851874f, -0.04017395f, 0.00862636f, -0.02727772f, 0.02823160f, 0.01294600f, -0.12254313f, 0.01814398f, 0.00241726f, 0.05897347f, -0.02465101f, -0.07332949f, -0.06727917f, -0.04420641f, 0.02695319f, 0.00756960f, -0.03195267f, -0.03039342f, -0.03862768f, 0.00876183f, 0.05130759f, -0.04665327f, -0.02232362f, 0.00214282f, 0.00844133f, 0.01585808f, 0.01346526f, 0.06635411f, 0.03162831f, -0.01089588f, 0.09033370f, -0.06669039f, -0.00066063f, 0.01368496f, 0.03108221f, -0.00850818f, -0.04050822f, 0.04204135f, -0.01075921f, -0.06301895f, 0.00580207f, 0.01660922f, 0.00845575f, -0.05795475f, -0.04042470f, 0.07535430f, 0.00166438f, 0.02606035f, 0.00538539f, 0.02216927f, 0.00558931f, -0.05908974f, 0.01105434f, 0.02639059f, 0.01424049f, -0.00304766f, -0.01550073f, 0.00452117f, -0.01291795f, 0.10733778f, 0.01949338f, -0.00617170f, -0.00880983f, 0.05304845f, 0.00669329f, -0.00399770f,
    /* [30] */ 0.04454724f, 0.04358699f, -0.00769015f, -0.06520291f, 0.02797879f, -0.05291325f, 0.00865474f, 0.07500425f, -0.01762079f, 0.08380516f, 0.05279106f, 0.00024706f, -0.05412911f, 0.04129761f, -0.03005045f, 0.02476178f, 0.05626686f, 0.04598992f, -0.09475032f, 0.02100811f, -0.01168603f, -0.00936483f, -0.00689477f, -0.01571173f, -0.01379101f, -0.02258994f, -0.00900634f, -0.01175109f, 0.02229515f, -0.06076161f, -0.00720445f, -0.01796314f, 0.03595478f, -0.03278053f, 0.00049136f, -0.06994335f, 0.03645696f, -0.03406376f, 0.01909557f, 0.01145168f, 0.04800203f, -0.01861909f, -0.03342535f, -0.04611814f, -0.04000913f, -0.00387800f, -0.01754304f, -0.03049608f, -0.07645340f, -0.00675769f, 0.05766698f, -0.05167963f, -0.04131027f, 0.03891594f, -0.01224471f, -0.05075045f, -0.05830754f, -0.05059269f, 0.04136071f, -0.01293108f, -0.00334177f, -0.06213086f, 0.02299885f, -0.04244092f, -0.04728009f, -0.01254397f, -0.02374067f, 0.04163502f, 0.01680050f, -0.06619348f, -0.03971627f, -0.01608686f, -0.02096233f, -0.02166158f, 0.05629895f, -0.00600810f, -0.04190375f, 0.02702836f, -0.03896194f, -0.03048110f, 0.01402984f, 0.01965538f, 0.03175645f, 0.03645552f, 0.04129440f, 0.00361608f, -0.00769246f, 0.06205663f, 0.00351113f, 0.02141775f, 0.03795758f, -0.05439004f, 0.02265121f, -0.05167779f, -0.08508305f, -0.07970878f, -0.03239653f, 0.04621363f, 0.01328329f, -0.00867620f, -0.03015682f, 0.03606964f, 0.00383834f, -0.04437726f, -0.04149108f, -0.07004169f, -0.02855020f, -0.13767301f, -0.05478254f, 0.07286798f, -0.07767386f, 0.07550143f, -0.02396374f, -0.07257514f, 0.02029495f, -0.04089835f, -0.08067890f, 0.05587635f, -0.00992369f, -0.01442902f, -0.02868540f, 0.03864087f, -0.02517054f, -0.00151703f, -0.05689201f, 0.01943866f, 0.01145197f, -0.00245109f,
    /* [31] */ -0.00316102f, -0.00810270f, 0.02779729f, -0.06023631f, -0.06083404f, -0.00083002f, 0.00555185f, -0.06665071f, 0.01226589f, -0.00702124f, 0.08092953f, 0.00383127f, 0.09224366f, 0.02319800f, 0.08441692f, 0.02067709f, 0.03014452f, -0.03444678f, -0.00647416f, -0.05138659f, 0.00423824f, -0.03338409f, 0.00293097f, 0.03469302f, -0.07783112f, -0.02899328f, -0.00964539f, 0.03734141f, -0.06938524f, 0.00304655f, -0.09309603f, 0.02079958f, 0.03129557f, 0.04779122f, -0.03062487f, 0.01773601f, 0.04304507f, -0.03162090f, -0.01928273f, 0.03285130f, 0.02445064f, -0.02164316f, 0.02028469f, 0.07115152f, -0.12415698f, 0.03102738f, 0.04006170f, 0.01278659f, -0.01118649f, -0.06235966f, -0.01363199f, -0.00280836f, -0.03797839f, -0.01872986f, -0.01059792f, 0.08802813f, -0.03826260f, -0.03560879f, 0.06908309f, 0.00936181f, 0.05000119f, -0.07631475f, 0.01453641f, -0.02236833f, 0.02363971f, 0.01044879f, 0.06932917f, -0.02196100f, -0.04987312f, 0.04513350f, -0.05619663f, 0.01964268f, -0.05585784f, 0.02642311f, 0.02150298f, 0.02044997f, -0.05009199f, 0.06809562f, -0.01563871f, 0.01537052f, 0.05183130f, -0.02148413f, 0.01085200f, -0.00404097f, 0.03994120f, -0.01322843f, 0.00906297f, -0.02690136f, -0.03082044f, 0.00195523f, 0.02182798f, -0.06952292f, -0.03718691f, -0.03505279f, 0.03745989f, -0.05314151f, -0.02283466f, 0.01310541f, 0.03609322f, 0.00068334f, 0.02070666f, 0.02726383f, 0.02726108f, -0.02433755f, -0.07777701f, 0.04069911f, -0.07702697f, 0.02100469f, -0.09781212f, -0.00743897f, -0.08331832f, -0.04315782f, -0.05535259f, 0.00128941f, 0.01676495f, 0.06235220f, -0.07177728f, -0.07761798f, -0.03226201f, 0.07655079f, 0.12619549f, -0.00077091f, 0.05355765f, -0.04895495f, -0.12114688f, 0.07737941f, -0.05379378f, 0.03841631f,
    /* [32] */ 0.03653054f, 0.03151028f, -0.02486093f, -0.00071313f, -0.03444200f, 0.06068082f, -0.00254446f, 0.00244744f, 0.01746484f, 0.00896877f, 0.00246913f, 0.00987083f, 0.00424782f, -0.02207647f, -0.00938589f, 0.02408032f, -0.05004407f, -0.02432363f, 0.00233125f, 0.06899494f, 0.04565835f, 0.00226504f, -0.00486906f, 0.04888737f, -0.02402990f, 0.01912983f, -0.03982865f, 0.04160018f, -0.01715897f, 0.02800968f, 0.05062427f, 0.01508875f, 0.00598005f, -0.01162284f, 0.04275072f, -0.10677045f, 0.02299920f, 0.02585561f, -0.00919823f, -0.00049010f, -0.00128297f, 0.00743992f, -0.02802449f, 0.00405290f, -0.00653519f, -0.05126433f, 0.00300183f, -0.06491084f, 0.00837426f, 0.00926980f, -0.02034966f, -0.01749242f, 0.05039768f, -0.00003197f, 0.02521371f, -0.00364483f, 0.02094676f, 0.04751462f, 0.01240434f, 0.02835749f, -0.00893658f, 0.14272109f, 0.02583460f, -0.00281026f, -0.01485316f, -0.02246612f, 0.01555802f, -0.06916191f, -0.08971107f, 0.00104063f, 0.02898313f, 0.02628681f, -0.07148524f, 0.00090986f, -0.02266182f, -0.02769569f, -0.02568823f, -0.01755376f, 0.01283805f, 0.04177537f, 0.02481596f, -0.01338488f, -0.05651837f, 0.02640860f, -0.02770636f, -0.02038104f, 0.05611647f, 0.01725648f, -0.01074602f, 0.02939807f, 0.05216183f, 0.02050517f, 0.01471520f, -0.02567280f, -0.00901467f, -0.03464942f, -0.02337871f, 0.03939267f, 0.03113829f, -0.02435038f, 0.03946919f, 0.02248491f, 0.01272821f, 0.04742000f, -0.02345768f, -0.02280098f, -0.07476663f, -0.06827837f, -0.00554989f, 0.04357520f, 0.04158203f, 0.03139140f, 0.00149234f, -0.03654353f, -0.02958193f, 0.03162706f, -0.06292210f, 0.10738671f, -0.04616004f, 0.03080867f, -0.07598376f, -0.01007829f, 0.01304841f, 0.04685338f, -0.00759498f, 0.03513455f, 0.05227686f, 0.01777216f,
    /* [33] */ 0.00708106f, 0.03749544f, -0.01752316f, 0.12376134f, -0.05640439f, -0.00623502f, -0.03584947f, -0.00022737f, -0.01417922f, -0.03228664f, 0.04860772f, 0.00192031f, -0.03441412f, 0.01433084f, -0.04525726f, 0.06467365f, -0.06300484f, 0.00250754f, 0.04774609f, -0.03895015f, -0.06199410f, 0.03890479f, -0.00149617f, -0.01341500f, 0.03856713f, 0.02608225f, -0.06518105f, 0.00599160f, 0.05826145f, 0.05187207f, 0.03340536f, -0.00831503f, -0.07599664f, -0.03626350f, 0.00487519f, 0.02879914f, -0.05133392f, -0.02518979f, -0.02753296f, 0.01873738f, -0.00781904f, -0.06880949f, 0.00114350f, 0.03479130f, 0.05592410f, 0.04221221f, 0.04760594f, 0.00189493f, -0.02393089f, -0.00400160f, 0.01757666f, 0.04073607f, 0.06316226f, -0.05246979f, 0.00324922f, 0.02426944f, -0.00868703f, 0.01406277f, 0.02203087f, -0.00846903f, -0.03765935f, 0.04595331f, -0.02582296f, -0.00432554f, 0.07659808f, 0.06011287f, -0.03524553f, 0.03321198f, 0.05852785f, 0.07278958f, -0.05253691f, -0.01478233f, 0.00534577f, 0.01932085f, 0.00869621f, 0.05426256f, -0.02061454f, -0.03608561f, 0.00228365f, 0.00072266f, -0.02713251f, 0.04938173f, 0.07046428f, -0.06799147f, -0.00067285f, -0.00178382f, 0.04353061f, 0.03951727f, 0.06258535f, 0.03239152f, -0.10784737f, -0.01978328f, 0.07251796f, -0.01683723f, 0.08586545f, -0.00389546f, -0.05449190f, 0.01856158f, -0.01373059f, -0.00249715f, -0.02422970f, -0.00584077f, 0.04102787f, 0.00620342f, -0.01190577f, -0.01244351f, -0.02242867f, 0.06621958f, 0.01461789f, 0.02233471f, 0.03927755f, -0.05461913f, 0.01414662f, -0.01084229f, 0.01894189f, 0.01955443f, -0.00547479f, -0.02433745f, 0.00877840f, -0.06843514f, 0.04357035f, -0.00277308f, 0.07965543f, -0.03805684f, 0.12096126f, -0.00518743f, 0.08936527f, 0.06791547f,
    /* [34] */ -0.01367618f, 0.00502865f, -0.05336453f, 0.00902952f, 0.04153707f, -0.08171862f, 0.02395249f, 0.00925578f, -0.07213930f, -0.06433164f, 0.02982158f, 0.00582357f, 0.02736282f, -0.03315841f, -0.01321634f, -0.00029576f, -0.00848508f, -0.03028692f, 0.00353071f, 0.01000306f, -0.00615008f, 0.00104356f, 0.07636796f, -0.01049820f, -0.05862267f, 0.01434883f, 0.01389126f, 0.03480155f, 0.02684903f, -0.02549705f, 0.09798014f, -0.01069429f, -0.07967579f, 0.01102288f, -0.02132888f, -0.00255448f, -0.04720080f, -0.03151469f, 0.06387640f, 0.00193969f, 0.02482600f, 0.02026416f, -0.01309246f, 0.01584438f, 0.00399021f, -0.06029473f, 0.01938408f, -0.04706978f, 0.05687369f, -0.08818617f, 0.04301553f, -0.02477987f, 0.04841090f, 0.05091657f, 0.04112969f, 0.01342555f, -0.02550232f, -0.02232833f, 0.00054520f, 0.03964265f, 0.05421203f, 0.00414410f, 0.03256523f, -0.02358557f, 0.03192934f, -0.00953440f, -0.04929673f, 0.01610370f, 0.06201342f, -0.03281257f, 0.00129003f, -0.00365159f, 0.00215763f, 0.02370040f, -0.00550180f, 0.02403959f, 0.06384345f, 0.11767709f, 0.02345376f, 0.11034120f, 0.02337170f, 0.02957706f, 0.15230398f, -0.01652749f, -0.00895498f, -0.02308788f, -0.03661177f, -0.01300642f, -0.02716211f, 0.02411870f, 0.00778439f, 0.00168058f, -0.03360036f, -0.06194109f, -0.03793146f, 0.05681972f, 0.00073775f, 0.02934024f, -0.00867875f, -0.07352728f, -0.04924034f, 0.04351198f, 0.02297013f, -0.02633188f, 0.05540345f, 0.01919132f, 0.07336812f, -0.02915631f, -0.03186030f, 0.06421461f, -0.04913808f, 0.04201169f, 0.02393910f, 0.00458570f, -0.00464653f, 0.04157200f, 0.03033600f, -0.00487882f, -0.01572722f, -0.07463048f, -0.10951839f, -0.01695951f, 0.10122137f, 0.00888191f, 0.05012909f, 0.01230094f, 0.07895459f, -0.03991263f,
    /* [35] */ -0.00114862f, 0.01479310f, 0.02650025f, 0.00844591f, -0.06693878f, -0.00761636f, -0.03457937f, -0.02912033f, 0.01612045f, 0.01866107f, 0.00999738f, -0.06730621f, -0.01249554f, -0.03598785f, 0.00367835f, 0.01413984f, -0.00213661f, 0.03322646f, 0.02158358f, -0.05542883f, -0.02345005f, -0.00184883f, -0.08448166f, -0.04685004f, 0.00779433f, 0.00304269f, -0.08349620f, -0.00918892f, 0.00367811f, -0.00888351f, 0.03381002f, 0.06092760f, 0.00845140f, -0.00704155f, 0.01257279f, 0.06260701f, -0.01489584f, -0.04878321f, 0.05679161f, -0.01542041f, -0.02292929f, 0.10178658f, -0.00795169f, 0.03493523f, -0.03385552f, 0.04902662f, -0.01552375f, 0.03950185f, -0.03447852f, -0.01291187f, -0.11805326f, 0.00938288f, -0.07922518f, -0.01918605f, 0.00383219f, 0.06779892f, -0.02984179f, -0.01303337f, 0.08637480f, 0.00794467f, 0.00910083f, 0.12322465f, -0.06581938f, -0.00645550f, 0.01369059f, -0.01600114f, 0.05622772f, -0.01944215f, -0.00907558f, 0.00632251f, 0.04139193f, 0.01029044f, 0.05330301f, -0.00731332f, -0.00929285f, 0.03063296f, 0.03228857f, 0.04164188f, 0.02301943f, 0.00325356f, 0.06364830f, 0.01219622f, -0.03369438f, -0.04021696f, 0.07562779f, 0.08171450f, 0.07451096f, -0.01869951f, 0.00304649f, -0.03678806f, -0.04862703f, 0.04569593f, 0.00511800f, 0.01279489f, -0.04770059f, 0.00886294f, -0.00748545f, -0.01508368f, 0.00110478f, -0.02687365f, 0.05635087f, 0.06235203f, -0.00869489f, 0.01977166f, -0.04551068f, 0.01522002f, 0.02051634f, 0.09743223f, 0.02449872f, -0.00212553f, -0.08566995f, -0.05066519f, -0.01440489f, 0.03463158f, -0.01407562f, 0.05623288f, 0.02129420f, -0.06396411f, 0.02938359f, -0.00239879f, 0.01022927f, -0.02830755f, -0.02712966f, 0.01158929f, 0.10145098f, 0.02415217f, -0.03386142f, -0.00134465f,
    /* [36] */ 0.00331958f, -0.03257511f, 0.03189965f, -0.07055578f, -0.04430661f, -0.01592386f, -0.03956048f, -0.06603812f, 0.01245927f, -0.03890703f, -0.01664234f, -0.02126417f, 0.05619078f, -0.00821719f, -0.01277101f, -0.00539350f, 0.02370884f, -0.00459579f, -0.02785107f, -0.03021579f, -0.01916003f, -0.00369134f, -0.07538997f, -0.00065409f, -0.00138004f, -0.02891459f, -0.04688124f, -0.03061307f, 0.06037956f, -0.07230649f, -0.00593895f, -0.06862309f, 0.02173137f, -0.02621022f, -0.03417609f, -0.00700003f, -0.01412995f, -0.00454566f, 0.01595696f, 0.01728240f, -0.02062197f, -0.00664560f, -0.01920852f, 0.02114132f, 0.02043343f, 0.00006595f, -0.00666980f, 0.05138758f, -0.05628315f, -0.01002556f, 0.02829636f, -0.05975049f, -0.02710302f, -0.04199851f, 0.03859601f, -0.03934368f, 0.06810427f, 0.01239598f, 0.05390057f, -0.00541412f, -0.02142933f, 0.01030984f, 0.00441288f, 0.01271035f, 0.03521165f, -0.02510737f, -0.03869484f, 0.00259658f, -0.01017014f, 0.03218593f, -0.07194428f, -0.05276024f, -0.00519819f, 0.02568130f, -0.03689000f, 0.02359786f, -0.08542334f, 0.02040585f, -0.02379939f, -0.02956298f, -0.02873698f, 0.04459074f, 0.02925056f, -0.04866131f, -0.03175500f, 0.01115721f, -0.02528300f, -0.02654986f, -0.00297609f, -0.00117867f, -0.00803467f, -0.02524474f, -0.02595898f, 0.01462606f, -0.00317803f, 0.02618147f, 0.05261301f, 0.02737513f, -0.00231505f, 0.04018043f, -0.01164788f, -0.07270465f, 0.00519156f, -0.01140169f, 0.01972312f, 0.00041737f, -0.02398586f, 0.00192920f, -0.02816842f, -0.02686800f, 0.04755627f, -0.05149123f, -0.02523126f, 0.03018633f, 0.05105312f, 0.03944372f, 0.00006579f, -0.07596070f, 0.05827955f, -0.01889816f, 0.05041603f, -0.01871905f, -0.02391530f, 0.04265854f, 0.04987134f, 0.03381012f, 0.00123105f, -0.01681552f,
    /* [37] */ 0.02953863f, 0.01683899f, 0.03355791f, -0.03292549f, -0.07036278f, -0.06054470f, -0.06378720f, 0.08236351f, -0.00716850f, -0.00531934f, -0.02699007f, -0.01800399f, -0.01761001f, -0.00179526f, 0.06610870f, -0.00603846f, -0.00232663f, -0.07315717f, 0.04267767f, -0.00767295f, -0.03888087f, 0.01500345f, -0.06705197f, 0.00471978f, -0.04131115f, -0.00859017f, 0.12504402f, 0.01497748f, 0.04401797f, -0.00925724f, 0.02212120f, 0.04602233f, -0.02246524f, 0.04096292f, 0.03005262f, 0.01125293f, 0.07069845f, -0.02227512f, 0.01300197f, 0.04292873f, -0.04929324f, -0.00742909f, -0.03020623f, -0.05089458f, 0.07292498f, -0.07505563f, 0.01053485f, 0.06475104f, -0.03107635f, -0.01701478f, 0.05254200f, 0.06872510f, 0.04052963f, 0.08103857f, 0.04259457f, -0.05776754f, 0.01237805f, -0.06030364f, 0.01883357f, -0.06067438f, 0.00505648f, 0.03567096f, 0.09425844f, -0.03696720f, 0.01170879f, 0.04049592f, -0.07355564f, 0.00296040f, -0.05973289f, -0.02264381f, 0.13225889f, -0.07487245f, -0.01321401f, -0.03464503f, -0.00800819f, -0.04929706f, -0.05098019f, 0.00657574f, -0.03727598f, 0.02921855f, 0.02580622f, -0.05842263f, -0.11096602f, 0.15425377f, -0.00661326f, -0.08305949f, -0.02856177f, 0.04563100f, -0.00057476f, 0.04860760f, 0.10835958f, -0.04125590f, 0.00467886f, 0.01630844f, -0.00172577f, -0.01898088f, 0.05569516f, -0.02758759f, 0.00408881f, 0.04875553f, -0.01392748f, -0.06927914f, -0.03130275f, -0.02151133f, -0.02879333f, -0.00714770f, -0.00382280f, 0.06101812f, -0.13625567f, 0.01288526f, -0.03119930f, -0.03830585f, 0.06969745f, -0.06746059f, -0.03089157f, 0.07004720f, -0.04689716f, 0.09139553f, 0.01281206f, 0.00343023f, 0.05290584f, 0.02683451f, 0.01588553f, -0.03685664f, -0.04714697f, 0.06826961f, 0.05649500f, -0.00788801f,
    /* [38] */ 0.02017043f, -0.03389907f, -0.05888593f, -0.02740093f, 0.00734253f, -0.06032953f, 0.00101637f, -0.08358934f, -0.00608559f, -0.02812260f, 0.02661128f, 0.04814950f, -0.10112186f, 0.01583586f, -0.00994357f, 0.04493168f, 0.02302391f, 0.03824101f, -0.04513289f, 0.02074706f, 0.03390022f, 0.02301844f, -0.03934892f, -0.03720765f, -0.06268917f, 0.02413468f, -0.09709184f, 0.05277495f, -0.01966836f, 0.00593386f, -0.02238863f, -0.03113610f, 0.03607092f, -0.00323532f, 0.01130928f, -0.02443310f, -0.05219323f, 0.08214032f, 0.00614024f, -0.01908509f, -0.00004127f, 0.01470756f, 0.04415452f, 0.08183814f, -0.04499979f, -0.04494883f, 0.03344956f, 0.03527781f, 0.06466220f, -0.06154150f, 0.00328482f, 0.00922962f, -0.03854146f, 0.00727634f, 0.01734700f, 0.02230284f, -0.00747445f, 0.05642439f, -0.06776287f, -0.01855385f, 0.01050215f, -0.05270188f, -0.00894453f, -0.02986766f, 0.02724560f, 0.01072909f, 0.01520849f, 0.00366325f, 0.03083620f, 0.02168869f, -0.01376853f, 0.07783327f, -0.07230101f, -0.00815430f, 0.01167079f, -0.03177008f, 0.03590753f, -0.00845265f, -0.00883725f, 0.04350207f, -0.01463906f, 0.09895512f, 0.01964502f, -0.01556612f, -0.00389471f, -0.02420605f, -0.02190012f, -0.00709366f, -0.00242595f, 0.08461209f, 0.08368896f, -0.01164618f, -0.00754490f, 0.01055564f, -0.05117415f, 0.03232851f, -0.00640017f, 0.01802403f, 0.03933900f, -0.01303456f, -0.03340697f, -0.04059188f, 0.00608296f, 0.04676105f, -0.02171684f, -0.00067907f, 0.01744321f, -0.08019983f, -0.02527170f, 0.04312420f, 0.05603202f, -0.03865385f, 0.00015066f, 0.00931546f, 0.01463517f, -0.01676780f, 0.09477122f, 0.01968584f, -0.05331599f, 0.03724081f, -0.01117119f, 0.00686407f, 0.00768442f, -0.01892800f, -0.01758724f, 0.12470885f, 0.06953055f, -0.00265007f,
    /* [39] */ 0.01000900f, 0.00646405f, 0.84265304f, 0.00873060f, 0.00017825f, 0.00807531f, -0.14750151f, -0.49159566f, -0.30092174f, -0.00436228f, -0.00670560f, -0.00194823f, 0.00511257f, 0.00002996f, -0.01021674f, -0.00665252f, -0.10945413f, -0.00167863f, 0.00441724f, 0.01134653f, -0.00242898f, -0.00157145f, 0.01924366f, -0.00791375f, -0.00309296f, -0.00537386f, 0.04627955f, -0.00269093f, -0.00916357f, 0.01448016f, -0.93406218f, -0.00278935f, -0.00670132f, 0.00089046f, 0.00496233f, -0.01310818f, -0.11140806f, -0.00943834f, 0.00637330f, 0.00248066f, 0.00270502f, 0.01386365f, -0.00054712f, -0.01836500f, 0.22489111f, -0.01763303f, -0.00611538f, -0.00619929f, 0.00348553f, 0.01136606f, -0.00103700f, -0.00155212f, 0.00759200f, 0.00689036f, -0.00164477f, 0.00215778f, -0.00485442f, -0.00634272f, 0.00183336f, 0.00524475f, -0.00548833f, -0.34333867f, 0.00277142f, 0.00637409f, -0.33976862f, 0.00414941f, -0.00767506f, -0.00748383f, -1.14793050f, -0.00385428f, 2.37109685f, -0.00163470f, 0.00300849f, -0.00227459f, 1.55146015f, 0.00831813f, 0.00807507f, 0.01437908f, -0.00365828f, 0.00854503f, -0.00038875f, -0.00405707f, 0.72913623f, -0.22320680f, 0.00874679f, -0.00038808f, -0.01274941f, -0.00599793f, 0.00027144f, -0.00482634f, 0.00375580f, 0.00907539f, -0.04321645f, -0.04010980f, -0.01231629f, 0.00580712f, 0.01111040f, -0.00139495f, -0.01582986f, -0.00349163f, 0.00127101f, 0.02073256f, -0.00785093f, 0.00088021f, 0.10867018f, 0.00908557f, -0.15829347f, -0.48686764f, 0.00507071f, 0.01167718f, -0.03349064f, 0.00837853f, 0.01038145f, 0.00313017f, -0.06073183f, -0.00209869f, 0.01021653f, -0.00207480f, 0.00006590f, -0.05633635f, -0.01627114f, -0.00788572f, 0.01545180f, 0.00008448f, 0.61649680f, -0.01468618f, 0.01786108f, -0.00339299f,
    /* [40] */ 0.02023595f, 0.00375253f, -0.14589578f, 0.04769430f, 0.03072667f, 0.00361490f, -0.00330255f, 0.00620539f, 0.00639074f, -0.07389259f, -0.07476552f, 0.03832864f, 0.01339582f, 0.03329372f, 0.07312238f, -0.00386442f, 0.01725095f, 0.03024933f, 0.00899603f, 0.03335498f, 0.05695498f, 0.00510934f, 0.02991682f, -0.06008364f, -0.00312398f, -0.02359681f, -0.06820051f, 0.02686676f, -0.03302386f, 0.00567391f, 0.04791885f, -0.02664862f, -0.01043045f, 0.08203130f, 0.00840273f, -0.02102545f, 0.00526199f, -0.06077122f, -0.02504837f, 0.03246472f, -0.11405616f, 0.01194096f, 0.05920088f, -0.11549474f, 0.01996310f, -0.06899605f, 0.05002708f, 0.06372701f, 0.01603447f, 0.07984003f, -0.02953619f, 0.04673054f, -0.02374191f, -0.02791912f, 0.00709225f, 0.00514878f, -0.05613610f, -0.00441975f, 0.10038769f, -0.11634777f, 0.03550769f, -0.02190961f, -0.03348028f, -0.05163838f, -0.04781556f, 0.02144861f, -0.02022276f, -0.02222491f, -0.03534310f, -0.03245137f, -0.00780179f, -0.07862839f, -0.01511164f, -0.09780902f, -0.03385555f, -0.00677120f, -0.00483346f, -0.03325414f, 0.03757147f, 0.00863315f, -0.00690927f, 0.02927286f, 0.10830454f, -0.09916350f, 0.01180170f, 0.07154635f, 0.01784690f, -0.01071373f, 0.05020402f, -0.04212676f, 0.03530707f, 0.01394367f, 0.01679561f, -0.03097642f, 0.10732267f, -0.00639162f, 0.00702294f, -0.09658485f, 0.05560179f, -0.01487360f, 0.01319252f, -0.01658074f, 0.00048887f, -0.04777982f, 0.00347928f, -0.04335599f, -0.03102323f, 0.00704814f, 0.05190602f, 0.00560079f, -0.05774756f, 0.02365448f, -0.00290565f, 0.04355213f, 0.00728519f, 0.08711086f, -0.05982602f, -0.05419959f, 0.01779277f, 0.02152557f, 0.02160155f, 0.03780122f, -0.04354835f, 0.00525026f, 0.05850074f, 0.06759442f, 0.00606226f, -0.08619069f,
    /* [41] */ 0.01053992f, -0.04083451f, 0.07420563f, -0.00652465f, -0.04872685f, -0.02006283f, 0.08031239f, -0.04008879f, -0.00212815f, -0.02079017f, 0.02341769f, 0.05454784f, -0.02826561f, 0.02733774f, -0.03734928f, 0.05319690f, 0.01570976f, 0.04762708f, -0.00846361f, -0.01667879f, -0.00043687f, 0.01272044f, -0.02031136f, -0.00372053f, 0.01740140f, -0.01617051f, -0.00680863f, -0.02214128f, -0.00785549f, 0.03616945f, 0.00538875f, -0.00180520f, 0.06881145f, -0.05670202f, 0.05005306f, 0.02142327f, 0.01709275f, 0.03739240f, -0.00279698f, -0.00490376f, -0.03306141f, -0.07240993f, 0.01605301f, 0.00623395f, -0.00821618f, 0.08364330f, -0.03378480f, -0.01380968f, -0.03377591f, -0.03919214f, 0.06363854f, -0.07918570f, 0.02613493f, -0.02700329f, 0.02370160f, -0.03035464f, 0.04771069f, 0.04187171f, 0.02928777f, 0.04808733f, -0.00749332f, -0.03228014f, 0.03511713f, -0.00712589f, -0.00564608f, 0.01094429f, 0.02210733f, -0.06626422f, -0.11157240f, -0.09452271f, -0.01332925f, -0.04026345f, -0.03120905f, -0.02475973f, -0.04725842f, 0.02598257f, 0.02539963f, -0.03685665f, -0.04309911f, 0.05306375f, -0.01854402f, -0.05459558f, -0.05753542f, 0.07302476f, -0.02469573f, 0.00591996f, 0.04300746f, -0.01125681f, -0.01500576f, 0.03482632f, 0.04574192f, -0.02947388f, 0.06846400f, 0.01454531f, -0.01257547f, -0.06308373f, -0.07696480f, 0.02882166f, 0.00817774f, -0.02312934f, 0.04824376f, -0.05795490f, -0.05023471f, -0.00242503f, -0.08729942f, -0.02288515f, -0.04196684f, 0.02389869f, -0.01129063f, 0.00027986f, -0.02267991f, -0.02821182f, 0.04427335f, 0.03077743f, -0.07106367f, 0.02808475f, 0.03234091f, 0.02635015f, -0.04613274f, 0.04065537f, 0.06622068f, 0.00435794f, -0.06033132f, 0.02821091f, -0.01353842f, 0.06512722f, -0.00229193f, 0.03898331f,
    /* [42] */ 0.04653303f, 0.00648484f, -0.20517422f, 0.00998384f, 0.00728179f, -0.00705150f, -0.24468148f, -0.67121327f, -0.51631635f, -0.01435465f, -0.01211708f, 0.00098553f, -0.00595150f, -0.01765522f, -0.00131024f, -0.01567640f, -0.14318715f, -0.01565913f, 0.02071119f, 0.00382685f, 0.01278118f, -0.00315074f, -0.06327070f, -0.02746989f, -0.00978469f, -0.00994563f, 0.04178251f, 0.00294322f, -0.00946302f, 0.01289886f, -1.02566338f, 0.00905009f, -0.03149581f, 0.02792308f, 0.00568904f, -0.05688408f, -0.15795308f, -0.02040437f, -0.00492500f, 0.01120627f, 0.00993721f, 0.02534457f, 0.00285997f, -0.02718089f, -0.09042179f, -0.02634514f, -0.00739754f, -0.05883767f, 0.00385089f, 0.00768441f, -0.01043315f, 0.01620978f, 0.00781170f, 0.02146583f, -0.01366104f, 0.00543535f, -0.04721010f, -0.01614887f, -0.00988916f, 0.00777361f, 0.00872549f, -0.46653974f, 0.01428819f, 0.03368124f, -0.28119346f, 0.00758460f, -0.01105969f, 0.00442891f, -0.81665581f, -0.00938916f, 0.21108979f, -0.01172363f, -0.00840914f, -0.00099290f, 0.12271339f, -0.00027533f, 0.00554372f, 0.01798359f, 0.00842183f, 0.00471967f, 0.00490719f, -0.00690043f, -0.94745737f, -0.34852919f, 0.00568824f, -0.01142167f, -0.01056537f, -0.01495145f, 0.01874920f, -0.00139726f, 0.02055952f, -0.02786293f, 0.03439306f, -0.09676294f, -0.02024994f, 0.02807088f, 0.05362451f, -0.01625382f, -0.00150161f, -0.01918246f, -0.02474066f, -0.03990923f, -0.00318299f, -0.00337659f, 0.28199774f, 0.02384816f, -0.43740678f, -0.36131504f, 0.01182198f, 0.02591924f, -0.20517193f, 0.01983600f, 0.01820284f, 0.02019090f, -0.15758483f, 0.01808742f, 0.00619443f, -0.00517671f, 0.01975490f, -0.02496627f, -0.02831024f, -0.01691052f, 0.02267983f, -0.00109326f, 1.25708270f, -0.00970129f, 0.01288426f, -0.02120738f,
    /* [43] */ 0.02592002f, -0.00456989f, -0.06748123f, 0.01206777f, 0.01923335f, -0.00419429f, 0.00571338f, -0.11985749f, -0.02838471f, 0.04238196f, 0.00375639f, -0.02361873f, -0.02859546f, 0.00371791f, -0.01336985f, -0.04999256f, 0.05154194f, 0.01440541f, 0.05208154f, -0.02563270f, -0.01739192f, 0.00267602f, 0.03991318f, 0.01920641f, -0.03015538f, 0.00502228f, -0.06762066f, 0.03475177f, -0.02340263f, 0.00532619f, -0.04559964f, 0.00546320f, 0.03465495f, -0.04792179f, 0.01772202f, 0.03509837f, -0.01472311f, -0.05213154f, 0.04141648f, 0.01789880f, -0.05041540f, 0.01094612f, 0.02414902f, 0.02809115f, -0.03849989f, 0.02421091f, -0.04354801f, -0.00890284f, -0.06922392f, 0.04251692f, 0.03126605f, -0.01525547f, -0.00365509f, 0.00465178f, 0.03827381f, 0.05115575f, 0.03802641f, 0.03390959f, -0.01206256f, -0.01364486f, -0.02363798f, 0.00476504f, 0.02785116f, 0.00941942f, 0.01446325f, -0.01216409f, 0.02284875f, 0.02927395f, -0.04533949f, -0.05969656f, -0.02027169f, -0.00736401f, -0.05338993f, -0.03214091f, 0.01385042f, 0.03798388f, 0.03194327f, 0.00804085f, 0.00985336f, 0.00560070f, -0.00394250f, -0.01310686f, 0.02601552f, 0.05299620f, 0.04444691f, 0.00481667f, 0.04815805f, 0.01019810f, 0.02437094f, -0.01166197f, 0.04358420f, -0.05357635f, 0.02034662f, -0.04578315f, 0.01579359f, -0.03587116f, 0.00073830f, 0.01871028f, 0.05674415f, -0.01147691f, -0.03558499f, 0.01279599f, -0.01088353f, 0.00036374f, -0.02187089f, 0.01312408f, 0.07510794f, 0.00128054f, -0.04475442f, 0.00055807f, -0.02814039f, 0.01224995f, -0.05356366f, -0.03566521f, 0.03606543f, 0.04229440f, -0.06373288f, -0.03400154f, 0.00730397f, -0.03086331f, -0.02470808f, -0.00755667f, -0.05995804f, 0.03439495f, 0.00665276f, -0.00551799f, 0.01514906f, 0.05480137f,
    /* [44] */ -0.01189711f, 0.00191671f, 0.08722428f, 0.00326730f, -0.00384096f, -0.03448511f, -0.05834284f, 0.04665047f, 0.02022611f, 0.00550237f, 0.05169734f, -0.03999824f, 0.00890768f, 0.01204029f, -0.01139599f, -0.00700211f, -0.03146162f, 0.01195725f, 0.00049435f, 0.01885908f, -0.03578943f, -0.02845743f, -0.00183019f, -0.01891295f, 0.02184717f, 0.03866584f, 0.03439531f, 0.02700166f, 0.06577854f, -0.08532245f, -0.06432859f, 0.04043803f, -0.01458213f, 0.03685045f, -0.01941096f, 0.02419043f, 0.08696624f, 0.01917851f, -0.05057192f, 0.04136873f, 0.00043391f, -0.00174590f, -0.00111992f, -0.02031360f, -0.00870960f, 0.03555002f, -0.01011482f, -0.01342020f, 0.03995978f, -0.02902926f, -0.01774033f, -0.01911440f, -0.01738775f, -0.01617357f, -0.01426161f, 0.01947933f, -0.03835114f, -0.06599286f, 0.01508952f, 0.05280657f, 0.01524181f, 0.05654730f, 0.01873085f, -0.01476859f, -0.03404108f, -0.01344611f, 0.00584862f, -0.05734101f, -0.04000891f, -0.00246360f, 0.04422079f, 0.04850509f, 0.01258576f, -0.02220506f, -0.08973887f, -0.02751111f, 0.01736894f, 0.01698132f, 0.05372176f, -0.02629605f, -0.01211107f, 0.00119446f, -0.15884076f, 0.08209845f, -0.03184564f, 0.01061126f, -0.01463860f, -0.00325452f, 0.02971318f, 0.02888522f, -0.00342443f, 0.01982758f, 0.00698304f, 0.00569656f, 0.01357480f, -0.03036692f, -0.03522559f, -0.05418216f, -0.03023622f, 0.00009648f, 0.01683919f, -0.10467458f, 0.09178512f, -0.03370743f, 0.01745372f, -0.01232381f, 0.05526125f, -0.09084424f, -0.00515540f, 0.00273506f, 0.05498657f, -0.01545751f, -0.04594516f, -0.05256653f, 0.03280222f, -0.03611270f, -0.01245208f, -0.04371091f, 0.00387521f, -0.01904286f, 0.04336123f, -0.00303127f, 0.05607986f, 0.03977279f, -0.04120654f, -0.01758703f, 0.05315016f, -0.01415542f,
    /* [45] */ -0.04493525f, 0.01645543f, 0.01248591f, 0.01893354f, 0.00081494f, 0.00957836f, 0.03426002f, -0.09282671f, -0.03040991f, 0.01766394f, -0.05648886f, 0.05710492f, 0.03987333f, 0.02543924f, -0.00066142f, 0.00866028f, 0.04601851f, -0.02936261f, -0.02308274f, 0.04162829f, 0.04897994f, -0.02920704f, -0.01948822f, 0.00470707f, -0.00257400f, 0.03019273f, 0.01242999f, 0.03067263f, 0.00606997f, -0.02096869f, -0.01877001f, 0.01136499f, -0.04588759f, -0.04225339f, -0.03383734f, -0.04225295f, -0.01636163f, -0.03313270f, -0.00513060f, 0.03333284f, -0.04171200f, 0.00890886f, -0.01687189f, 0.07220639f, -0.01259542f, -0.00980986f, 0.03116317f, -0.02472126f, -0.00112383f, -0.07206766f, -0.01768589f, -0.05272891f, -0.04171170f, 0.02247555f, 0.02620272f, -0.02768946f, -0.00014114f, -0.05645107f, 0.04513578f, 0.00937129f, 0.01521411f, -0.03317022f, 0.01933367f, 0.01300425f, 0.02141957f, -0.01824851f, -0.00989526f, 0.04260265f, 0.03382897f, 0.06358307f, 0.02926396f, -0.04324203f, 0.03854353f, 0.02688757f, -0.05699368f, 0.02391790f, 0.01518775f, -0.04639753f, -0.01121066f, 0.01447040f, 0.04128308f, 0.02401301f, 0.01863590f, 0.01448632f, -0.02854730f, 0.03073165f, -0.01236165f, 0.05741514f, -0.01426748f, -0.02854071f, -0.01158404f, 0.02997464f, -0.01019689f, 0.02551986f, 0.02375609f, 0.04640725f, -0.00429109f, -0.03009946f, -0.04607609f, -0.02778639f, -0.00026141f, -0.02415378f, -0.00051825f, -0.02797867f, 0.03004734f, -0.04309924f, 0.02812880f, -0.05059377f, 0.04302249f, -0.02930796f, 0.04967649f, 0.02144580f, -0.01189740f, -0.03263446f, 0.00236941f, 0.02249098f, 0.02030559f, -0.01221225f, 0.02130786f, 0.01440132f, -0.00432916f, -0.00716535f, 0.05455689f, -0.03299228f, -0.00158676f, 0.00106447f, -0.02404345f, 0.03703943f,
    /* [46] */ 0.00506647f, 0.03017402f, 0.09294696f, -0.01995410f, 0.02783105f, -0.06364962f, -0.02472433f, -0.01295762f, 0.02121319f, 0.03007176f, 0.02557943f, 0.05187642f, -0.04105647f, -0.00817453f, 0.00051399f, 0.03084196f, -0.06875309f, 0.04239969f, -0.02265425f, 0.07402611f, 0.02007059f, -0.00070053f, 0.09052475f, 0.02920896f, 0.04538685f, -0.00008447f, 0.09759157f, -0.00492609f, 0.03267778f, 0.00108829f, -0.01298493f, -0.04335613f, -0.09952052f, 0.00774965f, -0.07221683f, 0.07713653f, -0.01245140f, 0.07692115f, 0.02699251f, -0.05327208f, 0.04004864f, -0.00013259f, 0.02495097f, -0.00689450f, 0.06773367f, 0.01230563f, 0.00441526f, -0.03636763f, -0.01880957f, 0.00801533f, -0.02311460f, 0.00528906f, 0.04572533f, 0.01440266f, -0.03713296f, 0.01443998f, 0.00805010f, 0.02101133f, 0.02009115f, 0.01849291f, 0.05263600f, 0.07359435f, 0.02069000f, -0.03623214f, 0.04366661f, 0.03034885f, -0.02749709f, -0.03953202f, 0.04150070f, 0.00824879f, 0.09313545f, 0.06552866f, -0.00257555f, 0.05806785f, -0.14521708f, -0.08055503f, -0.07466178f, 0.00719785f, -0.02813134f, -0.02688371f, -0.01565728f, 0.02151683f, -0.05885996f, -0.05743343f, 0.03853059f, -0.07464842f, 0.11802299f, 0.04297825f, -0.00080994f, 0.01250511f, 0.01675789f, -0.02583932f, -0.03310264f, -0.12297249f, 0.03994918f, 0.03011355f, -0.03579019f, -0.01725890f, 0.02676739f, -0.02307748f, -0.09455541f, -0.03324878f, -0.01631033f, 0.01224140f, 0.06645679f, 0.00101630f, 0.01233612f, 0.03398164f, -0.03658137f, 0.05254286f, -0.04702806f, 0.02024677f, 0.02716987f, -0.04473845f, 0.15815507f, -0.05066781f, 0.08071573f, -0.00164296f, 0.01060421f, -0.01765382f, -0.04627454f, -0.05243383f, 0.05857798f, 0.00321946f, -0.08299097f, 0.02984358f, 0.03112681f, 0.00169309f,
    /* [47] */ 0.00661834f, -0.06166800f, 0.04188710f, 0.00667039f, -0.00458681f, 0.06654686f, 0.00902381f, 0.03058414f, -0.02777678f, -0.00913774f, -0.03279072f, 0.02459941f, 0.01296003f, 0.03466228f, -0.04931764f, 0.00512610f, -0.02988076f, 0.02325843f, -0.06044495f, -0.01352133f, 0.00320380f, 0.00816801f, -0.02367706f, -0.05650225f, 0.06705709f, 0.02895312f, -0.03274814f, 0.03995847f, -0.02709591f, -0.04328081f, 0.05953519f, -0.01354809f, 0.01078859f, -0.00627786f, -0.08765778f, -0.14826132f, -0.03102707f, 0.08720627f, 0.04682004f, -0.01927373f, -0.00291981f, -0.06522727f, -0.03613690f, 0.03348512f, 0.02935116f, 0.00501919f, 0.02664480f, -0.04586460f, -0.01222924f, 0.03487452f, -0.03047125f, -0.01718712f, 0.02259191f, -0.00664455f, -0.01407650f, 0.03794925f, 0.00512747f, -0.00360111f, 0.00834410f, 0.00298327f, -0.01822950f, 0.03083466f, -0.05972198f, 0.00591673f, 0.03697735f, -0.00499275f, -0.01308049f, 0.07732677f, -0.00207231f, -0.01538634f, 0.01445401f, 0.02361483f, -0.05273646f, -0.07683211f, -0.01395501f, -0.03450062f, -0.06326978f, -0.03839041f, -0.00695066f, -0.03696312f, 0.03065988f, 0.03354723f, 0.01757536f, 0.03588020f, -0.02435844f, 0.02468246f, -0.06550306f, -0.03966294f, -0.05100696f, 0.00691515f, -0.06437131f, 0.03747812f, -0.03161756f, 0.04115982f, -0.01863956f, -0.00865139f, 0.02735149f, 0.03076776f, -0.02892677f, -0.00548988f, -0.06411483f, -0.06958045f, 0.01944334f, -0.02165495f, 0.02770919f, -0.01933878f, -0.05001590f, -0.04137759f, 0.08846068f, -0.03962669f, 0.02494611f, 0.07386890f, -0.01769790f, -0.02634536f, 0.01354978f, -0.04066178f, -0.00177646f, 0.00716256f, 0.05853982f, 0.00734315f, -0.00270337f, -0.01229592f, -0.05998860f, 0.05819998f, 0.06063185f, 0.06500019f, -0.04735473f, 0.05551526f,
    /* [48] */ 0.05653811f, -0.04525248f, -0.03254098f, -0.06490161f, 0.01039134f, -0.04969874f, 0.00485633f, -0.11821482f, -0.00850072f, 0.05291842f, -0.02279044f, 0.04428841f, -0.05013730f, -0.03709225f, -0.00848385f, 0.02568392f, 0.06483336f, 0.03583081f, -0.03345650f, 0.08488129f, -0.01130603f, -0.03585878f, -0.03826773f, 0.02948413f, 0.00204880f, -0.04963884f, 0.00372445f, 0.05397297f, 0.06831899f, -0.03154583f, -0.02499752f, 0.01448210f, 0.01046035f, 0.01318940f, 0.00524544f, -0.09991638f, -0.02712901f, -0.03873795f, -0.04357062f, 0.03206240f, -0.09518360f, 0.07311203f, -0.01272121f, 0.01003474f, 0.03599710f, -0.01855338f, 0.00754361f, 0.07483271f, -0.00402905f, -0.05432136f, -0.00972110f, 0.00665748f, 0.02474219f, -0.05378252f, 0.01146769f, -0.00661912f, -0.04101833f, -0.06276581f, 0.01548365f, -0.00940318f, 0.00050355f, -0.05470108f, 0.04180243f, -0.01011239f, -0.01528527f, -0.09656228f, 0.08646590f, 0.03877505f, -0.02612160f, 0.02099358f, -0.03265292f, 0.04299829f, -0.04794478f, 0.04479733f, -0.05126859f, -0.01377816f, -0.03598105f, 0.01503182f, 0.01058536f, -0.04342696f, -0.06025263f, 0.08685207f, 0.12528503f, -0.04358027f, -0.01004137f, 0.03420995f, -0.02687970f, -0.04789169f, 0.02737113f, 0.04054045f, 0.03573896f, -0.02180144f, 0.10575658f, 0.02604041f, 0.04702308f, -0.04682652f, -0.01200118f, -0.01628301f, 0.01213713f, 0.00265752f, 0.07904029f, -0.04834649f, -0.04319223f, 0.05419613f, 0.07841286f, -0.07174814f, -0.07218048f, 0.02345191f, 0.04940388f, 0.06600146f, 0.02518883f, 0.03398385f, 0.03776538f, -0.02459959f, -0.02070252f, -0.03530194f, -0.07852297f, -0.04002155f, -0.02465860f, 0.01211347f, -0.02298075f, 0.03052006f, -0.03252992f, 0.06458449f, -0.11082470f, -0.01399184f, -0.00335347f, 0.04446317f,
    /* [49] */ 0.07212624f, -0.04195167f, 0.04459433f, 0.00464296f, 0.05833603f, 0.03613132f, 0.04114743f, -0.03104428f, 0.04940373f, -0.02591834f, 0.01320148f, 0.03995913f, -0.00356063f, 0.04474339f, -0.03596852f, -0.05606834f, 0.03748542f, 0.00730453f, -0.01128151f, 0.03540288f, 0.04329638f, -0.08339697f, -0.00733837f, 0.05319790f, -0.01608760f, -0.00144807f, -0.03766680f, 0.04313912f, -0.07263651f, 0.00214523f, 0.10782483f, -0.01120842f, 0.02964050f, -0.06907753f, 0.07190634f, -0.02506903f, 0.01551093f, 0.03453122f, 0.02324082f, -0.02779977f, 0.00645489f, -0.03509437f, -0.01324183f, 0.02081306f, 0.06055006f, -0.02067451f, 0.00301550f, 0.01216502f, 0.03251677f, 0.05805072f, -0.01646359f, -0.02993308f, 0.01723113f, 0.01930706f, -0.04254551f, -0.02042640f, 0.04140258f, -0.00526786f, 0.08108063f, -0.00434109f, 0.00310803f, -0.02816864f, 0.01934717f, 0.00018338f, -0.03342151f, -0.00423674f, 0.02488862f, 0.04165465f, -0.00479811f, 0.01641718f, 0.11536627f, 0.04936981f, 0.02748287f, -0.01156893f, -0.04242173f, 0.02122072f, 0.02580369f, 0.04570613f, 0.06174145f, 0.03044559f, 0.01247285f, -0.00408598f, -0.08209883f, -0.04320463f, -0.05281816f, -0.01473087f, 0.01856591f, 0.01311997f, 0.00869661f, 0.01103280f, -0.00454981f, 0.00740022f, 0.07910845f, 0.00082209f, -0.03494203f, -0.00200016f, -0.04073599f, -0.01235623f, -0.03632153f, -0.03554045f, -0.05314792f, -0.02000618f, 0.05518525f, -0.03161684f, 0.04561448f, 0.02523251f, -0.03006996f, 0.00544043f, 0.05386013f, -0.04270317f, 0.06525872f, 0.02261464f, -0.04040736f, -0.00172339f, -0.03456191f, -0.06437454f, 0.00198353f, -0.05847459f, 0.03416098f, 0.01328586f, -0.01745723f, -0.03367413f, 0.00414261f, 0.01274352f, -0.13890205f, -0.00997975f, 0.06160625f, 0.06708927f,
    /* [50] */ -0.00988950f, 0.07207572f, -0.02696496f, -0.02637144f, 0.04104755f, -0.03496247f, -0.04179570f, 0.10880695f, -0.02964842f, -0.04220191f, -0.01135772f, 0.00542001f, 0.02390442f, 0.00991014f, 0.01117984f, -0.03164415f, -0.02230228f, -0.03303521f, 0.06639757f, -0.02661582f, 0.04950061f, 0.03130300f, 0.01659638f, -0.09083053f, 0.02691625f, 0.02209949f, 0.02080310f, 0.03011808f, 0.04700107f, 0.00274320f, 0.06731245f, -0.00566068f, -0.02120616f, -0.04125297f, 0.04708735f, -0.00229394f, -0.02906041f, -0.00789323f, 0.00503375f, -0.06280660f, 0.03659474f, 0.04743215f, -0.03869050f, -0.02321457f, -0.00618483f, -0.03894679f, 0.04754612f, -0.04721457f, -0.03979152f, 0.05171724f, 0.02926162f, -0.04919093f, -0.00171402f, 0.00193990f, 0.03009588f, -0.01156053f, -0.09420135f, -0.00872535f, -0.00234577f, -0.00749940f, 0.01870524f, 0.05392636f, 0.05680300f, -0.01597124f, 0.00467642f, -0.04747355f, 0.04613286f, 0.06399126f, 0.07296418f, -0.05504652f, 0.08658990f, 0.03046524f, -0.03629600f, 0.00714673f, -0.05938229f, 0.01805106f, 0.02476224f, 0.06152002f, 0.07993004f, 0.01457021f, -0.04003273f, 0.06682454f, 0.07540559f, -0.04753467f, -0.06826795f, 0.01477548f, 0.03180084f, -0.09652327f, -0.04260916f, 0.03221706f, 0.04910679f, -0.02806037f, 0.03218520f, -0.09135771f, 0.02678933f, -0.05224013f, 0.08829339f, -0.06180724f, 0.00015700f, 0.01899723f, -0.06584773f, 0.02497279f, -0.05087250f, -0.04398534f, -0.00326413f, 0.05709398f, -0.01183973f, -0.00157966f, -0.01190279f, -0.02533777f, -0.06579532f, -0.02016512f, 0.06612151f, 0.03027534f, -0.00125239f, 0.04646512f, 0.01196096f, -0.04746227f, -0.00021840f, -0.02298481f, 0.03228777f, -0.03788823f, 0.00347945f, 0.06461402f, 0.05782469f, -0.03835062f, -0.00072222f, -0.01219538f,
    /* [51] */ -0.00658592f, 0.00612914f, 0.01516648f, -0.02342045f, -0.01566139f, -0.01826416f, 0.02682435f, -0.06596027f, -0.01713231f, -0.00769748f, 0.00571375f, 0.04014571f, 0.02449687f, 0.08756772f, 0.06779294f, 0.03346169f, 0.06734981f, -0.11521825f, 0.03879102f, -0.00204054f, 0.11442973f, -0.02973730f, -0.06436275f, 0.03287126f, -0.02490030f, 0.03237855f, -0.03317634f, -0.08541185f, 0.07586084f, -0.08908627f, 0.03265482f, 0.00605332f, -0.04268565f, -0.00536492f, 0.07306676f, -0.03616468f, 0.02440664f, -0.09104202f, -0.01740317f, 0.00583769f, -0.05764515f, 0.03048681f, 0.04164340f, 0.05341847f, 0.04697347f, 0.05261909f, 0.01247110f, -0.04901578f, -0.00779062f, 0.00547061f, -0.02250708f, 0.02648086f, 0.03051285f, -0.06149178f, -0.02639805f, -0.01380504f, 0.12667401f, 0.00035001f, 0.06159117f, 0.09817563f, -0.07908950f, 0.01662707f, 0.04963972f, 0.05200013f, -0.17592192f, -0.00141829f, 0.01499947f, 0.02380850f, 0.05482656f, -0.02161791f, -0.02261320f, -0.06605811f, -0.03455555f, -0.06033726f, -0.05920322f, 0.01883816f, 0.04077554f, 0.05103209f, -0.00774579f, -0.06179842f, -0.00307962f, -0.00882174f, 0.02452847f, -0.03110184f, 0.01557673f, 0.05311799f, 0.02717040f, -0.03966050f, -0.00359259f, 0.00201843f, 0.00981488f, -0.05776054f, -0.03526474f, 0.01295758f, 0.00395537f, -0.08713511f, -0.01210391f, -0.03922135f, -0.03530967f, 0.01636114f, -0.03635282f, 0.03767155f, -0.04895620f, -0.03109715f, 0.01263769f, 0.10943589f, 0.09251212f, -0.15317696f, 0.00580138f, -0.11854894f, -0.01248828f, -0.10911573f, 0.11819708f, -0.01897298f, 0.04369910f, 0.06155651f, -0.00890941f, -0.03433153f, 0.00637348f, 0.05616603f, 0.07466076f, 0.03550935f, 0.01324208f, 0.04703701f, 0.00978806f, 0.00460896f, 0.06670367f, -0.00155376f,
