#include "policy.h"
#include <math.h>

/* ---- 重み配列 ---- */

/* layer0 weight: [128][3] (row-major) */
static const float W0[384] = {
    /* [0] */ -0.01904613f, 0.02930119f, -0.00921024f,
    /* [1] */ 0.02154617f, -0.02107140f, 0.00643702f,
    /* [2] */ 0.53201222f, 2.11230755f, -0.41934076f,
    /* [3] */ -2.49343181f, -2.00174284f, 0.11818861f,
    /* [4] */ -1.78212905f, -1.77013409f, 0.27472878f,
    /* [5] */ 0.02890873f, 0.01963525f, 0.00078780f,
    /* [6] */ -2.52228689f, -1.84843028f, 0.09649620f,
    /* [7] */ -0.01057370f, -0.03807236f, 0.00875199f,
    /* [8] */ 0.02170190f, -0.04194301f, 0.00164655f,
    /* [9] */ -0.00029242f, 0.01619495f, -0.01102760f,
    /* [10] */ 0.03890751f, -0.00629045f, 0.00165696f,
    /* [11] */ 0.01346224f, 0.03012016f, -0.01328535f,
    /* [12] */ -1.47160923f, -1.48962522f, 0.06303097f,
    /* [13] */ -2.23860955f, -1.09242499f, 0.07210123f,
    /* [14] */ 0.61302674f, -0.37070701f, 0.03634902f,
    /* [15] */ 0.06276051f, 0.00415644f, -0.00342628f,
    /* [16] */ 0.05800486f, 0.01179598f, -0.00047262f,
    /* [17] */ 0.03702738f, 0.02607312f, -0.01425768f,
    /* [18] */ -0.02384627f, -0.00164096f, 0.01084469f,
    /* [19] */ 0.04060647f, -0.03977894f, -0.00592802f,
    /* [20] */ -0.02362279f, -0.02581004f, 0.00408969f,
    /* [21] */ 0.01535307f, -0.02406482f, 0.00341294f,
    /* [22] */ 0.98169154f, 1.53735352f, -0.08281716f,
    /* [23] */ 0.01317232f, -0.00216140f, 0.00165676f,
    /* [24] */ -0.07640319f, 0.00610515f, 0.00035505f,
    /* [25] */ 0.02369083f, 0.01466735f, 0.00639966f,
    /* [26] */ -2.17475986f, -1.71463001f, 0.10036314f,
    /* [27] */ 0.03284070f, -0.03637859f, -0.00177684f,
    /* [28] */ 0.02240695f, -0.00737845f, -0.01083713f,
    /* [29] */ -1.18610489f, 0.97184986f, -0.06329031f,
    /* [30] */ 0.02419239f, -0.01325832f, 0.00287952f,
    /* [31] */ -0.06786304f, 0.00005312f, 0.00072333f,
    /* [32] */ -0.01125542f, -0.05791524f, 0.00938184f,
    /* [33] */ -0.04927760f, -0.01303378f, 0.01438659f,
    /* [34] */ 0.05351218f, -0.04065045f, 0.00967077f,
    /* [35] */ -1.56752682f, -1.58590901f, 0.08787857f,
    /* [36] */ 0.00618117f, 0.00867710f, 0.00403433f,
    /* [37] */ -0.01117999f, -0.02629416f, 0.00224092f,
    /* [38] */ -0.06473780f, -0.02793325f, 0.01009648f,
    /* [39] */ -0.03438986f, 0.03642423f, -0.00247874f,
    /* [40] */ -0.02853697f, -0.01370956f, -0.00304501f,
    /* [41] */ 1.33934891f, 1.83700800f, -0.84366536f,
    /* [42] */ 1.29490113f, -0.87835801f, 0.05760377f,
    /* [43] */ 0.02176054f, 0.01669942f, -0.00664467f,
    /* [44] */ -0.04353090f, -0.00402204f, -0.00110942f,
    /* [45] */ -0.03273607f, -0.04720843f, 0.00818803f,
    /* [46] */ -0.01152681f, -0.04271701f, 0.00973531f,
    /* [47] */ -0.00597663f, -0.02107081f, 0.01230878f,
    /* [48] */ 0.01303933f, -0.01497877f, -0.00490595f,
    /* [49] */ -1.74356043f, -1.44986451f, 0.08304729f,
    /* [50] */ -1.44349515f, 1.30834711f, -0.06599332f,
    /* [51] */ -0.02491073f, 0.02016574f, 0.00256682f,
    /* [52] */ -0.08133130f, -0.02081092f, 0.01115936f,
    /* [53] */ 0.06150769f, -0.04859543f, 0.00418030f,
    /* [54] */ -0.02385504f, 0.01570101f, 0.00093824f,
    /* [55] */ -1.18904793f, -0.92805934f, 0.05675870f,
    /* [56] */ -0.04736711f, 0.00443993f, -0.00006911f,
    /* [57] */ 1.56230402f, 1.97354817f, -0.09148651f,
    /* [58] */ 0.03354952f, -0.03478641f, 0.00599878f,
    /* [59] */ -0.02318194f, 0.02212511f, 0.00625091f,
    /* [60] */ -0.01248992f, -0.01550761f, -0.00051831f,
    /* [61] */ 0.00335950f, -0.01543105f, -0.00539870f,
    /* [62] */ 0.01618728f, 0.00737308f, 0.00224145f,
    /* [63] */ -0.01761146f, -0.00668412f, 0.01049734f,
    /* [64] */ 0.05672910f, -0.04354897f, -0.00585609f,
    /* [65] */ -0.04791979f, 0.04016192f, -0.00689430f,
    /* [66] */ 0.04792852f, -0.00583326f, -0.00604135f,
    /* [67] */ 0.01287183f, 0.01479403f, -0.00300801f,
    /* [68] */ -0.03366436f, 0.00722937f, -0.00083410f,
    /* [69] */ 0.02822823f, -0.01879724f, -0.00705553f,
    /* [70] */ -0.01835362f, 0.00628928f, 0.00426404f,
    /* [71] */ 0.01932197f, -0.01992552f, -0.00114476f,
    /* [72] */ -0.02942064f, -0.01579802f, 0.00238677f,
    /* [73] */ 0.04240346f, -0.02362816f, -0.00048658f,
    /* [74] */ 0.05045000f, -0.05418766f, -0.00413543f,
    /* [75] */ -0.00378261f, -0.00811108f, 0.00208607f,
    /* [76] */ 0.03012575f, 0.02140800f, -0.00354243f,
    /* [77] */ -0.05963932f, -0.01886292f, -0.00225254f,
    /* [78] */ 0.08216636f, 0.00471317f, 0.00249023f,
    /* [79] */ -0.04705302f, -0.02472286f, 0.01036547f,
    /* [80] */ -0.05665980f, 0.00081825f, 0.00429834f,
    /* [81] */ -0.02244033f, 0.01631127f, 0.00114156f,
    /* [82] */ 0.03627762f, -0.04893992f, 0.00698772f,
    /* [83] */ 0.06538489f, -0.02810179f, -0.00156598f,
    /* [84] */ 0.00295396f, -0.02976429f, -0.00318875f,
    /* [85] */ 0.04517251f, 0.05048397f, -0.01076782f,
    /* [86] */ -0.01449732f, 0.00022579f, -0.00109221f,
    /* [87] */ 0.00381438f, -0.01082307f, 0.00393189f,
    /* [88] */ 0.00954258f, 0.01040865f, 0.00120698f,
    /* [89] */ 0.03412867f, 0.01314940f, -0.01458300f,
    /* [90] */ -0.10349596f, 0.04895730f, -0.02456274f,
    /* [91] */ -1.22889960f, -0.88916945f, 0.05764689f,
    /* [92] */ -1.89603865f, -1.89621222f, 0.15982240f,
    /* [93] */ 0.01891398f, 0.00164214f, 0.00176165f,
    /* [94] */ -0.32699689f, -0.16652097f, 0.01365643f,
    /* [95] */ 0.00478726f, 0.02335615f, -0.00747994f,
    /* [96] */ -0.04834139f, -0.01704427f, 0.00793739f,
    /* [97] */ -0.02969244f, 0.01607691f, -0.00501616f,
    /* [98] */ -0.02028738f, -0.04374650f, 0.00316052f,
    /* [99] */ 0.03039369f, -0.01926634f, -0.00372835f,
    /* [100] */ -0.03600376f, -0.01438608f, 0.01056815f,
    /* [101] */ -0.02316742f, -0.02902168f, -0.00137692f,
    /* [102] */ 0.01473813f, -0.01021974f, -0.00318494f,
    /* [103] */ -1.12671304f, -1.09218967f, 0.40502083f,
    /* [104] */ -0.05686528f, 0.03190050f, 0.00416685f,
    /* [105] */ 0.07252116f, -0.02083193f, -0.00296032f,
    /* [106] */ -0.01604651f, -0.03687411f, 0.00063915f,
    /* [107] */ -0.05042367f, 0.00420968f, -0.00473618f,
    /* [108] */ 0.06162409f, -0.02105130f, 0.00067889f,
    /* [109] */ -2.08400607f, -1.19118524f, 0.07505517f,
    /* [110] */ 0.03943947f, -0.03676536f, 0.01196708f,
    /* [111] */ 0.03010358f, -0.02770760f, 0.00744726f,
    /* [112] */ 0.01072537f, -0.02076893f, 0.00385700f,
    /* [113] */ 0.03016421f, -0.00903891f, -0.00180049f,
    /* [114] */ 0.02254749f, 0.00612494f, -0.00744239f,
    /* [115] */ 2.36475205f, -0.55729514f, 0.00562507f,
    /* [116] */ -0.58866006f, -1.50509644f, 0.26688713f,
    /* [117] */ -0.03738936f, -0.01302679f, 0.00088413f,
    /* [118] */ 0.04012115f, 0.00021787f, 0.00102846f,
    /* [119] */ -0.64438051f, -1.80914307f, 0.03133392f,
    /* [120] */ -1.01917541f, 1.04594004f, -0.06266673f,
    /* [121] */ -2.28881645f, -1.35270464f, 0.08143314f,
    /* [122] */ -0.06169535f, -0.00776673f, 0.00134494f,
    /* [123] */ -0.09217101f, 0.06568347f, -0.00063261f,
    /* [124] */ 0.07645500f, 0.01513926f, -0.00100332f,
    /* [125] */ 0.04016854f, 0.00517795f, -0.00443223f,
    /* [126] */ -0.03823564f, 0.00370064f, -0.00495326f,
    /* [127] */ -1.34581780f, -1.65486884f, 0.06411778f
};

/* layer0 bias: [128] */
static const float b0[128] = {
    0.00234485f, -0.00251243f, 0.03502647f, 0.03679528f, -0.29643732f, -0.00187448f, 0.04483149f, 0.00007246f, 0.00037868f, 0.00101370f, -0.00311627f, 0.00115220f, 0.05482303f, 0.07526435f, -0.02658745f, -0.00173899f, -0.00541088f, 0.00026046f, 0.00263162f, -0.00010274f, 0.00009104f, -0.00221868f, -0.04942660f, -0.00011105f, 0.00507635f, -0.00320743f, -0.01526401f, -0.00087863f, -0.00051694f, 0.04307821f, 0.00012219f, -0.00481522f, 0.00186940f, -0.00023442f, -0.00708765f, 0.03626945f, -0.00112703f, -0.00197437f, 0.00128799f, 0.00283749f, 0.00135906f, 0.00716547f, -0.05750218f, -0.00083605f, 0.00278758f, 0.00189503f, -0.00110318f, 0.00028457f, -0.00337660f, 0.04429504f, 0.04560208f, 0.00045831f, 0.00214306f, -0.00277321f, 0.00180713f, 0.04390433f, 0.00181546f, -0.05631145f, -0.00702436f, 0.00345526f, -0.00147535f, -0.00031985f, 0.00032850f, 0.00129211f, -0.00269888f, 0.00470368f, -0.00380183f, -0.00204778f, 0.00048255f, 0.00079542f, 0.00036727f, -0.00152290f, -0.00072800f, -0.00360964f, -0.00122861f, -0.00288038f, -0.00293741f, 0.00215075f, -0.00290844f, 0.00113242f, 0.00108156f, 0.00258528f, -0.00405702f, -0.00301962f, 0.00047031f, -0.00347661f, -0.00561784f, 0.00114889f, -0.00112684f, 0.00154485f, 0.01583431f, 0.04017440f, -0.11019827f, -0.00221051f, 0.01391955f, -0.00074170f, 0.00240891f, 0.00227616f, 0.00155841f, -0.00191944f, -0.00259789f, 0.00253306f, -0.00620358f, -0.32587245f, 0.00199823f, -0.00442080f, 0.00054183f, 0.00413548f, -0.00333891f, 0.07157257f, -0.00452772f, -0.00385278f, -0.00349057f, -0.00183290f, -0.00198768f, -0.10624924f, -0.20541401f, 0.00329665f, -0.00097380f, 0.03580369f, 0.03974334f, 0.06732164f, 0.00140567f, 0.00395032f, -0.00369244f, -0.00283519f, -0.00220191f, 0.05304763f
};

/* layer1 weight: [128][128] (row-major) */
static const float W1[16384] = {
    /* [0] */ 0.09701376f, -0.03669943f, -0.04846654f, 0.01519552f, 0.01004949f, -0.04678825f, -0.03839901f, 0.01099325f, -0.01685398f, -0.04712487f, -0.08683378f, 0.07391879f, 0.03532964f, 0.05727565f, 0.01967308f, -0.05878905f, 0.02496112f, 0.02224690f, -0.11447821f, -0.02779905f, -0.01493486f, -0.05118174f, -0.04304468f, -0.00380004f, -0.00014690f, -0.00886923f, -0.03727495f, 0.02946128f, 0.02821620f, -0.03420510f, 0.02781046f, 0.02422316f, 0.03462207f, -0.00392449f, -0.02445028f, -0.05286765f, 0.04368404f, -0.01815550f, -0.03557064f, 0.00660289f, 0.04954065f, -0.00128496f, 0.04314246f, -0.06366609f, 0.04945641f, 0.04315008f, 0.03477938f, -0.04481876f, 0.00876576f, -0.00543085f, 0.00685791f, 0.00722945f, 0.03568624f, -0.02683775f, 0.03103744f, -0.02830609f, -0.05109588f, 0.02947656f, -0.02872465f, -0.02367921f, 0.00898966f, 0.10252198f, -0.02405474f, -0.01834415f, -0.02362106f, 0.01513543f, 0.02981571f, 0.00064683f, -0.03270214f, -0.03982813f, -0.04600630f, 0.06304240f, 0.00764734f, -0.03554858f, -0.00113909f, -0.06764691f, 0.07846406f, 0.04874420f, -0.05794932f, -0.05078729f, -0.01939465f, -0.02626922f, 0.01375099f, 0.04769499f, -0.02327894f, -0.00912569f, 0.05159041f, 0.05343793f, 0.01367154f, 0.00368921f, -0.04299429f, -0.03327369f, -0.03338750f, 0.05291219f, -0.00325098f, 0.03336372f, 0.01581648f, 0.00019243f, 0.00154019f, 0.01799351f, -0.07577339f, -0.10742369f, 0.05488019f, -0.06536090f, 0.00626473f, -0.00613405f, -0.02337441f, -0.04471436f, -0.03593758f, -0.05750721f, -0.02289104f, -0.04631408f, 0.02502245f, 0.03281343f, -0.00387417f, 0.02494306f, 0.05117903f, -0.06082860f, 0.04174965f, 0.04712011f, -0.00699863f, -0.02173350f, 0.01843479f, 0.05880567f, -0.00579759f, -0.01821077f, 0.03443687f, 0.00413205f,
    /* [1] */ 0.00672140f, 0.06355522f, 0.04294849f, 0.08899257f, -0.02847536f, 0.02233471f, 0.17310722f, 0.03333472f, -0.00027592f, 0.08184022f, -0.01862444f, -0.05916560f, -0.01458676f, 0.15273961f, -0.27596146f, -0.05540391f, -0.04777555f, -0.07000586f, 0.00882553f, 0.03634882f, 0.06495323f, -0.03990299f, -0.05368428f, -0.06441086f, 0.06806856f, 0.00897585f, 0.03675905f, 0.02048519f, 0.00080995f, -0.06464412f, 0.00186240f, 0.01689820f, -0.04633502f, 0.03422255f, -0.08435713f, -0.03716207f, 0.05578451f, 0.00871054f, 0.05406319f, 0.00160851f, 0.08384272f, 0.01761864f, 0.07497499f, -0.01947187f, 0.02264406f, 0.00095148f, 0.06813195f, 0.03105987f, 0.03110897f, -0.05194458f, -0.28045619f, 0.07269350f, 0.06321704f, -0.01111960f, -0.01460475f, 0.07633120f, -0.01655264f, 0.14215548f, -0.05087176f, -0.00498576f, -0.01231100f, 0.04332216f, -0.01794972f, -0.03988846f, -0.01031166f, 0.01591316f, -0.05898316f, -0.06577649f, 0.01461909f, 0.00161974f, -0.03062822f, 0.04503777f, -0.02944263f, 0.03774033f, -0.02275703f, 0.00549690f, -0.00926328f, 0.00818234f, 0.03573656f, 0.06665272f, 0.05133798f, -0.06845372f, -0.02824985f, 0.03468310f, 0.03211110f, 0.04990766f, 0.02792661f, 0.01711657f, -0.02004150f, -0.02108665f, 0.17058869f, -0.02081591f, -0.00794032f, -0.03674859f, 0.04434369f, -0.00289730f, 0.00068315f, -0.00286066f, 0.09597678f, 0.02322468f, 0.01400754f, 0.04774549f, -0.05782856f, 0.01190795f, 0.00964836f, -0.02332325f, 0.07826298f, 0.02440342f, -0.03801627f, 0.05002798f, -0.04323610f, -0.02980572f, 0.03262599f, 0.00839330f, 0.02034716f, -0.05846120f, -0.04871110f, 0.04551695f, -0.03187284f, -0.36324590f, -0.12078320f, 0.07597446f, 0.05431730f, 0.00100700f, -0.00565759f, 0.05428046f, -0.05856954f, -0.10824407f,
    /* [2] */ 0.04981358f, 0.05112640f, -0.01129445f, -0.05981822f, 0.00723315f, -0.03498761f, -0.05556833f, 0.02642132f, 0.09921365f, -0.01991280f, -0.05892941f, 0.02542839f, -0.05666914f, -0.02125749f, 0.00645918f, -0.08155315f, -0.03802743f, -0.02277439f, -0.01432021f, 0.03712933f, 0.05626234f, 0.01114132f, -0.05072181f, 0.05526855f, 0.00272834f, -0.01261716f, -0.09139808f, -0.01323434f, -0.07595062f, 0.05788689f, -0.03449660f, -0.07247358f, -0.01407126f, -0.09039965f, -0.06353569f, -0.00737055f, 0.02995638f, -0.03228377f, 0.03452090f, 0.02370952f, -0.02639163f, 0.00526421f, -0.02162662f, -0.01831190f, 0.00099206f, 0.03227120f, -0.06950688f, 0.03198727f, -0.00455191f, 0.01556759f, 0.04349804f, 0.04203322f, -0.01986746f, 0.00884387f, -0.04518833f, -0.01232149f, -0.00003812f, -0.08530844f, 0.04502961f, 0.05947891f, 0.02072543f, 0.00331022f, -0.04021393f, 0.02361810f, -0.02854321f, -0.01938508f, -0.08422411f, 0.06703193f, 0.00112326f, 0.07582287f, 0.03051534f, 0.04235766f, 0.03384477f, 0.00926946f, 0.07010809f, 0.02700218f, 0.01252384f, -0.04318254f, 0.05353802f, -0.05019405f, 0.03754751f, -0.00477381f, -0.03517522f, -0.07453052f, 0.05408889f, -0.04606638f, 0.00024418f, 0.01148634f, -0.11258120f, 0.05125114f, -0.06911539f, -0.09532867f, 0.07542945f, 0.07493773f, -0.00724255f, 0.00373386f, 0.07393898f, 0.05976552f, -0.01670483f, 0.04297848f, -0.09144373f, 0.00395393f, 0.04805776f, -0.00510877f, 0.04299228f, -0.00378402f, -0.05758598f, -0.02462534f, 0.03249910f, 0.00641872f, 0.00407084f, 0.03052289f, -0.01194192f, -0.02863269f, -0.05003298f, -0.00690907f, 0.03331811f, -0.03073654f, -0.01506194f, 0.10051011f, 0.09139899f, -0.01487755f, -0.06003033f, -0.09663025f, -0.02400466f, -0.09691349f, -0.05840482f, 0.04618849f,
    /* [3] */ -0.12236340f, 0.01888310f, 0.01158709f, 0.03254741f, 0.01878033f, -0.01229921f, -0.08451194f, -0.07424330f, -0.01991351f, 0.01971677f, -0.00192865f, 0.00467545f, -0.06414739f, 0.08203561f, 0.00616339f, 0.06060415f, 0.03663002f, 0.08246617f, 0.01675419f, -0.03113998f, 0.03652353f, 0.02981087f, -0.05787606f, -0.05298831f, 0.00452674f, -0.05956763f, 0.02216257f, 0.00294901f, 0.07248892f, -0.09045287f, -0.00426826f, 0.01784511f, -0.01680819f, -0.00149903f, 0.03570189f, -0.09268460f, -0.02006774f, -0.04994930f, -0.00355546f, 0.00388544f, 0.00963929f, -0.02283908f, 0.02329018f, -0.05722466f, -0.00661123f, -0.04468411f, 0.02295477f, -0.01606925f, -0.08187749f, 0.07705639f, -0.04500774f, -0.04442694f, 0.02737307f, 0.01910869f, 0.00464813f, 0.02607160f, 0.00220797f, -0.04795703f, 0.00084597f, -0.01319636f, -0.00522141f, -0.00620624f, -0.02816213f, 0.01526114f, 0.00771132f, 0.00523427f, 0.10903281f, 0.04718667f, 0.03437036f, 0.07384463f, -0.01157123f, 0.01923016f, 0.03408398f, 0.05723323f, 0.02940187f, 0.00194369f, -0.00663390f, 0.02589658f, 0.05429719f, -0.04968862f, -0.00478668f, -0.02104788f, -0.04480225f, 0.00411498f, 0.02635176f, 0.09071677f, 0.00166318f, -0.04896279f, -0.10221308f, 0.02292766f, -0.05892564f, -0.06774764f, -0.01720446f, 0.09932055f, -0.02344068f, 0.01916917f, -0.04765636f, 0.00331741f, -0.03012571f, 0.06496369f, -0.00755513f, 0.04558242f, -0.02552219f, 0.01992498f, -0.03621867f, 0.02177390f, -0.00752507f, -0.03830127f, -0.07182062f, -0.02801100f, 0.07548881f, -0.05662770f, -0.00132864f, -0.06288064f, 0.10267534f, -0.01273449f, -0.11755400f, 0.01081012f, -0.03845321f, -0.01526557f, -0.07159258f, -0.02118196f, -0.05064325f, -0.00386376f, 0.03580735f, -0.06105280f, -0.05584484f, 0.02414396f,
    /* [4] */ 0.00414592f, -0.00682073f, -0.07001019f, -0.05993126f, -0.04422704f, 0.01635147f, 0.01917996f, 0.05509746f, 0.00353001f, -0.05805634f, 0.07942451f, 0.00060987f, 0.00791372f, -0.05087357f, 0.08297401f, -0.02582224f, -0.00848198f, -0.00460744f, 0.10021978f, 0.07204363f, 0.03272268f, 0.07278511f, 0.02324237f, -0.00361942f, 0.03563001f, -0.06217674f, 0.06428498f, 0.02195188f, 0.04887424f, 0.02601872f, 0.02250636f, 0.06237157f, 0.04256142f, 0.05313672f, -0.00080914f, -0.02890676f, -0.04882412f, 0.04656929f, 0.07871840f, -0.06529357f, 0.01241539f, 0.04533482f, 0.11564582f, 0.04133726f, 0.08992844f, 0.05515072f, -0.00911361f, 0.03787377f, -0.01731578f, -0.03248828f, 0.06581921f, 0.00920041f, -0.00599117f, 0.04032089f, 0.04977735f, 0.01204182f, 0.01809067f, -0.16304354f, -0.09097285f, 0.00735699f, -0.01238638f, 0.06220280f, 0.00843990f, -0.04127600f, 0.00301724f, 0.01835849f, 0.03504182f, 0.05715831f, -0.02977483f, 0.05306987f, 0.03815819f, -0.04059918f, 0.02253596f, -0.03013770f, -0.01307490f, 0.01767624f, 0.06313904f, 0.03794590f, -0.04558018f, 0.06238773f, 0.07231946f, 0.09001482f, -0.00958004f, 0.00750755f, 0.03885449f, -0.05663851f, -0.01194011f, -0.03371051f, -0.04313019f, -0.01959690f, 0.05290670f, 0.00666629f, -0.03728135f, -0.02176460f, -0.02922501f, -0.04198074f, 0.01171658f, -0.02065516f, 0.00657787f, -0.04154334f, 0.04810828f, -0.02579370f, -0.05338491f, -0.00693066f, -0.00323151f, -0.08816797f, -0.01526533f, 0.00355279f, -0.03180139f, 0.01267450f, -0.02445561f, 0.05796980f, -0.00523270f, -0.02516352f, 0.00355530f, -0.09009335f, 0.07540547f, -0.01305622f, 0.02980797f, -0.00235902f, 0.08063997f, -0.04462693f, -0.03869251f, 0.11462476f, 0.02457867f, -0.01676050f, -0.00797756f, -0.01539787f,
    /* [5] */ -0.01417227f, -0.02878018f, -0.06107591f, 0.06479494f, -0.05656916f, 0.09388188f, 0.02088044f, -0.02303553f, -0.10255232f, -0.02871033f, 0.03163888f, 0.00369227f, 0.00855143f, -0.00355321f, -0.01019271f, 0.01467673f, 0.04485710f, 0.06025958f, -0.06685238f, 0.01122048f, -0.06989720f, -0.03187739f, -0.01721800f, -0.03579538f, -0.14842306f, -0.00490111f, 0.04931785f, -0.06385592f, -0.00419494f, 0.01190041f, 0.03904858f, 0.09476031f, -0.00222726f, -0.00372203f, 0.03636570f, 0.04164258f, -0.01611279f, 0.00463059f, 0.01182124f, 0.01162201f, 0.01434339f, 0.02975149f, 0.01795732f, -0.01625578f, -0.00715729f, 0.01638312f, -0.05492714f, 0.04698349f, -0.07357726f, 0.04164293f, 0.00770257f, -0.04188816f, 0.00329371f, 0.00613010f, 0.04127156f, -0.07714743f, -0.01962545f, 0.02313814f, 0.07807317f, 0.05641586f, -0.05935842f, 0.04607257f, 0.05302782f, 0.05968989f, -0.00707885f, -0.00762911f, 0.02851222f, -0.01214337f, -0.04829573f, -0.01459787f, -0.07458178f, -0.01122517f, -0.09422702f, -0.01089684f, -0.03245611f, -0.01066337f, 0.01587863f, -0.05766708f, -0.00758551f, -0.00899194f, -0.00390061f, -0.01661980f, -0.00086810f, -0.01885317f, -0.01924995f, -0.03484181f, -0.05658542f, 0.04319472f, 0.04647713f, -0.01187095f, -0.06124245f, -0.01277912f, -0.05337040f, 0.05174448f, 0.10438490f, -0.02586172f, 0.05136776f, -0.00199930f, 0.02647937f, 0.00888818f, 0.00960046f, 0.07119393f, 0.05827860f, 0.01717157f, 0.02865855f, -0.02640070f, -0.02950137f, -0.01968326f, 0.07541500f, 0.04661452f, 0.00688796f, -0.01239040f, 0.03282842f, 0.00933278f, -0.01361237f, 0.02914669f, -0.03460189f, -0.01594805f, 0.06109712f, -0.11290178f, -0.05572782f, -0.02115784f, 0.04492125f, -0.03797864f, 0.08748396f, 0.05330446f, -0.05453835f, -0.04165464f,
    /* [6] */ 0.02224884f, 0.01643767f, -1.42983425f, 0.05146082f, 0.27186272f, -0.01803767f, -0.04468052f, 0.03071510f, 0.00228090f, -0.03398334f, 0.03105797f, -0.02810819f, -0.18982232f, -0.17621501f, 0.31369802f, -0.03315139f, 0.00756250f, -0.04319103f, 0.02702518f, 0.00652375f, 0.01188043f, 0.03590820f, -0.18808995f, -0.01298648f, -0.00540600f, 0.01607186f, -0.11774306f, -0.01491768f, -0.07038189f, -0.65423739f, 0.01619467f, -0.03929427f, 0.01097404f, 0.03405743f, 0.01520896f, 0.01999859f, -0.00294777f, 0.00631255f, 0.02955270f, -0.00902816f, -0.01310506f, -1.71524000f, 0.62013257f, -0.00207975f, -0.00402945f, 0.00827217f, 0.01323861f, 0.02334754f, 0.01319202f, -0.28980994f, -0.71307677f, 0.07097908f, -0.05002293f, 0.02486469f, -0.01012868f, -0.15494582f, 0.00201978f, -0.35391098f, -0.00979777f, -0.01338479f, 0.00319297f, -0.02309270f, -0.00194931f, -0.01238514f, -0.00127664f, -0.02557610f, -0.01062175f, 0.02004041f, -0.00164114f, -0.00280577f, 0.03206856f, 0.01300693f, 0.01307123f, 0.01990825f, -0.01069605f, 0.01243617f, 0.01402996f, 0.01715119f, -0.00240208f, 0.03875821f, 0.01398791f, 0.01518372f, 0.02084808f, 0.01382715f, -0.00265072f, -0.02247758f, -0.00461084f, -0.01223735f, 0.01125243f, -0.05209279f, -0.01433622f, -0.12976827f, 0.03446579f, -0.02114327f, -0.05065579f, 0.01306027f, 0.00821908f, -0.02380083f, 0.00317509f, -0.02057111f, 0.03491274f, -0.02850325f, 0.01674553f, -0.02936454f, 0.01335508f, 0.00972789f, 0.01181043f, -0.01177908f, 0.00987166f, -0.18458472f, 0.02853870f, 0.02517320f, -0.00354657f, 0.01667165f, 0.00622523f, 0.42445633f, 0.13496442f, -0.00251937f, 0.05475296f, -0.19588463f, -0.52245283f, -0.19971099f, -0.01973065f, -0.01941977f, 0.00164446f, 0.00211226f, 0.00522118f, -0.13037188f,
    /* [7] */ -0.09790932f, 0.10866490f, -0.02456148f, -0.04143048f, -0.01902715f, -0.01691410f, 0.04113247f, -0.00120896f, 0.01577340f, -0.02770069f, 0.00982846f, -0.01012606f, -0.02433654f, 0.04602162f, -0.08183189f, 0.01641237f, 0.02413955f, 0.05139006f, 0.00191695f, -0.06289043f, 0.09010404f, 0.02021082f, -0.11321747f, -0.00789207f, 0.00310505f, -0.02516261f, -0.04753417f, -0.01814707f, 0.00306557f, 0.02752809f, -0.00091704f, 0.00109904f, -0.09084799f, 0.02617341f, 0.05925639f, -0.04932554f, -0.05947598f, 0.02871745f, 0.01882572f, -0.00950714f, -0.04572656f, 0.03189217f, -0.04076947f, -0.00191151f, 0.02434965f, -0.03064938f, 0.02580190f, 0.02414015f, -0.05293270f, 0.02819294f, 0.06671417f, -0.03293587f, 0.11877168f, -0.00651053f, -0.02051999f, -0.03193725f, -0.01447866f, 0.01506276f, 0.04008842f, -0.05813848f, -0.00550045f, -0.03045547f, -0.02924909f, 0.00842077f, 0.03533426f, -0.01804017f, 0.03044932f, -0.01669935f, -0.04773536f, 0.00620390f, -0.05660468f, 0.05019106f, 0.02899875f, 0.05281828f, 0.02564138f, -0.06216186f, -0.06951565f, 0.04045552f, -0.06542278f, 0.03917712f, -0.08680268f, -0.05305543f, 0.00548028f, -0.01472507f, -0.04001310f, 0.00467275f, 0.00164213f, 0.08264209f, 0.00878909f, -0.02644600f, -0.15438916f, -0.04197384f, 0.03757422f, 0.03243189f, 0.02757778f, 0.01750548f, -0.01115049f, -0.06732204f, 0.01662344f, 0.05478082f, -0.02622508f, 0.00070169f, 0.02761756f, 0.03954337f, -0.02534321f, 0.01101265f, -0.02100631f, 0.00565824f, 0.01585582f, 0.04829622f, 0.00750796f, -0.01052066f, 0.00625483f, -0.11658464f, 0.04032201f, 0.09693475f, -0.02420489f, 0.02054990f, -0.02120482f, 0.00801468f, 0.00094713f, 0.05662886f, 0.03267791f, 0.03831441f, 0.02303758f, 0.01293174f, -0.07248487f, -0.03914527f,
    /* [8] */ -0.03683054f, 0.04448297f, -0.01888992f, 0.02558399f, 0.06179401f, 0.05781420f, 0.01095378f, 0.05535591f, 0.02409225f, 0.04259084f, 0.05215501f, 0.04257733f, -0.00236276f, -0.04893551f, 0.04172250f, 0.04133207f, -0.08019036f, 0.05393148f, 0.03200331f, 0.06617007f, 0.02048803f, 0.01571934f, 0.07423021f, 0.03443594f, 0.01055366f, 0.03664584f, -0.08283750f, -0.02592178f, 0.05690432f, -0.01034550f, -0.03617734f, -0.08513149f, 0.04482947f, -0.03609130f, 0.01699720f, -0.05905598f, 0.02782066f, 0.01309002f, 0.00195465f, 0.01898572f, -0.07787453f, 0.00485711f, -0.03088143f, 0.01973763f, -0.01267054f, -0.06413283f, -0.04517675f, -0.00090115f, -0.00411438f, 0.01911248f, 0.02928816f, -0.01106846f, 0.03482693f, 0.04722039f, -0.06072477f, -0.02136350f, -0.05393761f, -0.05081790f, 0.02960814f, 0.05798075f, 0.06625342f, -0.03402448f, 0.04570488f, -0.00837944f, 0.04144320f, -0.02740044f, 0.01067247f, 0.02138057f, -0.02205821f, 0.01496876f, 0.00363721f, -0.05935918f, -0.01375549f, 0.03859452f, 0.03843873f, -0.00644662f, 0.05124455f, -0.00513911f, 0.00777532f, -0.03982549f, -0.03347144f, -0.02529967f, -0.00158400f, -0.01708402f, -0.06808562f, -0.04276613f, 0.01207355f, 0.03991029f, -0.05111498f, 0.04031556f, -0.08056255f, 0.05792277f, -0.07531967f, 0.00813625f, 0.01150838f, 0.01792214f, 0.00648353f, 0.04230702f, -0.03073470f, 0.00209761f, -0.01162249f, 0.00294725f, 0.03692091f, -0.01118618f, 0.02546723f, -0.03049949f, -0.03371188f, -0.06193168f, -0.02326268f, 0.08489927f, 0.01356537f, -0.03575787f, 0.06432671f, 0.09414618f, 0.00198056f, 0.18511128f, -0.01745986f, 0.02681941f, 0.02284845f, -0.00397487f, 0.04394179f, 0.00298185f, 0.00818037f, -0.03662199f, 0.00027315f, -0.01139034f, -0.00642062f, 0.11111298f,
    /* [9] */ -0.03341227f, 0.02114800f, -0.00012907f, -0.02662236f, -0.00927640f, -0.01415282f, -0.04184695f, -0.02165574f, -0.04100246f, -0.03363851f, -0.02425895f, -0.02580089f, 0.08286869f, 0.00792396f, -0.03724529f, -0.01186296f, 0.04553702f, -0.05307450f, -0.07927074f, 0.02935764f, -0.03049827f, 0.00162444f, 0.06035035f, 0.01473326f, -0.00330150f, 0.07947830f, 0.06544638f, -0.01256065f, 0.04237615f, 0.06193229f, 0.02556035f, -0.04409960f, 0.00503234f, 0.00265914f, 0.09119482f, 0.09034137f, -0.02531065f, -0.00509606f, 0.02406487f, -0.05180790f, -0.01798458f, 0.00780606f, 0.02869863f, -0.02101791f, 0.03868459f, -0.03218523f, -0.00105542f, 0.00820137f, 0.03969899f, 0.04466319f, -0.06422258f, 0.04690749f, 0.06555397f, 0.00822277f, -0.05450378f, -0.06806430f, -0.03127815f, 0.06261332f, -0.01005702f, -0.07036128f, -0.00513102f, 0.01397692f, 0.00038024f, 0.00090014f, -0.03590396f, 0.00283088f, -0.01345587f, 0.01100594f, 0.03621876f, 0.00742676f, -0.01975359f, 0.04830682f, -0.05845613f, -0.00725902f, -0.01404585f, -0.01266713f, -0.00984877f, 0.00586709f, 0.05600302f, 0.01565613f, -0.05167589f, -0.02853181f, 0.03348029f, -0.01518122f, 0.01510624f, 0.03200250f, 0.03495659f, -0.03708557f, -0.02989306f, -0.07580145f, -0.03467843f, -0.01441778f, -0.04587772f, 0.04802209f, 0.04170467f, 0.01085295f, 0.00665681f, -0.01348825f, 0.00521594f, 0.00955826f, 0.06907643f, 0.05996857f, 0.01353515f, 0.00935916f, -0.00547020f, -0.00417236f, -0.00297745f, 0.03240445f, -0.00725733f, 0.02436228f, 0.01117774f, 0.04352883f, 0.02805839f, 0.02031820f, 0.04276522f, 0.07224809f, 0.00185927f, -0.06252760f, -0.08518176f, 0.00335913f, 0.03444449f, 0.01130172f, -0.07667236f, 0.05368983f, 0.01905172f, -0.00926917f, -0.01906813f, -0.03032880f,
    /* [10] */ 0.03776504f, -0.00336376f, -0.04280052f, -0.05575961f, 0.03414533f, 0.03515700f, 0.02196798f, 0.03986577f, 0.04078843f, -0.04805084f, 0.06001419f, -0.01463263f, -0.07086532f, 0.10227335f, -0.01650824f, -0.02708919f, -0.00094234f, -0.01458550f, 0.04558552f, 0.01221576f, 0.02793647f, -0.05274474f, -0.04169660f, 0.03213573f, -0.03427744f, 0.03693463f, -0.05609119f, -0.04933665f, -0.03430246f, -0.08347848f, -0.05651152f, -0.10835218f, 0.01334216f, 0.06082269f, -0.01109307f, -0.05980726f, -0.05828894f, -0.03481892f, 0.01039829f, 0.03583945f, -0.00901922f, 0.02857492f, 0.03448889f, 0.04582660f, -0.02716750f, -0.11030047f, 0.01524308f, 0.01330742f, -0.04068326f, -0.05126296f, -0.02960772f, 0.05670418f, -0.00259951f, 0.04813934f, 0.03145314f, 0.02661640f, 0.04299412f, -0.06358246f, -0.00144608f, 0.03622286f, 0.04939824f, 0.01186532f, -0.03256433f, 0.04582352f, -0.02726787f, -0.01641984f, -0.00791530f, -0.01116560f, 0.02373688f, -0.04219928f, 0.04046088f, 0.01164784f, 0.02428451f, -0.06861927f, -0.03187796f, 0.01813299f, 0.02138594f, 0.09342154f, -0.04786597f, 0.08620927f, -0.00352031f, 0.09786362f, -0.04614280f, -0.00740109f, 0.04414264f, -0.02395395f, 0.00388156f, 0.00049948f, 0.02597786f, -0.01734691f, -0.08034445f, 0.00358815f, 0.08533077f, -0.04392909f, -0.02006548f, 0.02730664f, 0.01605980f, 0.04011076f, 0.00480110f, -0.05066544f, -0.01180938f, -0.00778649f, -0.02039259f, -0.02687315f, 0.06362815f, -0.02659402f, 0.06110803f, -0.02693743f, -0.09892172f, 0.02986677f, 0.02418139f, -0.04686973f, -0.09093210f, -0.02840247f, -0.01461756f, 0.11239026f, -0.07841445f, 0.01538640f, 0.00513862f, -0.07261594f, -0.02074000f, 0.11395311f, -0.04573147f, -0.06108322f, -0.03592114f, -0.04382247f, 0.01819847f, -0.05304942f,
    /* [11] */ 0.01172486f, 0.01736951f, 0.04692858f, 0.02771465f, -0.00856545f, 0.00007607f, 0.03602744f, -0.02571977f, -0.00183174f, 0.01296860f, 0.03804235f, 0.04098258f, -0.02045634f, 0.02292313f, -0.05018817f, 0.00872718f, -0.01724606f, 0.05164820f, -0.03834686f, -0.01079062f, -0.01095605f, -0.02532489f, 0.01060481f, 0.01059352f, 0.00067453f, -0.01056590f, 0.11149850f, -0.04448864f, 0.03422395f, -0.01617602f, -0.03996143f, 0.05128815f, -0.05833849f, -0.04143738f, 0.02652556f, -0.02808652f, 0.06013241f, 0.00367692f, -0.02113536f, 0.01515606f, 0.03142037f, -0.04760852f, 0.09104236f, 0.03400191f, -0.02776074f, 0.00104387f, 0.04109404f, -0.04850278f, 0.00640201f, 0.09109382f, -0.04646491f, -0.00798750f, -0.02349740f, -0.01480491f, -0.04140749f, 0.04774310f, 0.01673686f, 0.01704485f, 0.05953228f, 0.03777132f, -0.00845143f, -0.01344755f, -0.05170736f, -0.00727269f, -0.01329669f, -0.00822597f, 0.03148798f, 0.01140481f, 0.02482469f, -0.01082558f, -0.01977843f, 0.02907817f, 0.02185654f, -0.04273123f, 0.00278300f, -0.02862958f, -0.01401932f, -0.05623675f, -0.02936752f, -0.07133257f, -0.01079307f, -0.09292649f, 0.05120721f, 0.01086786f, -0.00787019f, 0.00289144f, 0.00814481f, -0.00506771f, -0.06599528f, 0.04051553f, 0.05515774f, -0.10376909f, 0.06980445f, 0.05891817f, -0.12892482f, -0.05007673f, 0.02195698f, -0.01073352f, 0.00530818f, 0.00596972f, -0.00312172f, 0.04097626f, 0.01741330f, -0.01616761f, -0.02462873f, 0.00214768f, -0.06813139f, -0.00626600f, 0.00019667f, -0.11794275f, -0.01609688f, 0.01921665f, 0.03526141f, -0.03243785f, -0.04276193f, 0.16839534f, -0.03970072f, 0.02780654f, -0.08445203f, -0.06721044f, 0.01171697f, -0.00280497f, 0.04836234f, -0.03073187f, -0.02267761f, -0.00720928f, 0.04615327f, -0.08722460f,
    /* [12] */ 0.13157985f, -0.02519051f, 0.27388480f, 0.20482907f, 0.27710927f, -0.07377194f, 0.19007172f, 0.10435792f, 0.03369134f, 0.03465787f, 0.13006563f, 0.04596249f, -0.14723991f, 0.21274790f, 0.07592393f, -0.04194868f, 0.02999629f, -0.02962431f, 0.02348645f, 0.02852782f, 0.02238835f, 0.10584267f, -0.03320136f, 0.01645785f, -0.03172124f, 0.03105525f, -0.10703270f, -0.01941196f, -0.00608846f, -0.12589911f, 0.03111611f, -0.15994386f, 0.01332480f, 0.02383386f, -0.09361763f, -0.12706460f, -0.06910510f, -0.10485996f, 0.00086150f, -0.00338473f, 0.03952326f, 0.15917163f, 0.35183126f, 0.06590436f, -0.03467965f, 0.05253754f, -0.10919547f, 0.00327778f, -0.02728670f, -0.35669452f, -0.12666205f, 0.09901554f, -0.29476371f, -0.01571459f, -0.08815541f, -0.11249959f, -0.03394072f, 0.40733069f, -0.25588322f, -0.06074777f, -0.03778112f, -0.08405214f, 0.03391138f, -0.02763468f, 0.06330086f, -0.02074578f, 0.01519991f, 0.02547997f, -0.06963687f, 0.06734902f, 0.06092648f, 0.05539127f, 0.02669106f, 0.07921191f, 0.06564122f, -0.06056563f, -0.04474295f, 0.12192410f, -0.00865578f, 0.07135891f, -0.08910358f, -0.01940759f, -0.06515813f, 0.05028859f, -0.02148980f, -0.04165269f, -0.06845592f, 0.00307560f, 0.06017872f, -0.07046814f, 0.08773224f, -0.03983774f, -0.03149217f, -0.11905003f, -0.22549555f, 0.06462003f, 0.02374840f, 0.00871569f, 0.02262182f, -0.03681625f, -0.02607091f, -0.07970244f, -0.01376100f, 0.27233467f, -0.02469966f, 0.02870634f, 0.09120125f, 0.07829085f, 0.15991886f, 0.24422079f, 0.01423417f, 0.04211092f, -0.07329270f, 0.03503644f, 0.09877105f, -0.28364155f, 0.16903999f, 0.05059082f, 0.25354403f, -0.41756177f, -0.21019293f, 0.22560443f, -0.16949256f, -0.05519023f, 0.03539405f, 0.01533117f, -0.08486604f, -0.16149363f,
    /* [13] */ -0.02528895f, 0.00840341f, -0.45484820f, 0.12787779f, -0.10964217f, -0.04331074f, 0.01255210f, -0.06998725f, 0.03198942f, -0.00912035f, -0.08064869f, 0.03737400f, 0.24095403f, -0.13427375f, 0.19044659f, 0.12239806f, -0.05380557f, 0.11806622f, -0.11040429f, -0.01353486f, -0.06002922f, -0.04669535f, -0.34375235f, 0.04626133f, 0.00103137f, -0.08293641f, 0.18590505f, 0.08592556f, 0.08761775f, -0.62210107f, 0.05396577f, 0.01470306f, 0.06355187f, -0.08123328f, -0.01427595f, 0.01013230f, -0.03218493f, -0.03276684f, -0.09033237f, -0.01388273f, -0.00752699f, -0.81147832f, 0.48512295f, -0.03044191f, 0.05592218f, 0.03996533f, 0.02050452f, -0.01232937f, -0.00512170f, 0.04460647f, -0.85092032f, -0.17332126f, 0.05238032f, 0.01536974f, 0.02635248f, 0.11637581f, -0.03036050f, -0.16228648f, -0.00887707f, 0.02585406f, 0.05112978f, 0.04650101f, -0.02035392f, 0.02497685f, 0.06093186f, 0.04002935f, 0.03437540f, -0.02709410f, -0.07301048f, 0.04164908f, -0.07940032f, -0.04751683f, -0.03418109f, -0.03979112f, 0.12874609f, -0.05075637f, -0.01260035f, -0.02902136f, 0.00168056f, -0.05056699f, -0.01074918f, 0.01909619f, 0.03482991f, 0.01927895f, 0.03354834f, 0.01194362f, -0.14086373f, 0.05690927f, -0.00841745f, 0.11045320f, -0.02468452f, 0.07416590f, 0.03278840f, 0.03638208f, 0.09937567f, -0.04888484f, -0.03298328f, 0.00116723f, 0.02770077f, 0.06744710f, -0.10528120f, 0.09317251f, -0.11170372f, -0.22450759f, -0.10829177f, -0.01028532f, 0.00254615f, 0.01463492f, -0.08580960f, -0.01959664f, -0.12152145f, -0.04046140f, -0.00077049f, -0.00065694f, -0.02941664f, 0.60770655f, -0.04636510f, -0.05099142f, -0.05259946f, 0.41494721f, -0.60934967f, -0.04685694f, 0.06257345f, -0.03465470f, -0.03004003f, -0.00663745f, -0.03990434f, 0.25520748f,
    /* [14] */ 0.03622720f, 0.06150120f, 0.04542888f, -0.04891163f, 0.01548135f, 0.01677162f, -0.07190302f, 0.05044060f, 0.00739032f, -0.10460910f, 0.04845984f, -0.06051462f, 0.05335597f, 0.03203007f, -0.07995325f, -0.00825026f, 0.03371552f, 0.00483346f, -0.09552867f, 0.05392993f, 0.02940450f, 0.00355471f, -0.04545100f, 0.00473577f, 0.01469474f, 0.01343542f, 0.00956243f, 0.02226088f, -0.02374772f, 0.07024753f, -0.05008025f, 0.02206982f, 0.03515435f, 0.03471931f, -0.01411500f, 0.01724243f, -0.00871215f, 0.00393971f, 0.01111752f, -0.01053351f, 0.05682272f, -0.00018022f, -0.10438333f, -0.09039064f, 0.04940666f, 0.00380921f, -0.03725491f, 0.06404997f, 0.00850766f, -0.07250360f, -0.05423129f, -0.00062637f, 0.04780417f, -0.02287598f, 0.02340612f, 0.01491329f, 0.03543910f, -0.05791424f, -0.05106857f, 0.05324628f, 0.03455453f, 0.01992558f, -0.02556955f, 0.00777755f, -0.01537516f, -0.01977582f, -0.00978591f, 0.00590223f, -0.01063153f, 0.07398988f, -0.01572106f, 0.01882372f, -0.02696578f, 0.07148287f, 0.00397089f, -0.01745852f, 0.05971639f, 0.00409698f, 0.03672350f, 0.00369881f, -0.02290807f, -0.02348427f, -0.01918516f, -0.00972161f, -0.00910798f, -0.08953196f, -0.08419631f, 0.04432422f, -0.04460078f, -0.04253548f, -0.07459471f, -0.04118435f, 0.01252726f, -0.05923874f, 0.00198577f, -0.01174284f, -0.04342743f, 0.04138985f, -0.00021922f, -0.01058933f, 0.01002627f, -0.00368097f, -0.05578172f, 0.01888227f, 0.03497422f, 0.00079325f, 0.01374897f, -0.00611105f, -0.03575135f, 0.07635279f, 0.03551973f, 0.01816425f, -0.05136558f, -0.06098012f, -0.07495507f, 0.00065339f, 0.04895964f, -0.02128598f, 0.07061062f, 0.06160420f, 0.06790078f, -0.05466779f, 0.04219098f, -0.06875627f, -0.02019826f, 0.05227447f, -0.06603511f, -0.02889106f,
    /* [15] */ 0.03522323f, -0.06746995f, 0.05207019f, 0.01177248f, -0.02545110f, 0.01241058f, 0.06693988f, 0.04654794f, -0.00885302f, 0.02086223f, 0.01121464f, -0.00456319f, -0.02502363f, 0.02369467f, -0.01922389f, -0.00975827f, -0.01593685f, -0.01932243f, 0.00943459f, -0.03784874f, -0.03127082f, -0.03073470f, -0.02738484f, 0.06009789f, 0.08435383f, -0.05829021f, -0.05574814f, -0.03215787f, -0.02849005f, -0.00018204f, -0.01725406f, -0.00276210f, 0.06407324f, 0.00076141f, -0.06882994f, 0.04214011f, 0.01866641f, -0.02094443f, -0.02585367f, -0.02593396f, 0.06231965f, -0.04610463f, -0.00529433f, -0.03799467f, 0.08495761f, 0.02563308f, -0.06776930f, -0.08364639f, 0.05238181f, 0.01956850f, -0.00412498f, 0.05620320f, 0.04175916f, -0.00833454f, -0.00698663f, -0.00248224f, 0.05267299f, -0.07876398f, -0.02107443f, -0.04485516f, -0.02405918f, 0.09826476f, -0.05118115f, -0.02142513f, 0.00955011f, 0.05650505f, -0.02862148f, -0.02429735f, 0.02810899f, 0.02810651f, -0.03518509f, -0.01325889f, 0.04615244f, -0.05530734f, -0.02066346f, 0.02582773f, -0.02979028f, -0.03899762f, -0.06617894f, -0.00239539f, 0.04482496f, 0.00045952f, -0.03264845f, -0.02266960f, -0.03632204f, -0.06173472f, 0.06455803f, -0.03197529f, -0.02669685f, 0.01351197f, 0.13837259f, 0.01629027f, 0.00146624f, -0.07698496f, -0.03719264f, 0.04224091f, 0.04683642f, 0.00919474f, -0.01064450f, 0.03743527f, -0.00349655f, -0.00320871f, -0.00534507f, 0.02255834f, -0.00286789f, -0.03093940f, 0.00272896f, 0.07344659f, 0.06000488f, -0.05983973f, -0.03005310f, 0.00427818f, -0.00058110f, 0.06403037f, 0.00074152f, -0.03894290f, -0.06274219f, 0.00693113f, 0.03469220f, -0.06447354f, -0.03038275f, -0.02202719f, 0.05284501f, 0.03408916f, -0.05729618f, 0.00240566f, 0.06269638f, -0.07834233f,
    /* [16] */ 0.01654077f, -0.07496091f, -0.07579641f, 0.09245925f, 0.02994866f, 0.03890510f, 0.07089268f, 0.05545383f, 0.01079239f, -0.00683083f, -0.02780913f, -0.00722934f, -0.06665184f, -0.05105612f, -0.07781827f, 0.00821251f, 0.03242535f, -0.00242365f, -0.12816964f, -0.02975189f, -0.00936294f, -0.02144187f, -0.02161820f, -0.01889479f, -0.03904402f, 0.01101060f, 0.00977559f, -0.00386085f, 0.04700078f, 0.01620419f, -0.06286573f, 0.07013106f, -0.02095548f, -0.05371724f, -0.01302831f, 0.02100452f, 0.01143755f, 0.02603187f, -0.03250108f, -0.00477405f, 0.04518722f, 0.01030130f, -0.01164869f, -0.03804151f, -0.00802985f, -0.00946782f, -0.00854420f, 0.01241272f, 0.00511999f, 0.03775976f, -0.01856816f, -0.00107519f, 0.03904008f, -0.05506600f, -0.03005642f, -0.07628213f, -0.04245045f, 0.00870842f, 0.06709575f, -0.05061607f, 0.00945016f, 0.08017552f, 0.07119297f, -0.03670897f, 0.09530868f, -0.01017427f, 0.00426978f, -0.01509665f, -0.02766120f, 0.03558865f, -0.04489576f, 0.00617155f, -0.04395292f, 0.01691417f, 0.03292928f, 0.01886314f, -0.00649365f, -0.02594179f, 0.01780648f, 0.02277642f, -0.04163035f, -0.01425360f, -0.03311080f, -0.00088415f, 0.05292666f, -0.01224619f, 0.10083687f, -0.02469201f, 0.00103026f, 0.02379662f, -0.05164734f, 0.01412967f, -0.11205569f, 0.04146837f, -0.08143058f, 0.00130360f, 0.00093480f, -0.01799987f, -0.01268641f, 0.03736467f, -0.01287691f, -0.02252855f, 0.04782311f, -0.06278969f, -0.06006696f, -0.04493508f, -0.01421617f, 0.01797433f, 0.09232825f, 0.05087955f, 0.02286410f, 0.04764054f, 0.05150717f, -0.00456044f, -0.02939725f, -0.05756386f, 0.00907027f, -0.05194503f, 0.00830302f, -0.01034976f, 0.02487773f, -0.09411525f, 0.02643113f, -0.02996457f, -0.01993331f, -0.03546875f, 0.02456096f, -0.10744475f,
    /* [17] */ -0.01578494f, 0.04507329f, 0.00397429f, 0.07132784f, -0.03057501f, 0.00398284f, -0.04661956f, -0.00898453f, -0.02291593f, 0.03082899f, 0.02021435f, -0.02963191f, -0.03309332f, 0.00311048f, 0.01793747f, -0.02167873f, 0.04678577f, -0.07595696f, 0.00235504f, 0.03541996f, 0.07007820f, 0.00807642f, -0.01258101f, -0.00247512f, -0.02582839f, -0.04518557f, 0.01335080f, 0.00063046f, -0.04339985f, 0.04961982f, 0.01014649f, 0.06632283f, -0.01428638f, 0.01033061f, 0.01707595f, -0.00052327f, -0.02383060f, 0.02020464f, 0.01658345f, -0.03400069f, 0.01822092f, 0.00959757f, 0.00649324f, -0.09352470f, -0.00409263f, -0.03182992f, -0.01689327f, -0.07332961f, -0.01750550f, 0.03550382f, -0.07863598f, -0.00003118f, 0.04010354f, 0.01140178f, -0.01423796f, -0.03450233f, 0.02373622f, 0.07361450f, 0.01784049f, 0.06342188f, 0.02201913f, 0.06735917f, -0.02995054f, -0.00079890f, -0.08832956f, -0.06755213f, 0.01826270f, -0.00049825f, 0.03011939f, -0.03422780f, 0.02934374f, -0.05383398f, -0.04742265f, 0.01385478f, -0.01324671f, -0.02509908f, -0.04430145f, 0.02909630f, -0.01471285f, -0.00884456f, 0.00337245f, -0.05775961f, -0.02991384f, -0.03452569f, -0.02719662f, 0.05102485f, 0.00864845f, 0.02027249f, -0.02305065f, -0.00228186f, 0.02781781f, 0.04714767f, -0.01810154f, -0.08512666f, -0.10829379f, -0.01094756f, 0.03563757f, -0.02888211f, -0.01353614f, 0.03917303f, -0.02491621f, -0.03472054f, 0.00611725f, -0.01569520f, 0.03882959f, -0.02606018f, -0.01239683f, 0.01486894f, 0.04850319f, -0.04027793f, 0.02682240f, 0.01299720f, 0.01349537f, 0.02008419f, -0.03291833f, 0.05702484f, 0.08975366f, 0.00372316f, 0.03549114f, 0.03358431f, 0.04561418f, 0.06527113f, 0.08550296f, 0.04392838f, -0.00254774f, 0.02185126f, -0.10523295f, -0.00059788f,
    /* [18] */ -0.06656785f, 0.02678915f, 0.07974049f, -0.04358030f, -0.03512309f, 0.00177770f, 0.02105268f, -0.01630971f, -0.01907416f, -0.02228969f, 0.08764086f, -0.02193411f, -0.11461406f, 0.06327011f, 0.06663325f, -0.05595655f, -0.01911678f, -0.02860600f, 0.12942627f, 0.00305753f, 0.01195855f, -0.05541833f, -0.04145294f, -0.03411768f, 0.05125943f, -0.01041915f, 0.06802521f, -0.01664622f, 0.03204852f, 0.00515440f, 0.00449892f, -0.03266760f, 0.00036730f, 0.07282111f, -0.02113674f, 0.03386004f, 0.01802503f, -0.01066606f, 0.05423552f, 0.05235330f, 0.02603129f, -0.00791596f, 0.04025335f, -0.03113880f, 0.00143080f, -0.01103083f, 0.01611897f, -0.06156769f, -0.04154415f, 0.00269915f, -0.04995758f, 0.00839704f, 0.00015681f, 0.03892073f, 0.02666358f, -0.04961497f, -0.00441734f, -0.05225798f, -0.09906559f, -0.01181844f, 0.04728596f, -0.00600496f, 0.01962562f, -0.04976658f, 0.01865816f, 0.03313397f, 0.03107658f, -0.04000012f, 0.02800229f, -0.06065647f, -0.04162215f, 0.07294495f, -0.01520437f, 0.01089461f, -0.00262267f, 0.01828478f, 0.00946960f, 0.01638099f, -0.03433836f, 0.04940194f, 0.03572466f, 0.02563524f, -0.02919463f, -0.06640562f, 0.06220261f, -0.03978621f, -0.02431629f, -0.04653118f, -0.00295209f, 0.01957499f, 0.00502487f, 0.03352601f, -0.03982441f, 0.00057020f, 0.01310737f, -0.01767969f, -0.04406025f, 0.01577113f, 0.05582713f, -0.05407896f, 0.03838991f, 0.03100034f, 0.02387578f, 0.02647008f, 0.08014030f, -0.04882022f, -0.05348552f, -0.03630826f, -0.01669280f, -0.08664825f, -0.00016526f, 0.00659131f, -0.00043927f, -0.01551043f, -0.02194980f, 0.01975425f, 0.08604798f, -0.01935533f, -0.04546985f, 0.06145054f, 0.03733532f, -0.02506977f, -0.02983367f, 0.11507162f, 0.00319580f, -0.05199867f, 0.06932180f, -0.01679591f,
    /* [19] */ 0.04047780f, 0.08439617f, -0.01386777f, -0.05089258f, -0.03431910f, 0.00870977f, 0.06001136f, -0.06020532f, -0.00303126f, -0.06171813f, -0.00370872f, 0.02468414f, -0.08220184f, 0.03002045f, 0.03334228f, 0.00632363f, 0.00700433f, 0.01937808f, 0.01467925f, 0.01502285f, -0.04936719f, -0.01489272f, 0.04722341f, -0.00684196f, -0.03938457f, 0.02983219f, 0.11226983f, -0.00681142f, -0.02501652f, 0.01807813f, -0.04868968f, 0.00082623f, -0.04154906f, -0.04140048f, 0.00630594f, -0.06654823f, -0.02567966f, -0.02840509f, 0.05018575f, 0.02352666f, -0.00736957f, -0.00502621f, 0.03604874f, 0.00183129f, 0.05466520f, -0.01047824f, -0.02733788f, 0.00140834f, 0.04461858f, 0.04089753f, -0.02790451f, -0.00302003f, -0.04589620f, -0.05091132f, -0.07016140f, 0.01662767f, -0.00421856f, -0.14940342f, -0.05015548f, 0.01202656f, 0.00318879f, 0.02117888f, -0.00225766f, -0.05669405f, 0.00322568f, 0.04403388f, -0.01340841f, 0.05181472f, 0.00634704f, 0.10820210f, 0.02879164f, -0.03788263f, 0.00713267f, -0.03024194f, -0.04218852f, 0.04566490f, -0.02275138f, 0.00194148f, 0.00079747f, -0.04397158f, -0.01087207f, 0.05638849f, -0.00707999f, -0.05644077f, -0.01360214f, -0.11153521f, -0.06595868f, -0.03260296f, -0.03800258f, -0.06719149f, 0.05594031f, 0.00507183f, -0.00900625f, 0.00741858f, -0.04005748f, 0.04653506f, 0.01747079f, 0.01652115f, -0.01691219f, -0.01953641f, -0.02018495f, 0.03798809f, -0.00118169f, 0.03908945f, 0.01289519f, 0.00717538f, -0.04233546f, 0.02791458f, 0.05901811f, -0.09310868f, -0.01663794f, -0.04288163f, -0.04083043f, 0.05725162f, -0.02963639f, 0.04057943f, -0.08742043f, -0.02430998f, -0.02265875f, -0.04556979f, 0.00525923f, -0.00914891f, 0.00818096f, 0.02321004f, -0.01132592f, -0.01451892f, 0.03485363f, -0.01445279f,
    /* [20] */ 0.06295664f, -0.07545892f, 0.00595769f, -0.05749239f, -0.01507470f, -0.00424160f, -0.01392919f, 0.04267470f, 0.02484212f, -0.00296519f, -0.07769720f, 0.02126465f, -0.11175269f, 0.08871020f, -0.02818581f, 0.00033440f, -0.00121363f, 0.02555031f, 0.04031878f, 0.02907988f, 0.00470506f, -0.01538310f, -0.04212431f, 0.01103675f, 0.01221990f, -0.02053104f, -0.02940307f, 0.00510175f, -0.05057034f, 0.08702782f, 0.06856938f, 0.06179605f, 0.03493153f, 0.03469258f, -0.04263313f, 0.04565696f, 0.03522382f, -0.00367028f, 0.02470181f, 0.02563159f, -0.03261567f, 0.03315049f, -0.07523675f, 0.01354888f, -0.04239696f, 0.02725310f, -0.05732075f, -0.00440111f, -0.00461502f, 0.02471558f, -0.00236247f, 0.08581980f, -0.02258059f, 0.00447869f, 0.02113328f, 0.02592985f, 0.02639992f, -0.04822173f, -0.09456806f, -0.01657929f, -0.03015089f, -0.01059495f, -0.02848952f, -0.05027289f, -0.04465257f, -0.05056120f, -0.07988092f, 0.03154142f, 0.01151300f, -0.07518268f, 0.04512293f, -0.00679731f, 0.00429195f, 0.02269910f, -0.07556983f, -0.06458790f, 0.02642249f, -0.02355871f, -0.04829532f, -0.03951542f, 0.02650662f, 0.08916785f, -0.00497867f, 0.01564624f, -0.00788057f, -0.08586100f, 0.02787826f, 0.02417568f, -0.00638745f, 0.00865086f, -0.00172661f, -0.06343349f, -0.01080736f, -0.02544930f, 0.06891069f, -0.01839376f, 0.04958358f, -0.00717796f, -0.05752551f, 0.00286058f, -0.05388981f, -0.03989231f, -0.02699267f, 0.03186347f, 0.00499301f, -0.04404844f, -0.05714282f, 0.03695216f, 0.04092851f, 0.08381551f, 0.03144890f, -0.02597785f, -0.04684555f, -0.00241410f, -0.04906952f, -0.04286375f, 0.06849490f, 0.03992910f, 0.05723343f, -0.00672263f, 0.01905744f, -0.02432148f, -0.05471335f, 0.00009770f, 0.04752802f, 0.04114970f, -0.01577630f, -0.00826794f,
    /* [21] */ 0.01103927f, -0.00332564f, -0.01665357f, 0.02157322f, -0.04333245f, -0.00246143f, -0.05835181f, -0.03093491f, 0.02351298f, 0.01462025f, 0.02926630f, -0.03339735f, -0.03231385f, 0.04649875f, 0.01054381f, 0.03033608f, -0.01830032f, -0.04105607f, -0.03869832f, -0.03739041f, 0.03429526f, 0.02789289f, 0.01145871f, -0.01253717f, -0.01647036f, -0.03808916f, -0.10056946f, -0.01473883f, -0.00744054f, 0.01450896f, 0.07858289f, 0.03471951f, -0.02636107f, -0.00454865f, 0.03721595f, 0.11060989f, 0.02241997f, 0.03660800f, 0.01347945f, -0.03275513f, 0.01666494f, 0.01135805f, 0.05671960f, -0.04250288f, -0.00477794f, 0.00076416f, 0.04557463f, 0.02681621f, -0.00576341f, 0.10286300f, -0.00192094f, -0.04688645f, -0.02608097f, -0.03684657f, 0.01402447f, 0.00886883f, -0.05166516f, 0.06508468f, 0.04127668f, -0.00203271f, 0.02490194f, -0.03098851f, -0.03294392f, -0.04908026f, 0.05700859f, -0.00461945f, -0.05899071f, -0.03716386f, -0.04613877f, -0.02316664f, -0.04471675f, 0.03367257f, 0.03669856f, -0.06415032f, -0.02702881f, 0.01248646f, -0.00841777f, -0.05465988f, 0.03285827f, -0.01879392f, 0.02950352f, 0.04724100f, -0.01916696f, -0.01740017f, -0.05766255f, 0.02305265f, -0.03881875f, -0.03752264f, 0.00382637f, -0.04675213f, 0.03825595f, -0.05879856f, 0.09239552f, 0.07182853f, 0.05612750f, 0.03668183f, -0.05478689f, 0.02248589f, 0.01835808f, 0.03879394f, 0.00526465f, 0.02652897f, -0.02070276f, -0.03454538f, 0.02029613f, -0.02765660f, 0.01203871f, 0.00873934f, -0.00601841f, -0.06843907f, 0.02033943f, -0.00692355f, 0.04174826f, -0.07041234f, -0.00266749f, 0.02643381f, 0.05214567f, -0.00472785f, -0.02174687f, 0.02372028f, -0.04103548f, 0.00836092f, 0.07176208f, 0.04733752f, 0.02834951f, 0.01582407f, -0.06999161f, 0.02554757f,
    /* [22] */ -0.00365824f, 0.00239816f, 0.00927611f, 0.05871295f, 0.08910805f, 0.03774173f, -0.05722663f, -0.08290257f, 0.02436687f, 0.03885277f, -0.00800094f, 0.05875446f, -0.04573096f, -0.01106425f, 0.01684154f, -0.00121104f, 0.00760741f, 0.08796936f, 0.02731307f, 0.07061058f, 0.03166474f, -0.00812939f, 0.09365112f, 0.02266312f, -0.01499041f, -0.06902266f, 0.02463576f, -0.00846327f, -0.00095798f, 0.00554988f, -0.00144109f, -0.04063956f, -0.03492935f, 0.02420515f, -0.02830035f, -0.00722459f, -0.00228051f, -0.02169463f, -0.06806651f, 0.04289933f, -0.03415111f, -0.02690698f, -0.03434309f, -0.01474416f, -0.00219462f, -0.07165147f, -0.03991935f, 0.06430025f, -0.02750713f, -0.00498814f, -0.09597190f, 0.04952889f, -0.02927247f, -0.09059624f, 0.04251213f, 0.01211769f, -0.01170072f, -0.08596967f, -0.02715715f, -0.06602159f, -0.07025373f, 0.11663369f, 0.02405344f, 0.03539705f, -0.03872349f, 0.00192072f, -0.02541754f, 0.03009581f, 0.00242124f, -0.01068284f, -0.01875721f, -0.07222949f, -0.09584662f, 0.00828579f, 0.00140127f, -0.00415967f, -0.01071515f, -0.01882776f, 0.02641409f, -0.01397354f, -0.04882119f, 0.05467092f, -0.01026380f, -0.03257388f, 0.08745173f, -0.07341597f, 0.00717154f, -0.00983139f, 0.01848418f, 0.05480745f, 0.03292771f, -0.03438731f, -0.04659572f, -0.00710660f, -0.01860113f, -0.05248192f, 0.00346880f, -0.04780815f, -0.04002885f, 0.00724810f, -0.05129005f, 0.02114729f, -0.02252388f, -0.02852800f, -0.00905477f, 0.00656513f, 0.05005414f, -0.02218791f, -0.01684048f, 0.00299619f, 0.05566087f, 0.03241942f, -0.01882082f, 0.00536862f, 0.00418948f, -0.01097629f, -0.05330553f, 0.01186053f, 0.10393909f, -0.01633099f, -0.10585509f, -0.03337668f, 0.01298640f, -0.01246989f, -0.00486805f, 0.05046343f, -0.04491607f, -0.00925174f,
    /* [23] */ 0.05140018f, 0.01924127f, 0.03661605f, -0.00620635f, -0.02454554f, -0.00569742f, -0.06020143f, 0.03515180f, -0.04174408f, 0.00914456f, 0.02017239f, -0.01680532f, 0.02120285f, -0.05718517f, -0.03462975f, 0.03701182f, -0.05267917f, 0.02221434f, 0.04016167f, -0.00420219f, -0.00777082f, -0.04179561f, -0.03918387f, -0.03383380f, 0.09710120f, 0.03421337f, -0.10756978f, -0.01931040f, -0.02290858f, 0.06901085f, -0.01667116f, -0.04735078f, 0.03770088f, -0.09695880f, -0.02478226f, 0.03404536f, 0.00084865f, 0.03248268f, 0.03259125f, 0.00778568f, 0.01079395f, -0.00072461f, -0.05308681f, 0.01921279f, -0.00921369f, -0.02332098f, -0.08228697f, 0.01506453f, 0.00346725f, -0.01185563f, -0.04593369f, -0.00424357f, -0.02547474f, 0.05636306f, -0.00105186f, 0.05047807f, -0.04575295f, -0.06713829f, 0.00910525f, 0.03088081f, 0.04669598f, -0.06080051f, -0.05347873f, -0.04106621f, 0.00167178f, 0.00516767f, -0.00749519f, 0.00032133f, -0.02731664f, 0.01676893f, -0.01038979f, -0.04359502f, 0.12155837f, 0.03763855f, -0.01780278f, 0.00162358f, -0.01969749f, 0.00505121f, 0.00560830f, 0.01755311f, 0.05753114f, 0.02751108f, -0.00771694f, -0.01340187f, -0.00682519f, -0.03726584f, -0.01944211f, 0.03544315f, -0.01568172f, -0.05826141f, 0.08037686f, -0.00519455f, 0.03975408f, -0.04681677f, 0.05436195f, 0.00271071f, 0.01780489f, 0.00251630f, 0.01766622f, -0.00962870f, 0.04252370f, -0.01006075f, 0.02646836f, 0.02519258f, -0.06406309f, -0.03454763f, 0.00665363f, -0.00887095f, 0.02192780f, 0.03082188f, -0.01770446f, -0.01570452f, 0.02474672f, 0.01452183f, -0.01101150f, -0.15107679f, 0.02932708f, 0.02807843f, -0.04993884f, 0.01240448f, -0.00238795f, -0.08748771f, 0.06842217f, -0.00419835f, -0.02191191f, -0.05067109f, -0.05196126f, 0.06712926f,
    /* [24] */ -0.09558856f, 0.00724021f, -0.00255792f, -0.03024223f, 0.06743012f, 0.00775400f, -0.04920612f, -0.04542404f, -0.01524976f, -0.00755020f, -0.00513326f, 0.05494054f, -0.00770154f, -0.01914243f, 0.00134195f, -0.10419202f, -0.04035439f, -0.03043350f, 0.05110916f, 0.00824316f, 0.02467115f, -0.00056876f, 0.01428792f, -0.12114282f, 0.06081194f, -0.07999659f, 0.01203399f, 0.00245700f, -0.01686269f, 0.02990412f, 0.02863067f, -0.02753671f, 0.05140363f, -0.01087404f, -0.06130417f, 0.01380654f, -0.09115051f, 0.02109345f, 0.05463956f, -0.02799068f, 0.05621118f, -0.01198806f, 0.03937500f, -0.08569307f, 0.01253346f, 0.00723689f, 0.06453945f, -0.01072640f, 0.04553498f, 0.03930044f, 0.03476524f, -0.02435181f, 0.02690779f, -0.01042347f, 0.00375061f, 0.04003304f, -0.02854301f, -0.07209130f, 0.01660610f, -0.08654831f, 0.03611415f, -0.00143718f, -0.02029117f, -0.03184570f, 0.06766099f, 0.02108916f, -0.05447765f, -0.02476599f, -0.02507070f, 0.08676353f, -0.05736307f, -0.03869181f, -0.00031857f, -0.02999539f, -0.01067274f, 0.08059197f, -0.07345912f, 0.03802854f, -0.05673571f, 0.02254251f, 0.01377818f, 0.04566477f, 0.01915930f, -0.02861306f, 0.03792336f, -0.00705253f, -0.07517549f, -0.00408542f, 0.01097883f, 0.04974287f, -0.02692522f, -0.01029721f, -0.04712894f, -0.02884911f, 0.07205265f, -0.02211015f, 0.00186732f, -0.02260421f, 0.04566379f, 0.00274116f, -0.00006952f, 0.03424767f, 0.05011259f, -0.05546025f, -0.00756185f, -0.00949873f, 0.02483859f, -0.01477715f, 0.04787363f, -0.06601910f, -0.07133240f, -0.05439288f, -0.01841572f, 0.00922546f, -0.01078479f, -0.05340466f, -0.00262523f, 0.04434367f, -0.06858378f, 0.00157010f, -0.05666976f, -0.00464803f, 0.04604631f, 0.04550722f, -0.08091390f, -0.01302245f, -0.03157240f, -0.03407534f,
    /* [25] */ -0.03051522f, 0.01705636f, -0.29543474f, -0.22167118f, -0.53315991f, -0.00331158f, -0.18029884f, 0.03482702f, -0.02123988f, -0.08288372f, 0.04748783f, 0.04070346f, 0.06559869f, -0.27192906f, -0.15153360f, -0.01975636f, 0.03096814f, -0.03783293f, 0.12216613f, -0.09717599f, -0.03319198f, -0.03357451f, -0.16451660f, 0.01021277f, 0.03912788f, 0.11640236f, 0.05688047f, 0.00976837f, 0.15239395f, 0.08483543f, -0.01762152f, 0.14871216f, 0.00724890f, 0.07841991f, 0.00509763f, 0.08243193f, 0.01721555f, -0.07479892f, -0.04502571f, 0.03640132f, -0.04940148f, -0.20047651f, -0.57282442f, 0.03925591f, -0.02210804f, 0.06643688f, 0.00932297f, -0.08282288f, -0.15743814f, 0.30944762f, 0.30881870f, -0.03121137f, 0.10085061f, -0.03238048f, 0.01255311f, 0.23701192f, -0.05846532f, -0.71048611f, -0.09041718f, -0.06404864f, 0.01884313f, -0.07318519f, 0.08646527f, 0.03940682f, 0.03267949f, 0.00541531f, 0.01579973f, -0.05189556f, -0.02060504f, -0.04522831f, 0.07028927f, -0.09234610f, 0.00228733f, -0.00557119f, -0.03087474f, -0.07136071f, -0.09078684f, -0.00591640f, 0.03160744f, -0.00273897f, -0.08874104f, 0.01226909f, -0.04983964f, -0.04537076f, -0.12916327f, -0.04164785f, 0.02853598f, 0.04142551f, 0.06928895f, -0.06080322f, -0.25842518f, -0.12028159f, -0.15472703f, -0.00688514f, 0.28977492f, -0.04358821f, 0.14510494f, 0.04652696f, -0.02833514f, -0.02639112f, -0.01928688f, 0.01607838f, -0.07938976f, -0.33684412f, 0.00609661f, -0.02112965f, -0.00797919f, 0.01638418f, -0.05325394f, -0.08242482f, 0.02128882f, -0.04833359f, 0.09747034f, -0.05010460f, 0.03112456f, 0.07872193f, -0.10335043f, 0.00564204f, -0.10821927f, 0.29624534f, 0.04304069f, -0.22648750f, -0.09781729f, 0.08250727f, 0.03882925f, -0.02868983f, 0.03982390f, 0.05459044f,
    /* [26] */ 0.02504696f, 0.01628068f, -0.07925504f, -0.00027471f, -0.03626231f, 0.06602839f, 0.04393345f, -0.00740433f, 0.01700817f, 0.09374294f, -0.02739118f, -0.02344253f, -0.07852763f, 0.06454825f, 0.01921350f, 0.08884517f, 0.01149176f, 0.00381276f, -0.12108023f, 0.04738455f, -0.03051422f, -0.05043995f, -0.01108054f, -0.02229699f, 0.01536004f, 0.04173759f, -0.01209556f, 0.08786163f, 0.07568153f, 0.04722837f, 0.00704228f, 0.06084697f, 0.02176127f, -0.00402431f, 0.02451659f, -0.06510397f, -0.00553148f, 0.05602389f, 0.01715990f, 0.02788222f, -0.03021110f, 0.03823451f, -0.01467467f, 0.06189632f, -0.06754952f, -0.00231549f, 0.02798575f, -0.01727594f, -0.02560356f, 0.04513112f, 0.00589572f, -0.10042741f, -0.00220205f, -0.00073281f, -0.03304347f, -0.00116921f, -0.01926796f, -0.05717580f, 0.03805391f, 0.07798434f, -0.00300751f, 0.07405064f, 0.01420641f, -0.00564044f, 0.10495774f, -0.02376589f, 0.00417756f, -0.03418148f, -0.02122314f, -0.00134063f, -0.03012832f, 0.05972055f, 0.02623865f, -0.01993512f, 0.05495975f, -0.01145230f, -0.01643038f, -0.01105750f, 0.04169888f, 0.00394529f, 0.00092059f, -0.04780554f, 0.00662735f, 0.02209722f, 0.06777904f, 0.01729822f, 0.01401293f, 0.05930822f, 0.04687724f, -0.04305584f, -0.04974879f, 0.07377890f, -0.01986593f, -0.01141168f, -0.03642352f, -0.00520879f, 0.04040166f, -0.00554879f, 0.01455186f, 0.00228991f, -0.01189785f, 0.02306090f, -0.04825080f, 0.00393060f, -0.01762460f, 0.04265813f, 0.08210638f, -0.05173266f, -0.03516612f, -0.06711802f, 0.04311096f, 0.09378725f, 0.05284812f, 0.03860435f, -0.02489311f, -0.03284032f, 0.02656492f, 0.01417022f, -0.08777861f, -0.03342516f, -0.00023769f, 0.03710472f, -0.00634812f, -0.09076467f, 0.06859175f, -0.04428812f, -0.10839595f, -0.06890964f,
    /* [27] */ 0.01646736f, -0.02547675f, 0.01373401f, 0.05053632f, 0.02527189f, -0.02077843f, 0.02022969f, -0.04649291f, 0.02323021f, 0.00174057f, 0.00767817f, -0.03826000f, 0.02112617f, 0.10657611f, -0.07054858f, 0.05285033f, -0.09330529f, 0.02287477f, 0.00482278f, 0.06081497f, 0.05862146f, -0.02507075f, -0.01105051f, 0.05137131f, 0.06734848f, 0.04512161f, -0.01720074f, -0.00914770f, -0.02986825f, 0.05041084f, -0.00538913f, -0.00607757f, 0.10327176f, -0.03220860f, 0.01786262f, 0.07113670f, 0.00894726f, 0.01426792f, 0.01695608f, 0.00706307f, 0.00824051f, 0.00808152f, -0.05408197f, 0.06878030f, -0.03342933f, 0.00354367f, 0.01734101f, 0.04488209f, -0.02930715f, 0.01735829f, -0.01753189f, 0.02145710f, 0.02268744f, 0.05046467f, 0.00114646f, -0.02330414f, -0.02292964f, -0.03345999f, 0.02943105f, 0.01001568f, -0.01747937f, -0.03581260f, -0.03478741f, 0.04407419f, -0.03700465f, -0.07886093f, -0.04698680f, 0.01516840f, -0.01131020f, 0.00336382f, -0.00791862f, 0.01321574f, -0.04141858f, -0.04112726f, -0.03441150f, -0.04941373f, -0.03127195f, -0.02496913f, -0.03136861f, -0.04959082f, -0.05892241f, 0.08629721f, -0.03273723f, 0.04838166f, 0.01060050f, -0.02594075f, 0.03555248f, 0.00032804f, 0.00313470f, 0.04688647f, 0.02054379f, -0.05434522f, -0.01875984f, -0.02549435f, -0.00440759f, 0.01418788f, -0.06744252f, -0.03194677f, -0.02066444f, -0.04093358f, -0.00096682f, 0.00321578f, -0.03759365f, -0.03759510f, -0.05667973f, -0.01972661f, -0.00884834f, 0.01225063f, -0.04064410f, -0.07668340f, 0.07105631f, -0.02134850f, -0.03476856f, -0.04629151f, -0.05929244f, 0.06813277f, 0.09168908f, 0.03615528f, 0.08656932f, -0.06563832f, -0.02640256f, -0.02910699f, 0.05430014f, -0.01664213f, -0.02546581f, -0.00879197f, -0.01523659f, -0.12087157f,
    /* [28] */ 0.04156107f, -0.03915750f, -0.00769846f, -0.08814079f, -0.02698472f, -0.02767665f, 0.03968056f, -0.01031863f, 0.00460871f, -0.04643613f, -0.07758173f, 0.05223581f, 0.04693896f, -0.05209894f, 0.08834762f, 0.02208410f, 0.03912425f, 0.04017117f, 0.03450803f, -0.00312594f, 0.03553900f, -0.03289441f, -0.00858790f, 0.01810997f, -0.01756368f, -0.00557600f, 0.00798429f, -0.01124494f, 0.00598147f, -0.03294661f, -0.01770714f, -0.06495470f, 0.04485762f, -0.02344113f, -0.00538938f, 0.05278909f, 0.07619333f, 0.03733093f, -0.05932090f, 0.02894982f, -0.01705244f, 0.00242642f, 0.04787975f, 0.03471421f, 0.00431977f, -0.00989616f, -0.07342198f, -0.01469189f, 0.01423113f, 0.03336674f, 0.02589703f, -0.00901016f, 0.02156038f, 0.07714684f, 0.05669391f, 0.01266366f, 0.03048025f, -0.02498935f, -0.03756734f, -0.06609444f, -0.06811202f, 0.05656149f, -0.03097137f, -0.00576032f, -0.01587695f, 0.00821366f, -0.00261268f, 0.01512170f, 0.02666145f, 0.03075618f, 0.05275228f, -0.01257520f, 0.01690660f, -0.01060704f, -0.05762369f, 0.01350491f, -0.00806314f, -0.05433226f, 0.00791913f, -0.01903240f, 0.07845252f, -0.01859761f, 0.01101417f, -0.00267996f, 0.00157816f, -0.02756516f, 0.01021035f, 0.04727241f, -0.03555558f, 0.06322766f, 0.05993026f, 0.02708565f, -0.03069362f, -0.01479930f, 0.06408136f, -0.10194109f, 0.01673261f, 0.03063515f, -0.07467706f, 0.01304314f, 0.03296439f, -0.02832041f, 0.03502714f, 0.02013552f, -0.01966243f, -0.02950836f, -0.01687421f, -0.03970549f, -0.03896877f, -0.06530041f, 0.00235122f, -0.02499140f, -0.01555543f, -0.09910844f, 0.03514598f, -0.01817962f, -0.03808504f, -0.00911403f, -0.07188775f, -0.09996933f, -0.05371409f, 0.02961081f, -0.02088021f, -0.07018647f, -0.02979049f, 0.04478434f, -0.03944870f, 0.01015796f,
    /* [29] */ 0.10125562f, 0.04764325f, 0.06634497f, 0.03148828f, 0.02617912f, -0.00349477f, -0.11840824f, -0.00863758f, -0.01129706f, -0.06957220f, -0.00504479f, 0.00853461f, -0.02644183f, 0.03281209f, -0.02518431f, -0.03554649f, 0.00857211f, 0.00956502f, 0.10620677f, -0.03064097f, 0.05516228f, 0.04615123f, -0.03276404f, -0.00541537f, 0.07137201f, 0.01899436f, 0.06658094f, -0.02034891f, 0.05393319f, 0.04008135f, -0.07447140f, 0.01649410f, -0.02767152f, 0.06843248f, 0.00904834f, -0.02973180f, 0.04960008f, 0.04875709f, 0.02427016f, 0.03822660f, -0.01051131f, 0.00644934f, -0.01221880f, -0.05131415f, 0.00968181f, 0.00388479f, 0.02815875f, -0.01392254f, 0.04481606f, 0.01579330f, -0.03466993f, -0.02286328f, -0.00975655f, -0.03976045f, 0.03895974f, 0.02129368f, 0.06720514f, -0.06419341f, -0.05485812f, 0.05512676f, -0.05235272f, 0.04409663f, -0.03622917f, 0.04227382f, -0.02584139f, 0.00496227f, 0.00460630f, 0.02063023f, -0.05099959f, 0.07040202f, 0.02086237f, -0.05571920f, -0.02251378f, 0.02768028f, -0.05393782f, -0.05975547f, -0.04842838f, 0.04509687f, 0.02275670f, 0.07540755f, 0.00027554f, 0.02645820f, 0.03480924f, -0.02310638f, 0.00996158f, -0.06898446f, 0.00166236f, -0.00122820f, -0.01311414f, -0.02642734f, 0.04276532f, 0.04082884f, 0.09165693f, -0.02954397f, 0.03497761f, 0.00500145f, 0.01260682f, 0.01274793f, -0.04580427f, -0.04276410f, 0.08204980f, 0.03242329f, 0.05935495f, 0.00038520f, 0.02859577f, -0.03817638f, 0.03206512f, -0.00013829f, -0.05373088f, -0.04655495f, 0.02240415f, -0.00599470f, 0.01322372f, -0.01705552f, -0.04927796f, 0.07179071f, -0.00430998f, 0.04110811f, 0.01886808f, -0.08287951f, -0.02475427f, 0.00648763f, 0.06263866f, 0.03305168f, 0.00438062f, 0.01094599f, -0.02102720f, -0.04012303f,
    /* [30] */ -0.01902969f, 0.09158151f, -0.04355311f, 0.04409052f, 0.01169407f, -0.02441907f, 0.02229975f, -0.02302110f, 0.00588162f, 0.03273270f, -0.00208571f, 0.00759016f, -0.03611129f, -0.04295830f, 0.02574376f, 0.07304209f, 0.06413354f, -0.02821000f, -0.01193189f, -0.03146528f, -0.05884033f, 0.02332757f, -0.00529728f, 0.04164810f, 0.00697453f, -0.04082687f, -0.03758334f, 0.05292755f, 0.08004341f, 0.02611999f, 0.00096496f, 0.00541459f, -0.00091225f, -0.03251863f, 0.02141090f, -0.05522616f, -0.01571891f, -0.02075494f, -0.00754229f, -0.04006067f, 0.02328334f, 0.01986677f, 0.06014312f, -0.00446162f, 0.02175698f, 0.04831544f, -0.05591523f, -0.01620329f, -0.07253516f, -0.02296023f, 0.00298677f, -0.02588517f, -0.04373981f, -0.02106941f, 0.00823597f, 0.02792243f, -0.01426409f, -0.11445940f, 0.04766481f, 0.09768619f, 0.05960494f, -0.02147262f, -0.02467844f, 0.03528312f, 0.05771390f, -0.03830866f, 0.04356251f, -0.04087346f, -0.03107926f, 0.02325504f, -0.04732576f, -0.03549463f, 0.00573103f, -0.03443328f, 0.02683023f, -0.03195389f, -0.08105718f, -0.05663896f, -0.00135796f, -0.03319990f, -0.02536410f, -0.03908121f, 0.08510336f, -0.01514235f, 0.02691299f, -0.00726318f, -0.02218785f, -0.00099725f, 0.02443878f, -0.00723619f, 0.00015913f, 0.02590382f, 0.02461085f, 0.02093033f, -0.04406536f, -0.01846357f, 0.07316597f, -0.01761141f, 0.03160219f, 0.04002277f, 0.02875507f, -0.00335794f, 0.00291669f, 0.03069314f, -0.00356943f, 0.01128606f, -0.00849784f, 0.02710865f, -0.02582147f, 0.03670930f, -0.02962946f, 0.02363373f, -0.05613302f, -0.04831016f, -0.06306306f, -0.03554769f, -0.09762973f, -0.04893633f, -0.05570444f, -0.07839191f, -0.01492939f, -0.11758872f, -0.04812687f, 0.02965289f, 0.02823369f, -0.03812498f, -0.02215372f, 0.00254825f,
    /* [31] */ 0.07029897f, 0.03233369f, 0.03898307f, -0.03739243f, -0.07870243f, 0.01624540f, -0.07988030f, 0.05996578f, 0.05379130f, -0.11539701f, -0.02112487f, -0.01803599f, 0.05035297f, -0.03965318f, -0.01993873f, -0.05471037f, 0.02807944f, -0.05363132f, -0.02673150f, 0.02251755f, -0.00856698f, 0.02201016f, -0.07214443f, 0.03356011f, -0.00542638f, -0.04292560f, -0.02718082f, -0.02337187f, -0.01185323f, 0.02344535f, -0.01300012f, -0.01922209f, -0.00208610f, 0.07517566f, -0.05967768f, 0.02824734f, 0.03531429f, -0.11129799f, 0.01615936f, 0.04702416f, 0.02094511f, 0.01384484f, 0.00431765f, -0.09321538f, 0.03978010f, 0.01697362f, 0.02535219f, -0.04992309f, 0.01523725f, -0.05046060f, 0.02645006f, 0.05607516f, -0.01274008f, -0.03147654f, -0.05580941f, 0.02451329f, -0.00796955f, -0.06075453f, -0.05650553f, -0.02344272f, -0.00811907f, -0.02770779f, -0.04851466f, -0.04558677f, -0.03936541f, 0.00693922f, -0.03965402f, 0.00224228f, 0.01474266f, 0.01990870f, 0.07756924f, 0.09374915f, -0.04279644f, 0.00832126f, -0.02748944f, 0.00299660f, -0.01587913f, 0.00318787f, 0.00208975f, -0.04338499f, -0.04634362f, 0.01532528f, -0.02176300f, 0.00898104f, -0.04510399f, -0.06419757f, -0.00072488f, 0.03311104f, 0.00997154f, -0.04988359f, 0.05438914f, 0.04489965f, -0.00476029f, 0.04838729f, 0.03702904f, 0.01723000f, 0.00615313f, -0.06073737f, 0.00723121f, -0.02334955f, 0.02369911f, -0.04870417f, -0.00518094f, 0.04130712f, -0.04304688f, -0.02340352f, -0.06573091f, 0.00553427f, 0.03494287f, 0.04512585f, -0.00515927f, -0.00409540f, -0.02371471f, -0.02552514f, 0.05768576f, -0.08977957f, 0.05878876f, 0.00761141f, 0.02781037f, -0.01296912f, 0.03513185f, 0.08340181f, 0.05087344f, 0.01012115f, -0.03105990f, 0.00002024f, 0.06044717f, -0.02371247f,
    /* [32] */ -0.03707618f, -0.00385005f, 0.02195273f, 0.09777027f, -0.03508611f, -0.03010305f, -0.02635639f, 0.02901510f, -0.00025701f, 0.03153661f, -0.01509866f, 0.00589524f, -0.01310817f, 0.01357570f, -0.04803481f, 0.02932102f, 0.00537764f, -0.03248477f, -0.04810521f, 0.02476379f, -0.04162420f, -0.01750634f, -0.14187224f, 0.08749097f, -0.05734326f, 0.06112371f, -0.07811655f, -0.00843243f, 0.03099456f, -0.02377649f, 0.02423528f, -0.03406418f, 0.00652065f, 0.04718396f, 0.00559928f, -0.05522107f, -0.00193773f, 0.04322389f, -0.01984078f, 0.03400556f, 0.06399766f, -0.03223816f, -0.01141072f, 0.00200551f, 0.06827706f, 0.04716894f, -0.05825600f, -0.02650136f, -0.00166472f, -0.02532199f, -0.00791901f, -0.10869832f, 0.05037579f, 0.05366483f, 0.00778599f, 0.03029068f, -0.00372934f, 0.00871781f, 0.05026937f, 0.00989024f, -0.03704397f, -0.00834585f, -0.07398321f, -0.00520239f, -0.01561597f, 0.02625084f, 0.04525945f, -0.02911643f, 0.02961313f, 0.02584423f, -0.06432559f, 0.04553822f, 0.01632760f, 0.05388916f, -0.00136335f, -0.02813314f, -0.09163922f, 0.07005927f, 0.01718259f, -0.06744764f, -0.01178025f, -0.03385460f, -0.01956810f, -0.01034160f, 0.01168560f, 0.04697372f, -0.00799715f, 0.03213466f, 0.01192691f, 0.01301773f, 0.00397490f, -0.02554861f, -0.08228572f, -0.05993476f, -0.05501499f, -0.02297000f, 0.00541944f, -0.00212231f, 0.03478524f, 0.05791013f, -0.03559505f, 0.03834869f, -0.03488432f, -0.00309316f, -0.03873162f, 0.05813649f, 0.03469944f, -0.05810166f, 0.01716845f, 0.01994061f, 0.00569785f, -0.04525618f, -0.05591856f, 0.07188216f, -0.01721924f, 0.01498161f, 0.02579475f, -0.01155246f, -0.00767263f, 0.04663321f, -0.07393060f, -0.03845422f, 0.02894844f, 0.03013298f, 0.02717235f, 0.08534788f, -0.08765386f, 0.01325866f,
    /* [33] */ 0.05450995f, 0.00370507f, 0.07027889f, 0.06704065f, 0.06063072f, 0.06415731f, 0.03810710f, 0.00858357f, 0.08784039f, 0.07485715f, -0.03358141f, 0.00709530f, -0.05527024f, -0.11131425f, 0.01072668f, 0.02665143f, -0.03396844f, 0.06933262f, 0.00356197f, -0.03487182f, -0.02878031f, -0.04187151f, -0.00526219f, -0.03389250f, -0.02806167f, -0.01531122f, 0.05732155f, -0.00112940f, -0.00070821f, 0.00557376f, -0.03580756f, -0.10780429f, 0.04402667f, 0.01467975f, 0.04755474f, 0.02305493f, 0.04174444f, 0.05530206f, -0.02737555f, 0.03934415f, 0.05493443f, -0.05917122f, -0.02616762f, -0.04206725f, -0.01265652f, 0.02834928f, -0.03300640f, 0.05416236f, -0.00258141f, -0.00915828f, -0.04276317f, -0.02310298f, 0.03217601f, -0.03959249f, -0.03334074f, 0.06424786f, 0.03738711f, -0.02266168f, 0.01687864f, 0.04663751f, 0.00173874f, 0.02270515f, -0.04435817f, 0.04992682f, 0.01224623f, 0.02873087f, -0.00059056f, 0.01774614f, 0.00908572f, -0.00315926f, -0.01435416f, 0.09260441f, -0.07425629f, 0.01647710f, 0.00667611f, 0.03559115f, -0.01916698f, 0.01787481f, 0.01529078f, 0.02579435f, 0.02585889f, 0.01920140f, 0.04549760f, -0.01181882f, 0.09540235f, 0.02008504f, 0.02111928f, 0.09830393f, 0.01348406f, -0.02670471f, 0.01352547f, -0.03065923f, -0.02150517f, -0.00579104f, -0.07457794f, 0.00905850f, 0.02780116f, 0.04769104f, 0.08096388f, 0.01630994f, -0.00566906f, -0.01238576f, 0.00288748f, -0.02060321f, -0.03306116f, -0.01794923f, 0.07098971f, -0.02396208f, 0.06753314f, -0.09511878f, -0.03487103f, 0.05706700f, -0.08829409f, 0.01063825f, 0.00040165f, -0.12839550f, -0.01926032f, 0.00603182f, -0.01334590f, 0.06110435f, -0.01006965f, -0.04483389f, 0.03260976f, -0.06182657f, 0.01490859f, 0.00779930f, -0.10134890f, -0.02917506f,
    /* [34] */ -0.04021599f, -0.05517751f, -0.01977999f, 0.05239367f, -0.02710614f, -0.03861263f, -0.00734849f, -0.05441586f, 0.05917320f, 0.02122547f, 0.10460879f, -0.02965329f, 0.00641759f, 0.05713256f, -0.00268455f, 0.01847500f, -0.01114117f, -0.00752050f, -0.01043023f, 0.08015814f, -0.04390064f, -0.03184197f, -0.12768640f, 0.03133547f, 0.00998229f, 0.06645680f, -0.00721726f, -0.02178918f, -0.04094171f, -0.09995156f, 0.07377890f, 0.01538608f, -0.00201688f, -0.05020431f, -0.07703694f, 0.06269469f, -0.01794726f, 0.06932652f, -0.00229621f, 0.01686878f, -0.02278416f, 0.02223059f, -0.08496821f, -0.00308242f, -0.02057051f, 0.06781599f, 0.04278647f, -0.04879373f, 0.01555581f, -0.11503952f, 0.00820799f, 0.01272573f, 0.01367269f, 0.05378924f, 0.06247297f, -0.02814554f, -0.03334878f, -0.02438816f, 0.05900418f, 0.07005337f, -0.00672273f, -0.06087627f, 0.05959959f, 0.00012895f, -0.01459568f, 0.03996266f, -0.03147010f, -0.00342077f, -0.03932318f, -0.00031534f, 0.00859983f, 0.04370870f, -0.04453774f, 0.04003437f, 0.02336666f, -0.01777397f, 0.03310600f, 0.00074871f, -0.04269429f, -0.05178037f, 0.05398977f, -0.01080148f, -0.01876475f, -0.00222100f, -0.06611178f, 0.08003800f, -0.01572298f, 0.02470250f, 0.02024558f, -0.03126412f, -0.01253557f, 0.05733557f, 0.00132053f, -0.05377129f, 0.04331086f, -0.01430377f, 0.01646609f, -0.05059509f, -0.05319304f, -0.04166240f, -0.01373505f, 0.00366253f, -0.03722800f, 0.00315955f, 0.01302344f, 0.04298647f, 0.02026147f, -0.01737651f, 0.04331236f, -0.07768467f, -0.00506778f, 0.00332773f, -0.01868542f, 0.02447911f, -0.05953760f, -0.14746059f, 0.00982790f, 0.03491751f, -0.03123494f, -0.08696847f, 0.01734657f, -0.04220533f, -0.02757620f, -0.03915687f, 0.00702576f, 0.00975431f, -0.01232202f, -0.09703829f,
    /* [35] */ -0.06807724f, 0.07664108f, -0.02164332f, 0.00100804f, 0.04013118f, 0.04938871f, 0.05404479f, 0.05401412f, -0.00174268f, -0.05407738f, 0.03955982f, -0.01221195f, -0.05032330f, -0.02560644f, 0.00709675f, 0.01380954f, 0.00551991f, -0.02833086f, -0.00074767f, 0.02498329f, -0.01276058f, 0.02731754f, -0.05541088f, 0.01365337f, -0.01068463f, -0.00925463f, -0.07264167f, -0.02238694f, 0.02633306f, -0.05541081f, 0.08929709f, -0.04330447f, 0.00581349f, 0.06855320f, -0.00509993f, -0.03020540f, 0.02315310f, 0.02494391f, 0.00752790f, -0.03762775f, -0.03534857f, 0.03012004f, 0.00203777f, 0.06587194f, -0.01507669f, 0.00115987f, -0.00513094f, -0.02452031f, 0.04383836f, -0.04438265f, 0.01812143f, -0.05690576f, -0.00470264f, 0.05114112f, 0.02891305f, 0.05053249f, 0.01671596f, 0.02639347f, 0.06035536f, 0.06689360f, -0.04122309f, -0.07556433f, -0.00643577f, -0.01056621f, -0.01496008f, 0.05812217f, -0.02988087f, 0.07061601f, -0.00743202f, 0.02015470f, -0.02366921f, 0.02011609f, 0.08956299f, 0.05343485f, -0.03494639f, -0.03134502f, 0.03699791f, 0.02509916f, 0.03372154f, 0.05059958f, 0.03809763f, 0.02613131f, 0.04481981f, -0.02441253f, 0.01094132f, 0.06801332f, -0.03411069f, 0.02278211f, 0.02237088f, 0.02677249f, -0.03273455f, 0.08961981f, -0.02251090f, -0.01049781f, 0.03003435f, -0.00198796f, -0.00628880f, -0.01201756f, -0.02913458f, 0.01593137f, 0.03524444f, 0.00468553f, 0.00619054f, 0.00488481f, 0.01444422f, -0.05735828f, 0.07017321f, -0.07546995f, -0.04611560f, 0.04347996f, 0.03102674f, -0.02991735f, 0.05487456f, -0.03882639f, 0.00194079f, 0.05907612f, -0.01024065f, -0.05081223f, -0.08232613f, 0.01789365f, -0.04220869f, -0.02699402f, 0.02049498f, -0.01275164f, 0.02580614f, 0.03941301f, 0.02825456f, 0.02301559f,
    /* [36] */ -0.07504950f, 0.04339549f, 0.04418418f, -0.04795113f, 0.08706729f, -0.03234221f, 0.04226251f, 0.00412111f, -0.02196178f, -0.00045903f, -0.03768910f, -0.05705854f, 0.03765978f, 0.02055433f, 0.02898250f, 0.01570098f, -0.00859187f, -0.09428795f, -0.00747520f, -0.04897273f, -0.07874797f, 0.02251256f, 0.01203429f, 0.01189622f, -0.00591431f, 0.01007041f, -0.06078721f, 0.03995001f, -0.01526422f, 0.02823836f, -0.03159117f, 0.08748849f, 0.00879322f, 0.02856228f, 0.01891257f, 0.02575801f, 0.03806480f, -0.03672190f, -0.04495151f, 0.01923912f, 0.08287167f, 0.00470317f, 0.04362338f, -0.01963121f, -0.03140325f, 0.04326203f, 0.04448500f, 0.02367553f, -0.05628586f, -0.11133438f, -0.00381094f, 0.04933970f, -0.02558501f, 0.04596712f, 0.00270039f, -0.05668445f, -0.00053452f, -0.02942083f, 0.01293183f, 0.02013149f, -0.06492347f, -0.02484202f, -0.01142918f, 0.07837504f, -0.00449544f, 0.05172054f, -0.00641843f, 0.02968051f, 0.01299535f, -0.00239257f, 0.03521210f, 0.01568775f, 0.00766416f, -0.03459914f, -0.02844172f, -0.05034902f, 0.02312513f, -0.01133747f, -0.00455849f, -0.01189236f, 0.05640668f, 0.05846158f, 0.01822976f, 0.04639172f, 0.04711214f, -0.01352756f, 0.02342389f, -0.00432990f, -0.02584895f, -0.01372154f, 0.03078194f, -0.05039394f, 0.02137761f, 0.05386657f, -0.00182927f, 0.01623566f, 0.04994245f, -0.00588166f, 0.03533159f, -0.03595746f, -0.03808489f, -0.00173880f, -0.08436950f, 0.01112012f, 0.00448074f, -0.01473982f, -0.04632397f, -0.00377732f, -0.07582495f, -0.00858580f, 0.01869033f, 0.01248731f, 0.01066435f, -0.00461666f, 0.00182788f, 0.03460051f, -0.00641825f, -0.03393054f, -0.02869199f, 0.05134968f, -0.03102222f, -0.06588489f, 0.04583626f, -0.04587265f, 0.03581410f, -0.03409437f, -0.01506863f, 0.09506382f,
    /* [37] */ 0.01475941f, 0.05789213f, -0.00268562f, -0.05611654f, 0.02709764f, -0.03296321f, -0.00948449f, -0.00896450f, -0.02363109f, -0.07547928f, -0.02864690f, 0.04154070f, -0.09457830f, 0.02471174f, -0.03296662f, 0.00162071f, -0.05557125f, -0.01969547f, 0.01368225f, 0.04759222f, -0.02900328f, -0.01629184f, 0.00082143f, -0.01035286f, 0.00447388f, -0.02486304f, 0.01793084f, 0.03821746f, -0.06184054f, 0.02287716f, -0.00505094f, -0.05325205f, 0.08303435f, 0.04519864f, 0.04283825f, -0.01763436f, -0.02680844f, -0.03434066f, 0.03919152f, 0.05357762f, 0.03177815f, 0.02132350f, 0.07471706f, 0.01274189f, 0.00468758f, 0.02453749f, 0.02133426f, 0.01346900f, -0.01413949f, 0.01451302f, 0.01673492f, -0.00341643f, 0.05279963f, 0.03017754f, 0.01822323f, -0.02366552f, -0.00026575f, -0.02350742f, -0.12285098f, 0.06027836f, -0.02396311f, -0.02997987f, 0.00677502f, 0.00705625f, 0.03119994f, 0.01867631f, 0.03243196f, 0.03386014f, 0.02768184f, 0.04395436f, -0.03652727f, 0.04231568f, 0.01223887f, 0.00069405f, -0.00017427f, -0.01320798f, 0.04598450f, 0.02103306f, -0.02545273f, 0.05550392f, 0.01766976f, -0.01289229f, 0.01038972f, -0.04626590f, 0.08009372f, -0.01838523f, -0.01334667f, -0.00725948f, 0.00087188f, -0.00868170f, 0.02618683f, 0.03796564f, -0.02637428f, 0.00061064f, 0.00349668f, 0.01258752f, 0.02766818f, -0.00158008f, 0.04815720f, -0.02870253f, -0.03820136f, -0.00296909f, -0.07172146f, -0.00526886f, -0.01081199f, -0.00684225f, 0.01967836f, 0.06711091f, -0.13895901f, 0.10531548f, 0.01688248f, 0.06059413f, -0.00106029f, -0.02714228f, -0.03298928f, 0.12272172f, 0.01972102f, -0.00005120f, 0.02459643f, 0.01396146f, 0.02474938f, 0.04690916f, -0.05386039f, -0.02903726f, 0.04908343f, -0.00352967f, 0.00801776f, -0.00382239f,
    /* [38] */ -0.03471737f, -0.03490255f, 0.00063385f, -0.03777259f, 0.00930067f, -0.04893683f, -0.04404238f, -0.00920442f, -0.03552522f, 0.02217392f, 0.00488045f, 0.00052128f, 0.00666831f, -0.00950820f, 0.04824937f, -0.00629277f, 0.06501287f, -0.00070919f, -0.00940337f, -0.00639555f, -0.04504817f, -0.02623839f, 0.03217690f, -0.04637759f, -0.02123892f, 0.02510364f, -0.02816142f, 0.02773311f, -0.03705960f, -0.06118656f, -0.03057175f, -0.07093892f, -0.03218709f, -0.03757718f, 0.01470180f, -0.11156046f, -0.01480823f, -0.01038626f, 0.00062276f, 0.01729456f, 0.08369734f, 0.00021568f, -0.02596152f, 0.02677045f, 0.03460244f, 0.03278890f, 0.00231066f, -0.05210334f, -0.01258238f, 0.00690355f, -0.06977078f, 0.05533856f, -0.06354095f, -0.01174502f, 0.00747883f, 0.01486505f, -0.00442986f, -0.09788940f, -0.00677704f, 0.04042007f, 0.00891557f, 0.06348405f, 0.00141063f, -0.05340031f, 0.02623838f, 0.00721241f, 0.01056488f, 0.01372646f, -0.03924382f, -0.01562307f, 0.03381310f, -0.01762085f, 0.02437240f, 0.01279536f, -0.09643599f, -0.04179319f, -0.00696985f, 0.03268173f, -0.06317875f, 0.05794034f, 0.03218729f, 0.05737851f, 0.03734995f, 0.01234516f, -0.03860919f, -0.03939062f, -0.04285084f, 0.02018898f, 0.07216372f, 0.05984199f, 0.03154270f, 0.06035062f, 0.01588028f, -0.04690045f, -0.02105844f, 0.01556876f, -0.01659449f, 0.02529838f, 0.02654457f, -0.04044346f, 0.01474873f, 0.00448828f, -0.00397554f, -0.04206126f, -0.01192472f, -0.02176460f, 0.01543465f, 0.02891571f, -0.10274322f, -0.04843865f, 0.03545009f, -0.02630278f, 0.02566932f, -0.02284250f, -0.01605948f, -0.07899235f, 0.06200645f, 0.00852775f, -0.02292174f, 0.06350463f, 0.02998330f, 0.01711743f, -0.00125092f, 0.00516177f, -0.01338652f, 0.00696408f, 0.02795692f, -0.00885310f,
    /* [39] */ -0.02086514f, 0.03473989f, 0.11345670f, 0.01861991f, -0.07174715f, 0.00391414f, 0.02763490f, -0.07567813f, 0.03987310f, 0.06892976f, -0.06104382f, -0.05957030f, 0.03294745f, -0.02657240f, 0.02026275f, -0.03763577f, -0.00817730f, 0.00736778f, 0.02498411f, -0.04792357f, 0.03289701f, -0.00409452f, 0.02860214f, 0.00234950f, -0.08679567f, -0.06522075f, 0.01354177f, 0.00922223f, 0.05061365f, -0.01115280f, -0.00001819f, -0.10134524f, 0.01950293f, -0.05049593f, -0.04075222f, 0.01324244f, 0.00812347f, 0.04035985f, -0.06464648f, -0.05530813f, 0.01692593f, -0.06252704f, -0.06114102f, -0.00444435f, -0.00572732f, -0.00338050f, -0.06827668f, 0.04887901f, 0.01276078f, 0.00311624f, -0.00227992f, -0.07451548f, -0.02073235f, -0.02823669f, -0.02136316f, -0.03301404f, -0.00403227f, -0.04764906f, 0.04039587f, 0.02680089f, 0.03899070f, -0.02220333f, 0.00248663f, -0.01209887f, 0.06116314f, -0.02693542f, 0.01609301f, -0.00858094f, -0.04318096f, 0.03123612f, -0.01824639f, 0.05560821f, -0.00967824f, -0.00144699f, 0.08646830f, -0.00236159f, -0.04798320f, -0.03882318f, 0.03469213f, -0.05730930f, -0.04114277f, -0.10467830f, 0.01236793f, -0.03671145f, 0.04048469f, 0.02187902f, -0.01227888f, -0.01864317f, 0.03918754f, -0.00078836f, 0.07463129f, 0.01093592f, -0.01014458f, 0.05890646f, 0.04587895f, 0.01022986f, 0.00823271f, -0.01537684f, -0.03406934f, 0.01760736f, -0.03472433f, 0.01339219f, 0.00198078f, 0.06313774f, -0.03356855f, 0.06288580f, -0.02715561f, 0.06028314f, 0.11082715f, 0.03935876f, 0.01103930f, 0.00467285f, 0.01762874f, 0.01589589f, 0.00300471f, 0.01607113f, 0.02254883f, 0.02951396f, 0.01092974f, 0.02324967f, 0.00814372f, -0.03540133f, 0.06798934f, -0.01461631f, 0.00948952f, -0.04057523f, -0.08309481f, -0.00561325f,
    /* [40] */ -0.06715818f, -0.02826642f, -0.01871719f, 0.04587991f, 0.02612033f, -0.02998526f, -0.02936229f, -0.06520822f, 0.04039309f, 0.03749161f, 0.01916782f, -0.01867958f, -0.04012453f, -0.03739273f, 0.10762937f, 0.01671281f, 0.03594957f, -0.05101978f, -0.04233503f, -0.05605457f, -0.01422187f, 0.02050516f, 0.07891456f, 0.02970960f, -0.04462477f, 0.02703151f, -0.07336605f, -0.02418088f, -0.00133932f, 0.00197425f, -0.01479354f, 0.04164905f, -0.03317105f, -0.06614961f, -0.01806851f, 0.03686459f, 0.04638441f, -0.03483243f, -0.05758691f, -0.01086522f, -0.02792287f, -0.01217416f, 0.04254466f, 0.00896013f, 0.03737473f, 0.05338688f, 0.01703967f, 0.09549221f, 0.01247778f, 0.05927863f, -0.06382282f, -0.00858054f, 0.05039066f, 0.00488991f, -0.01415865f, 0.06535936f, -0.09139226f, -0.01934479f, 0.04283657f, 0.06255682f, 0.00212406f, 0.10682273f, 0.01527651f, 0.05770390f, -0.05472970f, -0.04203185f, 0.02663561f, -0.01516663f, -0.00970394f, -0.04647109f, 0.00809664f, -0.07760323f, -0.04260949f, -0.00738649f, 0.02670096f, 0.05447557f, 0.01450461f, -0.00432906f, 0.03104667f, -0.03768652f, -0.06242361f, 0.00336991f, 0.01505018f, -0.01415342f, -0.02350013f, 0.08902323f, 0.02891899f, -0.01365971f, 0.00951844f, 0.09126244f, -0.01224914f, 0.05334866f, -0.07072105f, 0.04962853f, -0.00089249f, -0.00493691f, -0.00462662f, -0.03369301f, -0.00247262f, 0.04471465f, -0.04018915f, 0.03275602f, -0.00033454f, -0.03851038f, -0.03720420f, 0.03096499f, 0.01754311f, 0.01717782f, -0.00195447f, -0.04789707f, -0.04340861f, 0.04558147f, 0.00686027f, -0.01138226f, 0.02491592f, -0.05073557f, 0.01766707f, -0.08800247f, 0.00978993f, 0.01540199f, 0.07086404f, -0.04961788f, -0.03812328f, -0.01786762f, -0.01913021f, 0.03321924f, 0.09532690f, 0.06192672f,
    /* [41] */ 0.00680983f, -0.05864318f, -0.01821635f, 0.03835637f, -0.08827168f, -0.08407211f, -0.02531903f, -0.00782028f, -0.02863864f, -0.04403159f, 0.00189832f, -0.02121692f, 0.00910019f, -0.08457611f, 0.02633497f, 0.00594332f, 0.01507513f, 0.02395668f, -0.04856972f, 0.00230216f, 0.01210906f, 0.04375450f, -0.05355383f, -0.01592423f, -0.02103929f, -0.02528022f, -0.09955263f, -0.02507891f, 0.01698155f, 0.07113134f, 0.02981221f, 0.03357863f, -0.01654518f, 0.05953417f, -0.04160789f, 0.00467624f, -0.07553237f, -0.06815038f, 0.08779952f, -0.00802460f, 0.02371741f, -0.02460142f, -0.06881508f, -0.01557739f, 0.00728395f, 0.05338020f, -0.04062651f, -0.00943281f, 0.08086861f, 0.01478658f, -0.00271239f, -0.00317403f, -0.00342841f, -0.00438412f, -0.01313334f, 0.02694513f, -0.01657707f, -0.05728309f, 0.00251436f, -0.03371963f, 0.01577474f, 0.01300666f, 0.01074279f, -0.01276653f, -0.02813829f, 0.05262554f, -0.00019092f, 0.03080840f, -0.03484277f, 0.01717918f, -0.06465843f, 0.03397119f, -0.00903335f, 0.00438731f, 0.05905563f, -0.02905147f, 0.02389930f, 0.06175621f, -0.08972799f, -0.01703585f, -0.02301056f, 0.04140428f, -0.02942975f, 0.00900353f, 0.03107732f, -0.05881137f, -0.04199617f, -0.01933121f, -0.04002929f, -0.07401826f, -0.03210570f, -0.02966256f, 0.03715374f, -0.01138934f, -0.01966355f, 0.06815594f, -0.04623456f, -0.01757506f, 0.01988789f, 0.01722753f, 0.01709984f, -0.00814409f, -0.03550856f, -0.02927078f, 0.01077787f, -0.05127444f, 0.03234382f, 0.05133864f, 0.01034991f, -0.07727829f, -0.06556237f, 0.03876410f, -0.00854179f, 0.00234872f, 0.06165330f, -0.11662527f, 0.04381554f, 0.06245465f, 0.08481176f, 0.01527681f, 0.01202994f, 0.03748723f, 0.03398262f, -0.01682163f, -0.03297387f, -0.05318590f, 0.03215383f, -0.02932863f,
    /* [42] */ -0.01346723f, -0.00023788f, -0.12855196f, -0.01970164f, -0.06823470f, -0.01529841f, -0.03248486f, -0.00864240f, 0.04168957f, 0.06868706f, 0.00263820f, 0.05480671f, -0.01719775f, 0.04352949f, 0.02334151f, 0.02645243f, -0.04087541f, 0.07175144f, -0.04882649f, -0.03833843f, -0.09931423f, 0.00736501f, 0.00866883f, 0.01058049f, -0.02026413f, 0.02230182f, 0.03135200f, 0.00607398f, 0.08703692f, 0.03649862f, -0.00966190f, 0.01521118f, -0.03366683f, 0.02043479f, 0.05038518f, -0.05714826f, 0.03321335f, -0.01460750f, -0.04098993f, 0.04216528f, -0.02027269f, 0.02678231f, 0.01059581f, 0.05429270f, -0.00463002f, 0.02554727f, -0.08114187f, 0.00544020f, -0.03299176f, -0.02071822f, 0.00501571f, -0.10624925f, -0.02668478f, 0.00112111f, -0.02318863f, 0.02724094f, -0.00657449f, 0.04487248f, 0.03867339f, 0.04299563f, 0.02310996f, 0.02156414f, 0.03014864f, -0.00317930f, 0.11770277f, 0.01144906f, 0.04115285f, -0.02010263f, -0.01426009f, 0.09232909f, -0.01512328f, -0.03044835f, 0.05113699f, 0.00549275f, 0.00573293f, -0.07629361f, 0.03329480f, 0.00013198f, -0.01528005f, -0.06409212f, -0.01116766f, -0.05664172f, 0.00986233f, 0.04584467f, 0.04548875f, -0.00000121f, 0.05368869f, 0.07249337f, -0.01395411f, 0.00401529f, -0.04588865f, 0.01665035f, -0.02415869f, -0.01149821f, 0.00675475f, -0.00259134f, -0.01103420f, -0.02798101f, 0.02573619f, 0.07064418f, -0.02211337f, -0.00967515f, 0.02924585f, -0.01450717f, 0.00609248f, 0.01471876f, 0.07575314f, -0.01772331f, -0.02311592f, 0.05728686f, 0.01997151f, 0.04820872f, 0.02751175f, -0.02466591f, -0.07324447f, 0.03229486f, -0.02163416f, -0.02858665f, -0.04540557f, 0.05785047f, -0.07759329f, 0.03150010f, 0.00328178f, -0.09807911f, 0.01403689f, 0.00360000f, -0.02457720f, -0.08781977f,
    /* [43] */ 0.04038310f, 0.00533667f, 0.09026426f, 0.06176897f, -0.06836589f, 0.00296646f, 0.00163058f, 0.04142189f, -0.03716876f, -0.00303270f, -0.04894660f, 0.03316724f, -0.04418896f, -0.07473426f, -0.01566667f, 0.01646168f, 0.01150697f, 0.00767029f, 0.03954551f, 0.02143024f, 0.11790375f, -0.05195406f, -0.03124032f, 0.05727416f, -0.01287604f, 0.09732315f, -0.09109712f, -0.06491620f, -0.06020463f, -0.03854850f, 0.07613214f, 0.02041678f, -0.03298866f, 0.06161326f, 0.02339318f, -0.02212900f, 0.07739822f, -0.05518875f, -0.01304632f, -0.00989493f, 0.02242986f, -0.00178140f, -0.07166974f, 0.02978016f, -0.09744900f, 0.00211068f, 0.04567907f, 0.03536428f, -0.01147387f, -0.05025322f, -0.04149520f, 0.04824743f, 0.01981260f, -0.00382523f, -0.03523833f, -0.01211150f, -0.00076428f, -0.03353695f, 0.00620974f, 0.00385362f, -0.03368358f, -0.01323995f, -0.04164958f, 0.00725521f, 0.04183142f, -0.04810933f, -0.00574808f, -0.07069457f, 0.02572125f, -0.06393301f, 0.00747133f, 0.07581312f, -0.05464419f, 0.00357364f, -0.04551414f, -0.02034252f, 0.08802653f, -0.05544144f, 0.01380089f, -0.00315381f, 0.04736279f, -0.00684196f, -0.04185596f, 0.01339894f, 0.00809530f, -0.01679865f, -0.00199548f, 0.02484145f, 0.02349056f, 0.07180325f, -0.05424478f, 0.04566788f, -0.01244718f, -0.00931230f, 0.07882411f, -0.04615572f, -0.04847242f, -0.00706959f, 0.04237762f, -0.04093061f, 0.01714149f, -0.03662081f, -0.06297867f, 0.03199820f, 0.04229397f, 0.03822982f, -0.03339166f, -0.01922342f, 0.03109666f, -0.00130246f, -0.04436150f, -0.01651326f, -0.01597527f, 0.00266002f, 0.02892796f, -0.06916068f, 0.11487408f, 0.05613630f, 0.04400305f, 0.04878836f, -0.03613178f, 0.04614148f, 0.04074821f, 0.02069122f, 0.05456586f, 0.06579909f, -0.00357806f, 0.02630899f,
    /* [44] */ 0.04685753f, 0.03550866f, -0.03628578f, 0.00174430f, 0.04599213f, -0.01540184f, 0.08036181f, 0.05877847f, -0.00714682f, -0.02732690f, -0.02261503f, -0.03182016f, 0.02094523f, -0.00358723f, -0.00488130f, 0.00181838f, 0.01154760f, 0.04447200f, 0.01137245f, 0.02013481f, -0.02701777f, -0.02149796f, 0.01184365f, -0.02396199f, 0.00005090f, 0.04884804f, 0.00563961f, -0.03896522f, -0.05776817f, 0.00891478f, -0.04196709f, 0.07111549f, 0.01990198f, 0.04503220f, 0.00197412f, -0.05076319f, 0.01569786f, -0.00552413f, 0.00925425f, 0.02853619f, 0.02626632f, 0.01542449f, 0.00984137f, 0.07134379f, 0.00705501f, 0.02281893f, -0.05039785f, -0.03610550f, -0.02953386f, -0.07329711f, -0.06437247f, 0.00727512f, -0.12310305f, -0.02451137f, -0.04587870f, 0.01372979f, 0.05980523f, -0.02980394f, -0.06695966f, 0.00993790f, -0.01376809f, -0.04288306f, 0.01740922f, -0.00764525f, 0.04536554f, 0.02869934f, -0.04006564f, -0.01722424f, 0.01164802f, -0.02564209f, 0.03045451f, 0.02761267f, 0.03165840f, 0.01610653f, 0.02406078f, -0.00201649f, -0.00058901f, -0.01967913f, -0.00317445f, -0.01975562f, 0.00711775f, 0.03133826f, -0.07125133f, 0.01718164f, -0.03068708f, -0.04575388f, -0.01459635f, -0.00975594f, 0.03180042f, -0.06251527f, -0.00624046f, 0.10105086f, -0.05028038f, 0.00245290f, 0.11729634f, 0.04908541f, 0.03189407f, -0.01021874f, 0.01084531f, -0.02798177f, 0.01051700f, -0.06321662f, 0.00997515f, 0.01520357f, 0.12096140f, 0.01403384f, 0.00093208f, 0.01969581f, -0.03902591f, -0.03923558f, 0.02871314f, -0.01124831f, 0.00212320f, 0.02195342f, 0.00736534f, 0.02784670f, -0.10719262f, 0.00360254f, 0.04529354f, 0.00965322f, -0.05342637f, -0.01598911f, -0.01191761f, -0.00898012f, -0.05562490f, -0.00480761f, -0.08417389f, -0.08322784f,
    /* [45] */ -0.03624484f, 0.03208734f, -0.03250411f, 0.07105958f, 0.05056180f, 0.04001376f, 0.01242075f, 0.01606056f, -0.05223625f, 0.01981513f, 0.02507702f, 0.03388434f, -0.04711200f, -0.06490587f, 0.02202231f, 0.02508341f, -0.02162021f, -0.02156437f, 0.04556095f, -0.00372026f, -0.06144241f, -0.03706672f, 0.03776020f, 0.06445125f, -0.03587764f, -0.04581606f, -0.07377852f, 0.00841324f, 0.02523140f, 0.00259600f, 0.01903218f, 0.00999262f, -0.00230688f, -0.00843539f, 0.02082917f, -0.01160712f, 0.01014132f, -0.00984654f, -0.08101778f, 0.03694388f, -0.00867642f, 0.01193192f, -0.04338617f, 0.05530376f, -0.02411667f, -0.05210047f, 0.02616784f, -0.02060177f, -0.00159309f, -0.05808596f, 0.02351305f, -0.03839185f, 0.01724353f, -0.02997097f, 0.00984608f, -0.01216505f, -0.01956324f, -0.01210663f, 0.07639056f, 0.03867938f, -0.01536450f, -0.06680419f, 0.02169472f, 0.01190786f, 0.01885514f, -0.00072017f, -0.02101468f, 0.01848219f, -0.02698928f, 0.01199191f, -0.01996105f, 0.04631957f, -0.00794666f, -0.01307860f, -0.01209633f, -0.01011062f, 0.00162432f, 0.02897031f, -0.04963827f, -0.02258483f, -0.01866788f, 0.00395598f, -0.02763653f, -0.04008240f, -0.01107557f, 0.02695886f, 0.05640070f, -0.00475283f, 0.01650931f, 0.03647983f, -0.03510528f, 0.07275471f, -0.05696571f, -0.02736659f, 0.00261855f, -0.00123047f, 0.00937094f, -0.03825739f, -0.00599608f, 0.01009702f, 0.02584833f, -0.00460088f, 0.04135687f, -0.03172243f, -0.00740400f, 0.04029363f, -0.02342572f, -0.04895943f, -0.03036445f, -0.01089981f, 0.01296343f, -0.05149014f, 0.00985732f, -0.03560140f, 0.03267737f, 0.01340219f, 0.02517134f, 0.05520682f, -0.04025418f, 0.01707085f, -0.02429703f, 0.04141291f, 0.00136584f, 0.00025570f, -0.01851418f, 0.01190358f, 0.00310447f, 0.07185797f,
    /* [46] */ 0.03130287f, 0.04741143f, 0.06121247f, -0.07580567f, -0.05124484f, 0.01778858f, 0.06824885f, 0.02358138f, 0.01523636f, -0.01380932f, 0.03039705f, 0.03706869f, -0.01295798f, 0.00029206f, -0.13484576f, 0.01318289f, 0.00654948f, 0.03444125f, -0.07813840f, 0.01648882f, -0.02882212f, 0.02171814f, 0.12633790f, 0.02195077f, 0.05047305f, 0.05654101f, -0.04837954f, 0.04967786f, 0.05361096f, -0.00802971f, 0.02619183f, 0.08024796f, -0.00032794f, -0.01420766f, 0.09106684f, -0.00763151f, 0.02293523f, 0.02945727f, -0.01670933f, 0.04076996f, 0.00454318f, -0.03604865f, 0.01503234f, 0.01046309f, 0.01022390f, -0.01110328f, 0.02161873f, -0.02633355f, 0.05553130f, 0.04593702f, -0.01939576f, -0.00681367f, 0.00939788f, 0.04857905f, 0.02409342f, -0.10501499f, 0.03286893f, -0.15391389f, -0.01448339f, 0.04397660f, -0.04848525f, 0.07301167f, 0.00891649f, 0.03099947f, -0.01477758f, 0.01259474f, -0.01017580f, 0.05589056f, -0.00978461f, 0.04525900f, 0.04779933f, 0.00119668f, -0.08310397f, 0.01339850f, 0.00982488f, -0.02403439f, 0.00595987f, 0.02788518f, -0.00326684f, -0.01324065f, -0.00274327f, 0.02327058f, 0.04105677f, 0.02038359f, -0.00963749f, -0.00200294f, 0.00049156f, 0.03340342f, -0.00309830f, -0.04604616f, -0.04654741f, 0.01008324f, 0.05281890f, -0.02041700f, 0.02758358f, -0.04768086f, 0.02883638f, -0.03877847f, 0.00900009f, 0.04062019f, -0.00386429f, -0.00925394f, 0.04801212f, 0.03709416f, -0.01501141f, -0.00288247f, 0.00204453f, 0.01589706f, -0.01309958f, -0.05729369f, 0.01234097f, 0.04483477f, -0.01479083f, -0.01441027f, -0.03325286f, 0.05450179f, -0.02982629f, -0.02368333f, -0.04773908f, -0.00479710f, -0.03570860f, 0.04619417f, -0.00418473f, -0.07506820f, -0.00674240f, 0.04126402f, 0.03300326f, -0.01721327f,
    /* [47] */ -0.00622974f, -0.03865906f, -0.02689089f, 0.07795427f, 0.01853509f, -0.04307786f, -0.01979960f, -0.06271116f, -0.01206722f, -0.06423812f, 0.06335143f, 0.00901765f, -0.01718488f, -0.07745559f, -0.01509281f, -0.04728950f, -0.04085331f, 0.01497687f, 0.01974356f, 0.00528258f, 0.00577177f, -0.00440873f, -0.06540650f, -0.03979905f, 0.02557032f, -0.01109365f, -0.03077236f, -0.01807640f, -0.00271068f, -0.00793468f, -0.00034562f, -0.05592865f, 0.00209523f, -0.01813010f, 0.00556660f, 0.02835730f, -0.01583580f, -0.07873049f, 0.01034404f, 0.05669110f, -0.02999833f, 0.01688961f, 0.09385878f, -0.07497992f, 0.06675048f, -0.07333970f, -0.01718294f, -0.01263093f, 0.00216515f, 0.00187836f, 0.03253472f, 0.06066062f, 0.05654436f, -0.02408609f, -0.02713148f, -0.02713837f, -0.00573982f, 0.00461000f, -0.06626175f, -0.01245927f, 0.03759581f, -0.04390090f, -0.00172928f, -0.00052961f, -0.05332043f, -0.02459317f, -0.01043318f, 0.01378597f, -0.00584711f, -0.05199400f, 0.07133916f, -0.04489264f, -0.03458363f, 0.00713332f, 0.01230828f, -0.00019563f, 0.00125062f, -0.00947452f, 0.00070222f, -0.01233498f, 0.01153063f, 0.00745927f, -0.02346813f, -0.03932706f, -0.05048198f, 0.03678326f, 0.05465960f, -0.05423854f, -0.04393659f, 0.00733927f, 0.03296587f, 0.07113528f, -0.05954076f, -0.02838515f, 0.05800227f, -0.00562554f, -0.00181778f, 0.02329340f, -0.03851653f, -0.04833649f, 0.00285066f, 0.03281699f, 0.04668875f, -0.00670308f, 0.01741611f, -0.03496161f, 0.00704535f, -0.04468644f, -0.00022778f, 0.02872850f, 0.01633825f, -0.09913514f, 0.01418937f, -0.02305959f, -0.02412613f, 0.03522694f, -0.01530928f, 0.01828888f, 0.01628219f, 0.05929255f, -0.08063576f, 0.04675471f, -0.03620515f, 0.12353425f, -0.01922362f, -0.08257141f, -0.01474087f, -0.07716832f,
    /* [48] */ 0.01147770f, -0.00806370f, -0.02989294f, -0.01587398f, 0.01968350f, 0.01568429f, 0.04259370f, -0.10631691f, -0.03305722f, 0.00585491f, 0.01955907f, 0.01190914f, -0.00610668f, 0.04791991f, 0.05352354f, -0.04795851f, 0.03313437f, 0.01530649f, 0.04057171f, 0.02500331f, -0.05910448f, -0.00886420f, -0.02745432f, -0.02899391f, -0.02794598f, 0.04446276f, -0.10533164f, -0.00724850f, 0.01292201f, -0.02230081f, 0.04194494f, 0.01757440f, -0.02878859f, 0.05921058f, -0.03085361f, -0.04118237f, 0.06300040f, -0.04983814f, 0.02131815f, 0.02457698f, 0.01471859f, 0.01272824f, 0.13741384f, -0.06134813f, 0.07406688f, 0.04142386f, 0.07009608f, 0.02135338f, 0.00159901f, -0.04363808f, -0.01154220f, 0.00569602f, 0.03204244f, 0.09925097f, 0.00186195f, -0.10482410f, 0.02583433f, -0.07197647f, -0.02139732f, -0.01049159f, 0.04848617f, 0.02664742f, 0.02105530f, 0.01535248f, 0.02692960f, -0.04624287f, -0.00315291f, -0.02100411f, 0.04052643f, 0.00440645f, -0.00414222f, -0.00726675f, -0.05085283f, 0.04024645f, -0.01265681f, 0.00459266f, 0.02299889f, 0.03605648f, 0.02413182f, -0.02598842f, -0.00477057f, -0.01020714f, -0.00658998f, -0.04377932f, 0.01949170f, 0.05291451f, -0.00201912f, -0.04509823f, -0.02152634f, -0.02047033f, -0.08948717f, -0.05309627f, 0.03294658f, 0.04987378f, -0.08643994f, 0.01167460f, 0.04457584f, 0.02503526f, -0.03838162f, 0.01399237f, 0.02665715f, 0.05657632f, -0.04717366f, 0.03813207f, 0.02926915f, -0.01886711f, 0.00988351f, 0.03005731f, -0.00104949f, 0.05302886f, -0.01069067f, -0.04706128f, 0.01935436f, 0.02983497f, -0.00147400f, 0.01935081f, -0.10268046f, -0.01893976f, -0.01250549f, 0.06831947f, 0.08288835f, -0.02754327f, -0.03176765f, 0.07150165f, -0.00028916f, 0.03739707f, -0.00577039f, -0.03153371f,
    /* [49] */ -0.04083783f, 0.02994076f, 0.05457101f, -0.03321967f, -0.02614431f, 0.10161832f, 0.05861891f, 0.03115010f, 0.01193610f, -0.04935298f, 0.10976985f, 0.06106265f, -0.00042678f, -0.04305400f, -0.00910157f, -0.02741890f, 0.00924916f, -0.04077520f, 0.01142053f, -0.02732391f, -0.00012770f, -0.03526525f, -0.04801223f, 0.01420678f, 0.04606099f, 0.06026357f, 0.03788164f, -0.00604244f, -0.10420255f, -0.02794519f, -0.02545294f, -0.02519866f, -0.01264850f, 0.05517139f, -0.00050891f, 0.05574849f, 0.01703618f, -0.00126484f, 0.05104080f, -0.00794703f, 0.05209075f, 0.01492667f, 0.02270042f, 0.00954376f, 0.05588643f, -0.01208386f, 0.02455112f, 0.00303578f, -0.10080838f, 0.02729897f, -0.02246012f, -0.00839287f, -0.04846229f, -0.07042907f, -0.00450865f, 0.08041029f, 0.07797172f, -0.01961277f, -0.00651923f, 0.07367633f, -0.03210616f, -0.01978190f, -0.06611729f, 0.07388505f, 0.01591415f, 0.02072605f, -0.03074433f, -0.05812005f, 0.01592299f, 0.02298505f, 0.12081233f, -0.05024952f, -0.01575418f, -0.03160954f, -0.04992170f, -0.07507910f, 0.01528244f, 0.04381009f, -0.00495412f, -0.00287970f, 0.00906388f, 0.05992285f, -0.02460952f, -0.00063836f, 0.00406667f, 0.00328703f, -0.04611161f, 0.05624912f, 0.07866354f, 0.04181601f, 0.02910174f, -0.04076780f, -0.05292087f, -0.08205020f, 0.01963251f, -0.05880646f, -0.05257459f, -0.02564622f, -0.02340258f, -0.03045274f, 0.09117681f, 0.02389237f, 0.00484571f, 0.03887103f, 0.05068218f, 0.01184081f, 0.04579727f, -0.03919655f, -0.12876938f, 0.04796781f, -0.03549607f, -0.00059543f, -0.03611270f, -0.04978842f, -0.09543624f, 0.00381516f, 0.02137327f, -0.00108173f, -0.00572889f, -0.09470278f, -0.02515364f, -0.02451886f, 0.01034333f, -0.12030710f, -0.03963706f, 0.01335372f, 0.09028897f, -0.03965005f,
    /* [50] */ -0.02918035f, 0.02266171f, -0.01799391f, 0.00215671f, 0.01329830f, 0.01520129f, -0.04513502f, -0.03240683f, -0.08083569f, 0.01992179f, 0.05317459f, 0.02332560f, 0.05722013f, 0.06445140f, -0.05795826f, 0.06817821f, -0.04686970f, 0.02447992f, 0.00402710f, 0.00424639f, 0.05029164f, -0.01197829f, -0.03372845f, 0.09158403f, -0.04164625f, -0.02235725f, 0.00427288f, 0.01231983f, -0.05399475f, 0.00480717f, 0.02009358f, -0.01829631f, 0.04593526f, 0.03929438f, 0.05134206f, -0.12396163f, -0.03212291f, 0.12174326f, -0.01753558f, 0.01538504f, 0.02752305f, -0.02231379f, -0.01312149f, 0.04003159f, 0.09254567f, 0.00091536f, -0.03128143f, 0.04373978f, -0.03789175f, 0.00076964f, 0.03602956f, 0.06079638f, -0.07727800f, -0.03078164f, 0.01707168f, -0.07000146f, 0.00336191f, -0.09372951f, -0.01903240f, -0.04530309f, 0.02957101f, -0.01795404f, -0.02350225f, 0.04573227f, -0.01462732f, 0.00137172f, -0.03813030f, 0.00509777f, -0.01721210f, 0.02622245f, -0.01769041f, -0.00474742f, -0.02916482f, 0.01082617f, 0.05244931f, -0.04089879f, 0.04078410f, 0.04647220f, -0.07101098f, 0.01723506f, 0.02417922f, -0.00142662f, -0.02189435f, -0.01206651f, -0.01129968f, 0.07942867f, 0.04139341f, 0.04923789f, -0.05204387f, 0.03570176f, -0.06800156f, -0.00664239f, -0.01855583f, -0.03939415f, 0.01485018f, -0.04442770f, 0.01694860f, 0.01039377f, -0.00631282f, 0.01172203f, 0.06688088f, 0.01254340f, -0.01239931f, -0.03399656f, -0.01095243f, 0.00335034f, 0.03561115f, -0.00793848f, -0.02436412f, -0.04449164f, 0.00332817f, -0.02378553f, -0.01633388f, -0.03145156f, 0.00305491f, 0.00321098f, -0.00937304f, -0.05358582f, 0.05869136f, -0.04278087f, 0.04228624f, 0.03156952f, -0.01155814f, -0.09813470f, -0.06023037f, 0.05891593f, -0.00543070f, -0.00896253f,
    /* [51] */ -0.05339019f, -0.02846980f, 0.05968509f, -0.06602447f, 0.03906596f, 0.06025735f, -0.00132330f, 0.01254376f, 0.00225256f, 0.03984058f, 0.02514161f, -0.06200386f, 0.02442735f, -0.01834791f, -0.02314640f, 0.02222169f, 0.04889965f, -0.00971903f, 0.05226465f, -0.02675463f, 0.02475779f, -0.01740741f, 0.00528694f, -0.03372563f, 0.04752621f, 0.02975758f, -0.09630204f, 0.01272230f, -0.03235775f, -0.02180363f, 0.00145180f, 0.03191116f, 0.00452837f, 0.01582891f, -0.01398323f, 0.04055392f, -0.00455782f, -0.00362009f, 0.03053768f, -0.03916140f, -0.07573668f, 0.01559945f, 0.08769376f, -0.00633123f, -0.01199442f, 0.03336526f, 0.04043994f, 0.03482483f, -0.08411729f, -0.05302916f, -0.01858247f, -0.01175811f, 0.02630532f, 0.01427971f, 0.00944890f, -0.04066641f, 0.02680409f, -0.06512225f, -0.00575225f, 0.09015723f, -0.02768984f, 0.03201786f, 0.00359463f, -0.01949442f, -0.06604966f, -0.05621843f, 0.02368407f, 0.02541377f, -0.02666767f, -0.01925571f, 0.02502660f, 0.02031794f, -0.00302946f, -0.01969180f, -0.02987193f, -0.02461790f, 0.00743379f, 0.01416997f, -0.02260037f, 0.01754041f, -0.04397345f, 0.04516479f, 0.02018862f, 0.01195337f, -0.04864302f, -0.05394224f, -0.00544483f, 0.03253423f, 0.04125737f, -0.08272917f, -0.04556012f, -0.02460483f, 0.01437155f, -0.02249998f, 0.05944744f, -0.02861613f, -0.02105703f, 0.00212813f, -0.01757946f, -0.07166588f, -0.01164876f, -0.08973115f, -0.00341307f, 0.00982739f, -0.06507713f, -0.05797632f, -0.01914645f, 0.00727756f, -0.01798304f, 0.01585611f, 0.01208962f, -0.02058766f, 0.04836119f, -0.01887003f, 0.04252079f, -0.02513895f, 0.04131935f, 0.06684855f, 0.02699237f, -0.01195643f, -0.03341866f, 0.03700170f, -0.04261522f, -0.01269987f, 0.00672694f, 0.00445438f, -0.04030646f, 0.06014932f,
