#include "policy.h"
#include <math.h>

/* ---- 重み配列 ---- */

/* layer0 weight: [128][10] (row-major) */
static const float W0[1280] = {
    /* [0] */ 0.23286130f, 0.10970794f, 0.08201460f, -0.10979507f, 0.38425845f, -0.05533102f, 0.08504392f, -0.14315677f, -0.15942478f, 0.18117286f,
    /* [1] */ -0.71879452f, 0.20173268f, 0.22862750f, 0.54332888f, 0.24890906f, -0.22746205f, -0.05322979f, 0.09068477f, -0.02549941f, -0.01220661f,
    /* [2] */ 0.62109029f, -0.25302294f, -0.76634866f, 0.27561656f, -0.45601588f, 0.36313134f, -0.03472567f, 0.09891155f, -0.05724480f, -0.01697730f,
    /* [3] */ 0.12719807f, -0.06699689f, -0.07045791f, -0.32549009f, 0.06691438f, 0.04954374f, -0.00991119f, -0.06118107f, 0.07088352f, -0.00224495f,
    /* [4] */ 0.30254027f, 0.48065490f, 0.45545456f, -0.05291514f, -0.20299242f, 0.35451010f, -0.13365406f, 0.20313880f, 0.07370419f, -0.16336691f,
    /* [5] */ 0.41180038f, 0.20216385f, 0.34199741f, 0.52835810f, -0.03907608f, -0.26412109f, 0.03127078f, -0.24187800f, -0.17863069f, 0.42903817f,
    /* [6] */ 0.68417960f, 0.85514796f, 0.49652001f, 0.75571817f, 1.14048946f, 2.08623052f, -0.08020999f, -0.14169839f, -0.14055565f, -0.25095975f,
    /* [7] */ -0.44476530f, 0.81626934f, -0.06138902f, -0.42098901f, -0.22953506f, 0.22490644f, -0.01343022f, 0.00927068f, -0.02588818f, 0.05296831f,
    /* [8] */ -0.20198803f, -0.32061839f, -0.82026613f, -0.46990013f, 0.16980283f, 0.78155464f, -0.14050953f, 0.34585327f, -0.38252342f, 0.15686439f,
    /* [9] */ 0.25514060f, -0.16976182f, 0.01037975f, 0.03334972f, 0.70303339f, -0.45847040f, 0.03908542f, -0.07956609f, -0.05409785f, 0.07538369f,
    /* [10] */ 0.14666457f, 0.66874427f, -0.18668303f, -0.04653369f, 0.43240646f, 0.00455493f, -0.05668661f, 0.15770800f, -0.34996024f, 0.24493137f,
    /* [11] */ 0.14210171f, 0.47105023f, -0.61501485f, -0.61692357f, 0.36475646f, 0.78219581f, 0.00142520f, 0.21687953f, -0.16477357f, -0.10707014f,
    /* [12] */ 0.09153529f, -0.36241654f, 0.43829805f, -0.10122366f, -0.56644940f, 0.44578567f, -0.13755374f, 0.16724326f, 0.00581579f, -0.04188672f,
    /* [13] */ -0.47865912f, -0.11549385f, -0.88804555f, -0.78608483f, 0.33523640f, 0.71941394f, 0.20206834f, 0.16878384f, -0.33946809f, -0.07414477f,
    /* [14] */ -0.54690289f, -0.00438182f, -0.29679272f, -0.54469079f, -0.25539252f, -0.00616497f, 0.13125688f, 0.29204336f, 0.01203712f, -0.42477125f,
    /* [15] */ -0.17751120f, -0.04279636f, 0.00324708f, 0.08481450f, 0.46861053f, -0.19766930f, 0.18334168f, -0.19660841f, -0.08258643f, 0.08441494f,
    /* [16] */ -0.00847311f, -0.25153553f, -0.53616041f, 0.57305300f, 0.04345291f, 0.08800505f, 0.02145822f, -0.06424408f, 0.09676573f, -0.07140969f,
    /* [17] */ 0.25004071f, 0.85604894f, -0.94710654f, 0.06541465f, 0.00477684f, -0.19152814f, 0.05391031f, -0.07723405f, 0.02732715f, 0.00971641f,
    /* [18] */ 0.44197002f, -0.44327933f, 0.76706487f, 0.60840994f, -0.17377298f, 0.08101298f, 0.00471971f, -0.29081336f, 0.13977654f, 0.13430190f,
    /* [19] */ -0.75045377f, 0.84805381f, 0.25779507f, -0.16522279f, 0.65674019f, -0.47800577f, -0.02429381f, -0.02839125f, -0.01071574f, 0.04672809f,
    /* [20] */ 0.70069343f, 0.03899783f, -0.28155988f, -0.46885192f, -0.28222939f, 0.22354820f, -0.09904530f, 0.15408009f, -0.09901829f, 0.04535190f,
    /* [21] */ 0.30750069f, -0.33670953f, -0.24895874f, 0.03948763f, 0.13238265f, -0.03330638f, -0.03025582f, -0.03774850f, 0.09848019f, -0.05842834f,
    /* [22] */ 0.15200527f, -0.70262551f, -0.16359137f, 0.67962015f, 0.28066510f, -0.08636253f, -0.16186869f, 0.28494725f, -0.13083620f, -0.02169814f,
    /* [23] */ 0.23339525f, 0.22293739f, 0.04429084f, 0.36997953f, 0.28255484f, 1.10261250f, 0.20799553f, 0.02064880f, -0.02507117f, -0.26348898f,
    /* [24] */ 0.73279023f, 0.24064884f, 0.39247647f, 0.50577450f, 0.36535868f, 0.03031743f, 0.04124276f, -0.35476738f, -0.26586196f, 0.56395805f,
    /* [25] */ 0.05102236f, -0.24288656f, 0.49087608f, 0.00672749f, 0.57581866f, -0.46617794f, 0.01877317f, 0.00617971f, -0.10161074f, 0.07177442f,
    /* [26] */ -0.10981673f, 0.12311322f, -0.19438702f, -0.03356388f, -0.08689881f, 0.32574645f, -0.11083971f, 0.09279657f, -0.01428749f, 0.02096626f,
    /* [27] */ -0.78435999f, 0.48657134f, -0.16359363f, 0.43365714f, -0.29278991f, 0.27475402f, -0.07132658f, 0.08507928f, 0.04294735f, -0.04623130f,
    /* [28] */ -0.34971514f, -0.05845023f, 0.32149327f, 0.09027305f, -0.56092995f, 0.30662319f, -0.03696426f, 0.07588470f, 0.05866232f, -0.08176453f,
    /* [29] */ -0.82004941f, -1.14299023f, -1.55713618f, -1.38829899f, 0.40427467f, 1.09335911f, 0.24675918f, -0.04891882f, -0.12290053f, -0.08125377f,
    /* [30] */ -0.85155571f, -0.20047724f, -0.67297935f, -1.04243350f, -0.85329592f, -1.74028170f, 0.03537587f, -0.05150792f, -0.04219015f, 0.14582147f,
    /* [31] */ 0.28308854f, -0.66953510f, 0.16275416f, 0.35052678f, 0.05893434f, -0.17970423f, -0.13493188f, 0.26192021f, -0.06336691f, -0.07918609f,
    /* [32] */ 0.23333207f, 0.51841694f, -0.46004602f, -0.35783902f, -0.38096279f, 0.24690187f, -0.04377505f, 0.03982478f, 0.03767715f, -0.00100371f,
    /* [33] */ -0.63523853f, -0.28616211f, 0.74117219f, 0.16048618f, 0.21690583f, -0.22155185f, 0.06210462f, -0.13855959f, 0.14099772f, -0.08335973f,
    /* [34] */ -0.00298163f, -0.11345781f, -0.46357119f, 0.03993825f, -0.30314407f, -0.05519148f, -0.14897704f, 0.26918623f, 0.07160229f, -0.17753571f,
    /* [35] */ -0.13051862f, 0.41233394f, -1.01880586f, -0.47330421f, 0.02166458f, 0.18654966f, 0.22530653f, -0.19623563f, -0.02067586f, 0.00753575f,
    /* [36] */ -0.27447775f, 0.32871163f, 0.19888507f, -0.80314541f, -0.60815626f, 0.36985192f, -0.26052845f, 0.47884735f, -0.01903731f, -0.17813621f,
    /* [37] */ 0.35905880f, 0.94920546f, -0.85992920f, -0.28642097f, 0.24378091f, -0.16254023f, 0.14770845f, -0.16336438f, -0.11450883f, 0.15388218f,
    /* [38] */ -0.06015740f, 0.43801877f, -0.43345302f, 0.12025887f, -0.70857906f, 0.49321502f, -0.10350307f, 0.14068325f, 0.00388693f, -0.02950233f,
    /* [39] */ 0.39389127f, 0.21696100f, -0.85956466f, 0.16043824f, -0.62689906f, 0.46804044f, 0.01374064f, 0.03719924f, -0.02510490f, -0.01024652f,
    /* [40] */ 0.48203164f, -0.80902582f, 0.08270795f, 0.15885730f, -0.24139974f, 0.06180542f, -0.02967351f, 0.03624727f, 0.08577520f, -0.10372455f,
    /* [41] */ -1.11682999f, -0.49630055f, -0.83414912f, -1.31305754f, -0.74370646f, -1.11423481f, -0.13479358f, 0.20623554f, -0.10335099f, 0.40283847f,
    /* [42] */ -1.92138278f, -1.38810086f, -1.32071757f, -1.67762601f, -1.13534105f, -1.12780690f, -0.31798476f, 0.21857350f, 0.25975129f, 0.30101833f,
    /* [43] */ 0.09759617f, 0.50082320f, -0.36226824f, -0.23087953f, 0.06649616f, -0.01171829f, -0.05757070f, 0.02860282f, 0.01784072f, 0.03872912f,
    /* [44] */ 0.41206414f, -0.04619576f, -0.93422121f, 0.71584928f, 0.58863872f, -0.19074358f, 0.03153487f, -0.04057717f, -0.13394530f, 0.12085520f,
    /* [45] */ -2.20418930f, -1.51884699f, -1.94433928f, -2.48125982f, -1.35704410f, -2.37313342f, -0.20474178f, -0.05035539f, 0.38932508f, -0.07218521f,
    /* [46] */ 0.63758689f, -0.12024157f, 0.26355404f, -0.50982285f, 0.46333614f, -0.46811363f, -0.13259286f, 0.13891762f, -0.05478227f, 0.02728721f,
    /* [47] */ -0.03839243f, -0.51445717f, -0.77859032f, -0.85078204f, 0.38268897f, -0.13546030f, 0.02929447f, 0.27852672f, 0.00752439f, -0.33049703f,
    /* [48] */ 0.03572173f, -0.46082994f, 0.04494470f, 0.54648060f, -0.04257910f, -0.07082355f, -0.02237143f, 0.08538377f, -0.03176962f, -0.07222126f,
    /* [49] */ 0.10708053f, -0.11986752f, -0.19020724f, 0.45097825f, 0.56800956f, -0.42286351f, -0.05654889f, 0.10227206f, -0.10391239f, 0.04666545f,
    /* [50] */ 0.38398847f, 0.01052675f, 0.48316535f, -0.63339293f, 0.17622995f, -0.31408295f, -0.06608461f, 0.12164740f, -0.07856941f, 0.05451152f,
    /* [51] */ 0.29807395f, 0.72240043f, 0.36418304f, 0.26162088f, -1.52067530f, -1.90955853f, -0.06254341f, 0.37342086f, 0.68293071f, 0.29342479f,
    /* [52] */ 1.50408161f, 1.60622454f, 1.56801832f, 1.49264002f, -0.59920281f, -0.63513249f, -0.22405791f, -0.29329801f, -0.06565093f, -0.21579248f,
    /* [53] */ 0.33668989f, -0.21605280f, 0.03881025f, 0.16446611f, 0.32331663f, -0.29272199f, 0.04816119f, -0.07617132f, -0.04811551f, 0.02646007f,
    /* [54] */ 0.49830857f, -0.15690330f, -0.04965203f, -0.10421719f, 0.06343085f, -0.19437633f, -0.07958943f, 0.11084038f, -0.04614872f, -0.02188555f,
    /* [55] */ -0.46894163f, -0.10461706f, 0.43005311f, 0.00614853f, -0.30400911f, -0.02015790f, -0.20526299f, 0.16836607f, 0.24458902f, -0.22724016f,
    /* [56] */ -0.17373958f, 0.83181405f, -0.15984742f, -0.33674985f, 0.33759513f, -0.35510951f, 0.00178521f, -0.04365692f, 0.01734069f, 0.04348811f,
    /* [57] */ 0.74351287f, -0.41226956f, -0.58683890f, 0.29548889f, 0.48668963f, -0.25945705f, 0.02297826f, -0.02901072f, -0.07581706f, 0.05850133f,
    /* [58] */ 0.03100030f, -0.12044111f, 0.22186233f, -0.25686806f, 0.28211844f, -0.09119356f, -0.02025316f, -0.05292089f, 0.06971875f, 0.03442577f,
    /* [59] */ -1.76687634f, -1.42432415f, -1.64536262f, -1.93304026f, -1.34535921f, -2.58961844f, -0.27562571f, 0.22399546f, 0.24248914f, -0.05536114f,
    /* [60] */ -0.58099252f, 1.35449982f, -0.22227059f, -0.45117286f, -0.02752093f, -0.03554377f, -0.01914180f, -0.00404413f, -0.00237812f, 0.05172938f,
    /* [61] */ -0.09922250f, 0.30193144f, 0.35017392f, -0.30764541f, 0.52546984f, -0.39844519f, 0.03794426f, -0.08491232f, -0.04145018f, 0.08207169f,
    /* [62] */ -0.19471128f, 0.34724584f, -0.81301886f, 0.39724243f, -0.17192337f, 0.31166053f, 0.04839722f, -0.08560578f, 0.05165196f, -0.01853656f,
    /* [63] */ 0.05567782f, 0.09867433f, 0.24574023f, 0.19168773f, -0.11243769f, -0.90751576f, -0.17743677f, 0.10679965f, 0.35919338f, -0.23266183f,
    /* [64] */ -0.04707226f, -0.22624485f, 0.14703125f, 0.39683443f, 0.00911785f, -0.10345848f, 0.05166637f, -0.04027626f, -0.02612595f, -0.03683612f,
    /* [65] */ 0.06099994f, -0.56624156f, 0.21216597f, 0.22219385f, -0.39143085f, 0.31313437f, -0.07561682f, 0.13709472f, -0.01287034f, -0.05703772f,
    /* [66] */ 0.37013087f, -0.10630445f, 0.23523314f, -0.26002121f, 0.64666116f, -0.43401927f, 0.04229579f, -0.08391964f, -0.08948927f, 0.11882140f,
    /* [67] */ 0.23443137f, -0.25003925f, -0.11502520f, -0.06166759f, 0.35377890f, -0.14419696f, 0.02007495f, -0.11902636f, 0.03331216f, 0.00432696f,
    /* [68] */ 0.32804987f, 0.49496561f, 0.23518623f, -0.47721359f, 0.71624690f, -0.40411669f, -0.01545907f, 0.04252171f, -0.24752244f, 0.19509839f,
    /* [69] */ 0.93199527f, 0.69101793f, 0.48636541f, 0.33263722f, 0.06306858f, -0.49983266f, -0.26873237f, 0.04918737f, 0.04572136f, 0.18478115f,
    /* [70] */ 0.47281340f, 0.06056292f, 0.59241492f, -0.88029915f, 0.01254530f, 0.00380196f, -0.11069988f, 0.14475229f, -0.12407055f, 0.08339971f,
    /* [71] */ -0.37684238f, -0.37421364f, 0.15361604f, 0.42394009f, -0.13152742f, 0.00270086f, 0.15449886f, -0.29292643f, 0.25567144f, -0.12488610f,
    /* [72] */ 0.72557414f, -0.62261063f, -0.04698139f, 0.00559646f, 0.15212056f, -0.11482958f, -0.05834471f, 0.13669771f, -0.12819816f, 0.02482541f,
    /* [73] */ -0.03413885f, 0.17245941f, 0.54297990f, -0.45423642f, 0.31734237f, -0.37230808f, 0.03421485f, -0.03668634f, -0.07082055f, 0.05974201f,
    /* [74] */ 0.61357981f, -0.18548565f, -0.50085407f, 0.17750713f, 0.40323311f, -0.16191530f, 0.02448961f, -0.00677993f, -0.13473670f, 0.10030914f,
    /* [75] */ 0.50983614f, -0.35351330f, -0.23690963f, 0.00034189f, 0.37204212f, -0.24616803f, 0.12972651f, -0.19059937f, 0.01976063f, 0.01599332f,
    /* [76] */ -0.12583330f, -0.28192481f, 0.88578576f, -0.42252874f, 0.43943527f, -0.36799839f, 0.05387081f, -0.09832717f, 0.01831222f, 0.00800269f,
    /* [77] */ 0.25674525f, 0.40897539f, -0.45107847f, -0.22005278f, -0.29423985f, 0.31140834f, -0.09981550f, 0.15745230f, -0.11564647f, 0.07380261f,
    /* [78] */ -0.16292545f, 0.08387070f, -0.70559812f, 0.63191915f, 0.25468904f, -0.03773291f, 0.11692920f, -0.17750601f, 0.04332831f, -0.00437969f,
    /* [79] */ 0.12529184f, 0.13824093f, 0.39548206f, -0.79739290f, -0.47196752f, 0.32084784f, 0.00086190f, -0.05643683f, 0.07076152f, 0.00010229f,
    /* [80] */ 0.31107762f, -0.08340633f, 0.34353119f, -0.38667080f, 0.43613285f, -0.19686544f, 0.01693379f, 0.02541945f, -0.18945840f, 0.15633984f,
    /* [81] */ 0.30737239f, 0.30640921f, 0.02933794f, -0.33569220f, 0.69828653f, -0.25999457f, -0.11535022f, 0.10704007f, -0.20206343f, 0.18158613f,
    /* [82] */ 0.41597924f, -0.67449409f, 0.03843367f, -0.04347785f, 0.24212880f, -0.14120892f, 0.14482303f, -0.20983365f, 0.07098856f, -0.02810668f,
    /* [83] */ 0.18239506f, 0.47684914f, -0.70937067f, -0.52580982f, -0.31070268f, 0.32448259f, -0.13669242f, 0.17786525f, 0.03563720f, -0.08237889f,
    /* [84] */ -2.27313066f, -0.91697866f, -1.12886965f, -2.64838314f, -1.06193686f, -1.83894217f, -0.04194134f, 0.10436106f, 0.17343362f, -0.11947577f,
    /* [85] */ -0.01115746f, 1.24489534f, -0.74592125f, -0.36075851f, 0.25498614f, -0.11175989f, 0.05962889f, -0.09300160f, -0.10152149f, 0.15318432f,
    /* [86] */ 0.13400777f, 0.17407382f, 0.36528093f, 0.00338729f, 0.48992571f, -0.33499610f, -0.03325350f, -0.18108945f, 0.11253838f, 0.09722935f,
    /* [87] */ 0.17804411f, -0.01973678f, 0.45403975f, -0.45109457f, 0.09839645f, 0.04238043f, -0.03579628f, 0.13101003f, -0.20814662f, 0.11857595f,
    /* [88] */ -0.80987543f, 0.79511058f, -0.04861549f, -0.06930539f, -0.40139630f, 0.25838265f, -0.01871966f, 0.00658667f, 0.08134708f, -0.05179805f,
    /* [89] */ -0.21122624f, 0.14403661f, 0.15459955f, -0.14832266f, -0.13444479f, -0.11919221f, -0.00787929f, 0.05871901f, 0.05299174f, -0.04379310f,
    /* [90] */ -0.31626645f, -0.41448525f, 0.15975426f, -0.23640843f, -0.24477609f, 0.06669747f, -0.11579832f, 0.51923871f, -0.09848379f, -0.28650218f,
    /* [91] */ 0.16290200f, -0.04607066f, 0.02100603f, -0.31915361f, -0.16472466f, 0.03048327f, 0.00845546f, -0.07612497f, 0.19091518f, -0.06357749f,
    /* [92] */ 0.14992407f, -0.50477785f, 0.06802347f, -0.08831901f, -0.23555103f, 0.34408236f, 0.13895606f, -0.15169933f, -0.01271683f, 0.01014357f,
    /* [93] */ 0.97296882f, 0.29969516f, 0.54402590f, 1.62017465f, -0.16082455f, -0.21239091f, 0.11252356f, -0.62823367f, 0.02498844f, 0.40924552f,
    /* [94] */ 0.42844945f, -0.04552690f, 0.12445435f, -0.14729640f, 0.49599338f, -0.41003799f, -0.06094712f, 0.11998697f, -0.14039437f, 0.09694667f,
    /* [95] */ -0.40922523f, -0.12693200f, 0.25670111f, 0.23264568f, 0.19648808f, -0.18448089f, 0.10999874f, -0.21399094f, 0.15300128f, -0.06350832f,
    /* [96] */ 0.07260367f, -0.16966489f, -0.14993566f, 0.15206587f, 0.19320777f, -0.17604670f, 0.05135907f, -0.17420119f, 0.17894118f, -0.08639963f,
    /* [97] */ -0.14271501f, 0.47531754f, 0.12724918f, 0.21889237f, -0.01082705f, -0.19843516f, -0.07943076f, -0.19205913f, 0.28632700f, -0.01117281f,
    /* [98] */ -0.16220585f, 0.21010502f, 0.35971561f, -0.46597594f, 0.19157030f, -0.22623427f, 0.10433167f, -0.17522529f, 0.07177343f, 0.00967291f,
    /* [99] */ 0.08244117f, 0.92624837f, -0.81408370f, -0.17171225f, -0.06488727f, 0.23011196f, -0.04091325f, 0.02368665f, -0.09026477f, 0.11180753f,
    /* [100] */ 0.52876633f, -0.39999866f, 0.78821999f, -0.84864450f, -0.12844774f, 0.02226538f, 0.00190477f, 0.00393180f, -0.03086779f, 0.04171311f,
    /* [101] */ -0.22432937f, 0.53842688f, -0.40836328f, 0.30129376f, 0.38115227f, -0.08244144f, -0.08879983f, 0.20615913f, -0.25936177f, 0.13817637f,
    /* [102] */ -1.18502247f, -1.12129128f, -1.15609288f, -1.43915558f, -1.60567570f, -2.64914036f, -0.08905531f, 0.03164792f, -0.18605195f, 0.61986029f,
    /* [103] */ 0.64675993f, 0.59872985f, 0.77528125f, 0.32026899f, 1.03391850f, 1.91446984f, 0.18048057f, -0.10333610f, -0.24998295f, -0.05815196f,
    /* [104] */ 0.67456710f, -0.34110653f, 0.36645621f, -0.48990950f, 0.35312575f, -0.35408807f, -0.06248299f, 0.13129878f, -0.12727195f, 0.05800639f,
    /* [105] */ -0.17365012f, 0.40385869f, -0.35259613f, 0.38599804f, 0.30375826f, -0.26470554f, -0.10703255f, 0.14927818f, -0.04892661f, 0.01152305f,
    /* [106] */ 0.27858132f, 0.12801573f, 0.02612043f, 0.11915937f, 0.76701939f, -0.04890419f, -0.03705020f, -0.07299770f, -0.26395795f, 0.37029132f,
    /* [107] */ -0.26368657f, 0.15222640f, -0.00172944f, -0.25903720f, -0.29837656f, 0.37460876f, 0.08094559f, -0.14553390f, 0.08746794f, -0.01245400f,
    /* [108] */ -0.47969282f, -0.21417393f, 0.03516454f, -0.31469083f, -0.21965422f, -0.24460477f, 0.13402991f, 0.00623311f, -0.13542466f, 0.00705156f,
    /* [109] */ -0.69598269f, -0.10670111f, 0.84862262f, 0.17032993f, 0.35718858f, -0.30532208f, 0.01570554f, -0.11209242f, 0.13371626f, -0.06687052f,
    /* [110] */ 0.13650809f, 0.64565217f, 0.36679611f, -0.96832252f, 0.44899589f, -0.37184924f, 0.00171237f, -0.07652887f, -0.02487561f, 0.08304476f,
    /* [111] */ -0.34874880f, 0.53928697f, -0.48670486f, 0.45855018f, 0.41383410f, -0.22141938f, -0.02443944f, 0.01567264f, -0.04424973f, 0.04175784f,
    /* [112] */ -0.54389244f, 0.47944355f, -0.28501567f, 0.36102614f, -0.23314223f, 0.21967165f, -0.09775950f, 0.11481943f, 0.02238560f, -0.02304614f,
    /* [113] */ 0.59247464f, -0.04071892f, 0.44631663f, 0.28490838f, 0.22024818f, -0.51037061f, 0.19559592f, 0.42580619f, -0.14053680f, -0.55412436f,
    /* [114] */ 0.30042383f, 0.63416719f, -0.56580997f, -0.40009704f, -0.68800962f, 0.52191931f, 0.02650921f, -0.09628578f, 0.06828375f, 0.02341852f,
    /* [115] */ -0.47880962f, -0.11337288f, 0.23699950f, 0.38095129f, 0.66845745f, -0.29979238f, 0.10239855f, -0.03422815f, -0.19686793f, 0.10848853f,
    /* [116] */ 0.57743287f, -0.41537923f, -0.01443295f, -0.16655220f, -0.22774479f, 0.14908099f, -0.11196889f, 0.17839642f, -0.07145967f, -0.00467303f,
    /* [117] */ -0.54035282f, 0.69783860f, -0.48274058f, 0.23602830f, -0.00192800f, 0.01392178f, 0.05658395f, -0.10640090f, 0.10651215f, -0.03086102f,
    /* [118] */ -0.71093392f, 0.06051309f, -0.00782673f, 0.56549686f, -0.00922694f, 0.16645113f, 0.16482991f, -0.29859564f, 0.13165930f, -0.00697789f,
    /* [119] */ 0.93065542f, -0.36823151f, -0.60755360f, 0.00258414f, 0.13430436f, -0.08548021f, 0.05835387f, -0.04758173f, -0.05361735f, 0.04067980f,
    /* [120] */ -0.37030765f, 0.76641977f, 0.17738558f, -0.46620360f, -0.36131233f, 0.17039032f, -0.03141676f, 0.05294831f, -0.01772448f, 0.03081827f,
    /* [121] */ 0.08148666f, -0.46568444f, -0.82069844f, 0.98775208f, -0.23068252f, 0.20014103f, 0.06680435f, -0.07192130f, 0.09374879f, -0.08796949f,
    /* [122] */ 0.28714758f, 0.37389570f, 0.45861524f, 0.44817221f, 0.05165248f, -0.52452320f, 0.26706854f, 0.11402602f, -0.03618396f, -0.40677956f,
    /* [123] */ -0.53805411f, 0.46615818f, 0.23241544f, -0.16864480f, -0.73347443f, 0.49836341f, -0.08940496f, 0.12076764f, 0.03114954f, -0.04641173f,
    /* [124] */ 0.26068109f, -0.36652496f, -0.20446034f, 0.30313990f, -0.46856850f, 0.30387750f, -0.14288449f, 0.22801766f, -0.03430430f, -0.06219945f,
    /* [125] */ 0.48781118f, 0.17215267f, 0.11890027f, 0.20235854f, 1.14433539f, 1.99070215f, 0.11613713f, 0.04373052f, 0.01638410f, -0.30352673f,
    /* [126] */ -0.37642768f, -0.56421995f, -0.98801440f, -0.58076477f, 0.33813569f, 0.67886668f, -0.17161983f, -0.09858190f, -0.26610157f, 0.54029012f,
    /* [127] */ 0.70849866f, -0.12736885f, -0.62311637f, -0.07450104f, -0.44683361f, 0.34189484f, -0.06922501f, 0.10321591f, -0.04006309f, -0.00294577f
};

/* layer0 bias: [128] */
static const float b0[128] = {
    -0.01362509f, 0.00375248f, -0.01283795f, 0.02044661f, -0.05414850f, -0.13648553f, -0.23772159f, 0.00526161f, 0.08392891f, 0.00560868f, -0.00845495f, 0.04173459f, -0.01659981f, 0.10095683f, 0.04684183f, 0.01071347f, 0.01670106f, -0.00939875f, -0.09433106f, 0.01194009f, -0.00655413f, 0.01426308f, 0.00847107f, -0.12367799f, -0.13499725f, -0.01285737f, 0.01913380f, 0.00821983f, -0.02478965f, 0.22771801f, 0.13064754f, -0.00802638f, 0.00178283f, 0.00116876f, 0.02286683f, 0.06050685f, 0.02038516f, -0.00884564f, -0.01302300f, -0.01353320f, -0.01594229f, -0.14493361f, -0.13755383f, 0.01882779f, 0.00789038f, 0.41167206f, -0.01435973f, 0.09584625f, -0.00683760f, -0.00271585f, -0.01746457f, -0.22615202f, -0.37511441f, -0.02202165f, -0.00266210f, 0.01122728f, 0.01616517f, 0.00070999f, 0.00420137f, 0.28504670f, 0.00608587f, -0.00402128f, 0.01702929f, -0.04030634f, -0.02782881f, -0.02023231f, -0.00903814f, 0.01436438f, -0.01438816f, -0.13628364f, -0.01906840f, -0.00288950f, -0.01252900f, -0.01648628f, 0.00316738f, -0.00251348f, 0.00218039f, -0.00493290f, 0.01295974f, -0.01207497f, -0.00166943f, 0.00561637f, -0.00426930f, 0.02920504f, 0.18618643f, 0.00277915f, -0.03723689f, -0.00328844f, 0.00412262f, 0.00029371f, 0.02373817f, 0.00046518f, -0.00588966f, -0.22398114f, -0.01016802f, -0.00220196f, 0.00329106f, -0.03279363f, -0.00015509f, 0.00766829f, -0.02748588f, 0.01443278f, 0.17179236f, -0.23593900f, -0.01147036f, 0.00872168f, -0.02320643f, 0.00929273f, 0.04641837f, -0.00314088f, -0.00312363f, 0.01705500f, 0.00678366f, -0.12689683f, -0.01129508f, 0.01161144f, -0.01096806f, 0.01454038f, 0.00699368f, -0.00774808f, -0.01457734f, 0.00625196f, -0.12134778f, -0.00701340f, -0.00788906f, -0.10433654f, 0.08091050f, -0.01076279f
};

/* layer1 weight: [128][128] (row-major) */
static const float W1[16384] = {
    /* [0] */ -0.03193032f, -0.01066846f, -0.07295174f, 0.05975036f, 0.01246118f, -0.01607856f, 0.03085829f, 0.03517114f, 0.07421984f, -0.00457850f, 0.01479468f, 0.07790398f, 0.01096988f, -0.01436049f, -0.07255635f, -0.00486045f, 0.01198845f, 0.00506720f, 0.00082649f, -0.03161980f, -0.05091655f, -0.03440889f, -0.08458488f, -0.07174610f, -0.00044417f, -0.04396253f, -0.04375137f, -0.03927194f, 0.02506630f, -0.04571724f, -0.09337801f, -0.02975224f, 0.00859276f, 0.02962611f, -0.00472456f, -0.08374231f, -0.00485195f, -0.01490209f, -0.03225247f, -0.06025433f, -0.06566101f, -0.03761964f, 0.00445243f, 0.12566686f, -0.04974582f, 0.10642299f, -0.02955443f, -0.04545552f, -0.08146907f, -0.03537326f, -0.02937096f, -0.00135985f, -0.01974240f, 0.03218076f, 0.01987814f, -0.04272100f, -0.00114289f, -0.08503259f, 0.01497562f, 0.03014097f, 0.02601645f, 0.04361460f, 0.02607140f, 0.11250229f, -0.06647134f, -0.08138485f, 0.00341550f, -0.03243224f, 0.01727578f, 0.11530649f, 0.03108707f, 0.02544293f, -0.07983710f, 0.03162762f, -0.08375125f, 0.00634430f, 0.04809118f, -0.02446349f, -0.05007123f, 0.08864658f, -0.07668503f, -0.04862878f, 0.06126084f, 0.06074098f, 0.02683458f, -0.03804338f, 0.05280666f, -0.05176806f, 0.06331604f, 0.02318753f, 0.09790944f, 0.09377488f, 0.00493027f, -0.00134986f, -0.06037647f, 0.08351784f, 0.01943155f, 0.01297629f, 0.06852012f, -0.02786899f, 0.09274547f, -0.11124732f, 0.01775684f, -0.02847745f, -0.00352638f, -0.06765912f, -0.01166577f, 0.05757846f, -0.00229731f, 0.08657070f, 0.05090543f, -0.03314790f, 0.01016309f, -0.03685729f, -0.03565199f, -0.00732626f, -0.05341087f, 0.07479396f, 0.00017219f, -0.02397439f, 0.07211321f, -0.08872195f, -0.08776556f, -0.05430445f, -0.05737825f, 0.01349388f, -0.03140274f, -0.03395234f,
    /* [1] */ -0.00758850f, 0.06209001f, -0.00413745f, 0.04126254f, 0.03072494f, 0.06319693f, 0.07279281f, -0.05000179f, -0.04713749f, 0.00843310f, -0.00326284f, -0.02271594f, 0.03413133f, -0.00198521f, 0.05039915f, 0.01731252f, 0.01213423f, -0.01734701f, -0.01409318f, -0.00054415f, -0.01490157f, 0.00395083f, 0.15583274f, -0.00095902f, -0.05975156f, 0.04994556f, 0.00225121f, 0.04557302f, -0.03324063f, 0.07830337f, 0.22919175f, 0.08224378f, 0.04631233f, -0.02555623f, 0.07053602f, -0.07618018f, -0.02099547f, -0.09192465f, 0.02246356f, -0.04654666f, 0.03171346f, -0.01082319f, -0.04545739f, 0.05300308f, 0.09781712f, -0.11276631f, 0.04985568f, 0.07056126f, 0.08077075f, 0.00996778f, -0.01862568f, -0.04757614f, -0.00038260f, -0.02072027f, 0.04235677f, 0.04485375f, -0.02308550f, 0.08825049f, -0.01365781f, -0.04501316f, -0.08038461f, -0.02706024f, 0.01451935f, 0.06519002f, -0.02392894f, 0.00030457f, 0.01500286f, -0.01663384f, -0.06034944f, 0.05110537f, -0.04331152f, -0.02507846f, 0.04004287f, -0.02228538f, 0.01413306f, -0.02182216f, -0.04550986f, 0.03419676f, -0.00503961f, -0.02002914f, 0.01204142f, -0.03239207f, -0.01744077f, 0.03884398f, -0.11631367f, -0.06017866f, 0.09934650f, -0.01490577f, -0.04033395f, -0.04767317f, 0.06035241f, -0.01145638f, -0.05467330f, 0.00300568f, 0.06620425f, -0.06109092f, -0.06330774f, 0.08221617f, -0.06710919f, 0.03956456f, -0.05559582f, 0.04707969f, 0.27180144f, 0.05051495f, 0.00256696f, 0.13185041f, 0.00106131f, -0.08962557f, 0.06090835f, -0.00706776f, -0.10677301f, 0.09448965f, 0.09384230f, -0.09146898f, -0.12043432f, 0.04153375f, 0.06983126f, -0.05108884f, -0.01960682f, 0.03421075f, 0.00639790f, 0.13078882f, -0.05482558f, -0.08924504f, 0.03779427f, 0.03873101f, -0.00480469f, 0.00889714f,
    /* [2] */ 0.02070231f, -0.00968799f, 0.02351680f, -0.07483850f, 0.07927267f, 0.04044341f, 0.00490169f, 0.08172899f, -0.02678541f, -0.01579110f, -0.13664962f, 0.08798639f, -0.04288543f, 0.00705729f, 0.10823143f, -0.02063427f, -0.02720203f, -0.01391770f, 0.04503880f, 0.03276046f, -0.03726377f, -0.02042420f, -0.00120066f, -0.01046207f, -0.11183697f, 0.00629975f, -0.03246237f, 0.04244605f, -0.08037994f, 0.02922648f, -0.07087232f, 0.03096495f, 0.05239785f, 0.01660267f, 0.01829101f, -0.03934365f, -0.01367108f, 0.01636419f, 0.01029465f, 0.04090658f, -0.04856889f, -0.01295202f, -0.03525804f, 0.04054090f, 0.01237251f, -0.05260776f, 0.07071231f, 0.01125450f, 0.02938983f, 0.01908555f, -0.03369431f, 0.01738691f, -0.01057715f, 0.00834017f, -0.05479019f, -0.02891251f, 0.01122163f, 0.06575666f, -0.04607941f, 0.04456543f, -0.02139410f, 0.00209347f, 0.03853996f, -0.04258959f, 0.08383562f, -0.01415269f, 0.01625952f, 0.00678173f, -0.06483016f, -0.06420293f, -0.07335387f, 0.02450628f, 0.01637512f, 0.07525223f, 0.02280242f, 0.02031951f, -0.00605799f, -0.00864227f, 0.06323539f, -0.03467192f, 0.01023452f, -0.06218240f, -0.01595894f, -0.01769361f, -0.00546535f, -0.00073878f, 0.02985272f, -0.04319219f, 0.01820703f, 0.04319326f, 0.06477432f, -0.05345557f, -0.03425986f, -0.10061681f, -0.01460971f, 0.05720791f, -0.00035552f, 0.01769244f, -0.03483588f, -0.01059250f, -0.02744283f, -0.02951681f, 0.09440310f, 0.10774463f, -0.05013864f, 0.02678898f, 0.00275159f, -0.07882773f, -0.03227779f, 0.00110333f, -0.07944527f, 0.06420620f, 0.02442906f, 0.01393801f, -0.00950138f, 0.00418313f, 0.01191851f, 0.02158268f, 0.03376415f, 0.02701217f, 0.00582112f, 0.04929582f, -0.03949095f, -0.00276713f, 0.03145448f, -0.12586141f, -0.09105409f, -0.00034910f,
    /* [3] */ -0.05509245f, -0.04526463f, 0.04374485f, 0.01821412f, 0.02337882f, 0.09845351f, -0.03072632f, -0.02386339f, -0.03262282f, -0.02188368f, -0.00533049f, -0.07097757f, 0.05358305f, -0.00295946f, 0.08790543f, -0.03453495f, 0.05810848f, -0.06651076f, -0.04217532f, -0.02487292f, 0.00881964f, 0.10602668f, 0.02797614f, 0.03995500f, -0.01182091f, -0.00945427f, -0.01719638f, -0.01436518f, 0.04921756f, -0.04301193f, -0.01585439f, -0.00095950f, -0.02057197f, 0.05531362f, 0.03667877f, -0.02720518f, -0.01146662f, -0.00167884f, 0.00666260f, 0.00328230f, 0.05830790f, 0.04603143f, -0.06532092f, 0.01737820f, 0.05575052f, -0.09468735f, 0.01793745f, 0.00001003f, -0.00216795f, 0.00789047f, 0.00492450f, -0.02321553f, -0.03875477f, 0.04505691f, 0.07685421f, 0.01624728f, -0.04404514f, 0.02856668f, 0.00344924f, 0.08375320f, -0.10466754f, -0.00448885f, -0.02599378f, 0.03471400f, -0.03884966f, 0.03143650f, 0.04140097f, 0.06295714f, -0.04127723f, 0.03093066f, 0.02015017f, 0.02475353f, 0.07170133f, -0.06831225f, 0.02738506f, -0.00352334f, -0.01054609f, 0.00508261f, -0.00380509f, 0.00855621f, -0.06994899f, 0.00288150f, 0.04406545f, -0.06657016f, 0.06486275f, 0.06814241f, -0.07424127f, 0.01230964f, 0.03783361f, -0.09609770f, -0.04037697f, 0.00292647f, -0.02092217f, -0.06935083f, 0.01636437f, 0.00635109f, 0.00746655f, 0.01421966f, -0.07086242f, 0.00738467f, -0.01556234f, -0.04319534f, 0.05443584f, 0.03404388f, -0.03684153f, 0.03396553f, -0.03940304f, 0.02116863f, 0.05262034f, -0.03124890f, -0.09321160f, 0.02021483f, -0.02260084f, -0.01753185f, 0.01494423f, -0.05848280f, 0.07881569f, -0.02163416f, -0.00287079f, 0.02991145f, -0.04768649f, -0.03268301f, -0.05518945f, 0.05066899f, 0.02666602f, 0.06857503f, 0.00989102f, 0.07184237f,
    /* [4] */ 0.05090863f, 0.04526037f, -0.10842606f, 0.07028642f, -0.00525511f, -0.12960860f, -0.05937891f, 0.04624076f, -0.02578779f, -0.04106267f, 0.00890445f, 0.03914498f, -0.01332000f, -0.02667737f, 0.00057762f, 0.00303697f, -0.02141504f, 0.01117629f, -0.09228463f, 0.09398824f, 0.03597938f, 0.00103640f, 0.11525337f, 0.00978399f, -0.03067104f, 0.02541725f, -0.03831930f, -0.03865639f, -0.05988190f, 0.00931115f, 0.10851755f, -0.01979971f, 0.11077394f, 0.00821368f, -0.01294261f, -0.09152663f, -0.06487735f, -0.08042452f, 0.00290582f, -0.06600247f, -0.07273556f, 0.05413038f, -0.05097190f, 0.07717139f, -0.00660812f, -0.06758729f, -0.00141360f, 0.09744469f, -0.04885629f, -0.05673702f, 0.04389559f, -0.03526909f, 0.06291553f, -0.03566593f, 0.03201481f, 0.06487747f, 0.09699140f, -0.02208755f, -0.02614688f, 0.06950571f, 0.04045086f, 0.13861310f, -0.00718176f, 0.14053160f, 0.00124732f, -0.03751564f, 0.05494906f, -0.00164149f, -0.07864118f, 0.03549197f, -0.00297213f, 0.02030241f, 0.05278618f, 0.11892559f, -0.03796324f, -0.02143919f, 0.07827138f, 0.01800214f, 0.02025628f, 0.03010720f, 0.01123253f, 0.06367560f, -0.06674655f, -0.03088690f, -0.06288904f, 0.04083881f, 0.13322833f, 0.02498936f, -0.01416957f, 0.00946051f, -0.01676572f, 0.02073503f, -0.05286330f, -0.14182551f, -0.02338129f, 0.00194367f, 0.02656837f, 0.06864962f, 0.07256614f, 0.07225165f, -0.00280994f, 0.03412075f, -0.01360314f, -0.07336427f, 0.01916058f, -0.01229775f, 0.05271577f, -0.00099708f, -0.08089600f, 0.07350688f, 0.02921425f, -0.03687503f, -0.02460957f, -0.07049393f, -0.02541942f, -0.01469014f, 0.02135430f, -0.02037339f, 0.01035279f, -0.02285554f, 0.06950620f, 0.03284164f, 0.00817706f, 0.00787730f, -0.06609021f, 0.03389673f, 0.07293856f, -0.02999160f,
    /* [5] */ 0.05754068f, 0.00438753f, -0.03105612f, 0.03776121f, -0.04417692f, 0.13067713f, 0.04465477f, 0.09527939f, 0.37223238f, -0.07818685f, 0.19007055f, 0.17913483f, 0.02564166f, 0.25472817f, -0.08533792f, 0.02830964f, -0.07161619f, -0.07313544f, 0.02161392f, -0.00258833f, -0.00900906f, 0.05495521f, 0.04215477f, 0.24173783f, 0.22556442f, -0.09234495f, 0.02993329f, 0.00891183f, 0.04929298f, 0.30926052f, -0.00835933f, -0.19018108f, 0.08013482f, 0.06426577f, -0.22127318f, 0.02246960f, -0.11750200f, -0.00348169f, -0.04759721f, -0.09907082f, -0.05230692f, 0.07556665f, 0.05068908f, 0.02725609f, 0.00011077f, -0.45333853f, -0.08640733f, -0.01653986f, -0.16502917f, -0.13628709f, -0.00390077f, -0.67962223f, -0.68250012f, -0.02946037f, 0.12104256f, -0.08538648f, 0.06980375f, -0.08286174f, 0.04025848f, -0.41551507f, 0.12726736f, -0.00894321f, 0.06701487f, -0.07824778f, -0.08435819f, -0.06119643f, 0.02558563f, 0.04346005f, 0.09748679f, 0.01503579f, 0.13379483f, -0.14514795f, -0.02943096f, -0.00978332f, -0.00600749f, 0.00984115f, 0.04279884f, 0.14604609f, -0.06985065f, -0.00831329f, 0.06702442f, 0.14893740f, -0.04629458f, -0.05599287f, 0.28037205f, 0.05691922f, 0.14987965f, 0.11956377f, 0.10317437f, 0.09598854f, -0.08257442f, 0.02961299f, 0.09946180f, -0.42034546f, -0.11415669f, -0.00382271f, 0.00523611f, -0.07627484f, 0.09260681f, 0.02195945f, 0.04955482f, 0.08785926f, -0.38429928f, 0.20569393f, -0.09055131f, -0.13110711f, 0.36339083f, 0.01590300f, 0.13313735f, 0.14712110f, 0.11288500f, -0.10290817f, 0.02314916f, 0.01782398f, -0.06357631f, 0.14459495f, -0.01744946f, 0.00383229f, -0.00784540f, -0.07007458f, -0.03107404f, -0.17449892f, -0.34131560f, -0.00888470f, -0.04899448f, 0.24820939f, 0.59248042f, 0.05993079f,
    /* [6] */ -0.14334330f, -0.08876140f, 0.05361097f, -0.06556819f, 0.05478849f, -0.05299928f, -0.71713358f, -0.04464820f, -0.04270099f, -0.04854514f, -0.19685556f, -0.09876471f, 0.03953937f, -0.10786945f, 0.09773196f, -0.18075538f, -0.05118329f, 0.06202906f, 0.02913717f, -0.08382703f, 0.02526780f, -0.01956137f, 0.16021037f, 0.12732776f, -0.26792270f, -0.06011100f, -0.11277097f, -0.03623123f, 0.08261723f, -0.24238347f, -0.08663526f, 0.08621696f, 0.03397672f, -0.05551686f, 0.15009898f, -0.18809339f, 0.34315351f, -0.12914512f, 0.08596149f, 0.10584174f, 0.08172695f, 0.13903084f, 0.16042280f, 0.00613126f, 0.01090054f, -0.12564361f, 0.11979739f, 0.11840186f, -0.10799358f, 0.04968574f, 0.07549354f, -0.35198095f, -0.53133714f, -0.02591336f, -0.00628327f, 0.26259962f, 0.02105352f, -0.01738166f, 0.05916266f, 0.33687177f, -0.06363997f, 0.03237190f, -0.12960890f, 0.57481080f, -0.03638787f, 0.00693414f, 0.00231881f, -0.09380688f, -0.20014346f, 0.30579013f, 0.03585909f, -0.10805971f, -0.02641662f, 0.02080148f, -0.04487736f, -0.01132711f, -0.11279997f, 0.05260883f, -0.05952474f, 0.15482044f, -0.10269236f, 0.04773343f, 0.02497447f, 0.06385870f, 0.04126431f, 0.00708129f, 0.14824112f, -0.10832070f, 0.07708723f, -0.03022826f, 0.22260197f, 0.16968057f, -0.13685143f, -0.62628770f, 0.04161804f, -0.01028725f, -0.05358744f, 0.18770096f, 0.02531587f, -0.03885709f, 0.11510811f, -0.08583418f, -0.13540478f, -0.48893425f, -0.01584241f, -0.00101018f, -0.09333834f, -0.01236627f, -0.12463722f, -0.16506231f, -0.05568626f, -0.07922093f, 0.02142822f, 0.58873951f, 0.05913429f, -0.32318765f, 0.03893454f, 0.02233746f, -0.11986706f, -0.01523094f, 0.09064930f, 0.09131850f, 0.22472389f, 0.03709925f, 0.01947089f, 0.01840009f, -0.22857411f, 0.08877411f,
    /* [7] */ -0.02827948f, -0.01224991f, -0.09405229f, -0.00775278f, 0.29443768f, -0.37788367f, -0.32485560f, 0.00495486f, -0.25673035f, -0.00559232f, -0.13013674f, 0.24263474f, -0.08755741f, 0.19933535f, 0.63404316f, 0.05340179f, -0.11832687f, 0.05574390f, -0.19163123f, 0.06124044f, 0.00367706f, -0.08386494f, -0.22481762f, 0.59681827f, -0.61333197f, 0.10197935f, -0.07780488f, -0.07901593f, -0.00102623f, -0.01127060f, 0.12574117f, -0.10260116f, 0.00549573f, 0.12283698f, -0.00398275f, 0.12856689f, 0.14688851f, 0.06584800f, -0.11864095f, -0.11664122f, -0.02474085f, -0.06327139f, -0.19348679f, -0.04584309f, -0.21354195f, -0.20731740f, 0.03523737f, 0.26256239f, 0.03528289f, -0.06301989f, 0.16404806f, -0.45075148f, -0.20122932f, 0.05823027f, 0.07166497f, 0.03064642f, 0.07413617f, -0.08483036f, -0.04726097f, 0.10111510f, 0.11124055f, 0.03404359f, -0.10276062f, 0.17013250f, 0.06366608f, -0.03014698f, 0.02098757f, -0.04074939f, 0.06079339f, -0.26332554f, -0.03037233f, 0.14074442f, 0.04312246f, 0.20323931f, -0.08206042f, 0.02274310f, 0.20312436f, -0.08680952f, -0.11382899f, 0.02625275f, 0.01394713f, -0.21681079f, 0.01579095f, 0.03719512f, 0.13070589f, -0.04335061f, -0.11018641f, 0.07194527f, -0.00730469f, 0.10600364f, 0.32147118f, 0.00737779f, 0.04765720f, -0.68553132f, 0.03056971f, 0.04074463f, 0.00664897f, -0.15425810f, 0.14222459f, -0.09965814f, 0.01321271f, -0.10575286f, -0.48848173f, -0.01602730f, 0.12412446f, -0.04694697f, -0.42615676f, -0.03237357f, 0.20729649f, 0.15584722f, 0.21574405f, -0.10524907f, -0.13656938f, 1.09326828f, -0.06231843f, 0.14690989f, 0.03288437f, -0.05416697f, -0.04804486f, 0.00513869f, 0.06563528f, -0.08596890f, 0.68178219f, 0.02828776f, -0.04902400f, 0.23811741f, -0.74526304f, -0.08211871f,
    /* [8] */ -0.02002969f, -0.08765004f, 0.00154934f, -0.04313786f, 0.05211053f, 0.03580061f, 0.01406562f, 0.01085661f, -0.04290126f, -0.03196929f, -0.02135758f, -0.03382260f, 0.04310271f, -0.01153284f, -0.02310489f, -0.01229875f, -0.04188640f, 0.05627090f, 0.12266366f, -0.02550245f, 0.00343216f, -0.02224406f, -0.05288887f, 0.02705417f, 0.05422188f, -0.00315737f, 0.03673592f, -0.01092744f, 0.08874902f, -0.04696579f, 0.12914033f, -0.01996878f, 0.08004913f, -0.02120902f, -0.00358494f, -0.07659739f, -0.02903912f, -0.02091710f, 0.04729944f, 0.00762755f, 0.05053470f, 0.07742218f, 0.03748738f, -0.02479622f, -0.07816602f, 0.03869140f, -0.03421191f, -0.01989364f, 0.04623742f, -0.09640417f, -0.01993166f, -0.04031716f, -0.03919549f, 0.01607018f, -0.01829436f, 0.00393495f, -0.03641801f, -0.03371880f, -0.00427357f, -0.01104394f, 0.02985866f, 0.00239863f, 0.03442813f, 0.06415241f, 0.03779823f, 0.05937988f, -0.00561894f, -0.06250887f, 0.00758495f, 0.05697579f, -0.04478227f, -0.00515339f, -0.00104135f, -0.02770735f, -0.02351638f, 0.03026711f, 0.01351582f, -0.00680741f, 0.01680206f, 0.07264341f, -0.02302097f, -0.06909475f, -0.00272960f, -0.07099242f, -0.05428535f, -0.02656831f, 0.04077465f, -0.04719358f, -0.01017869f, -0.03990658f, -0.01701422f, 0.06400147f, 0.04397967f, 0.04119825f, -0.01284380f, 0.00857344f, 0.07555819f, 0.00035815f, 0.00421367f, 0.01594630f, 0.03920868f, -0.06271219f, -0.08231997f, 0.00109023f, -0.00305986f, -0.05003732f, 0.09005795f, -0.00043511f, -0.00952226f, -0.03706714f, -0.03101643f, -0.07884818f, 0.01665165f, 0.00070783f, 0.11501489f, -0.10777644f, -0.02365957f, -0.02464013f, -0.01111725f, -0.02876683f, 0.07587966f, 0.01198777f, -0.07488950f, 0.05448854f, -0.00890700f, 0.05298932f, -0.00868684f, 0.03370785f,
    /* [9] */ -0.02126829f, -0.01697077f, 0.03213127f, -0.02465466f, 0.09392253f, 0.05113720f, 0.07903029f, 0.03806004f, -0.07241122f, -0.01162297f, -0.04331645f, 0.02770281f, 0.02136705f, -0.05045381f, -0.08213173f, -0.02768161f, 0.01998380f, 0.02843199f, 0.01066553f, -0.06178450f, -0.00562704f, -0.02820893f, -0.02156693f, 0.02520470f, 0.04288140f, 0.00939177f, 0.00936866f, 0.00490310f, 0.02905013f, 0.04345497f, 0.09341239f, -0.00527643f, 0.02583810f, -0.00147102f, -0.01752055f, 0.03286863f, -0.02761525f, -0.02108625f, 0.04514530f, 0.04213920f, -0.01095825f, -0.07415320f, 0.02654374f, 0.00991015f, 0.03201000f, 0.00939914f, -0.01379235f, 0.02544236f, -0.01632028f, -0.03187277f, -0.01562399f, -0.02338658f, -0.07607782f, -0.01226013f, -0.00665791f, -0.03815755f, -0.02274020f, 0.03051062f, -0.03558924f, 0.04454416f, -0.02139586f, -0.02625603f, -0.02593374f, -0.06059887f, 0.01807803f, -0.00018975f, -0.03067486f, -0.01128928f, 0.02636139f, 0.09959736f, -0.01773991f, 0.05510385f, 0.04673462f, -0.04508742f, 0.01579577f, 0.04089103f, -0.03106144f, 0.01203259f, 0.03106357f, -0.02093785f, 0.01035767f, 0.01252078f, 0.00050576f, -0.05264349f, -0.07421646f, -0.01751192f, 0.01892213f, -0.02090200f, -0.02120975f, -0.04542166f, -0.06136741f, -0.01502137f, -0.02034240f, -0.09084466f, 0.04031903f, 0.01024324f, -0.00509352f, -0.00887106f, -0.01659217f, 0.02947982f, 0.00831994f, -0.05257222f, 0.04885547f, 0.02758059f, 0.06196364f, 0.06732133f, 0.02754813f, -0.02507975f, -0.02287717f, -0.04808491f, -0.06778039f, 0.00681883f, 0.03221003f, 0.02472432f, 0.01701126f, -0.07807297f, 0.01950666f, -0.02247779f, 0.03595404f, 0.07371861f, -0.00237800f, 0.05129146f, -0.04029333f, 0.00440679f, 0.06250530f, -0.05487578f, -0.07392088f, 0.03053619f,
    /* [10] */ -0.05581914f, 0.00929462f, 0.08473723f, -0.08314350f, -0.06464795f, -0.00982938f, 0.07827584f, 0.03712828f, -0.01621860f, -0.05625535f, -0.01271865f, -0.08111496f, -0.02565129f, -0.11729295f, -0.03363464f, 0.01119685f, 0.05359827f, 0.06592876f, -0.04973708f, 0.00739409f, -0.00485113f, 0.02983861f, -0.01498438f, -0.06066459f, -0.00437690f, -0.11569307f, -0.01834012f, -0.05566393f, 0.03572395f, -0.11148852f, -0.17756443f, 0.02051658f, -0.03696880f, -0.00200608f, -0.02154104f, 0.10026205f, -0.12640871f, 0.07268824f, 0.01064386f, 0.12108821f, -0.04374031f, -0.17415339f, 0.03526357f, -0.01892091f, 0.00858947f, 0.07631049f, -0.05675030f, -0.04008784f, -0.01210922f, -0.04528606f, -0.01128889f, 0.04276846f, -0.08635359f, -0.02150209f, 0.03979316f, -0.03397476f, -0.04996018f, -0.01322007f, -0.04444024f, 0.02793620f, 0.01528214f, -0.04200139f, 0.08941145f, 0.02670783f, -0.00685015f, -0.03721637f, -0.05628949f, -0.01628453f, 0.01784699f, 0.07383551f, -0.08398349f, 0.02118170f, 0.04312171f, 0.02719966f, -0.00702443f, 0.02115875f, -0.06431074f, 0.02976071f, 0.06599007f, -0.06313184f, 0.00967926f, -0.02218377f, 0.03794637f, 0.01535518f, 0.11487556f, 0.06738950f, -0.07200526f, 0.01353882f, 0.01072306f, 0.01903138f, 0.01044769f, 0.04028352f, 0.13968779f, 0.05570308f, -0.01687807f, 0.01275590f, 0.01829864f, -0.03946986f, 0.01760682f, 0.04693726f, -0.04203869f, -0.00180474f, 0.03409471f, 0.02813751f, 0.04776182f, -0.06184476f, -0.00028696f, 0.02540158f, -0.04392237f, -0.00739751f, -0.00104295f, 0.05273204f, 0.01868967f, 0.11041563f, -0.04278836f, 0.03529904f, -0.00045177f, 0.00388052f, 0.01721537f, 0.01356929f, -0.01736887f, 0.12655382f, 0.03631863f, 0.00629934f, 0.00413510f, 0.11454674f, 0.00098306f, 0.02535217f,
    /* [11] */ -0.00248414f, 0.03436909f, 0.06723738f, -0.02748350f, -0.05088913f, -0.01293266f, -0.07451393f, 0.02554565f, 0.04514248f, -0.02385249f, 0.02010425f, -0.01698029f, 0.03252003f, -0.03507823f, -0.14826143f, 0.03177278f, -0.03877867f, -0.03199224f, -0.04326816f, 0.04151389f, -0.00491148f, -0.04580003f, 0.00552979f, 0.03706503f, 0.01231724f, -0.00446665f, -0.01278949f, 0.02248856f, -0.02870941f, -0.02068868f, 0.09447468f, 0.04103501f, -0.00696037f, -0.01238329f, 0.03029761f, -0.09223656f, 0.09865665f, -0.02413478f, 0.04666001f, 0.06124251f, 0.02272711f, -0.02958971f, 0.01381680f, -0.03943349f, -0.02176058f, -0.09481195f, 0.04356273f, 0.03124792f, 0.03486384f, -0.00323366f, -0.03053022f, -0.04151306f, 0.00030032f, -0.06669694f, -0.00695339f, 0.05688888f, -0.07394621f, -0.00201954f, -0.03413906f, -0.06209068f, -0.03228821f, -0.05781194f, -0.00449813f, -0.07210857f, 0.00078177f, -0.00573836f, -0.05858032f, 0.01194841f, -0.01135858f, -0.02802362f, 0.01305740f, -0.00901210f, 0.05580823f, -0.05007342f, 0.01564562f, 0.00035394f, -0.04822848f, 0.02333597f, -0.03446954f, -0.06871071f, -0.00322530f, -0.07204295f, -0.03107354f, -0.04211658f, 0.00203482f, -0.02060028f, 0.01382879f, 0.01930792f, -0.01495692f, -0.02263584f, 0.02436886f, -0.03686922f, 0.02647890f, -0.13277932f, 0.04789769f, -0.01608698f, 0.02203247f, 0.03370516f, -0.06406112f, -0.02501901f, -0.01451457f, 0.03206164f, 0.14553499f, 0.06591751f, -0.01249930f, 0.02695425f, 0.01448149f, 0.01545804f, -0.04707335f, 0.00536988f, -0.03076225f, 0.00709250f, 0.01316155f, 0.09472754f, -0.05968463f, 0.03773977f, 0.04755056f, -0.04496108f, -0.06494231f, 0.01489123f, -0.01765176f, 0.02351897f, -0.03212518f, 0.02693777f, 0.06624250f, 0.08725648f, -0.08654094f, 0.01927951f,
    /* [12] */ 0.10543589f, -0.13615397f, -0.03560086f, -0.03141434f, -0.00971208f, -0.02133695f, 0.16449711f, -0.05625362f, -0.08649635f, 0.01578318f, 0.05789417f, -0.02346876f, -0.06636431f, -0.07293458f, 0.09323090f, 0.02233839f, 0.06515025f, 0.15100014f, -0.03362084f, -0.00500982f, -0.03886934f, 0.01051655f, -0.10730495f, -0.18604474f, -0.11916161f, -0.02906438f, -0.01148620f, -0.02260370f, 0.00799149f, -0.07667553f, 0.01030166f, -0.10760807f, 0.06732058f, -0.05489062f, -0.09191132f, 0.07743009f, -0.16451769f, 0.14835955f, -0.07708471f, -0.04469828f, -0.00751351f, 0.10059573f, -0.06149030f, -0.04550306f, -0.05033352f, -0.02277375f, -0.00582069f, 0.00488316f, -0.01653520f, -0.03150755f, -0.05576796f, 0.02187543f, -0.12809138f, 0.10347345f, 0.02942641f, -0.01816594f, -0.00715193f, 0.00332955f, -0.01872132f, -0.04284400f, 0.02114056f, -0.01315328f, 0.11933847f, 0.02827850f, 0.07920630f, 0.00003929f, 0.07374462f, 0.01093517f, 0.07446416f, -0.10304989f, -0.10597143f, 0.00638549f, -0.07823431f, 0.01357547f, 0.05009120f, 0.06973702f, -0.03852118f, 0.01098636f, 0.10671009f, 0.12629938f, -0.03361926f, 0.00193621f, 0.01960149f, 0.08439630f, 0.08853917f, 0.12203688f, 0.01802586f, -0.09332110f, -0.05087679f, -0.07456472f, 0.01947031f, 0.00770338f, 0.01697476f, 0.03143799f, -0.07989135f, -0.02211239f, 0.05419560f, -0.03333390f, -0.06360337f, 0.02498492f, -0.09692448f, -0.02958209f, -0.06918003f, -0.05511184f, -0.14880189f, -0.09809505f, 0.00991860f, 0.03035205f, 0.11636638f, -0.01688880f, 0.08471909f, -0.12610708f, -0.05066395f, 0.00141949f, 0.04733499f, 0.06524242f, -0.01130644f, 0.06011142f, 0.05208492f, 0.03321811f, -0.04205776f, 0.05061986f, 0.09354165f, -0.08726475f, -0.08750483f, 0.00417956f, -0.01081457f, 0.00121942f,
    /* [13] */ -0.04512723f, 0.00105646f, 0.03012785f, -0.02083312f, 0.00125006f, 0.00047456f, -0.02573731f, -0.07880204f, -0.04115479f, 0.04137099f, 0.00406353f, 0.00261289f, -0.01368922f, -0.03547369f, -0.04500793f, -0.07292925f, -0.01608163f, -0.02568861f, -0.04867217f, -0.01962150f, 0.01783602f, -0.01225000f, -0.00904209f, 0.05521170f, -0.03136865f, 0.00086746f, -0.04810893f, 0.00435817f, -0.00245528f, -0.07279599f, -0.01362151f, -0.06570341f, 0.00063580f, -0.03358042f, 0.00507546f, -0.02833462f, 0.01099524f, 0.03102083f, -0.00963829f, -0.00075711f, 0.04673727f, -0.07623850f, 0.02100758f, 0.05145650f, 0.00596865f, -0.03610042f, 0.02061880f, -0.11150745f, -0.02256998f, 0.06670899f, 0.05084553f, -0.03112843f, -0.03434952f, -0.00481469f, 0.03551310f, -0.09972725f, -0.03872193f, 0.01082799f, 0.01310681f, -0.02567177f, -0.03758414f, -0.05659067f, -0.01906813f, 0.00700698f, -0.07115727f, 0.01454457f, -0.02925439f, -0.04420106f, 0.05505073f, -0.03186818f, 0.03256563f, -0.04487740f, 0.03522127f, -0.02219507f, 0.05729462f, -0.07434452f, -0.07996260f, 0.02490563f, -0.10862157f, -0.02188224f, 0.06638832f, 0.05421550f, -0.07310774f, -0.04457783f, -0.04019842f, -0.01781244f, -0.02394071f, 0.05637857f, -0.01700199f, -0.02389876f, -0.03500126f, 0.03007820f, -0.00982164f, -0.11340471f, 0.06857187f, -0.06144796f, -0.05455802f, -0.02607994f, -0.10171150f, -0.00269221f, 0.00642966f, 0.07902547f, 0.10406046f, 0.11287908f, 0.07124615f, 0.07831936f, -0.02493509f, -0.07663442f, -0.01379946f, -0.01498226f, -0.06579816f, 0.02893670f, 0.03777495f, -0.02066478f, -0.07170285f, 0.08103927f, 0.06638107f, -0.09194498f, 0.02025846f, -0.03206922f, 0.00418101f, -0.01706434f, -0.03516172f, 0.03317459f, 0.04208802f, 0.04025845f, 0.01469871f, 0.01582212f,
    /* [14] */ -0.00980233f, -0.00871549f, -0.04420676f, 0.01677071f, 0.07887729f, -0.00989475f, -0.00299361f, -0.02761115f, -0.04923881f, -0.06608988f, -0.02488774f, -0.02552513f, 0.04202815f, 0.00231188f, -0.02040461f, -0.03114141f, -0.05064757f, -0.08328627f, -0.01450683f, 0.01701367f, 0.02602964f, -0.06029649f, 0.10619297f, 0.02701912f, -0.06789266f, -0.02886984f, 0.02576316f, -0.02288447f, 0.09555547f, 0.02632254f, 0.01537883f, 0.03324050f, 0.07438154f, 0.01106773f, 0.01076174f, -0.03171034f, 0.01297061f, -0.10524530f, -0.01395705f, -0.06641632f, -0.04984478f, 0.00119486f, -0.03218606f, 0.08517890f, 0.02036726f, 0.04928470f, 0.01993797f, 0.01292825f, -0.04677007f, -0.06442080f, 0.04650913f, -0.01153783f, 0.03395109f, -0.03044399f, -0.00417059f, 0.07230139f, 0.00410326f, -0.04664641f, -0.04324464f, -0.05148462f, -0.03862579f, 0.00390475f, -0.04825073f, 0.12919146f, -0.03004981f, -0.00974455f, -0.01785292f, -0.07766919f, -0.04164775f, -0.05198088f, 0.04545426f, -0.02479977f, 0.02874987f, 0.03825894f, -0.06658950f, -0.05799985f, 0.04668250f, 0.05211386f, -0.03453054f, 0.03066831f, 0.06060924f, 0.05929011f, 0.01913820f, -0.01955674f, -0.04227140f, 0.00422436f, 0.03324480f, 0.00680543f, 0.01664281f, -0.04191916f, 0.09590230f, -0.00755088f, -0.01470842f, 0.04838340f, 0.05429118f, -0.00257745f, -0.06845565f, -0.00084187f, -0.01494773f, -0.03072896f, 0.05437844f, -0.01719886f, 0.08249965f, -0.01750316f, 0.05480597f, 0.02582111f, -0.03284362f, -0.03477847f, 0.00008581f, 0.03577958f, -0.00620345f, -0.05415017f, 0.00515587f, -0.06434102f, -0.07388248f, -0.03458494f, 0.01137614f, 0.01612782f, 0.01928760f, -0.07189222f, -0.01201941f, -0.01622127f, -0.01998750f, -0.04323213f, -0.01222647f, 0.00585688f, 0.05203507f, 0.01213874f,
    /* [15] */ 0.00126347f, 0.01073549f, -0.03473187f, -0.03072968f, -0.00310141f, -0.05655441f, 0.04742681f, 0.02702526f, -0.05701665f, -0.03604807f, -0.01605992f, 0.07665709f, 0.02181735f, 0.07878543f, 0.06039053f, -0.01047505f, 0.00006486f, -0.06375850f, -0.05113269f, -0.03585228f, 0.04614402f, 0.06177234f, -0.15527470f, 0.00722706f, -0.10268781f, -0.01944987f, 0.02295063f, -0.03328633f, -0.05222073f, -0.04043061f, -0.01508690f, -0.06364024f, 0.03115291f, 0.00414622f, -0.06672322f, 0.08074521f, -0.00532541f, 0.13376404f, 0.03266114f, -0.03213710f, -0.03753499f, -0.00769920f, 0.01837274f, -0.04128269f, -0.11082420f, -0.06309296f, -0.01420874f, -0.02223693f, 0.05207635f, -0.08364540f, -0.01936788f, 0.02350255f, -0.00976556f, -0.02058014f, 0.01555744f, -0.11584520f, -0.00428366f, -0.03432925f, -0.02617562f, 0.06138988f, 0.05070296f, 0.01699655f, -0.00517143f, -0.02073910f, 0.02093502f, -0.01461114f, 0.01966171f, -0.01173425f, -0.00729255f, -0.10725237f, 0.05783270f, 0.07148711f, 0.04716631f, -0.01884558f, -0.05837437f, -0.02811467f, 0.01940715f, 0.00933784f, -0.04694599f, 0.06258814f, -0.01293819f, -0.02682707f, 0.02607789f, 0.06140388f, -0.06137084f, 0.09205513f, -0.01474929f, 0.01780767f, 0.09237262f, 0.02201809f, -0.05711076f, 0.01540574f, -0.02038542f, 0.02676888f, -0.04288585f, -0.00602256f, -0.05046009f, 0.02494445f, 0.06301908f, 0.03463581f, 0.13824584f, -0.07899983f, -0.03134913f, -0.14563389f, 0.02862227f, -0.02874234f, -0.03842631f, -0.02265513f, 0.07137891f, 0.00687267f, -0.00404310f, -0.04704364f, -0.00915526f, -0.06531741f, 0.03534219f, -0.03882938f, 0.00883364f, -0.03746653f, -0.06412592f, 0.00699408f, 0.01424553f, -0.10025401f, 0.03955426f, 0.03232014f, 0.00016634f, -0.00963482f, -0.05657509f, 0.01573750f,
    /* [16] */ -0.01765649f, 0.01232882f, 0.04611769f, 0.03689564f, -0.01151189f, -0.03738742f, 0.07850486f, -0.04878888f, -0.06289171f, -0.00756639f, -0.02587571f, -0.02709697f, -0.00213953f, 0.05559144f, 0.08538555f, -0.00698936f, -0.00651417f, 0.01539323f, -0.19600947f, 0.03046579f, -0.01093520f, -0.02565712f, 0.01076187f, -0.09484328f, -0.17969705f, 0.00138091f, -0.05259622f, 0.00915587f, -0.06197602f, 0.08802687f, 0.11965103f, 0.02453500f, 0.06373603f, -0.03711209f, -0.00573287f, 0.16629779f, -0.01564994f, 0.03314046f, -0.02740907f, 0.00805172f, -0.00156070f, 0.03811695f, -0.06220955f, -0.00272716f, 0.04460834f, -0.02661273f, -0.03745284f, 0.05019444f, -0.07916810f, 0.03650688f, -0.00213891f, -0.00035361f, -0.08318827f, 0.08513857f, 0.06782088f, 0.07172964f, -0.00660003f, 0.06507682f, -0.02304698f, -0.05946934f, -0.05194345f, -0.01553628f, -0.02264403f, 0.01912997f, -0.02602278f, -0.02649476f, -0.00159565f, -0.01504961f, -0.01057470f, -0.12419081f, -0.08742010f, 0.07315478f, -0.01935299f, -0.06455564f, 0.04096984f, -0.04573206f, -0.05628186f, -0.05802786f, 0.09609446f, -0.09905173f, -0.05888874f, -0.02078425f, -0.01227905f, 0.03161278f, -0.15319507f, 0.01588255f, 0.04495934f, -0.09780721f, -0.06471713f, -0.03021571f, 0.06067274f, -0.06313560f, -0.00421031f, -0.05615458f, -0.01118776f, 0.03165860f, 0.01306594f, -0.01524671f, -0.12788782f, -0.00527097f, -0.02449869f, 0.02905002f, 0.15398802f, 0.10430915f, 0.01705989f, 0.05646957f, 0.00410163f, 0.02338992f, 0.00650553f, -0.01829668f, -0.05177498f, 0.00418532f, -0.03148557f, 0.00884412f, -0.05801992f, 0.14196140f, -0.04869501f, 0.00811403f, 0.06180812f, 0.04527892f, -0.07208312f, 0.09155366f, 0.05858438f, 0.01290323f, 0.03896746f, -0.15987523f, -0.09527071f, 0.00167779f,
    /* [17] */ 0.04852138f, 0.06985959f, 0.02176687f, 0.00927458f, -0.03333739f, 0.03562578f, -0.02892562f, -0.07310662f, 0.05571632f, -0.00146466f, 0.01644979f, -0.03113127f, -0.04650319f, 0.07312129f, 0.03764702f, 0.01006361f, 0.00689164f, 0.03569479f, -0.17999861f, -0.05679993f, 0.00826239f, -0.08868229f, 0.06866139f, -0.01875806f, 0.00911533f, 0.00300426f, -0.05402112f, -0.03432956f, -0.04223089f, -0.03271015f, 0.06154189f, -0.04648896f, -0.04840099f, -0.05019365f, -0.05585577f, -0.01447275f, 0.07120981f, -0.05033945f, 0.02655949f, 0.05138081f, 0.04179037f, 0.07296401f, -0.08519519f, 0.01525996f, 0.04053691f, -0.03113956f, -0.03491558f, -0.02572545f, 0.00905237f, -0.01754334f, -0.01448904f, -0.01829697f, 0.03678173f, 0.00314150f, -0.03535947f, -0.11933943f, -0.04726010f, 0.06626800f, -0.04046181f, -0.13102522f, -0.09739948f, -0.00934962f, 0.03852794f, 0.01694544f, -0.05381603f, -0.00059969f, 0.01638515f, -0.03698863f, -0.02183606f, 0.11002231f, -0.13038556f, -0.00876151f, 0.04683839f, -0.00310173f, 0.14192440f, 0.01697843f, -0.10561909f, 0.00887128f, 0.10105749f, -0.13040979f, 0.04829947f, 0.04122882f, -0.02207844f, -0.07992023f, 0.04078574f, -0.07255687f, -0.00134111f, 0.03837311f, -0.10843091f, 0.01356033f, 0.05037289f, -0.08791392f, 0.02368389f, -0.20597346f, 0.05604781f, 0.01450747f, -0.07132581f, -0.16210464f, -0.06391963f, 0.00599482f, -0.05170790f, 0.10390023f, 0.01968770f, 0.09467290f, -0.00291914f, 0.02483958f, 0.09951431f, 0.03166050f, 0.01148070f, 0.01398489f, -0.08691724f, 0.00745782f, 0.00572853f, -0.08984448f, -0.13102512f, 0.04251465f, -0.03069147f, -0.01664352f, 0.01581345f, 0.03881793f, -0.01713652f, 0.14175338f, -0.03519977f, 0.00323265f, 0.01446779f, -0.12714256f, -0.04286870f, 0.02098047f,
    /* [18] */ -0.03915798f, -0.02570393f, -0.02248892f, 0.08844693f, -0.01788385f, -0.09687247f, -0.01681602f, 0.02862752f, 0.00090359f, -0.01413800f, 0.00407028f, 0.09289803f, 0.04820089f, -0.05401835f, -0.13066219f, -0.00684203f, -0.05713086f, -0.03347188f, 0.02715430f, -0.01368782f, 0.08351160f, -0.04344288f, 0.05582853f, -0.02218936f, -0.02297024f, -0.02120757f, 0.02766401f, -0.03771492f, 0.04751683f, 0.05067431f, -0.08709780f, 0.00892301f, 0.03356988f, -0.04401860f, 0.02536830f, -0.05530680f, -0.08058802f, -0.00008583f, 0.00418410f, -0.00770701f, -0.01319210f, -0.00701999f, 0.00268587f, -0.02634252f, -0.00474011f, -0.09864666f, 0.01936877f, -0.02449337f, 0.02454272f, -0.04316708f, 0.03004466f, -0.04849720f, -0.00684988f, -0.01382061f, 0.01222655f, 0.00263854f, 0.02112102f, -0.00997746f, -0.13370079f, -0.05641634f, 0.03140603f, -0.04915712f, -0.02820100f, 0.06411695f, 0.05434076f, 0.03279088f, -0.00557403f, 0.01291862f, -0.03279803f, -0.03455586f, -0.00717321f, -0.04746344f, 0.01553786f, 0.03854999f, -0.03552530f, 0.01220371f, -0.00292415f, 0.04223536f, -0.03952566f, -0.00603341f, -0.00784667f, -0.00777234f, -0.03095435f, 0.02072955f, 0.13831392f, -0.09141227f, 0.04585238f, 0.03166265f, -0.03350585f, 0.00973924f, -0.00500136f, -0.01881406f, 0.02202614f, -0.09419286f, -0.02956790f, -0.02364492f, -0.04538725f, 0.07433128f, 0.01382126f, -0.03284260f, 0.01694301f, 0.07059044f, 0.09088229f, -0.06618659f, 0.01394125f, -0.02987496f, 0.06261645f, 0.00517752f, -0.07632067f, 0.04270126f, -0.05979452f, -0.07858492f, -0.05615459f, 0.06240449f, -0.04247587f, -0.01177675f, 0.08048330f, -0.08707226f, -0.04882584f, 0.02084707f, 0.00428490f, -0.01193703f, 0.02022584f, -0.01501585f, 0.06628164f, 0.04897841f, -0.01267554f, 0.06029382f,
    /* [19] */ -0.00727462f, 0.00692309f, -0.00198928f, 0.02513545f, -0.07572230f, 0.04090318f, -0.00734701f, -0.02731649f, -0.03000543f, -0.00267228f, 0.01141082f, 0.13494125f, 0.08361816f, 0.07447001f, -0.06006883f, -0.07891348f, -0.02378524f, -0.05648836f, -0.01301258f, 0.03410856f, 0.07023063f, 0.07693413f, -0.00201872f, -0.05746387f, 0.04258019f, 0.03267752f, -0.01880195f, -0.00812660f, 0.03380146f, -0.02022507f, -0.05087281f, 0.08277747f, 0.03428565f, 0.00356973f, -0.00810518f, -0.00695755f, 0.00953718f, -0.04776839f, 0.02074374f, -0.03077877f, 0.03968027f, -0.04538620f, -0.00384408f, 0.09026901f, -0.04977276f, 0.02368938f, 0.02668688f, 0.02189502f, 0.00881337f, 0.01885124f, 0.04456779f, -0.03174121f, -0.07028209f, 0.01230943f, -0.00918147f, -0.02071766f, 0.06230593f, -0.02987743f, 0.02160283f, 0.02597912f, -0.01670796f, 0.05224903f, -0.09313688f, -0.08581144f, -0.03503982f, 0.00910363f, 0.02957128f, -0.01717358f, -0.01772043f, -0.09618559f, 0.10765150f, -0.07491697f, 0.07717343f, -0.02378672f, -0.03621490f, 0.00387186f, 0.02200230f, 0.05104627f, -0.07892555f, 0.02719602f, 0.01894101f, -0.02632766f, -0.00403180f, 0.00827422f, -0.13129090f, -0.06106672f, 0.03359278f, 0.02067741f, -0.04464370f, 0.04327876f, 0.04521781f, 0.09041582f, -0.07265852f, -0.11444450f, 0.09533913f, -0.02726981f, 0.01179255f, -0.06149240f, -0.03407553f, -0.04487024f, 0.07433008f, -0.06146248f, 0.03374142f, 0.04306736f, 0.08463984f, 0.00526145f, 0.02853848f, -0.06581756f, 0.04406163f, 0.06477771f, -0.00821326f, -0.01609424f, -0.02303655f, 0.02377280f, 0.04649620f, -0.03884348f, 0.06985532f, -0.08115011f, -0.03100864f, -0.04382199f, 0.00220160f, -0.03491056f, -0.07320484f, -0.00194666f, 0.06442618f, -0.00641462f, -0.07106083f, 0.06384923f,
    /* [20] */ 0.00645800f, -0.03778259f, 0.00018421f, 0.00706462f, 0.05610479f, 0.04298410f, 0.00662471f, 0.09310985f, 0.03480537f, 0.00122715f, 0.05815628f, 0.01542985f, 0.05238444f, -0.02818211f, -0.05096309f, -0.11957844f, 0.03669627f, -0.07794729f, 0.10366315f, -0.00438019f, 0.01551557f, -0.01527490f, -0.00625703f, -0.06679578f, 0.11906696f, -0.01333546f, -0.03164985f, 0.03771396f, -0.01369588f, -0.04668267f, 0.01556938f, -0.05043992f, 0.03940418f, 0.02684966f, -0.08667468f, 0.05522774f, -0.05873759f, -0.07564563f, -0.02975366f, -0.02720632f, 0.00980175f, 0.00617776f, 0.02800671f, 0.02898928f, -0.06660839f, 0.01108267f, -0.02750189f, 0.04456125f, 0.01729605f, -0.03555879f, 0.01530342f, -0.01301416f, -0.02747145f, -0.03958794f, 0.01471373f, 0.03123931f, -0.00614561f, -0.02492729f, -0.02067021f, 0.08622172f, -0.00322452f, -0.02010551f, -0.00167970f, -0.00512084f, -0.00937692f, 0.06325470f, -0.00041145f, 0.03753245f, 0.02777713f, 0.07222738f, 0.02002317f, 0.03177796f, 0.02502282f, 0.01928805f, -0.06573050f, -0.02758835f, -0.01602175f, -0.00311767f, -0.07761625f, 0.07578345f, 0.03786789f, -0.01325704f, -0.01161141f, 0.13605964f, -0.05036790f, -0.02894892f, 0.03645111f, -0.05135163f, 0.03890335f, 0.02520300f, -0.04489527f, 0.01940337f, -0.04055442f, -0.17612197f, -0.03984727f, 0.04227698f, 0.01880037f, 0.00926641f, -0.05578072f, 0.05030319f, 0.08688428f, -0.06187453f, -0.08768838f, 0.05600989f, 0.03208213f, 0.00996003f, 0.03878502f, -0.02623904f, -0.07727423f, -0.00315710f, -0.02933090f, 0.01172102f, 0.03152854f, 0.02141821f, 0.04222823f, -0.13282235f, 0.02933296f, 0.01783468f, -0.00384936f, -0.01532354f, 0.03101099f, 0.03186049f, -0.09678893f, 0.00587882f, 0.01647655f, -0.03842197f, -0.08159348f, -0.00786220f,
    /* [21] */ -0.07000370f, 0.00281106f, -0.07818466f, -0.00607654f, -0.03063781f, -0.05566427f, 0.03394465f, -0.02130311f, 0.03109046f, -0.02489880f, -0.03762536f, -0.03412129f, 0.06358307f, -0.04847631f, -0.01170899f, -0.04523670f, 0.00353558f, -0.10340379f, -0.03995878f, 0.00702213f, 0.04578412f, -0.07117490f, 0.07981788f, -0.01287908f, 0.06902793f, 0.02268806f, 0.01829721f, 0.03271906f, -0.06147715f, -0.01969846f, 0.04701925f, -0.03769753f, -0.00453646f, -0.01479932f, 0.08073059f, 0.00800486f, -0.06266294f, -0.10281477f, -0.02591432f, -0.07560830f, -0.04788544f, 0.01827306f, 0.03155996f, 0.02323177f, -0.00634287f, 0.00099954f, -0.04566985f, 0.02412859f, -0.02822791f, -0.03395266f, -0.00500815f, 0.00424579f, -0.01592286f, -0.01443652f, 0.02722002f, 0.05476350f, 0.03318788f, -0.03478592f, -0.05495389f, 0.00706964f, -0.08612753f, -0.01469869f, -0.00106665f, 0.06175807f, 0.02034458f, -0.00226793f, -0.00938149f, -0.00074311f, -0.00287211f, -0.06214538f, -0.01972011f, 0.01393027f, -0.02581509f, -0.00540751f, -0.02085066f, -0.09297218f, 0.02553573f, 0.00918302f, -0.01710425f, 0.00522268f, -0.00041647f, -0.00403732f, -0.08057229f, 0.07950417f, -0.00038522f, -0.08946311f, -0.00544002f, 0.01543011f, 0.01925606f, 0.04858317f, 0.01117881f, -0.02938149f, -0.04462632f, 0.11196904f, -0.03459375f, -0.05012196f, -0.04436878f, -0.03533893f, -0.05875250f, 0.01373929f, 0.01190175f, 0.03413661f, 0.00386447f, -0.00526770f, -0.05482278f, -0.00480375f, -0.02250997f, 0.03937529f, -0.00611671f, -0.02579889f, -0.05920713f, 0.01447436f, 0.04739498f, 0.09190452f, -0.00610690f, 0.00257872f, 0.01679897f, -0.01724917f, -0.02588427f, -0.04402751f, 0.00382019f, 0.01426394f, 0.05071666f, 0.01602665f, -0.00773048f, 0.01493749f, 0.06425416f, 0.00683913f,
    /* [22] */ -0.00677265f, 0.01080172f, -0.00801112f, 0.02362269f, 0.00918617f, 0.01355743f, 0.03832250f, -0.01161790f, -0.05126508f, 0.02873358f, -0.02146004f, -0.06266063f, -0.04833495f, 0.05779349f, 0.04822817f, 0.00233927f, 0.03371726f, 0.08437358f, -0.00694847f, 0.00978570f, 0.02947921f, 0.03430552f, -0.10272289f, -0.02853896f, 0.02514426f, -0.02788270f, -0.01382440f, 0.01173572f, 0.03772405f, -0.13990864f, -0.16968893f, -0.07013816f, 0.01185410f, -0.02475109f, -0.04143699f, 0.04639943f, -0.04211723f, 0.08560777f, -0.01983642f, 0.02060383f, 0.05047311f, -0.08876695f, 0.06237122f, -0.07002348f, 0.01411405f, -0.04497222f, -0.02670436f, 0.00351277f, 0.02192721f, -0.03956659f, 0.00401732f, 0.00368980f, -0.02714942f, 0.05258371f, 0.02602031f, 0.02684450f, 0.00476375f, -0.01181936f, -0.01200933f, 0.16568227f, 0.07299360f, -0.05552528f, 0.06277848f, -0.08576359f, 0.07550689f, 0.05802116f, -0.04515110f, 0.00035282f, -0.00287486f, 0.04813987f, -0.05244951f, 0.04199370f, 0.00257003f, -0.02270340f, -0.01254109f, 0.04273183f, -0.06670048f, 0.00599489f, -0.00460741f, -0.01906792f, -0.03924226f, -0.03118000f, 0.04491701f, 0.01312269f, -0.12755120f, 0.07898711f, -0.01188899f, -0.06450343f, 0.01063021f, 0.09761347f, -0.01481517f, 0.03754829f, 0.03134017f, -0.01960005f, -0.02818904f, 0.02466948f, 0.03554594f, -0.02126486f, -0.01543237f, 0.03505500f, -0.02260789f, 0.04026725f, -0.07070757f, -0.09906691f, -0.01899505f, -0.06595264f, -0.05760968f, -0.02260130f, -0.00225136f, 0.01582909f, 0.03402394f, -0.02332991f, 0.04759918f, 0.04247037f, 0.03197506f, -0.03751632f, -0.01462382f, -0.00056849f, 0.06265490f, -0.00006610f, 0.01543416f, 0.06368332f, -0.08757208f, -0.03092583f, -0.02730816f, -0.06668123f, -0.02114255f, 0.01862347f,
    /* [23] */ 0.01817825f, -0.06819856f, 0.04463307f, -0.01439184f, -0.03542598f, 0.05403085f, -0.00062142f, 0.04031993f, -0.00554404f, 0.05401440f, 0.00595610f, 0.08242673f, 0.04436876f, -0.02835863f, 0.01511029f, -0.02612824f, -0.06195864f, -0.05182406f, 0.09761669f, 0.00687948f, 0.05322381f, -0.02249144f, 0.00995138f, 0.06812242f, 0.00272324f, 0.04556094f, 0.00841668f, -0.02359934f, -0.04178692f, -0.01486406f, 0.04432515f, 0.04536431f, -0.03286880f, -0.00775740f, 0.04085327f, -0.12261040f, -0.01710821f, -0.06445027f, 0.05242105f, 0.01190908f, 0.01863923f, -0.09906413f, -0.03486801f, 0.02320976f, -0.05898961f, -0.02982482f, 0.02128473f, -0.11229404f, -0.00924947f, -0.00885227f, 0.08797306f, -0.01158277f, 0.00153020f, 0.04399479f, -0.05686359f, 0.06813242f, -0.02984739f, 0.07324326f, 0.00219470f, 0.06128559f, -0.01340386f, -0.01599140f, -0.09445304f, 0.01789259f, -0.03488612f, 0.04584596f, 0.04202424f, 0.04865229f, -0.02413507f, 0.01620297f, 0.08655776f, 0.02071384f, 0.01164351f, 0.00238037f, 0.01502839f, 0.02984742f, -0.03060619f, 0.03449659f, -0.08014300f, -0.02965046f, 0.01133547f, 0.00282695f, 0.01830252f, -0.07413803f, 0.02215065f, -0.01870016f, -0.05965202f, 0.04331610f, 0.03049829f, -0.03531650f, -0.04120027f, 0.00550001f, -0.04411524f, -0.00732642f, 0.00151791f, -0.04783664f, -0.04686207f, -0.01409642f, -0.06838207f, -0.03439808f, 0.02532843f, -0.02182606f, 0.15770315f, 0.05320479f, 0.02003182f, 0.00807624f, 0.04620518f, 0.01562194f, -0.02621083f, -0.02220883f, -0.03630763f, -0.05501981f, 0.01405985f, -0.11179706f, -0.00247069f, -0.07395622f, 0.00072741f, -0.03811954f, -0.01041580f, 0.06302723f, 0.02693239f, -0.07325353f, -0.07420014f, 0.02070498f, -0.00016991f, 0.11535776f, -0.01371155f, 0.02199358f,
    /* [24] */ -0.02561803f, -0.06862938f, 0.05543815f, -0.09794562f, -0.00447891f, -0.00392489f, 0.01349633f, -0.04522931f, -0.00061185f, -0.00570260f, -0.04505805f, -0.03321417f, 0.05128164f, 0.02876944f, 0.00896121f, -0.05794512f, 0.05979266f, -0.02766002f, 0.00038452f, -0.10331815f, 0.04703685f, 0.03666674f, 0.05122008f, 0.00384444f, 0.04207397f, -0.01896184f, 0.01979186f, -0.00147555f, -0.00956134f, 0.00265436f, 0.00441385f, 0.02996613f, 0.02416735f, -0.03439916f, -0.02240277f, 0.04531371f, -0.08719015f, -0.07041319f, 0.00489777f, 0.05423930f, 0.01013443f, -0.02981327f, 0.03492606f, -0.00269475f, -0.03232213f, -0.02566886f, 0.01327435f, 0.01394123f, -0.05095164f, 0.04057120f, 0.07813010f, -0.00840318f, -0.04169594f, -0.04491137f, 0.02525512f, 0.07512991f, -0.02136850f, -0.02539027f, 0.01806620f, -0.01630695f, -0.08047476f, -0.01853801f, -0.04914263f, -0.00529436f, -0.00938727f, -0.02667788f, -0.00857328f, -0.04323828f, 0.02434782f, 0.02005735f, 0.01707867f, 0.01432805f, 0.04606025f, -0.00321195f, -0.01269323f, 0.01366069f, -0.06516743f, 0.04207179f, 0.00288668f, 0.01020715f, 0.04616740f, 0.00192417f, -0.01981730f, -0.06661324f, -0.00139314f, -0.08241939f, -0.05608358f, 0.00875912f, -0.02719585f, 0.04668181f, 0.04291194f, 0.05772484f, -0.01105923f, 0.01723422f, 0.03084124f, 0.02325135f, 0.04483769f, 0.05832426f, -0.01665194f, -0.04034370f, -0.00333933f, -0.02802770f, 0.09895940f, 0.08224054f, 0.04392092f, 0.03614768f, 0.01231958f, -0.01236505f, -0.01952985f, -0.01598010f, -0.07880580f, -0.01001773f, 0.02715663f, -0.00317900f, 0.08061043f, -0.03512283f, 0.07573715f, 0.05529990f, 0.00373753f, 0.02265895f, 0.00372753f, 0.00446123f, 0.05839562f, 0.02438880f, 0.04865618f, -0.02791764f, -0.00436118f, 0.07485790f,
    /* [25] */ 0.00739404f, 0.02164613f, -0.03072477f, 0.05119378f, -0.00522437f, 0.00075103f, 0.04181410f, 0.02638609f, -0.04237067f, 0.06812127f, -0.01423520f, 0.01888011f, 0.01500656f, 0.04206373f, -0.04792889f, 0.06865165f, -0.05314847f, -0.04870418f, 0.04553323f, -0.02338590f, 0.00064934f, -0.00084575f, 0.00762768f, 0.04655395f, 0.05819123f, 0.04757052f, -0.01335777f, 0.00430502f, -0.07090104f, -0.06477729f, -0.08077556f, -0.01862712f, -0.02383310f, 0.00721358f, -0.00373478f, 0.10077507f, 0.04120653f, 0.03170577f, -0.03802280f, 0.01240523f, -0.05593209f, -0.01862017f, 0.03424255f, -0.00711050f, 0.05842838f, 0.08518629f, -0.06170667f, -0.00438056f, -0.01982423f, 0.03955001f, 0.00326757f, 0.01841721f, -0.01266807f, 0.02764193f, 0.00821629f, -0.02115283f, 0.04664461f, 0.04397190f, 0.09243229f, 0.04740768f, 0.00964118f, 0.07448441f, -0.07108539f, -0.00395514f, 0.01404046f, -0.01712457f, 0.02296100f, 0.07428882f, -0.01144633f, -0.03049615f, 0.05655784f, 0.00936645f, -0.05372847f, 0.05026143f, 0.02463670f, 0.00015966f, 0.02577451f, 0.01797927f, 0.03545700f, -0.00659754f, 0.02760854f, -0.03966397f, -0.02466281f, 0.09641492f, 0.00146427f, 0.06965541f, -0.02318060f, -0.00987041f, -0.02020553f, 0.01334479f, 0.01740910f, -0.04392188f, -0.04162882f, -0.07222123f, -0.02024861f, 0.03562889f, -0.01757648f, -0.02621660f, -0.02594863f, 0.04406454f, 0.10414212f, -0.01165971f, -0.10249477f, 0.00872225f, -0.02116716f, 0.01922490f, 0.00744125f, -0.04891992f, -0.01043729f, -0.01362565f, 0.03124533f, 0.01150707f, 0.02678606f, -0.06770020f, 0.03682376f, 0.03492890f, -0.02665140f, -0.06353291f, 0.06573266f, 0.03132484f, -0.01042624f, -0.05297706f, 0.01175599f, 0.03645750f, -0.00629693f, -0.05001343f, -0.10832967f, -0.05834940f,
    /* [26] */ -0.00162250f, 0.07814375f, 0.04785965f, 0.06960329f, 0.06254987f, 0.05959732f, -0.06512313f, 0.00858395f, 0.07590894f, 0.02937218f, 0.09998007f, -0.04482894f, 0.07720064f, 0.05845585f, -0.02680955f, -0.05577217f, 0.00508962f, -0.08772183f, -0.07088990f, -0.07423985f, 0.04232407f, -0.00367073f, 0.06791162f, 0.00551458f, 0.14576724f, 0.07633589f, 0.04223745f, 0.02540802f, -0.00568734f, 0.05088120f, 0.00936836f, 0.05957903f, -0.05891160f, -0.01346588f, 0.13264555f, -0.08000532f, 0.09469020f, -0.12884736f, 0.01012177f, -0.03247002f, -0.05581103f, 0.02051833f, -0.08170930f, 0.08556747f, -0.03938267f, 0.12610260f, 0.02289395f, -0.02043414f, -0.01644659f, 0.09145947f, 0.01890230f, 0.00518145f, 0.02735576f, 0.03356226f, -0.03937968f, 0.08374529f, -0.03793624f, -0.01634884f, 0.03120396f, -0.01767830f, -0.02703536f, -0.01211964f, -0.01699810f, -0.12367028f, -0.01956265f, 0.03884362f, -0.02582929f, 0.00541811f, 0.05886066f, -0.03677195f, -0.00946880f, -0.06335071f, 0.01402416f, 0.00778028f, -0.00637518f, -0.09849684f, -0.04441755f, 0.01366449f, -0.00445904f, -0.04510111f, 0.00857797f, 0.05797688f, -0.04846090f, 0.01865431f, 0.01502779f, -0.09538607f, -0.04860251f, 0.00826190f, -0.00155436f, 0.04058651f, -0.02181152f, -0.02252125f, -0.12948199f, 0.09911416f, 0.03221766f, 0.01784643f, -0.06409906f, 0.02150526f, -0.01115408f, -0.05049335f, 0.02113939f, 0.01107528f, 0.09075778f, 0.06029816f, 0.05174831f, 0.06416604f, 0.00885003f, 0.01139237f, -0.12807119f, 0.00924205f, -0.05417841f, 0.02256653f, 0.05598012f, -0.04102493f, -0.03753316f, 0.00721921f, -0.05564050f, -0.02098362f, -0.06461517f, -0.03886386f, -0.05551432f, -0.03690010f, 0.00980592f, 0.07596520f, 0.09095478f, 0.11195966f, -0.03722201f, 0.00225889f,
    /* [27] */ 0.21691968f, 0.15726933f, -0.10651308f, 0.01913504f, 0.14589389f, 0.07170801f, 0.15542291f, 0.09255785f, 0.57587165f, 0.03825818f, 0.51617306f, 0.54998356f, 0.11842185f, 0.53727961f, -0.19224831f, 0.18080373f, 0.06661350f, -0.25020230f, 0.00388085f, 0.20623806f, -0.10872397f, -0.11555156f, 0.15307331f, 0.40436950f, 0.40002835f, 0.08032254f, 0.21221867f, 0.22229011f, -0.06911796f, 0.50603151f, -0.13536714f, -0.18792151f, -0.26878589f, 0.09814857f, -0.31496796f, 0.10165054f, 0.02229741f, -0.03699856f, -0.01570527f, -0.16458720f, -0.19961794f, 0.25108349f, 0.24629623f, -0.08923353f, 0.15455192f, -0.63587457f, -0.23179767f, 0.06872682f, -0.01848785f, 0.09152725f, -0.20986329f, -0.90672022f, -0.75916117f, -0.10250305f, -0.29578841f, -0.20505351f, -0.14826940f, -0.09484043f, 0.10932164f, -0.53744006f, 0.03056918f, 0.10852826f, 0.15773475f, -0.29459196f, 0.00667622f, 0.14243202f, 0.04062558f, -0.03487982f, 0.26811594f, -0.05527480f, 0.00688469f, -0.19650440f, -0.01707633f, -0.04385758f, -0.06796987f, -0.15612772f, 0.00621480f, 0.01674513f, 0.07942992f, -0.02027717f, 0.13260753f, 0.26333287f, -0.05168547f, 0.06557812f, 0.42857420f, 0.05451037f, 0.12832516f, 0.20019852f, 0.15635772f, -0.06805728f, 0.01258151f, -0.21949072f, 0.11080286f, -0.44938099f, -0.06652431f, -0.01727877f, -0.07801965f, -0.30195040f, -0.08840417f, 0.13751183f, -0.15059800f, 0.34016919f, -0.62013704f, 0.54961902f, -0.16938110f, -0.00766865f, 0.53939021f, 0.08360047f, 0.05722887f, 0.13336229f, -0.05288291f, 0.17103146f, 0.17422135f, -0.09076703f, -0.10007348f, 0.31439444f, -0.05129804f, 0.00574623f, 0.21197441f, -0.26623374f, 0.03336775f, -0.09316066f, -0.34117150f, 0.09800071f, -0.02722780f, 0.47849813f, 0.73973948f, -0.18050519f,
    /* [28] */ 0.03246121f, 0.02384195f, -0.06027373f, 0.02586475f, -0.00195042f, -0.04571144f, -0.00340670f, 0.04275884f, 0.02565212f, 0.02699950f, 0.04595600f, 0.06290939f, 0.01298558f, -0.00196603f, -0.03252240f, 0.02252963f, -0.07281237f, -0.11006220f, -0.01391292f, 0.02386126f, 0.00934735f, -0.03955595f, 0.05224628f, 0.10369524f, -0.00908203f, 0.01110076f, -0.00560640f, -0.02966215f, -0.00405976f, -0.00369868f, 0.06383843f, 0.03925095f, -0.01749210f, -0.03236401f, -0.00106207f, -0.11260489f, -0.00699555f, -0.11426403f, -0.06247296f, -0.04648381f, -0.05931940f, -0.02033300f, 0.02521812f, -0.00748753f, 0.03271455f, 0.03693405f, -0.05092460f, 0.00447512f, 0.00573310f, -0.06945276f, -0.02351242f, -0.01924036f, 0.02473957f, 0.00265123f, 0.02844525f, -0.00514502f, -0.04327917f, -0.00150287f, -0.06914850f, -0.06479393f, -0.01670005f, 0.06084100f, -0.01374633f, -0.00662963f, -0.08292513f, -0.02703076f, 0.00699791f, -0.01308585f, 0.05079933f, 0.03311789f, 0.01579485f, -0.05047399f, -0.02739749f, 0.03247371f, -0.01223390f, -0.01520811f, 0.06443587f, -0.04067840f, -0.03010504f, -0.00376924f, 0.03917613f, 0.02120092f, -0.01336975f, -0.05189034f, -0.03270656f, -0.04984577f, -0.04064697f, 0.03480385f, -0.03534905f, -0.06630864f, 0.05446016f, -0.02957369f, -0.01612675f, -0.04550082f, -0.03982846f, -0.02483618f, -0.07423902f, -0.00812094f, -0.06179189f, 0.04577012f, 0.02680744f, 0.02578067f, 0.05010965f, -0.05587890f, 0.02745633f, -0.04745701f, 0.10010200f, -0.03264327f, 0.02073912f, -0.01749973f, 0.02495981f, 0.00138489f, -0.02429702f, 0.00764886f, -0.05971914f, 0.04102987f, 0.00005398f, -0.05765510f, -0.00575165f, -0.03095059f, 0.00824418f, -0.04103181f, 0.01399604f, -0.05406527f, -0.05075778f, 0.02876250f, -0.03060598f, -0.03950011f,
    /* [29] */ 0.03029693f, -0.02715427f, 0.02714475f, -0.02088066f, -0.01605577f, 0.04600291f, 0.01296156f, 0.01953744f, 0.09806521f, 0.01824147f, 0.05188138f, 0.04509243f, -0.01732630f, -0.01170867f, -0.09282776f, -0.02023367f, -0.02667317f, -0.03486455f, 0.13595061f, 0.00498211f, 0.01126357f, -0.02586015f, 0.12139281f, -0.00238096f, -0.02730538f, -0.00448544f, 0.03491065f, 0.01502853f, -0.00439852f, -0.01222539f, -0.00582232f, 0.05695160f, 0.04062745f, -0.03911265f, -0.00334864f, -0.10255878f, 0.00063346f, -0.11503486f, 0.00684662f, 0.01893408f, -0.01418239f, -0.02350321f, 0.06821087f, 0.06008895f, 0.05747660f, -0.03687390f, -0.00783282f, -0.09009028f, -0.00714250f, 0.01688911f, 0.06325816f, -0.04460322f, 0.00659457f, -0.01964599f, -0.02879184f, -0.02772702f, 0.05210939f, 0.03160685f, 0.02135351f, -0.03557323f, -0.08676666f, 0.03738124f, 0.03512461f, -0.03892383f, 0.03567244f, -0.06785845f, -0.01968870f, 0.02968824f, 0.01081611f, 0.11227609f, 0.01841185f, 0.04911228f, -0.00496554f, 0.06543732f, 0.05530270f, 0.02164053f, -0.02944232f, 0.02666177f, 0.00935485f, 0.04338484f, 0.01820912f, -0.07604419f, 0.02866498f, -0.02025203f, 0.04425199f, -0.03951618f, 0.02431553f, 0.00003347f, 0.00441769f, -0.01323905f, 0.04212427f, -0.04771356f, -0.01150294f, -0.12265812f, 0.01077157f, -0.01031266f, -0.01982256f, -0.01328540f, -0.01007781f, 0.05397652f, 0.01921842f, 0.07630526f, 0.01383668f, -0.01947068f, -0.00930444f, -0.02382968f, 0.04881431f, -0.01525278f, -0.02553200f, -0.04908175f, -0.04034298f, -0.02135400f, -0.02211518f, 0.00312187f, -0.04355563f, 0.01608240f, -0.01522829f, 0.02154903f, 0.02419540f, 0.02366129f, -0.03336625f, 0.06893150f, -0.08483217f, 0.02273094f, 0.06483062f, -0.08269470f, -0.09060560f, 0.01799420f,
    /* [30] */ 0.04030906f, -0.08741903f, -0.04919733f, -0.04792845f, 0.04462851f, 0.01828188f, 0.00225707f, -0.02468247f, -0.04064427f, -0.01929513f, -0.02067758f, 0.04811459f, 0.01772867f, -0.06168320f, -0.01927795f, -0.02901051f, 0.00651646f, -0.07190534f, 0.08011233f, -0.00403875f, -0.00854788f, 0.01785323f, -0.11968198f, 0.08617735f, -0.01288901f, -0.04368281f, 0.01834787f, -0.01918017f, 0.01397044f, -0.03965009f, 0.11138438f, -0.01361849f, 0.00895624f, 0.02485932f, -0.01250152f, -0.04986256f, 0.09183528f, -0.07067825f, -0.03568684f, -0.01884141f, 0.05282132f, 0.04790384f, 0.02728067f, -0.00599298f, -0.10840060f, 0.01203079f, -0.01299874f, -0.03426398f, 0.02916405f, -0.02438320f, -0.00126924f, -0.03268812f, 0.00299605f, 0.02584055f, -0.02339428f, 0.00266438f, -0.09373136f, -0.01804567f, 0.05866841f, 0.00722286f, -0.07562155f, -0.05186641f, -0.01454035f, -0.04467892f, 0.04655289f, 0.04589204f, 0.01810500f, 0.00860005f, 0.04765081f, 0.08728925f, 0.01517042f, -0.01575281f, -0.00411293f, 0.02024223f, 0.00267332f, 0.00232546f, -0.02847794f, -0.03662067f, -0.03168334f, 0.07296081f, 0.00934475f, 0.00824742f, 0.03031560f, 0.06432322f, -0.12097334f, -0.03383589f, 0.02683879f, 0.01896432f, -0.01997821f, -0.03360775f, -0.00095041f, 0.03655733f, 0.03214532f, 0.06468789f, -0.03341882f, 0.01279055f, 0.00949023f, 0.06080582f, -0.00465252f, -0.03754698f, 0.08787400f, -0.11102303f, -0.01052305f, 0.05952440f, -0.03012056f, -0.04440796f, -0.07560441f, -0.02839012f, 0.01353026f, -0.01497148f, 0.04063872f, -0.04669531f, -0.04132546f, -0.12667826f, 0.06766926f, -0.08872485f, -0.01742708f, -0.04684418f, 0.01468028f, 0.00394579f, -0.04331206f, -0.02356345f, -0.07837008f, 0.02412434f, -0.03701516f, -0.03582202f, -0.02996226f, -0.05902152f,
    /* [31] */ -0.00919996f, -0.00179196f, 0.04578774f, -0.00065358f, -0.04529788f, -0.00344326f, 0.03600507f, -0.03279489f, 0.04700319f, -0.00930859f, 0.06481431f, -0.00996722f, 0.00691826f, -0.01721785f, -0.02639730f, 0.08044661f, 0.03441460f, -0.03941406f, -0.00629582f, -0.03252608f, 0.01088012f, -0.02305416f, 0.09439314f, 0.03804024f, -0.03254736f, 0.01598914f, -0.05734672f, -0.04048551f, -0.01743977f, 0.03670321f, 0.11190148f, 0.07175227f, 0.05518836f, -0.04047565f, -0.00592253f, 0.00112092f, -0.15639688f, -0.02527224f, 0.05101973f, 0.03652638f, -0.01758618f, 0.05077643f, -0.06985795f, 0.01524303f, 0.17125560f, -0.09206276f, -0.06052434f, -0.01621589f, 0.05290323f, 0.02255707f, -0.02535353f, -0.01066255f, -0.01728838f, -0.03681964f, 0.02796909f, -0.10513021f, -0.00332400f, 0.07517116f, -0.01679841f, -0.08692962f, -0.00638961f, -0.04785710f, 0.04387379f, -0.03280486f, -0.02727396f, 0.00452336f, -0.03505421f, -0.10192744f, 0.04260579f, -0.05396812f, -0.04510184f, -0.02611976f, -0.00732647f, -0.07164197f, 0.09249292f, 0.03481951f, -0.05803073f, 0.06482562f, 0.01894801f, -0.06798973f, 0.03201731f, -0.03861790f, -0.01175291f, -0.05225687f, 0.04314720f, 0.01577878f, -0.09019315f, 0.04976920f, -0.07081967f, 0.01587134f, 0.04409595f, -0.05902614f, 0.00622197f, -0.06127408f, 0.04668183f, -0.07444652f, -0.04422778f, -0.06441910f, -0.04814342f, 0.06764085f, -0.04143154f, 0.11470188f, 0.08980344f, 0.01515607f, -0.01802213f, 0.05984428f, 0.03695611f, -0.04551478f, -0.04146948f, -0.08699597f, -0.08728262f, 0.08016562f, 0.02501389f, 0.04720596f, 0.00672548f, 0.14312313f, -0.05374276f, -0.00446446f, 0.02478198f, 0.06920993f, -0.00052497f, -0.00757062f, -0.03829625f, -0.07676353f, 0.01732060f, -0.01373046f, -0.03224909f, 0.00227067f,
    /* [32] */ -0.07617980f, 0.08237147f, -0.02791228f, -0.08266556f, -0.17587250f, 0.31286371f, -0.13822332f, -0.08204257f, 0.14377582f, -0.01543303f, -0.00505728f, -0.13664755f, -0.08453415f, 0.09417430f, 0.15314403f, 0.03878855f, -0.09326248f, 0.00598351f, -0.03724334f, -0.13301715f, -0.05018244f, -0.00889210f, -0.05413720f, -0.10614324f, 0.20512411f, 0.07076548f, -0.15942746f, -0.09348227f, 0.08160600f, 0.01457209f, 0.42342532f, 0.16273060f, -0.18424807f, 0.15024108f, 0.05563621f, -0.03439943f, -0.01172521f, 0.14388692f, -0.14884119f, 0.01520263f, 0.06193787f, 0.08105893f, -0.17641692f, -0.12608026f, -0.04325830f, -0.64983445f, 0.00572215f, -0.04669594f, 0.06166860f, 0.05756820f, 0.08565216f, -0.27702698f, -0.19499655f, 0.04346542f, 0.04417910f, -0.06035839f, -0.05350034f, -0.05753027f, -0.05719120f, -0.45289540f, -0.09698627f, 0.01989167f, -0.14658765f, -0.15564901f, 0.12568614f, -0.00856740f, -0.03754874f, -0.02660284f, 0.02106462f, -0.05288329f, 0.01044874f, -0.05546865f, -0.00446288f, 0.13464786f, -0.07390510f, 0.00575284f, 0.11781261f, -0.16289206f, -0.12794150f, -0.05252494f, 0.04638216f, -0.18419151f, 0.10803792f, -0.15150870f, -0.13207851f, -0.09467769f, -0.23118135f, 0.06565695f, 0.03353783f, 0.08964648f, 0.14241426f, -0.05735406f, 0.02784482f, 0.34830248f, -0.01056940f, 0.13572492f, -0.07874039f, -0.19516250f, 0.11124784f, -0.29543221f, 0.18376607f, -0.06096064f, 0.10029678f, -0.05734721f, 0.07997914f, -0.11879561f, -0.14082292f, -0.05085945f, 0.42230964f, 0.01579106f, -0.13459414f, -0.08838245f, -0.12666509f, -0.10248958f, -0.07463277f, 0.10190698f, -0.06754145f, -0.09572269f, -0.14302300f, -0.05995720f, -0.02097734f, -0.03500970f, 0.01642849f, 0.00291314f, -0.02880889f, -0.34652281f, 0.27154875f, -0.13019772f,
    /* [33] */ -0.09755997f, -0.03757806f, 0.02262899f, 0.09327637f, 0.09076633f, 0.05627549f, 0.07862601f, -0.05247404f, -0.39499196f, -0.03874149f, -0.03349452f, -0.20182952f, 0.12622452f, -0.24224772f, -0.08699771f, -0.09313262f, 0.02910086f, -0.18784271f, 0.04368883f, -0.05680128f, 0.02920083f, 0.07952558f, 0.18400054f, -0.04225178f, 0.17406806f, -0.00402090f, 0.12454346f, -0.01714392f, 0.04570765f, -0.55947018f, 0.16982107f, 0.12539104f, -0.10513029f, 0.13115036f, 0.04976388f, -0.20950373f, 0.05864536f, -0.20676439f, -0.03335619f, -0.12147482f, 0.11878456f, -0.10123464f, -0.31249052f, -0.10028267f, -0.08069921f, -0.87205714f, 0.13873950f, -0.09634120f, -0.05530273f, 0.01048688f, 0.05231865f, -0.36293423f, 0.29716617f, -0.14675187f, -0.07113761f, 0.17840379f, -0.12557086f, 0.00350579f, 0.14354584f, -1.02158940f, -0.23393698f, -0.04196779f, -0.07357124f, 0.18816043f, -0.09502970f, 0.12686722f, -0.02462010f, 0.02666540f, 0.08422837f, 0.14197876f, 0.16920370f, -0.02872941f, 0.12543651f, -0.03559308f, -0.10932042f, -0.03158977f, 0.11422793f, 0.00133563f, -0.17658018f, 0.02096574f, 0.02404365f, 0.08689056f, 0.05690337f, -0.03174167f, -0.46380010f, -0.21329740f, 0.00911625f, 0.08594724f, -0.02338363f, 0.04186579f, -0.01052294f, 0.08101322f, 0.08340671f, 0.53951514f, -0.03050371f, -0.04999514f, 0.02486007f, -0.06057686f, 0.01281788f, -0.16040674f, 0.11537090f, -0.05802529f, -0.36040562f, 0.10333693f, 0.09107795f, -0.09150220f, -0.07129271f, 0.01656796f, 0.07981164f, 0.12239321f, 0.05704978f, -0.16604330f, -0.00020269f, -0.12447005f, -0.22988114f, 0.00389953f, 0.15851262f, -0.12813443f, -0.15303257f, -0.07357113f, -0.08822559f, -0.12601344f, 0.19656615f, -0.00703206f, 0.13403399f, -0.31129941f, -0.28373939f, 0.03656759f,
    /* [34] */ 0.06898093f, -0.01468907f, -0.00660119f, -0.05195919f, -0.06732737f, -0.01703661f, -0.08270430f, -0.04181318f, -0.07517428f, -0.07226840f, -0.03485955f, 0.09707043f, 0.02915496f, -0.11433212f, 0.00586093f, -0.01151324f, -0.04378919f, -0.04323218f, 0.03614251f, -0.06592784f, -0.00310281f, -0.06400355f, -0.01568823f, 0.00565008f, -0.02846675f, -0.00221468f, -0.02056680f, -0.01300127f, -0.00875667f, 0.01989323f, -0.06580348f, 0.03540872f, -0.03641168f, -0.02884935f, -0.00637077f, -0.04553457f, 0.05494728f, -0.00286187f, -0.00676750f, 0.02741259f, -0.00431760f, 0.07045501f, 0.03722868f, 0.00061513f, -0.12224955f, 0.01756383f, 0.02855351f, -0.00964342f, 0.06234261f, -0.03719388f, 0.01874063f, -0.04119605f, 0.04691617f, 0.05967207f, -0.03378131f, -0.03005301f, -0.03980019f, -0.05787887f, -0.03232248f, -0.01345572f, 0.02266677f, -0.00819753f, -0.00167712f, -0.03631545f, 0.09328886f, 0.00683481f, 0.02182366f, -0.04095467f, 0.04355257f, 0.03201185f, 0.03206966f, -0.01371961f, -0.01052064f, 0.03002845f, 0.00288632f, 0.02432015f, 0.03097598f, 0.02716746f, -0.03444438f, 0.05070484f, 0.09913954f, 0.02803483f, 0.03712805f, 0.07226673f, 0.01752342f, -0.03764776f, 0.07650081f, 0.04619745f, 0.00945947f, 0.02197005f, -0.00746321f, -0.02916541f, 0.04120987f, -0.06061544f, 0.00474174f, 0.01354232f, -0.01454486f, 0.01954155f, 0.05165221f, -0.01796789f, 0.13574727f, -0.04059297f, -0.12350621f, 0.01593845f, -0.01326299f, -0.06637868f, -0.01353329f, 0.02865281f, 0.02296980f, -0.02245058f, 0.00076829f, 0.00211163f, -0.04644166f, 0.01093354f, -0.00426491f, -0.02804263f, -0.01348371f, -0.02679911f, -0.04196981f, -0.01803595f, 0.01455784f, -0.05613154f, -0.05450299f, 0.04907477f, 0.02173241f, 0.04015577f, 0.00678090f, -0.01128334f,
    /* [35] */ -0.00705629f, 0.04884445f, 0.04365398f, -0.04466532f, 0.02396029f, 0.03779716f, 0.04529075f, -0.01230823f, -0.02092073f, -0.00546235f, -0.06104192f, -0.03393000f, -0.06318145f, 0.01118467f, -0.04864624f, 0.01572191f, 0.01439698f, 0.08019369f, 0.04039373f, -0.10551437f, 0.03015956f, -0.00319068f, -0.02815892f, -0.09993916f, 0.13071893f, -0.06936358f, -0.05414476f, 0.01840554f, -0.04097222f, -0.05594891f, -0.12815666f, -0.03140330f, -0.03671216f, 0.00042573f, -0.02380233f, 0.04902186f, -0.15440087f, 0.13170739f, 0.03660585f, 0.04416000f, 0.01167429f, 0.02315209f, 0.04999181f, -0.00709303f, 0.06420439f, -0.03490728f, 0.03028547f, 0.06770955f, -0.01896518f, 0.00806867f, -0.01257518f, 0.00393631f, 0.01220018f, 0.01053650f, -0.00625124f, -0.03767515f, -0.00753577f, 0.08267959f, -0.00304549f, 0.17453045f, -0.06059512f, -0.00677877f, 0.05661485f, 0.08515050f, -0.03348526f, -0.00766046f, -0.01904274f, -0.05069022f, -0.02419765f, 0.01390900f, -0.02459373f, 0.03061696f, 0.04614694f, -0.03069094f, -0.01827193f, 0.02002315f, -0.07522395f, 0.04280433f, 0.02904878f, -0.06005052f, -0.01829695f, -0.01891246f, 0.08451474f, -0.09330707f, -0.14125970f, 0.04525345f, 0.00589502f, -0.03308503f, 0.04688867f, 0.06277219f, -0.09077361f, 0.04367510f, 0.00391916f, 0.04052975f, 0.01628145f, 0.02764288f, 0.07038999f, -0.04483210f, 0.04919605f, 0.01745724f, -0.03725893f, -0.13255897f, -0.09627461f, -0.19948135f, -0.00296708f, 0.05241825f, 0.03025137f, -0.04177793f, -0.05975946f, 0.01611118f, 0.03723420f, 0.03548915f, 0.05813213f, 0.12924153f, 0.05297106f, -0.11041425f, 0.04166382f, 0.01737015f, 0.03431390f, 0.02116782f, -0.02840844f, 0.04812700f, -0.07870483f, -0.00828132f, -0.01245735f, 0.00089727f, 0.07085531f, 0.02766360f,
    /* [36] */ 0.03875872f, -0.00467073f, 0.01791716f, -0.00536911f, 0.02037891f, -0.04195313f, -0.00072646f, 0.02287157f, 0.02053247f, -0.05838196f, -0.03559172f, -0.00668551f, -0.01401168f, 0.02987463f, -0.00835897f, -0.01725377f, -0.01509852f, 0.03332642f, -0.01035208f, -0.01153761f, -0.05954235f, -0.04782115f, -0.07492180f, -0.05555790f, -0.08733401f, 0.03242343f, 0.08502760f, 0.02662209f, -0.00428311f, 0.09334897f, -0.06749807f, -0.04761826f, -0.00275340f, -0.00687781f, 0.01328149f, -0.00336163f, 0.00850767f, -0.04759470f, 0.00569380f, -0.01791112f, -0.08323636f, -0.03152433f, 0.00407424f, -0.03634104f, -0.04283257f, 0.02456344f, 0.00908255f, -0.00473502f, 0.03893708f, 0.03882091f, -0.01149605f, 0.01786607f, -0.00777324f, -0.03660217f, 0.02787974f, -0.00850967f, 0.02569685f, 0.04966098f, -0.00391160f, 0.03369957f, -0.05969300f, -0.01354220f, 0.05219581f, 0.01617919f, 0.00674677f, 0.03994394f, 0.01832738f, -0.04696921f, -0.00761930f, -0.00810231f, 0.02326977f, 0.07151007f, -0.03234347f, -0.00448320f, 0.04250967f, 0.02627059f, 0.00800427f, -0.04156392f, 0.03395382f, 0.07937688f, -0.01761177f, -0.05784299f, 0.02059390f, 0.02758257f, -0.04307350f, -0.02299270f, -0.04174818f, 0.04138636f, -0.02154561f, -0.00739377f, 0.05936092f, -0.02631121f, -0.01034964f, 0.03374436f, -0.02604744f, 0.02952597f, 0.03403213f, -0.07071029f, -0.06479296f, -0.00145230f, 0.03437571f, -0.08653580f, 0.00119333f, 0.04551754f, -0.01953954f, 0.03187956f, -0.08862457f, -0.03920544f, 0.00530291f, 0.02689555f, 0.11573718f, 0.02241926f, 0.02927095f, 0.02301349f, 0.03192091f, -0.04228607f, -0.03382593f, 0.05222586f, 0.02464234f, 0.04202526f, 0.01976256f, 0.03105155f, 0.08015949f, 0.01288506f, -0.02386395f, -0.11375466f, 0.02003474f, 0.00676145f,
    /* [37] */ 0.01970976f, -0.01165912f, -0.04073335f, 0.01682489f, 0.08153634f, 0.02234280f, -0.02960639f, -0.03876201f, -0.02622060f, 0.00324120f, -0.04585947f, 0.04797863f, -0.01972564f, 0.02585939f, 0.01946932f, 0.03246048f, -0.06946211f, -0.00589881f, 0.02896407f, -0.00182067f, 0.02512335f, -0.03630148f, -0.11084016f, -0.00110688f, -0.05687834f, -0.00048196f, -0.06703245f, -0.02693965f, -0.00031451f, 0.03653345f, -0.00655602f, 0.03490189f, -0.01296694f, -0.01271332f, 0.00457081f, 0.05680670f, -0.07679062f, -0.00762589f, -0.01344966f, -0.02642029f, -0.01881637f, 0.00603590f, 0.02484307f, -0.03562929f, 0.02192747f, 0.01789591f, -0.01580804f, 0.01161843f, 0.04863833f, -0.01353875f, -0.00608581f, -0.00091249f, 0.00975277f, -0.00172264f, -0.01784698f, 0.05186702f, -0.03030526f, -0.02142438f, -0.02053570f, 0.02469532f, 0.01281483f, -0.05476315f, -0.05401308f, 0.02350342f, 0.04404432f, 0.00959077f, 0.01778279f, 0.00102647f, 0.03492618f, -0.11339861f, -0.02574880f, 0.00201791f, 0.04419351f, -0.04611873f, 0.01395317f, 0.00996160f, 0.02405445f, 0.03818443f, -0.03053493f, 0.05751358f, 0.00748836f, 0.02795232f, 0.04997931f, -0.11645015f, -0.07668431f, 0.07596742f, 0.00453704f, -0.00748028f, 0.00071261f, -0.00438988f, -0.02859146f, -0.02968822f, 0.00714645f, -0.03817948f, 0.00189825f, -0.05422947f, -0.05816406f, 0.03364658f, -0.00870132f, -0.03517809f, 0.04597822f, -0.04108720f, -0.05231427f, -0.08426616f, 0.03067583f, -0.04491725f, -0.04134941f, -0.00868175f, -0.04130338f, -0.00538918f, -0.04753127f, -0.00409207f, -0.00794551f, 0.07832376f, -0.00048408f, -0.03329691f, 0.00212429f, -0.04902201f, -0.00276915f, -0.01279738f, -0.01637636f, 0.04228485f, 0.05626249f, -0.05417492f, -0.05117384f, 0.02038981f, 0.06321900f, 0.00003682f,
    /* [38] */ 0.07058027f, 0.12129682f, -0.35061178f, 0.05958057f, -0.22068614f, 0.05517063f, -0.44631746f, 0.13945280f, 0.09589984f, -0.00720542f, 0.01476295f, -0.29479101f, -0.07047290f, -0.20275271f, 0.06360905f, 0.11392654f, -0.13829835f, 0.04563903f, -0.04992636f, 0.30661023f, -0.09545709f, -0.02945516f, -0.13940275f, -0.10871539f, -0.04048709f, 0.01484591f, -0.06663323f, 0.01236811f, 0.05907378f, -0.09676391f, 0.15898162f, 0.09588002f, 0.06925450f, 0.08455934f, 0.04624884f, -0.22760627f, -0.03387031f, 0.09713831f, -0.06842499f, -0.11825101f, -0.13494849f, -0.00568360f, 0.00597066f, 0.13556834f, -0.06743987f, -0.19540030f, -0.00481163f, 0.01835176f, -0.03809386f, -0.10424262f, 0.05156757f, -0.37967244f, -0.66252220f, 0.00512763f, -0.11951277f, 0.13596304f, 0.13626221f, -0.12981258f, 0.03068866f, 0.17207932f, 0.27890503f, 0.13605893f, -0.12535150f, 0.05310582f, -0.04368177f, -0.15573764f, 0.05034091f, -0.07434205f, 0.02385524f, 0.22737843f, 0.10850836f, 0.03792853f, -0.31303534f, 0.01604974f, -0.12135573f, -0.06465281f, 0.11188891f, -0.08997958f, -0.01703775f, 0.03753636f, 0.00581631f, 0.08947463f, -0.04446505f, -0.24216591f, 0.15473053f, 0.20121634f, 0.12216120f, -0.06044798f, 0.07613358f, 0.02606039f, 0.24818745f, 0.07968692f, -0.09713707f, -0.52784163f, -0.02351939f, 0.04940672f, -0.02374530f, 0.23405333f, 0.11848345f, 0.04825811f, 0.15170833f, -0.06326520f, 0.09434168f, -0.23789234f, -0.05658279f, -0.06018278f, 0.10830349f, 0.10029259f, 0.12971017f, 0.15789489f, 0.10710771f, 0.03796721f, 0.02420918f, 0.47037297f, 0.07413952f, -0.05562672f, -0.18506955f, 0.08971341f, 0.14648795f, -0.17192636f, 0.16956383f, -0.31194219f, 0.23625892f, -0.09742937f, -0.22509341f, -0.15213741f, 0.06022958f, -0.25451159f,
    /* [39] */ 0.01012697f, 0.00871245f, 0.07966036f, -0.05374734f, -0.05333839f, -0.04256057f, 0.03256512f, 0.00372421f, 0.03106133f, -0.02095963f, 0.01201024f, 0.01668728f, 0.00268127f, -0.06016897f, -0.14488563f, 0.01941987f, -0.01218502f, -0.02023235f, 0.04853468f, -0.00799831f, 0.00486444f, -0.05199994f, 0.04548350f, 0.00679606f, -0.03490519f, -0.00686862f, -0.00851401f, -0.02776650f, -0.07075243f, -0.09918871f, 0.02993300f, 0.08837299f, -0.06325178f, -0.06098793f, -0.02662826f, -0.02740544f, -0.02542632f, 0.02361540f, -0.03063884f, 0.11902329f, 0.01393580f, -0.00578329f, 0.02965152f, 0.01837552f, 0.08275218f, -0.07872998f, -0.02584664f, -0.05839400f, 0.01535182f, 0.03549439f, 0.00943093f, -0.04907656f, -0.04670820f, -0.01540305f, -0.02294993f, -0.03820927f, -0.02529200f, 0.07233414f, 0.02308857f, -0.09196970f, -0.02128490f, -0.04948123f, 0.01329741f, 0.00413812f, -0.01606662f, -0.00257975f, 0.00876996f, -0.09336053f, -0.05041016f, -0.04843162f, -0.06437057f, -0.01127826f, -0.00798034f, -0.03039147f, 0.05360044f, 0.01327440f, -0.05308819f, 0.01324480f, 0.01111291f, -0.04781199f, 0.02389276f, 0.02088350f, -0.02113024f, -0.04675454f, 0.11789842f, -0.04297417f, -0.06954730f, 0.02301260f, -0.01687187f, -0.00955160f, -0.02557437f, -0.03007934f, 0.05742431f, -0.08990870f, 0.01014011f, -0.09153351f, -0.07977333f, 0.02777271f, -0.05759220f, -0.04763124f, -0.03612615f, 0.05088507f, 0.09970842f, 0.00258045f, -0.00089022f, -0.03003578f, 0.06889188f, -0.00221828f, -0.13181798f, -0.07200418f, -0.05456014f, -0.00012631f, -0.01632292f, 0.07575051f, -0.04645341f, 0.10599542f, -0.01943256f, 0.05187133f, -0.00903471f, 0.01244215f, -0.05263167f, 0.05491407f, -0.04835929f, -0.00800989f, 0.01510416f, 0.00509356f, 0.00797834f, 0.04413616f,
    /* [40] */ -0.02728121f, 0.03082134f, -0.02263869f, -0.02002577f, 0.01326350f, -0.00032453f, 0.00341045f, 0.01400989f, 0.11587934f, 0.01988637f, 0.09925567f, -0.08524096f, 0.03575860f, -0.08205687f, 0.04727759f, -0.01913635f, -0.00349509f, 0.01344411f, 0.03918214f, -0.05914698f, 0.03252788f, 0.04467039f, 0.04325366f, 0.02340921f, 0.02201514f, -0.03266972f, -0.01733647f, 0.00389276f, -0.04422097f, -0.00292036f, -0.00358433f, -0.00232651f, -0.01845007f, -0.00376859f, -0.01487280f, -0.09081557f, 0.00624695f, -0.05386841f, -0.00252437f, -0.09759092f, 0.01204907f, -0.08257177f, 0.00280136f, -0.00303876f, 0.01446737f, -0.04159669f, 0.01100779f, -0.04856180f, -0.03597669f, 0.01876234f, -0.02437140f, 0.00100026f, -0.01428175f, -0.03072356f, 0.02622545f, 0.07438335f, 0.04033367f, 0.03798165f, 0.01133653f, 0.04324666f, 0.03616759f, -0.03587452f, -0.01242810f, -0.00671359f, -0.05279841f, 0.00190782f, 0.04109927f, -0.00336427f, -0.00489390f, -0.03110805f, 0.00914908f, 0.02432849f, 0.02833404f, -0.00479168f, 0.03436578f, 0.01617635f, -0.05872423f, -0.00333009f, 0.00981829f, -0.03767606f, -0.00660836f, -0.03034101f, -0.01655704f, 0.03679476f, 0.01171020f, -0.04172656f, 0.01869106f, -0.03279789f, 0.04342757f, 0.03852367f, 0.13131544f, 0.01896107f, -0.03054820f, 0.07009266f, -0.01022394f, 0.01069055f, 0.01183382f, 0.07355392f, 0.00271691f, 0.02750507f, -0.01221298f, 0.08769845f, 0.09152463f, 0.00592592f, -0.03841595f, -0.00330773f, -0.03864264f, 0.01236177f, -0.01963444f, 0.02211413f, -0.03249238f, -0.02100357f, -0.01751774f, 0.03909662f, -0.05908951f, 0.07090467f, 0.01950349f, -0.00744434f, 0.03125646f, -0.01605169f, 0.01990626f, -0.04318704f, 0.00535764f, 0.06838837f, -0.00961005f, 0.01395061f, 0.09312925f, 0.04050990f,
    /* [41] */ -0.06824500f, -0.01928039f, -0.01527685f, -0.02299889f, 0.03327058f, -0.09177336f, 0.53541636f, -0.02335282f, 0.15756474f, -0.02760144f, -0.03757976f, 0.03978423f, 0.06861971f, 0.07096504f, -0.04437105f, -0.07682633f, -0.02411364f, -0.06901229f, -0.01209356f, 0.00393504f, 0.05483485f, 0.01195746f, 0.05086102f, -0.03393582f, -0.00510255f, 0.01087517f, 0.02253162f, -0.01721104f, 0.04513508f, 0.32965484f, -0.35595283f, 0.06290080f, 0.01428810f, -0.02355348f, 0.07218320f, -0.06208385f, 0.11826672f, -0.10290363f, 0.00514369f, -0.03939376f, 0.05601613f, -0.32768202f, -0.60941476f, -0.01810635f, -0.07506203f, -0.89428967f, 0.07859576f, 0.06748479f, 0.01870804f, 0.01169358f, 0.05752478f, -0.61802226f, -0.32089898f, -0.03732469f, 0.01862268f, 0.08370379f, -0.02829146f, -0.02080234f, 0.00639027f, -0.90190083f, -0.03806945f, -0.02259929f, -0.07694177f, -0.00943068f, 0.00910900f, 0.05400298f, -0.01840316f, -0.04807165f, -0.03659628f, -0.04547019f, 0.05946496f, -0.05393289f, 0.03156134f, 0.00173169f, -0.03350290f, -0.05522213f, 0.01878021f, 0.00895548f, -0.09398881f, 0.05889846f, -0.00083035f, 0.02988634f, -0.03260197f, 0.05261352f, -0.64510220f, -0.06242080f, 0.01025559f, 0.01086624f, -0.04059274f, 0.02387535f, 0.06079948f, 0.04478338f, -0.05189865f, -0.08917856f, 0.03148278f, -0.04167757f, -0.02572183f, 0.00520673f, -0.03402902f, -0.04293768f, 0.06458028f, -0.01816240f, -0.94658440f, 0.32994366f, 0.06257369f, 0.01189287f, 0.01736236f, -0.02544909f, -0.06933668f, -0.02566409f, 0.01208882f, -0.04802895f, -0.00029536f, -0.16126342f, -0.02489446f, -0.06597297f, 0.06065650f, -0.05368744f, -0.08399092f, -0.01530698f, 0.02574445f, -0.03985692f, -0.20709725f, 0.03543764f, 0.04920100f, 0.36791629f, 0.27064759f, 0.01614528f,
    /* [42] */ 0.04420977f, 0.09415874f, -0.03196679f, -0.08143465f, 0.10899723f, 0.04684592f, 0.17904428f, 0.07781823f, 0.16788714f, -0.04638726f, 0.45882091f, 0.14727259f, 0.05366867f, 0.00391092f, -0.19976526f, -0.04874694f, -0.04929965f, 0.02777212f, -0.23775673f, 0.15760094f, 0.02538442f, -0.10844535f, 0.15974693f, -0.09457695f, 0.29318753f, 0.07886270f, -0.06648511f, 0.07065719f, 0.08811060f, -0.20009221f, -0.02976907f, 0.13879833f, -0.00045450f, -0.16007766f, 0.02138980f, -0.15944092f, 0.11013112f, 0.11226428f, 0.10690487f, 0.00645840f, -0.04507027f, -0.00728043f, 0.01098376f, -0.03447529f, 0.07193039f, -0.48863804f, 0.12875165f, -0.10232674f, 0.17884034f, 0.05401616f, 0.06254476f, -0.08743241f, -0.41858098f, -0.11107460f, 0.02220155f, -0.13341568f, 0.01612775f, -0.02315679f, -0.13668869f, -0.21622670f, 0.12066583f, -0.00759331f, -0.11198229f, -0.06165399f, 0.04395931f, 0.08920142f, -0.02923801f, -0.16604750f, 0.37185356f, 0.20089489f, 0.13185108f, -0.32352480f, 0.04854680f, -0.02696613f, 0.05620596f, -0.18025778f, 0.00899084f, 0.09323006f, -0.08630440f, -0.06437435f, 0.10551614f, 0.25367576f, -0.34455323f, -0.18329911f, 0.11341678f, 0.15803991f, -0.10293853f, 0.16064814f, -0.05045835f, -0.04011717f, 0.06016625f, -0.14857420f, -0.17268647f, -0.01373475f, 0.17355691f, -0.26423383f, -0.15788078f, -0.05099127f, -0.16661289f, 0.12661493f, -0.08112240f, 0.40268114f, 0.03187713f, 0.22360809f, 0.15559749f, 0.22947204f, 0.27082166f, -0.06448867f, -0.17235953f, -0.14755036f, 0.01282813f, 0.03504828f, 0.08775193f, -0.17764814f, -0.12277756f, 0.10204688f, 0.09632725f, -0.04463443f, -0.24436133f, 0.00093635f, 0.11390667f, -0.13617791f, -0.17863356f, 0.05714131f, 0.11296377f, 0.24923947f, 0.35024545f, -0.04622389f,
    /* [43] */ -0.02117700f, -0.05974358f, -0.00276781f, -0.01460932f, 0.14205827f, 0.05134998f, 0.00431611f, -0.03160488f, 0.01169843f, 0.00049463f, -0.02516231f, -0.03421662f, 0.03055458f, -0.02445590f, 0.04946020f, 0.02793294f, 0.04487218f, -0.04312920f, 0.07954195f, -0.02850319f, -0.05068732f, -0.03979912f, 0.09112047f, 0.01631033f, 0.05985069f, -0.00495309f, -0.04509753f, -0.05366635f, -0.02108276f, -0.04177098f, -0.01386854f, 0.05835604f, 0.01376563f, -0.03989030f, 0.01918867f, -0.03961002f, 0.06752262f, -0.01433533f, -0.02725360f, -0.01096260f, -0.05190289f, 0.00950546f, -0.01555920f, 0.00393363f, 0.01106527f, 0.03890199f, -0.07615446f, 0.05694670f, 0.04693322f, 0.10518519f, -0.03243380f, -0.04834153f, -0.02243382f, 0.07326633f, -0.03376748f, -0.01683511f, -0.01323591f, 0.02505029f, -0.03352985f, 0.06262797f, -0.03943399f, -0.02225432f, -0.00105242f, -0.05220467f, -0.00285031f, 0.01390282f, -0.02649861f, -0.04038386f, -0.02709568f, 0.08213577f, 0.03444283f, 0.01120040f, 0.02478095f, -0.01550187f, 0.05621363f, 0.00484587f, -0.03984359f, 0.01659526f, 0.04243082f, -0.02199667f, 0.01759571f, -0.00750304f, 0.00047211f, -0.07999434f, -0.13426964f, 0.02945820f, 0.00048806f, 0.02849111f, -0.05685738f, -0.06392035f, 0.05719024f, 0.01817847f, -0.01105563f, -0.02748329f, -0.02007109f, -0.01276724f, -0.04885679f, -0.01434006f, -0.00854777f, -0.01890961f, 0.00119141f, 0.02624382f, 0.08100650f, 0.05825875f, -0.02643328f, -0.01472302f, 0.02802343f, -0.01100587f, -0.00639417f, -0.00350129f, -0.06738842f, 0.01932790f, -0.03811641f, 0.03102913f, -0.04578736f, 0.00208624f, -0.03068741f, -0.01673282f, 0.03389050f, 0.03544630f, -0.04986309f, -0.01977239f, -0.07330202f, -0.02413393f, -0.02166440f, 0.00745859f, 0.04084311f, 0.01956389f,
    /* [44] */ -0.04467501f, -0.01050386f, 0.03960029f, -0.04094380f, -0.00437498f, 0.05069069f, 0.07440647f, 0.01454211f, -0.01220931f, 0.01914115f, -0.08588300f, -0.04310255f, -0.00482309f, -0.01895612f, 0.02696648f, -0.03763625f, 0.03902972f, -0.03261401f, 0.06186094f, -0.04729191f, -0.00984103f, 0.07253443f, -0.06205532f, 0.05391159f, 0.02766247f, -0.02059822f, -0.01435174f, 0.00674464f, -0.01953966f, 0.07036027f, 0.04207123f, 0.00931403f, -0.04512351f, 0.03720036f, 0.02179964f, 0.04326173f, 0.00947294f, -0.01062585f, 0.08623844f, 0.03270214f, 0.04800595f, -0.05077621f, 0.04393785f, -0.04477343f, -0.06868868f, -0.01706322f, -0.03322532f, -0.08046737f, -0.01324415f, -0.01982083f, -0.02085174f, -0.01207191f, -0.07013136f, 0.07094361f, 0.06841250f, 0.03216950f, -0.00283841f, -0.01877024f, 0.03735974f, -0.01545677f, -0.02100064f, 0.00269007f, 0.03970604f, 0.06008131f, 0.06253622f, 0.03482658f, -0.02220359f, 0.03424853f, 0.00301607f, -0.02305700f, 0.05914140f, 0.03840648f, -0.01238982f, -0.04428083f, -0.02745764f, -0.00558172f, -0.02947296f, -0.02266689f, 0.01117948f, 0.02425170f, -0.06922077f, -0.02594206f, 0.04049135f, 0.08940414f, 0.08200699f, -0.04903682f, -0.03158307f, -0.03117908f, -0.00260174f, 0.07876942f, 0.01627509f, -0.00347975f, -0.04065957f, 0.00719932f, 0.00334122f, 0.01283647f, 0.03657440f, 0.01384617f, -0.04036710f, 0.00202455f, 0.00697140f, -0.08101598f, 0.10729171f, -0.04049787f, -0.02432310f, 0.03342204f, -0.05863468f, 0.00322530f, -0.05849897f, -0.05542707f, -0.04357998f, 0.01742243f, 0.04295569f, -0.00361780f, 0.07886279f, -0.06184144f, -0.01579224f, -0.00438724f, -0.00606534f, -0.03496050f, 0.06729901f, 0.03709142f, 0.03597842f, 0.04735196f, 0.01096098f, 0.07609475f, -0.10354044f, -0.00002983f,
