#include "policy.h"
#include <math.h>

/* ---- 重み配列 ---- */

/* layer0 weight: [128][3] (row-major) */
static const float W0[384] = {
    /* [0] */ 0.05080830f, -0.01900591f, -0.00395603f,
    /* [1] */ 0.01153147f, -0.01126500f, 0.00902107f,
    /* [2] */ 0.04146178f, 0.07007010f, -0.00288369f,
    /* [3] */ 0.01415037f, -0.02298850f, -0.00903562f,
    /* [4] */ -0.01128225f, -0.03353677f, 0.00737368f,
    /* [5] */ -0.02699012f, -0.04980660f, 0.01195432f,
    /* [6] */ -0.01408931f, -0.09277169f, 0.00385873f,
    /* [7] */ -0.01087377f, -0.04598890f, 0.00328185f,
    /* [8] */ -0.02803753f, -0.04357679f, -0.00380230f,
    /* [9] */ 0.03609063f, 0.05916319f, -0.00444775f,
    /* [10] */ 0.01745351f, 0.00367951f, -0.00654705f,
    /* [11] */ -0.02028691f, 0.02300090f, -0.01054562f,
    /* [12] */ 0.00664278f, 0.00418171f, 0.00885588f,
    /* [13] */ 0.04939769f, 0.03431050f, -0.00976285f,
    /* [14] */ 0.04500694f, 0.06322384f, -0.00176478f,
    /* [15] */ 0.06014991f, 0.02286807f, -0.00366047f,
    /* [16] */ 0.02563111f, 0.07347387f, -0.00309950f,
    /* [17] */ 0.03450428f, -0.01012167f, 0.00190619f,
    /* [18] */ 1.91380262f, 0.65828818f, -0.54525733f,
    /* [19] */ -0.04022128f, -0.05518993f, 0.00613033f,
    /* [20] */ 0.00707822f, 0.04281025f, -0.00365652f,
    /* [21] */ 0.03775501f, 0.06756462f, -0.00229367f,
    /* [22] */ 0.00304452f, -0.05241434f, 0.00120174f,
    /* [23] */ 0.04314063f, -0.03183807f, -0.01411936f,
    /* [24] */ -0.04336149f, 0.06367801f, -0.00707414f,
    /* [25] */ 0.00790917f, -0.03029556f, -0.01382245f,
    /* [26] */ -0.00911536f, 0.01998870f, 0.01010640f,
    /* [27] */ 0.03569121f, 0.03711930f, -0.00110660f,
    /* [28] */ -0.03306390f, -0.04128876f, 0.01144129f,
    /* [29] */ 0.02402443f, 0.05020219f, -0.00632110f,
    /* [30] */ 0.01700850f, 0.08015796f, -0.00224217f,
    /* [31] */ 0.89485604f, 1.35270798f, -0.10404631f,
    /* [32] */ -0.01524906f, -0.03270402f, 0.00048900f,
    /* [33] */ 0.23871042f, -0.19405624f, -0.00500614f,
    /* [34] */ 0.01179591f, -0.03786831f, 0.00112131f,
    /* [35] */ -0.00099167f, -0.05851393f, -0.00984620f,
    /* [36] */ 3.20919824f, -1.35196364f, 0.02450349f,
    /* [37] */ 0.00635651f, -0.07846254f, 0.00022907f,
    /* [38] */ -0.00811310f, 0.00044652f, 0.00119458f,
    /* [39] */ 0.06595199f, -0.01549435f, -0.00234487f,
    /* [40] */ -1.08816147f, -1.93882048f, 0.40710059f,
    /* [41] */ 0.01385229f, -0.05181920f, -0.00514783f,
    /* [42] */ 0.02122511f, -0.03278586f, 0.00550840f,
    /* [43] */ -0.89486784f, -1.85962510f, 0.11282828f,
    /* [44] */ -3.49777508f, -1.89447761f, 0.13598508f,
    /* [45] */ 0.00265302f, -0.03010663f, -0.00171614f,
    /* [46] */ 1.94885755f, 2.00849915f, -0.34122968f,
    /* [47] */ 0.07447667f, -0.02251012f, -0.00690209f,
    /* [48] */ 0.04517385f, -0.02288309f, -0.00881764f,
    /* [49] */ -0.01344004f, 0.06079856f, -0.00432005f,
    /* [50] */ -0.95563972f, 0.33453089f, -0.00624170f,
    /* [51] */ 2.14620519f, 2.21341443f, -0.23975523f,
    /* [52] */ 0.04324343f, 0.00082205f, -0.00441753f,
    /* [53] */ -0.05234285f, -0.00498852f, 0.00009508f,
    /* [54] */ 0.04202143f, 0.01738340f, 0.00283205f,
    /* [55] */ 0.03075691f, -0.01879323f, 0.00238327f,
    /* [56] */ -0.00495526f, -0.00013565f, -0.00034127f,
    /* [57] */ -0.08792811f, -0.02887529f, 0.01081154f,
    /* [58] */ 0.02878427f, -0.00887212f, -0.00373612f,
    /* [59] */ 0.00584365f, -0.04804413f, 0.00501793f,
    /* [60] */ -0.02350728f, -0.05268376f, 0.00305041f,
    /* [61] */ -3.06352162f, -2.93476057f, 0.16475748f,
    /* [62] */ 0.01021713f, -0.03290089f, 0.00249209f,
    /* [63] */ 0.02457389f, -0.08272033f, -0.00156409f,
    /* [64] */ -0.00325210f, -0.02948090f, 0.00684599f,
    /* [65] */ 0.05541538f, 0.01624551f, -0.00883974f,
    /* [66] */ -0.02778928f, -0.00714316f, -0.00132440f,
    /* [67] */ 0.04297169f, 0.04371129f, -0.01670478f,
    /* [68] */ -0.03043346f, -0.02300473f, -0.00214201f,
    /* [69] */ -0.76595473f, 0.41259086f, -0.00590583f,
    /* [70] */ -1.91861045f, -2.68095112f, 0.28820130f,
    /* [71] */ 0.00464350f, 0.05723736f, -0.00250347f,
    /* [72] */ 0.02318009f, -0.07289463f, 0.00230982f,
    /* [73] */ -0.03031427f, -0.02621168f, 0.00228809f,
    /* [74] */ 0.04169663f, 0.01976522f, -0.00482556f,
    /* [75] */ -0.02637915f, 0.04865715f, 0.00202341f,
    /* [76] */ -0.01556308f, -0.02301456f, -0.00231303f,
    /* [77] */ -0.01644685f, 0.02875444f, -0.00344453f,
    /* [78] */ 0.00067414f, -0.07523326f, 0.00307250f,
    /* [79] */ 0.02398411f, -0.02437695f, -0.00452486f,
    /* [80] */ 0.05231086f, 0.06068874f, -0.00308921f,
    /* [81] */ 0.01091748f, -0.04186112f, 0.00198762f,
    /* [82] */ 0.00063932f, -0.03654260f, -0.00980945f,
    /* [83] */ -3.70523858f, -2.37353683f, 0.17097616f,
    /* [84] */ 0.02285170f, -0.00009330f, -0.00422557f,
    /* [85] */ -2.95234871f, -0.49614924f, 0.05142202f,
    /* [86] */ -0.00477403f, 0.03426157f, 0.00786077f,
    /* [87] */ -0.02937343f, 0.05601262f, -0.00948097f,
    /* [88] */ -0.00676140f, -0.07605454f, -0.00019067f,
    /* [89] */ 0.02259215f, -0.00894283f, -0.00022266f,
    /* [90] */ -0.03193549f, -0.01727130f, 0.00324699f,
    /* [91] */ -0.01449900f, 0.02424373f, -0.00700018f,
    /* [92] */ 0.07382974f, -0.05623173f, 0.00378907f,
    /* [93] */ 0.03963262f, -0.02499087f, -0.00946968f,
    /* [94] */ -0.79049408f, -2.22273946f, 0.64428914f,
    /* [95] */ 1.85274553f, 1.28002465f, -0.13455309f,
    /* [96] */ -0.02169442f, 0.05202723f, -0.00306833f,
    /* [97] */ 0.00662395f, -0.06769751f, -0.00045817f,
    /* [98] */ 0.04391533f, 0.03638126f, 0.00057859f,
    /* [99] */ 0.10671981f, -0.10860674f, -0.01963025f,
    /* [100] */ 0.01770241f, -0.02354692f, -0.00594952f,
    /* [101] */ 0.02156232f, -0.01203294f, -0.00075934f,
    /* [102] */ 0.01221978f, 0.00367252f, 0.00354997f,
    /* [103] */ 1.66708040f, 2.34849048f, -0.22677723f,
    /* [104] */ -0.03257633f, 0.05926536f, -0.00194481f,
    /* [105] */ -0.04362075f, 0.04313126f, 0.00426589f,
    /* [106] */ 0.04505082f, 0.03458750f, 0.00216288f,
    /* [107] */ -1.93253779f, -1.25269020f, 0.10659064f,
    /* [108] */ 0.02702174f, 0.04290842f, -0.00381219f,
    /* [109] */ -0.02244523f, -0.01223009f, 0.00724813f,
    /* [110] */ 0.04239351f, -0.04292254f, 0.00809626f,
    /* [111] */ -1.55741715f, -1.56320918f, 0.13529910f,
    /* [112] */ 0.01657176f, 0.05234489f, -0.00347663f,
    /* [113] */ 0.22058454f, -0.18571812f, -0.02355207f,
    /* [114] */ 0.00558243f, -0.06309439f, 0.00383258f,
    /* [115] */ -0.02845858f, -0.07817420f, 0.00814570f,
    /* [116] */ 0.01167192f, 0.06235556f, -0.00482047f,
    /* [117] */ 0.00325029f, 0.01721580f, -0.00669025f,
    /* [118] */ 0.02579738f, -0.00919984f, -0.00355383f,
    /* [119] */ -0.00865964f, 0.06084071f, -0.00065001f,
    /* [120] */ -3.21842742f, -1.99966109f, 0.12514973f,
    /* [121] */ -0.01058423f, -0.00199174f, 0.00327992f,
    /* [122] */ 0.01136726f, 0.00498963f, -0.00662994f,
    /* [123] */ -0.03180856f, 0.03732594f, -0.00558864f,
    /* [124] */ 0.01393399f, 0.04534308f, -0.00530278f,
    /* [125] */ 0.00984894f, 0.06972223f, 0.00505121f,
    /* [126] */ 0.03648772f, -0.03465619f, -0.01223522f,
    /* [127] */ 0.02172015f, 0.00491773f, -0.00302034f
};

/* layer0 bias: [128] */
static const float b0[128] = {
    -0.00284225f, -0.00620521f, 0.00171088f, -0.00219620f, -0.00463327f, -0.00539119f, 0.00246287f, 0.00002373f, 0.00538392f, 0.00075455f, -0.00176174f, 0.00513930f, 0.00382059f, -0.00886246f, -0.01047393f, -0.00219877f, 0.00118854f, -0.00553579f, -0.12804773f, -0.00295137f, -0.00106855f, -0.01030574f, 0.00831106f, 0.00460368f, 0.00673728f, -0.02136134f, -0.00417664f, 0.00376293f, 0.01591160f, 0.00240678f, -0.00567913f, -0.04192071f, 0.00595659f, -0.01685158f, 0.00030078f, 0.00874878f, -0.15260293f, 0.01168759f, -0.00238341f, 0.00280047f, -0.11545616f, 0.00748947f, 0.00168705f, 0.00986260f, 0.04381518f, 0.00437139f, -0.09390904f, 0.00767512f, 0.00936947f, -0.00319699f, 0.04074654f, -0.07213873f, -0.00429213f, -0.00025689f, -0.01166978f, -0.00022275f, 0.00158933f, -0.00069602f, 0.00451684f, 0.00061981f, 0.00498347f, 0.04622089f, 0.00437691f, 0.00992951f, 0.00331916f, -0.00203731f, 0.00654993f, 0.00784067f, -0.00093577f, 0.02631094f, -0.02993820f, 0.00168435f, 0.00309877f, -0.00161281f, -0.00680657f, -0.00771225f, 0.00051293f, 0.01016218f, 0.01175915f, -0.00008234f, 0.00270706f, -0.00192907f, -0.00530335f, 0.03795217f, -0.00257399f, 0.11298252f, -0.00934527f, -0.00432688f, 0.01131279f, 0.00398465f, -0.00638354f, -0.00218456f, -0.01194753f, 0.00539594f, -0.08480466f, -0.08138891f, -0.00614913f, 0.01368892f, -0.00196412f, -0.02565723f, 0.00633184f, 0.00458959f, -0.01101462f, -0.04171759f, -0.00527620f, -0.00986918f, -0.00590873f, 0.06194754f, -0.00392545f, 0.00631605f, 0.01310870f, 0.04566434f, 0.00180861f, -0.00298755f, -0.00239528f, 0.00937890f, -0.01037139f, -0.00385477f, 0.00131638f, -0.00324976f, 0.05857560f, -0.00854073f, 0.00520794f, -0.00814176f, -0.00815707f, -0.00619270f, 0.01282601f, -0.00489188f
};

/* layer1 weight: [128][128] (row-major) */
static const float W1[16384] = {
    /* [0] */ 0.04476305f, 0.09016097f, -0.04130424f, 0.01664992f, -0.04509607f, 0.03879909f, 0.06323829f, 0.01651571f, 0.01519443f, 0.00046120f, -0.07540615f, 0.00316705f, -0.05716732f, 0.03882639f, -0.03274792f, 0.02788603f, -0.04513509f, -0.00489671f, 0.05623716f, 0.00475857f, 0.05582792f, 0.00405848f, 0.04255208f, -0.06183807f, -0.02317219f, 0.04393129f, -0.05264760f, -0.05246266f, -0.09820478f, 0.01500046f, -0.00809188f, 0.02926547f, 0.00087090f, 0.01929085f, -0.00861165f, -0.00397852f, 0.04495813f, 0.03731788f, -0.00983794f, -0.02260128f, 0.04625697f, 0.02065117f, -0.03184381f, -0.04931125f, -0.03357391f, -0.05679828f, 0.00139591f, -0.05265677f, -0.05293229f, -0.00317386f, -0.00863985f, 0.00825400f, 0.02673949f, 0.04019715f, -0.00076439f, -0.03188406f, 0.00302538f, 0.01548092f, -0.00527828f, 0.05591675f, -0.05950970f, -0.05009111f, -0.03394279f, 0.00455266f, -0.05254514f, 0.00404926f, -0.00273916f, -0.11058130f, 0.08495978f, -0.08555497f, -0.02578342f, 0.04616853f, 0.03341743f, -0.00121723f, -0.00567516f, -0.03702778f, 0.02214719f, -0.04237550f, -0.06589628f, 0.04958277f, -0.04380349f, 0.04980733f, 0.05616442f, -0.01867571f, 0.00085422f, 0.03181736f, 0.04972070f, -0.01763386f, 0.09045960f, 0.04559597f, 0.07090867f, 0.00952310f, 0.03499041f, 0.01779035f, -0.01701576f, -0.00992124f, -0.00396932f, -0.03837421f, -0.03355472f, 0.07585148f, -0.01500284f, -0.04908291f, 0.04378060f, -0.10260490f, -0.02400167f, 0.02124404f, -0.01529525f, -0.05299093f, -0.05231267f, 0.00746313f, -0.02845984f, -0.06568761f, -0.04668501f, 0.11502776f, 0.02376984f, 0.05077862f, 0.01657762f, -0.02528964f, -0.01194369f, -0.07868414f, -0.04579084f, 0.00857954f, 0.03706124f, 0.01566456f, -0.06374087f, -0.00741794f, -0.00759462f, 0.04009889f,
    /* [1] */ 0.02298836f, 0.05098571f, 0.05816036f, 0.07155066f, 0.04037300f, 0.02531951f, 0.02543503f, 0.03554741f, 0.02576710f, -0.06695396f, 0.02435430f, -0.03004220f, -0.02709765f, 0.04805824f, -0.03120651f, 0.04305103f, -0.00046175f, -0.02351843f, 0.01869545f, -0.01478549f, 0.02641949f, -0.06960607f, 0.04682402f, 0.02271629f, 0.04801957f, 0.00104698f, 0.03040319f, 0.02089339f, 0.02598703f, -0.00298740f, -0.01449472f, -0.01918477f, -0.04565991f, 0.04615954f, 0.03664684f, 0.00387807f, 0.05560645f, -0.01762392f, 0.04333220f, 0.02551618f, -0.00138813f, 0.01926368f, -0.00578127f, -0.07131609f, 0.06275259f, 0.01711053f, -0.02687397f, 0.03708882f, 0.03874489f, -0.00497200f, -0.02153370f, 0.05210436f, 0.02246900f, -0.03222672f, -0.04848246f, 0.02390471f, -0.03046964f, -0.03293380f, 0.00476174f, -0.04157688f, -0.00444422f, -0.16757649f, 0.03583377f, 0.00056227f, 0.01276008f, 0.02942428f, -0.04346712f, 0.03402601f, 0.01547594f, -0.00670732f, 0.10627668f, 0.01330382f, 0.04178794f, 0.01575842f, 0.01944739f, -0.00950937f, -0.00291586f, 0.00358729f, -0.05477465f, -0.00515285f, 0.04829703f, -0.02644588f, -0.02004242f, 0.01000058f, 0.04188394f, 0.03854991f, 0.02298441f, 0.06585450f, 0.01004261f, 0.00532997f, -0.01917481f, 0.02572860f, -0.02973625f, -0.01283310f, -0.03636149f, -0.04905546f, 0.04662927f, -0.03653459f, 0.09774753f, -0.09491090f, -0.00724026f, 0.02735955f, -0.05967625f, 0.03213248f, -0.02515011f, 0.01622804f, -0.00652842f, 0.03745060f, 0.00439037f, 0.03862224f, 0.11885829f, 0.08399817f, 0.00324638f, -0.05762799f, -0.05773622f, -0.03303355f, -0.02590738f, -0.00727261f, 0.02707739f, 0.03060530f, -0.04482071f, -0.02563866f, 0.04449858f, -0.03092502f, -0.00037856f, -0.07225215f, -0.02658619f, -0.02256995f,
    /* [2] */ 0.02559073f, 0.01721371f, -0.03661929f, 0.05708836f, 0.03882813f, 0.04941777f, 0.02761104f, 0.03001546f, 0.01583763f, -0.05317570f, 0.06847331f, -0.05619395f, -0.04133076f, -0.04569715f, -0.04582070f, 0.01022912f, 0.05087954f, -0.02527145f, 0.00066277f, 0.04006869f, -0.03690631f, 0.01616657f, 0.02199014f, -0.02895468f, -0.02972421f, 0.06029458f, -0.03177993f, -0.01808925f, -0.00799367f, 0.01132839f, -0.02090599f, 0.05994751f, 0.00473170f, -0.02895991f, -0.00278203f, -0.02048714f, 0.05918257f, -0.03523429f, 0.00963586f, 0.01667776f, -0.00367523f, 0.00268135f, 0.01825238f, -0.06200205f, 0.07771212f, 0.03848982f, 0.05416983f, -0.01171530f, -0.05669688f, -0.04667563f, 0.00420344f, 0.01581526f, -0.00784665f, -0.02318863f, -0.01103866f, 0.00203209f, 0.07858654f, -0.02332696f, -0.03317503f, 0.04818870f, 0.00340702f, -0.10348358f, 0.02790496f, 0.00757156f, -0.05075135f, -0.02879476f, 0.02659950f, -0.03858697f, 0.00114333f, -0.02982624f, -0.01401309f, 0.02434597f, 0.05183201f, 0.02403125f, -0.03777417f, -0.00451704f, 0.02045096f, -0.01842432f, -0.01221425f, 0.04448871f, -0.05095061f, 0.07733392f, 0.05607598f, -0.07873697f, 0.06521997f, 0.00364172f, -0.03498212f, -0.08949468f, -0.00657775f, -0.00829247f, 0.03923850f, 0.00041740f, 0.04556897f, -0.05847482f, 0.00297104f, -0.03534821f, 0.01636294f, 0.00739361f, -0.00409086f, 0.01840478f, 0.00947597f, -0.03372490f, 0.02211405f, -0.08036150f, -0.02007914f, -0.03399046f, 0.04603492f, 0.00396161f, 0.02868117f, 0.02793772f, 0.04738459f, 0.04763634f, -0.04556815f, -0.02667242f, 0.03933448f, 0.01449142f, 0.00461021f, -0.00327484f, 0.05528411f, -0.07412636f, -0.01229663f, -0.02447586f, 0.00719659f, -0.00150241f, -0.07724036f, -0.02369347f, -0.03396605f, -0.04876178f,
    /* [3] */ -0.00461823f, -0.00593532f, 0.04347210f, -0.01068697f, -0.01278384f, 0.03065102f, -0.03723054f, -0.00391649f, -0.00529217f, -0.01685232f, -0.04817677f, 0.00492251f, 0.03802005f, -0.01372770f, 0.05995162f, 0.06133831f, 0.02473794f, -0.03195377f, -0.02043344f, 0.01278073f, -0.00973395f, 0.04751753f, 0.03913024f, -0.03149015f, -0.01056653f, -0.00127702f, -0.00636532f, 0.03233381f, 0.00326609f, 0.03221616f, 0.01316509f, -0.02366261f, -0.04647207f, -0.04790016f, -0.02192773f, -0.01299926f, -0.04693627f, -0.04876821f, -0.02863235f, -0.01485094f, -0.02678737f, 0.00645606f, 0.04281921f, -0.03022286f, -0.01855251f, -0.08164549f, 0.03652121f, -0.07866920f, -0.00482297f, 0.00769535f, 0.01206355f, -0.08817831f, -0.03463459f, 0.00785684f, -0.05143677f, -0.06051194f, -0.06275099f, -0.00776928f, 0.02434382f, -0.06237671f, -0.06662783f, -0.01810109f, -0.00259256f, -0.01535215f, 0.04238359f, -0.01828787f, -0.03014790f, -0.03425232f, -0.00162699f, 0.01756911f, 0.09996506f, -0.02267377f, 0.01444792f, -0.00784211f, -0.01124567f, 0.01951895f, -0.00946630f, 0.04897109f, -0.03015962f, 0.05452760f, 0.03953710f, 0.01634205f, 0.02095861f, -0.03143179f, 0.01306181f, -0.00606868f, 0.01638815f, 0.00426707f, -0.00090499f, 0.02580710f, 0.02681689f, -0.02053057f, 0.04218876f, -0.02717294f, -0.03626085f, 0.08133416f, 0.02833192f, 0.01709179f, 0.00537848f, -0.00149751f, -0.02385521f, -0.00895814f, 0.00416665f, -0.10042869f, -0.01557158f, 0.05244364f, 0.08427367f, 0.06947517f, -0.03777068f, -0.00326177f, 0.05293774f, 0.00291907f, -0.01888029f, 0.04276146f, 0.00800033f, 0.01708326f, 0.01610340f, -0.01710548f, -0.03454057f, 0.01517730f, -0.05048686f, -0.01174545f, -0.05678149f, 0.02940778f, -0.06052447f, 0.03364365f, -0.03134874f, -0.00655592f,
    /* [4] */ -0.01819928f, -0.05282011f, -0.00148668f, 0.00849307f, 0.00429642f, -0.00211637f, 0.03178857f, 0.01446908f, 0.04919888f, 0.02134708f, 0.00076377f, 0.00729036f, -0.05154995f, -0.02723890f, -0.04715544f, -0.00586310f, -0.06008324f, -0.02920990f, -0.00049379f, 0.00293363f, -0.00531431f, -0.02369949f, 0.01942415f, 0.11211418f, 0.01698933f, -0.00503809f, 0.00557807f, -0.03264484f, 0.10470922f, -0.00264825f, -0.02078878f, -0.03476011f, -0.03129300f, -0.04040490f, -0.02048228f, 0.03416243f, 0.02000817f, -0.01979464f, -0.00452618f, -0.02264643f, 0.06341256f, -0.00400606f, -0.06832502f, 0.00971679f, -0.04395916f, -0.06520628f, 0.04725016f, -0.07397108f, -0.00970908f, 0.01019266f, -0.00177777f, 0.01889580f, -0.01526078f, 0.04951759f, -0.05002752f, -0.14841457f, -0.02386782f, 0.05283548f, 0.02110192f, 0.00037399f, 0.02400909f, -0.05184206f, 0.05461458f, -0.01676444f, -0.02658973f, 0.04996983f, -0.02730131f, 0.02958781f, 0.00270423f, -0.04578032f, 0.04235230f, -0.00041678f, 0.01267125f, -0.00310123f, 0.01958998f, -0.00980654f, 0.00355350f, 0.01203647f, 0.04462526f, -0.02037805f, 0.00425044f, 0.01118604f, 0.00097258f, 0.01612099f, -0.00976680f, 0.04852777f, -0.07938275f, 0.01903127f, -0.01417282f, -0.07747046f, 0.00820559f, -0.00483139f, 0.02828536f, 0.03450321f, -0.02571470f, 0.01452917f, 0.04574343f, -0.00579071f, -0.00511963f, -0.03783149f, 0.00754856f, -0.02535120f, -0.03428237f, 0.01281857f, -0.01577197f, 0.03842181f, -0.00355698f, -0.00211873f, -0.03301154f, -0.01647041f, -0.02702952f, 0.09738875f, 0.04677398f, -0.04967723f, 0.02598521f, 0.00581050f, -0.03095499f, 0.05603163f, 0.05625356f, -0.01273737f, -0.01037072f, 0.00185969f, -0.04331322f, -0.07390196f, 0.04892886f, -0.03260112f, -0.08274095f, -0.01760417f,
    /* [5] */ 0.07970563f, 0.09447623f, -0.02496934f, 0.06743737f, 0.06791836f, -0.02649261f, -0.01383522f, 0.04568107f, -0.00756956f, 0.03505176f, 0.02501633f, 0.04940801f, -0.09164478f, 0.06854424f, -0.05146402f, -0.00479057f, -0.02381032f, 0.03825093f, 0.04138458f, 0.00214253f, 0.01321657f, -0.00604799f, -0.04563321f, 0.01179368f, 0.05423344f, 0.02575983f, -0.03059960f, -0.03534245f, -0.02182093f, -0.01437247f, -0.00067833f, -0.13169582f, -0.06164663f, -0.06081760f, -0.01487304f, 0.04954115f, -0.01205240f, 0.01582968f, 0.03583386f, 0.01058586f, 0.01804898f, 0.00168059f, -0.00828768f, -0.00925449f, 0.05479805f, 0.06770981f, -0.05165081f, 0.05939198f, -0.06182017f, 0.03012596f, 0.00587292f, 0.01415156f, -0.00143169f, 0.01641891f, -0.01354296f, -0.01210871f, 0.01953706f, -0.07651609f, 0.00021727f, 0.06584155f, -0.03092995f, 0.03417406f, 0.05870653f, 0.00042910f, -0.01972879f, 0.04446683f, -0.06032017f, 0.04394509f, -0.07160316f, 0.01262523f, -0.08934131f, -0.01510656f, -0.01229693f, -0.00979468f, 0.06565126f, -0.00988510f, 0.02175447f, 0.04408407f, 0.01238314f, -0.02615764f, 0.03391359f, 0.04594221f, 0.04406759f, -0.01763400f, 0.01314969f, -0.03331171f, 0.04018447f, 0.04566303f, -0.01668940f, 0.03572428f, 0.03022628f, 0.04565347f, 0.01056882f, 0.05563619f, 0.01974901f, 0.03448257f, 0.04129599f, 0.01395703f, 0.02786478f, 0.00942561f, 0.05947347f, -0.05840021f, 0.02572634f, 0.09197743f, -0.00881984f, 0.01209979f, -0.06505368f, -0.04128320f, -0.03133538f, -0.01606337f, -0.10402165f, 0.04745000f, 0.04065270f, 0.11460958f, -0.01678734f, -0.03268212f, 0.02293404f, 0.05706672f, 0.03353170f, 0.07539619f, -0.04983304f, 0.08769727f, 0.03674300f, -0.05983632f, 0.00589681f, -0.01406319f, 0.02442055f, 0.05645172f,
    /* [6] */ 0.06406609f, -0.02679122f, 0.00766541f, 0.05837831f, 0.02766153f, 0.05320724f, 0.01038643f, 0.07251801f, 0.05443975f, 0.00363813f, 0.00219415f, 0.00140611f, 0.03968606f, 0.00037818f, -0.00586645f, 0.00015831f, -0.11876603f, -0.03219167f, -0.02581723f, -0.02631001f, -0.05165300f, -0.01080661f, -0.01296046f, 0.05171497f, -0.02059223f, -0.06555723f, -0.05164156f, -0.02706526f, -0.01263820f, -0.05309128f, 0.00724541f, -0.06359167f, 0.00053250f, -0.06840469f, 0.01347973f, 0.00910146f, -0.02957815f, -0.00957800f, -0.01955619f, 0.01483316f, -0.01701372f, 0.04821954f, -0.01412755f, 0.08790706f, -0.06002753f, -0.03125328f, 0.00169935f, -0.00872180f, -0.00976732f, -0.00597748f, 0.00104784f, 0.06229996f, 0.02759373f, -0.00796058f, 0.01901615f, 0.00468343f, 0.00352574f, -0.02895380f, -0.06003227f, 0.04461438f, -0.00598174f, 0.06866203f, 0.04425274f, 0.04279466f, 0.01985176f, -0.00536386f, 0.01221702f, 0.01013397f, -0.00327702f, -0.00564282f, -0.09819913f, 0.00640508f, 0.07001289f, 0.05605961f, 0.03209111f, -0.02776009f, -0.04282195f, -0.01052969f, -0.04530483f, 0.06827129f, -0.02171561f, 0.03704417f, -0.03611980f, -0.05082923f, 0.01286797f, -0.00729997f, -0.05922569f, 0.00346778f, -0.00412216f, 0.03655748f, 0.04846031f, 0.03442721f, -0.03338907f, 0.02416100f, 0.02367655f, 0.05239451f, -0.01309455f, 0.02930889f, -0.01076853f, 0.01208982f, -0.01525822f, -0.01354033f, 0.00948732f, -0.04690444f, -0.03873048f, -0.03149376f, -0.00627597f, -0.02175603f, -0.02620353f, -0.00789539f, -0.03350301f, -0.01606078f, 0.00087776f, -0.08638904f, -0.00073784f, 0.02725490f, 0.00938643f, 0.00538658f, 0.10461039f, 0.01571199f, 0.06047473f, -0.06495026f, -0.01152318f, -0.01134284f, 0.00259442f, -0.04995120f, 0.00122905f, -0.03388149f,
    /* [7] */ 0.02545293f, -0.02742413f, 0.00201053f, 0.01000183f, 0.00511556f, -0.06724903f, -0.00901277f, -0.03416270f, 0.01386316f, 0.01203770f, 0.05271107f, -0.03977267f, -0.01465938f, -0.05508282f, -0.01955400f, -0.02586062f, -0.02237954f, -0.07157277f, 0.02932194f, 0.04096621f, 0.04707909f, 0.02242036f, 0.03026265f, 0.03530890f, -0.04183501f, -0.03764139f, 0.00495315f, 0.05374001f, -0.04151349f, -0.02952851f, 0.01712046f, 0.02378464f, 0.05649799f, 0.02726938f, -0.00893249f, 0.03186712f, -0.04697117f, -0.05511806f, -0.02821046f, 0.01806104f, 0.05659755f, 0.07401937f, 0.02259350f, 0.00225965f, -0.02444318f, 0.08155196f, -0.04940013f, 0.04526737f, 0.01349356f, -0.00723013f, 0.05001038f, 0.02292107f, 0.00592459f, -0.10086699f, 0.00998146f, 0.04492182f, -0.06640270f, 0.02218672f, 0.00605901f, -0.06684078f, -0.05123465f, -0.09189961f, 0.03750360f, -0.02367557f, -0.04018825f, 0.10661495f, -0.01675672f, 0.00272882f, -0.04181538f, 0.09468625f, 0.02625899f, 0.04090374f, -0.03528986f, 0.04070108f, 0.02244734f, 0.06525401f, 0.05454676f, -0.01068333f, -0.05372038f, -0.03689792f, -0.00343412f, 0.04968202f, -0.00397871f, 0.07236633f, -0.00424459f, -0.05714589f, 0.02786184f, 0.01037368f, -0.03796158f, -0.05290842f, 0.01056717f, 0.02083387f, 0.00943222f, 0.00429335f, -0.06003527f, -0.03423530f, 0.00727372f, -0.00115314f, 0.03277010f, -0.02765673f, -0.01965063f, -0.01698150f, -0.00501503f, -0.12224649f, 0.03625001f, -0.02052185f, -0.05275341f, 0.01168638f, 0.02714123f, -0.01849491f, -0.01464004f, 0.01610021f, 0.03632662f, 0.01726021f, -0.07995018f, -0.01737526f, 0.05140810f, -0.01130609f, 0.04728703f, 0.00587754f, -0.04937874f, 0.01971573f, -0.07348534f, -0.00239327f, 0.00561965f, -0.00193229f, 0.03505100f, -0.01238309f,
    /* [8] */ 0.03356710f, 0.04189662f, 0.05938318f, -0.00813962f, 0.01254857f, -0.04665047f, -0.06131675f, -0.08662082f, -0.07913461f, 0.04775584f, 0.04056673f, -0.03532663f, 0.00048831f, 0.05628036f, 0.06183365f, 0.06790517f, 0.10543501f, 0.02130664f, 0.02298881f, -0.05984478f, 0.04132796f, 0.04923262f, -0.08770611f, 0.01430348f, 0.06241937f, 0.05717188f, 0.02048484f, 0.04140811f, -0.04038949f, 0.01635954f, 0.07119369f, -0.04472016f, -0.04363598f, -0.01824192f, 0.02080860f, -0.01078090f, -0.06165952f, -0.01404894f, 0.05378574f, 0.04210748f, 0.06077481f, -0.04221439f, -0.03106281f, -0.05004591f, 0.06745527f, 0.04046055f, -0.02203356f, 0.01863362f, -0.00395281f, 0.05428263f, 0.00352879f, 0.01322184f, -0.00458047f, -0.03932248f, 0.07191427f, 0.05050852f, -0.02509871f, -0.10209337f, -0.02623384f, 0.02601303f, -0.00354843f, -0.02097075f, -0.02848234f, -0.04379329f, 0.01954265f, -0.02381059f, 0.00944231f, 0.06892601f, -0.06605254f, -0.03636759f, 0.07532781f, 0.00740177f, -0.02115883f, -0.00638709f, 0.01278513f, 0.00725520f, -0.05640037f, 0.03436632f, -0.09894339f, -0.03107065f, 0.06749738f, -0.01223966f, -0.01587307f, 0.02620929f, 0.03640883f, 0.06732591f, -0.00020129f, -0.01839133f, -0.10479960f, 0.00886880f, 0.02317982f, 0.02577022f, 0.04529972f, -0.03552357f, -0.03679660f, 0.02834605f, 0.01244350f, -0.06164601f, 0.05694009f, -0.06271011f, -0.02164594f, 0.00207097f, 0.03170056f, -0.01083828f, 0.02038716f, -0.01653771f, -0.01348144f, 0.09773249f, 0.00798146f, 0.02713036f, -0.00639222f, -0.00656956f, 0.04254884f, 0.01753949f, -0.03837500f, -0.10141947f, 0.04854332f, 0.00348049f, 0.01113794f, 0.03047472f, -0.09574545f, 0.01652256f, -0.01265526f, 0.02001930f, 0.06110753f, 0.01033733f, -0.04906287f, -0.04433733f,
    /* [9] */ 0.00482562f, -0.00180062f, -0.01829016f, 0.02858357f, -0.00746652f, 0.01068922f, -0.01805893f, 0.01515889f, -0.02658772f, -0.00005626f, -0.01551416f, -0.02923618f, 0.00791057f, 0.06162366f, -0.03943362f, 0.04612334f, 0.01680866f, 0.01205138f, -0.00136411f, -0.00254669f, 0.02690336f, -0.02294708f, -0.01475289f, -0.00486822f, 0.00900675f, 0.02505593f, -0.00157355f, 0.00268565f, 0.03621583f, 0.02673345f, -0.01946304f, 0.02839347f, -0.02907597f, 0.02712569f, 0.05456441f, 0.05527995f, 0.04052909f, 0.02040441f, 0.03000014f, -0.02336483f, 0.03486138f, 0.04926244f, 0.01827211f, 0.05300321f, 0.00883597f, -0.01154822f, 0.02874560f, -0.00754037f, -0.03893609f, -0.01526276f, -0.03389194f, -0.00194559f, -0.05591386f, 0.01754892f, -0.03720799f, 0.01180125f, 0.05820671f, -0.06862179f, 0.02333344f, -0.04397760f, 0.03135080f, -0.01524784f, 0.01478048f, 0.02550842f, -0.03043748f, 0.06536113f, -0.05611151f, 0.04064071f, 0.00214789f, -0.02256524f, -0.03476302f, -0.02481102f, 0.03448003f, -0.05672878f, -0.02358579f, -0.07162882f, -0.02273245f, 0.03581262f, 0.02589140f, 0.05808976f, -0.07121272f, -0.05474056f, 0.04001527f, -0.00348387f, 0.00209056f, 0.00766371f, -0.00668787f, -0.01678207f, 0.02708604f, -0.01747513f, 0.00848030f, -0.03096133f, -0.01188189f, 0.05123857f, 0.02093148f, -0.04662576f, 0.00296905f, 0.03958200f, 0.02137879f, 0.02995522f, 0.05538839f, -0.01497771f, -0.10050818f, -0.01410845f, -0.00249361f, 0.01972296f, -0.07039163f, 0.04002639f, 0.01313645f, -0.00071108f, 0.02565051f, -0.06368027f, 0.03742939f, 0.04521593f, -0.00279083f, 0.05715831f, -0.00913818f, -0.01188470f, -0.01559973f, -0.09379461f, -0.00806234f, -0.00388608f, 0.04756600f, 0.00629236f, -0.04070878f, -0.07076406f, 0.04340671f, -0.04094322f,
    /* [10] */ -0.05020517f, -0.03681013f, 0.04835096f, -0.04408786f, -0.04846324f, -0.04994438f, -0.05728737f, -0.05301034f, -0.01613267f, 0.05065052f, -0.01285097f, 0.03745312f, 0.01402575f, 0.01085295f, 0.00874886f, -0.02183938f, 0.07872655f, -0.02015835f, 1.32565212f, -0.04737659f, 0.05519714f, 0.02048369f, -0.03698880f, -0.00411078f, 0.09662659f, -0.09872981f, 0.00840624f, 0.05908525f, 0.01273878f, 0.02846302f, 0.04412880f, 0.27856106f, -0.01059063f, -0.04025088f, -0.01626824f, -0.03944713f, 0.15086865f, -0.05697656f, -0.00656601f, -0.04611119f, -0.97084546f, -0.01891701f, -0.04722448f, 0.15845028f, 0.04758948f, -0.02178649f, 0.65682042f, -0.03938953f, -0.00428980f, 0.06964999f, 0.03903342f, 0.05339487f, -0.02968191f, 0.02206588f, -0.03131822f, -0.02962483f, 0.02654942f, 0.01823493f, -0.02172275f, -0.03374206f, -0.02467970f, 0.25276452f, -0.03382180f, -0.07074652f, 0.00279409f, -0.00783139f, 0.02094004f, 0.04346701f, -0.01808536f, 0.12728630f, -0.79687047f, 0.05873589f, -0.08654898f, -0.01066238f, -0.01272971f, 0.01824841f, 0.00165855f, 0.07245105f, -0.04278148f, -0.05425914f, 0.05637359f, -0.04750444f, -0.04968143f, 0.05146259f, -0.01907112f, 0.07708630f, -0.00328434f, 0.05660183f, -0.05161326f, -0.00687747f, -0.03530480f, 0.01926180f, -0.13104796f, -0.00141365f, -1.76680028f, 0.34672910f, 0.05952528f, -0.05167207f, 0.02931408f, -0.17097373f, -0.03569852f, -0.00895955f, -0.05374752f, 0.22793674f, 0.02940004f, 0.04900246f, 0.01826901f, 0.01595563f, 0.02164898f, 0.00817004f, -0.02123307f, -0.18493956f, 0.07399581f, -0.26085007f, -0.07483467f, -0.03757999f, 0.03465385f, 0.01481625f, -0.04021618f, 0.04888034f, 0.31398690f, -0.01251727f, 0.03340000f, 0.03709038f, 0.03150147f, 0.04147921f, -0.02598528f, -0.00655512f,
    /* [11] */ -0.02179850f, -0.04321366f, 0.02106138f, 0.03053793f, -0.02689590f, 0.00812092f, 0.00492102f, -0.03427612f, 0.03697868f, 0.01640792f, 0.03177610f, 0.02109414f, -0.07401427f, -0.03333457f, -0.03757426f, -0.03817361f, -0.02457262f, -0.05004923f, 0.03755504f, -0.04484467f, 0.01442983f, -0.06090804f, -0.01681473f, 0.06480036f, 0.04095726f, 0.00460930f, -0.00893753f, 0.01761308f, 0.05226617f, -0.01661658f, -0.03710214f, -0.01398573f, 0.02532424f, 0.03342101f, -0.05587079f, 0.06014652f, 0.00275202f, 0.00444575f, -0.05255943f, 0.05616162f, 0.00678660f, 0.07076124f, -0.02500963f, 0.00443998f, -0.05649245f, -0.06918543f, -0.07431534f, 0.04113764f, 0.02912971f, 0.01416305f, -0.02360522f, 0.01763187f, 0.02988985f, -0.01492969f, -0.08067256f, -0.04647872f, 0.04629657f, 0.01844547f, 0.06414592f, -0.03170522f, 0.01759890f, 0.02151361f, -0.08119383f, 0.02064682f, -0.03106300f, -0.07516362f, -0.00921202f, 0.07645471f, 0.06129339f, -0.01991167f, -0.00992884f, -0.04582010f, -0.01000113f, -0.04181584f, 0.03144393f, 0.01764871f, 0.03939087f, 0.04305292f, 0.01697342f, -0.01542296f, 0.02812214f, -0.06893050f, 0.02053973f, 0.00731655f, 0.00776089f, 0.01706737f, 0.01196182f, 0.10529258f, -0.01442526f, 0.00185236f, 0.01588642f, -0.00685661f, -0.05755634f, 0.06820557f, 0.01631716f, 0.07374325f, 0.01900346f, 0.03792595f, -0.01605495f, -0.02832177f, -0.00961720f, -0.02621621f, -0.06414679f, 0.04230241f, 0.02120438f, -0.02289918f, 0.07687265f, -0.00102128f, 0.01804803f, 0.00816804f, -0.02970488f, -0.00612405f, 0.02081430f, 0.05078286f, -0.00554166f, 0.01824478f, -0.05195578f, 0.04154608f, -0.00050196f, 0.01844834f, 0.03182910f, -0.07705261f, 0.02355022f, -0.04457171f, 0.04735129f, -0.02227542f, 0.00085244f, 0.05974869f,
    /* [12] */ 0.06863645f, 0.05982507f, -0.08719152f, 0.01454320f, 0.07287117f, 0.03317595f, 0.05537212f, 0.00472275f, 0.00304167f, -0.04564482f, 0.02412462f, -0.05395350f, -0.03231675f, 0.00224269f, -0.03083057f, -0.03018241f, -0.07128126f, 0.08115055f, 0.02251747f, 0.05978362f, -0.08227620f, -0.06600980f, 0.02427218f, -0.05577172f, -0.01785261f, 0.07633725f, 0.03541369f, -0.07705469f, 0.06200826f, -0.01809944f, -0.02896031f, 0.05607227f, -0.03898859f, 0.03953538f, 0.07236309f, 0.02271254f, 0.10073872f, 0.02270696f, 0.03356386f, -0.00889323f, -0.00721531f, -0.02726954f, 0.03001476f, -0.08669405f, 0.11421498f, 0.02229767f, 0.01268122f, 0.00043925f, -0.01308472f, -0.03971078f, -0.05947503f, -0.00904739f, 0.06702428f, 0.04864841f, 0.05311349f, 0.05773687f, 0.06247792f, 0.04977101f, 0.00907877f, 0.02185387f, 0.05853901f, -0.17767681f, 0.05703624f, 0.03368300f, -0.05769102f, 0.00696514f, 0.02002026f, -0.07055388f, 0.05904933f, -0.00829559f, -0.00849008f, -0.02586500f, 0.04243987f, 0.02913179f, 0.02875410f, -0.00457692f, -0.00697139f, -0.07383234f, 0.00425997f, 0.02205001f, -0.07822371f, 0.00511091f, -0.00349210f, 0.03188334f, -0.01911287f, 0.00981196f, 0.05261640f, 0.01474284f, 0.01843147f, -0.01889251f, 0.06170433f, 0.03578676f, 0.01448551f, -0.02807137f, -0.00669607f, 0.06125226f, -0.03090539f, 0.03078775f, 0.02438730f, 0.03073647f, 0.03754042f, -0.01354238f, 0.02140113f, 0.01971565f, 0.00247489f, -0.02052569f, 0.02783533f, -0.00874215f, -0.02637431f, 0.04765310f, -0.06390378f, 0.02664813f, -0.00812306f, 0.04563994f, 0.04705284f, -0.00457088f, -0.03394483f, 0.01537065f, 0.05348771f, -0.00215274f, -0.07974236f, 0.04906696f, -0.01160841f, -0.01375107f, -0.05085921f, -0.01697798f, 0.00519231f, 0.05163212f,
    /* [13] */ 0.00856035f, -0.06768598f, -0.01044932f, 0.03946203f, -0.00083481f, -0.06737299f, 0.03441294f, 0.01593375f, 0.05441613f, -0.02972012f, -0.00818145f, 0.03427502f, -0.02944406f, -0.01086617f, -0.01012143f, -0.06863852f, -0.05085320f, -0.00404551f, 0.01675485f, 0.00757305f, -0.03673388f, -0.02504291f, -0.00461316f, 0.02554262f, 0.04633413f, -0.04921966f, -0.00877078f, -0.02071000f, -0.03515578f, 0.00257836f, 0.02046809f, 0.03028814f, 0.05528111f, -0.00524609f, 0.01563705f, 0.01858215f, 0.02144378f, 0.03886437f, 0.00557926f, 0.00200299f, 0.01769719f, 0.01439108f, 0.00635983f, -0.05635499f, -0.01197309f, -0.01914538f, -0.00019094f, 0.05409640f, 0.03982983f, 0.01735702f, 0.05428011f, 0.01927052f, 0.03029218f, 0.03812831f, -0.00984626f, -0.02811424f, 0.02179520f, 0.00534337f, -0.00527258f, -0.01550357f, 0.00556444f, 0.10248337f, -0.05405507f, 0.04050993f, -0.01838784f, -0.00659721f, -0.00186731f, -0.00957830f, -0.01320649f, 0.04034467f, -0.04612508f, -0.00746538f, 0.00653478f, 0.01592510f, -0.00464700f, -0.02634509f, -0.00225728f, -0.01316776f, -0.02978784f, 0.00772884f, 0.02725693f, -0.01106134f, 0.07118014f, -0.03901691f, 0.00407631f, 0.02292070f, -0.04189759f, -0.00361310f, 0.01870996f, 0.02368313f, -0.02551037f, 0.00489665f, -0.07178967f, 0.06986009f, 0.01818286f, 0.08075921f, 0.03104434f, -0.01526238f, -0.00499293f, 0.00482341f, 0.05116797f, -0.05007518f, -0.05688075f, 0.02529368f, 0.01082536f, -0.00999947f, 0.02366329f, 0.00823277f, -0.03320909f, 0.02898894f, -0.05009453f, -0.03892317f, -0.02518638f, -0.04139254f, 0.02890866f, -0.00768409f, 0.04343653f, 0.03863984f, -0.00305841f, 0.00289734f, 0.05512701f, -0.01615053f, 0.04613880f, 0.00091703f, 0.10974925f, -0.07173726f, 0.02706054f, -0.01048707f,
    /* [14] */ -0.03948569f, -0.04007118f, -0.01086896f, -0.04579476f, -0.01867801f, -0.08733075f, -0.02446899f, -0.04477534f, 0.00438754f, 0.01629687f, 0.03522609f, -0.05016740f, 0.06874114f, -0.02936029f, 0.01025867f, -0.00316812f, 0.03948474f, -0.03970848f, -0.00815191f, 0.01047313f, 0.01686096f, -0.07822888f, -0.03415846f, -0.01419179f, 0.00119831f, 0.03313036f, 0.01362124f, 0.04472251f, 0.01707564f, 0.02705411f, 0.00188683f, -0.04432688f, 0.04517411f, 0.03471725f, -0.05288674f, -0.02401016f, -0.01273959f, 0.01069802f, 0.06200211f, -0.00314810f, -0.03636268f, -0.00498221f, -0.03384696f, 0.00193154f, -0.04832532f, -0.02163776f, 0.03194281f, -0.02001213f, 0.01612408f, 0.03321802f, -0.01320537f, 0.00983345f, -0.04293449f, -0.03870483f, 0.06071750f, -0.00131949f, 0.01545724f, 0.03060699f, -0.00944457f, 0.02964594f, 0.02207348f, 0.06903221f, -0.01007912f, -0.05132762f, -0.01948429f, -0.02910901f, 0.03600323f, 0.03214140f, -0.02634784f, -0.13215664f, 0.02553532f, 0.01192882f, -0.04929617f, -0.00199441f, -0.04113303f, 0.01828697f, -0.01382865f, -0.00393371f, -0.01486268f, -0.04077645f, -0.00700493f, 0.00314656f, -0.04055786f, -0.04886991f, -0.01629224f, 0.07163862f, -0.03435770f, 0.05292935f, -0.00023883f, -0.02113195f, -0.05212241f, 0.01653246f, 0.02092698f, -0.02866478f, 0.03958235f, 0.06112231f, -0.00799510f, 0.00770761f, -0.06680828f, -0.02479562f, -0.02414743f, 0.05334240f, -0.01201623f, -0.01332345f, 0.00226597f, 0.04190631f, -0.00986994f, -0.05024437f, -0.05289606f, 0.02464259f, -0.01461753f, -0.01779864f, 0.01313195f, -0.00484441f, 0.01183328f, -0.03315011f, 0.04991628f, -0.00694234f, -0.00924086f, 0.01888886f, -0.04419956f, -0.00993406f, 0.02260540f, 0.04131153f, -0.03255273f, -0.01375601f, 0.00314737f, -0.04486230f,
    /* [15] */ 0.03716125f, -0.00086946f, 0.05270658f, -0.00352975f, -0.02256752f, -0.00265611f, -0.00933118f, -0.00707190f, -0.03576838f, 0.05652402f, 0.00922763f, 0.00577874f, 0.00527423f, 0.06530567f, 0.00551269f, 0.00778119f, -0.01941409f, -0.00796600f, 0.01191019f, -0.00428633f, -0.00655697f, -0.00876089f, -0.03620085f, -0.00449664f, -0.02065152f, 0.00435931f, -0.05330983f, 0.02254013f, -0.07253513f, -0.03926986f, 0.03179772f, 0.03040283f, -0.01750277f, 0.05232811f, 0.06314871f, 0.01819528f, -0.00048698f, -0.00202550f, 0.03095114f, -0.01116102f, 0.00868120f, -0.03759727f, -0.08506485f, 0.03720117f, -0.00472876f, -0.00115235f, 0.02309788f, 0.02115854f, 0.00079133f, 0.00611924f, -0.12214636f, -0.05664097f, -0.03063678f, -0.02017954f, -0.01214054f, 0.07092441f, 0.06683972f, -0.05434621f, -0.01321621f, 0.01813499f, -0.11048511f, 0.00817668f, -0.00590479f, -0.01402573f, 0.04076305f, -0.00153780f, -0.02311550f, 0.01580707f, 0.05776263f, -0.03138943f, 0.00598863f, 0.00712202f, -0.05341877f, 0.02339226f, -0.02058072f, -0.01336940f, -0.03440157f, 0.02095252f, 0.00412376f, -0.00294331f, 0.03351396f, -0.03353422f, 0.01721901f, -0.04890570f, -0.01352178f, -0.02410157f, -0.02937920f, 0.02112735f, -0.02980406f, -0.00528158f, -0.00754793f, 0.00528769f, 0.02294237f, 0.00679679f, 0.01592259f, -0.06107866f, 0.02647082f, -0.00136386f, -0.02395179f, 0.04627856f, -0.03695489f, -0.01652171f, 0.00059902f, 0.05364569f, -0.06582090f, -0.01805414f, 0.04621660f, 0.04121669f, -0.01576901f, 0.01581172f, 0.05817676f, 0.00592007f, 0.01422730f, 0.00305776f, -0.02035742f, 0.04761392f, -0.00550112f, 0.00601406f, 0.00143739f, -0.01415708f, 0.01743094f, -0.10285632f, 0.02256289f, -0.04856785f, -0.00877737f, -0.01880324f, 0.02698671f, -0.08137456f,
    /* [16] */ 0.02337261f, 0.05214174f, -0.00599886f, -0.05646151f, -0.05831487f, 0.00100743f, 0.02672193f, 0.00879255f, -0.03626024f, -0.00332574f, -0.02779166f, 0.03509900f, 0.01985183f, 0.02830088f, -0.02888168f, 0.04460638f, 0.01560156f, -0.03969287f, -0.04050880f, -0.00063104f, -0.01720387f, 0.03601657f, -0.06323624f, -0.00918164f, -0.02504236f, 0.02843438f, -0.00855296f, -0.00650990f, -0.00422494f, 0.01687757f, -0.04042429f, 0.05193793f, -0.00153645f, -0.04154295f, 0.05612250f, 0.04767514f, 0.03364416f, -0.03169041f, 0.02815429f, -0.01782352f, -0.04816476f, -0.00077996f, 0.01727100f, -0.14626750f, 0.04185020f, -0.03307866f, 0.05512386f, -0.01323505f, -0.00516577f, 0.02058048f, 0.06389520f, -0.06283545f, 0.02467602f, -0.03672010f, -0.03493353f, -0.01844299f, 0.05114012f, -0.02989334f, 0.02885716f, 0.01881465f, -0.00623180f, 0.06875923f, 0.01483945f, -0.01582657f, 0.12692448f, -0.01779306f, -0.02481822f, 0.01889505f, -0.00043697f, -0.06629758f, -0.04822083f, -0.00806388f, 0.01547990f, 0.02020250f, -0.00213287f, 0.03707308f, -0.00309483f, 0.00766750f, 0.00422006f, 0.01500767f, 0.00112688f, -0.00559462f, -0.00225274f, 0.11772404f, -0.04036560f, -0.04460978f, -0.01192289f, -0.01151318f, -0.02291862f, -0.01540961f, -0.00417851f, -0.07942034f, -0.01246535f, 0.03122663f, 0.04095242f, 0.12998824f, -0.06165166f, -0.03578168f, 0.02934108f, 0.00716689f, -0.01246429f, -0.04616966f, 0.00824927f, -0.04699839f, 0.03656217f, -0.00820363f, -0.00628217f, 0.02013830f, 0.01291011f, 0.00178780f, 0.01874336f, 0.02799767f, 0.04798217f, 0.01001335f, -0.00025550f, -0.01370421f, -0.02915406f, 0.02732073f, 0.05361962f, -0.06903782f, -0.06537116f, -0.08609902f, 0.00474159f, 0.00244226f, -0.00781018f, 0.01070463f, 0.01751024f, 0.01233963f,
    /* [17] */ 0.00953940f, -0.04329470f, 0.01697127f, -0.01185043f, 0.00869393f, -0.00111341f, 0.00558509f, -0.02997340f, -0.03480689f, -0.05591936f, -0.02658740f, -0.03225898f, -0.02539891f, 0.03600226f, 0.00168849f, 0.04737586f, -0.04321949f, 0.01030572f, 0.01612014f, 0.01786666f, 0.01647050f, -0.01186815f, 0.01720117f, 0.08995718f, 0.01626797f, 0.05037541f, -0.00737957f, 0.04843661f, 0.03744790f, 0.07517105f, -0.00325979f, -0.00369580f, 0.03030432f, -0.00268726f, -0.06610720f, -0.03979898f, -0.08259698f, -0.03275277f, 0.00574801f, 0.00536708f, 0.06445044f, -0.03267971f, -0.02912466f, 0.02284987f, -0.03083871f, 0.04778831f, 0.00289717f, 0.02450378f, 0.05765657f, 0.00988796f, -0.04067050f, -0.03182253f, -0.03353238f, -0.02017582f, -0.00308953f, 0.04073799f, 0.04482740f, -0.04294781f, -0.02633451f, 0.01220374f, -0.03475544f, 0.07266368f, 0.02484716f, -0.02550405f, 0.08134201f, 0.04609509f, 0.01914104f, 0.02390640f, 0.02222288f, -0.08727235f, -0.07098247f, 0.02250539f, 0.02499129f, -0.01589784f, 0.01131026f, -0.02259031f, -0.02420484f, 0.04411337f, -0.01895309f, -0.00794161f, 0.06111392f, 0.01963477f, 0.01754854f, 0.02584950f, 0.05988077f, -0.04090869f, 0.01109065f, 0.00408246f, 0.01429340f, 0.01096527f, -0.01795647f, -0.00065558f, 0.02053596f, -0.00902478f, -0.00315058f, 0.04517942f, 0.06256773f, -0.00389604f, -0.00501874f, -0.03137564f, 0.00534698f, 0.04356481f, 0.07157531f, 0.04248599f, 0.03319615f, -0.05277241f, -0.01991748f, -0.04461243f, 0.00651454f, -0.05329308f, -0.02314233f, 0.07878137f, 0.00591338f, -0.01946613f, -0.04980325f, -0.03878381f, -0.01439475f, 0.04527237f, 0.01835143f, 0.05524202f, -0.00957926f, 0.02478484f, 0.00789536f, -0.04025598f, 0.00570461f, -0.00876515f, -0.02833215f, -0.05123538f,
    /* [18] */ 0.01902711f, 0.00064238f, -0.00946878f, 0.00535072f, -0.08853329f, -0.04373860f, -0.04511998f, -0.04652685f, -0.05787243f, 0.05154275f, 0.03717999f, -0.00657306f, 0.03765033f, 0.04408743f, 0.04005022f, 0.02401145f, 0.05215015f, 0.01660009f, -0.01153191f, -0.09353381f, 0.01691266f, 0.02627988f, -0.03161105f, 0.03794719f, 0.02810529f, 0.04372873f, 0.01310693f, 0.05874212f, 0.02741710f, 0.07640921f, 0.02018983f, 0.01242688f, -0.05288103f, 0.02149141f, -0.03565519f, -0.04403635f, -0.04527161f, -0.05339009f, -0.00440625f, 0.00999676f, 0.03204455f, -0.05841581f, 0.04104334f, -0.00278278f, 0.06567153f, -0.01550018f, 0.01727309f, -0.01432681f, 0.03179126f, -0.02135674f, 0.06325811f, 0.03588054f, 0.03165561f, -0.05235424f, 0.03950668f, 0.04473703f, -0.02560118f, 0.01432215f, 0.02613672f, -0.08401088f, -0.05860895f, -0.03728691f, -0.00860182f, -0.06359763f, 0.04550430f, -0.00444121f, -0.02514156f, 0.04751419f, -0.01517199f, 0.06013333f, 0.05271757f, 0.01060982f, -0.03718504f, 0.00247970f, -0.03395598f, 0.04769430f, 0.04679577f, -0.00427671f, -0.06395229f, -0.06155154f, 0.02015610f, -0.06691886f, -0.03478941f, 0.00469700f, 0.06316037f, 0.00235564f, 0.03965700f, -0.04704839f, -0.08037589f, -0.02789549f, -0.02149575f, 0.01436850f, -0.00704822f, -0.03498216f, -0.02342961f, -0.03235909f, 0.01849719f, -0.05815078f, 0.02515082f, -0.05932293f, -0.07791596f, 0.00569004f, 0.09249087f, -0.02519993f, -0.00840889f, -0.02931748f, 0.01988460f, 0.04766914f, 0.06680658f, -0.02718007f, 0.04852350f, 0.08323459f, 0.06034753f, -0.06714401f, -0.01936466f, -0.10214306f, 0.04354371f, -0.03666657f, 0.00406877f, -0.02340681f, -0.01796871f, 0.07380951f, 0.00108339f, 0.04648463f, 0.09830442f, 0.08629864f, -0.01554242f, 0.00976606f,
    /* [19] */ -0.01089042f, -0.02505352f, 0.03154823f, -0.05337954f, -0.05255597f, -0.07502788f, -0.02145031f, -0.05530836f, -0.07959061f, 0.00987753f, -0.05111916f, -0.04295354f, 0.03381451f, -0.02767619f, 0.01705095f, 0.01034757f, 0.10330811f, -0.02015886f, -0.01379433f, -0.01788496f, -0.01738341f, 0.06909329f, 0.01180233f, 0.01627744f, -0.03959214f, 0.06133960f, -0.00543451f, 0.05708558f, -0.02986006f, 0.07218607f, 0.05742096f, 0.06598816f, -0.02208040f, -0.03263430f, -0.04593454f, -0.01367749f, -0.05066972f, -0.03116199f, -0.04601413f, 0.02375931f, 0.00276067f, -0.05052639f, 0.06717872f, 0.08683036f, -0.01533170f, 0.00227134f, 0.00181453f, -0.04356335f, 0.03665810f, 0.03258797f, 0.05620540f, -0.04150606f, -0.03811332f, -0.05620024f, -0.01847803f, -0.02730445f, -0.03091298f, -0.01491470f, 0.02106608f, -0.06051699f, -0.00186398f, -0.00497301f, 0.01741302f, -0.02877282f, 0.03498336f, 0.03019737f, 0.00007424f, 0.00205731f, 0.01170404f, 0.08508596f, 0.01669100f, 0.04959499f, -0.04822104f, -0.01861390f, -0.02450361f, -0.02165423f, 0.04371224f, -0.02784090f, -0.00907974f, 0.03024540f, 0.07402039f, -0.02740789f, -0.01846699f, -0.07205706f, 0.07942220f, 0.01166616f, -0.00816401f, -0.05875919f, -0.03755806f, 0.01033289f, 0.02144502f, -0.05495985f, 0.08158102f, -0.02627212f, -0.02120238f, 0.00452104f, 0.03025901f, -0.04074346f, -0.01693394f, -0.05844543f, -0.04960655f, 0.03345130f, 0.00549564f, -0.06493586f, 0.01773972f, 0.00259146f, -0.01504775f, 0.00549372f, 0.00609268f, -0.00777081f, 0.00647317f, 0.10570654f, -0.06223539f, -0.03963837f, -0.06909460f, -0.02689958f, 0.03971895f, -0.06501574f, 0.01734153f, 0.05151391f, 0.01441443f, -0.04946375f, -0.07359031f, -0.01422087f, -0.02025451f, 0.08948249f, -0.03263833f, -0.07540980f,
    /* [20] */ 0.00419314f, 0.01272062f, 0.02608831f, -0.04934550f, -0.02323505f, -0.05007300f, -0.02962259f, -0.05902810f, 0.03663788f, 0.04841244f, 0.02745396f, 0.00079095f, 0.03290837f, 0.00207245f, 0.05583508f, -0.00552576f, 0.03839453f, 0.02920294f, 0.03651414f, -0.05037304f, -0.00690657f, -0.07987370f, -0.05029513f, -0.00915863f, -0.01883544f, 0.08279683f, 0.00047554f, 0.03740673f, 0.03226580f, -0.01551301f, -0.01214398f, 0.10847291f, 0.05938555f, -0.01473295f, 0.06006588f, -0.00949227f, 0.02437210f, -0.00853504f, -0.01348686f, 0.04380891f, 0.03656770f, 0.02495719f, 0.04935692f, 0.05025429f, -0.00427910f, 0.02985796f, -0.12436956f, -0.02554599f, -0.03399410f, 0.02754871f, -0.02604493f, 0.14660598f, -0.03963352f, 0.02452113f, -0.08493799f, -0.02474328f, 0.13870774f, 0.07502963f, 0.01564420f, 0.03127364f, -0.06183868f, 0.21188007f, -0.07429632f, -0.02243690f, 0.05436014f, -0.02714598f, 0.04984264f, 0.05170225f, 0.01294867f, -0.03017321f, -0.04532442f, 0.02118630f, -0.08033659f, 0.05952548f, -0.04290684f, -0.02871322f, 0.05467566f, -0.00112930f, -0.02758958f, -0.03359843f, 0.01918390f, -0.03335448f, -0.02497493f, -0.03734141f, 0.00997764f, 0.02657471f, -0.00399751f, -0.04608254f, -0.00286694f, 0.05959812f, 0.00923558f, -0.01144074f, 0.02099662f, -0.04571160f, 0.01332845f, -0.08623797f, -0.01620427f, -0.01312294f, 0.04351013f, -0.03670553f, -0.07487400f, -0.02438554f, -0.02444178f, 0.06195157f, -0.02017688f, -0.03900319f, -0.07222568f, -0.08016251f, -0.00405856f, 0.00095385f, -0.04578905f, -0.03972736f, -0.00022099f, -0.02940982f, -0.01517850f, -0.01668392f, 0.02257749f, 0.04733499f, -0.02161541f, 0.01974542f, -0.10487209f, -0.07406962f, 0.01043391f, 0.04120928f, -0.01253796f, -0.04433265f, 0.04269483f, -0.00754506f,
    /* [21] */ -0.01405985f, 0.00599861f, 0.00424949f, -0.00988658f, 0.01064697f, -0.03604173f, 0.02927653f, -0.00222542f, -0.02717959f, 0.01827907f, -0.01421179f, -0.06009462f, -0.02344429f, 0.09507076f, 0.00843867f, 0.05906652f, 0.00528425f, 0.02869746f, -0.03032225f, 0.00711521f, 0.04129395f, 0.04246330f, 0.00380456f, -0.09861107f, -0.03864877f, 0.02783120f, -0.00130556f, 0.04233421f, 0.02301048f, 0.03174270f, -0.00009802f, 0.07302367f, -0.02896771f, 0.06769197f, 0.09524225f, 0.01507831f, 0.04680430f, 0.01092968f, -0.04756026f, -0.03158298f, 0.04822887f, -0.03111077f, 0.02747993f, -0.19110328f, 0.08766919f, 0.04171194f, 0.16045609f, 0.05285538f, -0.03219697f, 0.04652303f, -0.04632668f, -0.11765777f, 0.02345862f, -0.05969002f, -0.01005013f, 0.02515965f, 0.09746958f, -0.01809991f, 0.06291686f, -0.04742175f, 0.05531272f, -0.17131734f, 0.11518808f, -0.02590594f, -0.05141095f, 0.02861574f, -0.03330732f, -0.00166050f, 0.00803986f, 0.00071168f, 0.05838453f, 0.05915515f, -0.01251663f, 0.03482311f, -0.03646868f, 0.01595504f, -0.04466974f, 0.04806019f, 0.00123575f, -0.04231588f, -0.01713900f, -0.00053767f, 0.00427733f, 0.07819912f, -0.06868497f, -0.08476271f, 0.03220802f, 0.03670520f, -0.02250905f, -0.06869610f, -0.04146535f, -0.00560749f, 0.07498518f, -0.05454959f, -0.04936106f, -0.00933152f, 0.01509483f, -0.01977490f, 0.01174917f, 0.07278905f, -0.00557221f, 0.00936863f, 0.09643400f, -0.13084200f, -0.06139733f, 0.05344083f, -0.01012170f, -0.02572059f, 0.02957651f, 0.05038776f, 0.05368318f, 0.05291111f, -0.04860877f, 0.11734218f, -0.01566382f, -0.02987246f, -0.02055872f, -0.02737094f, -0.06504867f, 0.03073016f, -0.01550640f, 0.01496261f, 0.08285093f, -0.03402615f, -0.01005734f, 0.02344198f, -0.02392608f, -0.00247043f,
    /* [22] */ -0.02629909f, -0.00304615f, -0.06270202f, -0.06591992f, 0.02510326f, -0.01899206f, 0.01643984f, -0.03482414f, -0.02011718f, -0.00964564f, 0.02832950f, -0.01822620f, 0.04813298f, 0.04036613f, -0.03003958f, -0.03550987f, -0.00447836f, -0.00607040f, 0.00178106f, 0.02246537f, -0.04237456f, -0.05333163f, -0.01183488f, 0.04270437f, 0.02838476f, -0.05001932f, 0.03669896f, -0.01561141f, -0.01690290f, -0.03467264f, 0.01195130f, 0.06477027f, 0.00612329f, 0.00916844f, 0.01032790f, 0.01222069f, 0.02536263f, -0.02707028f, 0.06201147f, -0.01015836f, -0.04986871f, 0.01242383f, -0.04409368f, 0.08790127f, 0.00647545f, -0.04202156f, 0.03836323f, -0.03702127f, 0.01393915f, -0.01830274f, -0.00772527f, 0.04959909f, 0.00629364f, 0.02043103f, 0.01456849f, -0.04318255f, -0.00361187f, 0.02281757f, 0.02131454f, -0.02821455f, 0.02509766f, -0.00546421f, -0.00104086f, 0.03466539f, 0.01635607f, -0.01076139f, -0.00960916f, -0.03258266f, 0.00310883f, -0.06117892f, -0.02740583f, 0.00312182f, -0.05338453f, 0.05402301f, 0.00206709f, -0.04554017f, 0.02333013f, -0.01765180f, -0.02907038f, -0.03122313f, 0.05011839f, 0.01774747f, 0.03680946f, 0.04251597f, 0.01981973f, 0.02806292f, 0.05127667f, -0.00354831f, -0.01662401f, 0.02405835f, 0.03999988f, -0.03367771f, -0.05362986f, 0.01549943f, 0.04804470f, -0.01571767f, 0.04152590f, -0.02777898f, -0.04163288f, -0.01927860f, -0.01080306f, 0.02094314f, 0.00593980f, -0.04060809f, -0.05057376f, 0.06030237f, 0.00152384f, 0.02230145f, 0.00319898f, 0.02442155f, 0.01847818f, -0.05099589f, 0.01506012f, -0.04760895f, 0.01539577f, 0.00446271f, -0.02110041f, -0.00559877f, 0.00341505f, 0.00143697f, -0.01457190f, 0.04351437f, -0.05184268f, 0.04579424f, 0.02523748f, -0.02355712f, -0.00390293f, 0.00024839f,
    /* [23] */ -0.00919838f, -0.02824012f, 0.01327731f, -0.08526784f, 0.04488167f, 0.03851008f, -0.01128022f, -0.03496392f, 0.00370042f, -0.01454361f, 0.02145621f, -0.04394067f, 0.03451455f, 0.02849746f, -0.08116140f, 0.02644009f, 0.01164851f, 0.03659712f, 0.00872581f, 0.00841193f, -0.01983633f, -0.05382830f, -0.06219214f, 0.02593136f, -0.03445004f, 0.00635517f, -0.02511555f, 0.05659573f, 0.01087401f, -0.03944809f, -0.01204282f, 0.00304110f, -0.03358110f, 0.02237240f, 0.04777416f, -0.02404486f, 0.07095867f, -0.03570614f, 0.05032051f, -0.05416151f, -0.00880622f, -0.00838650f, -0.02233006f, -0.02966297f, 0.08558547f, -0.02024243f, 0.02591864f, -0.01826752f, -0.04595289f, -0.01002722f, -0.02842473f, 0.02175844f, -0.03622863f, 0.01813155f, 0.00999307f, 0.02030924f, -0.00775412f, -0.00778570f, -0.01806610f, 0.01929042f, -0.03249655f, -0.06224342f, 0.02916750f, -0.02877175f, 0.04594919f, 0.02563630f, 0.01200818f, -0.01307946f, -0.01143857f, -0.02722367f, 0.05326391f, 0.01641128f, -0.07631069f, 0.00483500f, 0.04931074f, 0.05067580f, 0.02500815f, 0.02795330f, -0.03524043f, -0.06149823f, 0.00425714f, 0.03085958f, -0.06545277f, 0.04470422f, -0.02683173f, 0.03827012f, 0.01972957f, 0.08829861f, -0.00979746f, -0.01758412f, 0.02080136f, 0.03884449f, -0.01091931f, -0.00562560f, -0.01195152f, -0.08105069f, 0.03893377f, -0.06060088f, 0.05245585f, -0.01404591f, -0.00663345f, -0.02494718f, -0.06387217f, 0.02404815f, -0.04346313f, 0.06815927f, 0.01936401f, 0.03735086f, -0.05361040f, 0.03119983f, 0.00147408f, 0.01022915f, 0.03579653f, 0.01761648f, -0.01707998f, 0.02202740f, -0.03436448f, 0.08178290f, -0.05104761f, -0.00474165f, -0.09517945f, 0.07369211f, 0.00270590f, -0.06361314f, 0.00970746f, 0.00747366f, -0.07110861f, 0.07353682f,
    /* [24] */ -0.03457922f, -0.00456843f, 0.01440773f, -0.04108244f, -0.00584129f, -0.00914174f, 0.00057672f, -0.02974527f, -0.01440412f, 0.00401470f, -0.01632798f, -0.02390277f, 0.03901487f, -0.02199623f, -0.00559682f, -0.00670680f, 0.01130368f, -0.00666535f, 0.57453227f, -0.01102319f, 0.00482739f, 0.00141850f, -0.00518417f, -0.00636957f, -0.01097590f, -0.07058682f, 0.03552804f, 0.03488166f, 0.02885462f, -0.00288752f, -0.00405963f, -0.33063799f, 0.00571667f, -0.07603525f, 0.00855660f, -0.02852269f, 1.95416272f, -0.00585272f, 0.01267549f, 0.00370684f, 0.50315231f, -0.01220464f, 0.00153066f, 0.32861891f, -0.94230771f, 0.00256470f, -0.18837036f, -0.00853802f, 0.00211365f, -0.00340084f, -0.22562325f, -0.21776341f, -0.03413507f, -0.00172326f, -0.01457156f, 0.00331466f, 0.00258545f, 0.00812788f, -0.00549095f, -0.00871560f, 0.00539578f, -0.30077258f, 0.00652654f, -0.00635165f, 0.03301106f, -0.01800348f, 0.00830871f, 0.01743381f, -0.01901542f, -0.14130493f, 0.13506155f, 0.00483625f, -0.02244695f, -0.00310313f, -0.02695644f, -0.00253856f, -0.00683703f, 0.00837981f, 0.01022404f, -0.02350941f, 0.01474467f, -0.02266263f, -0.05164516f, -1.20876586f, -0.01016198f, -0.99205291f, 0.00139025f, -0.00829820f, -0.01449297f, 0.00133165f, -0.02209075f, -0.02615366f, -0.01649173f, -0.01506215f, 0.49333069f, 0.07687796f, 0.00349659f, 0.00481790f, 0.01743913f, -0.09018341f, -0.02450933f, 0.01298063f, -0.01696888f, -0.57713586f, -0.00223941f, -0.00174462f, 0.01329968f, -0.29234266f, 0.00238776f, 0.01929460f, 0.04324546f, -0.08440499f, 0.00499762f, -0.10329859f, -0.01427449f, -0.00429578f, -0.01491956f, -0.01457724f, -0.00900989f, 0.02433697f, -0.79419059f, -0.01163348f, -0.01196584f, -0.03112997f, -0.00280996f, 0.01395378f, -0.01911328f, -0.02739413f,
    /* [25] */ 0.03665035f, 0.04288100f, -0.04393654f, 0.05720438f, 0.03433147f, 0.03253708f, 0.03949944f, -0.01028868f, -0.06070983f, -0.00773221f, -0.01724438f, 0.01734253f, 0.00387582f, 0.07401894f, 0.03264375f, 0.01423416f, -0.00513188f, 0.00685503f, 0.02064953f, 0.03728255f, -0.01404949f, 0.05061453f, -0.00331030f, 0.00144411f, -0.00026542f, 0.08413968f, 0.02771399f, 0.00226069f, -0.03102465f, 0.02757771f, -0.04568956f, 0.05927758f, 0.04919435f, -0.00887420f, 0.05538714f, 0.06391331f, -0.01072001f, 0.01318789f, 0.02474716f, 0.00481017f, 0.05886773f, 0.03901748f, 0.02407303f, 0.05451345f, -0.03204098f, -0.01221349f, 0.01519046f, 0.03534377f, 0.00883055f, 0.00976312f, 0.03117782f, -0.00535980f, -0.03602896f, -0.04231130f, 0.01133434f, -0.01158364f, 0.00858925f, 0.03458793f, 0.01054675f, 0.06158005f, 0.01302386f, -0.01045130f, 0.01883717f, -0.01928214f, -0.01067050f, 0.02860994f, -0.04470844f, -0.05491473f, 0.00613791f, -0.00981597f, -0.00442989f, -0.03670575f, 0.04580849f, -0.02222471f, 0.00210398f, -0.04745539f, 0.02498448f, 0.03568384f, 0.07090982f, 0.00235793f, -0.01152943f, 0.01640355f, 0.03684970f, -0.06285288f, -0.02436034f, 0.02456369f, 0.02049560f, 0.01615627f, 0.00202985f, -0.07348742f, -0.07530873f, 0.01172379f, 0.04493479f, 0.02468339f, -0.02160320f, -0.08097074f, -0.00441594f, 0.02144882f, -0.01184363f, 0.07912754f, 0.02866366f, -0.01327565f, 0.06120495f, -0.03767011f, 0.00247942f, -0.03471940f, -0.00420831f, 0.07571217f, 0.03130466f, -0.00947425f, -0.04451875f, -0.01637883f, 0.03351671f, 0.12912610f, 0.01023973f, 0.02670872f, -0.02198040f, -0.04032739f, -0.10369001f, 0.03212706f, 0.03267304f, 0.00753659f, 0.02481141f, 0.00627395f, -0.02483786f, 0.00018505f, 0.00385614f, 0.02790347f,
    /* [26] */ 0.02021707f, 0.03600559f, 0.03314299f, -0.03747780f, 0.01454909f, 0.01019476f, -0.02701755f, 0.04173192f, -0.03639644f, -0.08036232f, -0.03630489f, 0.07398137f, 0.03009945f, -0.05242775f, 0.01972694f, -0.00580875f, -0.00792030f, -0.02178311f, 0.02984372f, 0.05838287f, -0.04936270f, 0.08704192f, -0.01139227f, -0.03614501f, 0.02052063f, 0.00059866f, -0.03078290f, -0.04957336f, -0.00753932f, -0.01262203f, -0.00624865f, -0.03928412f, 0.05322737f, -0.04133456f, -0.01287304f, -0.00219803f, -0.01975371f, 0.02796730f, -0.02170067f, -0.00610916f, -0.02195534f, -0.00213544f, 0.02895113f, 0.02899210f, 0.06442518f, -0.02086938f, -0.10829526f, -0.04446332f, 0.02692227f, -0.03467670f, -0.03936716f, 0.02996174f, 0.00473195f, -0.01004251f, -0.00712999f, 0.03330427f, -0.04564181f, 0.01030193f, -0.01114836f, 0.02375975f, 0.00257894f, -0.08714359f, -0.07597303f, 0.00030053f, 0.05628752f, -0.05196065f, -0.02903218f, -0.03762290f, 0.00049624f, 0.05149973f, -0.04869520f, -0.01962358f, 0.05534818f, -0.00141705f, -0.05365964f, 0.00224229f, -0.03373743f, -0.02398022f, 0.03056829f, -0.01215927f, -0.00800782f, -0.00537261f, 0.03823566f, -0.00097949f, -0.02225144f, -0.11696787f, -0.03599723f, -0.05541804f, 0.01537182f, -0.01928720f, 0.07961570f, 0.00363008f, 0.02438015f, -0.02034157f, -0.01474952f, -0.00281185f, -0.04264965f, -0.01789523f, -0.07969123f, 0.05887142f, -0.01288831f, 0.02482987f, 0.12855285f, -0.01642995f, 0.04486444f, -0.01344860f, 0.00177670f, -0.04598183f, -0.04593007f, -0.02215506f, -0.03413269f, 0.01272976f, 0.03796490f, -0.01955205f, 0.03330219f, 0.06581414f, -0.00176078f, -0.04133624f, 0.00571810f, -0.04677486f, 0.01323819f, -0.01776787f, -0.00090049f, 0.03183608f, -0.00945437f, 0.04414682f, -0.00083968f, 0.03454107f,
    /* [27] */ 0.04776943f, -0.03329570f, -0.01963582f, 0.02274989f, -0.05630561f, -0.06677067f, -0.00736215f, -0.01516407f, 0.05162722f, 0.04541349f, 0.07664217f, 0.09710724f, -0.03749217f, 0.00242620f, -0.06814653f, 0.00656753f, 0.05327919f, 0.01212955f, 0.05275216f, -0.02094766f, -0.02037823f, -0.05133264f, -0.05253574f, 0.03692990f, 0.02928090f, -0.00459185f, -0.07502752f, -0.02178908f, -0.00266177f, 0.01256629f, -0.03541265f, 0.02004697f, -0.01497563f, 0.05017645f, 0.04609171f, 0.08065082f, 0.03120103f, 0.03901114f, -0.04998234f, -0.02436673f, -0.06876514f, 0.07220530f, -0.06078146f, 0.00521400f, -0.09294712f, -0.00513478f, -0.00119432f, 0.06377801f, 0.00345800f, -0.00089758f, -0.07808144f, -0.05124810f, 0.03729565f, -0.00578371f, 0.00392657f, -0.03524774f, 0.08228838f, -0.02344807f, 0.05926118f, -0.02527604f, -0.00677637f, 0.05556767f, -0.02611754f, 0.01011140f, -0.14017305f, -0.01282125f, 0.05691639f, 0.05207727f, 0.02394892f, -0.07431427f, -0.02951378f, 0.02705841f, -0.02430480f, -0.00987804f, -0.02898780f, -0.10822934f, 0.04592663f, -0.00185761f, 0.06166254f, 0.05965244f, 0.04488250f, -0.01441327f, 0.08331689f, 0.00402682f, -0.01846042f, -0.01113958f, -0.03257670f, 0.03447305f, 0.00027043f, 0.03555227f, -0.02463970f, 0.01281688f, -0.02851547f, 0.10481924f, 0.08721901f, 0.04643068f, 0.00872697f, 0.01217158f, 0.01643912f, 0.05820158f, 0.05070810f, -0.05557303f, -0.08375052f, 0.05203427f, -0.05794138f, -0.03692584f, -0.00627845f, 0.01467027f, -0.05919093f, -0.04231007f, -0.03106768f, 0.03527011f, 0.01393473f, 0.04235378f, -0.01170639f, -0.04725861f, -0.03964459f, 0.06118139f, -0.01021867f, 0.00807074f, 0.05537058f, -0.06313110f, 0.03473514f, -0.03627150f, 0.00708759f, -0.08372922f, 0.15562958f, 0.07233185f,
    /* [28] */ 0.03362823f, 0.01821319f, 0.02941757f, 0.07848273f, -0.01449882f, 0.05563670f, -0.03844648f, 0.08701260f, 0.05520025f, -0.02649376f, -0.04869518f, 0.08901066f, -0.01687751f, -0.01049109f, -0.00134472f, 0.02826986f, 0.01707801f, 0.05360842f, 0.03995636f, -0.01410026f, 0.01150980f, 0.03925303f, 0.00901566f, -0.04277295f, -0.01073610f, 0.10187332f, -0.02465335f, -0.05378717f, -0.03969176f, 0.01703501f, 0.06112722f, -0.08993807f, 0.03697624f, -0.03304417f, -0.01774764f, 0.01886459f, 0.05020899f, 0.03157534f, 0.01055730f, 0.03779192f, 0.02985060f, 0.01694240f, -0.02129530f, -0.05210391f, -0.05934200f, 0.03702459f, 0.04392603f, 0.09620408f, -0.03407551f, -0.02919117f, -0.01782327f, 0.03158021f, 0.03807131f, -0.01336554f, 0.06292952f, 0.00438068f, 0.01304207f, -0.00587826f, 0.00550941f, 0.00972397f, -0.05236325f, -0.08499180f, -0.02174286f, 0.04697779f, -0.05446949f, -0.00628674f, 0.00331032f, -0.12026563f, 0.03283369f, 0.01314344f, -0.09387542f, -0.06954013f, 0.05057821f, -0.01359440f, 0.01298893f, -0.04557752f, -0.01932414f, -0.02279940f, -0.03799388f, 0.02786625f, 0.00279808f, 0.11276928f, 0.09915036f, 0.02759444f, 0.01587548f, -0.01540030f, -0.00038334f, 0.02169705f, 0.06501566f, 0.02992810f, 0.02265801f, -0.00843730f, 0.03824732f, -0.00634090f, -0.02146448f, -0.03695365f, -0.01164467f, 0.01805847f, -0.01664869f, 0.05820698f, 0.06191581f, -0.07308477f, 0.05165587f, -0.03737919f, -0.00761750f, -0.06569748f, 0.01749990f, -0.10496659f, 0.00530823f, -0.05070520f, -0.03819884f, 0.00825986f, -0.02459007f, 0.07825188f, 0.04076558f, 0.04618181f, 0.02234992f, -0.00928027f, 0.03027783f, -0.02209641f, -0.09750694f, 0.08617882f, 0.00459432f, -0.02005415f, -0.02687812f, 0.01997182f, 0.02898844f, 0.07613070f,
    /* [29] */ 0.01305111f, 0.04651533f, -0.00399272f, -0.04365388f, 0.00998238f, 0.07164495f, 0.00277538f, 0.04591124f, 0.00722560f, 0.00720995f, -0.03447134f, -0.03354014f, 0.06099683f, -0.01218405f, 0.01166852f, -0.02695249f, -0.07603192f, 0.00550547f, -0.02229478f, 0.01258182f, -0.00830967f, 0.05079259f, -0.01563289f, -0.10061555f, -0.00176750f, -0.01036380f, -0.00743336f, -0.03310106f, -0.01968176f, -0.01020620f, 0.00567226f, -0.04556545f, -0.00493313f, -0.03075814f, -0.03790950f, -0.03797432f, -0.00347516f, 0.06960477f, -0.01189444f, 0.01375814f, -0.01743057f, -0.00077429f, 0.01168858f, -0.03489783f, -0.06182313f, -0.00943599f, 0.01474716f, -0.02525083f, -0.05894880f, -0.02036734f, -0.05427685f, -0.00054680f, -0.02889990f, -0.03100246f, 0.00687806f, 0.07037430f, 0.04360859f, -0.00027155f, -0.03104331f, 0.01832517f, 0.03012596f, -0.03580176f, 0.03569062f, 0.00770649f, 0.07928202f, -0.03827333f, 0.01203453f, -0.04099770f, 0.00218150f, -0.10304997f, -0.00072327f, -0.04471190f, 0.05431655f, -0.03244534f, -0.05975962f, -0.00228323f, 0.00150926f, -0.02850545f, 0.02521724f, -0.04712055f, -0.05122757f, -0.01069717f, 0.00409115f, 0.06020419f, -0.01270132f, -0.00999616f, 0.00374676f, -0.01462247f, 0.02460144f, -0.00698227f, -0.00884339f, -0.06847002f, -0.06285736f, -0.06976892f, 0.00068597f, -0.02894376f, -0.03481984f, 0.03503866f, -0.01379074f, 0.03284169f, -0.00443222f, 0.00488974f, -0.00320835f, -0.00005401f, -0.00176996f, 0.00694461f, 0.00531584f, -0.01457683f, 0.03763548f, 0.02330497f, 0.02196288f, -0.12206313f, -0.04698128f, 0.06214549f, 0.01324530f, 0.05040562f, -0.03160879f, 0.02045786f, 0.00211394f, -0.03504249f, 0.06872401f, -0.00037221f, -0.04701066f, 0.02334894f, 0.00268494f, 0.01203933f, 0.01952308f, 0.00359195f,
    /* [30] */ 0.04438048f, -0.08589575f, 0.00905220f, -0.02127461f, 0.02695408f, -0.08141053f, 0.02966551f, -0.01914387f, 0.03954344f, 0.00667383f, 0.00141513f, -0.03758905f, -0.03469031f, -0.03250089f, -0.03148628f, -0.03542618f, -0.00198530f, -0.02946205f, -0.01242446f, -0.02882029f, -0.01055877f, -0.01554511f, 0.00092301f, 0.05774880f, 0.04914420f, -0.02594879f, -0.05977760f, 0.03570189f, -0.02065790f, -0.06913835f, 0.00994227f, 0.00979223f, 0.00179818f, -0.04183120f, 0.00391644f, -0.01590274f, 0.00630826f, -0.02092074f, 0.01255728f, 0.06981125f, -0.02507056f, 0.02043762f, -0.03253947f, 0.06404227f, -0.08005024f, 0.01949377f, 0.01186461f, 0.06341708f, -0.00469040f, 0.03405523f, -0.04002415f, 0.00357433f, -0.02106675f, 0.03944580f, 0.04811024f, -0.01694766f, 0.04786118f, -0.08524061f, 0.01093789f, 0.11513742f, 0.00342598f, -0.04758056f, 0.02342196f, -0.02688410f, -0.01481943f, 0.10849763f, -0.03521447f, 0.04336406f, -0.03590148f, 0.02975314f, -0.01200423f, 0.05101395f, 0.00053062f, 0.00622366f, 0.01720696f, 0.00275048f, -0.01123378f, 0.00925855f, -0.00376353f, 0.01163389f, 0.00999029f, -0.04553524f, 0.01707117f, -0.02668418f, 0.03315673f, 0.05642240f, -0.03018719f, 0.04563143f, -0.02191261f, 0.03895624f, -0.06890100f, 0.03982798f, -0.03490240f, 0.03244104f, 0.01415968f, -0.02447603f, -0.00791910f, 0.03356862f, -0.03809366f, 0.03983006f, 0.02210847f, 0.04313018f, -0.00667184f, 0.01942849f, -0.01936832f, -0.02025297f, 0.03191780f, 0.01383038f, -0.04149502f, -0.03810571f, -0.04795125f, 0.04700362f, 0.04629083f, 0.02302265f, -0.04512293f, 0.02093412f, -0.00824827f, 0.08128235f, -0.02245184f, 0.02796098f, 0.06493185f, -0.00398932f, 0.02050170f, -0.03785603f, 0.03909087f, -0.01784605f, 0.02405792f, -0.03455796f,
    /* [31] */ -0.01616533f, 0.03482479f, 0.04746153f, -0.04047212f, 0.01785711f, 0.02261947f, -0.01500533f, 0.02228799f, -0.04241768f, 0.01625315f, -0.03968536f, 0.01172291f, 0.03882530f, -0.00626246f, -0.04854294f, 0.02858926f, 0.01499924f, 0.01859214f, -0.01523780f, -0.00439591f, 0.00758830f, -0.02965832f, 0.01250081f, -0.07579709f, 0.00572003f, 0.01958448f, -0.00088699f, 0.00575131f, -0.02689480f, -0.05554797f, -0.03739119f, -0.05450986f, -0.01623267f, 0.01112300f, 0.00412193f, 0.04361599f, -0.02037747f, -0.00664398f, 0.05921533f, -0.00385174f, -0.02348570f, -0.01736755f, -0.01234893f, -0.03252549f, -0.05745421f, -0.04482205f, -0.06146914f, -0.05272715f, -0.06060883f, -0.02203972f, -0.09057666f, -0.01971047f, -0.06720196f, 0.04644171f, -0.00181990f, -0.00906472f, -0.00281687f, -0.04479219f, 0.02470311f, 0.06887308f, -0.02143427f, -0.03416982f, 0.01633354f, 0.00516160f, 0.03360536f, 0.06748239f, -0.02905557f, 0.01530593f, -0.07757992f, -0.08980930f, 0.07134385f, 0.00312323f, -0.00056635f, -0.03610650f, 0.01042489f, -0.01140427f, -0.02578600f, 0.01935294f, 0.03320050f, 0.07587454f, 0.01500323f, 0.00645503f, -0.01033919f, -0.06257773f, 0.01248204f, -0.03544034f, -0.02033189f, -0.02525563f, -0.00881758f, 0.00012086f, 0.01246264f, -0.00596297f, 0.07615426f, -0.02024663f, -0.03225354f, -0.08063716f, -0.00583614f, -0.03700075f, -0.00172054f, 0.03370596f, 0.02153444f, -0.04134780f, -0.00080918f, 0.05129569f, -0.05248092f, -0.03573862f, -0.01118911f, 0.01104469f, -0.06674734f, 0.07106120f, 0.04382937f, -0.03625880f, 0.03376925f, 0.04857754f, 0.00330474f, 0.02305862f, 0.02927182f, 0.00711123f, -0.02884234f, -0.00240983f, 0.00484660f, -0.02324779f, -0.00208835f, -0.00491220f, -0.03696597f, 0.02028430f, -0.00936155f, -0.03849179f,
    /* [32] */ 0.02265139f, -0.00271368f, 0.00187179f, -0.01918703f, -0.02876754f, 0.00429562f, -0.03082324f, 0.03862514f, -0.03701960f, 0.05199594f, 0.01703438f, 0.02783051f, 0.03750820f, 0.09653571f, 0.02710514f, 0.02099010f, 0.06414974f, -0.04096381f, -0.01103572f, -0.07650479f, -0.00013516f, 0.02384017f, -0.04542748f, 0.01776738f, 0.00041475f, -0.03993098f, -0.04000507f, 0.03812818f, -0.02575815f, 0.01575270f, 0.01392445f, 0.01978064f, -0.01322820f, 0.01245875f, -0.06497155f, -0.00680718f, -0.03038637f, -0.06083130f, 0.04734687f, 0.03727514f, -0.04941057f, -0.00374770f, 0.02139311f, 0.03650412f, 0.06372906f, 0.02304787f, -0.05083701f, -0.01428223f, 0.04528840f, 0.01442812f, -0.04951289f, 0.00245894f, -0.04193895f, -0.03351079f, 0.06403405f, 0.04582020f, 0.09873946f, -0.04321607f, -0.01846362f, 0.02252792f, -0.09098541f, -0.02514752f, -0.08132888f, -0.08975835f, 0.06687421f, 0.00767663f, -0.05596272f, -0.01490587f, -0.00852409f, 0.05059268f, -0.02049172f, 0.04166999f, 0.05631724f, -0.00358407f, -0.02461044f, -0.00435827f, -0.06236233f, 0.04877395f, -0.01717781f, 0.02141349f, -0.01941088f, -0.03214499f, 0.03365770f, 0.00046550f, 0.04530683f, 0.01870608f, -0.02616402f, -0.01455002f, -0.00445627f, 0.00716164f, -0.02367803f, -0.00958873f, -0.02165954f, -0.02159699f, 0.01943292f, 0.06501468f, 0.01585728f, -0.08696114f, -0.03568367f, -0.07375272f, -0.08645179f, 0.07306153f, 0.01100482f, 0.03837236f, 0.05145631f, -0.02635415f, 0.01449869f, -0.01058632f, 0.03504686f, -0.03890583f, -0.05420033f, 0.00772303f, 0.00822555f, -0.03719524f, 0.00438680f, 0.05661447f, 0.03729653f, -0.05690228f, 0.00739442f, 0.04612275f, 0.01227213f, 0.00948223f, 0.00851146f, -0.00606188f, 0.01269216f, -0.00442365f, 0.00519209f, 0.00014027f,
    /* [33] */ 0.00923704f, -0.00825544f, 0.00683241f, 0.04524038f, -0.01444175f, -0.04342965f, 0.02111837f, -0.00391894f, 0.01301251f, 0.02128662f, 0.01172142f, 0.02925797f, -0.02014027f, 0.04343913f, -0.06616125f, 0.00915407f, -0.03100720f, -0.01127518f, 0.04212207f, -0.01432609f, 0.03059710f, -0.01663640f, -0.01059436f, 0.05994798f, 0.01978070f, -0.07069527f, -0.01545176f, -0.06431390f, -0.02355349f, 0.01685086f, -0.04886299f, 0.02400911f, 0.01824427f, 0.04603324f, -0.04640144f, 0.07924756f, -0.01924970f, 0.05862847f, 0.00839141f, -0.01482037f, 0.03346244f, 0.04620739f, 0.00447093f, 0.00682865f, -0.03662333f, -0.00854347f, -0.05338178f, 0.03368514f, 0.02964371f, -0.00001145f, -0.03807164f, -0.01210778f, 0.01332267f, 0.01412463f, -0.02007980f, 0.01105160f, 0.11847403f, 0.01497537f, 0.00713007f, 0.04803205f, -0.01407286f, 0.01740011f, -0.03721398f, 0.03862491f, -0.02568209f, 0.06890063f, -0.03544557f, -0.01703612f, 0.02065136f, -0.09598677f, -0.03186462f, -0.00671894f, 0.03211913f, -0.02674549f, 0.01034664f, -0.00380283f, 0.00534067f, 0.00221748f, 0.03298933f, -0.04207013f, -0.00929150f, 0.01754467f, 0.02082165f, 0.00412119f, 0.02155680f, 0.02087161f, -0.04076221f, 0.02445208f, 0.08119494f, 0.00363813f, 0.01552792f, -0.03533697f, -0.06974724f, 0.02510710f, -0.00570603f, 0.01877007f, 0.01998627f, 0.02940703f, -0.01260149f, -0.10564950f, 0.00623122f, -0.04456748f, 0.00243847f, 0.07917769f, -0.01102917f, -0.03624988f, 0.03002863f, -0.00510719f, -0.02041544f, -0.02397612f, -0.01316128f, -0.02851115f, -0.00773784f, -0.01759673f, 0.00517129f, 0.03314054f, -0.01310404f, 0.02280581f, 0.03247556f, -0.00799410f, -0.01440749f, -0.08223779f, 0.06135496f, 0.00141414f, -0.00639264f, -0.07928252f, 0.06720887f, 0.01767548f,
    /* [34] */ -0.10800355f, -0.03468987f, 0.06357384f, -0.07596671f, -0.04342112f, 0.00430201f, -0.03836934f, -0.09052720f, -0.04648492f, 0.08458905f, -0.08377161f, -0.01074371f, 0.04634381f, 0.04344730f, 0.04435853f, 0.04563836f, -0.02054481f, 0.01840864f, -0.03641900f, -0.06755804f, 0.05445247f, 0.00046861f, 0.00546419f, -0.04470997f, -0.05867845f, -0.12799191f, 0.00392861f, 0.08579794f, 0.05736455f, 0.03527839f, 0.07538632f, 0.09748003f, 0.04915176f, -0.01012009f, 0.00880663f, -0.07823990f, -0.01782537f, -0.05517556f, 0.03178282f, 0.02615106f, 0.02750775f, -0.01560027f, 0.03694741f, 0.08404472f, 0.07323599f, -0.03497607f, 0.03435228f, -0.10939083f, 0.02959939f, -0.00287092f, -0.00034395f, -0.03094485f, 0.00007184f, -0.07783557f, 0.02807448f, -0.01639470f, -0.07638431f, 0.08259544f, 0.00411029f, -0.00644319f, -0.03372639f, -0.08667523f, 0.07109770f, -0.00903582f, 0.06312585f, 0.05533969f, -0.10244421f, 0.01054280f, 0.00919998f, 0.08827733f, -0.01214619f, 0.04624221f, -0.02029299f, -0.01574198f, -0.00710584f, 0.00322296f, -0.02625482f, -0.03908028f, -0.06141736f, 0.07626925f, -0.00519590f, -0.06789032f, 0.00188304f, -0.01081502f, 0.07699968f, 0.03181066f, 0.00537130f, 0.06926472f, -0.03305149f, 0.05229131f, -0.00068451f, -0.06338072f, 0.05431742f, -0.01378550f, -0.00759868f, 0.08611574f, 0.05903377f, -0.03647605f, 0.02820198f, -0.15977283f, -0.05699468f, 0.07582378f, 0.10700931f, 0.03643530f, 0.02596315f, 0.01349392f, -0.00739975f, 0.05917652f, 0.08625925f, -0.05845500f, 0.02142030f, 0.01615526f, 0.00580850f, -0.04644551f, -0.03411226f, -0.06464195f, 0.06064725f, -0.10811890f, 0.01575006f, 0.02741277f, 0.09479183f, -0.01160005f, -0.00477288f, 0.03065741f, 0.02807042f, 0.07968165f, -0.02815913f, -0.06541605f,
    /* [35] */ 0.01490861f, -0.00832866f, -0.00950819f, -0.00244340f, 0.00682253f, -0.05382142f, -0.00461975f, -0.00231048f, 0.01969585f, -0.00668403f, 0.02430832f, 0.03517114f, -0.00390240f, -0.00434056f, 0.02429559f, 0.00205332f, -0.03771119f, -0.01353790f, 0.00944714f, 0.01748194f, 0.00216708f, 0.02784596f, 0.00449506f, 0.00738873f, -0.00982413f, -0.01421812f, 0.00330697f, -0.02898719f, -0.02679472f, 0.01743472f, 0.08359488f, -0.06669325f, -0.00106000f, 0.07198615f, -0.06754173f, 0.02053760f, -0.02414904f, -0.01676445f, -0.06130627f, -0.03621273f, -0.02171832f, -0.03026187f, -0.02323056f, 0.01294927f, 0.02453851f, 0.00399594f, 0.03217219f, 0.02619446f, 0.05012519f, -0.05309039f, -0.03958248f, 0.03929849f, 0.05244428f, 0.02777619f, 0.00706643f, -0.00715910f, -0.03002768f, 0.00677773f, 0.01346584f, -0.00795013f, 0.02324946f, 0.01254027f, -0.00952164f, 0.02902548f, -0.07216440f, -0.03089149f, 0.04487760f, 0.02420921f, 0.00351084f, -0.10186185f, -0.04035092f, -0.06097618f, 0.01573730f, 0.00389328f, 0.02146389f, 0.00363960f, 0.00468798f, -0.00722760f, -0.06787040f, -0.00317351f, -0.01179236f, -0.01746555f, 0.01843336f, -0.03731946f, -0.01941536f, -0.10138848f, 0.01785335f, -0.05300783f, 0.01248582f, 0.01849219f, 0.03449087f, -0.01168233f, -0.06025057f, 0.02307990f, 0.04426149f, -0.07299896f, -0.00973526f, 0.05388450f, -0.05013284f, 0.05527792f, 0.05520000f, 0.01888765f, -0.00370934f, -0.02718270f, 0.01487313f, 0.00143001f, 0.02490957f, -0.01543584f, -0.03895979f, -0.01740254f, -0.05716341f, -0.07620424f, -0.02324302f, 0.07004892f, 0.01087905f, -0.01081593f, 0.00091925f, -0.01279704f, 0.02321731f, -0.06396503f, 0.01423315f, 0.03254642f, -0.00289540f, 0.01618209f, 0.04434179f, -0.00576774f, 0.06733797f, 0.03850083f,
    /* [36] */ 0.01326896f, 0.01536128f, 0.01048387f, 0.04951749f, -0.02481277f, 0.01382688f, -0.02846978f, 0.00881736f, 0.03165575f, 0.00096270f, -0.08232895f, 0.03462216f, -0.03340334f, 0.01135689f, -0.01110704f, 0.02253618f, 0.04177883f, 0.07875158f, -0.00547612f, 0.02991526f, -0.02754804f, 0.02783013f, -0.00831520f, 0.00094438f, -0.00055597f, -0.00378644f, -0.05861268f, 0.04282384f, -0.05453359f, -0.01263672f, 0.01987178f, -0.08491922f, -0.07349072f, 0.03132673f, -0.00825623f, -0.02329160f, 0.03058128f, -0.01566158f, -0.05186997f, -0.00982641f, -0.02590507f, 0.03633538f, -0.02203763f, 0.00769729f, 0.04080294f, 0.01845494f, -0.02122426f, -0.02555924f, 0.00670219f, -0.05845622f, -0.04480473f, -0.09174030f, 0.00088844f, 0.01517146f, 0.05505006f, 0.00697786f, 0.02679479f, -0.02696194f, -0.02060585f, 0.03859600f, 0.01731461f, -0.05254860f, -0.06116846f, -0.03467213f, -0.03953563f, 0.00879054f, 0.02067589f, -0.01452925f, 0.04147350f, -0.05155966f, -0.04895485f, 0.00098942f, -0.01854626f, -0.00987640f, -0.01246504f, -0.06182401f, 0.01575109f, -0.03660037f, 0.02446113f, -0.00062320f, 0.01910019f, 0.04446032f, 0.03582678f, 0.06076753f, 0.04696535f, 0.03716430f, -0.01159234f, -0.01119768f, 0.04781454f, -0.02050796f, -0.02137894f, 0.03306030f, -0.02760979f, -0.00177752f, -0.00685662f, 0.01720802f, 0.02069650f, -0.01319609f, -0.00248660f, -0.00594489f, 0.02338459f, -0.02999073f, -0.05596869f, 0.10801259f, -0.00042064f, -0.00425460f, 0.00017069f, 0.03251457f, 0.00245490f, -0.00660346f, -0.00698400f, -0.03588843f, -0.01728043f, 0.02050169f, -0.02685598f, -0.01824990f, 0.04004490f, -0.02587155f, 0.00140927f, 0.00796915f, -0.04966652f, 0.02106503f, 0.01402815f, 0.02283919f, -0.00098568f, -0.01816158f, -0.01770321f, 0.02135054f,
    /* [37] */ 0.00749195f, -0.03469404f, 0.00736475f, 0.03184176f, -0.08116560f, -0.00762386f, -0.04459623f, -0.04699580f, 0.05171116f, 0.07477748f, -0.02501965f, 0.11265770f, -0.07162057f, -0.00364010f, -0.07373343f, 0.00888370f, -0.04561576f, 0.03518065f, 0.03435509f, -0.08313760f, -0.00310889f, -0.05936944f, 0.03810259f, 0.05900409f, 0.03440563f, 0.05120337f, -0.06348661f, 0.02609056f, -0.01435003f, 0.08065302f, -0.04924577f, -0.02025875f, -0.00047179f, 0.02265718f, 0.04728331f, 0.02823726f, 0.07978243f, 0.02033386f, -0.07553765f, -0.08880556f, 0.02723722f, 0.09309923f, -0.05961348f, -0.08932196f, 0.08129741f, -0.01083900f, -0.04941765f, 0.12222761f, 0.02732521f, -0.01289428f, -0.07290386f, 0.06590338f, 0.01959685f, 0.01499545f, -0.00731536f, -0.07629914f, 0.04733409f, -0.06264452f, -0.02897407f, -0.04927105f, -0.02307535f, 0.05495269f, -0.07234382f, 0.07831760f, -0.01864818f, -0.00306392f, 0.07088958f, 0.06302557f, 0.01871822f, -0.09331250f, -0.07431764f, -0.07022850f, -0.03648356f, -0.05126522f, 0.01773139f, -0.05789049f, 0.05297665f, -0.06494492f, 0.06095892f, -0.02630102f, -0.04276240f, -0.04118501f, 0.08811758f, -0.03543932f, -0.02276669f, 0.02812565f, -0.08690904f, -0.04941543f, 0.04044887f, 0.02637505f, 0.05148017f, -0.00222195f, -0.07265849f, 0.09881637f, 0.03294184f, 0.09407859f, 0.01179285f, -0.03283057f, -0.00391497f, -0.04227600f, -0.00480035f, -0.02944445f, -0.06304420f, 0.03007036f, -0.07889197f, -0.04744456f, 0.04338244f, -0.03401064f, 0.01739692f, 0.01514172f, -0.01215051f, -0.01022019f, 0.03390129f, 0.01182848f, -0.01398971f, -0.00282793f, -0.04311206f, 0.02312909f, -0.02746909f, -0.03260026f, -0.02228251f, -0.03854429f, 0.07997592f, 0.01236376f, -0.03578341f, -0.04717622f, 0.08874464f, 0.05045563f,
    /* [38] */ 0.04253397f, -0.03338380f, -0.05368163f, 0.13993295f, 0.00594698f, -0.01829466f, 0.00916376f, 0.04559715f, 0.03069520f, 0.00329048f, 0.05711792f, 0.06853586f, -0.09461366f, 0.01838949f, -0.01540026f, 0.03504592f, -0.04299820f, -0.04089797f, 0.00550255f, -0.00646200f, -0.02343264f, -0.04382834f, 0.03757153f, 0.03338561f, 0.05610430f, 0.01415088f, -0.05954017f, -0.02325317f, 0.01381841f, -0.00142856f, 0.00086306f, 0.04561105f, 0.07202187f, -0.05401399f, -0.00771627f, 0.10061380f, -0.00909897f, 0.04994475f, 0.02753857f, 0.02485041f, 0.02997168f, 0.03225891f, 0.02063691f, 0.02068655f, 0.01270659f, 0.07511442f, 0.08005860f, 0.07823545f, 0.07584827f, 0.01640662f, -0.04189370f, 0.01572119f, 0.03405182f, -0.02408417f, 0.04210659f, -0.00767208f, -0.06175260f, 0.00128247f, 0.00021754f, -0.05125665f, 0.06491993f, -0.01403443f, 0.07771929f, 0.00209092f, -0.11983461f, 0.01253432f, 0.00792853f, 0.04321437f, 0.05479459f, -0.00892580f, -0.12309759f, 0.01810731f, 0.06560367f, 0.00188158f, -0.03786251f, 0.01275261f, 0.00574299f, -0.00704579f, 0.01114221f, -0.02518642f, -0.07361858f, 0.00495953f, 0.04940363f, -0.07861242f, 0.02583289f, -0.06480230f, -0.00579108f, -0.01230693f, 0.05472972f, -0.03992218f, 0.09081020f, 0.09034381f, 0.01057881f, 0.02697753f, 0.03371851f, 0.00830271f, -0.02281796f, 0.03245314f, 0.00815429f, 0.06664865f, 0.08628099f, 0.01242385f, -0.06776410f, -0.10252589f, 0.02179477f, -0.01278433f, -0.00695107f, 0.01102615f, 0.03640237f, 0.01793309f, -0.01339764f, -0.11074154f, -0.00447426f, 0.01606633f, -0.03479373f, -0.01010252f, -0.03583503f, -0.00266353f, 0.07492679f, 0.03990379f, 0.08955476f, 0.03169589f, 0.00118252f, 0.00330575f, 0.00938665f, -0.05414472f, 0.04499763f, 0.00118097f,
    /* [39] */ 0.02803127f, 0.06506285f, -0.04362332f, 0.05048001f, 0.04877235f, 0.04489630f, 0.05038998f, 0.04075916f, 0.01156905f, 0.00188305f, -0.00237304f, 0.02035525f, -0.00566378f, 0.03880588f, -0.02379057f, -0.05342187f, -0.01365135f, 0.00434469f, 0.05055404f, 0.06120848f, -0.01925595f, -0.04138657f, 0.03677972f, -0.11606391f, 0.03602115f, 0.07485022f, -0.05497725f, -0.08421041f, 0.01347090f, -0.07315648f, -0.02665058f, 0.07457038f, -0.06824612f, 0.02331302f, 0.00061084f, 0.01917155f, 0.02288183f, -0.02282081f, -0.04738099f, -0.10546086f, -0.01131120f, 0.01611737f, 0.07968129f, -0.10594569f, 0.06081587f, 0.00552416f, -0.02906224f, -0.02865811f, 0.01693681f, -0.02124840f, 0.01493605f, -0.07952619f, 0.09179289f, 0.01078551f, 0.02889879f, 0.03844200f, 0.00608986f, 0.02506328f, -0.00793973f, -0.02397758f, 0.02267426f, -0.07742364f, 0.02190509f, -0.00515792f, -0.01991716f, 0.00163574f, -0.03445341f, -0.09153644f, 0.01567526f, -0.06734330f, 0.01606971f, 0.00876582f, 0.09036643f, -0.05886013f, 0.05140129f, 0.07286421f, -0.08545186f, -0.07902934f, -0.02358446f, -0.03823784f, -0.03095711f, -0.01444674f, 0.03768787f, 0.04136106f, -0.03040236f, -0.04313471f, 0.00895062f, 0.04503929f, 0.01311337f, -0.01454940f, 0.04444527f, 0.03006479f, 0.07814880f, -0.03407188f, -0.01849371f, 0.01076133f, -0.04259055f, -0.04303805f, -0.02475248f, 0.05148970f, -0.00209169f, 0.00990748f, -0.00895504f, 0.08862329f, 0.00873023f, 0.04631023f, -0.02463001f, -0.10757516f, -0.01496408f, 0.02862141f, -0.05176209f, 0.04098851f, -0.04004682f, 0.05622653f, -0.00955918f, 0.01254929f, -0.02222306f, -0.04273771f, 0.01161402f, 0.00764003f, -0.02929888f, 0.03554241f, 0.02225121f, -0.07867124f, 0.04163172f, -0.01367090f, -0.02973711f, 0.01909115f,
    /* [40] */ 0.04295402f, -0.00361639f, 0.00709786f, 0.07562130f, -0.01263745f, 0.03997575f, -0.01552261f, 0.05553842f, -0.02302974f, -0.00386264f, 0.03246773f, -0.00357029f, -0.02623688f, 0.03620045f, -0.00284157f, 0.02301074f, -0.00567756f, -0.00435848f, 0.00664409f, -0.01911468f, -0.03035031f, 0.03573394f, 0.01475417f, -0.03171074f, -0.00959734f, 0.07704605f, -0.00082686f, -0.03506700f, -0.04574504f, 0.04806790f, 0.01784826f, -0.06573518f, 0.02619346f, -0.00933257f, -0.05007717f, -0.00758434f, -0.04625505f, 0.04990688f, -0.03128983f, -0.00609594f, 0.04034845f, 0.02486138f, 0.05659819f, -0.05555528f, 0.01298013f, 0.04099009f, -0.07892744f, 0.03351307f, 0.00318265f, -0.05075517f, 0.03160156f, -0.06798400f, 0.05736478f, -0.03690877f, 0.02414745f, 0.06125091f, -0.03240607f, -0.07362834f, 0.01951932f, -0.02906657f, -0.06232727f, -0.05674580f, 0.08767365f, 0.05093362f, -0.05052150f, 0.07887848f, -0.00792298f, -0.05942635f, -0.00778175f, 0.04589533f, -0.04457024f, 0.03779752f, 0.02945696f, -0.01141481f, -0.02608868f, -0.03522871f, -0.02111022f, -0.01823700f, -0.02121189f, -0.04212555f, 0.03275891f, 0.02816194f, 0.01949965f, 0.00103595f, 0.03039161f, -0.02413425f, -0.00336463f, 0.01229447f, 0.04182097f, 0.00410144f, 0.04191045f, -0.02924159f, -0.00661785f, 0.05261138f, -0.04221645f, 0.03084811f, 0.01219328f, 0.01805253f, -0.00287044f, 0.05012456f, 0.03849397f, 0.01315750f, 0.01908191f, -0.01166331f, 0.01578259f, -0.02804065f, 0.04971672f, -0.00976150f, 0.02795145f, -0.04853048f, -0.01640095f, 0.08949602f, 0.02717554f, 0.07131334f, 0.04860771f, -0.00999233f, 0.03852772f, 0.01448257f, 0.07611906f, -0.04070670f, -0.01379234f, -0.00024757f, 0.04663394f, 0.04449983f, -0.00700585f, 0.01278911f, 0.01413337f, 0.02537598f,
    /* [41] */ 0.06373557f, -0.04495032f, -0.04430000f, -0.02925511f, -0.03774211f, -0.04717186f, 0.00143615f, -0.07908371f, -0.01500417f, -0.01504826f, -0.04719688f, 0.06134023f, -0.02660112f, 0.01169921f, -0.05143927f, -0.00388345f, -0.06062881f, -0.00586882f, -0.00145741f, -0.03987278f, 0.00127003f, -0.01618401f, -0.03893458f, 0.02950786f, -0.02258984f, -0.05822876f, -0.04447092f, 0.01401169f, 0.01857441f, 0.00111255f, -0.01732061f, -0.03258463f, 0.02769015f, 0.05584953f, 0.01625018f, 0.01294765f, -0.09021044f, 0.03080350f, -0.00651776f, -0.01746832f, 0.06496082f, 0.00935312f, 0.01680036f, 0.04367689f, -0.02754605f, -0.03153528f, -0.02234060f, -0.04322191f, 0.01172492f, 0.02050039f, -0.06457458f, 0.03637553f, -0.03773753f, 0.02322269f, 0.01296718f, -0.04050799f, 0.06788123f, -0.02493965f, 0.00387773f, -0.00602925f, 0.03435183f, 0.01012333f, -0.09552959f, 0.03502002f, 0.09219814f, 0.01677786f, -0.00494763f, 0.06728256f, 0.02409020f, -0.14377990f, -0.01161974f, -0.00045214f, -0.01500931f, 0.07062427f, 0.02957531f, -0.02795731f, 0.02068108f, -0.01593983f, -0.00114235f, 0.03250378f, -0.04502740f, -0.04046064f, 0.01762267f, 0.11798710f, -0.04131208f, 0.02371993f, -0.07929251f, 0.01295604f, -0.00045309f, 0.00725102f, -0.00369049f, -0.03978223f, -0.10701683f, 0.02686278f, 0.00112461f, 0.02203293f, 0.00278298f, 0.03877448f, 0.04410355f, -0.10781793f, -0.04248360f, 0.00244558f, -0.05261365f, 0.03247546f, 0.00005170f, -0.02879802f, -0.00230258f, -0.03167542f, -0.01266733f, -0.00304422f, -0.03455459f, 0.01651539f, -0.05615376f, -0.05500469f, 0.01285682f, 0.00172249f, -0.00542579f, 0.02205170f, -0.02254671f, -0.00189776f, 0.02938471f, -0.05087384f, 0.10512852f, 0.00610106f, -0.00227316f, -0.06372765f, 0.01782307f, 0.03104182f,
    /* [42] */ 0.02981732f, -0.00487818f, -0.03425729f, 0.12624575f, -0.01753078f, -0.02886940f, 0.04377462f, 0.05428314f, 0.03914415f, 0.01198443f, 0.02555958f, 0.06551591f, -0.07371181f, 0.01658246f, -0.02181309f, -0.00502257f, -0.01251036f, 0.03074497f, 0.03475686f, 0.01365564f, -0.04995101f, -0.03571269f, 0.04409024f, 0.06529880f, 0.03970416f, 0.05996182f, -0.09106435f, -0.09086104f, 0.06120921f, -0.00458828f, -0.02740932f, 0.02858564f, -0.01346848f, 0.05505768f, -0.01097170f, 0.09438662f, -0.02395725f, -0.00474670f, 0.02577327f, 0.00082638f, 0.02556618f, 0.08314791f, -0.03842287f, -0.04640123f, -0.03428844f, -0.02071885f, -0.02046326f, 0.06839239f, 0.07201114f, -0.00667955f, -0.00699023f, 0.08465670f, 0.09941991f, -0.03569675f, 0.01930140f, -0.00826825f, -0.04839429f, 0.01711215f, -0.00875141f, 0.00898822f, 0.05739678f, -0.02785942f, -0.01121019f, 0.03771472f, -0.14407538f, 0.01849909f, -0.03072131f, -0.00977633f, 0.03835617f, -0.10063263f, -0.00315571f, -0.02753988f, 0.08964217f, -0.02507798f, 0.07968768f, -0.07289911f, 0.02456444f, 0.00300920f, 0.05105200f, 0.00364512f, -0.00002837f, 0.01867893f, 0.00544630f, -0.10865250f, 0.06467866f, 0.00875705f, -0.03133545f, 0.00653247f, 0.06398804f, 0.01699461f, -0.01783080f, 0.02320241f, -0.02685500f, -0.00340876f, -0.01816939f, -0.03298005f, -0.01991922f, -0.02594603f, 0.01642791f, -0.02216611f, 0.11318809f, -0.00156666f, -0.01312057f, -0.07545283f, -0.04585475f, -0.03131796f, -0.01886084f, -0.03426770f, 0.00114219f, 0.01383988f, -0.02303385f, 0.05056034f, 0.01353705f, 0.01995644f, 0.03226884f, -0.01679315f, -0.01003252f, 0.02038548f, 0.04546432f, -0.05909849f, 0.04909475f, 0.03138354f, -0.00157617f, -0.00897533f, -0.03529324f, -0.07167145f, 0.10373400f, 0.06997342f,
    /* [43] */ -0.05629103f, 0.01414444f, 0.05691737f, -0.09103658f, -0.03811771f, 0.02252265f, -0.04469625f, -0.03996101f, -0.10712887f, 0.02378392f, -0.10283478f, 0.02805708f, 0.07937226f, 0.03097727f, 0.03616954f, -0.01157486f, 0.07489654f, -0.03330178f, -0.01605760f, -0.07088166f, 0.02305061f, 0.03367628f, -0.00471991f, -0.03639818f, -0.00680302f, 0.02088534f, -0.01510093f, 0.00742441f, 0.00305699f, 0.05354568f, 0.03114194f, 0.02980387f, 0.00231200f, 0.01512836f, 0.00372774f, -0.04427495f, -0.06259958f, 0.00087871f, -0.01996162f, -0.03773678f, -0.07823780f, -0.03990961f, 0.09332372f, 0.02503311f, -0.05421356f, -0.06350108f, -0.03942969f, -0.02300679f, 0.06527682f, 0.00024345f, 0.01155766f, 0.00787286f, -0.03242823f, 0.01102699f, -0.01189300f, -0.00214255f, -0.08656327f, 0.03344864f, 0.01448040f, -0.00537861f, 0.01645971f, 0.02583821f, 0.03386190f, -0.00218710f, 0.07606766f, -0.04430142f, -0.00954266f, -0.01033276f, -0.01691638f, 0.04476836f, 0.07603226f, 0.00011327f, 0.01618549f, -0.04258249f, -0.02204114f, 0.03080885f, 0.00320154f, 0.00898375f, -0.02058776f, 0.00516964f, -0.00916095f, -0.02642709f, 0.04366662f, 0.00509459f, 0.03028186f, -0.04800402f, -0.01761494f, -0.02790322f, -0.01351076f, 0.01464867f, -0.05237708f, -0.03407538f, 0.05048393f, -0.03981771f, -0.00198975f, -0.05115347f, -0.02198295f, 0.01483276f, -0.00439856f, 0.01067176f, -0.11010768f, 0.08797281f, -0.00071994f, -0.00942726f, 0.03880634f, 0.01055983f, -0.00318623f, 0.03601390f, 0.06753744f, 0.03121794f, 0.00911107f, 0.05340918f, 0.01102493f, 0.01655735f, -0.03494291f, 0.01272695f, 0.04791820f, -0.07538106f, -0.04460274f, -0.01623530f, -0.04959979f, 0.03406791f, 0.03165404f, 0.04630276f, -0.00819215f, 0.03871050f, -0.05428701f, -0.04103955f,
    /* [44] */ 0.02825821f, 0.00259821f, -0.04599410f, 0.03531168f, 0.04304142f, 0.07113789f, -0.03467350f, 0.01299673f, -0.03060222f, -0.02915487f, 0.07969636f, 0.02680702f, -0.03776053f, 0.02317244f, -0.02885853f, 0.01684277f, 0.02110382f, 0.04092516f, 0.03428724f, 0.02797407f, -0.04035863f, -0.00322400f, 0.01166619f, 0.00743523f, 0.04860900f, 0.02152195f, 0.03668532f, -0.03341982f, -0.08752876f, -0.06744064f, 0.02010816f, 0.00841866f, -0.02938765f, -0.00116569f, 0.00543859f, 0.01645605f, 0.01800163f, 0.00219519f, 0.03638746f, 0.05245118f, -0.01230957f, 0.03291592f, -0.04294242f, -0.16342099f, 0.04572390f, -0.01186645f, 0.05136846f, 0.02601464f, -0.00543024f, 0.00947198f, -0.03068780f, -0.05274067f, 0.00602584f, 0.01301645f, 0.05818759f, 0.05160825f, -0.04051582f, -0.03064706f, -0.04126691f, 0.04945063f, 0.01638143f, -0.04938770f, 0.05899885f, -0.01795791f, -0.11163556f, 0.05644509f, -0.01819620f, -0.06789630f, 0.00768230f, -0.08150013f, 0.01429877f, 0.01928615f, 0.04274825f, 0.01487382f, 0.07769208f, 0.00693510f, -0.00165940f, -0.05049857f, -0.03701563f, -0.04347492f, 0.02177105f, -0.00229247f, -0.01329171f, 0.04526995f, -0.02358126f, 0.04240268f, 0.08166632f, 0.02754168f, -0.02774834f, -0.04579409f, -0.02270596f, 0.02580438f, -0.04200494f, 0.00759339f, -0.00191103f, -0.09089308f, 0.05206206f, -0.03951541f, 0.02229333f, 0.01154239f, 0.04649845f, 0.00458046f, 0.01053035f, 0.03394780f, 0.03849136f, 0.05931764f, 0.04158277f, 0.08440927f, 0.02613536f, -0.01450780f, 0.00189949f, 0.05498999f, -0.03738906f, 0.07472144f, 0.02181130f, -0.03464990f, 0.01495346f, -0.01328072f, -0.03229631f, 0.00896955f, -0.07698371f, 0.08093236f, 0.00163345f, 0.04077150f, 0.07362521f, -0.01021101f, -0.01664825f, 0.03171438f,
    /* [45] */ 0.03585457f, 0.04332973f, -0.02506533f, -0.00471996f, 0.00054527f, 0.06008796f, -0.02647689f, 0.01700554f, 0.01852935f, -0.01029848f, 0.01900114f, 0.02630407f, 0.01716419f, -0.04048096f, 0.05570463f, 0.01590063f, -0.05474076f, 0.02614641f, 0.01671414f, 0.00996551f, -0.02728881f, -0.02199282f, 0.01366846f, -0.06164498f, -0.04888942f, 0.00615264f, 0.02883469f, -0.05496445f, -0.00337848f, 0.04499592f, -0.03426423f, 0.07529266f, -0.01760620f, 0.05180763f, -0.00537929f, 0.03284238f, 0.03924752f, -0.01552530f, -0.01458081f, -0.08551150f, 0.04099017f, 0.01239178f, -0.01281471f, 0.01419024f, -0.05591626f, -0.03914705f, 0.00077563f, -0.01135918f, -0.07612190f, -0.02240482f, 0.06417532f, -0.05886823f, 0.07276605f, -0.05135551f, 0.00698279f, -0.02110884f, -0.01032225f, 0.02672560f, 0.09670924f, -0.00941521f, 0.00173794f, 0.06495048f, -0.05206492f, 0.03710146f, -0.06492763f, -0.04018164f, 0.04446975f, -0.06285109f, -0.00191839f, 0.02102046f, -0.04869021f, -0.02855404f, 0.02451940f, 0.00896677f, 0.05843614f, -0.03161408f, -0.04838649f, -0.03092559f, 0.04291609f, 0.07546818f, -0.03848832f, 0.03628198f, -0.03095417f, -0.08549661f, 0.00215734f, 0.03493276f, 0.05972091f, -0.04412022f, 0.01784250f, -0.00130495f, 0.01297245f, -0.03078638f, -0.04373232f, -0.01478786f, -0.00981965f, 0.03389021f, -0.00911294f, -0.01661895f, 0.02952826f, 0.04236029f, 0.00184345f, -0.06054842f, -0.00543584f, 0.02278971f, -0.03029628f, -0.04427337f, -0.03889357f, -0.09910555f, 0.03097955f, 0.03802527f, -0.01561572f, -0.01025525f, -0.02749112f, 0.01073220f, 0.03547187f, 0.01621569f, -0.03344723f, -0.01125954f, 0.04777629f, -0.04107497f, 0.07630584f, -0.01730475f, -0.00656940f, -0.00396546f, -0.05440472f, 0.02379080f, 0.02228786f, 0.08602776f,
    /* [46] */ -0.05357391f, 0.04476106f, 0.03608816f, -0.01702815f, 0.02416605f, -0.01476462f, -0.00804419f, -0.04693740f, -0.02903605f, 0.00599630f, 0.00911940f, -0.01826590f, 0.02939085f, -0.00081967f, 0.03603734f, -0.01616800f, -0.01818214f, -0.00541283f, 0.00322098f, -0.02716336f, -0.03594368f, 0.02382008f, 0.04657105f, -0.05470372f, -0.03412237f, 0.04147765f, 0.02123757f, -0.03514562f, -0.03600952f, -0.04468550f, 0.05341790f, -0.06371398f, -0.03520049f, -0.00743534f, -0.00021595f, -0.03325105f, -0.00575165f, -0.03050037f, 0.00919634f, 0.00447486f, -0.00614402f, -0.03330829f, 0.09866566f, 0.05978745f, 0.07001142f, 0.02634660f, -0.06922590f, -0.09248378f, 0.04322100f, -0.00777508f, -0.00079485f, 0.07055019f, -0.03532500f, 0.02166643f, 0.00845445f, 0.01219884f, 0.00615206f, -0.02187743f, -0.03316415f, -0.01238743f, -0.08086367f, -0.06619028f, 0.01295340f, 0.01109672f, 0.07284253f, -0.00218656f, -0.03336172f, 0.03413894f, -0.05547253f, 0.04151636f, -0.05487464f, -0.01732679f, -0.03320643f, 0.03076793f, -0.01344928f, -0.02600076f, -0.06039288f, 0.01531865f, -0.04538627f, 0.00216388f, 0.03294800f, -0.00218958f, -0.00831416f, 0.00915181f, 0.00225460f, -0.06912811f, 0.03163383f, -0.06096108f, 0.00222221f, -0.04661390f, 0.02060935f, -0.02640913f, 0.10360066f, -0.08280354f, -0.01076167f, -0.04946718f, -0.00816110f, -0.00039793f, 0.02883423f, 0.00027394f, -0.07744472f, 0.07750630f, 0.01685476f, -0.02064809f, 0.03089070f, 0.00717368f, -0.00662248f, 0.06345814f, -0.01370667f, 0.03807895f, 0.04971316f, -0.04154018f, 0.01006160f, -0.04081517f, 0.00819593f, -0.03202352f, 0.01399234f, -0.04296667f, 0.03288759f, 0.02012802f, -0.03557894f, -0.06241288f, -0.02265428f, 0.01825211f, -0.01453123f, 0.02444288f, -0.00848742f, -0.02433374f,
    /* [47] */ -0.09043445f, -0.09949106f, -0.05464224f, -0.00539135f, 0.01232632f, 0.02906703f, -0.01176267f, 0.00247587f, -0.00196828f, -0.07319354f, 0.00534520f, 0.08035894f, -0.05102273f, 0.02588902f, 0.08156232f, 0.03151199f, 0.02660747f, -0.05470480f, 0.13646890f, 0.06043500f, 0.00086124f, 0.00858609f, 0.06167835f, 0.02757608f, 0.08542876f, 0.09444581f, -0.03677760f, 0.01071003f, -0.05597772f, 0.01238343f, 0.01213223f, -0.01815550f, 0.02997958f, 0.24169751f, -0.00683154f, -0.04298412f, 0.01115909f, -0.03571495f, -0.01035001f, -0.03380162f, 0.00161898f, -0.02579727f, 0.00040627f, 0.56745064f, -0.35359284f, -0.00887714f, -0.22521786f, -0.04953585f, -0.05658627f, 0.05877019f, 0.34187764f, -0.03941857f, -0.00950752f, 0.02019638f, -0.02597722f, -0.10051072f, -0.01609251f, 0.05136725f, -0.11616836f, -0.02569885f, -0.01496748f, 0.60139757f, 0.02155167f, -0.02680922f, -0.01281748f, 0.06007145f, -0.03813560f, 0.00739570f, 0.04457866f, 0.51737362f, -0.19142383f, 0.05536691f, -0.01657345f, 0.01063435f, -0.03106295f, 0.06864285f, 0.00769630f, -0.05121388f, -0.06301868f, -0.05248404f, -0.03877077f, 0.02267961f, 0.01615223f, -0.52360934f, 0.04117193f, 0.18473256f, 0.03099238f, 0.05301347f, 0.01025834f, -0.08627950f, 0.08045369f, 0.08801855f, 0.01004320f, -0.05445366f, 0.17392121f, -0.01618989f, 0.10823622f, -0.07588633f, 0.03444220f, 0.02504220f, 0.03541552f, 0.03168073f, 0.05714037f, 0.04266994f, 0.03883975f, 0.11513758f, -0.04205585f, -0.11047779f, 0.01117203f, -0.06129248f, -0.06773987f, -0.20856334f, 0.02957995f, 0.27397788f, -0.00637728f, -0.05981778f, 0.06022272f, 0.00586558f, 0.03133017f, 0.05948741f, 0.01236160f, 0.01622071f, -0.08785408f, 0.03195432f, 0.01566315f, 0.02466663f, -0.05666720f, -0.02659117f,
    /* [48] */ -0.00749667f, 0.00310916f, -0.06812363f, -0.03012300f, -0.01269105f, 0.04829826f, -0.02754361f, -0.01066881f, 0.04418797f, -0.02073776f, 0.02081044f, -0.01594033f, -0.02573526f, -0.03526764f, 0.01404479f, -0.04151989f, -0.03747184f, 0.00257424f, 0.01316604f, 0.01609298f, -0.02426402f, -0.04027068f, 0.06128194f, -0.00521722f, 0.02644388f, 0.02674399f, 0.02052523f, -0.04644955f, -0.01633796f, -0.04344748f, -0.00339287f, -0.05797550f, -0.02681960f, -0.00267244f, -0.01334941f, -0.03195328f, -0.01935113f, 0.06330317f, -0.03673033f, 0.01903101f, -0.02750109f, 0.01651801f, -0.01360509f, -0.01107246f, -0.09011927f, -0.00286706f, -0.01826704f, 0.00957393f, 0.00464933f, -0.03194058f, -0.03197657f, 0.08186097f, 0.01577096f, 0.04378387f, 0.06571545f, 0.03830469f, -0.13167591f, 0.04155648f, 0.02283095f, -0.02521488f, 0.05152706f, -0.03935944f, 0.04597408f, 0.03581750f, -0.03425463f, -0.03413921f, -0.00701813f, -0.12075155f, 0.04439396f, -0.00485740f, 0.01948707f, -0.08799666f, 0.06250790f, 0.00485020f, 0.00468452f, -0.02548784f, 0.06586599f, -0.05309856f, 0.03559598f, -0.00747690f, -0.02401954f, -0.03543250f, 0.02149675f, -0.01565312f, -0.00789931f, 0.03656842f, -0.02348130f, 0.01389056f, 0.06241521f, 0.02360501f, 0.00008603f, -0.02422717f, -0.07926159f, -0.04994155f, 0.00295985f, 0.01032057f, -0.03417820f, 0.08408388f, -0.01332674f, -0.01455648f, 0.02456709f, 0.03789430f, -0.01390759f, -0.02470483f, -0.02166578f, 0.05219201f, 0.05829461f, 0.00182306f, -0.04366137f, -0.00175192f, -0.04243277f, 0.01922590f, -0.03061358f, 0.05788499f, 0.03599977f, -0.00605626f, -0.00512628f, 0.03237011f, 0.03327310f, -0.05833484f, 0.01481902f, 0.03684268f, -0.03570769f, -0.00104053f, 0.00656794f, -0.02712525f, -0.01395442f, -0.00572340f,
    /* [49] */ 0.02589832f, -0.04303359f, 0.04848381f, 0.04336125f, -0.04506131f, -0.09442323f, -0.01383019f, -0.02691472f, 0.03095734f, -0.01146159f, -0.01871051f, 0.00858829f, -0.04285683f, 0.01628823f, -0.02018699f, 0.05404164f, 0.02497089f, -0.03558459f, -0.00313151f, -0.03593057f, 0.02025892f, 0.02889879f, -0.03495980f, 0.05910942f, 0.02884313f, 0.05948355f, -0.06295329f, 0.03937354f, -0.02118448f, 0.02868716f, 0.02248669f, -0.04940133f, -0.05459282f, -0.03321591f, 0.01041113f, 0.04713290f, -0.04814990f, 0.01272184f, -0.01444174f, -0.02587293f, 0.01454440f, 0.01789415f, -0.03357412f, 0.08901574f, 0.01077535f, -0.04556306f, 0.05918499f, -0.00602437f, 0.03496550f, 0.03226789f, 0.03516750f, 0.03636799f, -0.01687373f, -0.01532290f, 0.01063221f, -0.00549290f, -0.08076816f, -0.04759343f, 0.02438386f, -0.02918254f, 0.00339556f, 0.06931331f, -0.02195452f, 0.00417816f, -0.05177028f, 0.02299789f, 0.02355228f, -0.00207318f, 0.03587385f, 0.00633127f, -0.07963540f, 0.01017048f, -0.02095733f, -0.01469013f, 0.04733773f, -0.05006449f, -0.01275596f, 0.03009220f, -0.00803681f, 0.04372863f, -0.00506200f, 0.02589129f, 0.03656048f, 0.04935808f, -0.01315023f, 0.04014209f, 0.01462929f, 0.08560698f, -0.04684059f, -0.06889419f, -0.01543499f, -0.00083117f, 0.01044242f, 0.01776503f, 0.05149360f, 0.07786510f, -0.00093956f, -0.05829416f, -0.02640461f, 0.01920983f, 0.02041061f, -0.02544520f, 0.02079036f, -0.10968953f, 0.01488954f, 0.00088454f, 0.01003219f, -0.02603070f, 0.03319068f, -0.02010732f, 0.00714910f, 0.03783159f, 0.01221180f, -0.04167216f, -0.01845984f, -0.00623486f, 0.00682818f, 0.03778422f, -0.04104576f, 0.01279266f, 0.00859966f, -0.01175381f, 0.02903968f, 0.00479906f, 0.00469427f, 0.00767218f, 0.01860848f, 0.00911308f,
    /* [50] */ 0.02012323f, -0.01169506f, 0.02958601f, 0.02281757f, -0.02201231f, 0.04415533f, -0.01838135f, -0.03144573f, 0.00660276f, 0.00381340f, -0.01452525f, 0.00411296f, 0.01114721f, -0.02708574f, -0.00694642f, 0.01692394f, -0.00516253f, 0.03177534f, -0.01190234f, -0.02956738f, 0.04180910f, 0.00197973f, 0.02155197f, -0.01535595f, -0.01735271f, -0.04653580f, -0.01543880f, -0.02935078f, 0.00519074f, 0.04401225f, 0.05298173f, 0.02095038f, 0.01601226f, 0.00381287f, 0.00716023f, -0.00236951f, -0.00338534f, -0.00260594f, 0.00923236f, -0.01636552f, -0.04333604f, 0.01847944f, -0.02219157f, 0.07890263f, -0.12358027f, 0.00817807f, -0.01786744f, -0.01756796f, -0.03053754f, 0.02032060f, -0.08207037f, 0.00934940f, 0.00885315f, 0.02869766f, -0.04460880f, -0.01361040f, 0.03063691f, -0.09443950f, 0.00533085f, 0.09218070f, -0.02620211f, 0.08483936f, -0.00369018f, -0.00736540f, 0.11330686f, 0.06834584f, -0.02751396f, -0.02844981f, -0.03571849f, -0.06778170f, -0.09581114f, 0.00891698f, -0.03600879f, 0.00777871f, -0.02581294f, -0.02484437f, -0.01796520f, 0.03861347f, -0.00755790f, -0.03856543f, 0.06168092f, -0.03061955f, -0.01948822f, -0.09561999f, 0.00912610f, 0.02201575f, -0.05905396f, 0.02412187f, 0.01102176f, -0.00807954f, 0.04616343f, 0.02015837f, 0.05958134f, -0.03281969f, 0.03019916f, -0.11634996f, 0.02914068f, -0.02046529f, -0.00129395f, 0.00374888f, -0.04034007f, -0.02119937f, 0.02436095f, 0.05734892f, 0.00148348f, 0.00922646f, 0.03983445f, 0.09474979f, -0.00603029f, -0.05910574f, 0.05399059f, 0.03494814f, 0.05054098f, 0.01136494f, -0.02467504f, 0.03081807f, 0.01858672f, 0.00462979f, -0.02402600f, 0.03197525f, 0.08834413f, -0.00225397f, 0.08497014f, -0.01969658f, -0.00407653f, 0.03895310f, -0.01543777f, 0.05547244f,
    /* [51] */ 0.02009596f, 0.03903480f, 0.00882768f, -0.05525278f, -0.01315815f, -0.03345215f, -0.05065397f, -0.04503513f, -0.09554725f, 0.02085134f, 0.00486673f, -0.00497828f, 0.10138059f, 0.02483317f, 0.03183500f, -0.01678798f, 0.02449693f, 0.02343575f, -0.00177756f, -0.03849435f, 0.06439602f, 0.02221618f, -0.04788379f, -0.01324398f, -0.02061170f, -0.03363155f, 0.03800301f, 0.02528671f, 0.02784684f, 0.05489210f, 0.05186222f, -0.00285208f, -0.02019309f, 0.00966960f, 0.00456776f, -0.05259170f, -0.04315355f, -0.09541438f, -0.03050235f, 0.02738244f, 0.04502553f, -0.06885938f, -0.02098213f, 0.01638711f, 0.07037845f, 0.01205110f, -0.06847828f, -0.02547054f, -0.06259235f, -0.01343080f, -0.02080542f, 0.05210773f, -0.06169278f, -0.04012390f, -0.04320666f, 0.02535915f, 0.04709762f, -0.01550555f, 0.05952413f, 0.01403972f, 0.04709277f, 0.02726801f, -0.08979115f, -0.03435029f, 0.02132480f, 0.03258812f, 0.05514133f, 0.05034315f, -0.06066161f, -0.05357194f, 0.03034847f, 0.02472756f, -0.04421028f, 0.00955512f, -0.02096285f, 0.02500995f, 0.03151487f, 0.00886707f, -0.05488128f, 0.05566830f, 0.00647631f, -0.04595105f, -0.00315411f, 0.02456577f, 0.00921588f, -0.04991928f, -0.00059215f, 0.01159041f, -0.07046448f, 0.01656291f, -0.05234475f, 0.01027102f, -0.01734408f, -0.01663397f, -0.00968387f, -0.07732779f, 0.04014670f, -0.04257659f, 0.02066272f, 0.08599241f, -0.04314625f, 0.02421408f, 0.00572666f, 0.01015383f, -0.02079812f, 0.01578717f, 0.03657800f, 0.04769187f, 0.08342703f, -0.02217287f, 0.01691096f, -0.02188653f, 0.01065017f, 0.00273898f, -0.03642161f, -0.03977871f, 0.01729388f, 0.01956052f, -0.03597294f, -0.01057444f, -0.05674643f, -0.03440637f, 0.04395980f, -0.02890082f, 0.04772206f, 0.07100666f, -0.00299737f, -0.02677410f,
