#ifndef PARAMETERS_H
#define PARAMETERS_H

const float W1[] = {-0.1358132809f, 0.0422009565f, 0.0513229035f, 0.0997414887f, -0.1464147568f, -0.0581629872f, 0.0368507355f, -0.1244053766f, 0.1279012561f, 0.0272483435f, -0.3924090862f, 0.0942548513f, 0.1243717000f, -0.1003219634f, 0.0628188550f, -0.6844087839f, 0.0278441571f, -0.0695776716f, 0.0543339700f, 0.0068730484f, -0.3677804768f, -0.1298098713f, 0.1286103725f, -0.1518711001f, -0.2742445171f, 0.1044634804f, -0.2094818503f, 0.0345376953f, -0.1153886169f, -0.0069186827f, -0.0589767434f, -0.0276042912f, -0.1208415404f, 0.3158518970f, 0.1946828216f, -0.3857821524f, 0.2325878888f, 0.1049344093f, 0.3864781857f, -0.0459546521f, -0.2662330568f, 0.1541629434f, -0.2066729963f, -0.0995538011f, -0.0723631904f, -0.1275226921f, -0.1453731507f, 0.2024839073f, -0.1712437719f, 0.2195401937f, -0.6421318650f, -0.3499412835f, 0.0666528791f, -0.1128998324f, -0.2536473572f, -0.2056439966f, -0.1358122975f, -0.1185124889f, 0.0936749279f, 0.2019479871f, 0.1372696161f, -0.0690105334f, 0.1711851954f, -0.0189265255f, -0.1642351151f, -0.7450899482f, 0.0618055463f, -0.1170124337f, 0.1180918366f, -0.0019871341f, -0.0302012041f, -0.0512984283f, 0.0943496078f, -0.0552168041f, 0.0774401575f, -0.1153428108f, -0.1047049910f, -0.2959189415f, 0.2017661184f, 0.0860261694f, -0.1006684899f, 0.2423991561f, 0.0614460446f, -0.0379341543f, 0.0938017070f, -0.6220709085f, -0.1777913123f, -0.0467118435f, 0.0197180975f, 0.1400732696f, -0.2984871566f, -0.1155031919f, 0.2014137805f, -0.2355285734f, 0.0329550579f, -0.0809290409f, -0.3461504579f, -0.0174810626f, -0.0766879842f, 0.3076976538f, -0.1037017927f, 0.5286155343f, 0.0047111623f, 0.0955106169f, 0.0072518694f, -0.0443685837f, 0.1193596274f, 0.1869686991f, -0.1590394378f, 0.2742146552f, -0.5137456656f, 0.0443955250f, -0.1112970039f, 0.0978304520f, -0.0467293859f, 0.2598181069f, 0.0905439183f, 0.0484685525f, -0.0318687074f, 0.0488913506f, 0.1398751885f, 0.0959931985f, 0.2270503938f, -0.2144997567f, 0.0786952004f, 0.3138697147f, 0.0460205413f, 0.2361017019f, -0.0621286333f, -0.0040687202f, -0.0321686417f, -0.0904034525f, -0.0847047493f, 0.0486011133f, 0.1543062627f, 0.0684030131f, -0.1705015749f, 0.1236683950f, -0.0925545022f, 0.2494868934f, 0.3901830018f, 0.1610686481f, 0.2033786178f, -0.1749869287f, -0.2666478455f, -0.1186632216f, -0.2124177814f, 0.0695839748f, -0.0852164328f, 0.1727266312f, 0.2993043661f, 0.1224454939f, 0.0449393429f, -0.0239957105f, 0.3687518239f, -0.0560086854f, -0.0786230564f, -0.1807515472f, 0.1867699325f, -0.0512893423f, -0.0058865664f, -0.1956337243f, -0.1216151193f, 0.0574294031f, 0.0634266734f, -0.1451041847f, 0.3798612058f, 0.0311156400f, -0.2761628330f, 0.0017525456f, -0.2154729366f, -0.0488099419f, -0.0073896535f, -0.0116386609f, -0.3571951091f, -0.0997992530f, 0.1429246813f, 0.1515219957f, -0.0738209486f, -0.0225901902f, -0.0505893379f, 0.0999754593f, -0.1260373741f, 0.1393217146f, 0.0268508699f, 0.0204995349f, 0.0662859231f, 0.1333010048f, -0.0766177177f, 0.4051729441f, 0.5718061924f, 0.1998796463f, -0.1518612355f, 0.1782495081f, -0.1200101227f, 0.0475579947f, -0.1125224158f, -0.1951372921f, -0.3196546435f, 0.1801448315f, -0.5965371132f, 0.0904617980f, 0.1967796981f, -0.1983222812f, -0.1043540463f, 0.1563846320f, -0.1165956408f, 0.1996735930f, -0.2372638434f, 0.1734082699f, -0.0439716913f, -0.0244502127f, -0.0532488562f, 0.0378563739f, 0.2554787099f, -0.0465317331f, 0.2984480262f, -0.0337075219f, 0.0824707001f, 0.4135092795f, 0.2216847539f, -0.2508971989f, -0.0240234584f, 0.0263267737f, -0.0594574623f, 0.3438545763f, 0.0032875345f, -0.1980983764f, 0.2410922796f, -0.0430460498f, -0.0601303242f, 0.0020880853f, 0.0435613431f, -0.0620423034f, -0.1907025278f, 0.0555436648f, -0.1675383449f, -0.1858336180f, 0.2060676962f, -0.0170308705f, -0.1906560212f, -0.2111053914f, -0.3865737617f, -0.0483423956f, 0.0435774997f, 0.5788104534f, 0.0929377824f, -0.0180973746f, 0.0410345346f, -0.0260222908f, 0.1285723597f, -0.1247080937f, 0.0647556633f, -0.0296989176f, -0.3551373184f, 0.2799923122f, 0.0789187402f, 0.0491120033f, -0.0266616885f, -0.0739996955f, 0.2622043192f, 0.1744724214f, -0.1871765852f, -0.1714615673f, 0.0137709752f, -0.0297808591f, 0.0115897562f, -0.0217264872f, 0.1908973008f, 0.2412214875f, -0.0618330687f, 0.0219846293f, 0.1416307986f, 0.2548725307f, 0.0376630500f, -0.2045553327f, -0.1381165683f, -0.2305513620f, 0.2168381661f, 0.1275030673f, -0.1276258379f, -0.0336483568f, -0.0136327343f, -0.2234978825f, 0.3485970199f, -0.0390931927f, 0.1075638682f, 0.0170821100f, 0.1240349784f, -0.0145694008f, 0.0877134353f, 0.0748710036f, 0.0101510417f, 0.2664880157f, 0.2014650106f, 0.7541211843f, 0.2151705921f, -0.1297776848f, 0.1546872258f, -0.0312949009f, -0.1779256314f, -0.1864575893f, -0.1743185520f, 0.1271228194f, -0.1715985090f, 0.2752915323f, 0.0975627825f, 0.0506969504f, -0.0250924453f, -0.0671962202f, -0.0028955224f, 0.2968109250f, -0.1395362169f, -0.1143113747f, -0.2294847518f, 0.1389646679f, 0.0642622933f, -0.2037211061f, -0.0330469534f, -0.0443882123f};
const float b1[] = {-0.0258029848f, 0.0020953023f, 0.0162367225f, 0.0102426121f, 0.0065347203f, 0.0067200419f, 0.0012556621f, 0.0441253632f, 0.0032963797f, -0.0047304467f, -0.0118143391f, -0.0004797124f, -0.0180955064f, 0.0053486461f, -0.0118914116f, 0.0352740325f, 0.0109114870f, 0.0033459933f, 0.0163620450f, 0.0131361661f, 0.0213753190f, -0.0148807773f, 0.0313357301f, -0.0323181339f, -0.0200722087f, -0.0625364259f, 0.0201225467f, -0.0330053717f, -0.0074414387f, -0.0109851174f, -0.0071475916f, -0.0006707971f, 0.0126939844f, 0.0027539302f, -0.0199331585f, -0.0059881266f, -0.0134162195f, -0.0003091501f, 0.0082869940f, -0.0077893720f, 0.0204798505f, 0.0078330524f, -0.0181588456f, 0.0055229999f, -0.0035169281f, -0.0310103297f, -0.0085616307f, 0.0013645346f, 0.0409862362f, -0.0034286669f, -0.0016044404f, -0.0177872088f, -0.0041543129f, 0.0036234378f, 0.0146111697f, 0.0031359470f, 0.0258962568f, 0.0222427733f, 0.0140057690f, -0.0036075986f, 0.0350805856f, -0.0012534633f, -0.0103732506f, 0.0010615939f};
const float W2[] = {-0.1517520994f, -0.2569245994f, 0.2925455272f, 0.1765576303f, 0.2048167437f, 0.1412238479f, -0.0291127060f, 0.3593081534f, 0.1136434227f, 0.0758287460f, 0.1445174813f, 0.0075828424f, 0.1966487318f, 0.1574816704f, -0.0206215121f, 0.0380635336f, -0.1956061572f, -0.1117843240f, 0.1897431910f, 0.0838086382f, -0.1554902941f, -0.0491894037f, 0.0357901156f, 0.1491696239f, -0.2248590738f, -0.1825266480f, 0.0797553957f, 0.3679941297f, -0.2522914112f, -0.3584044874f, 0.0869941190f, -0.0459801741f, -0.3488081992f, 0.1660263240f, -0.0003662155f, 0.0206693783f, 0.0643671453f, -0.2066022158f, -0.1421967149f, 0.0644274801f, -0.0763050318f, -0.0079423040f, 0.0674157664f, 0.0181929413f, 0.3449722528f, 0.0071320697f, 0.0207847357f, -0.0455087051f, 0.1738846451f, -0.2672979534f, -0.1265538335f, -0.0587865561f, -0.3328247666f, -0.0447193533f, 0.0035252753f, -0.0215027221f, 0.3037798703f, 0.3853299320f, 0.2523192763f, 0.1267298460f, 0.0266329180f, 0.0064948727f, 0.1001940966f, 0.1904956251f, 0.0618996508f, -0.1567569524f, -0.3812268376f, 0.1328463852f, -0.1503821760f, -0.4417388737f, 0.0257082470f, -0.2222995013f, 0.4011653364f, 0.0538968481f, 0.0664927810f, -0.2374935895f, 0.0742641985f, -0.0397372730f, -0.0646969154f, -0.2545863092f, -0.0558898859f, -0.1458273381f, -0.0692059323f, 0.1320282668f, 0.0172666013f, 0.2032719702f, -0.0443338491f, -0.0468737632f, 0.1811193377f, -0.0424346924f, -0.0843455642f, 0.0659598410f, 0.2212734818f, 0.1069062874f, -0.1401175410f, 0.0520973764f, -0.1862160265f, 0.0392364450f, -0.1728766561f, -0.1084927991f, 0.1083608493f, 0.1485838443f, 0.2003176659f, -0.1521311253f, -0.0543595366f, 0.0247387160f, 0.0257747881f, 0.1023951918f, -0.0682270676f, -0.0557476953f, 0.1271940470f, -0.1154160202f, 0.3902400732f, 0.0393469557f, 0.0752892047f, -0.1144397333f, 0.1128075644f, 0.3409912288f, -0.2800339162f, 0.0112917684f, 0.4820671082f, 0.1490226388f, -0.0502658300f, 0.2295122594f, -0.1703634411f, 0.2597970068f, 0.1212700754f, 0.0073670601f, -0.0774797425f, -0.2042315751f, -0.0044556009f, -0.2428167760f, -0.0675500184f, 0.1803709716f, 0.3110330701f, -0.0927612111f, -0.1700703800f, -0.0057996553f, -0.1971577555f, -0.1112043858f, -0.1506666690f, -0.3527731597f, 0.1175903305f, -0.1339544356f, -0.1355753243f, -0.1627044827f, 0.0504518673f, -0.1215167940f, -0.0467515215f, 0.0141257867f, 0.0744671002f, -0.1795275062f, 0.0864074677f, -0.1526157856f, 0.0261526033f, -0.0063221417f, -0.1560046524f, -0.0739481151f, -0.2200476974f, -0.0297144148f, -0.0040896330f, -0.4722504318f, -0.3399732709f, 0.1491161436f, 0.1976989806f, 0.2398545295f, -0.1112556085f, -0.0625639781f, 0.0488340519f, 0.1839357018f, -0.1484606713f, -0.2426896691f, 0.3951828778f, 0.0622986592f, -0.3000271320f, 0.2597589493f, 0.0442471690f, 0.0973261967f, 0.3143567145f, -0.1018837169f, 0.1728346795f, 0.0722095743f, -0.1391093731f, 0.1039824337f, 0.1077371314f, 0.1771979332f, -0.0952461660f, 0.1159752458f, 0.1055581346f, -0.1654361933f, -0.0118157668f, 0.2247146368f, -0.1104861945f, -0.0186184756f, 0.0568757169f, 0.1388849914f, 0.0141422367f, -0.1550900042f, -0.0697915405f, -0.0546948127f, 0.1189352348f, -0.0097151622f, 0.0744257495f, -0.1853946149f, 0.2219999880f, -0.1330215186f, -0.0747951567f, 0.2315616310f, -0.0688950643f, 0.0737186074f, -0.2962778509f, 0.2024034560f, 0.0768043697f, -0.0242982972f, -0.0391868092f, -0.1815084815f, 0.0514089465f, 0.2334728986f, 0.1066441610f, 0.1896002889f, -0.0135224611f, -0.1245713830f, -0.3024906814f, 0.0066073085f, 0.4795054197f, 0.1668109596f, 0.0728760809f, 0.3073974252f, -0.0448619872f, -0.0179093163f, -0.3322989345f, 0.1834635735f, 0.0990675390f, -0.0982379541f, 0.3250104189f, -0.0148003353f, 0.2690374851f, -0.0215321258f, 0.0837468207f, 0.1975141019f, -0.1287357807f, 0.1431937516f, 0.0662572905f, -0.1640331894f, -0.3418175280f, 0.0925634429f, -0.2315046638f, 0.2392417192f, -0.0254631285f, -0.1498198360f, -0.2445058376f, 0.0281018056f, 0.1886362731f, 0.1963921487f, -0.3235239089f, 0.0519277453f, 0.5305156112f, -0.3172593415f, 0.1479051262f, 0.2280003279f, 0.1806495190f, -0.0180467889f, 0.0122236079f, -0.0591380671f, -0.0494171679f, 0.0400259271f, 0.2924925983f, 0.1438912451f, 0.0162626132f, 0.1342069060f, -0.1373301744f, -0.0707795545f, 0.2537547946f, 0.1751848757f, 0.1240495518f, 0.0826477930f, 0.2158667892f, 0.1523747891f, 0.0287611987f, -0.2262731791f, -0.0717560425f, 0.0178141035f, -0.2816321254f, 0.2725930214f, -0.0966958180f, -0.1231530458f, -0.1548036039f, 0.0202449858f, 0.0997152179f, -0.1007363871f, 0.0358669236f, -0.3186389804f, 0.0328580961f, -0.0592372976f, 0.2947184145f, -0.0560083799f, -0.2230085731f, -0.2563632131f, -0.0220455192f, -0.2233180553f, 0.0203746799f, 0.3664634228f, 0.0101375608f, 0.0142243449f, -0.0444968194f, -0.0538052917f, -0.0997748747f, 0.0659332722f, 0.1043893769f, 0.0410312302f, -0.2484101951f, -0.0765164867f, -0.1779903173f, 0.1534992754f, -0.2967910469f, -0.0872065499f, 0.2153490633f, -0.0353815369f, -0.1451058388f, 0.1926668733f, 0.0249993373f, -0.1926495731f, 0.1286825687f, -0.2434762865f, -0.0621034466f, -0.0879403353f, -0.2449437976f, 0.3266938925f, 0.1652052402f, 0.1055777147f, 0.0258335564f, 0.0569599122f, -0.2224197686f, -0.3759113848f, -0.1014413163f, -0.3046584427f, 0.0873385295f, -0.2457708716f, 0.0300712604f, 0.0774401054f, 0.1248538196f, -0.2459434569f, -0.1466764361f, -0.0554680303f, 0.1161437109f, -0.1606125385f, -0.0914556831f, -0.1425026804f, -0.2566248477f, -0.0292831082f, -0.3685361743f, 0.1991928369f, -0.2186311036f, 0.2414017469f, -0.0743877888f, -0.0494438484f, 0.2245744169f, 0.0897787437f, 0.2070587575f, 0.2299876958f, 0.0471561179f, 0.1992364675f, 0.1247913241f, 0.0442981981f, -0.2381857038f, -0.1003496498f, 0.1353871077f, -0.0004928260f, -0.3265042603f, 0.2387575507f, -0.0165312849f, -0.0700570047f, 0.0023189462f, -0.2661150694f, -0.1494574249f, 0.1904778928f, -0.2383216470f, 0.1444517225f, 0.1874468774f, -0.0874933004f, 0.0788583979f, 0.2625167668f, -0.0182596743f, -0.0154415946f, -0.1276429892f, 0.1127941012f, 0.0562849268f, -0.3996422589f, -0.0528893620f, -0.1072123200f, 0.1361390203f, 0.0955947340f, 0.1154517531f, 0.2405076325f, 0.0697271675f, 0.1510899067f, 0.3185048401f, 0.0021686354f, 0.2550861537f, -0.4855945408f, -0.1535061598f, -0.0982071310f, -0.1046363413f, 0.1883522868f, 0.3301523328f, 0.1523769051f, -0.0416372754f, -0.0384626314f, -0.1136378720f, 0.0152024366f, -0.1616117209f, 0.3084078133f, -0.0276258942f, -0.1329521835f, 0.0115321502f, -0.1913826615f, 0.2168933898f, 0.0074720751f, -0.1227101833f, 0.0117991352f, -0.0311909579f, -0.2540836930f, 0.0304677561f, -0.0150867878f, 0.3077827394f, 0.1506341994f, 0.0066453442f, -0.1071809456f, 0.0085530961f, -0.0414754450f, -0.0306029990f, -0.3379732370f, -0.0057695257f, 0.1278194487f, -0.2415882200f, -0.1769045740f, 0.0738200992f, 0.0681204498f, 0.2093767822f, -0.1769929528f, 0.0604428127f, -0.3061566651f, -0.1265800148f, -0.2509533763f, 0.1026788577f, -0.2081943452f, 0.1631470770f, 0.1872358918f, 0.0668606162f, -0.3616553843f, 0.0279709138f, -0.0647395402f, -0.1130651534f, -0.0750220343f, 0.0938333049f, 0.2206164598f, 0.2609389126f, 0.3590805233f, -0.1287395507f, 0.1873889863f, 0.1959811747f, 0.1415159702f, 0.2240051478f, 0.2237750590f, 0.1423795968f, -0.2036592960f, 0.0472762249f, -0.0748370737f, -0.0970524848f, 0.1317684948f, 0.1353407651f, 0.1397523582f, -0.1462605447f, 0.1034506783f, -0.1220735610f, -0.3895916641f, 0.1330465227f, -0.1886184663f, 0.1034701914f, 0.0536199994f, 0.0718869045f, 0.1045723259f, -0.0602827221f, 0.1700599641f, -0.1423243284f, 0.1969670057f, 0.3115490377f, 0.1153535172f, -0.0156972110f, -0.0137815364f, -0.1339893490f, -0.1745207310f, 0.1963934600f, -0.3022460639f, -0.1331170499f, -0.0580766760f, 0.0392922573f, -0.0177932940f, -0.1040898860f, -0.1175889894f, 0.2205424160f, -0.1574621648f, -0.0644121319f, 0.1067540795f, -0.1095537767f, -0.1986729652f, -0.1028024107f, 0.4849909544f, -0.1115618348f, -0.0155381449f, -0.4169396460f, -0.0218322612f, 0.0466199368f, -0.0082870359f, 0.3098293543f, -0.2075459510f, 0.2205198854f, -0.1111555770f, 0.0887199193f, -0.1809985638f, 0.1348458230f, -0.0181833412f, 0.3047477603f, -0.0870352164f, -0.0974470004f, -0.1645367593f, -0.0171850398f, 0.2394381762f, -0.0802089870f, -0.0480686910f, 0.1005354896f, -0.0173978619f, 0.3081165850f, -0.1982428581f, 0.3970298171f, -0.0054123248f, 0.0817778334f, 0.0042069303f, 0.1653265357f, 0.1250640899f, 0.0081843864f, 0.3903408647f, -0.0569342673f, -0.0468036756f, -0.0475057028f, 0.3142192662f, 0.0084071718f, -0.1132358238f, -0.2279680967f, 0.0573917665f, -0.1054637134f, -0.2919584513f, 0.0824391171f, 0.4131908715f, -0.0067622317f, -0.0034500633f, 0.0113176713f, 0.1775700301f, 0.0250346176f, -0.1798824221f, 0.0503229499f, -0.0784120336f, 0.0860216841f, -0.1509830803f, -0.0547309108f, -0.0192939285f, -0.2171176225f, -0.2501714230f, -0.1447879970f, -0.1058862582f, 0.2132509053f, 0.2502811253f, -0.3081782758f, -0.1838501841f, -0.2452235967f, 0.0979974046f, 0.1267360300f, -0.1956413835f, 0.0838671327f, -0.0096550053f, -0.0870104730f, 0.0475716330f, 0.1620474756f, -0.2465123981f, 0.1827804297f, -0.1439770907f, -0.2846165895f, 0.1644994617f, 0.0255327281f, 0.1293056607f, -0.2571129501f, -0.0087170899f, 0.0696729794f, -0.0755917504f, -0.4579377472f, -0.1011184677f, -0.3429248333f, -0.1567761898f, -0.0647862479f, -0.0123595148f, -0.3683624864f, 0.3117570877f, 0.0170504246f, -0.0661122054f, -0.4370942414f, 0.0963947624f, -0.3761449158f, -0.0229736846f, -0.3205131888f, 0.0923227668f, -0.1401697248f, -0.0520994402f, -0.1502831727f, -0.1615212858f, -0.1390276849f, -0.1974233687f, -0.1050344706f, 0.0383569039f, -0.0427815057f, 0.0230627283f, -0.0163507629f, 0.0618369617f, 0.1742091179f, -0.1182943359f, -0.0724365115f, -0.0973079428f, -0.1507365108f, -0.0155185722f, 0.1672253609f, 0.2106828988f, 0.1953482479f, 0.1890876293f, 0.0400089398f, -0.2027366310f, 0.0056804600f, -0.1866149008f, -0.1232869327f, -0.1222928017f, -0.1158533841f, 0.1775630713f, -0.0564953536f, 0.1313771605f, 0.0988902822f, 0.0317798816f, -0.1588491648f, 0.4350699186f, -0.2441646606f, 0.0617303476f, 0.1478080302f, -0.0922150016f, 0.0239036772f, -0.0933863744f, 0.1635530442f, -0.2438862920f, -0.0993167087f, 0.1832924485f, 0.1535848230f, -0.2207297683f, -0.2960689664f, -0.2684504092f, 0.1724588275f, 0.1681210101f, 0.1696631014f, -0.0500137247f, 0.1539092064f, 0.0695782304f, 0.0966602862f, -0.0285623912f, -0.3670416176f, -0.2150668800f, -0.0245215558f, 0.0769208446f, 0.4021478891f, -0.0212305747f, 0.1510539651f, -0.1598544568f, 0.1771035492f, 0.0426206626f, 0.3255063593f, -0.0920674279f, 0.0769740790f, 0.0389217474f, -0.0423458219f, -0.0067042187f, 0.1004834101f, -0.1521785706f, 0.0827301964f, -0.2332546115f, 0.2627012730f, 0.0137728052f, 0.1780259907f, 0.1287264377f, 0.0408422947f, 0.2840645015f, 0.2800956368f, -0.1789498776f, -0.0481527299f, 0.3217895031f, -0.0092506800f, -0.0639274046f, -0.2127101421f, 0.1111380830f, -0.0842323750f, -0.0163552146f, -0.3092181683f, -0.3212866783f, -0.2971732914f, 0.3325151503f, -0.2374448925f, -0.1557390839f, -0.1467815489f, -0.0700708404f, -0.1743189842f, 0.1439969242f, 0.1153990999f, 0.0608814582f, -0.1245118976f, 0.1430417150f, -0.1454737782f, -0.1488853544f, -0.0485935882f, -0.0400708765f, 0.0810464323f, -0.0773817450f, 0.0466610566f, -0.0469038524f, 0.0272366609f, -0.0648402125f, 0.0197850205f, -0.1156603619f, -0.1922275573f, 0.2100673616f, -0.3538683951f, -0.0949453339f, 0.1497429460f, 0.2418792844f, 0.1021748781f, -0.0965590924f, 0.1193551645f, -0.0514262095f, -0.3392498493f, 0.2417210490f, -0.3006814420f, -0.3874095678f, 0.2417913973f, -0.0634246171f, -0.0092496341f, -0.1378517449f, -0.1211199313f, -0.3269001245f, 0.1448576897f, -0.0071172644f, 0.0037600475f, -0.2500479221f, -0.0305805355f, -0.2276212573f, -0.2565439343f, -0.1638887227f, -0.0106715839f, 0.1324259788f, -0.1944359839f, 0.0044893264f, -0.1254057735f, -0.2070698291f, -0.2258731574f, -0.1661294997f, 0.0456042290f, -0.0476747863f, 0.0657861680f, -0.1969339550f, -0.0403558351f, 0.0387396477f, -0.1324587315f, 0.0495096743f, -0.0452423841f, -0.1978111863f, 0.0552277975f, 0.0847847685f, -0.2327841073f, -0.3320278823f, -0.0921031460f, 0.0613164157f, -0.1066725254f, 0.2151243985f, -0.5051093102f, 0.0047909464f, -0.0836256966f, 0.0499699675f, 0.2821085155f, 0.0350437090f, -0.1209180057f, 0.3694697618f, 0.1757823527f, 0.1695355475f, -0.0099284155f, -0.1546453983f, 0.0664548650f, -0.0567958951f, 0.1232805774f, -0.0485341065f, -0.0299590547f, 0.2141545862f, -0.3306365609f, -0.1434408426f, 0.0192530435f, 0.0672859102f, -0.0168718658f, 0.0465774424f, -0.2718735337f, -0.1641633064f, -0.2387137413f, -0.1067497060f, -0.0638009310f, 0.0198558290f, -0.1267808676f, -0.2239905745f, -0.2750301063f, 0.0917863399f, 0.1143211052f, -0.3452508450f, -0.1336722970f, -0.1351584494f, 0.1877946109f, -0.2715102732f, 0.0858002529f, 0.2191084027f, -0.0210744850f, -0.2630361021f, 0.2765927315f, 0.0150484405f, -0.1972984225f, 0.0756434500f, 0.1399669349f, -0.1341677457f, -0.0855814591f, -0.0199809894f, 0.1840842068f, -0.1209277213f, 0.1439680755f, -0.0444827452f, 0.0387866907f, -0.1394327730f, 0.0757251009f, -0.2067045122f, 0.1806241423f, -0.0021287289f, 0.0810108781f, -0.1098149717f, 0.4135834575f, -0.0309864692f, 0.0622296482f, -0.0331434198f, 0.0189893711f, 0.0963918939f, -0.1879491508f, 0.1172119975f, -0.0319789462f, 0.2414501011f, 0.0251075216f, 0.2706952989f, 0.1296416521f, -0.1065424830f, -0.1841064990f, 0.2134488672f, -0.0489990152f, -0.0708306283f, 0.1864810437f, 0.3577352762f, 0.0357012525f, -0.0159428306f, -0.3058054149f, 0.1798170656f, -0.2533134818f, 0.0263248961f, 0.0400231071f, 0.0118590565f, -0.1429038048f, -0.1507499814f, -0.0500898510f, 0.0372397676f, -0.0749567002f, 0.1924172938f, 0.0261352379f, -0.4220176637f, 0.2624277472f, 0.1009288803f, 0.3900976479f, -0.2808743417f, -0.2349472791f, 0.2966296971f, 0.2488571852f, 0.1728922427f, -0.1644128412f, -0.0511255264f, 0.0801911354f, -0.1896705180f, 0.2767964303f, -0.0298980977f, 0.0808575526f, -0.0649792552f, 0.0541793816f, 0.0272828788f, 0.0211777370f, -0.0473066419f, -0.1857459992f, 0.4035557806f, -0.2030749470f, 0.0783152580f, -0.0564993583f, 0.0005941324f, -0.4111250043f, 0.0107012065f, -0.1313390136f, 0.4197242856f, 0.1702710688f, -0.0112348991f, -0.0810379833f, -0.0177991856f, 0.0185702052f, -0.0372193456f, 0.0356533267f, 0.0189601984f, -0.2646891773f, 0.2044762671f, 0.0349293649f, -0.1500532925f, 0.0419056155f, 0.1576718837f, 0.3525249362f, 0.2448282093f, -0.0525698476f, -0.1941570342f, 0.1973655075f, 0.0795878544f, -0.2456691712f, 0.1123300046f, 0.1466565281f, 0.2007510960f, 0.2168915123f, 0.0890974700f, -0.1239296123f, -0.2249017209f, -0.1703729331f, 0.1786327958f, -0.0847113505f, -0.1410197914f, -0.0016935238f, 0.1747161299f, 0.2823280692f, 0.0273681767f, 0.1939688176f, -0.0049914964f, 0.3693224490f, -0.0508477017f, 0.2099973857f, -0.0094243446f, -0.3464571238f, 0.0610710867f, -0.1339386404f, 0.1856578737f, 0.0048340606f, 0.0426972359f, -0.1640287638f, -0.0123325512f, 0.4488992095f, -0.3232913911f, 0.0269686654f, 0.1185538247f, 0.2998178899f, 0.1505919844f, 0.0304588638f, 0.0689416379f, -0.1610007882f, 0.0684155002f, 0.0424839929f, 0.1232061014f, -0.0904008523f, 0.1823143214f, 0.0562971719f, -0.2641032636f, -0.0334088802f, 0.1698912531f, 0.1046336070f, -0.2369270027f, 0.1953713000f, 0.1080830544f, -0.0851120502f, -0.1011199206f, -0.3201543689f, -0.0018818333f, 0.1096977741f, -0.1933017969f, 0.1160638556f, 0.2530004382f, 0.2326610684f, 0.2922935784f, 0.2186506987f, -0.2086964399f, -0.1455033720f, -0.3303781152f, -0.0591408461f, 0.0540698320f, -0.0666698217f, -0.4328408241f, -0.0741607770f, 0.0199297275f, 0.0075249644f, -0.0933007747f, 0.0387870073f, -0.2477821857f, 0.1083939523f, 0.0285480022f, 0.1979560405f, -0.0264336020f, 0.0638752803f, 0.2863338292f, 0.1021052301f, 0.0825017467f, 0.2158199549f, -0.2381612659f, 0.3417892158f, -0.0082531199f, 0.1004906371f, -0.2595085800f, -0.3046149313f, -0.2070801407f, -0.0369993113f, -0.1203102767f, 0.0553834997f, 0.0937371850f, 0.1352581829f, 0.1292333901f, -0.0416912101f, -0.1830290705f, 0.0002232592f, 0.0594507679f, 0.4808286130f, -0.2871818244f, -0.1352220774f, 0.2494738847f, 0.0893742070f, 0.0549420714f, 0.0895897374f, -0.2858916223f, -0.1069041640f, 0.1505193412f, -0.4061620831f, 0.0703947321f, 0.4494035244f, 0.2837896943f, -0.4088874161f, -0.0751755536f, 0.1580610871f, 0.0580592006f, -0.0394068472f, -0.0149715729f, -0.0755029991f, -0.0103895422f, -0.0416678302f, -0.0870575458f, -0.0948914737f, 0.2191101909f, -0.0750502124f, 0.0179682281f, 0.0186607838f, -0.0488465056f, 0.0891098008f, 0.0377774723f, 0.0041550612f, 0.0825267211f, 0.0220267344f, -0.3367089629f, -0.0718293861f, 0.0981813744f, -0.1280000955f, 0.2872387469f, -0.0803045183f, 0.0207989383f, -0.3116605580f, 0.0173810907f, -0.0060712029f, -0.0335248560f, 0.2179460227f, 0.0116475625f, 0.0464298762f, -0.2210221887f, 0.1625163406f, 0.2019867450f, -0.1011779681f, -0.0923359990f, 0.2954552472f, 0.2778348923f, 0.0431553014f, 0.1666019410f, -0.2063024342f, -0.3342252076f, 0.0147043429f, -0.0691432953f, 0.0014235511f, -0.1188650504f, 0.1170403361f, -0.0007763090f, 0.1140264943f, 0.0211771838f, -0.1359114796f, -0.0396922566f, 0.1636437029f, -0.1766075790f, -0.1119092032f, 0.2550165951f, 0.0008083355f, -0.4867674708f, -0.1134263873f, -0.0306345131f, -0.2892817259f, 0.0100510130f, 0.0655945316f, 0.1148330197f, -0.1040476933f, -0.1672424823f, -0.0825677961f, -0.1356447786f, -0.0345367119f, 0.0303045437f, 0.2294711769f, -0.0629809052f, -0.0867890492f, 0.0830548033f, 0.3133034706f, 0.1455440819f, -0.0555471629f, 0.3679054081f, -0.1199372634f, 0.1232435256f, -0.0992462710f, -0.3050970435f, -0.3142573833f, -0.3543572426f, -0.0471993648f, -0.2714636028f, 0.0841633901f, -0.1978387684f, 0.1421249658f, 0.1015744358f, 0.0159560964f, 0.0402085856f, -0.1613047123f, 0.1857888103f, 0.0376873054f, 0.0905078799f, -0.0612180829f, -0.2792913318f, 0.0525398478f, -0.1561632603f, -0.0965560526f, 0.0266868398f, 0.0640521944f, 0.0004693114f, 0.2651405931f, -0.0590392612f, -0.1084193140f, 0.1939993948f, -0.1241094097f, -0.1047884226f, -0.1748402715f, 0.0331474021f, -0.0251795538f, 0.1486160755f, 0.0568526685f, 0.0737972111f, 0.1299351752f, -0.1958478093f, 0.0902033821f, -0.0315418653f, 0.0034744896f, -0.1625462174f, -0.4807347953f, -0.0608616732f, -0.1122484356f, -0.4216274321f, -0.2266434133f, 0.1476482451f, 0.1059654206f, 0.1298129708f, 0.0541185066f, -0.0325851552f, 0.2808263898f, 0.1573625058f, -0.0274049211f, 0.1127070114f, 0.1678178161f, 0.1079159603f, 0.1136626378f, 0.1506118327f, 0.4679832458f, 0.0000053562f, -0.1071649194f, 0.0612546019f, -0.0885013491f, -0.1320928782f, -0.0391835496f, 0.1624352187f, -0.0842396840f, -0.1979337037f, -0.3989018202f, 0.4011392295f, -0.0672466755f, -0.3205847740f, 0.1374590844f, 0.0469476767f, 0.0231510773f, -0.0166384410f, 0.2073364705f, -0.0248126462f, 0.2471990436f, 0.1389958262f, -0.0868839398f, 0.0253506042f, 0.3308994770f, 0.2361639291f, 0.0649862215f, -0.1894689947f, -0.0307523794f, 0.0302508902f, 0.0873331502f, -0.0867556557f, -0.0632531866f, -0.1081829071f, 0.0122529380f, 0.3290483952f, 0.0925305709f, -0.0709441528f, -0.0428496078f, 0.2769113183f, -0.1544984877f, 0.0912478641f, 0.1323333383f, 0.0754189044f, -0.0213697646f, 0.3146086335f, 0.0818841830f, -0.1776731163f, -0.3207251728f, -0.2075831145f, -0.1651798338f, 0.0042892578f, -0.2720267475f, -0.1620169431f, -0.1101030111f, -0.0744655803f, 0.2409477234f, 0.2521208525f, 0.4445902705f, 0.0269562434f, -0.0249606054f, 0.0158013739f, 0.1755032688f, 0.0030221760f, -0.1249967813f, -0.0532603711f, -0.0817378610f, -0.1068983823f, 0.3254024684f, 0.2396997213f, -0.0762892067f, 0.0366565920f, 0.2079993933f, 0.1813424230f, -0.0877608061f, -0.0311208889f, -0.1295619011f, -0.2750153542f, 0.0969004035f, -0.0300223324f, -0.1165203452f, -0.0336838476f, -0.2764583528f, -0.5050314069f, -0.0940320715f, 0.0667224005f, 0.1064604297f, 0.1050821990f, 0.0084787421f, -0.4315200746f, 0.0715655163f, -0.2052454352f, -0.3025935590f, -0.0064914515f, -0.2077451795f, -0.2782545090f, 0.3422545791f, -0.1337870657f, 0.0897796601f, 0.0414407514f, -0.1044588387f, 0.2005112320f, -0.1160939261f, 0.0741452351f, -0.0352569073f, -0.2612254322f, -0.2130488604f, 0.0849237591f, 0.0838411152f, 0.1691483408f, -0.1470899135f, -0.4945583940f, -0.1799829751f, -0.1041718423f, 0.1212119684f, 0.0329890996f, -0.0911298394f, 0.3159031868f, 0.0483072326f, -0.1527498662f, 0.1630809605f, 0.0519197769f, -0.0269603282f, -0.0719240382f, 0.0932821184f, -0.0436083935f, 0.1334128529f, -0.2247681767f, -0.1496997178f, -0.1876585931f, 0.1597247571f, 0.0555202812f, 0.1357407421f, -0.1233240888f, -0.1567055285f, 0.1199841499f, -0.1958123744f, -0.3405428827f, 0.0477374047f, 0.0471037775f, 0.1050011739f, 0.2294524759f, 0.3137198985f, -0.0305705462f, 0.0778707415f, -0.1650919765f, -0.1100973859f, 0.0876409411f, -0.1651033908f, 0.1401691735f, 0.2708563209f, 0.1884025931f, -0.0938406363f, -0.3299513161f, -0.0395366102f, -0.3190580308f, -0.1488864869f, -0.2321323603f, 0.1076289937f, 0.0874460787f, -0.1839209497f, -0.0833671242f, 0.0339165032f, -0.0881360024f, 0.0155892158f, -0.1470726579f, 0.0499826968f, -0.3862504959f, 0.2324128002f, -0.2623433173f, 0.1549845636f, -0.1229488552f, -0.1495081037f, -0.3055963516f, -0.0453456119f, 0.0436324663f, 0.2096949965f, -0.1240183488f, -0.0999461338f, -0.3087779284f, 0.0565953664f, 0.0288731344f, 0.1542090029f, -0.0882989019f, -0.0121870702f, -0.0714925528f, -0.1303460002f, 0.0516804121f, -0.1664849967f, 0.2910294533f, -0.2028813362f, -0.3142364025f, -0.1644624919f, 0.1772334874f, 0.0786822140f, 0.0890132114f, 0.3564521074f, -0.1024226546f, -0.1703496128f, -0.1413764805f, 0.1487735808f, 0.2712825537f, -0.1769123375f, -0.0887397304f, -0.0384107679f, -0.0994054526f, 0.1963186264f, 0.0045243986f, 0.1008640528f, 0.2949652970f, -0.0406755470f, -0.3556648195f, -0.0181020927f, 0.0454709418f, 0.0221545249f, 0.0926835984f, 0.0991206914f, 0.2053337246f, 0.0344995484f, 0.1614916623f, -0.2428921759f, 0.0963913053f, 0.0258330796f, -0.1246702597f, 0.2019431293f, 0.0231261346f, -0.1834869236f, -0.1440832019f, 0.0010497642f, -0.1957952976f, -0.1424293965f, 0.1228720173f, 0.2221552730f, -0.1384236515f, 0.2927653491f, 0.2344233543f, -0.4500012696f, 0.2950830460f, -0.3715720177f, 0.3133834004f, -0.0287660975f, -0.2349299341f, -0.0636110529f, -0.0228722338f, -0.3220180273f, 0.0801702291f, 0.3031042218f, 0.0004349885f, -0.1899692267f, 0.0760875195f, -0.3423655033f, -0.0047372822f, 0.0067592761f, -0.2917185426f, 0.0416868702f, 0.1039188132f, -0.2024520487f, -0.0814014673f, 0.0760119781f, 0.1217414513f, 0.0032010269f, 0.2165925950f, 0.0725251138f, -0.0009092807f, 0.0415835828f, -0.0025731195f, 0.0533480607f, -0.1250135005f, 0.0313457251f, -0.0000149410f, 0.1464497149f, -0.1190697849f, 0.1650603265f, 0.3090605736f, 0.0014510978f, 0.1634163260f, 0.2499442250f, 0.0382702164f, -0.1063028425f, -0.1304539442f, 0.1498486400f, 0.2107460350f, 0.0284460951f, 0.1019501686f, 0.2448709458f, 0.1901210845f, 0.2500873208f, 0.0930821300f, 0.1571541429f, 0.0515200607f, 0.1283026338f, 0.0713649839f, -0.0219558198f, 0.1396546364f, -0.1623776406f, -0.3315196931f, -0.0381280817f, -0.0513097346f, 0.1359279603f, -0.2647196949f, 0.1912743300f, 0.1123088151f, -0.0827740356f, -0.1724613607f, -0.0152212474f, -0.0295082945f, 0.1264783442f, 0.0173843913f, -0.1831858754f, 0.4362401962f, 0.0864375755f, -0.0682078972f, 0.1454988718f, -0.2672767043f, 0.0432720520f, 0.1707209945f, -0.2961094081f, -0.1606844962f, 0.1220602095f, -0.2525827587f, 0.2147656083f, 0.0712489486f, -0.0691673607f, 0.1712826192f, 0.0685526952f, 0.0995571911f, -0.0658270940f, 0.0038413873f, 0.1011255980f, 0.1222588047f, 0.4143597186f, -0.0595609061f, 0.1396700889f, -0.1517076045f, 0.2674847543f, -0.2151763588f, -0.0521051958f, -0.1253230870f, 0.3721853197f, -0.1344247162f, 0.1338406503f, -0.3877870739f, 0.2338807583f, 0.0773547590f, -0.2716129422f, 0.1864235401f, 0.0564654693f, -0.2217098922f, -0.3563910425f, 0.0272676367f, 0.0611077212f, -0.0904660150f, -0.1290502548f, 0.2007155567f, -0.1170842052f, -0.0681425259f, -0.0180579517f, 0.3965193331f, -0.1022295728f, -0.1087497845f, -0.1191418096f, 0.0415977202f, 0.1953886747f, -0.0409468338f, 0.0980968624f, 0.2831349671f, 0.0937985852f, 0.1934759468f, 0.0688429028f, 0.1834063530f, -0.0595962778f, -0.1517275125f, -0.0310882274f, 0.3526271582f, -0.0607414395f, -0.4021830559f, 0.0449477546f, -0.0060981601f, 0.1889768988f, -0.0826180801f, 0.0337543637f, 0.2608880401f, 0.0480633229f, 0.4386940002f, -0.0039143986f, 0.0502273403f, 0.0327029265f, 0.1143784598f, -0.3040994108f, -0.1066292971f, 0.0499925017f, -0.1897418201f, -0.2054716051f, -0.1207237765f, 0.0441799313f, -0.0293293167f, -0.1500485688f, 0.1416007280f, -0.0699341819f, -0.1364666224f, -0.0313263088f, -0.0353889987f, 0.0213731695f, -0.3682072163f, 0.2322710603f, 0.0858065262f, 0.1437802911f, -0.1031652540f, 0.0666405261f, -0.0243555531f, -0.1793962121f, 0.0343124792f, -0.0072942623f, -0.0432955809f, 0.0880891085f, -0.2039768249f, 0.2372910827f, 0.2372245640f, -0.0297400393f, 0.0856032521f, 0.0567734875f, -0.1504961401f, -0.0222521406f, -0.0825052708f, -0.0296478532f, -0.1691770107f, 0.1187970787f, 0.3294887543f, 0.1361959428f, 0.1137765944f, -0.1897366792f, -0.0868967995f, 0.1951040179f, -0.2258428931f, 0.2767313719f, -0.0075148353f, 0.2037933171f, 0.2761593461f, -0.0102906357f, 0.1891845316f, -0.2426157445f, 0.3150155544f, 0.2685244977f, -0.1438034028f, -0.5052685142f, -0.0847498477f, 0.1106560007f, -0.1107811555f, 0.2102327794f, 0.0738474503f, -0.2095926553f, -0.0551719069f, -0.0800108686f, -0.1272327155f, 0.0181160253f, -0.2136866301f, 0.1383033842f, 0.2549885511f, 0.0454881974f, 0.1262450665f, -0.1834128946f, 0.0877960846f, -0.2629950941f, 0.2024330795f, -0.0702451020f, -0.1754604429f, 0.0255027227f, 0.0576373897f, -0.0461747758f, 0.4221489131f, 0.0628897399f, -0.1661015302f, -0.1259355694f, 0.0145073375f, 0.1152439713f, -0.0358242355f, 0.1122352630f, -0.1605003476f, -0.0394036919f, 0.3715951741f, 0.2942839861f, 0.1191186234f, -0.0786540136f, -0.0098896464f, 0.1724694371f, 0.1799128205f, -0.1003826112f, -0.0204250384f, -0.1502983868f, -0.2909360826f, -0.1708047390f, -0.0603813790f, 0.2849434018f, 0.3351452947f, 0.0527293123f, -0.0997754708f, -0.0645147115f, 0.0712101981f, -0.0183809940f, 0.0732632205f, -0.3543173373f, -0.3806395233f, 0.3101652563f, -0.2262508273f, -0.1862208396f, -0.0648484975f, -0.0247854348f, -0.2566439211f, 0.0635088235f, 0.0473067239f, -0.1191273853f, -0.1424505562f, 0.0747733563f, 0.3668283224f, -0.3056233823f, -0.2024910599f, 0.0981259048f, -0.0368420668f, 0.0434855185f, 0.2083040774f, 0.1122226268f, 0.0539044514f, -0.1695893258f, -0.1585325003f, 0.1364260912f, 0.2089827955f, -0.1043130010f, 0.1315918565f, 0.0623727962f, 0.1983105689f, 0.0697506294f, -0.0264554676f, 0.2727828324f, 0.1859225482f, 0.1854510307f, -0.0620993152f, -0.2461005300f, 0.0326354280f, -0.1146061271f, 0.0601101890f, 0.3166535497f, 0.0538706332f, 0.0251859482f, -0.2155851722f, 0.2898351848f, 0.0027835865f, 0.0451951176f, 0.0319695063f, 0.0758925825f, 0.2215359211f, -0.2630518377f, 0.1377212405f, -0.4034802318f, -0.0880547985f, 0.1912362874f, -0.1492428631f, -0.1963822097f, -0.2522161007f, -0.1084933504f, -0.2738142014f, 0.0633648783f, 0.0738848373f, -0.0075010234f, -0.3239624202f, -0.0559649505f, -0.3021266758f, -0.0705070347f, 0.1192578077f, 0.1545674205f, -0.0666638240f, 0.1057641953f, 0.3178128898f, -0.0090148449f, 0.1595252603f, 0.1540783495f, -0.0975886583f, -0.2943406701f, -0.0393281654f, -0.1221063957f, -0.0887940824f, -0.0756545588f, 0.1615692675f, -0.0987836868f, -0.3261862099f, -0.0534041636f, -0.0779464841f, 0.0796449110f, 0.0896535739f, -0.0705207959f, -0.1119163632f, -0.2040910274f, -0.2630008757f, 0.3428922892f, 0.0914282724f, -0.0397215299f, 0.2263717353f, 0.2229364812f, 0.1228573471f, -0.0564619303f, -0.0652713850f, -0.5444486737f, 0.0238108747f, -0.1519107670f, 0.2561163008f, 0.2003150880f, 0.1379777789f, 0.2164856791f, -0.0018108733f, -0.0171793140f, 0.1220141798f, 0.2884133458f, -0.2676489055f, -0.0491445437f, -0.1083921194f, -0.0711559132f, 0.3706306815f, 0.2820037901f, 0.0244334415f, 0.0104931863f, -0.0100349318f, 0.0877491310f, 0.1137108430f, 0.0006251106f, 0.0009379284f, 0.0995673090f, -0.2047298402f, -0.0336680114f, -0.0240566526f, 0.1361234784f, 0.0552981719f, 0.0027997985f, -0.1254769713f, 0.0970511436f, -0.2210660726f, 0.2012527883f, -0.4173021615f, 0.0246254560f, -0.0335744843f, 0.0793006867f, 0.0894255191f, 0.0184964091f, 0.1309430450f, 0.0021339813f, 0.2851976752f, 0.4601011872f, 0.1797866225f, -0.1349980980f, -0.1291700155f, 0.1755505949f, -0.3694322705f, 0.0075929123f, -0.0036726226f, 0.0232313424f, 0.0058381753f, -0.1386053711f, -0.0387543961f, 0.0406510904f, 0.0834643692f, -0.0315021574f, -0.0853524581f, -0.2807296216f, 0.0739519224f, -0.3377353847f, 0.1704587489f, 0.2468093783f, 0.0595798008f, 0.1125894561f, 0.0169710945f, 0.2480980903f, -0.3323310614f, 0.1830600947f, 0.1234229058f, -0.4358154833f, 0.1570608765f, -0.1310385615f, -0.3152840734f, -0.2948870361f, -0.1132127345f, 0.0308447126f, -0.1090670899f, -0.1007565185f, -0.1890222281f, 0.0870889202f, 0.1882560700f, 0.1846803725f, 0.2665886283f, -0.2800995409f, -0.0766118318f, -0.1682127118f, 0.2962535322f, 0.2973385155f, -0.2095797658f, 0.1078942269f, 0.0853753537f, 0.0037892354f, -0.1569475979f, 0.1493788362f, 0.0221684687f, -0.0983721614f, -0.0751482695f, 0.1040124893f, 0.2223532498f, -0.0702143535f, -0.0782741457f, -0.2920192182f, -0.1798426509f, -0.1280350685f, 0.0781787783f, 0.1329296976f, -0.0178107787f, -0.0298211742f, 0.0892933905f, 0.1122171283f, -0.0341459252f, -0.0785662383f, 0.0766298398f, -0.3738424480f, 0.0952777416f, -0.1243685186f, -0.0417482890f, 0.2607290447f, -0.0070423405f, -0.0106735267f, 0.2543852627f, -0.0172235873f, -0.1088300198f, -0.0589990057f, 0.0416393280f, -0.2735513151f, 0.1806459576f, 0.1195916682f, -0.0622395575f, -0.1680186689f, -0.2373975962f, -0.0966404751f, 0.0859904215f, 0.0214867499f, 0.1187063679f, 0.0222560484f, 0.0142395115f, 0.0526257940f, -0.1242331117f, 0.0659950674f, -0.0297255386f, -0.0475758798f, 0.0228991378f, -0.2003962249f, 0.3945501745f, 0.0532894358f, -0.0509916134f, -0.0393704176f, -0.2733153403f, -0.0443731435f, -0.0709176734f, 0.0457931533f, -0.0040759081f, -0.2906694114f, 0.1162556484f, -0.1381303966f, 0.1147437245f, 0.1078560203f, -0.2990702689f, 0.0539715551f, 0.0326995216f, -0.1140587553f, 0.0039815642f, -0.2179750800f, 0.1840963364f, 0.1092623770f, -0.1195608899f, 0.5098618269f, -0.1861629486f, -0.0893584490f, -0.2045460194f, -0.0587394647f, 0.0776335746f, 0.3466346264f, 0.1516572088f, -0.1134082451f, -0.2074210644f, 0.1612109393f, -0.3929855824f, -0.2663829625f, -0.3520913124f, 0.2414736897f, -0.0587310269f, 0.1657147706f, 0.0865893289f, -0.0460854024f, 0.1126250327f, -0.3074381948f, -0.0759132281f, -0.1452657133f, -0.2291520983f, -0.1187595874f, -0.0725440681f, 0.0137010692f, -0.1990209520f, -0.1244700626f, -0.0446373224f, 0.0321414918f, 0.2693860829f, 0.0272808839f, -0.1304429770f, -0.2183492631f, 0.1844116896f, -0.1967165917f, -0.0899944976f, 0.0272660386f, 0.3315882385f, 0.1464449465f, 0.2495023906f, -0.0148530072f, 0.0859854519f, -0.0221115965f, -0.1821693033f, 0.0709111765f, 0.0607548170f, -0.1957865357f, 0.0568658672f, 0.0316162445f, 0.0217344873f, -0.0219299179f, 0.2006393671f, 0.0857309774f, 0.0550094470f, -0.0212488528f, -0.1022359878f, 0.0848890692f, -0.0784610286f, -0.2289251983f, -0.0239470638f, -0.0934445336f, -0.0343418643f, 0.0588944592f, -0.0259658340f, -0.0878795013f, 0.0404989980f, -0.5923885107f, 0.1806087196f, -0.1067276672f, 0.2997631133f, 0.2062746137f, 0.3409183919f, 0.0637445748f, 0.0136268781f, -0.0836866274f, 0.2634248137f, -0.2569155693f, 0.5644966960f, -0.0658206046f, -0.0738783106f, 0.2112991661f, -0.1680643559f, 0.0677113831f, -0.3657927811f, -0.0582255535f, -0.1043336317f, 0.0839803815f, 0.2204214931f, -0.0674957186f, -0.2772540748f, 0.1855185032f, 0.0708707348f, 0.0964307487f, -0.3327608705f, -0.0192501191f, 0.1073517725f, 0.0838236362f, -0.1867602766f, -0.0985335633f, -0.1313518137f, -0.3649506569f, 0.0567204170f, -0.2968514860f, 0.1383611560f, -0.2287380397f, -0.0380217880f, 0.1608302444f, -0.0417504162f, 0.1503987014f, 0.0497092344f, -0.0573071428f, -0.0928141028f, 0.3605989814f, 0.3154505193f, 0.1516492814f, -0.1874327958f, 0.0203051101f, 0.0865592659f, -0.0336924605f, -0.2273078710f, 0.1622854620f, -0.1107727066f, 0.1625999659f, 0.2664198875f, -0.1334788799f, 0.0235373434f, -0.2056407332f, 0.1575858742f, -0.0791437551f, 0.1902791411f, -0.1155347750f, 0.3061206937f, -0.2208415717f, 0.3665182292f, -0.1258665174f, -0.1021407768f, -0.1396314055f, -0.1531419009f, 0.0182315614f, -0.0847020149f, 0.3210049570f, 0.2213990539f, 0.1295103282f, -0.0438056178f, -0.2113081068f, -0.0682555288f, -0.2692131102f, -0.0986328050f, -0.2583025098f, -0.1176874116f, -0.0492009744f, -0.1907032281f, -0.0056521599f, 0.1251776218f, -0.0217982307f, 0.1276554614f, -0.0360647477f, -0.3752500415f, 0.0494678430f, -0.1343942881f, -0.3394820094f, 0.0661572814f, -0.1229743585f, -0.2652544677f, 0.1377539188f, -0.2315292060f, -0.1013153642f, -0.0852520093f, -0.0104199508f, -0.1626995653f, -0.3322935998f, 0.2113384008f, 0.0903315693f, 0.0706256926f, 0.2995196581f, -0.0176650416f, -0.2271041572f, -0.0855940878f, -0.0184480101f, 0.1519950330f, 0.2803808153f, 0.0717178434f, 0.1973111629f, -0.1896320581f, 0.1580406874f, -0.1420587897f, 0.0379395522f, -0.0812408477f, -0.2575212121f, 0.0160795171f, -0.0849652216f, 0.1690779179f, -0.3097281456f, 0.1757497787f, 0.1517732888f, 0.1507011652f, -0.0925650746f, 0.2221979499f, 0.0650775060f, -0.3377933204f, 0.0193086527f, -0.2189515978f, -0.2273985296f, 0.1153803095f, -0.2611756027f, -0.1004641652f, -0.1942026019f, -0.0728596598f, -0.0265764222f, 0.2514831722f, -0.0334417485f, -0.1192208752f, -0.0188025404f, 0.2789442539f, 0.2138253152f, -0.0090187909f, -0.0501137227f, -0.0271319058f, -0.1663999557f, 0.0885178372f, -0.1524256766f, -0.0493401624f, 0.2107703537f, -0.2696749270f, 0.2782788277f, -0.1595362723f, 0.0299807414f, 0.0718431845f, -0.2611717880f, -0.1875471026f, 0.1303745359f, -0.1850442886f, 0.1379995793f, -0.1407912821f, 0.0268429685f, -0.2124618143f, -0.1385952979f, -0.1127892137f, 0.0961413234f, 0.3263945580f, 0.0650525466f, 0.2483124137f, 0.2209484577f, 0.3375873864f, -0.1647195518f, 0.1129323319f, -0.1557338685f, -0.1534010470f, 0.0785878748f, 0.0784066617f, -0.2478463948f, 0.0463452935f, -0.2838621736f, 0.2255388349f, 0.3079479933f, -0.1593834609f, 0.1323784143f, 0.3151886463f, -0.0501169823f, -0.2469721586f, -0.3680781424f, -0.0402489230f, 0.1435893327f, 0.0790184885f, -0.1027633995f, -0.0907401592f, -0.0326204039f, 0.2000353336f, 0.0389876962f, -0.2590503991f, 0.0217708573f, -0.1713566035f, 0.1594626009f, 0.0348467641f, 0.3462938964f, -0.1609070897f, 0.2411743551f, 0.0361071788f, -0.2953183055f, -0.2112325281f, -0.0551194213f, -0.2123065144f, -0.1305034906f, -0.1170889288f, -0.4091318250f, -0.0764204711f, 0.2052346766f, -0.3087178767f, -0.0588173158f, -0.1434820294f, -0.1091616005f, 0.1657866687f, 0.1186749637f, 0.0713072643f, -0.0453129783f, 0.0676032454f, 0.1354186982f, 0.2130512446f, 0.0466710404f, -0.1213028207f, 0.2732967436f, -0.0415899158f, -0.0478872061f, 0.0515849292f, -0.0484389737f, -0.1963830143f, 0.0801467672f, 0.0009798891f, 0.2586091757f, -0.0664175674f, 0.1278090775f, 0.1550880224f, -0.1071077883f, -0.2397053540f, 0.2333112657f, -0.2021826804f, 0.1091624051f, -0.0891191736f, 0.0904033333f, -0.0347225443f, 0.0738034546f, -0.0614436492f, 0.3062961102f, 0.1141649857f, -0.4641600251f, -0.0005257829f, 0.0605140291f, -0.1492156982f, 0.0614713058f, 0.0419476181f, -0.2600882649f, 0.0916708484f, 0.2294707447f, 0.2207283825f, 0.3111197054f, -0.0549659915f, 0.0913257152f, -0.0802594572f, -0.1661208123f, 0.0040931972f, -0.0450227223f, 0.0296262223f, 0.2419448197f, -0.0193821918f, -0.0234226063f, 0.1145726666f, 0.3774625957f, -0.1141004339f, -0.1588826925f, -0.0182163622f, 0.0846143365f, 0.3883078992f, -0.3157983124f, 0.0998147726f, 0.2481210381f, 0.5193076730f, 0.1693909168f, 0.0647085309f, -0.0351580977f, 0.0418863930f, 0.2677150369f, -0.2116100639f, 0.0746887401f, -0.3323101103f, 0.3281107247f, -0.0631151646f, -0.0254192874f, -0.0897539333f, -0.3590484858f, 0.1434144080f, 0.0990708172f, -0.0064904238f, -0.4795764983f, 0.0006930334f, -0.3141578138f, 0.0227468070f, -0.0217768531f, 0.1414815038f, 0.4106785655f, -0.0596771240f, -0.1909182072f, -0.0731644034f, -0.1771950424f, -0.0689900145f, -0.1015086696f, -0.0980604589f, 0.0039866650f, -0.0660860017f, -0.0678713843f, 0.0034481995f, -0.0679747015f, -0.0083005652f, 0.0557832718f, -0.1381375045f, -0.0732228383f, 0.1222040132f, -0.0285168197f, -0.1048076302f, 0.1249864921f, -0.1290860325f, 0.1762691438f, -0.0265197456f, -0.1496832818f, -0.2734923065f, 0.1509261578f, 0.1761881262f, 0.1556288898f, -0.2517877519f, 0.2434669882f, -0.0069354600f, -0.5244107842f, -0.1811197251f, 0.1046696454f, 0.1012664437f, 0.1168072969f, 0.0087179216f, -0.1501201093f, -0.0726225823f, -0.0379255004f, -0.1034059599f, -0.1464800686f, -0.0610698983f, 0.0241971109f, 0.0694326237f, -0.1911285371f, -0.0878008902f, -0.0793109089f, -0.0832175389f, 0.3453345895f, -0.2279378772f, 0.1427658498f, -0.2180431336f, 0.0931866467f, 0.0227967184f, 0.2190161645f, 0.2117489427f, -0.2054580748f, -0.2374907285f, 0.2061405480f, -0.0049092076f, 0.0929832980f, 0.2325310111f, -0.1387012154f, 0.3488155603f, -0.0487179086f, -0.1928396672f, -0.1821558475f, 0.1874001175f, 0.1804746985f, -0.1603354663f, 0.2830202281f, 0.2038500756f, 0.1241956651f, -0.0950113386f, -0.0678150356f, -0.0679754317f, 0.1211885959f, 0.2657238543f, 0.0411852077f, -0.0356395058f, -0.0782958493f, 0.0443957821f, -0.1527024209f, -0.2108521610f, 0.0050688018f, -0.2643696964f, -0.0389165618f, -0.2731752694f, 0.1647087634f, -0.0041074357f, 0.1772587448f, -0.0541600510f, -0.0097258957f, 0.0825146660f, 0.1649502814f, 0.2672235370f, 0.2730785012f, 0.1324799359f, -0.4979326725f, -0.3762616217f, 0.0221282374f, 0.1362017244f, 0.0908199400f, 0.3335726261f, -0.1021388173f, 0.2366099209f, -0.0959137157f, 0.0771523267f, -0.1124100611f, -0.1447461545f, -0.1451623440f, 0.2628874183f, 0.2662044466f, -0.1055335626f, 0.2068620026f, -0.0036139172f, 0.1346463263f, 0.0393097512f, -0.0672976375f, -0.2045204788f, 0.0166864954f, -0.1317401081f, 0.2794203460f, 0.0639858544f, -0.1239480451f, -0.0726467818f, 0.1910897791f, -0.2753748894f, -0.2640450895f, 0.1668924689f, 0.3316872120f, -0.2314027697f, 0.1793995947f, -0.2231834233f, -0.0818956941f, 0.0652105138f, -0.1451765001f, -0.0174745806f, -0.0986280367f, 0.0980277061f, 0.0709474832f, -0.0770674646f, 0.0435936712f, -0.0543357022f, -0.0535672009f, -0.2032520175f, -0.1640509814f, -0.1089833602f, 0.1365966499f, -0.1169935018f, -0.1997089237f, 0.1519643962f, 0.1516524255f, -0.3292604983f, 0.0026037663f, -0.0548039079f, -0.2634932101f, 0.0743928179f, -0.2602619529f, 0.2435394228f, -0.0807414502f, -0.0953543931f, 0.0317842215f, 0.0087180324f, 0.0082954047f, 0.1186910495f, 0.1663835943f, 0.1159315035f, -0.1166613251f, -0.3007946014f, -0.0673026666f, 0.1824115813f, -0.1220289618f, 0.0282050427f, -0.0060847448f, 0.0594326518f, 0.0956698954f, 0.1707411855f, -0.1113217473f, -0.1107176393f, -0.0166789778f, 0.2136152983f, -0.2371105999f, 0.2093487978f, -0.2248473614f, -0.2131063938f, 0.3056009412f, -0.0653600022f, 0.0278314967f, -0.2449943572f, -0.0942084566f, -0.1225471497f, -0.0426965989f, 0.1832748502f, -0.2424657345f, -0.1212991178f, 0.0124310022f, 0.2904008329f, 0.1872662753f, -0.1363049746f, 0.0300809536f, -0.2918971777f, -0.0541430712f, 0.2550685704f, -0.2012772113f, -0.1594249457f, -0.1003538817f, -0.3191068470f, -0.1601316780f, 0.3233581185f, 0.3959035277f, -0.0888258889f, 0.0091111315f, -0.0649872571f, 0.0447593220f, 0.1184936017f, 0.1313005537f, -0.0057633743f, 0.2143593431f, -0.1597761661f, -0.1670765579f, -0.1179182678f, 0.2080812603f, -0.0360445008f, 0.1368817240f, -0.0043246802f, 0.3051487803f, -0.2711040378f, -0.0760800764f, -0.0453574210f, -0.4238037467f, 0.2738681436f, -0.0567634031f, -0.1283247620f, -0.2518724799f, -0.1927966177f, 0.0447023772f, -0.0519839004f, -0.2165013999f, 0.0847723633f, -0.0326370634f, 0.1105935425f, -0.1312684119f, -0.0969332010f, 0.4001922905f, 0.1019915417f, -0.1490744501f, -0.1628129780f, -0.2939842939f, 0.2521980405f, -0.0558352098f, 0.4017522931f, 0.2582683563f, 0.0125936326f, -0.1728648543f, 0.0455963090f, 0.2703525424f, -0.1056421399f, -0.0570379607f, -0.0297534578f, 0.2357735783f, 0.0278788544f, 0.0108400825f, 0.1243322417f, 0.2048620284f, 0.0749902204f, 0.1939788461f, -0.1652373523f, 0.1203868017f, -0.1779678315f, -0.2859509587f, -0.0140467556f, -0.2658292353f, 0.0450090095f, -0.0266950354f, 0.0364132933f, 0.1730331630f, 0.0565447547f, 0.1194415241f, -0.0915331841f, -0.2132918388f, 0.0102294432f, 0.2002492100f, -0.1346297711f, -0.0736241713f, 0.1738990843f, -0.2029720992f, -0.1486064196f, -0.1545165628f, 0.0176163707f, -0.0219337642f, 0.2377072424f, -0.1728542745f, -0.0079986788f, -0.0635418221f, -0.0753267333f, -0.1654978991f, -0.2058128268f, 0.2925453484f, 0.0517860018f, 0.3435573280f, -0.0854874253f, 0.0105300173f, 0.2477212995f, -0.2571086586f, -0.0492798798f, -0.1281567216f, -0.0398874618f, 0.2442897260f, -0.0710046440f, -0.2494881153f, 0.0473181941f, -0.2016597390f, -0.0653399155f, 0.0116194040f, -0.1610031128f, -0.2214332372f, 0.0916204602f, 0.3815008104f, -0.0523481891f, -0.0720086470f, 0.2312050760f, 0.3751749098f, 0.1381220222f, 0.1776309162f, 0.1066609994f, 0.0478348620f, 0.5411894321f, 0.0127827972f, 0.0754392818f, 0.0854515359f, -0.0643226728f, -0.0094042076f, -0.0512767434f, -0.0570437051f, -0.0306268148f, 0.0143181747f, 0.2052672058f, -0.0449620932f, 0.3220144212f, 0.1198401302f, -0.1021007076f, -0.1764614731f, -0.2033633590f, 0.1949869543f, 0.0841676071f, -0.0105389794f, -0.2397093624f, -0.1357843727f, 0.2187757492f, 0.0475159138f, -0.2012485564f, -0.0809504762f, 0.0170114208f, 0.2806289196f, -0.0754260048f, 0.1173504367f, -0.1841355711f, 0.0098098135f, 0.2647959292f, -0.1211075187f, -0.0125175472f, 0.2316507399f, 0.1041820422f, 0.3844195008f, -0.2162255347f, -0.0552637205f, 0.2043078840f, 0.2469311804f, -0.0745897815f, 0.0120638805f, 0.1270193756f, 0.0607618541f, 0.0576959327f, -0.1315793991f, -0.2406159490f, 0.3445980251f, -0.2360549271f, -0.1012228504f, 0.0438487194f, 0.0070414064f, -0.0221907310f, -0.2852165699f, 0.0669197887f, -0.1167873740f, 0.0532450378f, -0.2758235037f, -0.2088485509f, -0.2628569007f, 0.1238609031f, -0.2245903015f, 0.0341986008f, 0.1334693730f, 0.0847175419f, -0.1277185082f, -0.0727401227f, 0.1944882125f, 0.1914330721f, 0.3739873469f, -0.1117214039f, 0.0508508123f, 0.0629940033f, 0.1045080200f, 0.1390826851f, 0.0146294506f, 0.3720089495f, 0.1283580065f, -0.0674261525f, -0.1482870281f, 0.0305830333f, 0.4832715988f, 0.1129448935f, 0.1421710998f, -0.2736348808f, 0.0857431367f, -0.2616285086f, -0.1112219021f, -0.3306694627f, 0.2238352448f, -0.2172640860f, 0.2148012072f, 0.1158507988f, 0.1384180784f, -0.1628401875f, 0.3766041100f, 0.1429524720f, 0.2442379594f, -0.1245466471f, -0.0347356275f, 0.1886849999f, -0.1870492846f, -0.0788572729f, -0.0866668969f, 0.0295151602f, -0.1732114106f, -0.0195395667f, 0.0627003089f, 0.0944253057f, -0.0645134673f, 0.0900727510f, -0.2210585028f, -0.1497426182f, 0.2777585685f, -0.1054335237f, 0.0873952657f, -0.1425710171f, 0.1088838279f, -0.2056285441f, -0.0005235937f, -0.0939730480f, -0.0860298946f, -0.3509556353f, -0.1779363006f, 0.0486289151f, -0.0261692479f, 0.0206064321f, -0.0154142501f, 0.2188220918f, -0.2562508285f, 0.0644638538f, 0.1083933637f, 0.3072144389f, -0.0440629609f, -0.3493790925f, -0.1036009938f, -0.0838315561f, -0.1927546710f, 0.0848158151f, 0.0060900296f, -0.0759682879f, 0.0227209218f, -0.0716735572f, -0.2338473201f, -0.0018328613f, 0.1060183570f, 0.3142695725f, 0.0187875517f, -0.3642874360f, -0.2092030644f, 0.0656492189f, 0.2014343441f, 0.1215590686f, -0.0374604426f, -0.1045468599f, 0.0581433028f, -0.0992482007f, 0.2407225817f, 0.1114207879f, 0.0676384121f, -0.2216593027f, 0.1429766417f, 0.0745615587f, 0.2271295488f, 0.1915446818f, 0.1226255298f, 0.1348877400f, 0.2830261588f, 0.1660845131f, 0.0729838535f, -0.3471020162f, -0.1144169122f, -0.0779958144f, -0.3662408590f, 0.3228273690f, 0.1780111939f, 0.3143216670f, -0.1150700450f, 0.3482485414f, 0.1850338280f, -0.0099353734f, 0.2062463909f, 0.1169974580f, -0.0120356316f, 0.1023363322f, -0.0101876482f, 0.0197890680f, 0.1776828170f, 0.0454769172f, -0.1142245978f, 0.0823557526f, -0.0900575221f, 0.0577743985f, 0.0533943474f, -0.1662463099f, 0.0649102107f, 0.0739503801f, 0.4011466205f, -0.0205756109f, -0.1995680928f, -0.1660208106f, 0.2068724632f, -0.1098764539f, -0.1134913117f, 0.0276557095f, -0.0123189567f, -0.0124776559f, 0.0736438558f, -0.0907041579f, 0.1717007309f, 0.1277017891f, -0.1980116963f, -0.3000141382f, -0.0202203300f, 0.1215411499f, 0.0972694680f, 0.4183937013f, 0.3810501993f, 0.1220778227f, -0.1239783689f, 0.0770872310f, 0.0564740933f, -0.1260729134f, 0.1087324917f, 0.3807927072f, -0.0452822596f, -0.0192495883f, -0.0050717979f, -0.1251284629f, -0.0151595017f, 0.0278449059f, 0.0246845260f, -0.2366201729f, -0.2987143695f, 0.0351289064f, 0.1270168424f, -0.0419862345f, 0.0989973247f, 0.0344749726f, 0.1205283031f, 0.0941585451f, 0.0656207278f, 0.1538991034f, -0.0960684717f, -0.0850541666f, -0.0131970020f, -0.2378155440f, -0.2779506147f, 0.2991001010f, -0.1174770892f, 0.0687398240f, -0.2815869749f, 0.1639352590f, 0.2241428196f, 0.2818704247f, 0.2376501709f, -0.3879584074f, 0.1161677018f, -0.1123385578f, -0.2780168653f, -0.0148741724f, 0.0547415577f, 0.0227365196f, 0.2474130392f, -0.2797982395f, -0.0876042768f, -0.0378095247f, 0.1351419687f, 0.0723968968f, 0.1899402440f, 0.0873356611f, 0.0571985021f, 0.2383234054f, -0.0290796068f, -0.3614021540f, -0.1299975812f, 0.0724461228f, 0.0939018279f, 0.1122356653f, -0.1357893497f, 0.2212586403f, 0.1243633032f, -0.2540011704f, 0.0609109923f, 0.1794751585f, -0.0121342810f, -0.0988361165f, -0.0096110702f, -0.0162275098f, 0.0130221639f, 0.0242284369f, -0.2925972044f, -0.0371035337f, -0.0637226850f, -0.2668029070f, -0.0749520138f, -0.0217394680f, 0.2805899680f, -0.3024206758f, 0.0110121183f, -0.1596041918f, -0.1920552701f, 0.0664244890f, -0.0541231520f, 0.0612782426f, -0.2763830423f, -0.0276726428f, 0.1799180806f, -0.3469895422f, 0.2331846356f, 0.1452484578f, 0.0181512535f, 0.3355639279f, -0.0003000917f, 0.1720822304f, -0.1925379485f, 0.2164123207f, -0.0832411200f, 0.1799642593f, 0.2446958870f, 0.1043762639f, -0.1514904946f, 0.3564212918f, 0.3063970506f, 0.1070490032f, -0.1028346866f, 0.1503771693f, 0.1357772946f, -0.1548801512f, 0.0718567297f, -0.1653880030f, -0.2542237639f, -0.0570991896f, -0.0341685861f, 0.4639129937f, -0.1566085368f, 0.2454329878f, 0.3128839433f, 0.1516827345f, -0.0370959677f, 0.1326658428f, -0.0182639342f, 0.0637426376f, 0.1022492722f, -0.0858063996f, -0.1035277471f, -0.2765545547f, 0.1331201345f, -0.1044744179f, -0.0010158062f, -0.0816979185f, -0.1841374040f, 0.1727374345f, -0.1551705003f, 0.0021171938f, 0.1923298240f, -0.0984962657f, -0.0441903397f, -0.0269753523f, -0.2427073866f, -0.2842931151f, -0.0043874499f, -0.2995737493f, 0.0064799013f, -0.0784472600f, -0.1058876589f, -0.0030989561f, -0.0374279879f, -0.2716594040f, -0.0845563188f, 0.1703867465f, -0.4665673077f, -0.0726809055f, -0.0671071112f, -0.0291643087f, -0.0670815334f, -0.2001365572f, -0.3538923562f, 0.0321967192f, -0.0623112097f, -0.0555132143f, 0.0289812163f, 0.2421262860f, -0.4002782702f, -0.0850878879f, 0.0154489465f, 0.0937503949f, -0.0024965128f, -0.0129173705f, 0.0003072091f, 0.2132543623f, -0.0923531875f, 0.2428104430f, 0.0034317481f, -0.1657762676f, -0.2751531899f, 0.1897531897f, 0.2506819367f, 0.1532053947f, -0.0161976945f, 0.1571395099f, 0.1795980036f, 0.1185931787f, 0.3219262660f, 0.2735071778f, -0.0125311557f, -0.1356264055f, -0.3785454035f, 0.2674806714f, -0.1611568779f, -0.1317507029f, -0.0469226018f, 0.1446826756f, -0.0678598583f, -0.2604121268f, -0.1171180755f, 0.0184092354f, -0.0422135331f, 0.2970523834f, -0.2023475468f, -0.2276232243f, 0.2277594358f, -0.1786049306f, 0.1359625459f, 0.2980931103f, 0.0282671675f, 0.2381219566f, 0.0354551189f, 0.2504291236f, 0.0636468455f, 0.0854195580f, -0.0157023575f, 0.2627709508f, 0.0526253134f, 0.0157427322f, 0.1912288517f, -0.2763205171f, -0.0557302274f, -0.2131955326f, 0.0033751016f, 0.0695796162f, -0.1174522787f, -0.0105577987f, 0.1768468618f, -0.0694300383f, -0.0734095722f, 0.1780851781f, 0.0194269978f, -0.2095635831f, -0.1375104785f, -0.3871978223f, 0.1167623475f, -0.0998784006f, 0.1475107223f, -0.1219277829f, -0.1158308238f, 0.2526626587f, -0.1209745109f, -0.0116506554f, 0.0256470405f, 0.3310213685f, 0.1710123271f, 0.0668590665f, 0.0293229595f, -0.1551505625f, -0.2064403296f, 0.0122919288f, 0.2887937725f, 0.0979970470f, -0.1380970627f, -0.2792720795f, 0.0775235146f, -0.2977294028f, -0.0826402679f, -0.1725598425f, -0.1715316623f, -0.0562424250f, 0.0533039309f, 0.2006572336f, -0.1734952927f, 0.3136748970f, -0.0725773498f, -0.0201939158f, 0.2864260077f, -0.0665335953f, -0.1026737913f, 0.0475683399f, -0.3380998969f, -0.1166898608f, 0.0243290458f, -0.4632658958f, -0.0182278212f, 0.1731437743f, 0.0398857817f, 0.1017561480f, 0.0039209262f, 0.1710973084f, -0.1590444148f, -0.2416714430f, 0.1359360665f, -0.2882335782f, -0.1944061965f, 0.0270744488f, 0.0145352529f, 0.3680002093f, 0.0646540448f, -0.1801521480f, -0.1581530571f, -0.2672129273f, 0.0313177593f, -0.0734583139f, 0.2594108582f, -0.0012924502f, -0.0257863887f, -0.2668936551f, -0.2215584517f, 0.0478030704f, 0.0566640198f, -0.0183129478f, 0.0470908470f, 0.0487683378f, 0.1078138500f, -0.2266023159f, 0.1410868913f, -0.2353466004f, -0.0062477780f, 0.0438015833f, 0.1394900084f, -0.2161863893f, 0.1490758508f, 0.1148626432f, 0.2081471533f, -0.1754063666f, 0.1881444603f, -0.0120350728f, 0.2010326087f, 0.0389946550f, -0.1291306019f, 0.0132906605f, -0.3179965913f, -0.0864204839f, -0.3323473632f, -0.0108523415f, -0.0613514483f, -0.0711612701f, 0.3114292324f, 0.3191376328f, -0.1214317679f, -0.1776844561f, 0.2510786653f, 0.0135612134f, -0.1189106777f, -0.2094447464f, 0.0221994426f, 0.0710096359f, -0.0409364402f, 0.1100382507f, -0.3211111724f, -0.0924835503f, 0.1669241190f, -0.1080854759f, -0.2568255365f, -0.1461898535f, 0.0781058967f, 0.2775221169f, -0.0128681008f, -0.1547971815f, 0.2576218247f, 0.0658816546f, 0.0892932191f, -0.2700452209f, -0.1134371758f, 0.3766278327f, 0.4036087692f, -0.1172828823f, -0.1349535435f, -0.0780559853f, -0.0959983915f, -0.0702261105f, 0.2845546007f, 0.1924659610f, -0.1672087759f, 0.0570188910f, -0.0383575894f, -0.0176607054f, 0.0106940828f, -0.2477236539f, -0.1163934097f, -0.0663217306f, -0.1593807489f, 0.2309754193f, -0.1995443851f, 0.0637368634f, 0.1979870945f, -0.1084678173f, 0.1344187260f, -0.0065240571f, -0.2222699672f, 0.0535417460f, 0.0185118802f, 0.0732154027f, 0.1261145324f, 0.0986934826f, -0.0489891320f, 0.0786550790f, -0.0633941442f, 0.1489429921f, -0.1289055198f, 0.0070622447f, 0.3255919516f, -0.1203083545f, -0.3471297026f, 0.0110064112f, -0.3324594200f, -0.0521013923f, 0.2164720744f, 0.0628636181f, -0.1557485312f, 0.1766776741f, -0.0716555789f, -0.0014443152f, -0.0541876927f, -0.3237255216f, -0.0441889986f, -0.0058234553f, 0.0359252915f, -0.0495249964f, 0.0631056502f, -0.0863406733f, 0.0766017810f, 0.0200148504f, 0.1162011847f, 0.1895502657f, 0.0222907383f, -0.4079455137f, 0.0121867489f, -0.3075011075f, 0.0794885010f, -0.0385224633f, -0.0744660124f, 0.1575015932f, 0.3097284436f, -0.2323417068f, -0.3043000400f, -0.0553854816f, 0.1097586900f, 0.3161327839f, 0.1362174898f, -0.0197015628f, 0.1985991895f, 0.0755050704f, -0.5479108095f, -0.0663816780f, -0.0707184523f, 0.0249812957f, -0.1732689589f, 0.1837535203f, 0.0402297340f, 0.0381281935f, -0.0908644795f, 0.0906965360f, -0.0127842044f, -0.2227334529f, 0.0332688168f, 0.1766020656f, -0.1756003648f, -0.0074386699f, 0.1601506323f, -0.4079928994f, -0.4013424814f, 0.1283107400f, 0.0610158257f, -0.1087486893f, -0.2365747988f, -0.1372286230f, 0.1274708360f, 0.0200330336f, -0.0601652972f, 0.2143481225f, -0.0081585199f, 0.2077493072f, -0.1069944948f, 0.1956930012f, -0.1290116161f, 0.1912418902f, 0.0969696194f, 0.3460689187f, 0.0741135627f, 0.0351764932f, 0.0869890451f, 0.1057464704f, 0.2691473067f, 0.3082755804f, 0.1844184846f, -0.4298416674f, -0.0589227341f, 0.0747205764f, -0.0022945700f, 0.0573047772f, -0.3342627287f, -0.2360184789f, 0.0833045319f, 0.0951105654f, 0.1561149508f, 0.0014417158f, -0.0392998271f, 0.2845570147f, -0.0335504338f, 0.0706690848f, -0.0308712348f, -0.0426631421f, 0.1850252748f, 0.1663269252f, 0.0303986911f, -0.3352389932f, -0.2292825878f, -0.1059773490f, -0.0046935151f, 0.0158177502f, -0.0322995298f, -0.2546077967f, 0.3055099249f, -0.1697624922f, 0.2178946435f, -0.0074109086f, 0.1997193545f, -0.2753628194f, -0.0510643795f, 0.3407727778f, -0.0265219435f, 0.1153867766f, -0.0526991040f, -0.2576914430f, -0.1272501051f, 0.0069066319f, 0.0417317450f, -0.1290525049f, -0.1672159135f, -0.0650751442f, -0.0150845144f, 0.2694170773f, 0.1152164489f, -0.0214769673f, -0.0409539230f, -0.1324192137f, -0.0739633068f, -0.1478632540f, -0.1028969362f, 0.0212628879f, 0.2816526294f, -0.0297545940f, 0.1560163945f, -0.0671466142f, 0.1531912982f, 0.3007749617f, -0.1027237624f, -0.1341867596f, -0.1622109562f, 0.2516878247f, -0.1516399384f, 0.4301459491f, 0.1033925936f, 0.0668030977f, -0.1549109519f, 0.0344329216f, 0.0466636568f, -0.2035287619f, -0.2983036637f, -0.0002363487f, -0.3288818300f, -0.0092323665f, 0.0096436217f, -0.2159698904f, -0.0222391877f, 0.0702214614f, -0.3945630193f, -0.0624916516f, 0.0274506416f, 0.3494498134f, -0.1228525564f, -0.1589918584f, -0.1750034243f, 0.2762404382f, 0.1314863116f, 0.2870952785f, -0.0584088340f, -0.3510693908f, 0.2125365734f, -0.2561378777f, -0.0509940721f, -0.1452166587f, 0.2839165628f, 0.1211288422f, -0.0052273213f, -0.0619137213f, -0.2278263122f, -0.1099611968f, 0.2237929553f, -0.2798970938f, -0.0098027354f, -0.0511735566f, -0.1919275671f, -0.1415444613f, 0.0942710340f, 0.0878440663f, 0.2305208296f, 0.2762696743f, 0.0898033157f, -0.2160964012f, -0.0243281480f, -0.1175465211f, 0.1245605797f, -0.0543297194f, 0.0569250733f, -0.0322273672f, -0.2334533632f, -0.0779593959f, 0.1688749045f, -0.2133117169f, 0.3177061975f, -0.0518688336f, 0.2712078691f, -0.1588096619f, 0.2229660302f, -0.1727708727f, 0.1367404610f, -0.1254836619f, -0.1722272485f, 0.2432298213f, -0.3554452360f, -0.1802559197f, -0.1451204270f, -0.1797292382f, 0.0256768819f, -0.1031110585f, 0.0150855444f, -0.2584253550f, 0.1303252429f, 0.0379642360f, 0.1979003698f, 0.0804695338f, 0.0492763445f, 0.0330071971f, 0.0483657643f, 0.1705190092f, -0.1191319600f, -0.1764245629f, 0.0709862038f, -0.0081610978f, 0.1342375576f, -0.0374663547f, -0.0642717332f, -0.0871718526f, -0.3899539411f, 0.0211410075f, -0.1435557008f, 0.1604472250f, -0.0230357908f, -0.0271647759f, 0.2680043280f, 0.1410378367f, -0.4153889716f, -0.0595645979f, 0.2397138625f, 0.2498368621f, -0.0098834308f, -0.1015966609f, 0.1617672294f, -0.2024895996f, 0.2836480141f, 0.1837680638f, 0.0304732379f, -0.1999798119f, 0.0623464398f, -0.3486894369f, -0.3724410534f, 0.2192669362f, -0.1133619696f, -0.1753592044f, 0.0135292718f, 0.2552889287f, -0.1283107549f, -0.2776866555f, 0.1030168608f, -0.0587698855f, -0.0072030504f, -0.1122783050f, 0.0256682821f, -0.0769114941f, -0.2374379933f, -0.0086261677f, 0.2583463192f, -0.0827601254f, 0.1747165471f, -0.1674791127f, -0.0993961170f, 0.1265179217f, 0.0851185992f, 0.2311069071f, 0.0016750941f, -0.3044620156f, -0.0466703810f, -0.1303738058f, 0.0899841562f, -0.0883475766f, -0.1145113334f, 0.3412124813f, -0.0696079955f, 0.0528580174f, -0.2834383249f, 0.2831164002f, 0.1029939577f, 0.0866936296f, -0.1928074807f, -0.1497151554f, 0.3017213345f, -0.1047330722f, 0.1082487851f, -0.0092713041f, 0.0908074901f, -0.1881982088f, -0.1465411037f, 0.4011304975f, 0.2853570282f, 0.2202439010f, -0.0739801377f, 0.0930011794f, 0.3240378499f, 0.1147405580f, 0.0115739973f, 0.2055146098f, 0.1184442416f, -0.1629273742f, -0.0802063718f, 0.1506073028f, -0.0523470938f, 0.1034470424f, -0.1470029205f, -0.1087868586f, -0.0344148614f, 0.2900079489f, 0.1074625775f, 0.0792795867f, -0.0698463619f, -0.1143584326f, 0.1842121333f, 0.3154546916f, 0.1115698889f, -0.0688244551f, -0.1192486435f, 0.1333071589f, -0.0776119307f, 0.3013941944f, 0.1261344254f, 0.1053269655f, 0.2746816576f, 0.0884120166f, -0.0056271581f, 0.1748708338f, -0.2576839030f, 0.0395770594f, 0.1026869267f, 0.0075090313f, 0.1460671425f, 0.3544370830f, -0.2178037316f, 0.0594012775f, 0.2928640842f, -0.2040359080f, 0.1014246941f, -0.0449624956f, -0.0090788659f, 0.2846393287f, -0.3302953839f, -0.1724143922f, -0.0868274719f, -0.2533539534f, 0.0881695971f, -0.1337050200f, -0.0685135499f, -0.2323523760f, -0.0385425836f, -0.0645304844f, -0.1199801639f, 0.0895953104f, -0.1532681584f, -0.1043825969f, 0.0871348009f, 0.0506542325f, 0.3515233994f, 0.0667413771f, -0.3057983816f, 0.2983382642f, 0.1676004976f, -0.3305388987f, -0.1272218525f, 0.0742956623f, -0.0299875885f, -0.0089611737f, -0.3466663957f, 0.0063062781f, 0.1086226404f, 0.0563905910f, 0.1252707839f, 0.1722376645f, 0.0486140251f, 0.0514414757f, -0.0087134438f, 0.0666915104f, 0.0783518851f, 0.0902250558f, 0.0726966783f, 0.0144818285f, 0.1656924188f, -0.1324417442f, -0.0384203158f, -0.0210112873f, -0.0001249430f, 0.3717823923f, 0.0195185989f, -0.0563182458f, 0.2986900806f, -0.2514588535f, 0.1988084912f, 0.0962645859f, -0.0355421379f, -0.1749761999f, 0.4812165201f, 0.0272437576f, -0.0113151381f, 0.1726501882f, 0.0477567799f, 0.3791685104f, 0.2183419913f, 0.1034917384f, -0.0658253059f, 0.3031907082f, 0.0184016544f, 0.0319813639f, -0.0476633422f, 0.1711228043f, -0.3539780080f, -0.2048415095f, 0.1418309063f, 0.0984655544f, -0.0424135737f, 0.0426462628f, 0.2971204817f, 0.0177456662f, 0.0366271548f, -0.4022639096f, -0.1908093989f, 0.1672460884f, 0.1322233230f, -0.0205976758f, 0.1380202621f, 0.0873264670f, -0.0023524396f, 0.2678871751f, 0.1463208944f, 0.0479120314f, -0.0524519831f, -0.1344097406f, -0.1318714470f, 0.0350518227f, -0.4262988269f, 0.2336487472f, 0.0445576459f, -0.0156481545f, -0.0693900511f, -0.0318144634f, -0.2438850999f, 0.3472332954f, 0.0316332467f, -0.0062929927f, -0.1444827765f, 0.3683923781f, -0.1057757810f, 0.0040387171f, -0.2951253355f, 0.0821320415f, -0.1878015697f, 0.1415444165f, -0.0432657301f, 0.0344338045f, 0.2674600482f, -0.0491148569f, -0.1800385267f, 0.2206622213f, -0.1109929159f, -0.0652593598f, 0.2012321502f, -0.2400008291f, 0.1888835579f, -0.2805815935f, 0.0300882552f, -0.1066856980f, 0.1303830892f, 0.0982059985f, -0.2496614605f, -0.1428916603f, -0.2346576452f, -0.2291445136f, 0.1669969857f, 0.2272797823f, 0.0696897656f, -0.0933387801f, -0.0262833908f, 0.0161371939f, 0.1026152074f, -0.2270471007f, 0.0209527798f, -0.1423008442f, -0.3738256097f, -0.0006348692f, -0.0923435241f, -0.0749076158f, 0.1183615848f, 0.0783163682f, 0.2574338913f, -0.2299487740f, 0.0652873665f, -0.2325441539f, -0.1705505699f, 0.0708782002f, 0.2828283012f, -0.3269168735f, 0.0607924312f, 0.0278671402f, -0.1934866160f, -0.2087578475f, 0.2594802082f, -0.1954367310f, 0.0958797112f, -0.0559038967f, 0.1226093248f, 0.0536961481f, -0.1493396759f, -0.2112158388f, -0.0907043591f, 0.0389499366f, -0.1483911127f, -0.0526381433f, 0.0057769613f, 0.2967441678f, 0.0568877272f, -0.0904347226f, -0.1057356372f, -0.2040201575f, 0.0753983408f, 0.2055540830f, 0.0058660819f, -0.1166631654f, 0.4609208703f, 0.2161750942f, -0.0052761519f, -0.0369655602f, -0.0572005995f, -0.3708115816f, -0.1421361268f, 0.0029666440f, 0.0908971280f, 0.0263772160f, -0.1700691879f, 0.3200295269f, -0.0040405057f, -0.0165094249f, 0.0882727355f, -0.0823087022f, -0.3797281981f, -0.1300963014f, 0.1216272041f, -0.2301701009f, 0.1779871732f, -0.2378655225f, -0.0256781913f, 0.3369260728f, -0.0772748217f, -0.1129200980f, 0.5553939939f, 0.2675783932f, 0.0258175228f, 0.2777129114f, 0.0552403294f, -0.3041383326f, -0.0551359244f, -0.1229624227f, -0.1375821233f, -0.1432394236f, -0.0192758720f, 0.0144049628f, -0.1086135954f, 0.1557995081f, -0.1200433224f, -0.1102899387f, 0.0005468537f, 0.1873089969f, -0.0712654367f, 0.1480493098f, 0.0006649708f, -0.2934429049f, -0.0828167647f, -0.3007755578f, -0.1325206310f, 0.0579610057f, 0.0607567206f, 0.0095130326f, 0.0010700555f, -0.2120057940f, -0.0499522127f, -0.0895252973f, -0.1508573145f, 0.1187827513f, 0.1182753518f, 0.3464402854f, 0.0153768957f, -0.0076523749f, -0.0706002638f, -0.2664602101f, -0.1254911423f, -0.2246688455f, 0.1865017265f, 0.2513360083f, -0.1629972607f, -0.0498535596f, -0.1356419176f, 0.0713749230f, -0.0208883341f, -0.1752123088f, 0.0083659738f, 0.2553423047f, 0.0596595667f, 0.2190033048f, -0.2244230509f, 0.1724316180f, 0.0264302101f, -0.2008176744f, 0.0981765091f, 0.3912215233f, 0.1127232537f, 0.0895603299f, 0.1968688667f, 0.1368602067f, -0.1769988090f, -0.1398572177f, 0.0037323530f, 0.2604972720f, -0.0310785156f, -0.2098318487f, 0.2709315419f, -0.4554877877f, -0.0867379233f, -0.1369546652f, 0.2110981047f, -0.1388341337f, 0.0353377536f, -0.1604806185f, 0.0939196795f, -0.0669340342f, -0.1031835154f, 0.2449555546f, -0.1835715473f, -0.0291593224f, 0.0032308800f, 0.2878567278f, 0.2943283021f, -0.1398712546f, -0.0527810305f, -0.1779697984f, -0.2562697828f, -0.0239913482f, -0.1205288544f, -0.1056675315f, 0.1705241203f, 0.1428666711f, -0.2184285074f, -0.2847591043f, 0.0532155558f, 0.2287166864f, -0.1833349913f, 0.0396947376f, -0.2187237293f, -0.0237553455f, 0.0974523351f, 0.1908820421f, -0.0205459800f, -0.1449506283f, -0.0315162614f, 0.2427953035f, -0.1347951889f, 0.0969397575f, 0.1121382192f, -0.0227355715f, 0.0268907845f, 0.1573449969f, 0.1029871255f, 0.0707541481f, 0.1373383552f, -0.2069575787f, 0.2680344284f, 0.0231152512f, -0.1052580699f, 0.3876715600f, -0.0349688269f, -0.3187672198f, 0.1100833341f, -0.1142222956f, 0.2531927228f, -0.0569028184f, 0.0059787268f, 0.1552732736f, -0.1732259542f, 0.0277376976f, -0.1139537096f, 0.2534727156f, -0.1284390986f, 0.2670399845f, 0.1499848217f, -0.0672097132f, 0.2504721582f, -0.1511769146f, -0.3900779784f, -0.0429578498f, -0.0312964767f, 0.2312128395f, -0.1344737858f, 0.1125376597f, 0.1989656538f, -0.1341564208f, -0.2565260828f, -0.0476175584f, -0.0361634009f, 0.1688981652f, 0.2441538423f, -0.1789989471f, 0.0457621738f, 0.1354959160f, 0.0541902259f, 0.3976487517f, -0.2237177938f, -0.1436480582f, -0.0646604374f, -0.1935193390f, 0.1589845270f, 0.0157196224f, 0.1929782927f, -0.1264670342f, -0.0816920325f, 0.1316506416f, -0.0860568061f, 0.0634071529f, -0.2341916263f, -0.0552135929f, -0.2943563759f, 0.2123789638f, 0.1752574593f, 0.0874442533f, 0.2973230779f, 0.1604274809f, 0.1613130271f, 0.1190811470f, -0.0134101361f, -0.0109479381f, 0.2084734440f, -0.0072564413f, -0.0935447216f, 0.0585821196f, 0.1519496888f, -0.0172633175f, 0.1318625212f, 0.0886058658f, -0.1309792846f, 0.0103139384f, -0.0671773106f, -0.1072292626f, 0.1883406490f, 0.0686378106f, -0.2004348040f, -0.2124056816f, -0.1055175737f, 0.0282788724f, 0.0998540893f, 0.1532445252f, -0.0870877057f, -0.0039334036f, 0.0142922858f, 0.1625586152f, 0.0577988587f, 0.2241223603f, -0.0624429099f, 0.0731722042f, 0.2708385587f, -0.0719760060f, -0.0977636203f, -0.1098945662f, -0.0917756185f, 0.1300695091f, 0.3619952798f, 0.3013082743f, -0.5894851089f, -0.0745117813f, -0.0332610831f, -0.4267597795f, 0.2014871240f, -0.1054458916f, 0.0400691293f, 0.0073000686f, 0.2773622274f, 0.0346211307f, -0.0360721126f, 0.1892618388f, 0.0520111956f, 0.0621895194f, -0.0934297293f, 0.1365464628f, -0.2629807293f, 0.0813404322f, 0.4457385838f, 0.0883842930f, 0.1023364812f, 0.2227852196f};
const float b2[] = {0.0178283118f, 0.0159129035f, 0.0005061316f, 0.0163614582f, -0.0041805310f, -0.0039297258f, 0.0017664204f, -0.0080496669f, 0.0009844655f, 0.0060173725f, 0.0032500019f, 0.0011754000f, -0.0211864226f, -0.0088564847f, 0.0119047947f, 0.0013835982f, -0.0179977380f, 0.0191925745f, 0.0097436281f, 0.0027131971f, 0.0069288053f, -0.0060666641f, -0.0028595342f, 0.0177027658f, 0.0077999923f, -0.0152808009f, 0.0034588887f, 0.0005416750f, 0.0082885334f, -0.0017374210f, 0.0105981678f, -0.0136352982f, -0.0092803081f, 0.0055831010f, 0.0103840642f, -0.0075075151f, 0.0346287750f, -0.0091704112f, 0.0098145921f, -0.0100193983f, -0.0031002171f, -0.0174669791f, 0.0070846151f, -0.0025967625f, 0.0047125947f, 0.0238145217f, -0.0102847470f, 0.0025107046f, -0.0082401941f, -0.0141735654f, 0.0120750051f, -0.0035174689f, -0.0085763503f, -0.0018088199f, -0.0148741612f, 0.0056094658f, 0.0072752456f, -0.0035612311f, -0.0004561673f, 0.0039507826f, -0.0010344613f, -0.0110043706f, 0.0052536600f, 0.0151934586f};
const float W3[] = {-0.0414368659f, 0.0714920536f, 0.0465975478f, -0.0180523451f, -0.0429620445f, 0.0622680932f, 0.0105140004f, 0.0803887844f, 0.0223539192f, 0.0010054155f, 0.0097034574f, -0.1272488236f, 0.0066889012f, 0.0180427376f, -0.0097910911f, -0.0982062221f, 0.0466060117f, -0.0345892645f, -0.0138471182f, -0.0750563294f, -0.0179580133f, 0.0912195072f, 0.0360789336f, -0.0326920673f, -0.0090503413f, -0.0687781051f, 0.0010706988f, -0.0154903419f, -0.0053347079f, 0.0742221773f, 0.0120620122f, 0.1101110801f, 0.0510691479f, 0.0840339959f, -0.0161762703f, 0.0022392476f, -0.1371953934f, -0.0132949334f, -0.0488076620f, 0.0475677960f, 0.0345118083f, 0.0052236724f, -0.0171511173f, 0.0128047336f, -0.0222165845f, -0.0482155010f, 0.0107024303f, -0.0061985240f, 0.0808082595f, 0.0007785092f, -0.0293570310f, -0.0659012124f, 0.0066354102f, -0.0300526097f, -0.0028381723f, -0.0146280993f, -0.0220954213f, 0.0567103885f, -0.0667446777f, 0.0001867775f, 0.0033338007f, -0.0081627639f, -0.0190574527f, -0.0297704805f};
const float b3[] = {-0.0226177443f};

#endif