#ifndef PARAMETERS_H
#define PARAMETERS_H

const float W1[] = {0.1746147573f, 0.0745550618f, 0.1577727497f, 0.0678946078f, -0.1784712970f, 0.0251196194f, 0.0269963872f, 0.0051578549f, 0.0938764438f, -0.1275507510f, 0.1682741195f, 0.1535400301f, -0.0834928453f, -0.1065982953f, -0.1529802680f, 0.0682069510f, -0.0680633187f, -0.4740203917f, -0.2408714145f, 0.1362576336f, -0.3142845631f, -0.0530819073f, 0.0149921412f, 0.0323549099f, -0.0598918386f, 0.0900340900f, -0.1771917790f, -0.0805256367f, -0.3416920602f, -0.0496340096f, 0.2132819444f, -0.1131273285f, -0.0315336809f, 0.0129480176f, 0.0981635302f, -0.1522688419f, 0.0295714643f, -0.0196213014f, 0.1841640323f, -0.3431831598f, 0.2637903988f, 0.2817209959f, -0.0744823441f, 0.1607795358f, -0.2742744982f, -0.0285325889f, -0.0809117556f, -0.1419155598f, -0.1021935344f, -0.2655605078f, 0.1845406145f, -0.1043034792f, 0.0873260945f, 0.0530664623f, 0.2898281217f, 0.3443959653f, 0.0029649797f, 0.0239189565f, 0.0078926245f, -0.4572679400f, 0.0166021679f, -0.0216093361f, 0.2175105214f, -0.0089771906f, 0.0100580882f, 0.3490273058f, 0.0081065232f, -0.0631671548f, 0.0089850444f, -0.1366710663f, 0.1136542782f, 0.0227121171f, 0.1676836312f, 0.1215323880f, -0.0115493704f, 0.3088724315f, 0.0966398716f, 0.0108495094f, 0.0300376434f, 0.1417074800f, 0.0839849561f, -0.1044075564f, -0.2217819691f, -0.0247596968f, 0.0207821466f, 0.1802477241f, -0.0975396633f, -0.1280285418f, -0.0962143764f, -0.0490023904f, 0.0580326319f, -0.1096838713f, -0.2673169672f, -0.1213766411f, -0.0468151905f, -0.0075396653f, -0.0424745865f, -0.0966348648f, 0.1355080605f, -0.2418127507f, 0.3585048020f, -0.1769317240f, 0.0138437087f, 0.0189986061f, 0.2377477586f, -0.2816786468f, 0.3672288656f, -0.0092240423f, -0.0620550141f, 0.1723948568f, 0.2157104909f, 0.5307840705f, 0.1365863532f, 0.0677707866f, 0.1110137627f, 0.3153008521f, -0.1534210145f, -0.1180239245f, 0.1822119653f, -0.0966279358f, -0.1878614128f, -0.1754179597f, -0.2508889735f, 0.0575804226f, 0.1686408222f, -0.1481377929f, -0.0030617570f, -0.4268511832f, -0.2912088931f, -0.1806049943f, 0.1690284461f, 0.3964258730f, -0.0408352949f, 0.0138972467f, -0.0093084062f, 0.0305049587f, -0.2336464822f, 0.0283590220f, 0.0126077970f, -0.1303122044f, -0.2556445003f, -0.1009874567f, -0.1898571402f, 0.1279069334f, -0.1179717630f, -0.4423538446f, -0.1955330074f, 0.1261554807f, -0.1846812069f, 0.0107329357f, 0.0739878938f, -0.0208862666f, -0.0014494068f, 0.0314067863f, 0.0456053764f, 0.0106571568f, 0.0100674042f, 0.4750481546f, -0.2472171932f, -0.4549210668f, 0.2484926879f, 0.1330825537f, 0.0878620744f, -0.0347798429f, -0.0745270476f, 0.2080989927f, -0.1632300168f, 0.0927878618f, -0.0522877201f, 0.0431802496f, 0.0752064362f, 0.0545254871f, -0.1495132148f, 0.1158089638f, 0.2861216664f, -0.1708745211f, -0.2820749879f, -0.2150792032f, 0.1464558393f, -0.3083792627f, 0.2949201167f, -0.4084168375f, 0.1240676269f, -0.0400875136f, 0.0994661003f, 0.0602561347f, -0.3801037073f, 0.4390622079f, 0.0366860218f, 0.0698800460f, 0.2620843351f, 0.0227071811f, 0.0335187204f, 0.3266964853f, -0.0715241134f, -0.0598716885f, -0.0117349606f, -0.0985323712f, 0.4995608032f, -0.0304986648f, 0.0867027491f, -0.0793054476f, 0.0894583538f, -0.0078881970f, 0.1831649095f, 0.0029155149f, 0.1029991210f, 0.0757103413f, -0.0177060310f, 0.1401483566f, 0.1773392558f, 0.2470378429f, -0.0460371599f, 0.0091178259f, 0.0353151113f, 0.1704951972f, 0.1429250538f, 0.2260655910f, 0.0724920109f, 0.0564928241f, -0.3784491122f, -0.3152844310f, 0.1233879179f, 0.3015023768f, 0.0261210203f, 0.1820766777f, 0.0794224888f, -0.0558156222f, -0.1542829573f, -0.1139326543f, -0.5272997022f, -0.1677887887f, -0.0429289788f, -0.0030993815f, -0.0878500789f, 0.4608756900f, -0.0940057635f, 0.0412386060f, -0.1367909610f, 0.0402387120f, -0.0803711116f, -0.0365618654f, -0.1518321633f, 0.0239004306f, -0.2524012327f, -0.0127233723f, 0.1252091974f, -0.0232337359f, -0.0485592671f, -0.0284585971f, -0.0895337686f, 0.0974809304f, 0.0569251850f, -0.1695091873f, -0.0460069366f, 0.4211169481f, -0.0913736299f, -0.0496293940f, 0.0038449578f, -0.2284435928f, 0.0797138140f, -0.1391681582f, 0.2720519304f, 0.1016079187f, -0.1975818872f, -0.0360883661f, -0.0967542455f, 0.2245991230f, -0.4230539501f, 0.0032029180f, -0.0114819277f, -0.0510108843f, -0.2356113344f, 0.3126718104f, -0.0836892650f, -0.1022977456f, 0.1386217922f, 0.1662161648f, 0.1075767502f, 0.1346927732f, -0.3340555727f, -0.0676940456f, 0.1416123211f, 0.3047318161f, 0.1624252796f, -0.1283012927f, 0.1024211720f, -0.0706796795f, 0.0398168527f, -0.1038935408f, 0.2730996013f, -0.1473072469f, -0.0685231462f, 0.0823638588f, 0.3539301455f, 0.1783362627f, 0.0671286732f, -0.2844393849f, 0.4311433434f, 0.1325106621f, 0.2276348025f, -0.0251592640f, -0.2450750917f, -0.0416098498f, -0.1472509354f, 0.0528315715f, -0.1270585805f, 0.0668849051f, -0.2470783591f, 0.1973988265f, 0.0526179224f, 0.1670777351f, 0.1148200259f, -0.0598122142f, -0.1309635788f, 0.2900376022f, 0.0123147136f, -0.0521795079f, 0.0062270290f, 0.3152236640f};
const float b1[] = {0.0028602579f, 0.0110792415f, 0.0091817677f, -0.0016395946f, -0.0051855813f, -0.0064396448f, 0.0092513962f, 0.0020529756f, 0.0119720204f, -0.0103983078f, -0.0126919216f, -0.0060170963f, 0.0007459764f, 0.0008362560f, -0.0017809087f, 0.0046591908f, -0.0102610653f, 0.0069209458f, 0.0030412879f, -0.0041083149f, -0.0072739618f, 0.0282494947f, 0.0206852667f, 0.0018479873f, -0.0022274649f, 0.0059946431f, 0.0224315189f, -0.0046710181f, 0.0027538915f, 0.0169732105f, -0.0002519937f, -0.0049481643f, 0.0058601298f, 0.0053146016f, 0.0050473236f, 0.0182286464f, -0.0114958463f, 0.0037594582f, 0.0114888577f, 0.0031166796f, 0.0035704575f, -0.0037693297f, 0.0037119088f, -0.0032527237f, -0.0082592946f, 0.0010270727f, 0.0083951466f, 0.0024845735f, -0.0045493767f, 0.0014573256f, 0.0027694365f, -0.0094002597f, -0.0112159280f, 0.0023395868f, -0.0063032834f, 0.0028406810f, -0.0020385818f, -0.0122705270f, -0.0016360222f, 0.0008153407f, 0.0071756863f, 0.0115305297f, -0.0000006960f, 0.0079661161f};
const float W2[] = {-0.2771692276f, 0.2655058503f, -0.1175000742f, 0.0672926754f, 0.0314628370f, -0.1290619969f, 0.0463574007f, -0.1386167407f, 0.0032890690f, 0.0714365542f, 0.4006878138f, 0.0547073074f, -0.1712777466f, -0.0474555232f, 0.1394339800f, 0.0555600002f, -0.2382802516f, -0.0282130670f, -0.0427495576f, 0.3929256797f, 0.1507759541f, -0.3378680646f, 0.2563925683f, 0.1950935125f, -0.1619506478f, -0.0994457677f, -0.1276282817f, -0.1361943483f, -0.1027483717f, 0.0025218653f, 0.0817140341f, -0.3100302219f, -0.1967204958f, -0.0057441988f, 0.1328572929f, 0.1555791497f, -0.2347571701f, -0.2023979276f, 0.2109999508f, -0.1065582260f, 0.3143258393f, 0.2811853886f, 0.2219612151f, -0.2206543684f, 0.0165550876f, 0.0212641191f, -0.0209872909f, 0.0504697412f, 0.0718752742f, -0.0628907755f, 0.0725125596f, -0.0421710387f, -0.0431426801f, -0.0661198720f, 0.0492346287f, -0.0044263387f, 0.0205748193f, -0.1835065186f, -0.1375505924f, -0.2175244093f, 0.2394810170f, 0.4759264290f, -0.0730529875f, -0.0632782876f, 0.0891173333f, 0.1040034369f, 0.0139801959f, 0.1513947695f, 0.1496360004f, -0.0269372314f, 0.2273041010f, 0.0496712849f, -0.0412263572f, 0.0715474486f, -0.2114166468f, 0.0434739217f, -0.0140940314f, -0.3059044480f, -0.2706496418f, -0.2002194375f, 0.1417322606f, 0.0545862652f, 0.0646535605f, 0.0030941546f, -0.1968587935f, -0.0412275568f, 0.0182116665f, -0.0594250076f, 0.1092424691f, -0.2492824048f, -0.1459189355f, -0.3212215900f, -0.1516283303f, 0.1734142154f, 0.4089686573f, 0.0776744261f, -0.0636832938f, 0.2033871412f, -0.1423359960f, 0.0376228057f, -0.1745202839f, -0.0246644896f, -0.0270093530f, 0.0876161605f, 0.0687297136f, -0.1593680382f, 0.1683047861f, -0.2558966577f, -0.0283851903f, -0.3529077470f, -0.2747406960f, -0.3666975498f, -0.0107468879f, 0.2452975810f, 0.3191106319f, 0.0226916764f, -0.1285484135f, -0.1850409806f, -0.0264068116f, -0.1872562170f, 0.2010855377f, 0.0129517699f, 0.1175775602f, 0.3660998046f, 0.3272806108f, -0.0596854128f, 0.0614994764f, 0.0800071433f, 0.2414360493f, 0.0976849943f, 0.0052116420f, 0.5174342990f, -0.1567235738f, -0.0271548945f, -0.2092419714f, 0.0123342127f, -0.0382130817f, -0.0096066287f, -0.0785800815f, 0.1563182473f, -0.2188517451f, 0.0788283050f, 0.1517445147f, -0.0626885146f, 0.0880367532f, 0.1501688659f, 0.0485548712f, -0.3825208545f, -0.0974733829f, -0.2251792550f, -0.1383583993f, 0.0791024268f, -0.1260819137f, -0.0447496139f, 0.2694755495f, -0.0270709284f, 0.0690738261f, 0.1044241935f, 0.1643777341f, 0.2844376266f, 0.0810090229f, 0.0852180198f, -0.1749184132f, 0.1301129758f, 0.1867616475f, -0.0749522597f, -0.0062657418f, -0.1130774543f, -0.0057348874f, 0.3337896168f, 0.0171081070f, 0.0923710763f, -0.2223022729f, -0.3581168354f, 0.2304935008f, 0.1155558005f, 0.2018668205f, -0.0001122900f, -0.1423380226f, -0.2535519600f, -0.0564283356f, 0.2127430290f, 0.0342194438f, -0.1772136688f, 0.0266177300f, -0.2597698867f, -0.2938178778f, 0.1747824997f, -0.1000562310f, 0.3353249729f, 0.0463876650f, -0.0514446981f, 0.2050951570f, -0.1432666481f, 0.1091393605f, 0.1813767552f, -0.1225496903f, 0.1837357432f, -0.0118496083f, -0.1948923916f, 0.0901789963f, -0.3065958023f, -0.3162571788f, 0.0867446959f, 0.0431333892f, 0.1399285346f, -0.0798574463f, 0.1505743414f, -0.0134410318f, 0.2242317945f, 0.2640162706f, 0.1602845043f, 0.2197274268f, -0.1064191833f, -0.3156189322f, -0.0897050574f, -0.4354956150f, -0.0119916406f, -0.0515958108f, -0.1281883270f, 0.1233051494f, 0.1119579896f, -0.1532976478f, -0.3199204206f, -0.0547410734f, 0.2468813807f, -0.1558155119f, -0.1998744458f, -0.1335756332f, -0.0030474742f, 0.0722367391f, -0.1598909497f, 0.0643720776f, -0.0574118942f, -0.0093050171f, -0.2936015725f, 0.0110329539f, 0.1829982102f, 0.0293351151f, 0.2375956029f, 0.2387856841f, 0.0574219823f, 0.0596974306f, -0.0745651275f, -0.2810102999f, -0.0168252941f, 0.4580464959f, -0.0249357354f, -0.0520537980f, 0.0436624661f, 0.2040166110f, -0.0809825733f, 0.1296052635f, -0.2141618282f, 0.0273742434f, -0.1764986366f, -0.0384350345f, -0.1827549040f, 0.0546613447f, -0.1262316257f, -0.0631213635f, -0.0429105461f, -0.1037435979f, 0.1952676326f, -0.2985576391f, -0.3126646578f, 0.1365697086f, 0.0961617231f, -0.2093668282f, -0.0432447381f, -0.2159337550f, 0.0086752530f, 0.0505437888f, 0.0189847704f, -0.2174781114f, -0.2956969738f, -0.0107645215f, -0.4035848379f, -0.1467124820f, 0.0458731391f, 0.1124662310f, 0.2425737679f, -0.0738102570f, -0.0140538653f, 0.0151955625f, 0.1423336715f, 0.4210052788f, -0.1951279789f, -0.1944444329f, 0.2607986629f, 0.2776208520f, 0.0012955536f, 0.2382106483f, 0.2742001116f, 0.3373049796f, 0.1218950972f, -0.1763864905f, -0.1673338562f, -0.1973717958f, -0.1461434513f, 0.0059404895f, 0.0350002460f, -0.0090850368f, 0.1367909461f, -0.0056125056f, -0.0398115367f, -0.1977794915f, 0.0993489102f, 0.1415082663f, -0.0820349678f, -0.0284995269f, 0.1957493424f, -0.0738661662f, -0.0915734023f, -0.1009364501f, -0.0336554311f, 0.2980130315f, -0.0669573024f, -0.2819415927f, 0.0535741933f, 0.1616739482f, 0.1604505926f, 0.1255303770f, -0.2146632224f, 0.2681881785f, -0.1364247352f, -0.1775975525f, -0.0949059278f, -0.0730730519f, -0.0614814796f, 0.1591461897f, 0.1568905413f, -0.2905858755f, 0.0277737714f, 0.0475155041f, -0.1277781725f, 0.1318903863f, -0.0445192046f, -0.0063258577f, 0.0657011792f, 0.0802688673f, 0.2474674433f, 0.0699730366f, -0.4100343883f, -0.1670253128f, -0.1020976231f, -0.1424212903f, 0.2910059690f, -0.2883380949f, -0.1332947314f, 0.0561577529f, -0.1230015308f, 0.2401884347f, 0.1666878760f, 0.1429707706f, -0.0807002261f, 0.1724584848f, -0.0634091422f, 0.0691080913f, 0.2337848395f, 0.1337802112f, -0.0233962703f, -0.2340547442f, 0.2116688192f, -0.2377449870f, -0.2567639053f, -0.2114526182f, 0.3094570935f, 0.1113054454f, -0.1762076765f, 0.1763700396f, -0.2463683635f, -0.3275827467f, 0.0220131855f, -0.0764622092f, 0.0307904650f, -0.2967897058f, 0.2176236212f, 0.0462529846f, 0.0280993711f, 0.2252764702f, 0.0907463655f, 0.1919277757f, -0.0004480545f, 0.1079322025f, -0.1215601042f, -0.0930099934f, 0.1935261339f, 0.2640033364f, 0.2218457460f, -0.1360763758f, 0.1858416647f, 0.0753806457f, -0.2388243228f, -0.0692967623f, 0.3139078617f, -0.0447680801f, -0.0481590964f, 0.1387999356f, 0.0041437112f, -0.0334307663f, -0.2530710995f, -0.0693819374f, 0.0649785921f, -0.1440802962f, 0.0950910896f, -0.2301726788f, 0.2514860928f, 0.0042422791f, -0.1052890047f, 0.0297235791f, 0.0285512488f, -0.0064180875f, -0.1694952399f, -0.1569595039f, -0.1043986082f, 0.0582782477f, 0.1910098791f, 0.1217773184f, -0.2458243966f, -0.1760406941f, -0.1341044754f, 0.2098257989f, -0.2652585506f, 0.1901001632f, -0.0231402274f, -0.0046433625f, 0.2856029272f, -0.1367469877f, 0.0815523490f, -0.0540781356f, 0.2700618804f, -0.4014897346f, 0.4115145206f, 0.2307218611f, -0.0506810732f, 0.2689566910f, 0.2363920361f, -0.3469064832f, -0.0544475280f, 0.2146547586f, -0.1507757455f, 0.0909366012f, -0.0213347338f, 0.2124254555f, -0.0572529919f, -0.1258424968f, 0.0123325167f, 0.0308092609f, -0.2120741606f, 0.0010323650f, -0.0944363996f, 0.0805857778f, -0.0530298091f, 0.0247379597f, 0.2509530485f, 0.2560378909f, -0.1290003359f, 0.1367817372f, 0.1542090327f, -0.1390286684f, 0.4986029863f, -0.1195450723f, -0.2715040743f, 0.0617333315f, -0.1003101394f, 0.2130061537f, 0.1123055890f, -0.1830737740f, -0.1719786674f, -0.0604958981f, -0.0265656691f, -0.0496692583f, -0.2037364095f, -0.2243743688f, 0.0369365737f, 0.0600719154f, 0.2201447785f, -0.0861422345f, 0.2024360597f, -0.1690664887f, 0.1482722014f, -0.3779234290f, 0.1987303495f, -0.2047075480f, -0.1271102279f, 0.0042897528f, -0.1726491004f, -0.2028451711f, -0.1452075094f, -0.0669311360f, 0.1701106727f, 0.2083853036f, 0.0924533606f, -0.0538458079f, -0.2522217631f, -0.0091464231f, -0.2426360250f, 0.0071619782f, 0.1848321259f, 0.0545657352f, 0.0885601267f, -0.2039234936f, -0.1206794679f, -0.4376530349f, -0.0885702670f, -0.1777073145f, -0.2083455473f, 0.1675651819f, 0.0776629746f, 0.2142858654f, 0.0237588380f, -0.1051723659f, -0.0564248860f, 0.0164844841f, 0.1958933920f, -0.0129826861f, 0.1970836073f, -0.1601189971f, 0.0271137916f, -0.1427728683f, 0.4474779069f, -0.0385134891f, 0.0873200074f, 0.0619051568f, -0.1188512668f, -0.1265692711f, -0.0730745047f, 0.0943549946f, -0.4299088717f, -0.1835616380f, -0.1400439739f, 0.0658064783f, -0.0602575950f, -0.0226180591f, -0.2196427137f, -0.2823790908f, -0.2419548780f, -0.3439371884f, 0.0773746148f, -0.1066649258f, 0.1575861424f, -0.1963911057f, 0.0456658378f, -0.4338709712f, -0.0857872665f, 0.0454203300f, 0.1514095366f, -0.2689276040f, 0.0391047820f, -0.0013193382f, -0.0451180078f, -0.0893249735f, 0.1967437565f, -0.0936417580f, -0.0369819477f, -0.0344322063f, -0.0246657059f, 0.4332482815f, 0.1359118670f, -0.1139187515f, -0.1558438987f, -0.0161941331f, 0.0325000249f, -0.0999523550f, -0.0555380136f, -0.1204873249f, 0.0141873229f, 0.0571087264f, 0.3497788012f, -0.1998911202f, 0.3073726892f, 0.0027337202f, -0.2673070133f, -0.1563791484f, -0.2653483748f, -0.2016819566f, 0.1142681018f, 0.0612826087f, 0.2916834056f, -0.1548560411f, 0.1429344118f, 0.1240294725f, -0.0048014722f, 0.2665485144f, -0.1613116264f, -0.2284637690f, -0.2080478519f, -0.1153537929f, -0.0495027415f, 0.1953808963f, -0.1474251598f, -0.1685721725f, 0.0045184060f, -0.0790341049f, -0.2467237115f, 0.1952168643f, -0.0607798398f, -0.2564431131f, -0.1007857621f, 0.3236775696f, 0.1713177413f, -0.3694529831f, 0.0471850261f, -0.1480389237f, -0.1999716610f, -0.2006716132f, -0.3202352524f, 0.1844585240f, -0.2611382902f, 0.0115716150f, -0.0883103460f, -0.1015410945f, 0.0046285815f, 0.0951055959f, 0.1123063490f, -0.1796906441f, 0.0168996919f, -0.2051761001f, -0.1779352725f, -0.0932602510f, 0.0468300208f, -0.1314843595f, -0.1856444925f, -0.2961292863f, -0.1058419794f, -0.1424060613f, 0.0929279029f, -0.3623819053f, 0.1773437262f, -0.1196633503f, -0.1975513250f, 0.0942886993f, -0.0961293653f, -0.2438463271f, 0.0349770598f, 0.1598986536f, 0.1413456053f, 0.2253339142f, 0.0616195761f, 0.3155856133f, -0.1797802448f, -0.0224675611f, 0.3876751065f, 0.2280452400f, 0.0378002077f, -0.1541882157f, 0.1906982958f, 0.3662723005f, -0.1515642405f, 0.3043758571f, -0.3248904645f, 0.1168959439f, -0.0494093560f, -0.3259928524f, 0.0043323743f, 0.2467753291f, 0.1489693075f, -0.0807267576f, 0.0693365261f, 0.0054015783f, 0.1299175173f, 0.3548119962f, -0.1383916885f, -0.1044274569f, 0.2673031688f, 0.1387650520f, -0.2582061887f, 0.0113535868f, 0.0525599457f, -0.1016245037f, -0.1170979366f, 0.1140768677f, 0.0106597412f, 0.2185189575f, 0.1997336298f, -0.1469414085f, -0.0936109871f, -0.0514145829f, 0.2853872180f, -0.1562311202f, 0.2437294424f, 0.0788934752f, -0.0689190403f, 0.1852838844f, 0.0255080685f, -0.1903270781f, 0.3664080203f, -0.1376963854f, -0.0502229556f, -0.0060190819f, 0.1039503217f, 0.0658098608f, -0.0462483093f, -0.0425982848f, -0.2316141278f, -0.0259269979f, -0.0482219942f, -0.1753586680f, 0.0388558842f, -0.0293280706f, -0.0901683345f, -0.0899867192f, 0.0273308530f, 0.1219662279f, -0.1319478750f, -0.0650785863f, -0.0136382449f, -0.1087104678f, -0.0035203609f, -0.0267432351f, -0.0390884653f, 0.0577667020f, 0.1363304853f, 0.1183230355f, -0.4500434399f, -0.1392085850f, 0.0602236204f, 0.2559965849f, 0.0886288434f, 0.0964607522f, -0.0409026630f, 0.1266872138f, 0.1828394532f, 0.1746922284f, 0.1105180234f, 0.1094748676f, 0.4500161409f, -0.1805944592f, 0.2532567978f, -0.1188719720f, 0.1159414649f, -0.3051260710f, 0.1876455098f, -0.0422405042f, 0.2437969446f, 0.0674867779f, 0.1678662896f, -0.0046699359f, 0.2412624657f, 0.1685097814f, 0.1334071308f, -0.0354606844f, -0.2108501792f, 0.1834556758f, -0.1102469489f, -0.0898615196f, -0.0645169839f, -0.2073594332f, 0.1838009208f, 0.1473806649f, -0.0014973056f, 0.0944102183f, 0.2401856035f, -0.1084568426f, 0.1644733995f, -0.2850673497f, 0.0947921872f, -0.1904142052f, -0.0644016936f, -0.0447000563f, -0.0157536231f, 0.1105729938f, 0.2953671217f, 0.2922600508f, -0.1330323517f, -0.0769385993f, 0.4325360060f, 0.1595410854f, -0.2503633499f, -0.2437647879f, 0.0295062717f, -0.0842992738f, -0.1895587891f, -0.0100224260f, 0.1406732053f, -0.2642422318f, -0.2084026486f, -0.2627154291f, 0.0910219774f, -0.1165116057f, 0.0863937885f, 0.1611529738f, -0.3377795219f, -0.2483584732f, -0.0055865347f, -0.1628661603f, 0.3272354603f, -0.1177156940f, 0.0508989282f, 0.1768722683f, -0.0461961254f, -0.0988205746f, 0.4785664380f, 0.0575141907f, -0.2383840233f, 0.0308459997f, 0.1167501956f, -0.3141560555f, 0.2641767263f, -0.3060752749f, -0.4583044946f, 0.1211378723f, -0.1079802811f, -0.0100764092f, 0.1470261812f, 0.2070100754f, 0.0818825886f, 0.0569910668f, -0.1359659582f, -0.0210315380f, -0.1280668378f, -0.0574866422f, -0.2721587718f, 0.0978125036f, 0.0260441005f, 0.0036425092f, -0.0954619423f, 0.1677508503f, -0.0800728127f, 0.0609903596f, -0.0011798580f, 0.0605071858f, 0.0073552388f, -0.0140514225f, 0.0785924196f, 0.0014210431f, 0.1293565184f, 0.1494125575f, 0.0402164087f, 0.2775434852f, -0.0652625710f, 0.1721202433f, -0.0066084587f, 0.1089690700f, -0.2042576820f, -0.2235819846f, 0.1602165997f, -0.0388839841f, -0.1266467571f, -0.1768886745f, -0.1313630044f, -0.1348594874f, -0.1814274341f, -0.2845779061f, 0.0429582112f, -0.4066940546f, 0.1811865568f, -0.1374546736f, 0.1237817928f, -0.0669552013f, -0.0146033820f, -0.0447141230f, -0.1567933708f, -0.1172623187f, 0.1172671840f, 0.1144051924f, -0.0717754513f, 0.1117463112f, -0.0168218669f, -0.3050901890f, -0.1265972108f, -0.4359652102f, 0.0181013085f, 0.1973017156f, 0.1594477594f, -0.0767166987f, 0.1410274357f, -0.0301055200f, -0.0412662067f, -0.0414880551f, -0.1220364720f, 0.2565086484f, -0.0581946373f, 0.0688317344f, -0.2895941734f, -0.1872920245f, -0.2163060308f, -0.0909368396f, 0.1051623896f, -0.0530810170f, -0.2976114452f, 0.2093487680f, 0.3049102426f, 0.2770216465f, -0.0940892845f, -0.3275423944f, -0.0879578888f, -0.0128880087f, 0.2114553005f, 0.0247885901f, 0.0435192659f, -0.2761501968f, 0.2421080917f, -0.1233747825f, -0.1262953132f, -0.0437115170f, -0.1643371284f, -0.0309776273f, 0.0362735204f, -0.3303140402f, -0.1614724547f, -0.0678775311f, 0.0405340530f, 0.0816574022f, -0.0093158456f, -0.3993153870f, -0.1322951466f, -0.0157478545f, 0.0421635360f, -0.1267088205f, 0.0100746108f, -0.0269654188f, -0.2784353495f, 0.0058117947f, 0.1390142441f, 0.1114803776f, 0.0592027381f, 0.1213558018f, 0.1525089443f, 0.2223224491f, 0.0055846805f, 0.1347682625f, -0.1821571290f, 0.1059614792f, -0.2883289158f, 0.4182480276f, -0.0449593253f, 0.2750740647f, 0.1474914849f, 0.3604318500f, 0.1092319489f, -0.2973300219f, -0.1898947060f, 0.0372930765f, -0.1053377688f, 0.0413151011f, 0.1635893285f, -0.0056589055f, 0.1847459972f, -0.2250098139f, 0.0057272990f, 0.2573800683f, -0.1303659230f, 0.0084377928f, 0.0267915502f, -0.1985279769f, -0.0525876433f, 0.0702113509f, -0.1745063365f, 0.0090415776f, -0.0745802000f, -0.4717220962f, 0.2300797105f, 0.0519970469f, -0.0112223420f, 0.1649564058f, -0.0930125788f, 0.1671983451f, -0.3005200028f, 0.0880936757f, -0.0797457471f, -0.1971300989f, -0.1165331081f, 0.2026284337f, 0.1753602773f, 0.3703230023f, 0.0195394475f, 0.0786290243f, 0.0216152091f, -0.1146272942f, -0.1463820189f, -0.3649329841f, -0.0027525460f, 0.3281957805f, 0.0263524074f, -0.1163425520f, 0.0705223903f, 0.2554517090f, 0.0926532522f, 0.0085041104f, 0.0106355920f, -0.0405838266f, -0.0365733951f, 0.0504863448f, -0.2342862636f, 0.0894653425f, -0.2396626920f, 0.2255866379f, -0.3136168718f, 0.0116777001f, 0.0282036830f, -0.2099857330f, 0.0512705855f, -0.1179243773f, 0.0342836753f, 0.2288736701f, -0.0998159572f, -0.0382617675f, 0.1405230165f, -0.1106675863f, -0.0225249510f, -0.0864413306f, 0.0401506200f, -0.1033110768f, -0.1542017907f, 0.1149269864f, 0.2231121957f, -0.2348451465f, 0.1858185381f, 0.0351473428f, 0.1401155740f, -0.0426727384f, -0.3320162594f, 0.1960331351f, 0.0800966024f, -0.1202218160f, 0.3039592505f, -0.5337094069f, -0.0608157814f, -0.0178066660f, -0.0101020113f, -0.3168067038f, 0.1953470856f, -0.1062822491f, 0.0531772301f, 0.2218970507f, -0.0829894394f, 0.0202420019f, 0.0816965029f, -0.0627877116f, 0.0163735729f, -0.0005224003f, -0.2903326154f, -0.0723961070f, -0.1899221987f, 0.2104801238f, -0.0678130835f, -0.0964614972f, -0.2034490556f, -0.3765569925f, 0.2973457575f, -0.0469621755f, 0.0937157646f, 0.0982011482f, 0.2986068726f, 0.0003025774f, -0.1525598317f, 0.1805274189f, -0.1195346117f, -0.1644034088f, -0.0628556907f, -0.1875440329f, 0.2033849806f, 0.3267351091f, -0.0088996831f, -0.1421718895f, -0.2639880180f, -0.3095724285f, 0.1408757418f, -0.1265392154f, -0.0284570586f, 0.0317881927f, -0.3214587271f, 0.0351114236f, -0.0268543866f, -0.2443897724f, 0.3041359782f, 0.1011267379f, -0.0164679345f, 0.2718900442f, 0.4503930211f, 0.0604677759f, 0.0498657264f, -0.1156537607f, -0.0832510442f, 0.0767254606f, -0.4173439741f, -0.1307826340f, -0.0138571495f, 0.0516752526f, -0.2126082927f, 0.0575843044f, 0.1860852540f, -0.0531480424f, 0.1510197222f, -0.0417203158f, 0.0260162149f, -0.1138335019f, 0.0225973576f, -0.2451069355f, 0.0115667004f, -0.2679722905f, -0.1140991524f, -0.0320090465f, 0.1497091502f, 0.0278597604f, -0.0026233150f, 0.0326830223f, -0.1810445935f, -0.0793306455f, -0.1673683226f, -0.0501774587f, 0.1881557703f, 0.0976633206f, 0.0743279979f, -0.0447967090f, -0.0430246629f, -0.2980276346f, -0.1321589202f, -0.2213851064f, -0.0470676124f, -0.2999888957f, -0.3642028570f, 0.1007604972f, -0.0919100270f, -0.2290631682f, 0.2289059162f, -0.2241660058f, -0.0517321490f, 0.0288324077f, -0.2981866598f, 0.2967884839f, -0.1840959787f, 0.1923467517f, -0.0366421118f, 0.2564123869f, -0.2019254416f, -0.3388263285f, -0.0521196462f, 0.1718124598f, 0.2762671411f, 0.0571611412f, 0.0906553343f, -0.2066198438f, -0.0258207861f, -0.0250709876f, 0.1485630423f, -0.1549961269f, -0.2015595883f, -0.1074603423f, -0.2845631838f, -0.0297712386f, -0.2793866396f, -0.1383325011f, 0.2585332096f, 0.2220303416f, -0.0703076571f, -0.0065480759f, 0.2139667571f, -0.0467285477f, 0.1902869642f, -0.1822382063f, 0.1080804393f, -0.1623650938f, 0.0938764364f, 0.2643689811f, 0.1636754572f, 0.0284088105f, 0.1892491281f, -0.1535707563f, 0.0047477721f, -0.2203423381f, 0.1040190235f, 0.1966570169f, 0.0286149103f, -0.0723983869f, -0.1381128579f, 0.2819460332f, 0.1912768036f, 0.2245488018f, -0.0881212950f, 0.2820227742f, -0.1223176792f, 0.3731474876f, -0.0172849391f, 0.0972706750f, 0.0558608919f, 0.0731809810f, 0.2731494009f, -0.0515143424f, -0.0913007036f, -0.1546799988f, 0.1614382118f, 0.2621783614f, 0.1906207204f, -0.0428548753f, -0.1659692824f, -0.0138586126f, 0.0010173991f, 0.4198020697f, -0.1032597795f, -0.1083616316f, -0.1546010673f, 0.3030540645f, -0.1833440214f, -0.0705464035f, 0.2451056391f, 0.3590538800f, 0.0023611898f, -0.1070817113f, -0.2717361152f, 0.1101705059f, -0.2893362045f, 0.0348578021f, -0.3614830375f, -0.0483489446f, -0.0357662700f, -0.0021207002f, -0.0171078816f, -0.0865194723f, 0.0068923454f, 0.0182446577f, 0.0886233971f, 0.0340436958f, 0.2524329722f, 0.0653124228f, 0.1640160829f, 0.2038530558f, -0.2409855425f, 0.0275547411f, -0.0211154725f, 0.1421260983f, 0.3647802174f, 0.1425261348f, 0.0986028314f, 0.0269195214f, -0.0003725966f, -0.1070708260f, -0.2005125135f, -0.0025043348f, -0.0185329728f, 0.1628965288f, 0.0852089003f, 0.0583709963f, 0.0319312438f, -0.3382381797f, -0.0686034039f, -0.1949595213f, -0.0118655432f, 0.2436045110f, -0.0697878674f, 0.1722441614f, 0.1254103333f, -0.0850621909f, 0.1132563353f, 0.0268962979f, 0.0230697282f, 0.1036360264f, -0.3093327582f, -0.2165406346f, -0.0823763758f, -0.2023110241f, 0.2195879072f, 0.2218101770f, 0.0133802062f, 0.4820376933f, 0.2438380569f, 0.3039402068f, -0.2309045196f, 0.0136285331f, 0.1310533434f, 0.0536435023f, 0.3405837417f, -0.1093011573f, -0.0111118453f, -0.3264120519f, 0.0386712849f, 0.0080695003f, 0.2619599998f, 0.2168574333f, 0.0627263933f, -0.2788639367f, 0.1360703558f, -0.0831972137f, 0.0857712179f, 0.1303060055f, -0.2121462375f, 0.1258090883f, 0.0571262315f, 0.0816376880f, -0.0197351128f, -0.0796257108f, 0.0221858583f, -0.1991151422f, 0.1964296550f, 0.0253669936f, 0.1277690232f, 0.3908817172f, 0.0523929559f, 0.2817807794f, 0.1771450192f, 0.1649644822f, 0.1003604233f, -0.0834435746f, -0.1006745920f, 0.0268609226f, -0.2442918271f, 0.2341063470f, 0.2705999911f, 0.1177526712f, -0.1024027541f, 0.0292084794f, -0.0756998435f, 0.1450479031f, 0.1316845119f, 0.2045781165f, 0.1174932793f, -0.3890520930f, -0.0591095127f, 0.1299591660f, -0.0880734697f, 0.1156879738f, -0.1122494489f, -0.1252891123f, -0.0899243057f, 0.0649244860f, 0.0878047794f, 0.1344086826f, -0.0550433360f, -0.3221429884f, -0.3484661281f, 0.2337153256f, 0.1475287229f, -0.3942995071f, -0.2022680491f, -0.0416463055f, 0.1111429483f, 0.2575057745f, 0.0646938756f, -0.1141872704f, 0.2815525532f, 0.0455607921f, 0.1017916426f, 0.2088291049f, 0.1163197756f, 0.3739470541f, 0.1961215138f, -0.0417935438f, 0.0246326160f, 0.0594972447f, 0.1760249436f, -0.1257785708f, -0.2682877779f, 0.0402472131f, 0.0277861450f, 0.1478799284f, 0.0534759313f, 0.0973115787f, 0.0441512316f, 0.0089602862f, 0.3249458075f, -0.0587255843f, 0.0732643679f, -0.1694072336f, -0.2576287389f, 0.1784258783f, 0.1810670793f, 0.2605148554f, 0.1561418027f, 0.2423218638f, 0.0703122094f, 0.0572254509f, 0.2227659076f, 0.1424323916f, 0.1304945350f, -0.0769426003f, -0.0769347325f, 0.4023427367f, 0.0223019328f, -0.2895790040f, -0.0057001594f, 0.3057562411f, 0.3510500193f, -0.0392451547f, -0.0972871706f, -0.2890608609f, 0.0915243477f, 0.0695970282f, -0.2607154548f, 0.0975114107f, -0.1349187344f, -0.0502083078f, 0.1676300764f, 0.0473706611f, 0.0864471197f, 0.1166063920f, -0.0402506739f, -0.1325550973f, -0.2018884271f, 0.0369215496f, -0.0479067005f, 0.1280194372f, -0.0879284218f, -0.0440981165f, -0.1076979041f, 0.0863796771f, 0.2415865511f, -0.1835535914f, -0.1106076092f, -0.1368471384f, 0.1538324654f, 0.3049249947f, -0.0028543693f, -0.0118553787f, 0.3897063136f, -0.4211027026f, -0.1241665930f, 0.0512514189f, -0.0869779959f, 0.4076912999f, -0.0193143152f, -0.0545774512f, -0.2928466797f, 0.1649938673f, -0.0504335836f, 0.1483166218f, -0.0766971707f, 0.0842754617f, 0.1258357465f, 0.0035303428f, -0.0100660156f, -0.2639172673f, 0.0482324883f, 0.2223962396f, -0.0768056512f, -0.2309262455f, -0.0456907898f, 0.1683116406f, -0.0509949662f, 0.2237608284f, 0.2910907269f, -0.0453232341f, -0.2356449217f, -0.0703679174f, -0.2757780254f, 0.1827451438f, -0.1748342961f, -0.2377667725f, -0.1364988685f, 0.1293359995f, -0.2050077468f, -0.2357263118f, -0.1754781455f, 0.1193291694f, 0.3043973446f, 0.1636486948f, 0.1257023960f, -0.2000509501f, 0.0186867360f, 0.1184786558f, 0.0694913194f, -0.1115976945f, -0.1654830128f, 0.3677998483f, 0.0607794710f, -0.0306137800f, 0.2731362283f, 0.2128577828f, 0.1766600907f, -0.3434634507f, 0.0291252173f, -0.1647030413f, 0.2172965556f, -0.2409812808f, -0.2031019479f, 0.1615073085f, 0.0058095758f, -0.0533301011f, 0.1598009467f, -0.0542851985f, 0.0498657189f, 0.3412451446f, -0.2192071974f, 0.0116447909f, -0.1834946126f, -0.1421169788f, 0.2153803408f, 0.3106889725f, -0.2064933181f, -0.0431835279f, 0.2153513879f, -0.1085127443f, -0.1769277602f, -0.2139350176f, -0.3781838119f, -0.0106047057f, -0.3757059276f, -0.2589644194f, 0.1562701166f, 0.1076288447f, -0.0708041340f, 0.3340114951f, -0.0302668400f, 0.1487121135f, -0.2623476982f, -0.2418767214f, -0.1026023105f, -0.0404841602f, 0.0572159477f, 0.1789985597f, 0.0298319049f, 0.0231113452f, -0.0547898635f, 0.0159009527f, 0.0425150208f, 0.0549854524f, 0.0735861063f, -0.0246825907f, 0.0987341553f, 0.2275515348f, 0.0036110356f, -0.1572172940f, 0.0780440569f, 0.4027459621f, 0.2231544852f, -0.0522935800f, 0.1312315017f, -0.1901207417f, -0.0602368377f, 0.0415912680f, 0.0069169793f, -0.1395878792f, -0.1046225429f, 0.2518026233f, 0.3699240983f, -0.2689600289f, 0.1069685519f, -0.0683114380f, -0.1961471885f, 0.0751147047f, 0.0007133032f, 0.0373596996f, -0.0159260463f, -0.0509514026f, -0.0663373917f, 0.0196512714f, -0.0920943171f, -0.0536557771f, -0.4654616117f, 0.0665386170f, 0.1640895605f, -0.3089973927f, 0.0371473618f, -0.1044267416f, -0.2505329549f, -0.1409079134f, -0.1977126896f, 0.4430734813f, -0.0439192019f, -0.0854465887f, 0.0845926777f, 0.0251104310f, 0.0767850950f, -0.0205877852f, -0.1681456119f, -0.1060516685f, -0.0143721737f, 0.1057447046f, 0.0195519719f, -0.2640432715f, -0.1495324224f, -0.1200776771f, 0.2580097020f, 0.1387250125f, -0.1044882312f, 0.0777586251f, -0.0232505742f, -0.0689005107f, -0.2099995762f, 0.1141701415f, -0.0842622891f, -0.0595844537f, 0.1731392890f, -0.3397752345f, -0.0616422221f, -0.0646347404f, 0.2026627958f, 0.1322644651f, -0.0539947748f, -0.3100610375f, 0.0237100087f, 0.0305661559f, -0.1002244577f, 0.0683839172f, 0.1596143097f, 0.2475033104f, 0.1843568832f, 0.0953466743f, 0.1416640431f, 0.1833962798f, -0.1528490037f, -0.0187509842f, -0.0395958163f, -0.4153029323f, 0.0197252072f, 0.3778100312f, 0.2975528240f, 0.0958785117f, 0.0511648953f, 0.2799936831f, -0.3131036758f, 0.5478233099f, 0.0243583284f, -0.0680387467f, 0.0013278065f, 0.2114591897f, -0.0088278912f, 0.2033033967f, -0.0095707150f, -0.0590231381f, 0.0473336205f, 0.0002579127f, 0.0658070892f, -0.0580615476f, 0.2109164894f, -0.2381019145f, -0.1627193391f, -0.3589161634f, -0.0976585895f, -0.1573049426f, 0.0769642591f, 0.0957689360f, 0.1422041953f, -0.0970552340f, 0.1051559150f, 0.0296116639f, 0.3232517838f, 0.0470720977f, 0.0183413252f, 0.0685227662f, 0.1918637455f, -0.0435104892f, -0.1033130363f, -0.0892533436f, -0.1119605973f, -0.0465161949f, -0.3165643811f, 0.0523665734f, 0.0907371491f, 0.1365352720f, -0.0856071189f, 0.1707780659f, -0.0406200252f, -0.0103418389f, 0.0741351172f, -0.1027374640f, -0.1455963701f, 0.1311501116f, -0.1391779631f, -0.1077606082f, -0.3828370869f, -0.1774117351f, -0.2934668064f, -0.1044393778f, 0.0051193964f, 0.2893316150f, 0.1500679851f, -0.2500755787f, -0.2343318164f, 0.2298862785f, 0.0120354863f, -0.2376209497f, 0.0899573788f, -0.0323401205f, 0.0085603502f, -0.0922881588f, -0.1510694623f, -0.0388026573f, -0.0030746132f, -0.0717230886f, -0.0324751250f, 0.2878859639f, 0.1313772798f, -0.0825240314f, -0.1349408031f, 0.2171997577f, 0.2456275076f, 0.2624721527f, -0.3622322381f, 0.1370315850f, 0.1286788136f, -0.3318331838f, -0.2115139216f, -0.0956347808f, -0.0594040453f, 0.0378644131f, -0.0222590286f, -0.3302701414f, -0.0059657171f, 0.1563663334f, -0.1797379851f, -0.0700176135f, -0.0480230115f, 0.0159235168f, -0.4408487380f, 0.0074493466f, 0.2052666992f, -0.3224048615f, 0.0933138430f, -0.1447123885f, 0.1919231266f, 0.1421814412f, 0.2148085684f, 0.1901822984f, 0.0090234131f, -0.2315131724f, -0.0732514933f, -0.0955249667f, -0.1586476266f, 0.1582533717f, -0.1418908685f, 0.0614681393f, 0.0762995332f, -0.1744491011f, -0.1359201372f, 0.3606571853f, -0.0555624105f, -0.1453261077f, -0.0613025799f, 0.1548077464f, 0.3500900865f, 0.1503837407f, -0.2077458501f, 0.0126877138f, 0.0561373495f, 0.0290634520f, 0.2475593239f, -0.0435891040f, -0.2159743160f, 0.1576369852f, -0.0098660411f, -0.3194306791f, -0.1119213030f, 0.1932229549f, -0.2903378606f, 0.3361466825f, 0.1316115111f, -0.1152774766f, 0.3412653506f, 0.0638821051f, 0.0315871052f, 0.0082143554f, -0.0130056133f, 0.1863162220f, 0.0493375286f, 0.0470648669f, 0.0587218590f, 0.0000184367f, -0.1056552604f, 0.0283243842f, -0.1460936219f, -0.1639129817f, 0.3037316799f, -0.1459195018f, 0.2274864465f, -0.1421112567f, -0.0568003953f, 0.1414465308f, 0.0236876104f, -0.0860490128f, 0.2007244974f, 0.2212758362f, -0.2267315388f, 0.1360525489f, 0.0704758167f, -0.2397445440f, -0.0782616436f, 0.2038562447f, -0.0295819584f, 0.1922088265f, 0.0683498308f, 0.3019184172f, -0.1571947485f, 0.0082071312f, 0.1882623583f, -0.5696953535f, 0.0825735852f, -0.0630528480f, 0.1437898427f, 0.1723198146f, -0.0872277468f, 0.1642229557f, -0.0874332488f, -0.1166632622f, -0.0062347935f, 0.0647604838f, 0.2048759907f, -0.1089522466f, 0.4140701890f, 0.0618416443f, 0.2159896642f, 0.0210634563f, 0.1963517368f, 0.1909469664f, -0.0755729824f, -0.2837501466f, 0.3306778073f, 0.1015881896f, 0.3453898728f, -0.0165674370f, -0.0201300494f, -0.2712761164f, 0.3936304748f, 0.2286949903f, 0.0388616659f, 0.0417599790f, 0.0325933322f, -0.0373809524f, 0.0447388515f, 0.1664368212f, -0.0582125671f, -0.1726609617f, -0.0416021831f, 0.3984312117f, -0.0606478527f, -0.0941083804f, 0.1001577005f, -0.1502425969f, -0.3358306885f, -0.3982748985f, -0.0246090665f, -0.0872488022f, -0.1987509429f, -0.0374841429f, -0.0612897500f, 0.1823266000f, 0.2287975252f, 0.3142268062f, -0.1067945063f, -0.0483328812f, -0.0621198192f, 0.1983233094f, 0.0964962989f, -0.0294527970f, 0.1751328856f, -0.1422108710f, -0.0560810976f, -0.0826795176f, -0.1234234422f, 0.0249441322f, -0.0655237511f, 0.0513609610f, 0.0089016929f, -0.1091658995f, 0.1247920543f, 0.0235999338f, -0.0174660478f, -0.1774991751f, -0.2330922782f, -0.0547388345f, -0.2449810803f, -0.1269581467f, -0.3075330257f, -0.2752805352f, 0.1885417104f, -0.0248044711f, -0.1158970147f, 0.2416781336f, 0.1505813599f, 0.3056852221f, 0.0276871882f, 0.1078306511f, 0.0966088027f, 0.1784189492f, -0.1076183617f, 0.1567867845f, 0.1909453869f, -0.2611482441f, 0.0886254981f, 0.1133838892f, 0.1838760525f, -0.1000342742f, 0.1770581305f, -0.0779627562f, -0.1260884702f, -0.0507515147f, 0.0764378682f, 0.1334698796f, -0.1923024356f, -0.1428435594f, -0.0479870625f, 0.0414160676f, -0.1869984269f, -0.0004456207f, -0.2924089730f, 0.1154812127f, 0.0945309177f, -0.0191403683f, -0.1306178570f, 0.1094105840f, -0.0212080497f, -0.0692304298f, 0.1596999764f, 0.1119109318f, -0.2189689130f, 0.0313150249f, 0.0855155662f, -0.1967930943f, 0.0353434347f, -0.2583760619f, 0.4395100176f, -0.0266811159f, -0.3535168171f, 0.0766755491f, -0.2822472155f, 0.0422838256f, 0.1733895093f, 0.2082212567f, 0.0946247131f, 0.2632749379f, -0.0458885171f, -0.0133878514f, 0.1638411134f, 0.3104888499f, 0.5059031844f, -0.0671637356f, 0.2258726805f, -0.1878572106f, 0.0793070570f, -0.4583262205f, -0.1227301657f, -0.0106630791f, -0.1091591865f, -0.0447671264f, -0.1565369517f, -0.1167809963f, 0.0153502924f, 0.3109297752f, -0.1198140979f, -0.0371284597f, 0.1759611070f, 0.0861316100f, -0.3774196208f, -0.0193366427f, -0.0867153257f, -0.0316793732f, 0.0044984608f, 0.2423759699f, 0.0997803211f, -0.0834426954f, -0.1312490106f, 0.0430290811f, 0.1088358164f, -0.0251661930f, 0.0314679556f, -0.1572745889f, -0.1896099150f, 0.4389351904f, 0.0197973028f, -0.2630728185f, 0.1269987524f, 0.1401370615f, 0.2132355273f, 0.0495415479f, 0.0052908156f, -0.0915664807f, 0.3951082528f, -0.1667924970f, -0.0326196030f, 0.2095114589f, -0.1335283816f, -0.0783304349f, 0.1541853994f, -0.1610337347f, -0.0706631094f, -0.3056868613f, 0.1610014886f, 0.2649266124f, -0.2407367378f, -0.2251317352f, -0.2175545990f, -0.1274632812f, -0.0911661312f, -0.2251649797f, -0.0888774469f, 0.1187504530f, 0.0778249353f, -0.2326352149f, 0.2089819461f, -0.0607436597f, -0.0182604454f, -0.1820228100f, -0.0128987925f, 0.1143513322f, 0.3490244746f, -0.0981326476f, 0.1561147124f, 0.0934484079f, 0.3546013534f, 0.1918872446f, -0.2835193872f, 0.0418453440f, -0.0465211235f, -0.2648800313f, 0.1250427365f, -0.0956728011f, 0.5239087939f, -0.0698861256f, 0.0434361510f, 0.0233858991f, 0.0439733006f, -0.2960582376f, 0.1772246063f, -0.1243745461f, -0.1090825871f, 0.1712340117f, 0.0971990973f, 0.1886605918f, -0.1317218393f, -0.1800521910f, 0.1275888681f, 0.0219271649f, -0.1050383747f, -0.1419059932f, 0.1587782949f, 0.0589531884f, 0.0339962617f, 0.1698764861f, -0.0068268217f, 0.0836664736f, 0.4217264056f, -0.0457685739f, 0.0806264579f, -0.1082238927f, 0.3238904774f, 0.1612017304f, 0.1746449023f, 0.1097592711f, 0.0185172372f, -0.2672479749f, 0.1613784879f, 0.2650395036f, 0.1283920556f, -0.3114381433f, 0.1345461309f, 0.0692411363f, -0.2341929227f, -0.0068581253f, -0.0282856561f, 0.0374964960f, -0.0065617929f, 0.1260412186f, 0.0676566288f, 0.2570580542f, -0.0633402616f, 0.0537419058f, 0.0030704641f, 0.1814464033f, -0.3715199530f, -0.0585064515f, 0.1411181241f, 0.4843455255f, -0.1861905307f, 0.0778918564f, 0.0061951750f, -0.2776145637f, 0.2067100555f, -0.1784138829f, 0.1514626443f, 0.2069045305f, -0.0077744471f, -0.0235617552f, 0.1671791524f, 0.0126203755f, -0.0411297753f, 0.0941558480f, -0.2521311045f, 0.2325470299f, 0.1000455245f, -0.1767156124f, 0.2889778614f, 0.0495334528f, -0.0154296542f, -0.0471415445f, -0.0400768816f, -0.2230618894f, 0.0151886391f, -0.1178945228f, -0.2943595946f, -0.1454748958f, -0.1071534902f, -0.0140343672f, 0.3162506223f, -0.0352658294f, 0.1278559566f, 0.0532678552f, 0.1637351662f, 0.2622980773f, -0.2450375259f, 0.1837525815f, 0.2977805436f, -0.1344216317f, 0.0275247376f, -0.2294826955f, 0.0120740430f, 0.0510457084f, -0.0313317664f, -0.3254940510f, 0.1400524676f, -0.0297624171f, -0.1721782237f, 0.1784449965f, -0.1714299768f, -0.1155268699f, -0.0752963275f, -0.0778211504f, -0.0532520749f, -0.1218025386f, 0.2300415933f, 0.2041966617f, -0.0561556891f, 0.0197467394f, -0.0369619764f, -0.1234729141f, 0.1440392286f, -0.1918767542f, 0.2067013085f, -0.1667716503f, -0.1148598120f, 0.0997626036f, 0.3418434560f, -0.0412435457f, -0.0862240642f, 0.3516968489f, 0.0089178281f, -0.0030098930f, 0.1701089740f, -0.3080938160f, -0.0240841210f, 0.0890322477f, -0.2485308051f, -0.0703359172f, 0.0261048116f, 0.0390764996f, 0.2964483500f, 0.0675961301f, -0.0462894663f, 0.0990657434f, -0.2228793055f, 0.0239760205f, -0.1130304188f, 0.1614776254f, 0.1616269648f, -0.0629760474f, 0.1191271096f, -0.1362334341f, -0.2444295436f, 0.0364677459f, 0.0244904794f, 0.3082438409f, 0.0941967890f, -0.0368802845f, 0.0793371126f, -0.0369237028f, 0.1630793512f, 0.1396614313f, -0.0598476790f, -0.3286868334f, 0.3329018056f, -0.0819811299f, -0.5090739727f, 0.2788201869f, 0.2097280174f, -0.1543542445f, 0.1562878489f, 0.0727624446f, 0.2668703198f, -0.1516715884f, 0.1267789602f, 0.2005870491f, 0.0036533584f, 0.2838057876f, 0.1472286582f, 0.0743445382f, 0.2755662203f, 0.3274466395f, 0.1382203251f, -0.0731370971f, 0.0508239828f, -0.2717165649f, 0.0442111082f, -0.0057735760f, 0.0048779179f, -0.0335966796f, -0.1692617685f, 0.0881876945f, 0.1220406592f, 0.0077205044f, -0.0399139710f, 0.2380347848f, 0.1044900119f, -0.0792776942f, -0.1026042476f, 0.0299432408f, 0.0383550227f, -0.0600907058f, -0.0597901829f, -0.2148658186f, -0.0505805984f, 0.0791692063f, 0.0375957862f, -0.2434435487f, -0.1203851327f, 0.0461311378f, 0.2909601033f, 0.1293028742f, -0.1691803485f, 0.3179187179f, 0.0336824171f, 0.0747514591f, 0.0510259569f, -0.0603258871f, 0.1147656515f, 0.0170162935f, 0.4288552701f, 0.1534376293f, -0.0768856704f, 0.2200674117f, 0.3085523546f, 0.2290991545f, 0.4222303033f, 0.3286392987f, -0.0697729141f, 0.2452935725f, -0.0427640118f, 0.4459100068f, 0.0987236574f, 0.0782626718f, -0.1187391877f, -0.1240005940f, 0.0059028962f, 0.0484891981f, 0.2195831090f, -0.2843073010f, 0.2021524012f, -0.1619856656f, 0.0996961817f, 0.1058492735f, 0.1281717867f, -0.1484640986f, -0.0580169298f, -0.0484171920f, -0.0389737226f, -0.0151024619f, 0.0402189791f, -0.1813776195f, 0.0722324774f, 0.1003238186f, -0.0073616398f, -0.1507533044f, 0.1629710197f, -0.2864151597f, -0.1105750129f, -0.1347302645f, 0.1138276085f, -0.0345243141f, -0.1244228035f, 0.1994097531f, -0.1445536315f, 0.3237820864f, -0.0688512921f, 0.1500416398f, 0.1294194460f, 0.0084350221f, 0.0534736738f, 0.0215347745f, 0.3047375381f, 0.0421759114f, -0.0394182391f, -0.1285131723f, -0.1731441766f, 0.0304594357f, -0.2945004702f, -0.0868047848f, -0.1720711142f, -0.1618607342f, -0.3401654661f, 0.1249127164f, 0.1532557756f, 0.0464997962f, 0.0961311013f, -0.1601575017f, 0.0684626624f, 0.4094434679f, -0.3606697321f, -0.0653950721f, -0.0606068522f, 0.5007067323f, 0.2018112689f, 0.0081852498f, 0.1605879962f, 0.3193825781f, 0.0264204666f, 0.1000222489f, -0.1077614874f, -0.1041763052f, 0.0186451431f, 0.0422873311f, 0.2517920136f, 0.0284301490f, -0.1186308414f, -0.1235621423f, 0.4147902429f, -0.3375703096f, 0.0348717645f, 0.2877281606f, 0.1440223753f, -0.1783393472f, 0.1224464625f, 0.1660670787f, -0.1755838096f, -0.0790650174f, -0.0277210083f, 0.1295405328f, -0.0789957345f, 0.0737021640f, 0.0294255875f, 0.2713466883f, -0.2162180394f, -0.0045071482f, -0.0458205491f, -0.2264344692f, -0.1134455055f, 0.0135665182f, 0.0452526174f, 0.1481298506f, 0.1573542804f, -0.0388429612f, -0.2858912647f, 0.0460750274f, 0.0487424992f, -0.0066133901f, 0.0379360840f, -0.0019419990f, 0.2813764811f, 0.0706031770f, 0.0237660315f, 0.1160406470f, -0.0134184780f, 0.0016482366f, -0.0288380329f, 0.1546574086f, 0.3043469489f, 0.0642494187f, -0.4941933155f, -0.0123457611f, -0.0703123510f, -0.0555389486f, 0.0704180822f, -0.0763450190f, 0.3050416410f, 0.0943628326f, 0.0833849162f, 0.1798938513f, 0.1201626658f, 0.2325120419f, 0.1618743837f, 0.2927432954f, -0.6136043668f, -0.2486185879f, -0.0993925110f, -0.0255753677f, -0.0679650083f, -0.0347821750f, -0.1240953207f, -0.0868557692f, -0.1878459007f, -0.1637852192f, 0.0397464707f, -0.1896074861f, -0.3375715017f, 0.0275693312f, 0.1728212982f, -0.1073236018f, 0.2322504669f, 0.3135143518f, -0.1973291188f, -0.1926245838f, -0.0554067977f, -0.2377998233f, 0.0561222248f, 0.1325559467f, 0.2263440639f, 0.0639790073f, -0.1051455513f, -0.3130570054f, -0.2075648308f, 0.1993365735f, -0.0163891483f, 0.2377852350f, 0.1962823719f, -0.1687173396f, 0.0043402803f, -0.1894540489f, -0.0511172675f, 0.0865949094f, 0.3501139283f, 0.0695310682f, -0.0114538595f, 0.1544820815f, 0.0158175323f, -0.2557174861f, 0.2719611526f, 0.2732357383f, -0.2606476843f, 0.0491719060f, 0.0386302322f, -0.0369007364f, -0.0783801228f, 0.2077904493f, 0.0263522174f, 0.0212341789f, -0.0241841301f, -0.1988768131f, 0.0690934658f, -0.3159034550f, -0.0484546944f, 0.0305293389f, -0.1395171583f, 0.0221503489f, -0.0319972858f, 0.2458878756f, 0.1854358763f, 0.0590118840f, 0.0114311688f, 0.1043895259f, 0.3186567128f, -0.0673511550f, 0.0079247635f, 0.1579894572f, -0.3889427185f, -0.0310321338f, -0.1077778414f, 0.0087253908f, 0.1008268893f, -0.2832845747f, -0.2870984674f, -0.0867908970f, -0.2703345418f, -0.0353873298f, -0.2249777615f, 0.1024379209f, 0.2573447824f, 0.1836244166f, -0.0436637327f, 0.3255626261f, 0.1312769055f, 0.2730507255f, 0.3313042223f, -0.0717852637f, 0.1285062134f, 0.1910690665f, -0.2455123663f, -0.0062785712f, -0.0030620748f, 0.1605361700f, -0.0516796783f, 0.1342954785f, 0.1429104805f, -0.0500316024f, -0.1562882066f, 0.0354807787f, -0.0781113729f, -0.2770830989f, -0.1506136805f, -0.3133886456f, 0.0625074282f, 0.1437263340f, -0.2408053577f, -0.0247329269f, 0.0790884271f, -0.1029572338f, 0.2249759585f, 0.2362433970f, 0.1082815230f, -0.3564288914f, 0.1370244026f, -0.3250572383f, 0.0718728751f, -0.1129140407f, -0.1379758716f, 0.1069997922f, 0.1499980986f, 0.1404549032f, -0.1480753124f, -0.2943087518f, -0.0673376173f, -0.0617535189f, 0.0989188254f, 0.0623118207f, 0.1733277142f, 0.1330660284f, -0.4303150773f, 0.0652446523f, 0.0675038174f, -0.4597625434f, -0.1457681805f, -0.0182154253f, 0.2702853084f, 0.1188596711f, -0.1088487133f, -0.0590631887f, 0.0563590676f, -0.1211981550f, 0.0165689643f, 0.0600009412f, -0.0932536051f, -0.1061776802f, -0.0370839834f, -0.2738574743f, 0.2303965837f, -0.3303422332f, 0.2849599123f, -0.2385124266f, 0.0281036701f, 0.0089430353f, -0.0039975881f, 0.0631689653f, -0.3619293869f, 0.0623814687f, 0.1837605983f, -0.1629124880f, -0.0127991932f, 0.0279889405f, 0.0713777468f, -0.1012711823f, 0.0940415487f, 0.1214468181f, 0.2544839978f, -0.2548883557f, 0.0363582969f, 0.2014369965f, 0.0272118468f, 0.0371627212f, -0.0431681052f, 0.1806371361f, 0.0611464530f, 0.2975714505f, 0.4064576328f, -0.0449297465f, -0.1405571848f, 0.2437623143f, -0.1183393374f, -0.0257807504f, 0.1989428997f, 0.0351735018f, 0.1667892486f, -0.0070559601f, 0.2636999786f, 0.1596857607f, -0.0890854076f, 0.0927101597f, 0.3232397437f, -0.0531304032f, -0.2819919288f, 0.1881700754f, -0.1700884104f, 0.0875642300f, 0.0664432198f, -0.0537657477f, -0.4140287638f, -0.2156304717f, -0.2583489120f, -0.0364823155f, 0.1205840036f, -0.1089260355f, 0.0453572124f, -0.0850475729f, 0.0999897718f, -0.0385729298f, 0.2499146163f, -0.0993275493f, -0.1102220044f, 0.0938671529f, -0.2963628471f, 0.2130121887f, 0.1541799009f, -0.3622239232f, 0.1700474024f, 0.0773087516f, 0.1809809059f, -0.1987908483f, 0.0839590281f, 0.0298802909f, 0.0269000884f, -0.2365020066f, -0.0795544013f, -0.1157599017f, 0.0941758677f, 0.1473830342f, 0.2885710895f, 0.2675325871f, 0.0801539347f, -0.0410209261f, -0.1779679209f, -0.2261301130f, -0.1456136405f, 0.1535686702f, 0.0590616129f, -0.0691970214f, 0.4456066489f, -0.0179988928f, -0.0398237556f, -0.1333770156f, 0.0500283279f, -0.1088689789f, -0.0088924225f, 0.1178603470f, -0.0343783833f, -0.0086815050f, 0.3239631355f, -0.2758753002f, -0.1145952120f, 0.1980567724f, -0.0880751684f, 0.1237297952f, -0.1088737473f, 0.0171964932f, -0.2548943162f, -0.3530930877f, 0.0534074754f, -0.1942390800f, 0.1096306667f, -0.1049128845f, 0.0700061396f, 0.0166762769f, -0.0651433542f, -0.1611807197f, 0.0465329178f, 0.0196526460f, -0.0716345459f, -0.3080451488f, -0.1239856258f, 0.1682388037f, 0.2138545662f, -0.0036564406f, 0.1961119175f, -0.1511059552f, -0.1133731902f, 0.1401743889f, -0.4097030461f, 0.2415343225f, -0.2620939314f, 0.2829620838f, 0.1809433252f, -0.1156231984f, -0.1865865886f, -0.0594383627f, 0.1210096851f, -0.0822483376f, -0.4868200719f, 0.1239724532f, -0.1272878200f, -0.0185633264f, 0.2566534877f, 0.1883737743f, -0.2654928267f, -0.2052309066f, 0.1272189170f, 0.0966001004f, -0.1337626874f, -0.1804933250f, 0.0881423205f, 0.1069495231f, 0.1094810218f, 0.1676013023f, -0.1691761762f, -0.0059240437f, 0.2420314699f, -0.1337045878f, 0.2103240192f, -0.0786642209f, 0.1447932422f, -0.2010812610f, -0.0985790640f, 0.1258417368f, 0.0009697023f, -0.0712845996f, -0.0681022704f, 0.1372833848f, 0.2067358792f, 0.1932310313f, -0.1211401448f, 0.3228521645f, 0.2223983109f, -0.0817915127f, 0.1823168844f, -0.1034908071f, -0.1029908732f, -0.2479802221f, 0.2002606988f, -0.1654820144f, -0.3098305464f, 0.4126392901f, 0.1621490568f, -0.0613323264f, -0.1686650962f, -0.0155558391f, -0.2345684916f, 0.1012653634f, 0.0609071739f, 0.1394873410f, -0.1299442053f, 0.1377751082f, -0.0759612322f, 0.1535857618f, -0.4630956352f, -0.3620463908f, 0.1288485080f, 0.2022435814f, -0.1470294148f, -0.1001753658f, 0.1042265594f, -0.2206062973f, 0.2674073875f, 0.0220884830f, -0.1950958222f, -0.0552116111f, -0.0405502394f, -0.0172777288f, 0.1070714816f, -0.0534063987f, -0.0221102759f, 0.0081578996f, -0.1337737739f, 0.1687049717f, -0.1606028974f, 0.2269181162f, 0.1435480565f, 0.0223789811f, -0.0464594997f, 0.0428593121f, 0.0855102763f, -0.1737337857f, 0.1835000962f, 0.3292966187f, 0.2005220354f, 0.1360062212f, 0.3076681793f, -0.0675633475f, -0.1493764818f, -0.1038112715f, 0.3089242280f, 0.0352687649f, 0.0005909981f, 0.0646669865f, 0.0139194475f, -0.0925576016f, 0.0862863585f, -0.0479126796f, -0.3270780146f, -0.0938310176f, 0.1526188254f, 0.0021238376f, -0.2306812555f, 0.3419489861f, -0.2456571609f, 0.2058154941f, -0.1884380132f, 0.1410078406f, 0.0501665846f, -0.3481681347f, -0.0110499365f, 0.1100143194f, 0.2334535420f, 0.1147550493f, 0.5020767450f, -0.0143975345f, -0.1562992632f, 0.0073935697f, -0.0350303277f, 0.0869449228f, -0.3282499015f, -0.0404024646f, -0.3050076962f, -0.2259230316f, 0.1924294978f, 0.0614444576f, -0.1837662011f, -0.0615853406f, 0.1292848736f, 0.3193628788f, 0.2376640588f, 0.0944961980f, -0.1367996037f, 0.1148279235f, -0.0400378928f, -0.2219478488f, -0.0170111563f, 0.2533379495f, -0.0519248545f, -0.1219991446f, -0.0667220950f, 0.0137643311f, -0.0664099753f, -0.1168166175f, -0.0717294142f, -0.0674214289f, 0.2764981389f, 0.0866820067f, 0.0562596358f, 0.0474461950f, 0.1939035803f, -0.0367166474f, 0.2122807950f, -0.3838084340f, -0.1225908473f, 0.0803736299f, -0.0693430528f, -0.0864031836f, -0.0845269635f, -0.2460683286f, -0.1095399633f, 0.0503181666f, 0.1120635495f, -0.2972560227f, -0.3892087936f, 0.1133334562f, 0.0549505129f, -0.1739231646f, 0.2609039843f, 0.4817106724f, -0.0048921565f, -0.3284249604f, 0.0188308954f, 0.0694802478f, -0.0845813975f, -0.0923583582f, 0.1785092205f, -0.0823401362f, 0.2284992933f, 0.3698130250f, 0.0696596652f, 0.1110155806f, 0.1516942680f, 0.0602217540f, -0.0165244285f, 0.1866740286f, 0.1112309694f, 0.0457149483f, -0.1064621732f, 0.1817675829f, -0.0625700280f, -0.1413789541f, 0.2858051062f, 0.0424838178f, -0.1396951377f, 0.0945068449f, -0.0708338618f, -0.0274454262f, -0.1214310080f, -0.1855124235f, 0.1476550996f, -0.0432327911f, 0.0286213290f, 0.0155615332f, 0.2034277171f, -0.4090616405f, 0.2105113864f, -0.0255587082f, -0.0039692330f, -0.1676268727f, 0.0377770774f, -0.0506215245f, 0.0158003010f, 0.1589386463f, -0.3117703497f, 0.1101357043f, 0.1705572754f, -0.0017097257f, 0.1953337491f, 0.2111087888f, 0.0701193959f, -0.2500342727f, 0.0562038571f, -0.0005392873f, 0.0739494190f, 0.2961032093f, -0.0152784195f, 0.0211458486f, 0.1756327003f, 0.2999247909f, -0.0268955603f, 0.0174145494f, -0.1387596726f, -0.0632651001f, 0.0450138487f, -0.0625139177f, 0.1891235113f, -0.1224355400f, -0.4434657097f, -0.0986385718f, 0.1034927592f, -0.1211505458f, -0.2591633499f, 0.2978374958f, -0.3568634391f, -0.1250403672f, 0.1606494337f, 0.1097198203f, -0.1349035352f, -0.1577736735f, -0.0765013844f, -0.0972013995f, 0.0785809457f, 0.0331706107f, -0.2329088300f, 0.0894170105f, -0.1046413332f, -0.0387213752f, -0.1477555186f, -0.0519119799f, 0.0620066933f, -0.0511477217f, -0.4040787518f, 0.3733106554f, -0.1376000792f, 0.0785977989f, -0.2784622312f, 0.2101007402f, 0.0399573371f, 0.0593622625f, 0.3114004731f, -0.0477764197f, 0.1316812336f, -0.1599472463f, -0.0013415898f, 0.0991041586f, -0.2749007642f, 0.0704560950f, 0.2108488530f, 0.1752837300f, -0.1557132155f, 0.1898043752f, -0.1025392860f, 0.2188639045f, -0.2858157158f, -0.2332978398f, 0.0997348577f, 0.0092069237f, -0.1247243658f, 0.1251795590f, 0.1126536876f, -0.0035767253f, -0.1009757444f, -0.2241383493f, 0.1437335163f, 0.1734999865f, -0.0871272013f, 0.0780777708f, -0.4504373074f, 0.0932097360f, -0.3166194260f, 0.0147945192f, -0.0467591137f, 0.1213309243f, -0.1097845510f, -0.1657254100f, 0.0678150058f, 0.0541398898f, -0.1341422945f, 0.1801782101f, 0.1418453902f, -0.1737134606f, 0.3363160789f, -0.0205406789f, 0.2283629179f, -0.1292243600f, -0.1204628795f, -0.4045506716f, -0.0679704547f, -0.2715255618f, 0.0274804514f, 0.2092716396f, -0.0048670350f, 0.1027434096f, -0.1292512268f, -0.1431986690f, -0.2275586873f, 0.4037115872f, 0.0340698734f, 0.2513294220f, -0.0049771667f, -0.0044990941f, 0.1430068016f, 0.0017978499f, -0.2241851836f, 0.0633783415f, -0.1145464405f, 0.1539013982f, -0.1879324615f, -0.0067257346f, -0.2498056889f, -0.1979021877f, -0.1561520249f, 0.3416063190f, 0.2117362469f, -0.0522979647f, -0.0621311851f, -0.1202315614f, 0.0853468627f, -0.2344097197f, -0.0280532632f, -0.0880186781f, -0.1519332379f, -0.1332569122f, -0.1058915779f, -0.3398213387f, -0.0751500800f, 0.0346018560f, 0.2538084388f, 0.1506119668f, 0.2625109255f, -0.2988780141f, -0.1716976613f, 0.0706755668f, -0.0334640667f, -0.1140426248f, -0.1382847428f, -0.2726803422f, 0.1804388165f, -0.1651370674f, -0.2811529040f, -0.1347340196f, -0.2971523702f, 0.0979579836f, -0.0062551480f, -0.1517120898f, 0.0103296665f, -0.0173075292f, 0.0475138128f, 0.0095256111f, 0.2003019154f, 0.1472748220f, 0.1692197621f, 0.0090820603f, 0.1491483003f, 0.2687928975f, -0.1800976396f, -0.2385850400f, -0.1802863479f, -0.1221422628f, -0.0299996082f, 0.0107897995f, 0.2708753943f, -0.1205732226f, 0.1115907803f, 0.0781074837f, 0.0789164305f, 0.3032549024f, -0.0674317032f, -0.2842181623f, 0.1792485118f, -0.1996854395f, -0.0333014019f, -0.0156762786f, 0.1778792739f, 0.2887212336f, -0.1755011827f, -0.1284136027f, -0.1047475338f, -0.0939700678f, 0.1294638067f, -0.2981215715f, 0.0356052294f, 0.0630131960f, -0.0738146901f, -0.4409804344f, -0.0111371251f, -0.0844084695f, 0.1467045099f, -0.2392891347f, -0.3790598810f, 0.0891164243f, 0.1637840420f, 0.2433008105f, 0.1176590174f, 0.1289976239f, -0.0014113014f, 0.0128585324f, 0.0213225037f, -0.1066389829f, 0.0544113852f, 0.2673649788f, -0.1509488225f, 0.2418324649f, -0.0917509422f, -0.1281244755f, -0.2458941191f, -0.3008007705f, 0.2012181878f, -0.1337224692f, -0.1170587838f, -0.2116664797f, -0.2391926199f, 0.0455337986f, -0.1806274503f, 0.2048715949f, -0.0591504201f, -0.0796280503f, 0.1191473901f, -0.1599618942f, -0.1225622818f, 0.3546213508f, 0.0643263236f, 0.0966180339f, 0.2163494825f, 0.2958058715f, -0.2200227082f, -0.2519475222f, -0.0868680403f, -0.1431225687f, 0.0171325523f, 0.1009499431f, -0.3245507777f, 0.0565745980f, -0.0460262671f, 0.0664546937f, 0.0991024747f, 0.2863037586f, -0.0629512817f, -0.0219817348f, 0.0493113212f, 0.1305483729f, -0.0062892218f, -0.0506504327f, 0.3871655762f, -0.2425982803f, -0.1384865344f, 0.0224258229f, 0.1834483594f, 0.1580126882f, 0.0918236375f, 0.1018953770f, 0.2207702398f, -0.2561845779f, 0.3339575529f, 0.0519048832f, -0.0534635819f, 0.2031715810f, 0.2062384933f, 0.3966220021f, -0.0780177265f, -0.0119796740f, -0.2979130447f, -0.0705039054f, 0.0188959874f, 0.1305172443f, -0.1503591686f, -0.2068298757f, -0.2791717350f, 0.2046924680f, 0.1162197664f, -0.0484886616f, 0.0907453001f, -0.0185731519f, 0.1216881573f, -0.3906009793f, 0.3373513520f, -0.3345834613f, 0.2962808013f, 0.3116034865f, 0.1453027874f, 0.1724603325f, 0.0197525304f, 0.0374054238f, 0.0256893486f, -0.1191582531f, -0.0761920065f, 0.1620427370f, 0.3253365755f, 0.0031272101f, -0.2369582206f, 0.0730964765f, 0.1192243174f, 0.0070212004f, 0.0749044642f, 0.0260679629f, 0.3171182275f, 0.0884462520f, -0.1123455688f, 0.1794474274f, -0.1235715002f, 0.0060312343f, -0.2306329310f, 0.0346452072f, 0.1826502681f, -0.2108569741f, 0.1176804900f, -0.0772204921f, 0.0529247150f, 0.0142211374f, 0.2038536072f, 0.0868141726f, 0.0637204200f, 0.0825577527f, 0.0729243979f, -0.0805580169f, -0.0572606400f, -0.0673168227f, -0.0279338807f, -0.0347241573f, 0.0824143142f, 0.0023579823f, 0.1814487427f, -0.0253325067f, 0.1391317844f, -0.1997406632f, -0.0260683615f, -0.1278064549f, -0.0913696736f, -0.3450606465f, -0.2832722962f, 0.0971285850f, 0.1955637485f, 0.2153726816f, -0.0044026123f, -0.0440765284f, 0.1500594467f, -0.3877615631f, -0.0603458248f, 0.1392533034f, 0.1235162914f, -0.1994976699f, 0.0832727998f, -0.2741610110f, -0.0519264415f, -0.0639691278f, -0.4348987639f, 0.1979487687f, -0.1064978018f, -0.1220583245f, -0.0073438347f, -0.2312505841f, -0.0875993744f, -0.1943663061f, -0.0951235667f, -0.3776529729f, 0.2014409453f, -0.2356169224f, -0.2956489623f, 0.1848269701f, 0.0726333484f, 0.0019181056f, 0.0449428670f, 0.2391877472f, 0.2654628754f, 0.1686336547f, -0.2784612775f, -0.2228221595f, -0.0097216880f, 0.0436505340f, 0.1099546924f, -0.0833046138f, -0.0221735351f, 0.1327802390f, -0.1422349215f, 0.2595056891f, -0.1323423237f, -0.0361463241f, 0.0550285429f, 0.2306699306f, 0.1030293852f, -0.1497120708f, -0.1734786481f, 0.0784005225f, -0.0296483897f, -0.0303355083f, 0.1071081758f, -0.0060236934f, -0.0059115449f, 0.3217959702f, 0.1583340317f, 0.2058573216f, -0.0790592283f, -0.1336528212f, 0.1863487810f, -0.0516670607f, 0.0782910585f, 0.0152908741f, 0.1887895614f, 0.3434449136f, -0.1591634750f, -0.1037607417f, 0.1086166725f, -0.2995091379f, -0.0163443368f, -0.0262292754f, -0.1217913330f, -0.2614277005f, 0.0104784286f, 0.1720887572f, 0.0864809528f, -0.0505522527f, 0.1079800725f, -0.0052886312f, -0.1945373267f, 0.4230016470f, 0.1471824050f, 0.0366276018f, -0.0653668270f, 0.1231875718f, 0.2501376867f, 0.1372738928f, 0.0594782345f, 0.0899909958f, -0.0423706062f, -0.3762098551f, -0.2706521749f, 0.2679461837f, 0.0078524724f, -0.0006350225f, -0.1316308826f, 0.1334432513f, 0.0081250798f, 0.2481175065f, -0.3189096749f, 0.0136269340f, 0.1519394070f, 0.2377548218f, -0.3405275941f, 0.2399845868f, -0.1553163677f, 0.1143995002f, -0.2207668126f, 0.2922135592f, 0.0589269474f, -0.0530154034f, 0.0476597697f, 0.0430288874f, -0.1843187809f, 0.1325199753f, 0.0808853731f, 0.1369809508f, -0.2270534337f, 0.0392556340f, -0.2852048874f, 0.2390279919f, -0.1359612793f, -0.0489811189f, -0.1052286997f, 0.2777563930f, 0.0573802963f, -0.0112642320f, -0.1748599708f, 0.0396953076f, -0.4098770916f, 0.0405203775f, -0.0150636798f, -0.0431039408f, -0.0332270451f, 0.1097407714f, 0.2731700242f, 0.1401170343f, -0.2515406311f, -0.4402966797f, 0.1870220602f, -0.2811338902f, 0.1154600754f, -0.1360655427f, 0.2701053321f, -0.0305499509f, -0.3638403714f, -0.3922529221f, 0.0508739613f, -0.2383262366f, 0.0110547272f, -0.1385221630f, 0.1796032935f, 0.2442136258f, 0.2280622572f, -0.0437471010f, -0.1871416569f, 0.1336071640f, -0.1280651838f, 0.0529264286f, -0.0854628086f, -0.0316960551f, -0.0905308351f, 0.0472466834f, -0.1950431168f, 0.1247577891f, 0.0467984341f, -0.2474078387f, -0.1573821753f, 0.0442849770f, 0.0135016544f, 0.1580879688f, -0.1140199229f, -0.1149528995f, -0.0907293186f, 0.1804455817f, -0.0971726775f, -0.1226163656f, -0.0973614976f, -0.0043933629f, -0.0308237188f, 0.0723298788f, -0.3482443988f, -0.1093135476f, -0.2586647570f, 0.1127929091f, -0.0357730240f, -0.0406840630f, 0.0631735176f, 0.0673980191f, -0.0956741422f, 0.1415674686f, -0.2582429647f, -0.0966930091f, -0.1582498550f, -0.1761933863f, 0.0438881032f, 0.2139167786f, -0.0561722443f, 0.3838437498f, -0.1258044392f, -0.0775433183f, 0.0546726994f, 0.3428596854f, 0.1638390869f, -0.0031726707f, -0.2994155288f, -0.0111188311f, -0.0379616134f, 0.1444578618f, 0.3219935000f, -0.1764400154f, -0.0134657323f, 0.0729124621f, -0.4894805253f, -0.0203496795f, -0.1059565395f, 0.1557947397f, 0.0440188572f, -0.0315931961f, -0.2668955028f, 0.1165315956f, 0.0971293896f, -0.0402369201f, -0.2657744586f, 0.0362574942f, -0.0644644052f, -0.1946950406f, 0.2037762254f, 0.2995041013f, -0.1403530687f, 0.2189653367f, 0.1275096536f, 0.1174010038f, -0.0398134738f, -0.1476012319f, -0.1268578172f, -0.0232596230f, 0.4213334918f, 0.1111821234f, 0.1164120361f, -0.2222975791f, -0.0950219184f, 0.0183125734f, 0.2893767953f, 0.1789636165f, -0.1667011827f, 0.2121266276f, 0.0489358157f, 0.1408466399f, 0.2304545790f, 0.0072949855f, -0.3296629190f, -0.2703053355f, 0.0860260278f, -0.0271478258f, -0.0957214609f, -0.1559407413f, -0.1094829664f, -0.0661581084f, 0.0730038881f, 0.2056116462f, -0.0482264571f, 0.2036546022f, 0.1072393358f, 0.0873619914f, -0.0777459890f, 0.2097658217f, 0.2796171904f, -0.0988030508f, -0.0246221013f, -0.3526117504f, 0.1578741074f, -0.0271476768f, -0.2461206168f, 0.2392132580f, -0.2838921845f, 0.0323135406f, -0.0052384781f, 0.1209528372f, -0.0087800305f, -0.2964378893f, -0.1148010045f, -0.3498727083f, 0.2731737494f, 0.1422115713f, 0.0307735074f, 0.1917199641f, 0.1572244614f, -0.1757795066f, 0.1360227168f, -0.0210496467f, -0.0608009249f, -0.1463031918f, -0.1771631986f, -0.1194599196f, 0.0310589392f, -0.0028569908f, -0.0400980413f, -0.0866645277f, 0.1372951567f, 0.5078160763f, 0.0417829081f, -0.1520963460f, -0.3340564668f, 0.1842344105f, -0.3357734978f, 0.0791453049f, 0.2940872014f, -0.2790136337f, -0.2037390172f, -0.1694077998f, 0.0377724990f, 0.1593508273f, 0.0046110856f, 0.0549256802f, 0.2948651314f, 0.1426925659f, -0.0167608112f, -0.0536172837f, 0.0894807801f, 0.2289403528f, 0.0024281081f, -0.3005879521f, -0.0628476441f, 0.1197108179f, -0.0582079738f, 0.0755240321f, 0.0011368566f, 0.1764458716f, -0.1850455403f, 0.0015957906f, -0.2263303250f, -0.0077437358f, -0.1647551358f, -0.0184670985f, 0.0779520273f, 0.0489228442f, -0.1009867340f, 0.1848674119f, -0.1722626835f, 0.3285491168f, 0.1362763345f, 0.0796318352f, 0.0553167127f, 0.2252535820f, -0.0033659255f, 0.3376800120f, -0.0223500039f, 0.1084096804f, -0.1016474664f, 0.0026420287f, 0.1368077695f, -0.2339888960f, 0.0760592297f, -0.3787965477f, 0.0250451919f, -0.2431765348f, -0.2418593019f, 0.1601515263f, -0.0411415435f, -0.0081278980f, 0.4061705470f, -0.0316263400f, -0.0123394290f, 0.1022178307f, -0.2623680830f, 0.1806085557f, -0.1496989280f, 0.1954317391f, 0.0319934785f, 0.3598353863f, 0.0657241940f, -0.1085029021f, -0.1726815701f, 0.0734873414f, -0.0464965403f, -0.0284795128f, -0.1835085601f, 0.0701248571f, -0.2250848114f, 0.0630602166f, -0.3301396668f, 0.0731106475f, 0.0837368220f, 0.1794660836f, -0.0976980403f, -0.0322897658f, -0.7732890248f, 0.1378818005f, 0.1697690189f, 0.1740792245f, 0.0319099948f, -0.2660170794f, -0.0578746088f, -0.1042703688f, 0.0454504117f, 0.0126871951f, 0.2322145104f, 0.1067843214f, -0.2695260346f, 0.1046136543f, -0.0090511683f, 0.1284730732f, -0.1924940646f, -0.1545831114f, -0.0552302077f, 0.1054093316f, 0.0569443628f, -0.2576878369f, 0.1427866518f, 0.0830004439f, 0.1021276340f, 0.0877751559f, 0.0266905967f, 0.0081353420f, 0.1296387464f, 0.0979430228f, -0.0754917637f, -0.0056166314f, 0.0293257721f, 0.0799359158f, 0.0936025977f, 0.0671949014f, 0.3838372827f, 0.2275306880f, -0.2607621253f, -0.0489410087f, 0.0144773312f, 0.0576295890f, -0.1873973161f, -0.0412862971f, -0.0826117471f, -0.2379824221f, -0.2001854628f, -0.0801223218f, -0.1194408610f, 0.0252102874f, -0.1799130291f, 0.1885021925f, 0.0254441705f, -0.1369279027f, -0.1679012477f, 0.1161575839f, 0.0420048833f, -0.3290587366f, 0.0429879986f, 0.1497091949f, -0.0449419282f, -0.1359910816f, 0.1102319732f, -0.1558601558f, -0.1439354569f, -0.2228927761f, -0.1762067676f, 0.2783006728f, 0.0551488213f, -0.1149512231f, -0.0217426885f, -0.1941845864f, -0.3273894489f, -0.2093351483f, 0.1859479696f, -0.3006289601f, 0.1011909395f, -0.0758214593f, 0.3459402323f, -0.0710309222f, -0.1690985262f, 0.2075387388f, 0.2964432240f, 0.0280578919f, -0.0214229617f, -0.1017137468f, 0.1407006234f, -0.0558778234f, 0.2430893183f, 0.0915719643f, 0.0322612710f, 0.1385280043f, 0.1548385620f, 0.1638970822f, -0.5132738948f, -0.0039779041f, 0.2539911866f, 0.2766662538f, 0.0762256011f, -0.0159151852f, -0.2567832470f, -0.0169834085f, 0.2159720510f, -0.0203947742f, 0.1346329600f, -0.2041134536f, 0.0995892063f, 0.0503324084f, -0.0492927581f, 0.0614636280f, -0.1144585386f, 0.0182920806f, 0.2049955428f, 0.2778850496f, 0.3265911937f, 0.0197061319f, 0.1292657405f, 0.3865186870f, 0.0170114376f, 0.1640745252f, 0.0325128660f, 0.0234161634f, 0.0547291562f, -0.1070834920f, 0.0173169896f, -0.1498655975f, -0.0401335843f, 0.1848985553f, -0.0578835048f, -0.2932236493f, 0.1923543513f, -0.0030968217f, 0.2994374931f, -0.2686234117f, -0.0452410653f, 0.0357222408f, -0.4236524999f, 0.1259351075f, -0.0171982627f, -0.0654047802f, 0.0588528551f, -0.0033943183f, 0.0469713137f, 0.1234919578f, 0.1386478692f, 0.0314679407f, -0.3605111837f, -0.1698451191f, 0.1559865475f, 0.1551435143f, -0.1277794689f, 0.1030347347f, -0.2240745723f, -0.1309938282f, 0.1099519879f, 0.2366764098f, 0.1009313166f, 0.2773298323f, -0.3685735464f, 0.0616692938f, -0.0476269908f, -0.0576762855f, -0.3168941736f, -0.2033784688f, 0.2013428807f, -0.0020591980f, 0.0852380916f, -0.2254094779f, -0.1344242096f, 0.3030688167f, 0.0158308242f, 0.0001899154f, -0.0938436687f, -0.2988013923f, -0.0645629317f, 0.0862979591f, 0.0903778300f, 0.0455467254f, -0.2505598068f, 0.1054805741f, 0.4862667024f, -0.0549891442f, 0.1375629604f, -0.1798540503f, -0.0184866171f, 0.0060414290f, 0.0687974989f, 0.2183828801f, 0.1675947458f, -0.1198913306f, -0.1082774773f, -0.1619995981f, 0.0518995151f, -0.0643016919f, -0.0493893288f, 0.1316377670f, 0.3231677711f, 0.0669653863f, -0.0456291735f, 0.1152828708f, 0.0599095635f, 0.0383573882f, -0.2454853952f, 0.2587792575f, -0.3689806163f, -0.1901102215f, 0.0219225232f, 0.0874633566f, 0.1266382486f, -0.1520681083f, -0.2602423728f, 0.0778922662f, -0.1372631788f, -0.1122269258f, 0.0639594495f, 0.1069750190f, 0.0704011694f, 0.1193382889f, 0.0330622979f, 0.0862374753f, -0.1272149533f, 0.3316684961f, -0.0671926141f, 0.0018029943f, -0.1281430572f, -0.1084261388f, -0.2384660244f, -0.1577191055f, -0.1962536275f, -0.0073637650f, -0.0926337466f, 0.4199214280f, -0.0241133031f, -0.3576020896f, -0.3634108603f, 0.1004206464f, 0.1542074084f, 0.1848189235f, 0.0878205150f, -0.0160939433f, 0.2179451287f, -0.0469629765f, -0.1622474194f, -0.3403886557f, 0.1123466268f, 0.1781847328f, -0.0948855504f, 0.2074461579f, -0.1311930269f, 0.0487865917f, 0.1563838571f, -0.0104115754f, -0.1256157756f, 0.0899069682f, 0.2232336253f, -0.3639643490f, -0.1403727978f, -0.0144091127f, -0.1202187091f, -0.1595298499f, 0.3699920177f, -0.2506976128f, 0.1229853630f, 0.3421444297f, 0.0744764358f, -0.1093877032f, -0.0179305300f, 0.3170223832f, -0.0245715696f, -0.3047263026f, 0.1405389458f, -0.2363154143f, -0.1211819872f, 0.3206723332f, 0.0363193043f, -0.1409532875f, -0.0221424736f, -0.2284490317f, 0.0839966610f, -0.2883206606f, -0.1815869957f, -0.1369765401f, -0.1662123650f, -0.2410105765f, 0.1811235100f, -0.1547291130f, 0.0205630530f, 0.1337215304f, -0.2559152842f, 0.1757225096f, 0.0564070903f, -0.2809626758f, -0.0998078808f, 0.0221693497f, 0.1210596114f, -0.0544265322f, 0.0749694780f, -0.0786831304f, 0.0316243321f, -0.0583057180f, -0.0676491335f, 0.2355480939f, -0.1662912071f, 0.0559575446f, -0.2778923213f, 0.1137681231f, 0.0897654667f, -0.0014524426f, 0.0484560914f, -0.2464507967f, 0.0406076126f, -0.0989015177f, -0.1992222518f, 0.0506757535f, -0.0063642627f, -0.2357941419f, -0.3138566911f, 0.3208177090f, 0.0703926608f, -0.1988196522f, 0.0641744584f, 0.0597817376f, 0.0688013434f, 0.0749624521f, 0.1043803468f, 0.1297268122f, 0.1969841123f, -0.0531766452f, 0.1583822072f, -0.0820984766f, -0.1388952583f, -0.0164993182f, 0.2210656404f, -0.1654206663f, 0.2665616870f, 0.2033588290f, 0.1913018376f, 0.0653170422f, 0.1635616571f, -0.4124934375f, 0.5055688620f, -0.1566789895f, -0.0579438731f, 0.0024801979f, 0.1546444893f, 0.1203377694f, 0.1405854970f, -0.0488894470f, -0.0779499933f, 0.2221450359f, 0.0201368816f, 0.0782247707f, -0.0780239627f, 0.1149214432f, -0.4802975357f, 0.2593243122f, -0.0072991871f, 0.2479143441f, -0.1212168932f, 0.1119768769f, 0.0835650563f, 0.0365629159f, -0.0683914870f, -0.0104430914f, -0.0639377460f, 0.1964250952f, 0.0970760807f, -0.0769512951f, 0.3199447691f, -0.2713158429f, -0.0740281045f, 0.1483996212f, -0.2003598958f, -0.1085102037f, -0.0781596005f, -0.0747648552f, -0.4055120349f, 0.2720367312f, 0.2617025673f, 0.4472920895f, -0.1856982261f, -0.0088164201f, 0.0859540999f, 0.1406903416f, 0.1732307374f, -0.0169311874f, -0.2915051877f, 0.0872307718f, -0.0170864947f, 0.1227849573f, -0.0057515693f, -0.0028674442f, -0.1399073750f, 0.0149576953f, 0.2601569593f, -0.2501594126f, -0.0162653048f, -0.0411508195f, 0.3438676894f, 0.0544063151f, 0.3416812420f, 0.3294491470f, -0.1565814912f, 0.1513586789f, -0.0238439515f, -0.0405086130f, -0.0306013618f, 0.3026572466f, -0.1117133647f, -0.0562482141f, -0.2171576321f, 0.1142302006f, 0.0518326126f, 0.0989387780f, 0.0923778415f, 0.0104295975f, -0.1267541051f, -0.0623886436f, 0.0590934157f, -0.0131125720f, -0.0066769058f, -0.0304393750f, -0.3731174469f, 0.0466716848f, 0.1727885157f, 0.1561370492f, -0.0909727216f, 0.0993515253f, -0.2135183811f, -0.4179024696f, 0.0431380123f, -0.0583555587f, 0.1796487570f, 0.2586882412f, 0.2307201177f, -0.0097719412f, -0.2739201784f, 0.1798756272f, -0.1533069909f, 0.1591645181f, 0.0061547928f, -0.0789398998f, 0.1170121357f, -0.1437202990f, -0.3038188815f, -0.0453507192f, 0.0951979086f, 0.1837367564f, -0.3703008890f, -0.0026715361f, -0.2641966045f, -0.1272847652f, -0.2069922835f, 0.1985953450f, 0.2222580314f, 0.0630428717f, -0.1048048884f, 0.1802436113f, 0.0744650513f, 0.0929762125f, -0.1027501747f, -0.1585063487f, -0.1159713566f, 0.1204876304f, 0.1563515365f, -0.1224196926f, 0.2256170958f, 0.4139938951f, 0.0734062418f, -0.1343151629f, 0.0861233845f, 0.0037014042f, -0.1507610679f, 0.0992249325f, -0.1114551574f, -0.1648513824f, -0.2254399359f, -0.0532496907f, 0.0095936861f, -0.2446699440f, -0.1053901166f, -0.0627394840f, -0.3210135102f, -0.0307019763f, -0.2616393566f, 0.3230526447f, 0.0148932803f, -0.0356566720f, -0.0706862658f, -0.1310520917f, 0.0123568652f};
const float b2[] = {-0.0004858234f, -0.0017013467f, 0.0019576550f, 0.0013414031f, -0.0094398949f, -0.0011662387f, 0.0044052228f, -0.0038702120f, -0.0088567911f, 0.0001065424f, -0.0019773373f, -0.0045614941f, 0.0010431551f, 0.0018137915f, 0.0015291258f, -0.0015333259f, 0.0082132835f, 0.0002514773f, -0.0003341777f, 0.0028648514f, -0.0118928114f, -0.0019205095f, 0.0033318561f, 0.0057722470f, 0.0003755190f, 0.0008896952f, -0.0009829722f, -0.0009220911f, -0.0004936990f, -0.0088983122f, -0.0025881976f, 0.0063700611f, -0.0023920187f, 0.0028386626f, -0.0015115661f, -0.0049127843f, 0.0013219997f, 0.0018397226f, -0.0180292465f, 0.0012358679f, 0.0022414168f, 0.0031114069f, 0.0028805321f, 0.0026565394f, 0.0014126692f, -0.0032086177f, -0.0042652343f, -0.0014338613f, -0.0007518839f, 0.0045819958f, 0.0017612085f, -0.0039841030f, 0.0037483447f, 0.0002478631f, 0.0012646510f, -0.0010142796f, -0.0086087836f, 0.0037170989f, -0.0040809768f, -0.0026295194f, -0.0026524405f, 0.0003282797f, 0.0011001682f, 0.0000013292f};
const float W3[] = {-0.0047717290f, -0.0378787927f, -0.0177189391f, 0.0183866099f, -0.0028697220f, 0.0541673712f, 0.0678430796f, -0.0482188836f, -0.2033796757f, 0.0005228547f, 0.0331203677f, 0.0485541262f, -0.0635022596f, 0.0462781712f, -0.0228544455f, 0.0046374663f, -0.1028792039f, 0.0581920110f, -0.0031271908f, 0.0294290911f, 0.1469240040f, -0.0215477943f, 0.0827059150f, -0.0027645640f, -0.0216266941f, -0.0195083320f, -0.0129685970f, 0.2067529708f, 0.0674886107f, 0.0769706070f, -0.0047749234f, 0.1080203876f, 0.0348960720f, 0.2060241401f, -0.0036038836f, 0.0558132082f, 0.0694564730f, 0.0032790026f, 0.2001159042f, -0.0516021214f, 0.0321104415f, 0.0251160711f, 0.0269894209f, 0.0879569277f, -0.0016779426f, 0.0707808882f, -0.0216726754f, -0.0199506599f, -0.0016226463f, -0.0733929574f, -0.0144796688f, -0.0130795790f, -0.0062815333f, -0.0843665004f, -0.0218999814f, 0.0526626073f, -0.0955893695f, -0.0682258084f, 0.0688191578f, -0.0028231835f, -0.0687297136f, -0.0604146235f, -0.0471678674f, 0.0152029181f};
const float b3[] = {-0.0096868323f};

#endif