#ifndef PARAMETERS_H
#define PARAMETERS_H

const float W1[] = {-0.1950138509f, -0.2677356005f, 0.1103099808f, 0.0070151235f, -0.0378107876f, -0.5983548164f, -0.1954495758f, -0.0176514294f, 0.1148048937f, 0.0398855954f, -0.5915483236f, -0.0231627375f, 0.2287331522f, 0.0449609309f, 0.0952971131f, -0.0741505697f, -0.0795765370f, -0.0565743819f, -0.0014129310f, -0.0001130577f, 0.4096360803f, 0.1208665892f, -0.1610075384f, -0.0683040619f, -0.0592026860f, -0.4729537070f, -0.1272124052f, 0.1518982500f, -0.0260400362f, 0.1391271204f, 0.0306247715f, 0.1096311435f, -0.0191628039f, 0.0363211110f, 0.0115708746f, 0.2445547879f, 0.0734287053f, -0.1468029767f, 0.1343033463f, -0.0064551756f, 0.0127071058f, 0.2687908113f, -0.1269134879f, 0.1088268310f, -0.1555238813f, 0.4905735552f, 0.1958607137f, 0.2104072571f, 0.0995783582f, 0.3527506888f, -0.1040875614f, -0.2778619528f, -0.1833810508f, 0.1018992737f, -0.0368765108f, -1.0452663898f, -0.5631323457f, 0.0857371986f, -0.0918596461f, -0.0111238984f, 0.1257916987f, -0.1307208091f, -0.3697367311f, 0.0871748477f, -0.1030446813f, 0.6157205701f, 0.3829046488f, -0.1460241824f, 0.0082313530f, 0.0339147523f, 0.0282919426f, 0.0137784788f, -0.1984382123f, 0.0438112542f, 0.3181558847f, 0.1111339331f, 0.2497518510f, -0.1801765710f, 0.0254640393f, -0.0193292629f, 0.4171510935f, 0.1649207324f, 0.3029673696f, -0.0845597833f, -0.1115142852f, 0.8816111684f, 0.1710279286f, 0.1135876253f, 0.2455670685f, 0.1356614530f, -0.0803875402f, 0.1146615744f, -0.0143254176f, 0.0359250121f, 0.0369968414f, -0.0262833200f, -0.4127671421f, -0.0061875936f, 0.2897162437f, 0.1845187843f, 0.1075415760f, 0.3265278637f, -0.2116463333f, 0.0366091020f, -0.1443419755f, 0.0544112995f, 0.0330209062f, -0.0895435661f, 0.0254788641f, -0.0196000710f, 0.8587898016f, 0.6032077670f, -0.0326925181f, 0.0701964647f, 0.0311711002f, 0.7051786184f, 0.2107334137f, -0.2716370523f, -0.0333408043f, 0.0952526405f, -0.0132367853f, 0.0344983824f, 0.1704106182f, -0.1296463758f, 0.1485889703f, -0.4396691024f, -0.1529549360f, -0.0190346520f, 0.0518910848f, -0.0095482105f, -0.5271943212f, -0.1953509152f, -0.0004360838f, 0.0508509651f, -0.0150055084f, 0.2336841375f, 0.0512377098f, 0.4081613123f, -0.1477541775f, 0.1773499548f, -0.0831148699f, 0.2053241879f, -0.0988495499f, 0.1911642253f, 0.0635763481f, 0.0282538272f, 0.2554526925f, 0.0690436661f, 0.1200686321f, -0.2856720388f, 0.0419669189f, -0.0780095607f, 0.0896444544f, -0.0627229363f, 0.0288636275f, -0.2000940442f, 0.0980321169f, 0.1318198144f, -0.0144304223f, 0.0451564826f, 0.2888264358f, 0.1927385777f, 0.0405964255f, -0.1107618585f, 0.1068113893f, -0.0119397826f, -0.1377002597f, -0.1416543275f, 0.0458814055f, -0.0318683870f, -0.2443992496f, -0.1052605286f, -0.1067121476f, 0.1511072218f, -0.0688523352f, 0.1132350937f, 0.2072815448f, 0.0523204468f, -0.0747168064f, 0.2368097752f, 0.1861922741f, 0.0362255573f, -0.0644091666f, -0.0294334646f, 0.0447504707f, 0.0061806887f, -0.0976979733f, -0.0221625436f, 0.1467606127f, 0.4819845855f, -0.1613290906f, 0.0417487100f, 0.0682618842f, -0.0858230144f, 0.0592762418f, -0.1689528376f, 0.1722750515f, -0.1297547221f, -0.0873759091f, 0.0998849273f, -0.0235200971f, -0.0451176874f, -0.0535319783f, 0.0096381474f, -0.1255991310f, 0.2047380954f, -0.1199342385f, 0.1787299961f, -0.0337219648f, -0.0468278676f, -0.6728985310f, -0.0275669601f, -0.0348267183f, -0.0048041870f, 0.0439220183f, -0.0299962964f, -0.2841251194f, -0.0084344810f, 0.0530086793f, -0.0149697550f, 0.9112088680f, 0.5513153076f, -0.3807460070f, 0.3328929245f, -0.1909764111f, 0.5564839840f, 0.0984168425f, 0.0005532859f, -0.0773894638f, -0.0265714414f, -0.3389266431f, 0.0326489136f, 0.0148600135f, 0.0021333212f, 0.0137529746f, 0.0815384835f, -0.3291795850f, 0.1296335757f, 0.0384505838f, -0.0512654111f, -0.4286307693f, -0.1190081686f, 0.1861328632f, 0.0994454101f, -0.0105450358f, -0.1987563968f, 0.0077736401f, -0.1928022057f, 0.2880327404f, -0.0456421413f, 0.4754862785f, 0.1405909508f, -0.2002895623f, -0.1028917655f, -0.0112997200f, -0.1214562058f, 0.1072433218f, 0.1324752122f, -0.0592258424f, 0.0184135828f, 0.5836365819f, 0.1467029601f, -0.0476727560f, 0.0058694133f, -0.1173599139f, 0.2221634537f, -0.0092153279f, -0.1401943564f, 0.0925969481f, -0.3131095469f, -0.0451695137f, 0.0424628593f, -0.3297043741f, 0.1291927844f, -0.0425009131f, 0.4432648420f, -0.1025488302f, -0.0275622923f, 0.0651948974f, -0.3498292863f, 0.7733972669f, 0.1040094718f, 0.0530529059f, -0.0034275136f, 0.4589309990f, 1.0588610172f, 0.5399112105f, 0.4329136312f, -0.0848110467f, 0.1951531172f, -0.1079182327f, 0.0612538010f, 0.2012392581f, -0.0517828204f, 0.0456960984f, 0.0113826999f, -0.2044572383f, 0.0606252104f, 0.0353382304f, -0.0321099721f, 0.0068095922f, 0.1220385283f, 0.0962341279f, -0.1491082013f, 0.0862573311f, 0.3385816216f, 0.4120911360f, -0.0749720559f, 0.0848964974f, -0.1191396713f, 0.1183706969f, -0.0409417599f, -0.0634715781f, 0.1382776201f, -0.1336841732f, -0.0173958708f, 0.0293662269f, -0.0033584859f, 0.2177482396f, -0.3043111861f};
const float b1[] = {0.0038730532f, 0.0119154779f, -0.0327841416f, -0.0235080514f, -0.0166027267f, 0.0461590700f, -0.0024749625f, 0.0225962624f, 0.0264740437f, -0.0487425439f, 0.0037026173f, 0.0128963534f, -0.0142679345f, -0.0051797959f, -0.0199508965f, 0.0102305785f, 0.0221125167f, -0.0008049304f, -0.0270931665f, 0.0724089295f, -0.0286874529f, 0.0037182979f, -0.0048067090f, -0.0518961400f, -0.0005595544f, 0.0173501559f, -0.0299635474f, -0.0158096142f, -0.0124991043f, 0.0487456098f, 0.0044198292f, -0.0027061624f, -0.0226995796f, 0.0067142253f, -0.0258879047f, -0.0361534096f, -0.0673093423f, -0.0393615551f, -0.0202179179f, -0.0512527227f, 0.0115337707f, 0.0092051802f, -0.0052136052f, 0.0264566075f, -0.0451486632f, -0.0368087292f, -0.0033765461f, -0.0215235148f, 0.0300228093f, 0.0356562585f, -0.0651444048f, 0.0169117581f, 0.0303534903f, 0.0191887487f, -0.0415114053f, 0.0380892381f, -0.0556893498f, -0.0128758959f, -0.0037172106f, -0.0209129490f, -0.0437402911f, -0.0432290956f, -0.0196352843f, 0.0446337089f};
const float W2[] = {-0.0618918911f, 0.1871382743f, 0.1582871825f, 0.2983231544f, -0.1721954346f, -0.1345380694f, 0.2202636898f, -0.0414567739f, -0.1340624094f, 0.1305411160f, 0.0319984369f, -0.3165517449f, 0.0807668045f, -0.0427207872f, -0.0126940366f, 0.1184859127f, 0.3525931239f, -0.1940872967f, -0.1865531057f, -0.2025082111f, -0.1558846682f, 0.1584281772f, 0.0455474332f, 0.0747195929f, 0.0873071253f, -0.0794213563f, -0.1138071045f, 0.0687413514f, 0.0482580103f, 0.0729989782f, 0.0824202672f, -0.0590914823f, -0.1980142593f, -0.0516801402f, -0.3818441629f, -0.3063232899f, 0.2409358919f, 0.0311786178f, -0.0275891032f, 0.0013000019f, 0.0621680021f, 0.1313261688f, -0.0327527896f, -0.0781383589f, 0.0375680029f, 0.1854940504f, 0.1175264269f, -0.0600968525f, 0.2619935572f, 0.1795378327f, 0.2879384756f, -0.2109445632f, -0.1740042716f, -0.0915520638f, -0.2825171947f, 0.1189969108f, -0.1961576492f, -0.0602302477f, 0.0705980733f, -0.2219046950f, 0.2024335116f, -0.2408996075f, 0.2718897164f, 0.3658285141f, -0.2645017803f, 0.1132903472f, -0.0659062415f, -0.2092372328f, 0.1018247381f, -0.1441900879f, -0.0286007300f, -0.1357717812f, -0.0856439173f, -0.0581125543f, 0.2829456627f, 0.0203216393f, 0.0143089741f, -0.0555358678f, 0.0167524777f, -0.0229323823f, -0.1284114420f, 0.0497834533f, -0.0126061281f, 0.0515603796f, -0.2380184978f, -0.1800224930f, 0.0905997455f, 0.1052654237f, -0.2546123862f, 0.0407912992f, -0.1131717414f, 0.1144434661f, 0.0379195362f, -0.3593178988f, 0.2524689138f, -0.1360436082f, 0.0393751338f, -0.1652192324f, -0.1326311529f, -0.1515419334f, -0.1992227882f, -0.0150468703f, 0.0651753396f, 0.4580570459f, 0.1652489603f, 0.0926788747f, -0.1494130343f, 0.0607661866f, -0.0966356322f, -0.3226172626f, -0.0858651325f, 0.2710548639f, -0.1076979712f, -0.2513958514f, 0.0629979745f, -0.1078585610f, 0.1100620478f, -0.0941990390f, 0.1117606759f, 0.2020981461f, -0.0188098084f, 0.2034915537f, 0.1798236668f, -0.4041438103f, -0.3741547763f, 0.2324152440f, 0.1228165403f, 0.2932943702f, -0.1069070250f, 0.0945643336f, 0.0825909749f, 0.0251678098f, -0.2040990144f, 0.0999091491f, 0.2485716343f, -0.2695056498f, -0.0523036532f, -0.4639985859f, -0.0894909203f, 0.0431896709f, -0.3358924985f, -0.0693921000f, 0.2584049404f, 0.1421358287f, -0.0566239282f, 0.2242567539f, -0.1415242553f, -0.0909797773f, 0.1712990105f, -0.0133015849f, -0.0254276730f, -0.0060648057f, 0.1249715164f, -0.1152769476f, -0.0382974781f, -0.2165046334f, 0.0508480892f, 0.1748220176f, -0.0480414852f, 0.1141689569f, -0.0148096280f, 0.2719494700f, 0.1016989350f, 0.0638908967f, -0.1877515465f, -0.2291235179f, 0.2546347380f, 0.1183332801f, -0.0014593686f, -0.1541912109f, -0.0098398020f, 0.4273751974f, -0.1302690953f, -0.1028849483f, 0.2442673743f, -0.1325411350f, -0.2147286385f, 0.1033524424f, 0.0313415378f, 0.1283731908f, -0.2897613049f, 0.0655540228f, 0.0967283919f, -0.3437168896f, 0.1146483123f, 0.0698693618f, 0.1890214384f, -0.0689580292f, -0.2098529041f, -0.0937567875f, -0.0816925913f, 0.2959796786f, -0.2543760538f, 0.0748588890f, 0.0206475146f, -0.2097209692f, -0.0457049720f, -0.1231440231f, 0.2744490206f, -0.2059446424f, 0.0473801717f, 0.1848613471f, 0.2455006391f, 0.2644821703f, -0.3214146793f, 0.0176523551f, 0.5026995540f, -0.0279438850f, -0.0703275874f, 0.3289983571f, 0.3767034113f, -0.0394197255f, -0.1395817250f, -0.1557477713f, -0.1083391085f, -0.0841319636f, -0.2100136429f, 0.2586715519f, 0.0646778420f, -0.0141910221f, 0.0821257308f, -0.0114089660f, -0.0798370168f, 0.0788458437f, 0.2581588328f, 0.1121555194f, 0.0437257029f, 0.1879527271f, 0.1866400689f, 0.0952662006f, -0.1730093062f, -0.1334239691f, 0.1981482208f, -0.0069290656f, -0.0008079044f, -0.1229527295f, 0.0501395352f, 0.2126154155f, 0.0136825889f, -0.1074324027f, 0.3256259859f, -0.0438063629f, 0.1206410155f, -0.1064235643f, -0.3754338920f, 0.0335461944f, 0.2189786881f, -0.1406037956f, -0.4061929286f, -0.0180417597f, 0.0682544559f, 0.0788491890f, 0.0755011439f, -0.0467133634f, 0.0166588146f, 0.0615576282f, 0.0821918175f, -0.0169158876f, -0.0299649742f, -0.3490644395f, -0.1343001276f, 0.1252954453f, -0.1417932808f, 0.0598540530f, 0.2178921849f, 0.1056033894f, 0.1230208650f, -0.1222585887f, 0.0261162221f, 0.2767468095f, 0.0636972636f, 0.0329123214f, 0.1583925784f, -0.0029665434f, 0.1790876091f, 0.0667982996f, 0.2653137445f, 0.0482923351f, -0.4496673346f, 0.1987915486f, -0.0217859838f, -0.0345760696f, -0.0838573724f, -0.0549078770f, -0.1455917060f, 0.0455902070f, -0.0816010982f, -0.1430381685f, 0.0586217530f, -0.0075136013f, -0.2316070050f, -0.3505105078f, 0.0811789334f, -0.1875753403f, 0.2356256396f, -0.1046075076f, 0.0523401499f, -0.1857068986f, -0.2365356237f, -0.0436339453f, -0.2964413464f, -0.4478417337f, -0.2117680907f, -0.2861440182f, 0.2517521083f, -0.0346849449f, -0.1382850111f, 0.2609680593f, -0.1705054343f, -0.2137097716f, 0.2330893725f, -0.2136420161f, -0.0002313910f, -0.0607232004f, 0.1078866720f, 0.0107238153f, 0.1555621624f, 0.1311941296f, 0.0534183495f, 0.1168572605f, -0.1920427680f, -0.3168451488f, -0.0760286525f, 0.1270742118f, 0.0332735889f, 0.2445088923f, 0.3066233099f, 0.1972391158f, -0.0623607151f, -0.0925077423f, 0.0892526433f, -0.1412444860f, 0.0388304144f, -0.0406482071f, 0.0096195070f, 0.2462166101f, 0.0420490913f, -0.2110371888f, -0.0246806350f, 0.1479081959f, -0.2771507502f, 0.2008212954f, 0.0730073452f, 0.1354352534f, -0.1945148706f, -0.1930070817f, -0.0125984186f, 0.1230005175f, 0.1294929683f, 0.1748345196f, -0.1913207918f, 0.4089443684f, 0.1454417557f, -0.2997499406f, -0.0144793298f, 0.0316556096f, -0.1679048985f, 0.0020321389f, 0.0011078843f, 0.1692695320f, 0.2454889715f, -0.2340301424f, 0.3643833995f, -0.1593048424f, 0.3412892520f, -0.1903571635f, 0.0228917059f, 0.0182096381f, -0.3556671441f, -0.0223204289f, -0.0256496500f, 0.0262323972f, -0.2021458000f, -0.2591676712f, -0.0222445801f, -0.0814825371f, -0.1845264584f, 0.2034945488f, -0.1351852268f, 0.0881315693f, 0.0665815920f, -0.0099379215f, 0.0850941613f, -0.1780033708f, -0.1234733909f, 0.0167602804f, 0.1004067436f, 0.0609185249f, -0.2262784690f, 0.0377076454f, -0.0990168303f, -0.0671154112f, -0.0838889480f, -0.0012766625f, 0.2747953236f, -0.3343034089f, -0.0863224193f, 0.0594271980f, -0.1412462592f, 0.1528389603f, -0.1265929788f, 0.0643855780f, -0.0394421220f, -0.2605543435f, 0.0347114801f, -0.0493852012f, -0.0692955852f, -0.0415310450f, 0.0767194703f, -0.0363621302f, -0.0649438128f, 0.1667046398f, -0.0218212586f, -0.0958998948f, -0.3630692363f, -0.0312443562f, -0.1158215106f, 0.2282723337f, 0.0421181992f, -0.0081114257f, 0.1060630828f, -0.1523874700f, 0.2777677178f, 0.2017347068f, 0.1835413426f, 0.2717426419f, 0.2314238250f, 0.2362137884f, 0.0959584638f, 0.0078484118f, 0.1532659382f, 0.2800069749f, 0.3425616026f, -0.2109652907f, -0.4389625192f, -0.3920874000f, 0.0714306757f, -0.0448421091f, 0.3205534816f, -0.0046069361f, -0.0527312383f, 0.1136575267f, -0.0818102807f, 0.1532231420f, 0.1632469147f, 0.0286041051f, -0.0543048866f, -0.4053939879f, -0.1934960783f, -0.1182624772f, 0.0563247725f, 0.0148861222f, 0.0965160802f, 0.1879574805f, 0.2861327827f, 0.1188728064f, 0.0721041486f, 0.0814812779f, 0.0264894608f, -0.0913207307f, 0.0027182947f, -0.1368615180f, -0.2699520886f, -0.0406451710f, 0.1161573902f, 0.0196684394f, 0.3263365030f, -0.2258428037f, -0.1610148400f, -0.1919868737f, -0.1917503178f, -0.1312879920f, 0.0632976666f, 0.1593048573f, -0.2550165653f, -0.2693827450f, -0.1297482848f, 0.1624675989f, -0.0118895089f, -0.2095916718f, 0.2180077434f, 0.2843599617f, 0.2783316076f, 0.0692993179f, -0.0927932188f, 0.1553645134f, 0.3551003635f, -0.0358769521f, -0.1682613194f, 0.1668705344f, 0.2197254598f, -0.2182849348f, -0.2830685377f, -0.1625015736f, 0.1324777603f, -0.1113397852f, 0.0732064918f, 0.2515787482f, 0.1636746377f, 0.0808071271f, 0.1562370211f, -0.4752235711f, -0.0849792287f, 0.0896835253f, -0.0434220769f, 0.0156424865f, -0.1203987449f, 0.0557637550f, -0.1978438348f, 0.0095719146f, -0.1873959005f, 0.1241560578f, -0.1871736199f, -0.0103853634f, 0.1266216189f, 0.0493115634f, 0.1508010924f, 0.1980582923f, -0.2226407975f, 0.3613291383f, -0.0353227258f, -0.0920542032f, 0.0930040702f, -0.3074906170f, -0.1892457455f, -0.1760268658f, 0.0093573164f, 0.2590713501f, -0.2217962444f, 0.0450847261f, 0.1903005093f, -0.0126768015f, -0.1467000693f, -0.2425319552f, -0.1193919480f, 0.1397777051f, 0.1543905288f, -0.1538283080f, -0.0164089035f, -0.0596116669f, -0.0296998490f, 0.0039968309f, 0.2827588916f, -0.0481441841f, -0.1408867240f, 0.1022170782f, 0.3539704084f, 0.0391196795f, -0.0160353482f, -0.0377843603f, -0.1957414001f, -0.0012456768f, 0.2482569218f, -0.0473199375f, -0.1741804034f, 0.3684424758f, 0.1997859180f, 0.1146864220f, 0.0237924103f, -0.3040702343f, 0.1863569915f, -0.0420396477f, 0.1374885589f, 0.2922797501f, -0.0591961890f, 0.0488251410f, -0.1649330258f, 0.2380055636f, -0.0417056940f, -0.3819910586f, 0.0739017501f, -0.2867442071f, 0.0289077125f, 0.1144974828f, 0.0001535731f, -0.2450662553f, 0.0690517277f, -0.0448636003f, -0.0932775810f, -0.0203638729f, 0.1136711016f, 0.0623640232f, 0.3548873067f, 0.2567832470f, 0.0499963798f, 0.0545242913f, -0.1404379606f, -0.0724583194f, -0.2797497511f, 0.2246005088f, -0.1359073222f, -0.0280654486f, -0.2102515250f, -0.0888078138f, -0.0796197653f, 0.4272415936f, 0.1669118106f, -0.0665408969f, 0.1596803516f, -0.0811756551f, 0.1649480909f, -0.0258336347f, -0.2934782803f, -0.1158387288f, 0.0211104117f, -0.4190212488f, 0.1934383959f, -0.0192572176f, 0.2895019948f, 0.0224352088f, -0.2565447092f, 0.3112973869f, 0.1489171386f, -0.2969603837f, 0.0156516414f, -0.0165755451f, 0.2006327212f, 0.0572878420f, -0.0288190246f, -0.0660312548f, 0.2418272644f, 0.1230621561f, 0.1492107958f, -0.0877842680f, 0.3437484205f, 0.0074769929f, -0.0924650133f, 0.1086896956f, 0.3243606389f, -0.0115810968f, 0.1350037903f, -0.2435812056f, 0.0787191764f, -0.0983724445f, -0.2345597595f, 0.0045400793f, -0.1327253729f, -0.0330690928f, 0.0715066567f, 0.1409833133f, -0.1538207084f, -0.0440807082f, 0.0650814176f, 0.1503515840f, -0.1196187660f, 0.0091151837f, -0.0337406434f, -0.1934449375f, 0.2394000739f, 0.3077314198f, -0.2636669576f, -0.0022160008f, -0.0438961200f, -0.1904008538f, -0.0799783468f, 0.0065623908f, 0.0004482884f, -0.1089861095f, -0.2645753920f, -0.0988682136f, -0.0824197754f, 0.0330714174f, -0.0497138835f, 0.0923884064f, -0.1046262234f, 0.2621815205f, 0.0982225537f, -0.1098325923f, -0.2226553410f, 0.0912189782f, 0.1726361960f, -0.0303205773f, -0.0125694349f, 0.5437671542f, -0.1438406557f, 0.1967423707f, -0.2272094935f, 0.0743086562f, -0.2932704687f, -0.0825292468f, 0.1949131638f, 0.1159415543f, -0.3935067654f, 0.1514576524f, 0.2108571976f, -0.0877863839f, -0.3373460174f, -0.0098369252f, -0.1980883479f, -0.1986701488f, 0.1128869355f, -0.0736806542f, 0.1799906939f, -0.3754615188f, 0.3005423248f, -0.0607696958f, 0.0184387825f, -0.0313224755f, 0.1021151394f, 0.3435055315f, 0.1134254262f, 0.0867663920f, 0.0976082683f, 0.0710463822f, 0.2214743495f, 0.3920216262f, 0.1837342829f, -0.0148287537f, -0.5224701166f, 0.1895084530f, -0.1451544017f, 0.2412996888f, 0.1997146457f, 0.1184234172f, 0.0183601230f, 0.2022448927f, -0.2420414388f, -0.2548741996f, 0.0373200290f, 0.3094001412f, -0.1114022583f, -0.0601348504f, -0.0315532796f, -0.2164755017f, -0.2037047893f, -0.0683412999f, 0.2388883978f, 0.1043876112f, 0.1761850417f, -0.0549873672f, 0.0770902410f, 0.0825261995f, 0.2135640979f, -0.0440414324f, -0.0385877863f, -0.0663723350f, 0.3474901617f, -0.1621610224f, 0.1595475376f, -0.1839683503f, 0.0132443067f, -0.2187366635f, -0.0396714024f, 0.0089473752f, -0.2924685776f, 0.0835953429f, -0.1388129890f, -0.1741669476f, 0.0601486415f, -0.2966783643f, 0.0512625240f, 0.0153268939f, -0.0628332123f, -0.0577902347f, 0.0144725749f, -0.0165460296f, 0.1509195715f, -0.0540878884f, 0.0702286437f, -0.2778455019f, -0.3139338791f, -0.1419901997f, 0.0482428595f, 0.1310978383f, -0.0206294544f, 0.0069457563f, -0.2276493162f, 0.1871887147f, 0.0450099409f, -0.1967909932f, -0.0312164947f, -0.2136726975f, 0.0542533472f, 0.0343260467f, 0.2889266908f, -0.2123801857f, -0.0271068346f, -0.0818482786f, -0.0739252493f, -0.6034842134f, 0.1309928298f, 0.1258041412f, -0.0391520932f, 0.1243566871f, -0.2364583910f, -0.0675069764f, 0.0498973206f, -0.1350328177f, 0.2163284123f, 0.1804573089f, 0.6912916303f, -0.0958575383f, -0.2272133976f, 0.2028963864f, -0.0816773251f, -0.0908847675f, 0.1137141213f, -0.1959168166f, 0.0333608165f, 0.1075740904f, -0.0547433756f, 0.0986030027f, 0.2025060356f, -0.1506687552f, -0.2244037986f, 0.1748132110f, -0.1824274361f, 0.0485254563f, -0.2117533833f, -0.2314779311f, -0.1941480935f, -0.1023740396f, -0.0713348016f, -0.0872186795f, 0.2270637900f, 0.0038680306f, 0.2859958112f, -0.0484214090f, 0.2495298982f, 0.0395196825f, 0.1702086627f, -0.0018047269f, 0.0741404295f, -0.1362584084f, 0.2060898244f, 0.1469744146f, 0.1599539965f, -0.0191675853f, 0.3880340159f, -0.0332290083f, 0.0407097489f, -0.0158825610f, -0.1136988923f, 0.0626585633f, -0.2762509882f, 0.2230808288f, 0.0774140805f, 0.0804184228f, 0.4389339983f, 0.2178345621f, -0.2521544397f, -0.1033606604f, 0.0191935338f, 0.2310357094f, -0.0930968523f, 0.0952601805f, 0.2279548049f, 0.1571940035f, -0.0415856391f, -0.2662795782f, 0.1927979141f, -0.0802837983f, -0.0264572706f, -0.0491689108f, -0.1387581527f, 0.3239983916f, 0.0854803100f, 0.2736963928f, -0.1459927857f, -0.1174244955f, -0.0531783998f, 0.0460560769f, 0.1731960028f, -0.1063696370f, -0.1907775849f, -0.0954307094f, 0.1706207395f, 0.0918232799f, -0.0652304888f, -0.1154400706f, 0.1390201598f, -0.2617445588f, -0.1590300351f, -0.1537640542f, -0.2644948065f, 0.0258643627f, -0.0280222166f, -0.0034953314f, -0.2966369092f, 0.0037905227f, 0.0681840628f, 0.0346687771f, -0.4398021102f, -0.3097456098f, 0.2516141236f, 0.1145276129f, 0.0125590991f, -0.0602162369f, -0.0478929318f, 0.1912371665f, 0.2867176533f, 0.0102578858f, 0.2129121423f, 0.0353491865f, -0.2294577509f, 0.1472476572f, -0.2494972944f, -0.3418686390f, -0.2611606717f, -0.1647750586f, -0.5508010387f, -0.1719770432f, 0.0585496947f, -0.0966340229f, 0.0856814384f, -0.0591108166f, 0.0644662231f, 0.0970502645f, 0.2476091385f, 0.1938237101f, -0.1447466016f, 0.0410810448f, 0.1182069555f, -0.1399578601f, 0.1481907219f, -0.1565397084f, -0.1813932210f, 0.1365088373f, 0.3247251511f, 0.0448763482f, 0.1449524164f, -0.1595787406f, 0.1978975385f, 0.2256378680f, 0.3676261902f, -0.0551502369f, 0.2195113748f, -0.1483233869f, 0.0854605511f, 0.0438524820f, 0.0309984684f, 0.2507438958f, -0.1148727089f, -0.1506321430f, 0.1094220653f, -0.4776849449f, 0.0633141324f, -0.0318061821f, 0.0526763275f, 0.1459542960f, 0.0492943451f, 0.0881216601f, 0.0417361371f, -0.1360983104f, 0.1485682130f, -0.0394704752f, 0.1153738499f, 0.2427392453f, -0.0225441381f, 0.0155526856f, 0.0595832206f, 0.2236887664f, 0.1324184537f, 0.3459801674f, -0.1292071790f, -0.1151182204f, 0.0285198949f, 0.1437606514f, -0.0892367885f, -0.0971284732f, 0.0367789529f, 0.0990294665f, 0.0132194310f, 0.1892948896f, -0.1413412690f, 0.0682858601f, 0.0928683802f, 0.1885542125f, -0.2383674532f, -0.3822954595f, 0.0946460962f, 0.2931799889f, 0.0009196353f, 0.2729525566f, -0.1706225872f, 0.0803610533f, -0.0455105938f, -0.0233198069f, -0.1951811761f, -0.2950904667f, 0.0585784279f, -0.1744225174f, 0.0490837209f, 0.0346543230f, 0.0301478580f, 0.2544465065f, 0.0145216510f, 0.3348545134f, -0.1786036193f, 0.0293414537f, -0.0550159737f, 0.1575352848f, 0.1432107240f, -0.0591906346f, 0.0114758573f, -0.1070191115f, -0.1659985930f, 0.3949047029f, 0.1500354707f, -0.0711420327f, 0.1010231748f, 0.2413644195f, -0.3657669723f, 0.0363097787f, -0.0210952759f, 0.0596866980f, 0.0812879354f, -0.1756711751f, 0.1916489005f, -0.0727075562f, -0.0071583427f, -0.0130129941f, -0.1405026913f, -0.2264214605f, 0.0701619834f, -0.1324988306f, 0.1365514845f, -0.1374199241f, -0.2243033797f, -0.0246755555f, -0.3572136760f, -0.1854921877f, 0.1878639609f, -0.1221338660f, -0.0908445641f, 0.0619645566f, 0.0405541472f, 0.2089652568f, 0.1604488045f, -0.0016945064f, 0.2693320513f, 0.0885405764f, -0.1971686184f, 0.0803830028f, -0.3094893098f, -0.0884545073f, 0.1027703360f, -0.0906667486f, -0.0895581022f, -0.0095787216f, -0.2676914930f, 0.1683365107f, -0.1404881477f, 0.0287503060f, -0.1275335103f, -0.1128257886f, -0.1456776112f, -0.1233649924f, 0.2713967562f, 0.0847659260f, 0.0098710274f, 0.7416490912f, 0.1004509106f, -0.0210452452f, -0.1789771169f, -0.1699728370f, 0.0181626976f, 0.0207042396f, 0.0750178769f, 0.0071492367f, -0.1424044669f, -0.3218417466f, -0.1611921042f, -0.0857837796f, 0.0521079376f, -0.1352236718f, 0.0158240180f, 0.0018104988f, -0.5130503178f, -0.0576750748f, -0.0945365205f, 0.2812761366f, 0.0708958730f, 0.2532005608f, 0.0775367990f, 0.1062551141f, -0.1837996691f, -0.0838145018f, 0.2174000591f, 0.0428237878f, -0.2432614416f, -0.1279312521f, 0.0440155193f, 0.0932482108f, 0.0035037762f, 0.2335573137f, -0.0340530835f, 0.0964103043f, -0.1103107333f, -0.4597759247f, 0.2914748788f, -0.1400622427f, -0.0329473279f, 0.0625788793f, -0.1516935676f, 0.1123936474f, -0.0178843979f, 0.0909298882f, -0.0041041602f, 0.0737006590f, 0.2855826616f, -0.0570310466f, 0.0957140550f, -0.0458743237f, -0.4208739996f, -0.3289403319f, -0.1107256413f, 0.0013744110f, -0.0381983705f, 0.0341357365f, -0.1672203541f, -0.1610542387f, 0.1777942777f, 0.1751632094f, 0.0648136437f, -0.0338647254f, -0.2323963046f, 0.2570591569f, -0.0825907886f, 0.1456558704f, 0.3376063704f, -0.1777694970f, -0.1413361281f, 0.0044081509f, 0.0566640645f, -0.0544118509f, 0.0309886821f, 0.1604381502f, -0.1980476528f, 0.0714661106f, -0.0453191325f, 0.4212552011f, 0.0821691677f, 0.2233895659f, -0.0516050123f, 0.0780219287f, 0.1989953518f, 0.0006812135f, -0.0641174242f, 0.0405116752f, -0.1599880010f, -0.1050058752f, 0.0809820890f, -0.0172529519f, 0.0138110239f, 0.1396384686f, 0.1238014996f, -0.1983597577f, 0.0623433106f, -0.0935589969f, -0.2290286124f, 0.4706174135f, 0.0551802553f, -0.0490721539f, 0.0598494634f, -0.1985446215f, 0.0654520169f, 0.0332017429f, 0.1478020996f, 0.0111401463f, 0.2461432517f, 0.1072024927f, -0.2129991502f, 0.0718899742f, -0.1509485245f, 0.1327569932f, 0.2252188325f, 0.2108587176f, -0.2276559770f, -0.1811173707f, 0.2572321296f, -0.1260727048f, -0.0519340336f, 0.2238147557f, -0.0061127557f, 0.0843562558f, -0.0573885515f, -0.0390113592f, -0.1868276894f, 0.1352225840f, 0.0256687794f, 0.1977220327f, -0.1000674441f, -0.3322077096f, -0.0252577569f, -0.0231686048f, -0.3968295753f, -0.1338316202f, -0.3232584298f, 0.0884526893f, 0.0828769356f, -0.0307888053f, -0.0830749050f, -0.2166495025f, 0.1157337129f, 0.0816671699f, 0.1246084422f, 0.0475958847f, 0.1382064670f, -0.0187199246f, 0.0785258487f, -0.1009285301f, 0.0090536131f, -0.1607461572f, 0.0681612045f, 0.0772882253f, 0.0180999544f, 0.4393867850f, 0.1196285710f, -0.3295256197f, 0.1933312416f, 0.2199010402f, -0.4902633131f, -0.2628716230f, -0.1127882898f, -0.1324834824f, -0.0636971295f, -0.0278085060f, 0.1797534227f, -0.2692284882f, -0.0267656799f, -0.3287210166f, -0.0469397195f, 0.3171068430f, 0.1624587625f, 0.0082574980f, -0.1981257498f, -0.0184996612f, -0.0553010181f, -0.0500739552f, -0.0627747104f, 0.3804706335f, -0.0200771894f, 0.1445528120f, -0.2488520890f, -0.2087864578f, 0.0426913016f, -0.1150092632f, 0.0167294182f, -0.2926532626f, -0.2583961189f, -0.0104413135f, -0.0414840989f, 0.0419980921f, -0.2276859134f, -0.1845829040f, 0.3265427649f, 0.0734671503f, -0.2265205234f, -0.3640038073f, 0.0600591898f, 0.2243130505f, -0.0041290512f, 0.0369524248f, 0.0672362521f, -0.0682062358f, 0.0465339869f, -0.0501666702f, -0.0314887539f, -0.2519880235f, -0.1995268315f, 0.0515768491f, -0.1743011475f, -0.1090583354f, 0.1233754382f, 0.0965521634f, -0.3795149624f, 0.2282242477f, -0.2419602126f, -0.1584537327f, 0.0300744604f, 0.0251537133f, -0.1294849366f, 0.0962436646f, 0.1057183370f, -0.0019614701f, -0.0941648558f, -0.3865490258f, -0.1825562716f, -0.1439941376f, 0.3344666362f, -0.3412366211f, 0.1135358363f, 0.0338872783f, 0.1107170507f, -0.2352495641f, 0.0223826282f, -0.0580007546f, -0.1200327128f, -0.2951787114f, 0.1738783419f, -0.0936386511f, -0.0033032214f, -0.1337758154f, 0.1671754569f, 0.4715179801f, -0.0188449286f, 0.0419324487f, 0.0452355817f, 0.3339879811f, 0.0109024262f, 0.2284945995f, -0.1379356682f, 0.0086431354f, -0.1429521292f, -0.1625219136f, -0.0467007644f, 0.0768375695f, 0.0410102792f, -0.0915385634f, -0.1236028299f, -0.2589283288f, 0.2588709593f, 0.0935014635f, -0.0337533280f, 0.0000930967f, -0.0667135790f, 0.2302799523f, -0.1306317449f, -0.0431420058f, -0.0809208825f, 0.0423873626f, -0.4035385847f, -0.0707255751f, -0.0808915794f, 0.0819606334f, 0.0550133027f, -0.2983619273f, -0.0558853894f, 0.0158632435f, -0.1248604432f, -0.0985575393f, 0.1265510321f, 0.0518416837f, 0.0478927419f, 0.2361051291f, -0.1195058897f, 0.0701669976f, -0.5144551992f, -0.0354473852f, 0.0905336738f, 0.2227374017f, -0.0737682134f, 0.1033859402f, -0.1961888671f, -0.1946789920f, -0.1167314053f, -0.0028055003f, -0.2206610888f, 0.4599022567f, -0.3032134473f, 0.2373578399f, 0.0210266467f, -0.1583129168f, 0.0622562990f, -0.1889862269f, -0.0324886069f, 0.1859470606f, 0.1605751812f, -0.0265269578f, 0.2145264149f, 0.1399058551f, -0.0439398251f, 0.2817962766f, 0.1978723705f, -0.0441284552f, 0.1358732730f, 0.1320591867f, 0.0325499028f, 0.1939597279f, 0.1922916770f, 0.1824309975f, -0.3111153543f, -0.0823269337f, 0.1631675959f, -0.0990948230f, -0.0484819077f, 0.0580123253f, 0.0485324487f, 0.0457346700f, 0.0243121106f, 0.1691769212f, 0.0206475947f, -0.0005670167f, -0.0864660665f, -0.3975127339f, 0.2067883909f, -0.0480500683f, -0.0779365525f, 0.3007819355f, 0.1177043766f, 0.1728497297f, -0.0427711233f, -0.2069068253f, 0.2405041903f, -0.0532524958f, 0.3125725985f, 0.0816306546f, 0.1209562868f, 0.0680560470f, -0.3773155212f, 0.2312413752f, -0.1177077740f, 0.1229312196f, -0.0542521514f, -0.2553698421f, 0.1333728880f, 0.1835916489f, 0.3032675087f, -0.2498084307f, -0.0623678118f, -0.1998141706f, 0.2256753594f, -0.0969056189f, -0.1848470420f, -0.1248395741f, -0.2549349964f, 0.1384700835f, 0.0199620444f, -0.0304935016f, -0.0029452094f, 0.2429106385f, 0.0811740234f, 0.1254573464f, 0.2979186177f, 0.0630185753f, 0.0921220034f, 0.0541932248f, -0.1559651345f, -0.0076620653f, -0.1429022998f, -0.0232788455f, 0.3302853703f, 0.1972830296f, 0.2592337728f, -0.0131483255f, 0.2175240666f, 0.0023291118f, 0.3737100363f, 0.0853971615f, -0.0651348159f, -0.3116946518f, 0.0986132398f, -0.0601890199f, -0.4490138590f, -0.1625216454f, 0.0071700094f, 0.1867498010f, 0.1705860347f, 0.1978944242f, 0.0906472206f, 0.0745474249f, 0.1230935231f, 0.0725602880f, 0.1883760244f, -0.1142570674f, 0.0513052605f, 0.2133099884f, 0.0592053831f, -0.1592229605f, 0.1066041663f, -0.2332010567f, 0.0703853890f, -0.2474831343f, -0.1366147697f, -0.0181987360f, 0.1272469014f, 0.2824066877f, 0.0355416797f, -0.0026333167f, 0.2069905698f, -0.0967731550f, -0.2625496984f, 0.3591702580f, 0.1885579824f, -0.3362013102f, -0.2053125352f, -0.2951978743f, 0.2893730104f, 0.4352773130f, -0.0552171990f, -0.0794715509f, -0.0858118981f, 0.0478984639f, 0.2002617270f, 0.2296762913f, -0.0739111602f, -0.1609798968f, -0.1011443734f, -0.1748574972f, 0.2994423807f, 0.1335433125f, -0.0697824061f, 0.0498515666f, 0.0484318472f, 0.0562178828f, -0.1302236319f, 0.1132078543f, 0.0417033806f, 0.2142036110f, -0.0836180449f, 0.2851038277f, 0.2149145603f, -0.0416375883f, 0.1357224584f, 0.2161267847f, 0.0872983038f, -0.2159503549f, -0.1299153119f, -0.0177003928f, 0.1706583649f, 0.2988771498f, -0.0511388294f, 0.0115708774f, -0.0549102612f, -0.0013407017f, -0.0629613847f, 0.2518457770f, 0.0906214789f, -0.0726850703f, -0.2808977365f, -0.0049038795f, -0.1602452099f, 0.1004200950f, -0.0524540097f, 0.1419923455f, 0.1281854808f, -0.2333520949f, -0.0720972121f, -0.3297678530f, -0.1130280942f, -0.0007890083f, 0.2377391458f, 0.1402102560f, 0.0740802661f, -0.1156237945f, -0.3285107613f, -0.3175478876f, -0.2144602835f, 0.0791555867f, 0.2593154609f, -0.1475017071f, -0.3809017837f, 0.0566019379f, 0.1370799989f, 0.1506226808f, -0.0012558408f, -0.2009285688f, 0.0226589199f, -0.1793716401f, 0.1736988723f, -0.1846619844f, 0.1136473119f, 0.0447345935f, 0.0328949802f, 0.1034639403f, -0.1124746874f, 0.0211662371f, 0.1950826496f, 0.0960239545f, -0.1836948246f, -0.3302700520f, -0.1725375503f, 0.2165968120f, 0.3183734119f, -0.0496844016f, -0.2501857281f, 0.2487866133f, -0.0142969666f, 0.1610729396f, -0.0783763155f, 0.0187036451f, -0.1103520021f, 0.0897025317f, 0.2480799854f, -0.0497209840f, -0.2020115256f, 0.3094601929f, -0.2433968484f, 0.0085433954f, -0.1132495180f, 0.2698953748f, 0.1017952785f, -0.1474459618f, -0.0428770967f, -0.0683429241f, -0.1740325540f, 0.0992189720f, 0.2636829019f, 0.1031031087f, -0.2635093331f, -0.2957751155f, -0.0457923003f, 0.0186094902f, 0.3131839633f, 0.1930143386f, -0.0006873014f, -0.1708110869f, 0.1088054180f, 0.0992301702f, -0.1419790983f, 0.3021162450f, -0.0782139525f, -0.0399476700f, 0.1375665218f, 0.0560267717f, 0.0061531211f, 0.0287527554f, -0.2039255053f, -0.0300749615f, -0.1877122968f, 0.4392752945f, 0.2627237141f, -0.0071394094f, -0.3877608180f, 0.3061834872f, 0.1304572523f, 0.2302423865f, 0.0235177893f, 0.1677859575f, -0.1368297786f, 0.3825057149f, -0.2107024789f, -0.1055095419f, -0.0243319552f, 0.0237783827f, -0.0467958450f, -0.1697329432f, 0.2281589955f, -0.0559711009f, 0.0814455599f, 0.2130384445f, -0.0566824265f, -0.0828026682f, 0.0154561782f, 0.1115553454f, 0.3308263123f, -0.0332362130f, 0.1565138847f, 0.1773676872f, -0.2078141868f, -0.0161557384f, -0.0093125757f, 0.4027595818f, -0.2536531091f, -0.1412383914f, 0.1958830357f, -0.2005999386f, 0.1061816663f, -0.2243750244f, 0.1428533643f, -0.1505807042f, 0.0166807566f, -0.1035772860f, 0.2800959349f, 0.2254891247f, -0.2781478167f, -0.3563637137f, 0.0980787575f, 0.0759425759f, 0.0228496119f, -0.1517103165f, -0.2540730834f, -0.0542606525f, 0.4258959293f, -0.2315677106f, -0.1762083918f, -0.4008186758f, 0.0425384566f, 0.0425436459f, 0.0551249832f, 0.1645708531f, 0.0156325940f, -0.2310914546f, 0.0686595440f, 0.2468825728f, 0.2012915313f, -0.0585527681f, -0.1170312315f, -0.1107110307f, -0.0546897277f, 0.0424242988f, -0.1051842868f, -0.2925471663f, -0.2795684934f, -0.4643662572f, -0.2113798857f, 0.2810565829f, -0.1282556206f, 0.0465745777f, -0.1177512184f, 0.0230289958f, 0.0441147089f, -0.0639871955f, -0.1628811061f, 0.1860105395f, 0.0397664718f, 0.1910887063f, -0.0515699424f, 0.1080125794f, 0.0979141518f, 0.0028350400f, -0.0419985577f, 0.0116600087f, 0.0840498507f, -0.0273799635f, 0.0155003015f, -0.0360558480f, 0.1232713312f, -0.1836640686f, 0.0920782536f, 0.2646347582f, 0.0024516922f, -0.0330340937f, 0.2291215658f, -0.0930499658f, 0.0107343327f, 0.1594576389f, -0.0349329300f, 0.0743660256f, -0.0489298627f, -0.3480252326f, 0.0773607269f, -0.0004406038f, 0.2923300862f, -0.1654400229f, -0.0926819220f, 0.1193738505f, 0.0390854552f, 0.1647231281f, 0.0814915150f, 0.1527578235f, 0.1284275204f, 0.0784132853f, -0.0168034453f, -0.0414848104f, 0.1600364000f, -0.1254708767f, -0.1057837903f, 0.0041663018f, 0.1752169132f, 0.1924819499f, 0.1650298536f, 0.1129217818f, 0.0809129104f, -0.4355675876f, -0.0185193811f, 0.0585151613f, -0.1562569737f, -0.5517267585f, -0.0268849209f, -0.2593634427f, -0.3649987578f, 0.1423611492f, 0.1089084893f, 0.0260361861f, 0.2774012387f, -0.0055352831f, 0.1093952656f, -0.1301099807f, 0.1395212263f, 0.1821233034f, 0.0670727044f, -0.2164571881f, 0.3588559031f, -0.2788864374f, -0.0571329184f, -0.1321462989f, 0.0923377872f, -0.3712375164f, 0.0001007636f, 0.1433833092f, -0.1319441050f, 0.0626273453f, 0.2498773038f, -0.0568376482f, -0.0216975901f, -0.2123065889f, -0.1819604486f, -0.1888456345f, -0.1561647505f, -0.3681803644f, -0.1373553574f, -0.0989912897f, 0.0681107864f, 0.0188740790f, 0.0364272632f, 0.1469461173f, -0.1257300228f, 0.0756907985f, -0.0691330880f, -0.0080112163f, 0.0011418173f, -0.0628325716f, -0.1465728134f, -0.2605761290f, -0.0752121732f, 0.0609342717f, 0.0392119959f, 0.1498251408f, -0.2504125834f, 0.0813096538f, 0.1191930920f, -0.1196842641f, -0.0955475643f, -0.1189280674f, 0.1060277596f, -0.1427971721f, 0.1091797128f, 0.0097495597f, -0.2330075353f, 0.1170663536f, -0.0100366492f, 0.0328000747f, 0.0378910787f, -0.1962470114f, -0.1398305744f, -0.2040385753f, 0.2288603932f, 0.0042754197f, -0.1036076844f, 0.2098621130f, -0.1956341565f, -0.0835863724f, -0.5667979121f, -0.0596917681f, -0.1616480500f, -0.1321270168f, -0.0115184709f, 0.0266551040f, -0.0856125206f, -0.0881874263f, 0.2820132673f, 0.1568866372f, -0.0725696236f, -0.2005057186f, 0.0983383507f, 0.1568676233f, 0.1226553470f, 0.0353338234f, -0.0913316607f, -0.1724684685f, 0.3253608048f, -0.1707452834f, 0.1378408819f, -0.1270015687f, 0.0171020236f, -0.1977981329f, 0.2509018779f, -0.1274237484f, 0.0354965851f, 0.0262725931f, 0.0202284157f, 0.2737406790f, -0.7163571119f, 0.2124829590f, -0.2346973121f, 0.0616129674f, 0.2649002373f, -0.0128761027f, 0.2045909911f, 0.0544840507f, 0.1452195048f, -0.1593206972f, -0.3346942961f, 0.0955236778f, 0.0839459151f, 0.3046174943f, 0.1558828205f, -0.3068811595f, -0.2125343084f, 0.1230175197f, 0.0563677922f, -0.0469029807f, -0.0175603926f, -0.0513955764f, -0.0557642542f, -0.0731539726f, -0.3066782057f, -0.0520717129f, -0.0563307740f, -0.0063166390f, 0.4707273841f, -0.3183734715f, 0.0717942938f, -0.1649811119f, -0.2073850334f, -0.3257944286f, -0.1251220405f, -0.0300294776f, -0.0145457648f, -0.1878613830f, -0.1600639522f, -0.1579889804f, 0.1142772213f, -0.2071864307f, -0.0517289452f, 0.0425843783f, 0.0484711714f, -0.1137158647f, 0.2370144129f, -0.0057010408f, 0.0646990985f, 0.3762411475f, 0.0384212546f, -0.3725828230f, -0.1614284664f, 0.4570158124f, -0.0502288751f, 0.1310087442f, -0.0553332157f, -0.2026282400f, -0.1228689477f, -0.2980030477f, -0.0941429138f, 0.0436985940f, 0.0020222194f, -0.2982325256f, 0.1474702209f, 0.1356033236f, -0.1954447925f, -0.1283452213f, 0.1135538295f, 0.0566532835f, -0.1670158952f, -0.3839743733f, 0.0182172824f, 0.3140887022f, 0.2388249785f, -0.2871668637f, -0.0633191541f, 0.0136084743f, -0.0589014515f, -0.0774288252f, -0.1585730463f, 0.2363662571f, -0.0624834597f, -0.1592916697f, 0.2790430486f, 0.2035716623f, 0.3134966493f, -0.1366546750f, -0.2216669470f, 0.2472923547f, 0.2351473272f, 0.0406451821f, 0.0212861747f, -0.1449582130f, 0.1188857183f, -0.0163634475f, -0.0675269440f, 0.1582949758f, -0.1683913022f, 0.0549060814f, -0.0605109558f, 0.1236416325f, -0.1414964497f, -0.0517338216f, -0.4492011368f, -0.1211598292f, -0.2709592879f, 0.1575333774f, 0.1841136068f, -0.1946909279f, -0.2679306865f, -0.1395206749f, 0.1174866781f, 0.0593628697f, 0.1407893896f, -0.3550537527f, 0.1200822368f, -0.2827995121f, -0.1899469793f, -0.1183341295f, -0.0087300120f, -0.1818720400f, 0.0955393761f, -0.0295750089f, 0.1858503520f, -0.0328178182f, -0.1812078655f, 0.1195057258f, 0.1653681248f, 0.0556187853f, -0.1179597750f, 0.1590492874f, -0.0160629842f, -0.2423121184f, 0.0442432463f, 0.0488695949f, -0.0403843112f, -0.0034089487f, -0.0794472247f, -0.3128787875f, -0.3106011152f, -0.3549620211f, 0.2000814080f, 0.1900501996f, 0.3394275010f, -0.2843112350f, 0.0405816361f, 0.0688665286f, -0.2885340750f, -0.2856560946f, -0.3334808648f, 0.2216599584f, -0.3117378950f, 0.2836474180f, -0.1235102713f, -0.1181711107f, 0.0585517026f, -0.0788436681f, -0.1154304445f, 0.0005708755f, 0.0149209192f, -0.2611132264f, 0.2278924882f, -0.0246577654f, 0.2266902030f, 0.1935755312f, 0.0336247347f, -0.1672550589f, -0.3113428056f, -0.2186772227f, -0.1605685204f, 0.2347749323f, 0.1397984773f, 0.0045197201f, 0.0683856308f, -0.1451177001f, 0.1238228679f, -0.0417376012f, 0.0754805207f, -0.0065130061f, -0.2158441097f, -0.1087030843f, 0.0461452156f, -0.0055971388f, 0.0963999555f, -0.1805580258f, -0.0190703329f, -0.1296650171f, -0.0590247363f, -0.1057943180f, -0.2145979553f, -0.1355984658f, 0.0299218129f, 0.0925265476f, 0.0772251561f, -0.0135044511f, 0.0522915311f, 0.1730304807f, 0.2681449652f, 0.0151772862f, -0.0745474175f, 0.1731300205f, 0.2711434960f, -0.2218096852f, -0.0514196716f, -0.1584156156f, -0.1286947727f, 0.2008780837f, -0.0888574943f, -0.1245775595f, 0.1839108020f, 0.1236709431f, 0.1608021110f, 0.0487781763f, -0.0221039336f, 0.2777051330f, 0.2105743289f, 0.0483113416f, 0.0536699481f, -0.0098686693f, 0.5821186900f, -0.0269811079f, 0.2708110213f, 0.0578905642f, -0.0934671387f, -0.1401153952f, 0.2419708669f, 0.1689626127f, -0.0089357886f, 0.0974207371f, -0.0075723324f, 0.0523169711f, 0.0556228422f, 0.3135752976f, 0.4123764038f, 0.1277425587f, -0.1874857545f, -0.1442933530f, -0.1155323014f, 0.0096576801f, -0.2293177396f, 0.2653770149f, 0.0929197669f, -0.0163460430f, 0.0100952545f, -0.0869929045f, -0.0194566641f, -0.0775120035f, -0.1888373792f, 0.0210687015f, 0.1158505231f, 0.1617395133f, 0.0782644972f, -0.1370194107f, 0.0622185431f, -0.3177096844f, -0.3652763665f, 0.1125509143f, -0.0362441763f, 0.1702447385f, 0.0461998694f, 0.0717152208f, -0.2458100170f, 0.1883973479f, -0.3089504838f, -0.0619287640f, -0.0942527354f, -0.1547795832f, 0.1270451695f, 0.2908229530f, -0.0361852497f, -0.4359618425f, -0.0710838214f, -0.1228018999f, 0.2788928449f, -0.2232903987f, -0.0117217116f, 0.0110516762f, 0.1081458479f, 0.0873332396f, -0.1970472187f, -0.1765850633f, -0.0188002661f, 0.1136297211f, -0.2252112925f, -0.0098675415f, 0.1735418588f, 0.0568334460f, 0.1098952889f, -0.1643716693f, 0.1356649101f, -0.1086417437f, -0.1264200211f, 0.3308750391f, -0.2881524265f, 0.1179668531f, -0.1374316365f, 0.1209284961f, 0.3389930129f, -0.0591530986f, 0.2546234429f, -0.0826587304f, -0.2170114666f, -0.0898906216f, 0.3310111463f, 0.0989613086f, 0.1275846511f, 0.1431356370f, -0.4726894498f, 0.1283693463f, -0.1327466220f, 0.0200025141f, 0.0200868640f, 0.1159103662f, 0.1437991858f, -0.5286225080f, 0.1675502509f, -0.0971064568f, 0.3175319135f, -0.0802985653f, -0.0040903068f, 0.1230958030f, 0.0700295269f, -0.1553451568f, -0.0350216143f, 0.0865645036f, -0.2394378632f, -0.2575647235f, -0.0112359328f, 0.0016235500f, -0.1190347299f, 0.2096607387f, -0.3378804028f, -0.0932075977f, -0.4850067198f, -0.1105093732f, 0.0349944085f, -0.2481841892f, -0.0380360149f, 0.0442078598f, -0.0556662120f, 0.2333411723f, -0.0477069989f, -0.2617965043f, -0.0591628402f, -0.0639469251f, -0.1436730027f, -0.2625274360f, 0.0192545392f, -0.2180030644f, 0.0166104678f, 0.1149198636f, 0.0920808613f, 0.0253786482f, 0.1452639103f, -0.2364009917f, 0.0652950555f, -0.2742651701f, -0.2403254211f, -0.0937692448f, 0.2201317102f, -0.1267271042f, 0.0041007055f, 0.0638796017f, -0.0622776933f, 0.1044082046f, -0.2300398648f, -0.0425459146f, 0.1396400034f, 0.1439208984f, -0.0843858942f, -0.0831671655f, 0.0984213352f, -0.2490520030f, 0.0178572312f, -0.0743248239f, 0.1204302236f, 0.2319340855f, -0.0641378984f, 0.0807370916f, -0.2430841923f, -0.3202024102f, 0.3200232983f, -0.3966127932f, 0.0518223234f, -0.2088507712f, -0.1276818365f, -0.0573254898f, -0.1171364412f, 0.0130527560f, 0.1473412961f, 0.0162135642f, -0.0842330605f, -0.1008306146f, -0.0206985977f, -0.4108701944f, -0.2455197573f, 0.0863087550f, -0.0198158287f, -0.1317072660f, 0.1293257624f, -0.2904670835f, -0.3444795012f, -0.1278301328f, 0.2581650317f, -0.0269606728f, 0.2611827254f, 0.0448756851f, 0.0302493740f, -0.1807864606f, 0.0455325916f, -0.2528456151f, 0.0386852957f, 0.1714624017f, 0.0834268183f, 0.0876253098f, 0.1632333994f, -0.2975431979f, -0.2480331957f, -0.1670396775f, -0.0895896778f, 0.0400483347f, 0.2952167988f, 0.3605704010f, 0.1049483716f, -0.1087426096f, 0.0190766193f, 0.1406586617f, -0.1345991343f, -0.0276600569f, 0.3342805505f, -0.3028395176f, 0.1915503889f, 0.0964163691f, -0.1337908357f, 0.1229656413f, 0.0374483615f, -0.0320263430f, -0.0207503233f, -0.3608636260f, 0.1487210542f, -0.1442062557f, -0.3736846745f, 0.0867676139f, 0.1163002402f, 0.1451803893f, 0.1592385173f, 0.0412992090f, 0.0509468950f, 0.0840068087f, -0.1358474940f, -0.1302920878f, -0.1056383476f, -0.0409684479f, 0.1149595827f, -0.3228119314f, -0.2031615973f, 0.0837267488f, -0.1508792490f, 0.1782218963f, -0.2516410947f, -0.1908348799f, 0.0798584670f, 0.1664189398f, -0.0555575415f, 0.3010116518f, 0.2743252814f, 0.3313906491f, -0.2212914973f, 0.1483369172f, 0.3001884222f, -0.1327124387f, 0.3603858948f, 0.1453154385f, 0.1025218666f, 0.2925121486f, -0.2897500992f, -0.1104411557f, -0.0272177216f, 0.3434045315f, -0.1442125887f, -0.2071402818f, 0.3683451116f, -0.0345001295f, 0.1096523181f, -0.1033707187f, -0.0083141206f, 0.1975359619f, -0.0147509007f, -0.1881028563f, 0.1209855527f, -0.1115778536f, -0.2078617066f, -0.0841180831f, 0.3067207634f, -0.0655391365f, 0.2429477125f, 0.1901261359f, -0.0252468400f, -0.0516589880f, -0.0729352087f, 0.0190575309f, -0.1244290322f, 0.0875779092f, -0.1012094393f, 0.0903405920f, -0.0602088831f, 0.1184748635f, 0.1509168595f, -0.1507906169f, 0.0009851644f, 0.2447433025f, -0.0965733379f, -0.0906725973f, -0.1690028608f, -0.0434887335f, 0.3213429451f, 0.0119223660f, 0.1281760186f, 0.0391130522f, -0.2200141549f, 0.2510752082f, 0.1482699215f, -0.1555181742f, -0.0085502230f, 0.5200901628f, -0.0372254476f, 0.0000276725f, 0.2849324942f, 0.0750587508f, -0.0994798243f, 0.0186174568f, -0.0191930402f, -0.0204437450f, -0.1437670588f, 0.3607639670f, 0.1213856265f, 0.0479594953f, -0.2890388370f, 0.2355408967f, -0.2465230972f, -0.0760320798f, -0.1070269644f, 0.1755565256f, -0.2320895046f, -0.1545832753f, -0.2182250321f, 0.0103155160f, 0.0336284675f, 0.1233491376f, 0.0568403751f, -0.4919849634f, 0.0761544406f, -0.1185059473f, 0.0684926882f, -0.0161841623f, -0.0818408951f, 0.0061468151f, -0.1552953720f, -0.1393436790f, 0.0758785754f, 0.1292511970f, 0.2034878284f, 0.1952586621f, 0.2992320657f, -0.0086902445f, 0.1987153441f, -0.1789578348f, -0.0125413947f, -0.2218603194f, 0.1370689571f, 0.0204439182f, -0.1021696106f, -0.2456381321f, 0.1225050986f, 0.0556386225f, 0.2952551544f, -0.2134034783f, -0.0847600698f, 0.0343810022f, 0.1591641158f, -0.2602467835f, 0.0454729646f, 0.1569670886f, 0.1525949687f, -0.2884637415f, 0.3835874200f, -0.1667127907f, -0.0055836299f, 0.1483590752f, -0.0013762196f, -0.0567260608f, -0.1115713045f, 0.0089020105f, -0.1438960582f, -0.0092888959f, -0.2625620961f, 0.1008516103f, -0.1946533173f, -0.2703379989f, 0.0950913876f, 0.3641040027f, 0.2583387494f, 0.1540966928f, 0.1165168285f, -0.2985522747f, 0.1196045354f, 0.1586986184f, -0.1973597854f, -0.1052794978f, -0.1733454913f, -0.1753363907f, -0.1436230689f, -0.1237463430f, 0.1046349555f, 0.1068147346f, -0.1251267493f, 0.0191503614f, -0.0076563479f, 0.0580446906f, -0.0903904513f, -0.1383717656f, -0.3130259216f, 0.4572821259f, 0.1685049981f, -0.0921395645f, -0.1411797255f, 0.2614384294f, -0.2534990013f, 0.0506373718f, 0.2226060033f, -0.1831035763f, 0.2530671656f, 0.0558436289f, -0.1031238362f, 0.0503427908f, 0.1105631664f, -0.1723401845f, 0.0205101166f, 0.1372406781f, 0.0253640432f, -0.1537947655f, 0.1630392671f, -0.0835913569f, -0.3287822008f, 0.0357280597f, 0.0167288836f, 0.0899798721f, 0.0002473562f, 0.0660802051f, -0.1180760935f, 0.2578023672f, 0.3605898321f, -0.0555860586f, -0.0110535817f, 0.1117409691f, 0.2922609746f, -0.0682470128f, -0.1580467969f, -0.0973726660f, -0.1495462656f, -0.1331061125f, 0.2699891329f, -0.0699006319f, 0.1957651228f, -0.0265915934f, -0.1529558748f, 0.1666526496f, 0.0637369156f, -0.1153864637f, 0.2814662457f, 0.4165598750f, 0.0748778284f, -0.1935449839f, -0.2374957651f, 0.2547098100f, -0.0362932310f, 0.3820159733f, 0.0614956729f, -0.2830637395f, -0.1640641093f, 0.3193311095f, -0.4738622308f, 0.2088072747f, -0.0524465032f, -0.0502613932f, -0.0674642324f, -0.0121729095f, -0.0613551736f, 0.1187757328f, -0.1339341253f, -0.0412884317f, -0.0918750539f, 0.0839889124f, -0.1746088713f, -0.2541423440f, 0.0653654635f, 0.0005830095f, -0.2382718921f, -0.1655609161f, -0.2158485353f, -0.1273457706f, -0.1767470092f, -0.0482128412f, 0.0175079238f, 0.0257755332f, -0.1599052101f, 0.1071786508f, -0.0717858896f, -0.2070538849f, 0.2417718917f, 0.3982077241f, 0.0306020156f, -0.0404942520f, 0.1652598381f, 0.0814702436f, -0.1044210047f, -0.1002249420f, -0.3954533041f, 0.0194392428f, -0.0654559061f, 0.1006018966f, -0.0827503279f, -0.1445111036f, -0.0964158401f, -0.0685829073f, -0.1868506521f, 0.0664009154f, -0.0859223902f, -0.0792050362f, 0.0865444839f, 0.2650445998f, 0.3824427128f, 0.1164228767f, -0.0025197002f, 0.2000070214f, 0.1671033502f, 0.2852106988f, 0.0528975241f, -0.1399441063f, -0.1462618858f, 0.1848729551f, 0.0766512081f, 0.0938544869f, 0.3216497898f, -0.2773476541f, -0.2514449954f, 0.0626536980f, -0.1271954328f, -0.1186431348f, -0.1955662221f, -0.2606205940f, 0.1387274414f, -0.0098488526f, 0.0809045732f, -0.2179921865f, -0.1362617463f, -0.1280882061f, -0.2244589627f, 0.2006714493f, -0.1249535605f, 0.1008937135f, 0.1459891498f, -0.1647000760f, -0.1499656588f, -0.1535998583f, 0.1286822259f, 0.3505823612f, 0.2141104341f, -0.0026378594f, 0.0314800665f, -0.2565637827f, -0.0431467965f, 0.0901415125f, -0.2142489552f, -0.1322367042f, 0.0690122768f, -0.1382399201f, -0.0430521592f, 0.0620111525f, 0.1190907881f, 0.2837217748f, -0.0879167914f, 0.0374089144f, 0.0776559040f, -0.1933338493f, -0.3409671783f, -0.1198243126f, -0.4829740226f, 0.1110462919f, -0.0518786311f, 0.3630237579f, -0.2077651918f, 0.1479183733f, 0.0287631694f, -0.1323593259f, 0.0858152732f, -0.2125198692f, -0.0010683245f, -0.0108353319f, 0.1901812553f, 0.1274205595f, 0.0249532349f, 0.1401431561f, 0.3790820837f, -0.2634604871f, 0.1549312770f, 0.1414874643f, 0.1240291521f, 0.0378361642f, 0.2228757888f, -0.1297759861f, 0.0625265837f, -0.1983719021f, -0.2194553614f, -0.0916928649f, 0.0026095938f, 0.1926416159f, 0.2844665051f, -0.0547410473f, -0.1722938865f, 0.0730695948f, 0.0092466511f, -0.1238513887f, -0.3075275719f, 0.0232625902f, -0.3079201281f, -0.4886371791f, 0.2005487382f, 0.0889234841f, -0.1998213679f, 0.1224394441f, -0.0326286070f, -0.0866474360f, -0.1443425417f, -0.1298631430f, 0.4424108267f, 0.0585320704f, 0.1197516397f, 0.0260552522f, 0.2829077840f, -0.0226581208f, 0.1639757901f, 0.0659859553f, 0.1653458476f, 0.0266611110f, 0.0704858154f, 0.0851883069f, 0.2666401267f, -0.1411792636f, 0.3680142164f, -0.2134963721f, -0.2285854220f, 0.0239420943f, 0.1636163592f, -0.1960766017f, -0.0388613604f, 0.1241308302f, 0.1926606596f, -0.1680226326f, -0.0239848681f, 0.1811516434f, 0.1947588623f, 0.0618522353f, 0.0206146948f, 0.0162260532f, -0.1971970797f, -0.1039141789f, 0.2572755814f, 0.1040569916f, 0.0877593309f, -0.0020126014f, -0.0053473227f, 0.1986958832f, 0.0177492909f, 0.0810313225f, -0.2949474454f, -0.0090697175f, -0.0097672390f, -0.3498192430f, 0.1319661438f, 0.0871872678f, 0.0218908116f, -0.0555354878f, 0.1354511082f, 0.2074303329f, -0.0020703578f, 0.2462069094f, 0.3047762215f, 0.2978767157f, 0.1388063282f, -0.0561620295f, -0.0724180117f, 0.2873972058f, 0.0686395243f, -0.2624004185f, -0.0074746460f, -0.0648367330f, -0.0943359807f, -0.2792479992f, 0.2102132291f, 0.0362887681f, -0.2155863196f, 0.2906290889f, 0.0299663618f, -0.0790407434f, -0.1383933276f, -0.2698461413f, -0.0311574265f, -0.1354435533f, -0.0708706379f, 0.1418854445f, -0.2425522506f, -0.2358095199f, 0.1486432105f, 0.3185454607f, 0.0491600186f, 0.2815769613f, -0.1045510694f, 0.0841858014f, 0.1457767785f, 0.1219238937f, -0.0707737058f, 0.1361175328f, -0.2151421607f, -0.0134633332f, 0.0340415724f, -0.3522922695f, 0.2155538648f, -0.0300938636f, 0.0208096411f, -0.0441621169f, -0.2387689054f, -0.0918363407f, -0.0096585192f, -0.2787733376f, -0.0189532079f, -0.0168541670f, -0.2495287806f, 0.2182291746f, -0.2037493438f, 0.0087112747f, 0.2225789875f, 0.1104696617f, -0.1385763139f, 0.1976515651f, -0.1224199384f, 0.0767047703f, -0.0623872913f, -0.0317157842f, -0.5216280818f, -0.1023997813f, -0.2579060197f, 0.2019074112f, -0.0263077803f, -0.0993033648f, 0.0537460037f, 0.2610825896f, 0.0772415400f, 0.0021722917f, -0.1826425791f, -0.2936928272f, -0.0820160210f, 0.3696694076f, -0.0458380282f, -0.0932611078f, 0.0147095295f, 0.1799190640f, -0.1794873327f, -0.0208446011f, -0.3150546253f, 0.1636122763f, -0.1212089434f, 0.1650812626f, 0.0971932560f, 0.1516415626f, 0.0478921831f, 0.0622228086f, -0.2339716107f, -0.0058072619f, 0.1586335599f, -0.0326738395f, 0.4088461101f, -0.0083491150f, -0.1651718765f, 0.3657898605f, -0.1504749954f, -0.2905344963f, 0.0451652855f, -0.0493069291f, 0.0338818058f, -0.0345962420f, -0.0344917811f, 0.4219811261f, 0.0811098367f, 0.0560799837f, -0.0131656881f, 0.0217058789f, -0.1826020926f, -0.1900713444f, -0.0974557400f, -0.0952344835f, 0.1277726740f, 0.1050042808f, -0.1615292430f, -0.1921568811f, -0.0452136882f, 0.2070912719f, 0.2415837348f, 0.1148060337f, 0.0659219548f, 0.1877873838f, 0.0006683237f, 0.1516373605f, 0.0507113785f, -0.3150955141f, -0.2120496780f, 0.4690880775f, 0.1285668015f, 0.2006946802f, -0.0512611195f, 0.1215557009f, 0.0431568772f, -0.0774309412f, -0.0029097360f, 0.0936394483f, -0.1970445514f, -0.1169218943f, 0.2419816554f, -0.1751439422f, -0.0618641451f, 0.1670992672f, -0.2335824668f, -0.1815576106f, -0.0905940160f, -0.0127180303f, 0.0447999761f, -0.0230535325f, 0.1198638156f, 0.2681375742f, -0.1881623715f, 0.4001902342f, -0.2545147836f, -0.0449980944f, 0.0770536587f, -0.0933721811f, -0.0730141848f, -0.0652210042f, -0.2262051553f, -0.1712592840f, 0.1042263508f, -0.1619308740f, -0.2241423130f, -0.0016416919f, 0.1985610873f, 0.1453273296f, 0.3570383787f, 0.0854521245f, -0.0195797067f, 0.2947791517f, -0.0511361063f, 0.0645716488f, 0.0600744560f, -0.0736302137f, 0.1216239184f, -0.1510550082f, 0.1041537747f, -0.1948029399f, -0.2025551349f, -0.3199570775f, -0.0893614218f, 0.0173771884f, -0.1044223756f, 0.2283687145f, -0.2148586363f, 0.3096331358f, 0.0108355181f, -0.3403224349f, -0.0119011737f, 0.2990435362f, 0.0894631818f, -0.3006563485f, -0.0235147234f, -0.0831543058f, -0.1820081472f, -0.1124655008f, -0.1783533692f, -0.1767669320f, -0.0030554764f, 0.0417433754f, -0.0560002923f, 0.0926351696f, 0.1297359169f, -0.1326604486f, -0.0557726435f, 0.4465956092f, 0.2767405212f, -0.3387054205f, 0.1400292963f, -0.0176086854f, -0.0200902130f, 0.2017131895f, 0.4172926843f, -0.0199852586f, 0.1555711925f, 0.1270483434f, -0.0260105170f, 0.0065888041f, 0.1738618463f, 0.2148912847f, 0.2275908440f, -0.2087918520f, 0.1807166487f, -0.1910412461f, 0.0691264421f, -0.1935425401f, -0.0912253708f, 0.1974293739f, -0.2914554477f, 0.2530975044f, -0.0043193917f, -0.0271276254f, 0.2366847396f, -0.1916037202f, 0.3465580344f, 0.0681352168f, -0.1130521223f, -0.2161425948f, -0.0219773129f, -0.1295739859f, -0.0129925795f, 0.2252866477f, -0.1062916070f, -0.1463851929f, -0.1120022982f, -0.0175261423f, -0.2828721106f, -0.1684866846f, 0.1712779552f, -0.2598779202f, -0.0239884406f, -0.3793477416f, 0.0386769921f, -0.1389633268f, -0.0198676754f, -0.1750363559f, -0.0442807972f, -0.2705043852f, 0.2074012011f, -0.2798327804f, -0.0824972317f, -0.0156498309f, 0.0395693704f, -0.1271013767f, -0.0660095662f, -0.0524206161f, 0.2647581398f, 0.0795754343f, 0.0778795406f, -0.0556746423f, 0.0382674672f, -0.0764778480f, 0.2156531811f, 0.0396837667f, -0.0627439991f, 0.1770134121f, 0.0202944130f, 0.5201315284f, 0.3019800484f, 0.1590505093f, -0.0328296758f, 0.2398943603f, 0.0849241763f, -0.1370157301f, -0.0991686359f, -0.2001622170f, 0.3121525645f, -0.0208314024f, 0.1181677580f, -0.2457023114f, -0.1185142323f, -0.0837978497f, -0.2415781617f, 0.0371915847f, 0.1383604407f, 0.0476231612f, -0.1868138462f, 0.0688053966f, -0.1578796357f, 0.0541134477f, -0.0699071363f, 0.1957509220f, -0.1210756302f, -0.0578099117f, -0.0509149395f, 0.2193826586f, 0.2121174634f, 0.2080398649f, -0.1443503052f, -0.1275965720f, 0.0470773168f, 0.2079394013f, -0.0681829527f, -0.1418967396f, -0.1596015692f, 0.0712250024f, 0.1742553115f, -0.1028770879f, -0.3000705838f, -0.0367031023f, -0.0555484183f, -0.0370007567f, -0.2341842502f, 0.1161231175f, 0.3382904530f, 0.3183267415f, -0.0646289960f, 0.3834974170f, -0.1194539517f, -0.0198431965f, 0.1590676457f, 0.0384729654f, -0.0052452977f, -0.0454703048f, 0.1207696125f, 0.1316612363f, 0.2276952416f, 0.0857512131f, 0.1585340351f, 0.1502092183f, 0.1822934747f, -0.0360701121f, -0.0429152101f, -0.1303562969f, -0.3831144273f, 0.3612642884f, -0.3409695923f, -0.0614345409f, 0.2550398409f, 0.0294994060f, -0.2486696690f, -0.0438962691f, -0.0105610061f, 0.1878716648f, 0.1707239449f, 0.1356932223f, 0.1377163529f, -0.1546254009f, -0.0110777877f, -0.1424839944f, -0.0458781682f, 0.0242258478f, 0.0614430308f, 0.0966473669f, -0.1884827018f, -0.2272114158f, 0.1872585118f, 0.0170256570f, 0.0259769484f, -0.1572562009f, 0.1243710294f, -0.1942799389f, 0.1299234480f, -0.0975787267f, 0.2512049675f, -0.5366457701f, -0.3003305495f, -0.1021738425f, -0.0454689711f, -0.3561193049f, 0.0720124543f, -0.0833047926f, -0.2696696222f, 0.1740120798f, 0.0482097901f, -0.0592811182f, 0.0460547283f, -0.0018373830f, 0.2878819108f, -0.0769016743f, 0.0794478208f, 0.2188300043f, -0.1276344061f, 0.1010872275f, -0.0052081943f, 0.1283694357f, -0.1732407957f, 0.1027243137f, 0.0599341355f, 0.2049278170f, 0.2098364234f, 0.0495814160f, -0.0290431436f, -0.2151318192f, 0.4838507771f, -0.1606298089f, 0.3549854457f, -0.1555231959f, -0.1078955904f, -0.0055535124f, -0.0119580626f, -0.2452147901f, 0.1074255705f, -0.0719680861f, -0.1080589369f, -0.1232331768f, -0.0541126840f, 0.1083173528f, 0.0559582710f, -0.5361613631f, 0.1210545376f, -0.1362154931f, 0.0017574347f, 0.0215079375f, 0.0596677251f, -0.3215454519f, -0.1520504504f, 0.1666915417f, -0.1682239920f, 0.0408256277f, 0.1341689676f, 0.0798045024f, 0.1696224511f, 0.0092314109f, -0.3372173905f, 0.0565834977f, -0.1543665528f, 0.0510255843f, 0.0713175759f, 0.1893079579f, 0.0296591651f, 0.0630646423f, 0.2185652703f, -0.1830447763f, 0.0213590953f, 0.2594127953f, -0.0659992471f, -0.1054025963f, -0.2104105204f, -0.0098818820f, -0.2013588101f, 0.2692822516f, -0.1784139872f, 0.4024920166f, -0.0675769150f, -0.1084834039f, -0.1433929950f, -0.0131741026f, 0.0074139680f, 0.1352325380f, -0.0598577969f, 0.1083000600f, -0.2173486203f, -0.1053104997f, -0.1518037319f, -0.0082033006f, -0.3161136806f, 0.2506190240f, -0.0198309030f, 0.0826834962f, -0.2178463340f, -0.2821826637f, -0.1330887526f, 0.1122291237f, 0.0524925403f, -0.1130645722f, -0.2373508662f, -0.2099227607f, 0.0316793248f, 0.0895971358f, 0.0738353357f, -0.0576699004f, -0.1936849058f, -0.0579995885f, 0.2320752144f, 0.2414871901f, -0.1197256893f, -0.1536933333f, -0.2270790637f, -0.1073651835f, 0.0397156551f, -0.0253653172f, -0.2190350592f, 0.0174750183f, -0.1237082928f, 0.4006242752f, -0.0343850330f, -0.3700428903f, -0.0610700957f, -0.1643787026f, -0.0181688406f, -0.0785832703f, -0.2022841424f, -0.3752098978f, 0.4748507142f, -0.2468167990f, -0.1117462963f, -0.0790170357f, -0.2002403885f, 0.0768315196f, -0.0736109093f, -0.1345633864f, -0.0197989941f, 0.0442635529f, -0.3863981366f, 0.0859231278f, 0.0062592961f, -0.0584234372f, -0.0694614947f, 0.1320833564f, 0.2274527848f, -0.1306196898f, 0.0583729260f, 0.1579757929f, -0.0260194018f, 0.0897416919f, 0.0074258051f, 0.2409057468f, -0.1760079861f, -0.1088864505f, -0.2899838090f, 0.1500117183f, 0.2062159926f, -0.1948052645f, 0.3783671260f, -0.0669722781f, 0.2332794666f, 0.2067366391f, 0.0009536085f, -0.0942718834f, -0.1768960357f, 0.0065095853f, 0.0471612141f, -0.3028333187f, 0.2232052088f, -0.1429949552f, 0.1947166175f, -0.1098024249f, -0.0267428234f, -0.1421078146f, 0.1124932319f, 0.2486912012f, -0.0445794240f, 0.4512206018f, -0.2196789682f, -0.2099221349f, -0.0762269199f, -0.0483742431f, 0.1441039741f, 0.1449835896f, -0.1331986338f, -0.0709863454f, 0.0159140229f, -0.4233030081f, 0.1819831133f, 0.0171734616f, 0.0799293220f, 0.0176802166f, 0.1537078470f, -0.0976629034f, -0.2155123204f, 0.0323548988f, -0.0491888039f, -0.0135621857f, 0.3195664287f, 0.2682654858f, 0.0477310307f, 0.0672689676f, 0.2084489316f, -0.2082424462f, -0.0308026765f, 0.1838988364f, 0.1245436445f, -0.1581163853f, 0.2169855237f, -0.2236972153f, -0.1056888551f, 0.1015511379f, 0.0247960035f, 0.3603650630f, 0.1897359192f, 0.2560501397f, 0.2723506689f, 0.3684241772f, -0.1586179882f, 0.2397025824f, 0.0134288054f, 0.1213695556f, -0.2563514113f, 0.0145273441f, 0.1620571166f, 0.1509139538f, 0.0663855001f, -0.2543187141f, 0.2360413373f, 0.1788832247f, -0.2008985281f, 0.0397946797f, -0.1754185706f, -0.2417637706f, -0.0801701173f, 0.0484639332f, 0.1674166024f, -0.2753971517f, -0.0694246292f, -0.1248854175f, -0.1427170783f, -0.0224297233f, 0.0968123972f, -0.1422146112f, -0.1244659200f, 0.2152730674f, -0.1459392160f, -0.0360569432f, 0.1015090048f, -0.0100779515f, -0.1105753407f, 0.2845478654f, -0.0800609589f, 0.2073285133f, 0.1701419950f, 0.0648673251f, -0.1570293754f, -0.0004893934f, -0.1451120824f, -0.0278937165f, -0.2033949345f, -0.0088811126f, 0.0737941712f, -0.1435891390f, -0.1436448097f, -0.1072941795f, 0.0272748061f, -0.4726068676f, -0.0122164013f, 0.0658892915f, 0.1588215381f, 0.0235881563f, -0.4338133633f, -0.2017753720f, -0.1681742966f, 0.2309144884f, -0.1871748865f, 0.0196464881f, -0.1092832014f, 0.1249244288f, -0.1895104647f, 0.0453419946f, -0.0165346581f, 0.1736972034f, -0.2012097836f, 0.4844490290f, -0.1277738065f, 0.1419720054f, -0.0243731588f, -0.1131461039f, 0.0550243556f, -0.0406448320f, -0.0074069342f, -0.1601597071f, -0.0104910741f, -0.3290918171f, -0.1460617185f, -0.0856126919f, 0.2463175505f, -0.1894108057f, -0.1154457033f, -0.2109828889f, -0.3373132348f, -0.1070184335f, 0.1784877181f, -0.1268415302f, 0.0500682741f, -0.1421127766f, 0.0983733460f, 0.0057050972f, -0.2845962942f, 0.1786763966f, -0.1109003723f, 0.0855332389f, -0.0318412744f, -0.0730480403f, -0.0481406152f, -0.2221115828f, -0.0142979957f, -0.2415293455f, -0.1128303781f, 0.4087781906f, 0.0200449582f, -0.0782198310f, 0.0726416558f, 0.1922015399f, 0.1920636743f, 0.2026353180f, 0.1706694365f, -0.2936558127f, 0.2754466236f, 0.0070441193f, 0.0521211550f, 0.0181433279f, 0.0989175886f, -0.0403594971f, -0.0313871130f, 0.0979245529f, -0.3257004917f, 0.0721067339f, 0.1238126978f, -0.0410420410f, 0.0176227372f, 0.1116099954f, 0.1757348329f, -0.1174542904f, 0.4452070594f, -0.0649369135f, -0.0508884266f, 0.0821844041f, -0.0047644135f, -0.1191586629f, -0.0421299338f, 0.3168005049f, -0.1569596082f, -0.1143921986f, -0.2248792350f, 0.1970758289f, -0.2828663290f, -0.3591296375f, 0.2411005795f, -0.2458721697f, -0.2397542894f, -0.0817810893f, 0.0754311904f, 0.2430360466f, 0.1629151106f, -0.0876664445f, 0.1671684831f, -0.1606459171f, 0.0854069740f, -0.1476065367f, 0.0332145058f, 0.0293541458f, -0.2743854821f, -0.0013138872f, -0.1449807435f, -0.1023378447f, -0.2122933567f, -0.1390703917f, 0.1275098622f, 0.3321982026f, 0.0215348825f, 0.3628978729f, -0.0756325647f, -0.3196082115f, 0.1140485480f, 0.0892097205f, 0.0537475534f, -0.1631045192f, 0.0848623514f, 0.0104534896f, 0.3348221481f, 0.2480997294f, 0.0989022776f, 0.2135997117f, 0.1797116250f, -0.0547214784f, 0.1384342909f, -0.0197633039f, -0.0165944453f, 0.2138418853f, 0.3559373915f, -0.2700750530f, -0.0670943037f, -0.0918628052f, 0.0218045246f, 0.0456608832f, -0.1975311935f, -0.1979939789f, -0.0316613577f, -0.0629460886f, -0.1831018180f, 0.2690486014f, 0.0743092746f, -0.0887867063f, 0.1289578378f, -0.1763413996f, -0.0740701556f, -0.0725112781f, 0.0857560486f, -0.0394541472f, -0.1008149832f, -0.2430627048f, 0.1524311155f, -0.0354592055f, -0.1274614036f, -0.1135673895f, 0.3144439459f, -0.1242961586f, -0.4099673927f, 0.0935058892f, 0.0564496554f, -0.0447663069f, 0.0473871864f, 0.3323654830f, -0.1841103435f, 0.1179829389f, 0.2293049693f, -0.1864640862f, -0.0927209556f, -0.3270870745f, -0.0364462957f, 0.0724157244f, -0.0219031069f, 0.1148386598f, -0.5162635446f, 0.0226832386f, -0.0955343097f, -0.1348313838f, 0.0493547134f, -0.0558960773f, 0.1500732005f, -0.3404572010f, 0.0034496088f, 0.1092295870f, -0.2457465976f, -0.3567510247f, 0.1189021543f, -0.1841692030f, 0.0349855237f, 0.1321544200f, 0.1767850667f, 0.0301778074f, 0.3100782335f, -0.1460992396f, 0.2184385210f, 0.0911038741f, -0.3319820166f, -0.0619243532f, -0.0024442242f, -0.1316833794f, -0.2421063185f, 0.2039638758f, -0.0171384495f, -0.1549267471f, -0.0511444844f, 0.1401210874f, -0.1142782718f, -0.2070375830f, 0.0388752073f, 0.0380153470f, 0.2792376876f, 0.0478688218f, -0.3181031048f, 0.0915340558f, -0.1024816930f, -0.1230797470f, 0.0530193262f, 0.0696945861f, -0.0289613958f, 0.0631805211f, -0.2442950308f, 0.0717679486f, -0.2201999724f, 0.0151470210f, -0.2157893628f, -0.0902763754f, 0.0046006483f, 0.3958916366f, 0.1731261462f, -0.0681291148f, -0.0867108107f, 0.1414694637f, 0.1142482087f, -0.0770493597f, -0.3797939718f, -0.1371239722f, -0.0967289954f, -0.0726319477f, 0.4874756932f, -0.0105621126f, -0.2259045690f, -0.2826630175f, -0.0880070999f, 0.2095734924f, 0.1721988618f, -0.0069120112f, -0.2873939276f, -0.0166068114f, -0.0497731715f, 0.2167760581f, 0.2935259342f, -0.0813081414f, -0.1652000993f, -0.0195096303f, 0.0839927047f, -0.0347781703f, -0.0166509710f, 0.1739489138f, 0.1190863326f, 0.3483491838f, -0.0590418987f, -0.0240626242f, -0.0211007465f, -0.1043847427f, 0.2251674235f, -0.0783770159f, 0.1733252406f, -0.1343328655f, 0.2168095112f, 0.2348199487f, 0.0980826467f, -0.1448244900f, -0.2767327428f, 0.1235235855f, 0.2862081230f, 0.0220536459f, -0.0144522488f, -0.0120198177f, -0.1358818561f, -0.0660540685f, 0.0539035313f, 0.4902771115f, -0.0441048741f, -0.0242194273f, 0.1981032342f, 0.0984897316f, -0.0176556036f, 0.3367846608f, -0.1060097441f, -0.0318836197f, -0.0806301981f, -0.2339825332f, -0.0901606902f, -0.0568724088f, -0.1237355247f, -0.3797976673f, 0.0321332105f, 0.0326991528f, 0.0616560392f, 0.0228332300f, 0.1254638135f, -0.3048962951f, -0.0429756232f, -0.0365823098f, -0.0342442803f, -0.0125871627f, -0.1740172058f, 0.1705293804f, 0.2019771636f, 0.0001509851f, 0.2084528506f, -0.0556170791f, -0.1883108765f, -0.2503474355f, -0.0629209876f, -0.3468751013f, -0.1045400724f, -0.2297396958f, -0.3272258043f, -0.0548495799f, -0.1376949549f, -0.0902738497f, -0.2290135622f, -0.3055688441f, 0.0087842988f, 0.0258682370f, 0.0139754284f, 0.1457109749f, -0.0885590687f, 0.0409916788f, -0.0525564179f, -0.0974283889f, 0.1156336889f, -0.1638196111f, 0.1695203185f, 0.0135739194f, -0.1242893338f, 0.0521415472f, 0.2194212675f, -0.1670892984f, -0.0521367043f, 0.1464233398f, 0.4208797216f, -0.0412063412f, 0.4755050242f, 0.1681005359f, -0.0785383135f, -0.1916024983f, -0.0661108941f, -0.0887306705f, -0.1682752371f, 0.0778851435f, -0.0722678080f, 0.0429113917f, 0.1064115539f, -0.1544294208f, 0.2728303373f, -0.1692178845f, -0.1399094164f, -0.0957084149f, 0.4003144801f, 0.0003224597f, -0.1206487641f, 0.0484840050f, -0.2151468098f, -0.1054352969f, -0.0898265019f, -0.0823159069f, -0.3247229159f, -0.1150324047f, -0.2559398413f, -0.1563273817f, -0.1519912183f, -0.0926768482f, 0.0224253833f, 0.1358224452f, 0.0976877660f, -0.1631303728f, -0.2813664973f, 0.1363398731f, -0.0977661908f, -0.2716738284f, 0.2496310472f, 0.2072577626f, -0.0651549250f, 0.2642901838f, -0.3528580368f, 0.0672521815f, -0.0622005910f, -0.2163736969f, 0.0465140417f, -0.0629724711f, 0.3810071647f, 0.0521216057f, 0.1425820738f, -0.1000679210f, 0.2470425963f, 0.1015720516f, -0.0584066659f, 0.1036388502f, -0.0463563129f, 0.0399238579f, 0.0553432964f, 0.3430756927f, -0.2473418266f, -0.1247725263f, 0.0811517239f, 0.0489007719f, 0.1337278783f, -0.1977437884f, 0.1706485599f, -0.0615182258f, -0.3554047644f, -0.0209105350f, -0.1748309433f, 0.0095010782f, -0.1422281414f, 0.0940203965f, 0.0384770930f, 0.3516366780f, -0.1918720305f, -0.0379244648f, 0.1854379773f, 0.0582916290f, -0.1232932284f, -0.2688474953f, -0.2428441048f, 0.0219338313f, 0.3199993074f, -0.0986141786f, 0.1267458647f, 0.1731623560f, 0.1636804938f, 0.3409828544f, -0.0665547699f, -0.1529616117f, -0.2411515564f, -0.1069189459f, 0.0573643818f, -0.0243838243f, -0.0722598210f, -0.1921371073f, -0.0752507672f, -0.1047736332f, -0.0007543530f, -0.1220847443f, 0.0729611963f, 0.0765064433f, -0.1225745827f, 0.2604392171f, 0.0138469357f, -0.4008530378f, -0.1709724218f, 0.2042035460f, 0.2404500097f, 0.1166195720f, -0.0264410228f, 0.0149637042f, -0.1177684963f, 0.1553223729f, 0.0602659434f, 0.0056467620f, 0.0510977209f, 0.1023501381f, -0.0843564272f, -0.1368670762f, -0.1647042334f, 0.1195982769f, 0.0119114229f, -0.0593981855f, -0.2708986402f, -0.3019543886f, 0.2396660745f, 0.1623529494f, 0.0106320828f, 0.0089873942f, 0.0670253858f, 0.0258973595f, -0.0739744306f, -0.1222806945f, 0.0123027042f, 0.3612811863f, -0.1066364348f, -0.0770997852f, -0.0948049650f, 0.1495930701f, -0.3261664212f, 0.1751602441f, 0.0249126609f, 0.1352300197f, -0.0646637157f, 0.2025242001f, -0.0625762567f, -0.3826475143f, -0.0705233365f, 0.0011877225f, 0.1829776615f, 0.1229662821f, -0.1144826785f, -0.0233288109f, 0.0534079671f, 0.1411145180f, -0.4826639593f, -0.0816762820f, -0.2462753952f, 0.3569343388f, -0.0285726804f, -0.1590033025f, 0.0583756603f, -0.2530836463f, 0.0213949531f, -0.3962880075f, 0.2605535090f, 0.1176678464f, -0.2195086181f, 0.1573034227f, -0.1993695498f, 0.1651193053f, -0.0234742351f, 0.0036416797f, 0.0264996849f, -0.1112097278f, -0.2219971567f, -0.1103401780f, 0.2247598469f, 0.2004469335f, 0.1108318418f, 0.3023014665f, -0.3637938201f, -0.0059702331f, -0.1336822063f, 0.2357882708f, -0.1848577857f, -0.1199854389f, -0.0588895269f, -0.0122862188f, -0.1488666087f, 0.0455462709f, -0.0885511115f, -0.1842716932f, 0.1514691263f, 0.2165963650f, -0.0970210060f, -0.2779229283f, -0.1133489013f, -0.0316935591f, -0.0235700402f, 0.1146461591f, 0.0297359303f, 0.0914597213f, 0.2787309587f, -0.0083341859f, 0.2728158832f, 0.4312207997f, 0.1625072658f, -0.1454095393f, -0.1447372288f, 0.0658713877f, -0.2378558069f, -0.0623476058f, -0.0843461379f, -0.2492221594f, 0.2084551454f, 0.2645019293f, -0.1094482616f, 0.1527975947f, 0.0989782438f, 0.0824746937f, -0.0109616462f, 0.0520432442f, 0.2572904527f, 0.1092722416f, 0.1915892810f, -0.0575106591f, 0.2445178777f, 0.1640621722f, 0.1365099400f, 0.1941414773f, 0.2637352049f, -0.0156305004f, 0.3285180330f, 0.0670593828f, -0.1666603833f, 0.2018468231f, -0.1121462956f, 0.0977725089f, 0.3642900288f, 0.0157800969f, 0.0708181188f, 0.1899261922f, -0.1880195886f, -0.3655990064f, -0.1306905895f, -0.3125478327f, -0.1672636867f, 0.0524270423f, -0.1755724549f, 0.0693852082f, 0.3632614315f, -0.0136623234f, 0.1104201302f, -0.2005679309f, -0.0706587732f, -0.2569124997f, -0.1021975428f, 0.0023337589f, -0.0061190808f, -0.0147865359f, 0.0154828094f, 0.2413505912f, 0.0525362082f, 0.0375084653f, -0.2257462591f, 0.0193604305f, -0.1027614549f, -0.3268298507f, 0.0902107283f, 0.0808878914f, 0.0367252752f, -0.0300442483f, -0.0582866259f, -0.1278888136f, 0.1725080460f, -0.1301961839f, -0.0424476452f, -0.0958108455f, 0.0441477373f, -0.1756225824f, -0.3718399704f, 0.1818587035f, 0.2975328565f, 0.0185482018f, -0.3223880827f, 0.3617836237f, 0.1769915819f, 0.0874151215f, -0.0323770642f, 0.0128528578f, -0.0748959929f, 0.0031385229f, 0.1017005071f, -0.0416023731f, 0.1244973391f, 0.1181125790f, 0.0773121193f, -0.0212906376f, 0.2235585898f, 0.0945869014f, -0.2571657896f, -0.0237676278f, 0.2404191345f, -0.0524764135f, 0.1455093473f, -0.1573607177f, -0.1538728476f, -0.0884857327f, -0.1290457249f, 0.3384284079f, 0.0582314916f, -0.1747672409f, 0.0738384128f, -0.1364890039f, 0.1499455869f, 0.1460617781f, -0.1544510275f, -0.3018558025f, 0.3962045610f, -0.0928786844f, -0.0383188874f, 0.3891749084f, 0.1953118891f, -0.0821473897f, 0.2487120032f, -0.0677611008f, -0.4844809771f, 0.1891236901f, 0.1535570472f, -0.0011840116f, -0.0895433277f, -0.1481423080f, 0.0263710245f, -0.2685455978f, 0.0357974544f, 0.2111054361f, -0.2143357694f, -0.1557810605f, -0.1245410889f, -0.0224025231f, 0.0652509481f, 0.0076134540f, -0.0986296982f, -0.0971909389f, 0.2462362945f, 0.0062603103f, 0.0325634368f, -0.1200152859f, -0.0355615206f, -0.1278330833f, 0.2078879774f, 0.1851977408f, 0.0026584042f, -0.0552621186f, 0.1795891076f, -0.1864273399f};
const float b2[] = {0.0204359218f, -0.0049334210f, -0.0456555299f, -0.0792198554f, -0.0527403504f, 0.0756084397f, 0.0589065328f, -0.0389992818f, -0.0204750728f, -0.0278284121f, 0.0341013782f, -0.0474598892f, 0.0354522355f, -0.0450931601f, 0.0452921465f, 0.0216238778f, -0.0098746102f, -0.0148550877f, -0.0519313738f, -0.0502920821f, -0.0292702485f, -0.0337498747f, 0.0039353520f, 0.0196075793f, 0.0115217781f, -0.0133675728f, 0.0285198074f, 0.0001290631f, -0.0031286322f, 0.0246111043f, 0.0080880960f, -0.0242224336f, -0.0016531651f, 0.0193363186f, -0.0299110860f, 0.0452538691f, -0.0370215923f, -0.0245586503f, -0.0370601378f, -0.0008319897f, -0.0208126679f, -0.0437214933f, 0.0533220619f, -0.0203764997f, 0.0043377941f, -0.0254287068f, -0.0439783111f, -0.0068729161f, 0.0086668422f, 0.0376427919f, -0.0266252533f, 0.0182709638f, 0.0075467401f, -0.0031364213f, 0.0333476923f, 0.0019713358f, 0.0160564445f, 0.0031611095f, -0.0268933997f, -0.0043486743f, 0.0886062533f, -0.0188367888f, 0.0190671366f, 0.0198368132f};
const float W3[] = {0.0225656498f, -0.0041279262f, 0.0130412616f, -0.0064708204f, 0.0052740509f, 0.0148013057f, 0.0001649991f, 0.0019369924f, -0.0036715511f, 0.0206704754f, -0.0003586529f, -0.0170992725f, 0.0478666387f, 0.0080127288f, 0.0243929327f, -0.0312640667f, -0.0029621250f, 0.0039231563f, 0.0065521505f, 0.0095238993f, -0.0052133901f, 0.0024218434f, -0.0066281082f, 0.0064027575f, 0.0039874520f, -0.0429369621f, -0.0077120801f, -0.0084939152f, -0.0040624226f, -0.0338178463f, 0.0044217957f, 0.0051986268f, 0.0114085451f, -0.0890831500f, -0.0107359039f, 0.0048094750f, 0.0928824916f, 0.0071886270f, 0.0009412095f, 0.0116765583f, 0.0065361876f, -0.0479410626f, 0.0044894763f, -0.0019118352f, 0.0073717488f, 0.0078634620f, 0.0038049142f, 0.0068187430f, 0.0008425266f, -0.0014381991f, 0.0072834734f, -0.0074973968f, -0.0051422664f, 0.0022727377f, -0.0042082118f, 0.0080763716f, 0.0013800947f, -0.0227862280f, 0.0010819446f, -0.0363131203f, -0.0823088735f, -0.0034060325f, 0.0193123203f, -0.0024648563f, 0.0251992606f, -0.0063149156f, 0.0032477216f, -0.0497805215f, 0.0023530347f, 0.0234274957f, 0.0003812825f, -0.0042573209f, 0.0033155915f, 0.0401559174f, -0.0063950117f, -0.0454189405f, 0.0121170944f, 0.0041881506f, 0.0519406199f, -0.0244677812f, -0.0159145631f, -0.0048574707f, 0.0001782668f, 0.0070204744f, 0.0031869619f, -0.0007507277f, -0.0005299253f, 0.0017576485f, 0.0119836004f, -0.0265229307f, 0.0063358918f, -0.0018415184f, -0.0069002421f, -0.0534384325f, 0.0016155130f, 0.0036931466f, 0.0063649151f, -0.0911935493f, -0.0017143679f, -0.0011241933f, 0.1196610257f, 0.0033115577f, 0.0000266594f, 0.0028167993f, -0.0050648409f, -0.0291197058f, -0.0019756781f, -0.0033458422f, 0.0116229868f, 0.0064179227f, 0.0026096266f, -0.0021786478f, 0.0019841006f, -0.0023063968f, 0.0047546253f, -0.0007495677f, 0.0028462438f, 0.0090573523f, -0.0043641250f, 0.0034157746f, -0.0019491342f, 0.0021806324f, -0.0092362063f, -0.0495867543f, -0.0280722231f, 0.0001981647f, 0.0060153985f, -0.0041185995f};
const float b3[] = {0.0352796838f, 0.0145475864f};

#endif