#ifndef PARAMETERS_H
#define PARAMETERS_H

const float W1[] = {-0.1504626870f, -0.1427783966f, 0.0689602867f, 0.0094690295f, -0.2689362764f, -0.3231539130f, 0.0242869724f, -0.0310349390f, 0.2423912436f, -0.1486365646f, 0.0329944454f, -0.1346457601f, 0.1313571632f, -0.0750128850f, -0.0154816750f, -0.1700529158f, -0.2320175469f, -0.3042229116f, -0.0881732032f, 0.0110819908f, 0.3127537072f, -0.0232731849f, -0.2106602490f, 0.1403605044f, 0.2953101099f, -0.1521519870f, -0.1131778508f, -0.0876333639f, -0.2300672978f, 0.1487013996f, -0.0530090369f, 0.0465137810f, -0.2359014601f, 0.2076941729f, 0.1316886842f, 0.4604660571f, -0.3371350169f, -0.0092200590f, 0.1482873261f, 0.2915050387f, 0.1538896263f, 0.0167230014f, -0.1029735208f, -0.0176742189f, 0.0789986476f, -0.3144984245f, -0.0815039948f, -0.0617394596f, 0.2073530257f, -0.3141669333f, -0.0938186944f, -0.1334340870f, -0.2526595891f, 0.0696985051f, -0.1953961849f, 0.3882412314f, -0.1017907038f, 0.1420709491f, -0.3970462978f, 0.2092026472f, -0.0494148470f, -0.1618540287f, -0.0623883158f, 0.0504873805f, -0.0391921960f, -0.4517695606f, -0.0044513214f, 0.3365648985f, 0.1951706409f, -0.0182415582f, 0.1906564832f, 0.1502081156f, 0.0591908358f, 0.1193329766f, -0.1964377314f, -0.0483469293f, -0.1553191692f, 0.1138471067f, -0.1247024611f, 0.3575936258f, 0.4752693772f, 0.0267289449f, 0.2327060550f, 0.1946591139f, -0.0786877871f, -0.3856442571f, 0.1452644914f, -0.3339993954f, -0.0195128769f, -0.4483248591f, -0.6140124798f, -0.1013649330f, 0.3623858690f, 0.0166878644f, 0.1300761998f, 0.0181217678f, 0.1517068595f, 0.0250771642f, -0.2134013772f, 0.1647450477f, 0.2691342235f, -0.1243870184f, -0.0478760898f, 0.1052312106f, -0.0916185230f, -0.2052411288f, -0.0078658583f, 0.0015559336f, 0.0328622498f, 0.1107478738f, 0.0001862273f, 0.2845171094f, -0.1101153046f, -0.1157372743f, 0.3361554742f, 0.4910597801f, 0.0739702433f, -0.0523553528f, -0.0610298179f, -0.0639804602f, -0.5390523672f, -0.1038312092f, 0.0944395214f, -0.0715642348f, 0.2085668445f, 0.2657405436f, 0.1872598678f, 0.3481382728f, -0.1503074318f, -0.1750581712f, 0.1583178937f, 0.1124846563f, -0.0187121350f, 0.0834329426f, -0.0542853735f, 0.1889833063f, -0.3720971048f, -0.0568911880f, 0.0247349273f, 0.0811229423f, 0.1733994484f, -0.3073940575f, -0.1231724471f, 0.0799883977f, -0.0694640130f, -0.3777539134f, 0.2163805813f, 0.2859329283f, -0.0777939484f, 0.1093288288f, -0.5175488591f, -0.0334440395f, 0.0938636139f, 0.0285092611f, -0.1771513820f, -0.1930476427f, -0.2192532718f, -0.2269318402f, 0.2312968820f, -0.1287761480f, -0.2226595730f, 0.3095800281f, -0.2634370029f, -0.2688169181f, -0.2008083165f, 0.0882585347f, -0.0530479252f, -0.1014024243f, 0.0371033289f, 0.2097415775f, 0.2658416331f, 0.2892641723f, 0.0307677425f, 0.0681756735f, 0.0896582380f, -0.0781226531f, -0.1817830801f, 0.3082650304f, -0.2150412351f, -0.0803352296f, -0.5539366603f, -0.1401408166f, -0.1770172268f, 0.1683108062f, -0.0662209094f, -0.3835283816f, 0.1907009929f, 0.0567331091f, 0.0364174359f, 0.2836470008f, -0.2517438531f, -0.0609064139f, -0.0582286194f, -0.3082452416f, 0.0517971441f, -0.8226661086f, -0.4639007151f, 0.0305859447f, -0.1444124430f, -0.0226491019f, -0.2477278858f, -0.1621711552f, -0.0144862430f, -0.1823143512f, 0.1645762622f, -0.4023534060f, 0.0603602566f, 0.1901702881f, -0.0961743593f, 0.0317746736f, 0.2703863084f, -0.1320417076f, 0.1521178186f, 0.2529918551f, 0.1919829845f, -0.1097325832f, 0.2048658878f, 0.0254739020f, 0.0065461244f, -0.1763097793f, 0.0418827236f, -0.1813984811f, 0.0420287140f, -0.0260971803f, 0.2560442090f, 0.1168868616f, -0.0537696555f, 0.0789659321f, -0.1549156308f, -0.0108298818f, 0.2020721287f, -0.2898998857f, -0.0284024142f, 0.0244645961f, -0.1862312853f, 0.4214559495f, 0.4196094573f, 0.2137977034f, -0.0434641503f, -0.0419747718f, -0.3564056158f, -0.2265615165f, -0.1601650417f, -0.1856037378f, -0.0300210342f, 0.1425074786f, -0.0948241279f, -0.1934739053f, 0.1450857073f, -0.0519908331f, 0.1532808393f, 0.1498245895f, -0.2207108736f, 0.2006030828f, 0.0213999618f, -0.6947601438f, -0.1285533011f, 0.0162183903f, -0.0058567082f, 0.1578735858f, 0.3481787443f, -0.0944710374f, 0.1569029242f, -0.1164274141f, -0.0576200373f, -0.4107854664f, -0.0432495587f, -0.2095574886f, 0.0998425931f, 0.1210622787f, -0.0722561479f, -0.1424819529f, 0.1715650856f, -0.2138902694f, -0.3412416875f, 0.0721431077f, 0.0842535645f, -0.0750942752f, -0.0377435274f, -0.0179119818f, 0.0735548586f, 0.2305786014f, 0.0583694242f, 0.4925900698f, 0.0060921721f, 0.0519881546f, 0.1170871630f, 0.1689356565f, -0.1403293908f, -0.2063926458f, 0.4175226688f, -0.1675767601f, -0.1800124496f, -0.3092590868f, 0.0086673750f, -0.2259440273f, 0.1993390769f, 0.0327826589f, -0.0302408095f, -0.1608488411f, -0.3987569511f, 0.0012500039f, 0.0379415825f, 0.0636112764f, -0.0568190701f, 0.1478019208f, -0.0674763992f, 0.0292874053f, 0.3229886293f, 0.2424852103f, -0.1320921332f, 0.0012899151f, 0.0607239716f, -0.0812908560f, -0.1393653005f, -0.3717841208f, 0.1002322882f, -0.1903870106f, 0.1770677119f, 0.3196596205f};
const float b1[] = {-0.0070521468f, 0.0066145048f, -0.0039190133f, -0.0061536557f, -0.0050859214f, 0.0029002067f, -0.0066888947f, -0.0185058508f, -0.0116213793f, 0.0008115615f, -0.0162990596f, -0.0173987299f, 0.0105411103f, -0.0102475332f, 0.0003488836f, 0.0024681604f, -0.0189347286f, 0.0280106086f, 0.0227126908f, -0.0072036781f, -0.0059126662f, 0.0012867138f, -0.0031525150f, 0.0026802809f, -0.0078906482f, 0.0074170721f, -0.0038299754f, -0.0124811251f, -0.0058506932f, 0.0202566516f, 0.0028057725f, -0.0029006151f, 0.0052194623f, 0.0036548283f, 0.0087263379f, -0.0049362634f, -0.0069954554f, 0.0121786362f, 0.0138881952f, -0.0210188869f, 0.0020063932f, -0.0031106642f, -0.0036796199f, -0.0001974106f, -0.0094022742f, 0.0009064943f, 0.0004487988f, 0.0097916387f, 0.0088146245f, -0.0044199522f, -0.0086224740f, -0.0095080705f, 0.0006295117f, 0.0015093145f, -0.0050043566f, 0.0071723382f, 0.0121236406f, 0.0113426261f, -0.0209356565f, -0.0021434317f, -0.0045008976f, -0.0106854504f, -0.0074563869f, -0.0016424791f};
const float W2[] = {-0.1009593979f, 0.5170415044f, -0.0743016228f, 0.2958189845f, 0.2376353890f, -0.4044286609f, -0.0255392529f, -0.1883662194f, -0.1395349950f, -0.0870033801f, -0.3944680095f, 0.3098990321f, 0.0442280285f, 0.1639111936f, 0.1195278838f, 0.0590400733f, -0.2202692181f, -0.1762956828f, 0.0272309054f, -0.0254407283f, 0.1177227423f, 0.0254472494f, -0.0240957830f, -0.0645694435f, -0.2420121878f, 0.1516776830f, -0.0269613843f, -0.0190238766f, -0.2217280418f, -0.2042602152f, -0.1405149400f, -0.0165148508f, -0.0184715874f, 0.0680573732f, 0.0148854703f, -0.1729211211f, -0.0057215835f, -0.0462399311f, 0.1487281024f, -0.3706563413f, 0.0972599909f, 0.1470484883f, -0.0903873593f, -0.1313588172f, -0.1138214394f, -0.0770642906f, -0.1757543534f, 0.1027841493f, -0.1124423966f, 0.1970595568f, 0.0037360229f, -0.2223916054f, -0.4024513364f, -0.1847562194f, -0.0228381902f, -0.1127795577f, -0.1618634313f, 0.3432085216f, -0.1405199170f, 0.1641910970f, 0.1848507524f, -0.0827056915f, 0.0586468279f, 0.0536928549f, -0.0238982122f, -0.1030026078f, -0.2888872921f, 0.0998383388f, 0.1600781083f, -0.0520120859f, -0.1488437355f, 0.1157447100f, 0.1139967814f, 0.0975323021f, 0.2527751625f, 0.1441945881f, 0.3060771227f, 0.0514686108f, 0.0483384132f, -0.3738668859f, 0.0737804100f, 0.2349073887f, -0.0116166100f, 0.0354226790f, -0.2392091006f, -0.1777212918f, -0.0682311952f, 0.0816652849f, 0.1022738144f, 0.2323900163f, -0.0582033135f, -0.2363700867f, 0.0536580868f, -0.2155866176f, 0.1198172197f, 0.1565144062f, 0.3633934855f, -0.0898767635f, -0.0555927791f, 0.0153282778f, 0.0798871666f, 0.0976260528f, 0.0412419550f, 0.0941520408f, -0.0418597236f, -0.1201525405f, -0.2182805687f, 0.1618635207f, 0.1167295128f, 0.0861551240f, 0.0647169948f, 0.4450043738f, -0.4811176658f, 0.2023696452f, 0.1379327476f, -0.0831774995f, -0.1759291142f, -0.1745936871f, -0.1638179719f, -0.1200374290f, 0.0048508770f, -0.2581337392f, 0.1838573068f, 0.1289650649f, 0.0912076235f, -0.1785118729f, -0.1445368081f, -0.0653764233f, 0.0321165249f, 0.1414349824f, 0.1474934518f, -0.0989665464f, 0.0896029398f, -0.5663412213f, -0.0376636609f, 0.0225753635f, 0.2598400712f, 0.1238693967f, -0.0242988411f, -0.1924511194f, 0.2267498523f, -0.1814493239f, 0.1119171306f, 0.1575271934f, 0.1901745647f, 0.1100060716f, -0.0412773155f, 0.1262902915f, 0.2388456166f, -0.0035983562f, 0.1111707836f, 0.1944455057f, 0.1554209590f, 0.3347272873f, 0.1944155991f, 0.0177092459f, 0.2884681523f, 0.0364570506f, -0.0539155714f, 0.0432418287f, 0.1262046844f, 0.1266697794f, 0.1145606935f, 0.1171650290f, -0.1041273922f, -0.2627621591f, -0.0729274601f, 0.1631494015f, 0.0465000644f, -0.1861605495f, -0.1210440397f, -0.2705803514f, -0.0699532703f, -0.0045196479f, -0.0884322450f, 0.2715437412f, 0.1624712944f, 0.0327184722f, -0.3753098249f, -0.2522513270f, 0.0786616281f, 0.0560882874f, 0.4866183102f, 0.0366702750f, 0.0946025401f, 0.0320137516f, 0.1704255193f, -0.1697225571f, -0.1546728164f, 0.0031587533f, 0.0400338620f, -0.2518779635f, 0.0161198527f, 0.0857830495f, -0.0596155673f, 0.0095832339f, -0.1647277176f, 0.1676443368f, -0.0308020934f, 0.2378385961f, 0.1399453282f, 0.4768219292f, -0.0146824615f, -0.0182076674f, -0.1492244005f, 0.0566084385f, -0.1883898675f, -0.2328448594f, -0.2014231980f, -0.0468707681f, -0.0507222079f, -0.0198997203f, 0.2537854314f, 0.1641820222f, 0.1806021929f, -0.1189983115f, -0.3082292974f, 0.0137516763f, 0.1159476042f, 0.1920985729f, 0.2509712279f, -0.1898778826f, -0.1949088126f, -0.1388921738f, 0.0867596269f, 0.2684265375f, 0.0325268768f, -0.0118558779f, 0.1799514443f, -0.1798945963f, -0.1395315826f, 0.1644904763f, 0.0639068857f, 0.0263596959f, 0.1194543466f, 0.1024407670f, -0.2076185793f, -0.2307728231f, 0.0249048490f, 0.3044274449f, -0.2651528418f, -0.0368413925f, -0.2163504362f, 0.1316923201f, 0.1536000520f, -0.0020247435f, -0.0191061515f, -0.0622422025f, -0.1957023144f, -0.1064961478f, -0.2520293295f, 0.5047320127f, -0.0322708748f, 0.1962548941f, 0.1423227042f, -0.0198242646f, 0.0839300379f, 0.0878615379f, 0.0873968452f, -0.1552535892f, 0.0522480458f, 0.0697080269f, -0.2664741576f, -0.2011462301f, -0.0294004157f, 0.0294563230f, 0.4153297842f, -0.0487532653f, -0.3264695406f, 0.4073003829f, -0.2351408750f, 0.0246040132f, -0.2149264216f, -0.0289579649f, -0.3361279666f, 0.2433413118f, 0.1895744503f, -0.1451188028f, -0.0475295596f, 0.2995688617f, -0.1697781086f, -0.0707307681f, -0.2929887772f, 0.0663320050f, 0.1626621336f, 0.0774971843f, 0.0900408253f, 0.2327873260f, 0.0280653108f, 0.0756115019f, 0.1034991592f, 0.3345986009f, 0.1647667587f, 0.1418758780f, 0.2242494673f, -0.0276048370f, 0.0073966742f, 0.0188760590f, 0.1605415195f, -0.1750446856f, -0.1531189829f, 0.2473051250f, -0.1796327531f, -0.0969412774f, -0.0514757521f, 0.0650966242f, -0.1038174480f, -0.3149895668f, -0.1273051053f, -0.2311568856f, -0.0101008154f, -0.2803750634f, 0.1640948653f, -0.0306954198f, -0.0596002452f, -0.0740988329f, -0.1905333549f, -0.0325320102f, -0.0416254476f, -0.0088296244f, -0.1125275195f, 0.2118127048f, 0.1414775252f, -0.0000782325f, 0.2412976623f, 0.1040956527f, 0.1535420716f, 0.1119724512f, 0.1260341257f, 0.2130633593f, 0.0460145399f, -0.2519541085f, 0.1732297838f, 0.0887536928f, -0.1134885997f, 0.0357309543f, -0.1999371201f, -0.0799527317f, -0.1341619194f, 0.1206901819f, -0.0622640140f, 0.0278291963f, 0.2748967111f, 0.1631743759f, -0.1405501962f, 0.0607379340f, -0.1235053316f, -0.2366079986f, -0.2611659467f, 0.0928326249f, 0.0765335783f, 0.3142379224f, 0.3324300051f, 0.0617920645f, 0.2746792436f, 0.2412054837f, 0.0261112656f, 0.0911877155f, -0.0014145263f, 0.0269329287f, -0.1098826900f, 0.1376219243f, -0.0884786919f, -0.0982840657f, 0.1027635708f, -0.0655677766f, 0.2609882355f, -0.1013722122f, 0.2384883761f, 0.3634986281f, 0.1247422174f, 0.2199172229f, 0.2580821216f, 0.3838703632f, -0.0940439478f, 0.3631330729f, -0.1453798413f, 0.2293221354f, -0.1279086769f, 0.1609756500f, 0.1257682741f, -0.1549892128f, -0.1193729490f, 0.0441102348f, -0.1150529608f, -0.0017018908f, 0.0067840260f, 0.5425668359f, -0.2845810950f, 0.0132223200f, 0.1105222106f, 0.1026187986f, -0.1335946470f, 0.1391310245f, 0.2264316529f, 0.0858262032f, -0.2435346693f, 0.0094818706f, 0.0685949773f, -0.1125715002f, 0.2501904368f, -0.2848508954f, -0.1582200974f, -0.2967212200f, -0.0168285388f, 0.1733312011f, -0.1524740756f, 0.0121586109f, 0.1003613845f, 0.1226395890f, -0.0095058614f, -0.2044022083f, -0.0783760250f, 0.1211007535f, 0.0019537655f, 0.2791301310f, 0.0422756672f, 0.0449663773f, 0.0401617773f, 0.0532692671f, 0.0827582851f, 0.1634021401f, -0.0019315907f, 0.1843959540f, -0.0876615122f, 0.1082805768f, 0.2747918665f, -0.3254429102f, 0.0875794068f, -0.3073585331f, -0.2284656912f, 0.0932859257f, -0.0026354154f, -0.1212411150f, 0.3118536472f, -0.0583619438f, -0.1998893917f, 0.1035821736f, 0.2441084236f, 0.1998627633f, 0.2199153751f, -0.0091607468f, 0.0135107376f, 0.0604074895f, 0.1230658293f, 0.0679019541f, 0.0312024150f, -0.3888385594f, -0.2016817778f, -0.1670887321f, -0.1457477361f, -0.0828792229f, -0.0399136767f, 0.1400572062f, 0.2374737263f, -0.0566410311f, -0.0615820102f, -0.0733271688f, -0.0082655651f, 0.0789888874f, -0.4006313682f, -0.0431524776f, -0.1279073507f, -0.0754598156f, 0.1374735683f, 0.0836534053f, -0.1359732747f, -0.2115471363f, 0.2011308223f, 0.0976522714f, 0.5026850700f, 0.0889521763f, 0.0797688141f, 0.1116986498f, -0.0979790613f, -0.1017782092f, 0.0486003533f, -0.1036166176f, -0.3569293022f, -0.1270185411f, 0.0628890172f, -0.1877150089f, -0.3596757650f, 0.0724945590f, -0.1778140366f, 0.0108065065f, 0.0846625865f, 0.1043791175f, 0.2057874948f, 0.1617812365f, 0.0218453426f, -0.0145559832f, 0.4032984972f, 0.2697939873f, 0.0351735204f, -0.0078942850f, 0.1023378521f, 0.4119736552f, -0.0644683689f, 0.0981629416f, -0.1319008172f, -0.2148415893f, 0.3086160123f, -0.0108603304f, -0.0425308123f, 0.1225162148f, 0.1409925669f, 0.1537252963f, -0.1753826290f, -0.0598989055f, 0.1331332326f, 0.0899681449f, 0.1682609618f, 0.1731646359f, -0.0098331394f, -0.0561263561f, 0.1167281047f, -0.0956048891f, 0.3356622159f, 0.0445947945f, 0.2776098549f, -0.2367547154f, 0.1827832758f, -0.2805592716f, -0.0452822857f, -0.1633469313f, 0.2295848727f, -0.2435113341f, 0.3118291497f, -0.1544934660f, -0.1056461930f, -0.2580864727f, -0.2183316350f, 0.1001336277f, -0.0084543694f, 0.1902773976f, -0.1854587048f, 0.0701892599f, -0.0947952718f, -0.2255016416f, 0.0522568040f, 0.1331490278f, -0.0596176498f, 0.1526905298f, 0.1240751892f, 0.0617862903f, -0.2495265901f, 0.0948455632f, 0.1333251297f, -0.0291318279f, 0.0966606066f, 0.0452669598f, 0.0903839022f, 0.0690586194f, -0.0945937037f, 0.0031246380f, -0.1426069885f, 0.2543602586f, 0.1171569824f, -0.0200559497f, -0.0900690705f, -0.4174742699f, -0.1075582728f, 0.0240192581f, 0.0519514531f, -0.1138237864f, -0.2059399933f, -0.2575900555f, -0.1231089160f, 0.4138230085f, -0.1571630239f, 0.0089039868f, 0.1578627974f, 0.1926817000f, 0.2085590810f, 0.2250157297f, -0.3373711407f, 0.0886905417f, 0.3214018047f, 0.0679423213f, 0.2899554968f, 0.0092536304f, 0.0355515778f, -0.3654290140f, 0.3458309174f, 0.0408652462f, 0.1529041976f, 0.1114305109f, 0.1795847565f, -0.3149700165f, -0.2133753300f, 0.2733632028f, -0.1878446937f, -0.2536864579f, -0.0354606099f, -0.2012079209f, 0.0335152932f, 0.1117604673f, 0.2028660476f, -0.3060622513f, 0.0760214329f, -0.0455484986f, -0.0369190797f, -0.1317936629f, 0.2123852372f, 0.1536480635f, 0.0408446230f, 0.3157917559f, -0.1242072806f, -0.1109729484f, -0.3257134855f, -0.1912259459f, -0.0623394661f, 0.1287383735f, -0.1396122575f, 0.0878679231f, 0.1984849274f, 0.0313204490f, 0.1769639403f, 0.0342622101f, -0.0706538633f, -0.0124816271f, -0.1043221876f, -0.0444666483f, -0.2402796447f, 0.0211182237f, -0.2050619572f, -0.0067069870f, 0.0715846568f, 0.1306276768f, -0.1662190109f, -0.0747338384f, 0.2370407581f, -0.2709821463f, 0.0916862637f, 0.0890234411f, 0.0769635141f, 0.0814313442f, -0.2678753436f, 0.0825024247f, -0.1665461957f, -0.2218173146f, -0.2348968983f, 0.2179869115f, 0.2425868809f, -0.0785468295f, 0.5641171932f, -0.1710380912f, 0.1910176277f, -0.0238968674f, -0.2061413676f, -0.0222772919f, -0.1446035653f, 0.1742312312f, -0.1444634646f, -0.1536104679f, 0.1291613877f, 0.0804592371f, -0.0133883702f, -0.1260542870f, -0.0361842662f, -0.1617842466f, 0.1197836399f, 0.0469623543f, -0.1751973480f, 0.0850332156f, 0.0517027453f, 0.3835907876f, -0.1687123328f, -0.0438478068f, 0.3601429164f, 0.0767109171f, 0.1438648403f, -0.1194036081f, 0.4009874761f, -0.0053630755f, -0.0878539830f, 0.0397536308f, 0.0826711208f, -0.0650460199f, 0.0934424847f, 0.0589668117f, 0.1192242056f, 0.0199133158f, -0.2136280835f, -0.2160536200f, -0.0266654771f, 0.0409353077f, 0.1127163097f, -0.1304397583f, -0.1626655161f, 0.1802709401f, 0.0694390759f, -0.3894611895f, 0.0677535757f, -0.0383144543f, 0.0535847843f, -0.1249666587f, 0.0376964584f, -0.1472791135f, -0.1141369790f, 0.1707303077f, -0.3442584276f, 0.0330767743f, -0.0467811599f, 0.0624529161f, -0.0728889629f, -0.0364031456f, -0.2217852920f, 0.0020911058f, 0.1408012807f, -0.1355379969f, -0.1906303912f, 0.1240864471f, -0.1193347052f, 0.1550827920f, 0.3526010513f, -0.0493726172f, -0.1228117719f, 0.3294598162f, -0.3116753995f, 0.1555013359f, -0.1545624137f, -0.1935358346f, -0.0667380989f, 0.0187120233f, -0.1814172268f, 0.3833502233f, -0.2305640280f, 0.0564815328f, 0.3584993184f, -0.1609823704f, 0.0892396718f, -0.1152990684f, 0.1410012692f, -0.1329898983f, -0.1837799996f, -0.0049089203f, -0.0143063832f, 0.1560655236f, -0.2073035240f, 0.0264458098f, 0.2173743695f, 0.2338849008f, -0.1350165009f, 0.1565973014f, 0.0445686318f, -0.2436064035f, 0.0533233024f, 0.3429637253f, 0.1244928762f, 0.2275539935f, 0.1135259420f, -0.1524173766f, 0.1667661220f, 0.3325111866f, 0.0884310678f, -0.1113882139f, -0.0183114111f, -0.1437212825f, 0.3310311735f, -0.0362700857f, 0.0464734212f, 0.2377341539f, 0.1416609436f, 0.0853332952f, -0.0468751565f, 0.1082417592f, -0.0110217184f, -0.1381015927f, 0.1457348913f, -0.0819301382f, 0.1081825346f, -0.2164403945f, 0.1304109395f, 0.1688569784f, -0.1388310343f, -0.1804336011f, 0.0881179720f, -0.1250027716f, 0.0063430844f, 0.3528690934f, -0.1432924271f, -0.0199919082f, -0.0318186283f, 0.0418648235f, -0.0492885076f, -0.3392443955f, 0.1023854613f, -0.1385048181f, -0.0855364576f, 0.1184967905f, 0.0711562708f, 0.2329849750f, 0.2460814714f, 0.1068509817f, -0.1212734133f, -0.0206730627f, 0.0119625013f, 0.1152675301f, -0.2498476356f, 0.3060995042f, -0.0418605842f, -0.0315400250f, 0.0304585863f, 0.1970640123f, -0.0758535787f, -0.0915555805f, -0.0190553386f, -0.0419165827f, -0.1998116374f, 0.2982731760f, 0.3020868301f, -0.0868548304f, -0.1723869443f, -0.0937937349f, -0.3985752165f, 0.1782902479f, -0.0557891168f, -0.0023923733f, 0.2505455315f, 0.1842354983f, 0.3776869476f, -0.0416115224f, 0.2047145367f, -0.0691149682f, -0.3940559626f, -0.0895570070f, 0.1868109107f, -0.1075786427f, -0.0017830192f, 0.3039755523f, -0.2283436209f, -0.0751382560f, 0.0761598423f, -0.0033176711f, 0.1225043759f, -0.1193072498f, 0.1937950552f, 0.1623313278f, -0.1966089308f, -0.3199590147f, 0.0086661875f, 0.2608571649f, 0.0456139185f, -0.1158363745f, -0.0026089179f, -0.1848926395f, 0.0646673590f, -0.1828002781f, -0.3153419495f, 0.2215865552f, 0.0682650208f, -0.1511692107f, -0.2176602632f, 0.2400650084f, -0.0837265253f, 0.0073553412f, 0.0778667554f, 0.0883705765f, -0.2401607186f, 0.0186662413f, -0.3527421355f, 0.0794887543f, -0.2590652704f, -0.1484851539f, -0.0403968766f, -0.0831639171f, 0.0978657976f, -0.0451231785f, -0.0954710394f, 0.0408905484f, -0.3951624036f, 0.0000515618f, 0.0373054370f, -0.1944386065f, -0.0248279013f, -0.0539625101f, 0.1880874038f, 0.0556231774f, -0.2006332576f, 0.2697457969f, -0.3530224264f, 0.0974481031f, 0.1925221235f, 0.1469175965f, -0.3007389903f, -0.1726277918f, -0.1076206639f, -0.0186195206f, 0.1533605903f, -0.0386962034f, -0.4646496773f, 0.1000538766f, 0.0272847489f, -0.2903036773f, 0.1524603367f, 0.1390339732f, -0.5994608402f, 0.2601264417f, 0.2476994842f, -0.0233096424f, -0.0980929658f, 0.2578800917f, -0.2042264938f, -0.1666956544f, -0.1111937091f, -0.1135984808f, -0.0385085903f, -0.1607353985f, -0.0096243126f, -0.0673597753f, -0.1000606269f, -0.0975333601f, -0.1083170101f, 0.1765105575f, 0.1042326689f, -0.0121432422f, 0.0385076329f, -0.0407968089f, 0.0310306456f, -0.1045833305f, -0.2019921690f, 0.0339564420f, 0.1487621069f, 0.1930886358f, -0.2283362150f, 0.3530375361f, -0.1428361833f, -0.2007730752f, -0.0233208556f, 0.1694572419f, -0.2626966834f, -0.3314832449f, 0.2575769722f, -0.2155180126f, -0.0302002374f, -0.0368817598f, -0.1585506201f, 0.0705471411f, -0.1328457445f, 0.0120366802f, -0.2123590261f, -0.0609350502f, -0.0802203864f, -0.1895432919f, 0.0276370179f, 0.1384762675f, 0.3524460196f, 0.0716114044f, 0.1934051812f, 0.0637202263f, 0.2671594620f, -0.2296270579f, 0.1154195294f, 0.2117059678f, 0.0286151525f, -0.0781441256f, 0.0728894025f, 0.1194852889f, 0.0513304882f, -0.2870397866f, -0.2583975792f, -0.1953081638f, 0.0997765511f, -0.0043444107f, -0.1617443115f, -0.2482774705f, 0.1262984574f, -0.1064134911f, -0.2344689518f, -0.0306385700f, -0.0816366002f, 0.0416857041f, 0.2877491117f, -0.0389840454f, 0.0905373171f, 0.0140540982f, -0.2331462651f, -0.1613826007f, 0.1611509472f, 0.0108273951f, 0.0927511826f, 0.0185904987f, 0.0471878946f, 0.0006185086f, -0.1517829299f, 0.0861359984f, 0.1500249803f, -0.0101009486f, 0.3642831147f, -0.1541724056f, -0.2114101797f, 0.0321884193f, 0.1186496615f, -0.0070360964f, -0.1042872071f, 0.3806864023f, -0.1917471886f, 0.0989912227f, -0.2333909869f, -0.0133229140f, -0.0235169157f, -0.2194492072f, -0.1966905445f, 0.1758832484f, -0.1883213669f, -0.1380214095f, -0.2862062752f, -0.0549721010f, -0.1291943491f, 0.0713518187f, -0.0092815096f, 0.2272739112f, -0.0304242987f, 0.2951678634f, -0.1481875926f, 0.2654719949f, 0.1176935732f, 0.4754756987f, 0.1422068626f, -0.2841731906f, -0.0301921275f, -0.1507565826f, -0.2734369040f, -0.1169554442f, 0.0981464460f, 0.0756304935f, -0.0718650296f, 0.1450118721f, -0.5066650510f, 0.0662310496f, 0.0497352667f, 0.0471716449f, 0.3246423006f, 0.0921422690f, -0.0332233980f, -0.0412373282f, 0.4921044111f, -0.1512266994f, -0.1952151358f, 0.1518086046f, 0.1542990357f, -0.2790828943f, 0.2131395042f, -0.0574570671f, 0.1416320503f, 0.0403746516f, -0.0173468478f, 0.2038069665f, -0.1091381088f, 0.0201882534f, -0.1915182024f, 0.0894177407f, 0.2660280466f, 0.0193263050f, -0.0098396018f, 0.0092930105f, 0.0368019380f, -0.0932850167f, -0.3872937560f, -0.3258028328f, 0.1656240076f, -0.1929626316f, 0.0372887887f, 0.4374720454f, -0.1755568832f, -0.0721380338f, 0.0649365559f, -0.0859416500f, 0.2232005745f, -0.0888305232f, 0.0176711380f, -0.0465818569f, -0.2237528712f, 0.0815100670f, 0.1183231771f, -0.0091326404f, -0.0286198929f, -0.2004556507f, 0.0864843205f, 0.0713762641f, -0.1180852354f, -0.0674599558f, -0.0653971806f, 0.1006820500f, -0.0470309556f, -0.1806303710f, 0.0739113465f, 0.2048097551f, -0.0081159901f, -0.3786888421f, -0.0060333423f, -0.3217883110f, 0.0319062248f, 0.3456976712f, 0.3198300302f, 0.3038679361f, -0.0279793385f, 0.0473114029f, -0.0873858258f, 0.2805010378f, 0.1521944404f, 0.0714066178f, 0.0056101959f, -0.0979771242f, -0.2345632464f, 0.1446010172f, 0.0372542925f, 0.2349835932f, 0.1416307688f, -0.0621277243f, 0.1661611050f, -0.0268288516f, 0.0099622728f, -0.0139276050f, -0.2923728228f, -0.4627823234f, 0.0514973365f, -0.1587910354f, -0.0291130655f, -0.3950963616f, -0.2734791040f, -0.0112835187f, 0.0239342786f, 0.0709578991f, 0.0869957209f, 0.0141012110f, 0.0495453402f, 0.1808452010f, -0.0184378829f, -0.0510498844f, -0.0479519144f, -0.1489966661f, -0.0582225136f, -0.2740816772f, -0.1494076401f, -0.1157265827f, 0.2934433520f, -0.0037637118f, 0.2508518100f, -0.1082965434f, -0.0770991221f, 0.0169575755f, 0.2564119101f, -0.0385569744f, 0.1661846191f, -0.1091076657f, -0.0196156576f, 0.0282158833f, -0.1311469823f, -0.0862035528f, 0.1306688935f, -0.0144177666f, -0.3041596711f, -0.1049234420f, -0.0179453567f, 0.0682360679f, -0.1100793406f, -0.2475477010f, 0.0678007305f, -0.0725582689f, 0.0159418918f, 0.0462241210f, -0.1253414750f, 0.0346362665f, 0.0773206055f, 0.0873008519f, -0.1835882515f, -0.1097651795f, 0.0472227558f, 0.0148458211f, 0.1367761493f, -0.1233155131f, -0.1835534573f, 0.0312834606f, -0.0772252604f, 0.0563723855f, 0.1150816530f, -0.0406375155f, 0.0524139032f, 0.1226498634f, 0.1427164674f, -0.0289216246f, 0.0442194194f, -0.3698702157f, -0.1335039735f, -0.0154637191f, 0.3802186847f, 0.0996551216f, 0.0971800014f, 0.3929965496f, 0.2234898359f, 0.1643561125f, -0.3311598599f, 0.1959365159f, 0.1065454483f, -0.1823872328f, -0.4017682374f, 0.1679884791f, 0.2388724834f, 0.2196473479f, 0.0048193270f, 0.2028842121f, 0.1370475590f, 0.3604844511f, 0.0301017705f, -0.1516512632f, -0.2015485764f, 0.1383698285f, -0.0101090204f, -0.1450269818f, 0.2757638097f, 0.4654148519f, -0.1053286269f, -0.1970405877f, -0.0022434760f, 0.4197034836f, 0.0152533194f, 0.1242583320f, -0.0081126429f, -0.0475505479f, -0.1598821729f, -0.1233488023f, 0.1302524954f, -0.1903969049f, -0.1038664877f, 0.0742327720f, -0.1940461695f, 0.1685144007f, 0.0776175410f, -0.2127500623f, -0.0511342064f, 0.0571391806f, -0.1030007824f, 0.2204411775f, 0.0110120224f, 0.2264930606f, -0.1016543657f, -0.0694712177f, 0.1115297750f, -0.2423024029f, 0.2537772357f, -0.0176786296f, -0.0256386865f, 0.0630192608f, 0.1460077465f, 0.1391037256f, 0.1645824760f, 0.0027359966f, 0.1036510468f, 0.1317150146f, -0.5633999705f, 0.1282535940f, -0.3327298164f, 0.4658690095f, -0.2017897218f, -0.0237992126f, 0.0568004884f, 0.4906517565f, 0.0816599503f, -0.0064093443f, 0.1446433514f, -0.1022128612f, 0.0313906148f, 0.1340964735f, -0.0768992454f, 0.1004704386f, -0.2064341307f, -0.0467937328f, 0.0433684140f, -0.0463395901f, 0.1842552572f, 0.0606446564f, 0.0077620069f, 0.0060683438f, 0.0528963357f, 0.2542683482f, 0.1639507115f, 0.0824046582f, 0.1698662490f, -0.4131285250f, 0.1906882077f, 0.2584651709f, 0.1025309935f, -0.0838793144f, -0.0880292282f, 0.0980081707f, 0.1516488343f, 0.1203171164f, -0.2993775010f, -0.0998453796f, -0.1155691594f, 0.0363529138f, -0.2916050553f, -0.2133459300f, -0.1820046008f, -0.0057807779f, 0.1897886992f, 0.0373696797f, 0.0699114054f, -0.0653187335f, -0.1404633075f, -0.2402983755f, 0.4019376040f, 0.0465914868f, 0.0021484219f, -0.2814245224f, -0.3285233974f, -0.0904943943f, 0.2771738768f, 0.1133823618f, -0.0563977659f, 0.0396163240f, -0.3436361253f, 0.0374411643f, 0.0773569047f, -0.0308622327f, 0.0546562299f, 0.0815561265f, -0.1571547836f, 0.0107425870f, -0.0144257667f, -0.0272194073f, -0.3200297058f, 0.2907897234f, -0.1366197467f, 0.2272697687f, 0.3224353790f, 0.1265659630f, -0.0370174088f, 0.0147760808f, 0.0641205087f, -0.0099564483f, -0.0622911230f, -0.0561934039f, 0.2203601748f, 0.2484428585f, -0.1912943274f, 0.1871617585f, -0.2054579854f, 0.0932062939f, 0.1223916486f, 0.0720036998f, -0.1299297959f, -0.1515932381f, -0.0509600043f, -0.1026541144f, 0.0267024711f, -0.1168020517f, 0.2379098088f, 0.0640841648f, 0.2375272959f, -0.0776391774f, 0.0915768743f, 0.0065420172f, -0.2132500261f, -0.3026878536f, -0.0569868162f, -0.1130947545f, -0.3670106828f, 0.0759749338f, -0.4318869114f, -0.2433238924f, 0.1435614526f, 0.0329923071f, -0.1858326346f, 0.0502853692f, 0.1174252480f, -0.1503269970f, -0.0239801705f, 0.0145494835f, 0.1751156300f, -0.1678437740f, -0.0089035342f, -0.0206697676f, -0.1471175551f, 0.2263253629f, 0.1667854637f, -0.0562007353f, 0.1314454526f, -0.3484466672f, 0.0055619385f, -0.1625706851f, -0.1178480908f, -0.2528268695f, -0.2462176234f, 0.1773455739f, 0.1662252843f, -0.1380377114f, 0.1008194163f, -0.1844409853f, 0.3411711752f, 0.1051840037f, 0.0854867026f, -0.2550936937f, -0.0963814855f, -0.1945043951f, -0.2893862128f, -0.0048790416f, 0.1908095628f, 0.0129488241f, 0.0702755079f, 0.0806226656f, 0.3582989573f, -0.0454066060f, 0.0847025290f, -0.2937942147f, 0.0084996652f, -0.0905717313f, 0.1220193580f, -0.0655763075f, -0.0639731809f, -0.2616023421f, -0.0994311422f, 0.0578327999f, -0.3716250360f, -0.1582502872f, -0.2222169638f, -0.1862760782f, -0.0626272112f, -0.0180024970f, 0.0093709957f, -0.1903159171f, -0.0605809242f, 0.1443361938f, -0.0199403986f, 0.0085852016f, -0.2760168016f, -0.0600745901f, 0.5901263952f, -0.1635712683f, -0.1584725827f, -0.3939251006f, 0.0997324884f, 0.0125528704f, -0.1563247293f, 0.1293210834f, 0.2900878489f, -0.0193650387f, -0.0007807299f, -0.0200429391f, -0.1004139259f, 0.0785911605f, 0.0861222669f, 0.0732193291f, 0.2295794338f, 0.3026129603f, 0.2030742615f, -0.2023317665f, 0.0274222046f, -0.3112848699f, 0.0742536187f, -0.2837713063f, 0.1818544269f, 0.0605298653f, -0.0354146101f, 0.0173315350f, -0.0583032668f, -0.2010597885f, -0.0341445543f, 0.2508722544f, -0.0577796735f, -0.3443035185f, 0.1913864911f, -0.1142081767f, 0.0089156572f, 0.1282064766f, 0.2631523907f, 0.0660777465f, 0.0964033827f, -0.0787591711f, -0.5884157419f, -0.0458610058f, -0.3248755336f, -0.0269666668f, 0.1940883100f, 0.0562368408f, -0.3354051113f, 0.1147163659f, 0.0329065844f, 0.2180437893f, 0.0349040553f, -0.1574455500f, -0.1016096994f, 0.2279878706f, -0.3057351410f, -0.0398458615f, 0.1123981401f, -0.1915199459f, 0.2330557853f, -0.0115613323f, -0.0794384852f, -0.0242970716f, 0.0524377264f, 0.2095017284f, 0.0319056213f, 0.0880742744f, 0.3425611854f, 0.0788336843f, 0.1247502342f, 0.1721188873f, -0.0315234438f, 0.0598617420f, -0.1469223946f, -0.1097487286f, -0.1606774181f, -0.0985351205f, 0.0098533826f, -0.1185307428f, -0.2730748057f, 0.1377470195f, -0.1695281118f, -0.2209355682f, -0.2607105076f, -0.3505337536f, -0.0926272795f, -0.1067991778f, 0.0667243600f, -0.2114140093f, 0.1606397629f, -0.0575330891f, 0.1976568848f, -0.0587642752f, -0.1526599824f, -0.1321229637f, -0.1015724167f, -0.1024467126f, -0.1307663769f, 0.1415444016f, 0.0944417417f, -0.0389863439f, 0.1332065016f, -0.0008197316f, -0.0025955494f, 0.2921951115f, 0.3012098968f, 0.1397315413f, -0.0114819082f, 0.0225884728f, 0.1058620960f, 0.1058113500f, -0.0571345314f, 0.1885650456f, -0.1143616214f, -0.0443854295f, -0.0079473527f, 0.1541433781f, -0.3850866556f, -0.2997461855f, -0.0633272901f, 0.2434120178f, -0.0198733583f, 0.3194874227f, 0.0397594534f, -0.1369347572f, 0.1355824918f, -0.0821119323f, -0.1439236552f, 0.2363890857f, 0.1625268459f, -0.2360024452f, 0.2839463055f, -0.1778255105f, 0.0278659370f, -0.2826316953f, 0.2127752006f, 0.3852279782f, 0.0395528898f, -0.1218510345f, -0.0020308869f, -0.1087876558f, -0.0157483853f, 0.1679627597f, -0.1523706615f, -0.0657992661f, 0.1577689201f, 0.1148042977f, -0.1172883436f, -0.3685020506f, 0.0341880545f, -0.1680380851f, 0.1884516329f, 0.0152850123f, -0.1718846411f, -0.0434663035f, -0.2264545411f, -0.2550044954f, 0.1260756999f, -0.1679097414f, -0.0505540706f, 0.3119927943f, -0.2613499165f, -0.0775508732f, -0.0455284268f, -0.0164320972f, -0.0466362238f, 0.2095849067f, 0.0508587174f, 0.2151666433f, 0.0250641126f, -0.0559665449f, 0.0117586590f, 0.1866277903f, 0.1013940200f, 0.0501865335f, 0.1215604842f, 0.2800156474f, 0.0262225978f, 0.1277732700f, 0.1390356421f, 0.1795881689f, -0.0895087868f, -0.0522732288f, 0.0718677044f, -0.0687526762f, -0.1490411609f, 0.0245267320f, -0.0484215058f, -0.0934179351f, 0.0200171378f, 0.0086092725f, -0.1192489415f, -0.1941043437f, -0.0949922577f, 0.1833587885f, 0.3135303855f, -0.0397189036f, 0.1827638745f, -0.1382188946f, -0.1353780478f, -0.2004395127f, 0.2046342492f, -0.2050963789f, 0.2344670743f, 0.0664927214f, -0.2549578249f, 0.2609433532f, 0.2747351825f, -0.0661684796f, 0.0106249573f, -0.2900550365f, -0.0228611045f, -0.0284042340f, 0.1603426188f, 0.0659884065f, -0.1810666919f, -0.2733556926f, 0.1458671391f, -0.2473667115f, -0.0856186152f, -0.3022747338f, -0.0979100168f, 0.5057122111f, -0.1207472533f, -0.3037612736f, -0.0485561863f, 0.1704299003f, -0.0146669727f, 0.1359900683f, -0.3603265882f, -0.0260947105f, -0.2100651562f, 0.2362311184f, -0.2631126940f, 0.1097177342f, -0.0920085311f, -0.0455546156f, -0.5655937195f, -0.0075995107f, -0.0377933420f, 0.0038012338f, 0.0807372928f, 0.1524528265f, -0.4083202183f, 0.1396583915f, 0.1870758235f, -0.1460116208f, -0.1569813490f, -0.1734049618f, 0.2697681785f, -0.0433313549f, -0.2289702743f, -0.0265295636f, 0.3395774662f, -0.0776293576f, -0.0817729607f, -0.0179603640f, 0.3409868181f, 0.1169048622f, -0.0903251395f, 0.0191608313f, 0.0110075176f, 0.3285813630f, 0.0992245302f, 0.0482010990f, 0.0937476009f, -0.0385004468f, 0.1969592720f, 0.0175260697f, -0.0101999203f, 0.1779225022f, 0.3299767971f, -0.0575913079f, 0.2381626517f, -0.0436364748f, -0.0088428399f, 0.0090219220f, -0.1535461694f, 0.1808548272f, 0.1742789149f, -0.1509748697f, -0.1126447842f, 0.2490250915f, 0.1088057831f, -0.2276350707f, 0.1870644987f, 0.0699218884f, -0.1609641463f, -0.0387877487f, -0.1224064827f, -0.1272590011f, -0.1150743961f, -0.0980359465f, 0.1451187432f, 0.2092961073f, 0.0877456963f, 0.2218460292f, -0.4126611948f, 0.0133490209f, 0.2580783665f, -0.2225365490f, -0.2466040105f, 0.1394969821f, 0.2247888446f, -0.0265033022f, 0.0448374227f, -0.1219770387f, -0.1824915707f, 0.1052606106f, -0.0894743726f, 0.1095643640f, -0.0363827683f, 0.0102471374f, 0.1231594980f, 0.0203939062f, 0.2164924741f, 0.0906245932f, -0.0211535767f, -0.0748725533f, -0.0427308306f, 0.2690145373f, -0.1892429739f, -0.1598274410f, -0.0630041584f, -0.3966018260f, -0.0393373780f, -0.0764036700f, 0.2095287144f, 0.0435145684f, 0.1377579719f, -0.5277487040f, 0.1537858397f, 0.1745439023f, -0.0362529345f, -0.3470691442f, -0.2019792795f, -0.3804719448f, -0.1344033629f, -0.1092886999f, -0.0788412094f, 0.1818496138f, 0.0205997080f, -0.0659708232f, -0.4198019803f, 0.0723509565f, -0.1078198180f, -0.1854824871f, -0.0755035877f, -0.2007660717f, 0.0031751445f, 0.0522797033f, 0.1238016859f, -0.0922484174f, -0.0122357402f, -0.0607534237f, -0.1520517021f, 0.3218558431f, -0.0090289144f, -0.1195801049f, 0.1955841333f, -0.0726558641f, -0.0437496677f, 0.1106728315f, 0.1183625087f, -0.0746181533f, -0.0679937303f, -0.1479987502f, 0.0935090855f, -0.0184933301f, 0.1179964095f, -0.1051877737f, 0.1043545008f, -0.0003216257f, -0.2967405617f, -0.0243894495f, 0.2376275510f, -0.2804629505f, -0.1637304872f, -0.2737020254f, 0.3325397074f, 0.3833378851f, 0.2054770142f, -0.2636667192f, 0.1040475965f, 0.3096944094f, 0.3014116883f, -0.1041591316f, 0.3343689144f, -0.1247616038f, 0.1361536384f, 0.1834340543f, -0.0570207722f, -0.1242733896f, -0.0511123613f, 0.1732849032f, -0.1045437306f, -0.0587343611f, 0.0034542384f, 0.2528697848f, 0.3284308016f, -0.2472213954f, 0.0002314783f, 0.0031268629f, 0.2260380983f, 0.0318602100f, 0.1298892945f, -0.1003177837f, -0.0003096199f, 0.2191117108f, 0.1548781693f, -0.1257927120f, -0.0023705855f, 0.2105809599f, 0.0140815591f, -0.1059254780f, -0.1106200144f, 0.1392200887f, -0.0864907503f, -0.1399906576f, 0.0461378470f, 0.2094988376f, 0.1728667319f, -0.1962598711f, -0.2821264863f, 0.0829095468f, -0.0898573399f, 0.0155847855f, -0.2956259847f, -0.1115380079f, -0.0273901317f, 0.1439577639f, 0.1226524115f, 0.0575887412f, 0.1353780776f, -0.0270451587f, -0.0070946235f, -0.0495263040f, -0.0041890717f, -0.1224634796f, 0.2271728665f, -0.0050833737f, -0.0056130360f, -0.0093466379f, 0.0170736704f, 0.2170490175f, -0.3177682161f, -0.2241072506f, -0.0599419214f, 0.1960362941f, -0.1553476006f, 0.1138974577f, 0.0907270759f, -0.0267072450f, -0.0028859775f, -0.1641048938f, -0.0438192785f, 0.1871540844f, -0.4022265971f, -0.0123059507f, -0.1301804036f, -0.0647690222f, -0.2390195429f, -0.0953654870f, 0.0097113652f, 0.0858246535f, 0.4887063205f, -0.2799759209f, 0.1762587875f, 0.0895438343f, -0.1966703236f, 0.0968225524f, 0.1099007502f, -0.1234399080f, 0.0026507168f, 0.2229135782f, 0.1228665933f, -0.2162221819f, -0.1614709496f, 0.0162312556f, 0.0871763974f, 0.1796974242f, 0.0689535141f, 0.0417384170f, -0.6258410811f, 0.1143634394f, -0.2452102304f, -0.0526774228f, -0.2125944495f, -0.3493271470f, 0.1149110347f, 0.2304657251f, -0.0642953590f, -0.1339740604f, 0.1628501415f, 0.0067782626f, 0.1471011490f, -0.0128806941f, -0.0856054574f, -0.0371614657f, 0.0319615342f, -0.2133443356f, 0.2427955270f, 0.3018025458f, 0.0476819240f, -0.1944310218f, -0.0404928215f, 0.1603166163f, 0.2154630274f, -0.3183221817f, 0.2029270828f, -0.2962327898f, -0.1633915454f, -0.3021180034f, -0.0039799497f, -0.0662918538f, 0.2458367497f, -0.1326434612f, 0.3619016707f, 0.1461886764f, 0.0672148392f, 0.0192273185f, 0.2589607835f, -0.1666091830f, -0.0766464099f, -0.1011481732f, 0.0777082965f, 0.0878091678f, -0.0571027175f, -0.2678447664f, 0.1087902635f, -0.0969081968f, 0.2422532290f, -0.1948493719f, -0.0130580096f, -0.0036225345f, 0.0881849378f, -0.3056071401f, 0.0218145568f, 0.2997474372f, 0.0747904480f, 0.2329269201f, 0.0419204198f, -0.0967954770f, -0.0522317477f, 0.0105645675f, 0.1913048923f, 0.0411568284f, 0.1367136836f, 0.1249791831f, -0.1546609104f, 0.0858664364f, 0.3148775995f, -0.3466264009f, 0.3098974228f, -0.0650139004f, 0.0617607720f, -0.1955632418f, 0.0473379157f, -0.1469884813f, -0.0399668217f, -0.1617549807f, 0.0112402774f, -0.0483004972f, 0.0292109773f, 0.1794273853f, 0.1597508043f, -0.0110619785f, -0.1954615712f, -0.1101403758f, -0.0646231249f, 0.0891458988f, -0.1332155764f, -0.0557079129f, -0.0126247127f, 0.2704465389f, 0.3783467114f, -0.0378886163f, 0.1224028394f, 0.1083885282f, 0.2131431550f, -0.0421909727f, 0.1992033273f, 0.2373040617f, 0.0494294390f, 0.2620893121f, -0.1641281247f, -0.2147461474f, 0.0184343979f, -0.1178586632f, 0.1314064860f, 0.0395056158f, 0.1334974617f, -0.1869230717f, -0.4352515638f, 0.1673830599f, -0.1361496896f, 0.1199535653f, -0.0999251679f, -0.0785843581f, 0.2358264327f, -0.0895859972f, 0.0688107312f, -0.1564063132f, 0.3585051000f, 0.0250639804f, -0.2747072577f, -0.0011664300f, 0.2931987643f, -0.0830169767f, -0.3174607754f, -0.1536261737f, -0.3308146894f, 0.0861930251f, -0.2405321449f, 0.1915514767f, -0.0676274598f, -0.1796761453f, 0.2601623535f, 0.0331422538f, 0.2437644601f, -0.0597204529f, 0.1419577897f, 0.0866343826f, -0.3193703592f, -0.2105076462f, 0.0290789437f, -0.1331424564f, 0.0194592215f, -0.2648419142f, -0.1301679164f, -0.1571004093f, -0.1663443744f, 0.0764265135f, 0.2951719463f, 0.0649328530f, -0.1954573095f, -0.2151964903f, -0.0327998213f, -0.1294643432f, -0.0075276350f, 0.3719628155f, 0.1213402152f, 0.2793888450f, -0.0074337604f, 0.0817345008f, -0.1458314061f, -0.1374614984f, -0.2661614716f, -0.2333606780f, 0.0402469337f, -0.2379319519f, 0.1478603780f, 0.0361336172f, -0.2835175991f, -0.0947743729f, 0.0970172957f, -0.2164487988f, 0.0896600261f, -0.1754945070f, 0.1245527640f, 0.0498648062f, -0.2740094066f, -0.4789212644f, -0.1464340538f, 0.1628467292f, -0.0119358245f, 0.1692523509f, 0.2037587613f, 0.2249340564f, -0.2126156837f, 0.1064265966f, -0.3275510669f, -0.0331488065f, 0.1858353764f, -0.0187591854f, -0.0713033453f, 0.1806237251f, -0.0143371634f, 0.0540203452f, 0.0919046998f, 0.1506803930f, 0.1991746873f, -0.0276754089f, 0.2220369130f, 0.1222278029f, -0.3453142941f, 0.0293890014f, 0.0270648301f, -0.0720237195f, -0.0838660970f, 0.0713550597f, -0.0996991545f, 0.3630954027f, -0.2288365066f, 0.1122315899f, -0.0147642763f, 0.2508519590f, 0.1516319662f, -0.1261451989f, 0.0118908389f, 0.0052017756f, -0.4251458645f, -0.2449178398f, 0.1624223441f, -0.0381171927f, 0.1031802818f, 0.1533781290f, 0.1735074371f, 0.1545308083f, 0.4225344062f, -0.0918803513f, 0.0707902163f, 0.3326551914f, 0.1238486618f, 0.2337567061f, -0.2014272958f, 0.1053930968f, -0.0875007287f, -0.1426092088f, 0.0443244092f, -0.0346240811f, -0.0402498618f, 0.0649532303f, -0.2027747482f, 0.1655149013f, -0.2315617800f, -0.1415099651f, 0.0699597150f, -0.1997021884f, -0.0173574090f, 0.1990028769f, 0.0237782635f, 0.0869448707f, 0.3381169736f, -0.0058153323f, -0.0683480650f, -0.2242069691f, -0.0429900251f, 0.2976962030f, 0.3045662940f, 0.0451025702f, 0.0352197029f, -0.2226729095f, -0.0697577745f, -0.1483523846f, -0.2725971043f, 0.1654919088f, -0.0081047136f, -0.1562781632f, 0.0430795178f, -0.1864620894f, 0.0810064673f, -0.0139188915f, 0.0253583770f, -0.2545276582f, -0.0057325615f, 0.0244163405f, -0.5208849907f, -0.0261050966f, 0.1208106503f, 0.1083266884f, -0.0239999220f, 0.4018063545f, 0.3123944104f, -0.1485618949f, 0.1072165594f, -0.1007686555f, 0.0772996172f, -0.2990767956f, -0.1111502498f, 0.1412509233f, -0.1823859513f, -0.2024564594f, 0.0759662166f, -0.1554642767f, -0.2147041261f, 0.1362632364f, -0.1346122921f, 0.1795528829f, 0.3314346969f, 0.0779253244f, 0.1039050967f, -0.0750748664f, -0.0094998637f, 0.2120706588f, -0.0911510885f, 0.0053678458f, -0.0286342539f, -0.0491588674f, -0.2738257945f, 0.2296699584f, 0.0366244428f, 0.1827240437f, -0.0117336167f, 0.0432930365f, 0.4931921959f, 0.0862411633f, 0.0675410256f, 0.2487619221f, -0.1425999105f, -0.0413776115f, -0.0369735546f, -0.1937978268f, 0.0951003432f, -0.1140986010f, -0.1315975189f, 0.0040854365f, -0.1036584601f, 0.0852381513f, 0.0564836897f, 0.0929080024f, 0.0074343625f, -0.2217823565f, -0.0110325357f, 0.2485046387f, 0.0311999880f, -0.2155957520f, 0.3087433875f, 0.1278214008f, -0.1880288720f, 0.1001988128f, 0.1089386046f, -0.1842502505f, 0.0667611510f, -0.2609862387f, -0.1500568241f, -0.3379436731f, -0.0346464440f, -0.1633504927f, 0.0905025005f, -0.5181964636f, 0.1109964028f, -0.1359071136f, -0.0052343197f, -0.1674462706f, 0.1469081640f, 0.2554481924f, -0.1235017851f, -0.1585160345f, -0.0477551520f, 0.2446186244f, -0.0955675170f, 0.0780926123f, 0.0514988862f, 0.2857853472f, -0.0710938498f, -0.0408743061f, 0.0327109136f, 0.1084894761f, -0.0447222330f, 0.0415309966f, -0.1673003882f, -0.1607447565f, 0.2556919456f, -0.0887694806f, -0.0994641185f, 0.1876510233f, -0.1621792912f, -0.2479598969f, 0.2388798743f, 0.0356228277f, -0.1696927249f, 0.0626329854f, 0.0207253136f, 0.0576313473f, 0.0702789575f, 0.0772136897f, 0.0012295827f, -0.3058959246f, -0.2949864864f, -0.1994949430f, 0.3639309406f, 0.0853318125f, -0.1310900748f, 0.2307756841f, -0.0303745940f, -0.0128858062f, -0.0375506543f, -0.1565909088f, 0.2016294897f, -0.2473735809f, -0.1145306975f, 0.1976167411f, 0.3096383512f, 0.0725172088f, 0.1854346693f, 0.2105381787f, 0.0031836280f, -0.1012126952f, 0.2148383707f, 0.2380441278f, 0.1798680425f, -0.1391467601f, 0.1167056635f, 0.3145537674f, -0.0947789922f, 0.1410230696f, 0.2605255842f, -0.3896743357f, -0.3262974322f, 0.3695960045f, 0.0919213817f, -0.2270248234f, 0.1698763371f, 0.2321014553f, -0.1682684571f, 0.0807894915f, -0.2890520394f, -0.0899638012f, -0.2170483023f, 0.0268461034f, 0.2163028270f, 0.0376999043f, -0.0623776987f, -0.3063425422f, -0.0419824682f, -0.0541854575f, 0.0880166441f, -0.1064192280f, -0.0822852552f, 0.2423031628f, 0.1982257068f, 0.0237960089f, 0.0537857786f, 0.1054107547f, 0.1944227666f, 0.2320507765f, -0.1272370219f, -0.0652198792f, -0.2123173028f, 0.1189554259f, -0.1108495668f, 0.0487664677f, -0.1457301229f, 0.0069451127f, 0.0537483096f, 0.0142393336f, 0.0590161532f, 0.1818309575f, -0.0204542913f, -0.0431306586f, -0.1251712292f, -0.0606677905f, 0.0625945181f, 0.0763456747f, -0.0507313311f, -0.1949732155f, 0.0606099181f, 0.1144932210f, 0.0735416561f, -0.1046923250f, -0.3248259425f, -0.1253172308f, 0.0314260200f, 0.0924881697f, -0.1003969461f, 0.2422336936f, -0.1080394313f, -0.3792981505f, 0.1721981466f, -0.1409172714f, 0.1027717143f, 0.0487290174f, -0.3533883393f, -0.0103116101f, 0.1572699249f, 0.0185381342f, -0.0682437867f, -0.2475808114f, 0.1889286041f, 0.1859116256f, -0.0154632777f, -0.1942182183f, -0.2875150442f, 0.0541608892f, -0.3917148411f, -0.0176558308f, -0.0822217762f, 0.0918216109f, -0.2578341067f, -0.3929724991f, 0.2718707621f, 0.0088173943f, -0.3359798491f, -0.0306239203f, 0.0508372821f, -0.1433436573f, 0.1308462471f, 0.0746964291f, 0.1213832796f, -0.1449150294f, -0.1387324184f, -0.0072180945f, 0.1246297061f, 0.1053144932f, -0.3955034614f, 0.0624167360f, -0.0018989935f, 0.2864395082f, -0.2883271575f, -0.0971793905f, -0.0849472135f, 0.1381395310f, 0.0725673586f, -0.0620911121f, -0.3466252983f, 0.0548883714f, -0.1726544946f, -0.0119735356f, 0.0901155397f, -0.3611226380f, 0.1439065784f, -0.1292703003f, 0.0996756181f, 0.1816383302f, -0.1511394531f, -0.0642244443f, 0.0886246189f, -0.2479653358f, -0.0388197154f, -0.2290159613f, 0.0863734186f, -0.1120708138f, -0.0733491629f, -0.1047349870f, -0.1947668493f, -0.2024539262f, 0.0211155936f, -0.2239397913f, -0.0868781507f, -0.2272106707f, -0.0923113003f, -0.0323447436f, 0.1512188315f, 0.0269398559f, 0.0222926736f, -0.5365346074f, 0.0123905409f, 0.1216726378f, 0.3392717838f, 0.3384262323f, -0.1107269004f, -0.0844058841f, -0.3365005255f, 0.0093208831f, -0.3772219718f, -0.0765339211f, 0.0955335721f, -0.0835694298f, 0.1301777810f, -0.0855860412f, -0.1526362747f, 0.0703367367f, 0.0732580647f, -0.1012923345f, 0.2810904682f, 0.1784924567f, 0.1114387438f, -0.0768664479f, -0.0005059643f, 0.0931389183f, -0.1080684587f, -0.1675697416f, -0.0973808095f, 0.0438927449f, -0.2062804699f, 0.0219545793f, -0.0840118527f, 0.3628546000f, -0.2313158214f, -0.1030018628f, -0.0494976267f, -0.3059489131f, 0.0705182478f, -0.2474341542f, 0.0803778023f, -0.4546553493f, -0.0536869280f, 0.0367777534f, 0.1269331723f, 0.1406050473f, -0.2976674139f, -0.1784441769f, -0.1282246411f, 0.1171495616f, -0.2113901079f, -0.0378400087f, 0.0203784797f, -0.0760602653f, 0.3590857089f, 0.0488929264f, -0.0079910029f, 0.0493942648f, 0.1961665154f, -0.3152602911f, 0.1901031733f, -0.1976485252f, 0.0492822304f, -0.1550754160f, 0.0902198479f, 0.0083793607f, 0.2401155382f, -0.2369175702f, 0.0402775407f, -0.0831537768f, -0.1456353515f, -0.1081379130f, 0.1877868325f, -0.0902038068f, 0.2129265964f, 0.0104892794f, 0.2594102919f, 0.0048234686f, -0.3602204621f, 0.0272418056f, 0.1305277199f, 0.0147934183f, 0.1647095978f, 0.0468475632f, 0.1746237129f, 0.0267405417f, -0.0976996124f, 0.1924196184f, -0.0539661162f, 0.0531160086f, -0.2150076330f, 0.2887731791f, -0.0102864616f, 0.2050106525f, -0.2417916209f, -0.0903638825f, -0.0155825047f, -0.0757452548f, 0.2564268708f, -0.0951930285f, -0.2857986987f, 0.0565670282f, 0.0978358537f, -0.1410599798f, -0.0225229952f, 0.3666786849f, 0.0948848426f, -0.2615057528f, 0.0932561234f, 0.2457580715f, 0.1998716295f, -0.0693076998f, 0.2744279802f, -0.0083095971f, -0.0706903189f, 0.0862023458f, 0.0092757065f, 0.1160722300f, 0.0143640833f, -0.0955051109f, -0.0688912719f, 0.1406910270f, -0.1223936230f, 0.0024023524f, -0.0487728640f, -0.0178034026f, 0.1748945117f, 0.2893220782f, 0.1454105824f, 0.3067824244f, 0.3603901565f, 0.2758463919f, 0.1834914237f, 0.0209194738f, 0.0591598935f, -0.2099060267f, -0.1116766557f, 0.1354988962f, 0.1631834954f, -0.0914353952f, -0.0229885429f, -0.2290979773f, 0.0134641081f, -0.0380390473f, 0.1270162165f, 0.1089174151f, 0.1402599961f, -0.2885873318f, 0.0998637006f, 0.0434058234f, 0.2306037843f, 0.0989173204f, -0.0647408217f, 0.4403818548f, -0.3044873178f, 0.3226296604f, 0.1176632494f, -0.0662436262f, -0.0130436402f, 0.0170817561f, -0.2052162588f, 0.0192437842f, -0.4182334244f, -0.0562911443f, 0.0475959927f, 0.0306117963f, 0.2312083542f, -0.1493739784f, 0.2497401386f, 0.0440676212f, 0.1939279586f, -0.1893027574f, -0.0445025600f, 0.0179076549f, -0.0534697548f, 0.5193400979f, 0.1244037226f, 0.1553938687f, 0.1478790641f, -0.0565646589f, 0.0382278152f, -0.1383701861f, -0.1351523697f, -0.0100092227f, 0.0601175614f, 0.2455977947f, -0.0758937374f, 0.1867415905f, -0.0976667255f, 0.1451699883f, -0.0545175262f, -0.2438368946f, -0.1222907081f, 0.0551051907f, 0.3031375110f, 0.1112041250f, -0.1006240323f, 0.0232788399f, -0.1704627424f, 0.2166057378f, 0.2061044872f, 0.0355602428f, -0.1078505591f, -0.3268479705f, 0.0123928897f, 0.0469351262f, 0.0234352369f, 0.0838667378f, -0.0300590508f, -0.1177430749f, -0.0894808322f, 0.0039725332f, 0.0139835915f, 0.0804980248f, 0.3706132472f, 0.5143374205f, 0.0002833226f, 0.1095932424f, 0.0503641665f, -0.2365716994f, -0.0828798339f, 0.3437485695f, 0.0678998306f, 0.3815079033f, 0.2022415400f, 0.1244482324f, -0.0765314475f, 0.1603645086f, 0.0778700262f, -0.0653818250f, 0.0115243727f, -0.1507741511f, -0.3028601706f, -0.1243590042f, -0.1126986593f, 0.1023556516f, -0.1043987572f, -0.1995455474f, -0.2034103721f, 0.2289103866f, 0.1262513995f, -0.0432117470f, 0.0074111689f, 0.1905393302f, -0.0516824201f, 0.2424208224f, -0.0984402671f, 0.5029674172f, -0.0628274903f, 0.2186647952f, -0.0785852075f, 0.3312993646f, 0.2477450371f, -0.0985307992f, -0.0446325056f, 0.0615101196f, -0.3371993303f, -0.0662873387f, 0.1898120046f, -0.1141858473f, 0.0644164756f, 0.2164390087f, 0.0710070878f, -0.0543638840f, -0.2085169107f, 0.0541391931f, 0.1931146681f, -0.0254324134f, -0.0489425473f, -0.1579881310f, -0.1158545986f, -0.2168570161f, 0.0817261115f, -0.1616236418f, 0.0002109569f, 0.0366487615f, -0.2284419090f, 0.3319247365f, 0.0885319561f, -0.1469997615f, 0.2390227467f, 0.1475305259f, -0.3256986737f, -0.0543292351f, -0.0577667989f, -0.0903922021f, 0.0579339899f, -0.1071210876f, -0.1275685877f, 0.0414728001f, -0.0793122426f, -0.4201687574f, -0.1071633324f, -0.1358121932f, 0.1621702760f, 0.1587264538f, -0.1482233405f, -0.3422853649f, -0.0508218557f, 0.1693571210f, -0.1846546084f, 0.2490457296f, 0.1518235356f, -0.0122656990f, 0.0281373803f, -0.0869529396f, -0.1216272041f, -0.1171812192f, -0.3108753860f, -0.1493569165f, 0.0081475023f, -0.1557016075f, -0.1070964336f, -0.1604972482f, 0.0399074033f, 0.2042411268f, -0.1518122256f, 0.0799373090f, -0.1404850483f, -0.0775534362f, 0.1632142216f, -0.0027163471f, -0.1054310203f, 0.0389962345f, 0.0624605417f, 0.1899706721f, 0.1681098789f, 0.4533530176f, -0.0905442163f, 0.1211611927f, 0.4607405961f, -0.2296178937f, 0.1582780033f, 0.0407731682f, 0.0762913898f, -0.1013046131f, -0.0826250687f, -0.1130277440f, 0.0193523429f, -0.1089136153f, -0.2346167415f, -0.1360510290f, -0.1758830994f, -0.0780875683f, -0.0623192638f, 0.3251786828f, -0.2958658040f, -0.3066119850f, -0.0087895058f, -0.0749255121f, 0.0925302953f, 0.1693322510f, -0.2001088858f, -0.0891793519f, 0.0909608454f, -0.0188159067f, 0.1114216596f, -0.4399956465f, -0.2653227746f, 0.3593338430f, 0.1250476837f, 0.0285377633f, 0.0504094474f, -0.2584423423f, -0.0135500198f, -0.3795760572f, 0.1847106814f, 0.0187506825f, 0.2005416900f, 0.0555182733f, -0.1781154573f, 0.0090792254f, 0.0882267058f, 0.0470488966f, 0.0975636169f, 0.0279510897f, 0.0748250782f, -0.4003223181f, -0.0095736459f, -0.1481249034f, 0.1444334835f, -0.2163745314f, -0.1922365427f, 0.1860705763f, 0.1966949105f, -0.0556738079f, 0.2112738341f, -0.2218252867f, 0.1240652576f, 0.2757894695f, -0.2070842683f, 0.3156755865f, 0.0822347254f, 0.0464708209f, -0.0376500487f, -0.1491786987f, -0.2715032399f, -0.4638216197f, -0.0282311719f, 0.2132719755f, -0.1702917516f, -0.0893416330f, 0.0793665871f, 0.0362491272f, -0.0317294821f, 0.0344273001f, 0.1655873507f, -0.0713000894f, -0.0172314588f, -0.0082259942f, -0.0694790483f, -0.0152727785f, 0.0420214236f, 0.2654006779f, -0.0465603396f, -0.1286517829f, 0.2097846568f, 0.2150476426f, 0.1917729825f, -0.1527643502f, 0.0944266617f, 0.0893443376f, -0.3584491014f, 0.0377045162f, 0.0101160845f, 0.0786981434f, 0.1457806975f, -0.0132812532f, 0.0536329634f, -0.0898098499f, -0.1777739674f, -0.2171131670f, 0.1900250912f, -0.1019395739f, 0.1694946736f, -0.2760129273f, 0.2068008035f, 0.2940045297f, 0.0400401317f, 0.0196130481f, -0.3375446200f, 0.1335216314f, 0.4072182178f, -0.1817126870f, -0.0745975897f, -0.1495220363f, 0.0079839285f, -0.3936656713f, 0.0672736168f, -0.0029243866f, -0.0162356179f, 0.2118649334f, -0.1075966954f, 0.3194608390f, 0.0150904180f, 0.2022571117f, -0.0542846769f, 0.3393954635f, -0.2002368867f, -0.0175335892f, 0.2434269786f, 0.0384860896f, 0.1495498866f, -0.1339960843f, 0.1254890859f, -0.3556905687f, 0.0516763404f, -0.0324627422f, -0.0956623256f, 0.2473000586f, 0.1166277602f, 0.0861009434f, -0.0788678899f, -0.0472577065f, 0.0547561087f, -0.0013776318f, 0.1811130196f, 0.0262902733f, 0.0107099134f, -0.1195038408f, 0.0304905213f, -0.0599389412f, 0.3098364174f, 0.1453807950f, 0.2559295893f, -0.0559781976f, 0.0975260586f, -0.1235982552f, 0.2389070243f, 0.1310432106f, -0.1689096391f, -0.0835958496f, -0.1789395064f, 0.1659565866f, 0.3342218101f, -0.1476359814f, 0.0449500345f, 0.5290957689f, 0.2493167967f, 0.0078431424f, -0.2498925924f, -0.2706524134f, -0.2741889954f, 0.2728532851f, -0.0235217344f, 0.0589527152f, 0.1071706265f, -0.0249153730f, 0.3652805090f, -0.2111374140f, -0.0487479419f, 0.0371945836f, -0.0918201581f, -0.1076857969f, -0.2279247046f, -0.0695274472f, 0.2570720911f, -0.0121649522f, -0.0425209627f, 0.0827124193f, -0.1161275953f, -0.1478721499f, 0.0810329244f, -0.1527209580f, 0.3630883992f, 0.1122465730f, -0.1107857153f, 0.0559305772f, 0.2163678855f, -0.1400148124f, 0.0269615352f, 0.0981355086f, 0.1081748903f, -0.0312834717f, 0.1183105409f, -0.0285673831f, -0.0660583377f, 0.1107949615f, 0.1425269693f, -0.0618884861f, 0.3861599565f, 0.0176354442f, 0.1113283560f, -0.1965498328f, 0.1165902317f, 0.3512636125f, 0.0685803220f, 0.1174010560f, 0.2097984105f, -0.1238219813f, 0.4073480666f, 0.1208883002f, -0.1176857054f, -0.1000007391f, -0.0346790068f, 0.0685315356f, 0.0315922685f, 0.0625587180f, -0.0720777512f, 0.2358154207f, 0.3498872817f, 0.0414710753f, 0.0445726961f, 0.0659765527f, -0.0318066180f, 0.2882654369f, -0.0136398720f, -0.4145318866f, 0.0364200547f, 0.0226879045f, 0.0181173962f, 0.1742498279f, -0.4552952647f, -0.2358201295f, 0.0515802540f, -0.0047712121f, -0.0087647559f, 0.0584524646f, -0.1839974523f, 0.0182526242f, 0.2109792084f, 0.0673523173f, -0.2157463431f, 0.0678708330f, -0.2543020248f, -0.2119878083f, -0.1490397304f, 0.0275463555f, -0.0341989212f, -0.2131530344f, -0.4804327190f, 0.1755613089f, 0.1424442977f, -0.1403317302f, 0.0394737571f, 0.0049109892f, 0.0395663902f, -0.0882856920f, 0.0576753728f, -0.0062633823f, -0.1375347525f, -0.1358739585f, 0.1560707092f, 0.0927483663f, -0.0356129073f, -0.2599522173f, -0.0568479970f, 0.0767140314f, -0.2510381043f, 0.1196245775f, 0.0004473187f, -0.2243885249f, -0.2542562783f, 0.0408399403f, 0.0836568773f, -0.0003902241f, -0.0737111494f, -0.0946026221f, -0.1075019240f, -0.3663999140f, -0.5032464862f, 0.0648005605f, 0.0281421486f, 0.0608945228f, 0.1486940682f, -0.0392383337f, 0.2063380629f, -0.1767314672f, 0.1317327470f, 0.2700636685f, -0.2995068431f, 0.0483072139f, -0.0173806679f, -0.0943313688f, -0.1141404361f, -0.2369473577f, 0.1277551800f, -0.0063804355f, 0.1340952665f, 0.0977043211f, -0.1595699787f, -0.1484994441f, -0.1054690704f, 0.1099353805f, 0.0714301988f, -0.1213129386f, -0.1927916110f, -0.1066055372f, 0.4570116699f, 0.3049050272f, 0.1449083537f, 0.1083149165f, -0.0002153893f, -0.1658154577f, -0.1370537132f, -0.2190518528f, 0.0728309155f, 0.0405108705f, 0.1285801381f, 0.1424046457f, -0.0040732943f, -0.1438984871f, -0.1580642462f, 0.1571499705f, 0.0153485211f, -0.3152444363f, 0.0380580463f, -0.1393270642f, 0.1104175523f, -0.4169327021f, -0.0647078753f, -0.1479437351f, 0.1138746887f, 0.1130745336f, -0.1893543750f, -0.0560369715f, 0.0300158877f, -0.2808842361f, -0.0026469673f, 0.2687179446f, -0.0032789614f, -0.2109624892f, 0.0165390577f, 0.0581851043f, 0.0850649923f, -0.1868278682f, -0.0609696917f, 0.2018510252f, 0.0042030285f, 0.3967307210f, -0.0270010922f, -0.0827553347f, 0.0043984288f, 0.1116305888f, -0.1121933535f, 0.1865285337f, -0.0826536044f, -0.0791293681f, -0.1101707667f, -0.2239469439f, -0.2236829251f, 0.3111096025f, -0.2504127324f, 0.0606129132f, 0.1305681169f, -0.3032537997f, 0.0443722270f, 0.4164935052f, -0.2365056574f, -0.2459987849f, 0.2695651948f, 0.0252602622f, -0.2269089222f, 0.0189014524f, -0.0003709051f, 0.0363521725f, 0.0612470694f, -0.1795536280f, 0.0698978603f, -0.2407948971f, 0.0456610806f, 0.1858403236f, -0.0305957720f, 0.1297453940f, 0.1143844351f, -0.1418620050f, 0.1472795010f, -0.0311622005f, 0.3164520562f, 0.1702408344f, 0.0747413188f, 0.3112285435f, 0.3498139679f, 0.0162434261f, 0.0057616197f, -0.2482142448f, 0.1274973452f, -0.3665919006f, -0.0851072073f, -0.0044681407f, 0.0857901648f, -0.0787771717f, -0.3710714877f, -0.0225365423f, -0.0301249214f, -0.2644136548f, 0.0150020933f, -0.3322654366f, 0.0048272288f, -0.0993716046f, -0.3925413191f, -0.1606671065f, 0.2182430029f, 0.1195656583f, 0.0870033428f, 0.4514231384f, -0.1752326787f, -0.0698901936f, 0.0579222143f, 0.1752481610f, 0.0096397614f, 0.0739374235f, -0.0387702323f, 0.0383911394f, -0.0320252068f, 0.3074873984f, 0.2848285735f, -0.0939312577f, 0.2117381692f, -0.1919517070f, -0.2053387910f, 0.0711976066f, 0.0604251251f, 0.2737219036f, 0.1068001837f, -0.0885912552f, 0.0103731509f, -0.1053302139f, -0.0072061708f, -0.1219785288f, -0.2230296582f, -0.0376335941f, -0.2409985065f, 0.0734433383f, 0.1954630315f, 0.0754177719f, 0.1376252621f, -0.3751874864f, -0.0133321332f, -0.1668895781f, -0.0969461054f, 0.2742051780f, -0.0087989001f, -0.0396329500f, -0.0126316315f, -0.2022869885f, -0.0309562497f, -0.0320774950f, 0.0234546233f, 0.1403628737f, -0.0003245726f, -0.1575252563f, -0.0770664960f, -0.2505083680f, -0.0118430480f, -0.2247487158f, 0.0000646618f, 0.0807078481f, 0.2192348540f, 0.1700093448f, -0.1683142781f, -0.1686689556f, -0.3111424148f, -0.3416056633f, -0.2775917649f, -0.0520596728f, 0.1589641273f, -0.1983887106f, -0.2706135511f, -0.0624147654f, -0.3268807232f, -0.1372187436f, -0.0388375372f, 0.0904593319f, -0.1851691455f, -0.0339173786f, -0.2336637825f, 0.1037124693f, -0.0914713219f, -0.3040651381f, -0.1041841730f, -0.1754913032f, -0.0902576596f, 0.5249077082f, -0.1891739219f, 0.1523143351f, -0.1262093782f, -0.1509055644f, 0.1059031561f, -0.1574278921f, -0.1160291731f, -0.0826614797f, -0.2132234275f, -0.1107273400f, 0.3125278354f, -0.0233684052f, -0.0501830280f, -0.0356967896f, -0.0981675982f, -0.0135328155f, 0.1316457242f, -0.0039154966f, 0.3885989189f, 0.1055135876f, -0.1934678704f, 0.0093723601f, 0.1456716359f, 0.0712960437f, 0.1311555803f, 0.0008492891f, -0.1049408242f, -0.0672443882f, 0.1618098915f, 0.0751127824f, 0.1090407670f, 0.1870499104f, -0.1423649341f, 0.1521110833f, -0.0094620166f, -0.0525395535f, 0.0598200411f, 0.0827088654f, -0.0839446634f, -0.2697956860f, 0.0603100210f, -0.1807537526f, 0.2998262346f, 0.1030126289f, 0.0913193896f, -0.0186277088f, 0.0721636787f, -0.0094265901f, 0.1662301272f, -0.1442613155f, 0.1155268177f, -0.2126032859f, -0.3084476590f, 0.2517283857f, -0.1474649906f, -0.0055844015f, -0.0454680845f, -0.2199281156f, -0.0319708548f, 0.1523960680f, -0.1891095042f, -0.1549139619f, -0.1928612888f, 0.2234465182f, -0.0664467961f, 0.2287992686f, 0.0862791315f, 0.0405500941f, -0.5162231326f, -0.3666104078f, -0.0868217349f, -0.0334987752f, 0.2149914056f, -0.0825464875f, -0.0496549793f, -0.1168484911f, 0.2324065864f, 0.2278876007f, -0.1292250603f, -0.1209531203f, 0.0662941709f, -0.3844289482f, -0.0310772732f, -0.1012470573f, -0.2190951556f, -0.3038049936f, -0.0261256043f, 0.0514084883f, 0.1594289094f, 0.0737885013f, -0.1338753998f, 0.0618601181f, -0.1597458422f, -0.3357525766f, 0.0981029496f, -0.1827147156f, -0.1212695912f, -0.2941714823f, 0.0334950760f, 0.1137201861f, -0.1671259850f, 0.0873663872f, -0.0520342104f, -0.0914554149f, 0.0596670881f, 0.0535655953f, -0.0799694359f, 0.0185936671f, -0.0058040661f, 0.0568555444f, -0.0102752615f, 0.0997552797f, 0.0653866455f, -0.1051575392f, -0.1148026362f, -0.1166526750f, -0.2051971257f, -0.0414021388f, -0.0971499681f, -0.1149026453f, 0.2150080353f, -0.0944399685f, 0.0132308481f, 0.1817501038f, 0.0941153020f, 0.1414555013f, -0.2628086805f, 0.2339256108f, -0.1804421842f, -0.1792262942f, 0.3543525934f, -0.0012789884f, -0.0653054565f, 0.0435533561f, -0.0550697744f, 0.0907662138f, -0.0026875031f, -0.1533198506f, -0.0780152678f, -0.1807198673f, -0.2260579616f, -0.0494902134f, -0.1620851159f, 0.2337806970f, -0.5335921049f, 0.1026605889f, -0.1439927518f, 0.5239968300f, -0.0764173716f, 0.1145826951f, 0.1223850772f, -0.1108899340f, 0.0072391531f, 0.4337134957f, -0.1714564711f, 0.1107155308f, -0.1414641589f, 0.2315273583f, -0.0185526218f, -0.1505249590f, -0.0759207308f, -0.0984024704f, 0.0660696551f, 0.0787637457f, -0.0629988983f, 0.2477796227f, 0.2167668343f, -0.1520874053f, -0.2439108193f, -0.1093554795f, -0.0674531981f, 0.2210798562f, -0.0709407404f, 0.0136286840f, 0.1295496374f, -0.0536867343f, -0.4704816341f, -0.1184323952f, 0.0502451509f, -0.1872424185f, 0.2062691003f, 0.1232481450f, 0.1204962507f, 0.4780269265f, -0.1569071561f, 0.1100707278f, -0.0103257718f, 0.0565131120f, 0.1189949140f, -0.2361510545f, 0.1163538918f, -0.2152629048f, 0.0360725485f, 0.1568541378f, 0.2869106233f, 0.0424367599f, -0.2843228281f, 0.1388053149f, -0.0884853750f, 0.0434696712f, -0.0221766345f, 0.3981373906f, -0.1625260115f, 0.0535723455f, -0.0235445853f, 0.0469193719f, -0.3194224834f, 0.0560999252f, -0.1483704150f, 0.0278994497f, -0.1080438346f, 0.2432680428f, 0.0857077911f, -0.1186685786f, -0.1535638869f, 0.1135256588f, 0.2066684365f, 0.0666811168f, 0.3827316165f, -0.1748594791f, -0.0116854683f, -0.0109482445f, -0.2155036479f, -0.0547267646f, -0.1376865059f, -0.0689770207f, 0.0880322382f, -0.0645808503f, -0.1775032729f, -0.0835790783f, 0.1367789060f, -0.3910721242f, -0.0263769832f, -0.2193324566f, 0.0413445942f, -0.0096076149f, 0.1285296977f, -0.3318607807f, 0.0800329298f, -0.0821181685f, 0.1200377569f, 0.0874671638f, 0.0146836806f, 0.1075045988f, -0.2913403511f, -0.1925494969f, 0.2859939933f, 0.1683308035f, -0.1918422729f, -0.0878599361f, 0.0905763954f, -0.1259567589f, 0.1859131902f, 0.1932079941f, -0.1140453815f, 0.1562240869f, -0.2120572180f, 0.1116514504f, -0.2821304202f, -0.5111829042f, -0.0410149992f, 0.3172114491f, -0.2512112558f, 0.1784540266f, -0.2118754387f, 0.1608885527f, -0.1169288829f, 0.2108166963f, 0.0240967423f, 0.2160950154f, 0.2765480876f, -0.4930002689f, -0.0499086156f, 0.1041045934f, -0.1306131035f, -0.0076318234f, 0.1138401926f, -0.1273977309f, 0.1737326235f, 0.1681033820f, -0.2873310745f, 0.1787631214f, -0.2027190179f, -0.0380873196f, 0.0210195109f, 0.0795193315f, -0.1963121444f, -0.1804845482f, 0.0679804385f, 0.4051617086f, 0.1529736072f, -0.2158638984f, -0.2143887132f, -0.1380421519f, 0.0218876433f, -0.0920115635f, 0.1849642396f, 0.2692377567f, -0.1849445701f, 0.1817549467f, 0.0697517619f, 0.0163026322f, 0.1642581820f, 0.0295754224f, 0.2585146725f, -0.0743693635f, 0.1368805319f, -0.1459758431f, 0.4812006950f, 0.1666306257f, 0.1058600396f, -0.0651440695f, -0.3221366704f, -0.2073076218f, -0.2743606269f, 0.1287923455f, 0.0398329198f, 0.1220936626f, 0.0561724268f, 0.1967372149f, 0.0022707894f, -0.1011418998f, 0.0856320560f, 0.1032336727f, -0.0182934739f, 0.0089834984f, 0.0227086134f, 0.0949209929f, -0.0024297882f, -0.0354318507f, 0.2181367576f, 0.0059058685f, -0.0622444190f, -0.3798626363f, -0.2095088959f, -0.2973906696f, -0.0715616792f, 0.0750918612f, -0.0781478584f, -0.0706742257f, 0.0330480635f, 0.1671850234f, 0.1146432236f, 0.1900181025f, 0.2484867871f, 0.1619566828f, -0.2230632305f, -0.3100790083f, 0.2835179269f, 0.0325083397f, -0.0020668311f, 0.0469986871f, -0.1977629513f, -0.1922988147f, 0.2597991228f, 0.2641160488f, 0.0763144419f, 0.0187105574f, 0.2026865035f, 0.0467421934f, 0.1230446100f, -0.1048528329f, -0.0001337063f, 0.2450295389f, -0.1306283027f, -0.1663512737f, 0.2193342149f, -0.0566293374f, 0.2319789380f, -0.2186280787f, 0.0133213596f, 0.1550669819f, 0.2958886623f, -0.0348243825f, -0.2530607879f, 0.2023560554f, -0.1940954626f, 0.0552745685f, 0.2767178118f, 0.1007329598f, 0.0802301094f, 0.0420111381f, -0.0287587903f, -0.0709664971f, 0.1121085584f, -0.2197452784f, -0.2038564086f, 0.4179095030f, 0.0778408200f, 0.0012224143f, 0.0098002283f, -0.1006185412f, -0.0615995787f, 0.0856598988f, 0.0919208154f, -0.4279230237f, -0.0344568677f, 0.1035218164f, 0.0204065032f, 0.3466422558f, -0.4541517198f, 0.1878886521f, 0.1564220041f, -0.3850072622f, -0.1821222603f, -0.2606421709f, 0.1334210336f, 0.2899795771f, 0.0602552295f, -0.0495020337f, -0.0169046391f, 0.1598701626f, -0.0201581065f, 0.1744023561f, 0.0813862756f, -0.0071536121f, 0.0743002743f, 0.1518001109f, 0.1235200539f, 0.3598783016f, -0.0025859787f, 0.1071326658f, 0.1957484782f, -0.1227739751f, 0.0792326629f, 0.0222199522f, -0.0408977754f, 0.1524777561f, -0.0696684197f, 0.0337677151f, -0.0826552883f, -0.0608812235f, -0.0491293781f, -0.2642061710f, 0.1623125970f, -0.0270113703f, -0.0283748209f, -0.0886643305f, -0.0294269286f, -0.2577380538f, -0.1610982120f, 0.3239954710f, 0.1683315784f, -0.2078451514f, -0.5073440075f, 0.0647624731f, 0.2317308038f, -0.1208464876f, -0.2554346621f, 0.0667791888f, 0.1354411244f, -0.0494796559f, -0.0018170585f, -0.0990262851f, 0.0476473868f, 0.2869875729f, -0.1056005359f, -0.1314069331f, -0.2797997892f, 0.2542876303f, -0.1946635991f, 0.0811572075f, 0.1962855905f, -0.2194586694f, 0.0433713272f, -0.3058583438f, 0.0774678513f, -0.0092761340f, -0.2516815066f, 0.3922694325f, 0.4097932875f, 0.0896712393f, -0.1609876007f, 0.2954623401f, 0.0886883512f, -0.0215293262f, -0.0051616873f, -0.1974426061f, -0.1999939233f, 0.2182596922f, -0.2387165129f, -0.2536765933f, 0.0900138468f, -0.1575942039f, 0.0114125973f, -0.2330280393f, 0.3741183579f, 0.1197157651f, 0.1588571072f, 0.2182233930f, 0.0134413978f, 0.1781160235f, -0.1779471338f, -0.0011423596f, 0.0055475645f, 0.0601695888f, 0.1109512299f, 0.1046944633f, 0.3034991026f, -0.1042886749f, 0.0259912107f, 0.1880393773f, 0.2683185935f, -0.2055973560f, -0.1750511676f, 0.0660878122f, 0.0179572422f, -0.1091830730f, -0.0070264707f, 0.0409545526f, -0.0283341818f, 0.3243211210f, -0.1069523022f, 0.0548846088f, -0.1136217266f, 0.0965382755f, 0.1701267809f, -0.0961115584f, -0.0662391558f, -0.0336321294f, -0.1971763819f, -0.0906253159f, -0.2361863256f, -0.1285884976f, 0.0194065161f, -0.0884971246f, -0.0129921287f, 0.0776362121f, 0.1451768279f, -0.1614467502f, -0.4520508051f, 0.2110455185f, -0.2260474116f, -0.2224300951f, -0.1973786056f, -0.1074239016f, -0.0471099950f, -0.1038899198f, 0.4951112270f, -0.0186756290f, 0.0982099995f, 0.0123565514f, 0.3645645976f, 0.2344200611f, 0.0356570669f, -0.2177032381f, -0.1471045911f, -0.2296479940f, -0.2347155511f, 0.2330006808f, 0.2365621179f, 0.0266003199f, -0.0761865899f, -0.0670560300f, 0.0014930263f, -0.1294532567f, 0.3265760541f, 0.0713322684f, -0.1518976539f, 0.0483834259f, 0.3325342834f, -0.1658332497f, 0.0228351504f, -0.2074915916f, -0.1511641741f, -0.1901349723f, 0.3662036359f, 0.1439900547f, -0.2256635725f, 0.0950665176f, 0.0078297667f, 0.0381973572f, -0.0494014360f, -0.2930485606f, 0.1044629887f, -0.0041098641f, 0.1387814879f, -0.3454987407f, -0.0586197302f, 0.1531363875f, 0.1864593178f, -0.1650903076f, -0.1206034273f, 0.1042804942f, 0.1180451587f, 0.4319663644f, 0.0002468803f, -0.0915921628f, -0.1289295405f, -0.1153304726f, 0.2025533915f, 0.1349673569f, 0.1257667691f, -0.1491778791f, -0.0670056269f, 0.1927844137f, -0.0572304688f, 0.2046549916f, -0.0531455353f, 0.1937194169f, 0.1568796933f, -0.0565809011f, -0.2946926951f, -0.0527996495f, 0.4190433919f, -0.2256818414f, -0.1138670221f, -0.1520337164f, -0.1023996845f, -0.1397271752f, -0.1036610752f, -0.0092358701f, 0.3323791921f, -0.2034780234f, 0.0568075255f, 0.3065165579f, 0.0261255968f, 0.2485109717f, -0.1256889254f, -0.1306319237f, 0.0128711676f, -0.3255891204f, 0.3341730535f, -0.1081552133f, -0.1182262525f, 0.1013470367f, 0.1179285944f, 0.1794066429f, -0.3088018596f, 0.0961062536f, -0.0832969174f, 0.0590694882f, -0.0426722802f, -0.0450099148f, -0.1636745930f, 0.1760497242f, -0.1096016467f, -0.0620037429f, 0.3169686496f, -0.2465481609f, -0.2053368241f, -0.2899240851f, 0.0051967078f, -0.1555366963f, -0.0361200087f, -0.2028053105f, 0.2781789899f, -0.1495609283f, 0.3140072823f, 0.2035315633f, 0.0273847971f, 0.1287355274f, -0.0062067630f, 0.1832192242f, 0.0001106260f, -0.3452438414f, 0.1566691250f, 0.0565575510f, -0.1262236089f, 0.2485450059f, 0.1279026717f, 0.0257291012f, 0.2143877298f, 0.0676776022f, 0.0532594062f, 0.2980613410f, 0.0209392793f, 0.1067910641f, -0.2084866613f, -0.0971074402f, 0.2451950908f, -0.0511097871f, 0.1619549692f, 0.0148848752f, -0.1231236458f, 0.0819456354f, 0.1363920271f, -0.3066840172f, 0.0035850438f, -0.0419973508f, 0.2162902802f, 0.0000141914f, 0.0157687441f, -0.2419349551f, 0.0000564283f, 0.2266334742f, -0.1296074539f, 0.0284827556f, -0.1693303287f, -0.1468175799f, -0.2038674802f, -0.0269034263f, 0.0161773581f, 0.0248603281f, 0.1564750969f, 0.2846939564f, 0.0033821387f, -0.1928480864f, -0.1348007917f, 0.0888967514f, 0.0577391647f, 0.0787497163f, -0.1493865997f, 0.0845453441f, -0.1244155616f, -0.1105220318f, 0.0954567641f, 0.1842316389f, 0.0199234467f, 0.4410203695f, 0.4089269638f, -0.0751317292f, -0.0616173036f, 0.0428859629f, -0.2999479175f, -0.1973090619f, 0.2090751976f, -0.0352144875f, 0.2397299707f, -0.2695235014f, 0.1982499361f, -0.0160580147f, 0.1583567858f, -0.0166227277f, -0.4548149109f, -0.1970358044f, 0.1233774573f, 0.2571588159f, 0.2545096874f, 0.0902115777f, 0.0929647237f, 0.0423465483f, 0.0055719726f, -0.1476097107f, -0.1945873350f, -0.2198604643f, 0.1059783548f, -0.1166291460f, 0.0933199599f, -0.3044937551f, -0.1333171427f, 0.3187669218f, -0.0733687431f, 0.1267364621f, -0.1800284535f, 0.1133398861f, 0.3804739118f, 0.2093048394f, -0.1306716055f, 0.0507975221f, -0.2226555794f, -0.0701781213f, 0.0202577524f, -0.3493898213f, -0.1139149070f, 0.0747687370f, -0.1145454645f, 0.0427291580f, -0.0917690471f, -0.1081869900f, -0.2916207016f, 0.3575620055f, -0.1817294955f, -0.0275198296f, 0.4357445240f, 0.1087776423f, -0.3042947352f, -0.2953893244f, -0.1216181070f, -0.1282397807f, -0.1243253350f, -0.0105396612f, -0.2695241272f, -0.2297134995f, 0.2446289361f, 0.1053155735f, -0.0805034563f, -0.1517043412f, 0.0766904503f, 0.0713339448f, 0.0013349407f, -0.1528111398f, 0.1773277074f, -0.2818822563f, 0.1962431222f, -0.0128212366f, 0.0898995996f, 0.0592414290f, 0.0336068235f, -0.0652122498f, -0.1017437354f, 0.1159004495f, -0.0942277908f, 0.1344995797f, 0.0673236921f, 0.2008605003f};
const float b2[] = {-0.0016566509f, -0.0029359357f, 0.0072692805f, -0.0009170393f, 0.0029947071f, -0.0023382797f, 0.0033099107f, 0.0017131554f, 0.0126379970f, -0.0024183351f, 0.0017763712f, 0.0018133044f, -0.0042289030f, 0.0096412618f, -0.0097133964f, 0.0038586324f, -0.0129167940f, -0.0020159821f, -0.0037535308f, 0.0038875327f, -0.0000623622f, -0.0022263695f, -0.0009259596f, 0.0016722418f, -0.0008018215f, 0.0002063205f, 0.0068465960f, 0.0019214399f, 0.0072117303f, 0.0019380345f, 0.0008571264f, 0.0030278713f, -0.0024916364f, 0.0014232441f, 0.0082960324f, -0.0043734182f, 0.0012323257f, 0.0011218876f, -0.0184961893f, 0.0021328409f, 0.0003983799f, -0.0053374656f, -0.0051859063f, 0.0051195840f, -0.0114362948f, 0.0021142138f, -0.0025858104f, -0.0068947612f, -0.0048809135f, -0.0062425393f, -0.0009829530f, -0.0155476937f, 0.0021118915f, 0.0005894239f, -0.0004606812f, 0.0026466134f, 0.0014637455f, -0.0069059441f, -0.0001736537f, -0.0059513031f, 0.0065534213f, 0.0062859068f, -0.0090758568f, 0.0021216571f};
const float W3[] = {0.0535835139f, 0.0333333574f, 0.1204536930f, -0.0150435772f, 0.0039610299f, -0.0208750349f, -0.0412665457f, 0.0375978798f, -0.0027464298f, -0.0142685426f, 0.0027538855f, -0.0250465460f, -0.0214805398f, 0.1419594586f, 0.0416117460f, -0.0148949614f, -0.0007803422f, -0.0155213634f, -0.1435614228f, -0.0567529872f, -0.0688421503f, 0.0623801164f, -0.0574740767f, -0.0142170135f, 0.0205260497f, 0.0180426091f, -0.0179882534f, 0.0842110515f, 0.0002449163f, 0.0691398159f, -0.0285334885f, -0.0010732019f, 0.0608318150f, -0.0174017493f, -0.0000172508f, 0.0190901589f, -0.0175667331f, -0.0005736058f, 0.0000926580f, -0.0018299852f, -0.0003193765f, -0.0439270549f, -0.0228409171f, -0.0469705202f, -0.1315485835f, -0.0007202203f, 0.0303016081f, 0.0193739310f, 0.0369186029f, -0.0138588371f, -0.0522157922f, -0.0015944378f, -0.0017956711f, -0.0031528550f, -0.0729321614f, 0.1544315964f, -0.0331834629f, -0.1606964022f, 0.0787764266f, -0.0180039760f, -0.0008133153f, 0.1984839588f, 0.0147600435f, 0.0237726737f};
const float b3[] = {0.0016822392f};

#endif