#ifndef PARAMETERS_H
#define PARAMETERS_H

const float W1[] = {0.3855802119f, -0.0545661040f, -0.0518030822f, 0.0783467963f, -0.0298013091f, 0.2327954024f, 0.0740190372f, -0.1617493033f, 0.2148233652f, 0.2727728188f, 0.2760094404f, -0.2187450528f, 0.0584590472f, -0.0377688445f, 0.0968646556f, -0.0278223176f, 0.2234601527f, 0.2524490058f, 0.3169775605f, -0.2516956031f, -0.0660320520f, -0.0298504308f, 0.0689447820f, -0.0223615393f, 0.1273227334f, 0.0260655209f, 0.1642803699f, -0.2455920577f, 0.1860139221f, -0.0588403493f, -0.3329518139f, 0.1322223395f, 0.0026339779f, -0.1513773054f, 0.0335979871f, -0.5455299020f, -0.2452033758f, -0.0495060720f, -0.0909389853f, 0.0047570821f, -0.3490405381f, -0.0203062911f, 0.1852343529f, -0.2804380059f, 0.0583601333f, 0.1910012662f, -0.1114169732f, 0.0826707780f, 0.1468215287f, -0.0664205626f, 0.0968537778f, 0.0022900582f, -0.3109255433f, -0.0676544085f, -0.0234465525f, 0.1355506629f, -0.0399539880f, -0.1207093596f, -0.0222635642f, -0.0664945096f, 0.0843203291f, 0.1457556486f, -0.1341839135f, 0.0923388079f, 0.1253414452f, -0.3647795022f, -0.1686488390f, 0.0034689365f, 0.2135331929f, 0.1071647555f, -0.1009691209f, 0.0427745953f, -0.2274423093f, 0.0221045464f, -0.2869260311f, -0.1351703703f, -0.1020107940f, 0.0893560797f, 0.1158593297f, 0.2585679293f, -0.0956850946f, 0.1337393522f, -0.0678475127f, 0.2636917830f, -0.0448631011f, 0.1884885132f, -0.0112334620f, -0.2333925366f, -0.0124763045f, -0.3736893833f, 0.2541518211f, -0.3491112292f, 0.0959784240f, -0.3828442991f, 0.2469521463f, -0.1124965921f, -0.3016182184f, 0.0372766741f, -0.0681772158f, 0.0616535470f, 0.2095648199f, -0.0004279296f, 0.0567020886f, 0.2285143286f, 0.1130782142f, 0.0929576159f, 0.3462229073f, -0.2109465599f, -0.4162142277f, -0.1338013709f, 0.0427587442f, 0.0326763131f, 0.1291058809f, 0.0598369911f, -0.1008516625f, -0.1701123118f, -0.0261321869f, 0.0470153056f, -0.0032937478f, 0.0390928872f, 0.3209519684f, -0.1807926297f, 0.0207337793f, 0.2802940905f, 0.0492540114f, -0.0637984723f, 0.2609773278f, -0.0662862882f, -0.1057074666f, 0.5854104161f, 0.2712094486f, 0.1302711070f, 0.0694554970f, 0.2052754760f, -0.2277582735f, 0.1452579051f, -0.0490297973f, -0.0280883051f, -0.3914341033f, 0.0051763305f, 0.0248341132f, 0.0605544820f, -0.2653717995f, -0.0241660941f, 0.2908954918f, 0.0533787347f, 0.0641890913f, 0.0079790810f, 0.0031776403f, 0.2736481428f, -0.2226669639f, 0.2187657356f, 0.0812634900f, -0.0363638513f, 0.3536673188f, 0.1547656506f, 0.1283750534f, 0.1016038954f, 0.0528186895f, -0.3111044466f, -0.0271802340f, 0.0429511219f, 0.0816740319f, 0.1098726019f, -0.0510823801f, -0.2681314647f, 0.1080468446f, -0.0840368569f, 0.0255005974f, -0.0436620116f, -0.1257441938f, -0.2705450952f, 0.2172656357f, 0.0357521363f, -0.0512467958f, 0.1155050844f, -0.0821399689f, 0.1002842188f, -0.0796041042f, 0.0852301493f, -0.5585283041f, -0.3396620452f, -0.2188023478f, 0.1554903239f, 0.0242532957f, -0.3761166334f, -0.3092367649f, 0.0535526723f, -0.1042648256f, -0.1689696908f, 0.0120312814f, -0.1806088835f, -0.0736323074f, 0.0937344804f, 0.0235371944f, -0.1019929275f, -0.0949358121f, -0.0927102119f, -0.3596513569f, -0.1974011511f, -0.1433083713f, 0.2243785113f, 0.0996973217f, 0.1267941892f, -0.1701642424f, -0.0552137680f, 0.0212452170f, -0.0876031294f, 0.3562069237f, 0.1384182721f, 0.2782065868f, -0.0489294417f, -0.0653584450f, 0.0325036421f, -0.0730890930f, 0.3283858895f, -0.0000302773f, -0.1442822069f, -0.1062023267f, 0.1944943815f, 0.0195790008f, 0.0083959522f, -0.1390557885f, -0.0078430725f, -0.0566799752f, 0.0607366152f, 0.2101090103f, -0.0583992191f, 0.0554640815f, -0.0374872908f, -0.0283097010f, -0.2654379010f, 0.1999120414f, -0.2550314963f, -0.2063728571f, 0.0204122029f, 0.1399139315f, 0.3954766393f, -0.0720874667f, 0.0402303040f, 0.2117282152f, 0.0572954714f, 0.5313273072f, -0.1279432923f, -0.0146707948f, -0.1213824973f, -0.2922191620f, -0.1937969178f, 0.1565706283f, -0.2041343153f, -0.1499097198f, -0.1160089523f, -0.1193583980f, 0.2139296979f, 0.0894325972f, 0.1041276976f, -0.2856236994f, -0.0997291356f, 0.1096316203f, 0.0119230375f, -0.0427258201f, 0.1338254362f, -0.2181074917f, 0.2360820323f, -0.0205982607f, -0.1354322881f, 0.1201784760f, -0.0862880871f, -0.0272250585f, 0.3771076500f, 0.1212120578f, -0.2652001381f, 0.1881983876f, 0.1136850566f, 0.0937673151f, 0.1564245224f, -0.0117815863f, -0.0861679539f, -0.1288634986f, 0.1609123200f, -0.2439917773f, 0.0754779130f, -0.2719426751f, -0.0516482517f, -0.3158535063f, 0.2647747993f, 0.5025513172f, 0.1673128009f, -0.0951301306f, -0.0226694178f, 0.0843961090f, 0.2861845791f, 0.1049435735f, -0.0824058354f, 0.0731203631f, -0.2932969928f, -0.2152634114f, 0.1367573738f, -0.1834672540f, -0.0973997861f, 0.3322101235f, -0.0390760601f, -0.2108762711f, -0.0873816982f, -0.0341269150f, -0.0161839779f, -0.2761687338f, -0.4017045498f, 0.0302201323f, 0.0896598101f, -0.3410008252f, -0.0561333410f, -0.0587973185f, 0.1420966834f, 0.0523518324f, 0.0272263270f, -0.0973044485f, -0.0894447118f, 0.0479610451f, 0.1927920580f};
const float b1[] = {0.0041562072f, -0.0071724071f, -0.0031666663f, -0.0045349323f, 0.0051762559f, 0.0035659990f, 0.0130806444f, -0.0069848443f, -0.0107998662f, -0.0152979931f, -0.0031218389f, 0.0077100471f, 0.0017824662f, 0.0070567806f, 0.0102747008f, 0.0049151559f, 0.0255426336f, 0.0073979204f, -0.0022359465f, 0.0048090769f, 0.0073920786f, 0.0156891700f, 0.0053897458f, 0.0002708485f, -0.0050325408f, 0.0125859054f, -0.0140584437f, -0.0102591561f, 0.0119043496f, 0.0048280130f, -0.0090344427f, 0.0056662993f, 0.0009624768f, 0.0074478923f, -0.0103772823f, -0.0072409580f, -0.0102691026f, -0.0086109787f, -0.0126244221f, 0.0144118974f, -0.0181261860f, 0.0214858931f, 0.0142908776f, -0.0100242179f, 0.0092365956f, 0.0211761836f, 0.0047619091f, -0.0073480760f, -0.0152677400f, 0.0178987682f, -0.0029868062f, -0.0251393467f, 0.0022596866f, -0.0090134693f, -0.0117984153f, -0.0077960375f, 0.0075002327f, -0.0151029117f, 0.0338615924f, -0.0033604419f, -0.0150179854f, 0.0067953728f, 0.0150429364f, -0.0089823278f};
const float W2[] = {-0.3967616558f, -0.2823290527f, -0.3025469780f, -0.1833559722f, 0.3229580820f, 0.1461013556f, 0.1986321807f, 0.3038946986f, -0.2536704242f, -0.0088976463f, -0.0501261242f, 0.0715221167f, 0.0046896534f, 0.0376824997f, -0.1503959447f, 0.0012436451f, 0.0414508134f, 0.1799386144f, -0.1395091861f, -0.2786360383f, -0.0605371036f, 0.0420082062f, -0.1270393878f, 0.2383090556f, -0.1571934819f, -0.0658068061f, -0.0108797168f, -0.2189385742f, -0.1367252022f, 0.0619303659f, -0.0470090210f, -0.2852954566f, 0.0168861076f, 0.0963615999f, 0.0488381572f, 0.1740681380f, -0.0758133382f, 0.0879883841f, -0.1067517102f, 0.1201953068f, -0.2722173631f, 0.1688322574f, 0.0698421374f, -0.1606800854f, 0.2800518870f, -0.1919612288f, -0.3185709417f, -0.3077590764f, -0.0691081658f, -0.0574469082f, -0.0042595756f, -0.1849354208f, 0.0323386155f, -0.0020182340f, -0.1069984809f, 0.0268432740f, -0.0332979262f, 0.1336146891f, 0.1246331185f, 0.0242758282f, -0.2610828280f, -0.0688837841f, 0.1841689944f, -0.4121395648f, 0.0762930363f, 0.1236806661f, 0.0403004363f, -0.0372484364f, 0.2047553509f, 0.2881578505f, -0.0297217052f, 0.1371853799f, 0.0876656622f, -0.3434352279f, -0.1107921526f, -0.1024937332f, 0.0319550596f, 0.0792940333f, 0.0655069873f, -0.0427521020f, 0.2402715385f, -0.1401326507f, -0.0752116591f, -0.1514411271f, 0.1329579800f, 0.1055198833f, 0.0290390458f, -0.3156406283f, 0.0376030281f, 0.1308148354f, -0.1301438957f, 0.0804650113f, -0.0800674409f, -0.4045358896f, -0.2597409189f, 0.0367980711f, -0.2341850251f, 0.2565914392f, -0.2146408856f, -0.1896315217f, -0.3509846330f, -0.3095512986f, -0.0641065985f, 0.0462510251f, -0.1450860947f, 0.1277417243f, 0.0240158886f, -0.2061675638f, -0.0224694647f, -0.0056381878f, 0.2469070256f, 0.0419575535f, -0.0865215212f, 0.2887315154f, 0.2278052568f, 0.1553064883f, 0.1269319206f, 0.1669790298f, -0.0501116998f, 0.0400081538f, -0.1578464806f, -0.2177084237f, 0.3914633691f, -0.2437337786f, -0.2061928064f, -0.0056552780f, -0.1574685127f, -0.0423508845f, 0.1205804348f, 0.1007652059f, -0.1888011694f, 0.5122749805f, -0.0118797887f, -0.0137898661f, 0.1175520569f, -0.1286248565f, 0.1233832836f, -0.2282332778f, -0.1210105047f, 0.2678111494f, -0.3216603696f, -0.2235307246f, -0.3166420758f, 0.1345664859f, 0.0313144363f, 0.3136775196f, 0.0713992342f, 0.0145819113f, 0.1876590848f, 0.0368876196f, -0.0399513170f, 0.0343271643f, 0.1770368069f, -0.0071684779f, -0.0818831325f, 0.2689705193f, -0.0270857550f, -0.1726012826f, 0.0166342072f, 0.0086897044f, -0.0237236526f, -0.1331331283f, 0.3846478760f, -0.0306869745f, 0.2167903334f, 0.1790374964f, -0.1435946524f, 0.1663979888f, -0.3222098649f, 0.1077983826f, 0.0142500782f, -0.0360129550f, 0.2092523724f, 0.0120540429f, 0.1211618111f, 0.1694843024f, -0.0827863216f, 0.0641371310f, 0.0546556264f, -0.0327743553f, -0.0108214486f, -0.2323816717f, -0.1252713948f, 0.2194298208f, 0.1799296588f, -0.2335427105f, 0.1658091545f, 0.1208461747f, -0.0002462780f, 0.3010921180f, 0.3166382015f, 0.0924837142f, -0.2959720790f, 0.1628536880f, -0.1620978266f, 0.3007320762f, 0.0167677216f, 0.2895798981f, 0.0830993727f, 0.0546967834f, -0.1164744124f, -0.0285022035f, -0.0455719605f, -0.1968294084f, -0.0571533628f, 0.1017998457f, -0.0810250342f, -0.1316621602f, 0.1527404487f, 0.1242099479f, 0.3905269802f, -0.1706948131f, 0.0859183297f, 0.0768593252f, 0.0852419063f, -0.0707707629f, -0.1182580516f, 0.0861672685f, -0.0996967852f, -0.0179547071f, -0.1019886360f, 0.1442909241f, 0.2004768550f, 0.3103597164f, 0.0949157700f, 0.1592624635f, 0.2813301086f, 0.1929079741f, 0.2303407490f, 0.0101582194f, 0.2666224837f, -0.0938951895f, -0.1488449425f, 0.1493156701f, 0.1310980171f, -0.0638164878f, 0.0569921918f, -0.0699845701f, -0.0600830056f, 0.0820672289f, 0.0203973707f, 0.0123711256f, -0.2772222459f, 0.2876360416f, 0.0642446131f, 0.3072837889f, 0.2644479275f, -0.1983364522f, -0.2831058502f, -0.0381342322f, 0.0558356456f, -0.1853102595f, 0.3191266060f, -0.3453830779f, 0.0662471503f, 0.2077634782f, 0.0155710941f, -0.0122115258f, 0.0001243592f, -0.1680912822f, 0.0883461088f, -0.1107649282f, -0.0748420358f, -0.1948125809f, -0.1817187369f, 0.0023935530f, 0.0991804972f, -0.1066068709f, -0.2953646481f, -0.4137488604f, -0.2278824896f, 0.0061242082f, 0.1627747864f, -0.1335213482f, -0.1939629316f, 0.1276154369f, 0.0568393134f, 0.0088891154f, 0.1469660997f, -0.2783912718f, -0.0174992196f, -0.0168740321f, -0.2015955001f, -0.1421331763f, -0.1120017171f, 0.1682673693f, -0.0579356700f, -0.2652630210f, -0.1301795840f, -0.1879992783f, 0.1818259060f, -0.0181282796f, 0.1414228976f, 0.1779514849f, -0.0108659603f, 0.0211413670f, 0.1441804022f, -0.1755625457f, 0.5377449989f, -0.2720173895f, -0.1846090406f, 0.0497076437f, -0.1690790653f, -0.3520590663f, 0.0994580388f, 0.0625879914f, -0.0159907024f, 0.2928605676f, -0.2208288461f, 0.1388871372f, -0.3002890944f, 0.0978043973f, -0.2688670158f, -0.1743754894f, 0.0309741590f, 0.0025209018f, 0.0157107171f, 0.0705292672f, -0.1626121998f, 0.2080620527f, -0.0574571565f, 0.2975024581f, -0.0944101587f, 0.2466718256f, 0.1463048160f, -0.0776435956f, -0.0414159484f, 0.2349230051f, 0.0500343926f, 0.1215101629f, 0.1002455875f, 0.0152882133f, -0.2994744182f, -0.0274026264f, 0.1957975924f, -0.0879811049f, 0.1293927431f, 0.1491788775f, 0.0255254917f, 0.0992653444f, -0.1553369462f, 0.4160484970f, -0.2285065651f, 0.3039434552f, 0.1651518494f, -0.2249621600f, 0.2053186744f, -0.1207470670f, 0.3014382124f, -0.1364806145f, 0.0766440853f, 0.1529578269f, -0.2870193124f, 0.1831589043f, -0.1657187343f, -0.0933075249f, -0.3294348717f, 0.2433634996f, -0.3428952098f, -0.0161668994f, 0.1117852330f, -0.1960227191f, 0.1688376814f, -0.0745769441f, -0.1058650017f, 0.1802659482f, -0.1035492718f, -0.0312567204f, 0.1040667892f, -0.2424177378f, -0.0725199133f, 0.1776862592f, -0.1765869409f, 0.1035837233f, 0.1842906326f, 0.0150880842f, -0.0766446218f, -0.2122377753f, -0.1776334643f, -0.1511731595f, -0.1191221103f, -0.0132283913f, 0.1960110366f, -0.0495062061f, -0.3265549242f, 0.1240500882f, 0.1020590067f, 0.1031682417f, -0.1549276114f, 0.1518079191f, -0.0719818994f, -0.1964718997f, -0.2140205055f, 0.0666280538f, 0.1138631105f, 0.2995567918f, 0.1070928723f, 0.0107152425f, 0.2053347230f, -0.3489116430f, -0.1698588133f, -0.1844609231f, 0.1339324713f, 0.0538332537f, 0.1334411800f, 0.0018191875f, 0.1957749128f, 0.1090486348f, -0.0427486487f, 0.0191776808f, 0.1151551008f, -0.0369015411f, -0.2468797565f, -0.2804217935f, 0.1199990064f, 0.0192716569f, -0.0034786647f, 0.0343270414f, -0.1371142417f, 0.4154718816f, -0.1795051843f, 0.2091508508f, -0.1597929448f, 0.0430062264f, 0.0604634881f, 0.0970063284f, 0.3837437034f, 0.0542262793f, -0.1507416219f, -0.0890036598f, 0.2096952647f, 0.0628687069f, 0.2903935611f, -0.0105517609f, 0.1680802554f, -0.0165420193f, 0.2801383138f, -0.1404515058f, -0.2498637438f, 0.0463588163f, 0.0182360858f, -0.1721046418f, 0.1647077799f, 0.4656895995f, 0.0595967360f, -0.1103238165f, 0.0471339934f, -0.0676865727f, -0.0673554689f, -0.0844067857f, 0.0276479572f, -0.1626097411f, -0.1446092278f, 0.1556035578f, 0.4740976691f, 0.1768866479f, 0.3274354935f, 0.0377112478f, 0.1728285551f, -0.0078403288f, -0.0450557135f, -0.5520219803f, -0.0067110904f, 0.3241969049f, -0.0774351209f, -0.0507797599f, 0.1403877586f, -0.1275977790f, -0.1174337789f, -0.1360896230f, 0.0479886234f, 0.0974067301f, 0.0193514824f, 0.1855304092f, 0.2040773481f, -0.3376840353f, 0.1072250232f, 0.0471652783f, 0.0686395988f, 0.1432712972f, -0.2247793376f, -0.0748820156f, 0.1573760211f, 0.2104301006f, -0.3659187257f, -0.1349656135f, 0.2214411497f, -0.2109852731f, -0.0900370330f, -0.2154326886f, -0.2099081576f, -0.0614015125f, -0.0972327068f, -0.0501052327f, 0.0967938974f, 0.0724955499f, 0.1854832023f, 0.1032456681f, -0.1201833636f, 0.2432831973f, 0.2357426733f, -0.1722920388f, -0.1197263151f, -0.0007789828f, -0.1180709079f, 0.0441057235f, 0.0544583872f, 0.0650988147f, -0.1343079060f, 0.0906820223f, 0.1288331002f, 0.1031798720f, -0.0502293296f, 0.2022997439f, 0.2678520083f, -0.0361009315f, 0.2415517271f, 0.1783773601f, -0.0810626522f, -0.2147725970f, 0.2110903263f, -0.1940461397f, 0.2505903542f, -0.0862919614f, 0.0711452365f, 0.2433667928f, -0.1054392233f, -0.1953325421f, -0.1509587914f, 0.1574770957f, 0.1401552409f, -0.2618900537f, 0.2466169000f, 0.2440107912f, 0.0593225136f, -0.0375475176f, 0.3227449059f, 0.1661326587f, 0.0677668154f, -0.1134570837f, 0.0001483777f, 0.0345799923f, -0.1652752459f, 0.0202258229f, -0.0063249045f, -0.2810385227f, -0.0977627784f, 0.0957966149f, 0.1611749679f, -0.3359518051f, 0.0896019340f, 0.1240521222f, 0.1571666598f, -0.3754549026f, 0.1324131787f, 0.1453453451f, 0.0950282663f, -0.0706131011f, -0.2150887102f, -0.1213326827f, 0.1136926860f, -0.2738880813f, -0.0363433622f, -0.2551115453f, 0.1226845011f, -0.0735145360f, -0.1636397839f, -0.1509117931f, -0.1515834033f, 0.0890129432f, -0.0206273366f, -0.1719787717f, -0.2032183111f, 0.1948247403f, 0.3245160878f, 0.1862636060f, 0.0037530239f, 0.0316020027f, 0.4087024331f, -0.1618745625f, 0.0818901211f, -0.0366363153f, -0.0708179995f, -0.0478254817f, -0.2446334660f, -0.0277645867f, -0.1023359373f, -0.0286642797f, 0.0927226767f, -0.4373530447f, -0.1836834848f, -0.1053251103f, -0.1576829106f, -0.0649830550f, 0.1111390367f, -0.3457601070f, 0.1701281369f, 0.0045368471f, -0.1591017544f, 0.2940192223f, 0.4573198557f, -0.0366542637f, -0.3949033916f, -0.0232790522f, 0.0981311426f, 0.0877176523f, -0.1513096094f, 0.0277344901f, 0.1980596483f, -0.0482973978f, 0.0261328239f, 0.0038455378f, -0.1248852909f, -0.1866361350f, -0.1250717193f, -0.1619664282f, 0.2049813420f, 0.2413223535f, 0.0224976465f, -0.3214001954f, 0.0504822284f, -0.1256373823f, 0.0493596047f, 0.2744404972f, 0.1481239051f, -0.1108500436f, -0.0319602601f, 0.1054115966f, -0.1325123906f, -0.1258485317f, 0.2379777133f, 0.1506658047f, 0.1449659467f, -0.0436628796f, -0.0260765515f, -0.1216095015f, 0.1944535077f, -0.0905573666f, 0.0002798680f, -0.2832460105f, 0.1686463505f, 0.0785203502f, -0.0671802834f, 0.1571320891f, -0.0029025513f, 0.1799072474f, 0.0940217897f, -0.0990056992f, -0.2486675829f, 0.0458585583f, 0.3809499145f, -0.1122310981f, -0.0662540942f, -0.0492464378f, 0.1022657603f, 0.0534585156f, -0.0252385065f, 0.0204299893f, 0.1244510561f, -0.0312046316f, -0.2249812186f, -0.1690264195f, 0.1084795594f, -0.2083809525f, 0.5506105423f, -0.1528045088f, 0.1222450659f, -0.0653695315f, 0.0001059167f, 0.1140756011f, 0.1678042859f, -0.1015508175f, -0.0377280042f, 0.2060479969f, 0.0512434170f, -0.1468364596f, -0.0915073678f, -0.2145364732f, -0.1394004822f, -0.0579580143f, -0.0194798131f, 0.3064202666f, -0.3289762139f, -0.0063357390f, -0.0576308742f, -0.0470781997f, 0.0999672413f, -0.3610814512f, 0.0015754248f, -0.0782319084f, 0.0318730995f, -0.2863932848f, -0.0870649889f, 0.3123054802f, -0.2575625777f, -0.1624548882f, -0.1690000743f, -0.0972747803f, -0.0018209759f, 0.2155182809f, 0.3969372511f, 0.1793399155f, 0.0881992206f, -0.1733275801f, 0.0722297132f, 0.2903410196f, 0.0081120571f, -0.1414119452f, -0.2492511272f, 0.2895466387f, -0.1946386099f, 0.0301281922f, 0.0460900664f, -0.1780410856f, -0.3794192076f, -0.0049623665f, 0.1263093501f, -0.2257594913f, -0.2677289844f, 0.0395878442f, -0.1858531982f, -0.0993405655f, -0.0903356671f, 0.1717470586f, 0.0639822111f, 0.0995020717f, 0.0064296471f, -0.2266124487f, -0.1327492446f, -0.0111928033f, 0.0852341726f, 0.0184703115f, 0.5188060403f, -0.0591177568f, 0.0184119232f, 0.0435518883f, 0.0810541287f, 0.2757995427f, -0.0359503366f, 0.2447220981f, 0.1457214653f, 0.0487316735f, -0.1261321753f, 0.0759974197f, 0.1054376587f, -0.1927035451f, -0.1483321041f, 0.0349989794f, -0.0010569227f, 0.2219575197f, -0.2116021812f, -0.1241709664f, -0.0155523513f, 0.2038994879f, -0.1235145777f, -0.1837072372f, -0.0494608060f, -0.1450590193f, -0.1429451853f, 0.0969861150f, -0.2967755497f, 0.0265412387f, 0.0455682650f, 0.0351067446f, 0.2203085572f, -0.2770555913f, 0.2527740896f, -0.3555080295f, -0.1128956676f, -0.1534796506f, -0.3679053187f, 0.0562517792f, 0.1933183223f, -0.1376744658f, 0.3470900655f, -0.0135135939f, 0.4481089711f, -0.1230415478f, 0.1957218349f, 0.0741913468f, 0.1519690305f, 0.0113897799f, -0.2348242104f, -0.2141706645f, -0.0320730731f, -0.2060284615f, -0.2385655940f, 0.1641506851f, 0.1295937598f, 0.1265640706f, 0.1187929437f, -0.2423855811f, 0.2373600602f, -0.2642766237f, -0.2788493335f, -0.0512185842f, 0.0026582151f, 0.0133081879f, 0.0903110579f, -0.0104908161f, 0.1525718719f, 0.1628292203f, 0.0117046153f, -0.1229341924f, 0.0664211586f, 0.0761834309f, 0.2419531941f, -0.1562378407f, -0.0002155672f, -0.0216679666f, 0.0795775279f, 0.2037021369f, -0.1165753826f, 0.1898628175f, 0.0567089953f, 0.3539315760f, 0.0714947432f, -0.2950863838f, -0.0739142671f, -0.0119930934f, 0.1329052746f, 0.1318962127f, -0.0182038825f, 0.1248814613f, -0.1652776152f, -0.0387199707f, -0.0759753361f, 0.1183807626f, -0.1340605915f, -0.0448133051f, -0.0662105009f, -0.4578532279f, -0.0836160481f, 0.0695831776f, -0.2006319463f, 0.0880652964f, -0.1955847442f, 0.0482547954f, -0.1536809951f, -0.0075249830f, -0.3492219746f, -0.3168375790f, -0.0470327623f, 0.1100127101f, -0.0103273187f, -0.2024997473f, -0.4146216214f, -0.0975791737f, 0.0896116719f, 0.0378815420f, -0.1379213780f, 0.0924163684f, -0.1276497245f, -0.2247426659f, 0.0602178350f, 0.1011072621f, 0.0239717420f, 0.2173633575f, 0.0051742145f, 0.1264563799f, -0.0228056852f, 0.1803128123f, -0.0008450567f, 0.3925336599f, -0.2240624875f, -0.2960345745f, -0.3453390002f, -0.0662937760f, -0.0833376423f, -0.0115547962f, -0.0907473713f, -0.0761926621f, 0.0119798314f, 0.2611106038f, -0.0126226991f, 0.0912729278f, -0.2074941397f, 0.0145136220f, 0.0179999005f, -0.1066113412f, 0.0212470684f, 0.0122509096f, -0.1579993069f, -0.2535547912f, 0.4094275534f, 0.1452742070f, 0.1741294563f, 0.0716713741f, -0.1776724607f, 0.0615155920f, -0.3490430117f, -0.1140048727f, -0.3393255770f, 0.1586638838f, -0.0727767199f, 0.0008192420f, 0.2301748097f, 0.0706452876f, 0.1071094722f, -0.2657378316f, -0.1525145024f, 0.0362419039f, 0.2564048469f, 0.2589052022f, -0.0573043041f, -0.1631245017f, -0.2584459186f, 0.1913941354f, -0.3492284715f, 0.1721576601f, -0.0607035458f, -0.2017127126f, -0.1096035168f, 0.1934073120f, -0.1174872741f, 0.0885298848f, -0.0387733616f, -0.0432223231f, -0.1408573240f, 0.2326164246f, 0.0663945451f, 0.0450166836f, -0.1133124158f, -0.1334836483f, -0.1651422679f, -0.0963783041f, 0.1033069268f, -0.3256061673f, 0.1029651836f, -0.0570298322f, -0.2200474590f, 0.1055343002f, 0.0932642668f, -0.2652018666f, 0.0980991051f, 0.0594786815f, -0.1566539109f, -0.0306732375f, 0.0242495723f, -0.0201371238f, -0.0201002825f, 0.5607398748f, -0.0555563010f, 0.0805051699f, 0.3540708423f, 0.0224658139f, -0.2637075782f, -0.0190401692f, 0.0675286278f, 0.2478767782f, 0.1544910520f, -0.2429703325f, 0.0071721571f, -0.1453044713f, 0.1180897951f, 0.2173193693f, 0.1684280485f, 0.1457559168f, -0.1447969377f, 0.1094771773f, -0.1604890674f, -0.0360780209f, -0.2155261487f, -0.0276841987f, 0.0167126916f, 0.1190339625f, -0.2173617482f, 0.0353647135f, -0.0146915251f, -0.1691718102f, -0.1648304909f, 0.1110346094f, -0.3523648679f, 0.0529743098f, 0.2806888223f, 0.1198083013f, 0.1538549513f, -0.4410495758f, -0.1346966326f, -0.3587097228f, 0.1620966941f, 0.0379961245f, 0.0162659679f, -0.1209875792f, -0.0283338670f, -0.2524244785f, 0.2079004794f, -0.0749477595f, 0.0241390783f, 0.0901062787f, 0.1671702564f, -0.0362169035f, 0.0617343001f, -0.1325083375f, 0.1282206029f, 0.0657395422f, -0.0956770405f, -0.3222535551f, -0.0570856258f, 0.1867111921f, 0.1811416894f, 0.1237356439f, 0.1412905306f, -0.1182194427f, 0.0805905685f, 0.1427567601f, 0.0844966024f, 0.3386026919f, -0.3131754994f, 0.1135792062f, -0.2589644790f, 0.0377309322f, -0.0070504332f, -0.1842183024f, -0.1384377778f, -0.2567846179f, -0.0201258250f, 0.1104609966f, -0.4236645401f, 0.1287417710f, 0.0387017652f, 0.2550743818f, 0.0847472325f, -0.0311492104f, 0.1445921808f, -0.1093475670f, 0.0843365267f, 0.0075017097f, -0.0981787294f, -0.0572401434f, 0.1769149005f, 0.2552618384f, 0.0032711604f, 0.2384951264f, -0.0137505215f, 0.1540973037f, 0.1440027058f, 0.0544317067f, -0.0057561323f, 0.2091145664f, 0.0966977701f, -0.1015788540f, -0.1897277534f, 0.1260495037f, 0.0216910876f, 0.2803665102f, -0.0757881179f, -0.1000528634f, 0.0222809166f, 0.2906243503f, 0.0870251879f, -0.1198155805f, 0.1054159328f, -0.1710888743f, -0.2100760490f, 0.0560823567f, 0.0129630566f, 0.2362788767f, -0.0173612591f, -0.0825358629f, 0.3716307878f, -0.1512303650f, -0.1071461737f, -0.2932910025f, -0.1697782278f, 0.0343912020f, 0.4897602797f, -0.1899957210f, 0.0517303422f, -0.4111064970f, 0.2330341488f, -0.0708857775f, -0.1049857438f, -0.1027945057f, -0.2598906159f, -0.3354040086f, 0.0485176183f, -0.1607177556f, 0.2444374114f, -0.0372702889f, -0.2111959010f, -0.1689597666f, -0.1908301562f, 0.2473694086f, 0.1291817576f, 0.1304915547f, 0.0147744045f, 0.1220114231f, 0.1578102857f, 0.0130487354f, -0.1997162253f, 0.2224065363f, 0.1818029433f, 0.0478114486f, 0.0248636845f, -0.0176209528f, -0.0841847062f, -0.0754237920f, 0.1806693226f, -0.0128421774f, -0.2372970730f, -0.1274928451f, 0.0664338917f, -0.0516735204f, 0.2067909241f, 0.1460864395f, -0.0372874476f, -0.1502965838f, -0.1911082864f, 0.0663675442f, -0.1066241711f, -0.2354624569f, -0.2279880941f, 0.1331933141f, -0.2403127104f, -0.0838927478f, 0.1045457348f, 0.1763682961f, 0.1372003257f, 0.0648358762f, 0.3245394230f, 0.0841642171f, -0.2176298946f, -0.1338988394f, -0.0683900341f, -0.2571532726f, -0.1648442298f, -0.3053189516f, 0.1272370964f, -0.1734170765f, 0.1602020562f, -0.1033499986f, -0.1817267090f, 0.0171013251f, -0.0771432146f, 0.1910577714f, 0.2797285318f, 0.2594780326f, 0.2269943506f, -0.2558202147f, 0.0296588726f, -0.0384887382f, 0.0055472055f, 0.0734295696f, 0.3038459122f, 0.4890033603f, 0.1165348515f, 0.2726833820f, -0.0351080485f, -0.2589510381f, 0.2516700029f, 0.1457565129f, -0.0495102443f, 0.4716591239f, -0.1622901708f, 0.0377983153f, -0.1976734996f, -0.2621194422f, -0.3005068004f, 0.1725178510f, 0.0651843846f, 0.3940957189f, 0.3144986928f, 0.1906840801f, 0.1132523045f, -0.0813481584f, 0.0820112526f, 0.0316834264f, -0.0505542122f, 0.0567106530f, 0.1537966430f, 0.0348194428f, 0.3175324500f, 0.1466721296f, -0.0058015250f, 0.0968305394f, -0.1333134621f, -0.0314481743f, -0.3933398128f, 0.2310293913f, 0.0997348353f, 0.0569123328f, 0.1680988073f, -0.2574592829f, -0.1077755690f, -0.0740280002f, 0.0262502525f, -0.1761734486f, -0.2210893631f, -0.1495701224f, 0.4178923666f, -0.0392020233f, 0.0519453920f, 0.1565791219f, -0.0010967335f, -0.1169240698f, 0.1024212763f, -0.0297337659f, -0.0882089585f, -0.1245211363f, 0.0447481759f, 0.3217921853f, -0.1838145554f, -0.1644948572f, 0.0541853607f, -0.0758553818f, 0.0462405905f, -0.1567281038f, -0.1709568352f, 0.0379128791f, 0.1472114623f, 0.0610241592f, -0.1782212704f, 0.1349785179f, -0.0045729014f, -0.1225467771f, -0.0768012032f, 0.2476115823f, -0.0000940151f, 0.1616671383f, 0.0893977955f, 0.2453103662f, 0.1821684092f, 0.1815328449f, -0.0600679368f, -0.0435300730f, -0.0524891801f, -0.0887808353f, 0.1283285171f, 0.1099772602f, -0.1238370836f, 0.1484953761f, 0.1062888578f, -0.1880828738f, -0.0485095792f, 0.3107272983f, 0.1714767218f, 0.0800563246f, -0.1254966110f, -0.0099108154f, 0.3668843806f, -0.0019092674f, -0.0525985062f, -0.0358585902f, 0.1536008716f, -0.0337874629f, -0.0423594639f, -0.2530147433f, -0.1387981325f, -0.1166561022f, -0.0903608203f, 0.2270740718f, -0.0452075675f, -0.0275734048f, 0.2120464891f, -0.0599444956f, -0.1459469646f, 0.2488417923f, 0.1121133193f, 0.1861594319f, -0.4098229706f, -0.1288585067f, -0.1646055281f, -0.1101928651f, -0.1452222019f, 0.0989661738f, -0.2097549140f, 0.0738941580f, -0.1094040573f, -0.0741179809f, -0.2332058698f, -0.0428075083f, 0.6859823465f, 0.1076681092f, -0.1710785031f, -0.0589509457f, -0.0207047109f, -0.2503811419f, -0.0696214736f, 0.1627169698f, 0.0831313580f, 0.0597850867f, -0.1009972021f, -0.2132053524f, 0.2828616500f, 0.0871947259f, 0.0609949715f, -0.2544053197f, -0.0612198338f, -0.0233718026f, 0.0001460394f, 0.1401730776f, 0.0117749348f, 0.1314587295f, 0.0369397663f, 0.3991390169f, -0.3346116543f, 0.1080622748f, 0.1459381282f, 0.0448929891f, 0.0080461800f, -0.0613823347f, 0.3776809275f, 0.0920553505f, -0.1987837851f, -0.2281617671f, 0.0803423524f, 0.1173803806f, 0.1663962007f, 0.1815604717f, -0.1717078239f, -0.1744415164f, -0.0486981124f, 0.0643357337f, 0.2826285958f, -0.1162592173f, -0.1478703320f, -0.2660376430f, -0.2193787694f, -0.0202132761f, 0.2115043402f, 0.0431283675f, 0.3422769904f, 0.2419958562f, -0.1431569159f, 0.0627966598f, 0.1332034767f, -0.1027276441f, 0.0364935100f, 0.0458319671f, -0.2229119092f, 0.0767902732f, 0.3705707490f, 0.2303811163f, 0.3606296182f, 0.2210450172f, 0.2169785649f, -0.0857154876f, 0.0709811524f, -0.1030325294f, 0.0392488912f, -0.0575268418f, 0.1321693808f, -0.0480671711f, -0.1546447128f, -0.2136179209f, 0.0208133031f, -0.0395358913f, -0.0303678215f, 0.1018274128f, -0.1618428677f, 0.1064877659f, 0.0176260844f, -0.2435603142f, 0.2996821105f, 0.1177583560f, 0.1004307717f, 0.1642206460f, 0.3225570917f, 0.0345468260f, 0.1548937261f, 0.1653178334f, -0.2666665316f, 0.1102013886f, 0.0436630063f, 0.0353936665f, 0.1354992986f, 0.3229115903f, 0.1389696449f, -0.0371880494f, -0.2727620006f, 0.0637482032f, 0.2376955748f, -0.1594974399f, 0.0751363039f, 0.2216566205f, -0.1232783794f, -0.1211388335f, 0.1489246190f, 0.0680014566f, 0.0765192658f, -0.0023416819f, 0.0311431624f, 0.0877437443f, -0.0465834960f, -0.2413922250f, -0.1000266522f, -0.4246124625f, -0.1458380818f, 0.0682846233f, -0.1163318232f, -0.0148972822f, -0.1802733243f, -0.0707267970f, -0.1202646270f, -0.0312874392f, 0.2895638049f, 0.0822197944f, -0.0976680815f, 0.4302449524f, -0.0250792261f, 0.3008986712f, 0.0745217353f, 0.0447324403f, 0.4517860115f, 0.0495248362f, -0.2388734370f, 0.0554094650f, 0.1461898685f, -0.2128071189f, -0.2097504586f, 0.1038436517f, -0.0315285213f, 0.1019909829f, 0.0604397543f, -0.0198596139f, 0.2026401609f, -0.0285659004f, -0.0862450972f, 0.0685203522f, 0.3003164232f, -0.0555492118f, 0.0519162826f, -0.2066956908f, -0.2948005497f, -0.0924300551f, 0.0140892379f, 0.0621848553f, 0.1730382890f, -0.1130445004f, 0.4270980954f, 0.2349263877f, 0.2763104439f, 0.1713223159f, 0.1229492575f, -0.0519222729f, 0.0037332729f, 0.0762834996f, 0.1277936399f, 0.0832608119f, 0.2402985990f, 0.0397108197f, -0.1316034794f, -0.3932631612f, -0.2836208045f, 0.0786769986f, -0.1749019027f, 0.1798513979f, -0.2998539209f, 0.0670543909f, 0.3461356163f, -0.1404734701f, 0.0579546615f, 0.1552492082f, -0.1119859666f, -0.1982582361f, 0.1049134210f, 0.2713599801f, 0.0054332358f, 0.1232428178f, -0.2610351741f, -0.1739938259f, 0.0792288929f, -0.1921466887f, -0.0860665590f, 0.3638612926f, -0.0841011927f, -0.2250087261f, 0.1035431325f, 0.0076116817f, 0.0511019155f, 0.1418850720f, 0.1382830739f, 0.0989903733f, -0.2863228321f, -0.4097261131f, 0.0328706950f, 0.0204899348f, 0.0616545342f, 0.0087956460f, 0.1754289716f, -0.1038112491f, 0.0791902691f, -0.0955379158f, 0.2380665243f, 0.0041575064f, 0.1119893864f, -0.3570155799f, 0.3489409089f, 0.0705239028f, 0.1476254612f, 0.2980400026f, -0.0698475018f, -0.2556867301f, -0.3185786903f, 0.0538593493f, 0.1721246392f, -0.1581111848f, 0.1065515354f, 0.1331225038f, 0.0908266008f, 0.1124387980f, 0.0330476947f, 0.1131852567f, 0.2370333821f, 0.0424393155f, 0.2210791111f, 0.2870508730f, 0.0386038907f, -0.2227048129f, 0.1172222272f, 0.2205879390f, 0.0362040997f, 0.0285724476f, 0.1392738223f, -0.1651629508f, 0.0217956547f, -0.0751216933f, -0.0454186238f, -0.1933179200f, -0.0540128648f, 0.2018947154f, 0.3332088292f, 0.0616854280f, 0.0263531022f, -0.0938410833f, 0.2803439498f, 0.1863453537f, 0.0114586940f, -0.3282341659f, -0.2093444616f, 0.2174008638f, -0.1454518437f, 0.0828538761f, 0.1594418734f, 0.1294092536f, 0.1113935411f, 0.0301838797f, 0.1784541458f, 0.1903581619f, 0.2053222060f, 0.0999101624f, -0.1338130683f, -0.1490208209f, 0.2658539116f, -0.0766443685f, -0.0727013573f, 0.4441673458f, 0.1414555311f, 0.0328433365f, 0.1187743992f, 0.3536232114f, 0.0594635867f, -0.4646579027f, 0.2320309728f, -0.0115891965f, -0.0409182608f, -0.0976135060f, -0.1449259520f, -0.0460883044f, -0.0714263916f, -0.0338041820f, -0.3387062550f, -0.1987890452f, -0.2065447122f, 0.2355648428f, 0.3432448804f, 0.0812253356f, -0.0546122342f, -0.0871636048f, -0.1149452254f, 0.0694400296f, 0.0721544847f, 0.0112660471f, -0.2339864075f, 0.0004710511f, -0.3695235252f, -0.2407744229f, -0.1197053790f, -0.1152480915f, 0.0281143114f, -0.0264250189f, -0.3318098485f, -0.1669548601f, 0.0666078925f, -0.0167834368f, 0.0664837062f, -0.1212257296f, 0.0536095463f, 0.0929982141f, 0.1752248406f, -0.0148749286f, 0.0538643599f, -0.3743672371f, -0.1330926269f, -0.0001148792f, -0.0488892496f, -0.0900140703f, -0.1196852624f, -0.0878499523f, 0.0880859271f, -0.1276731789f, 0.0272646472f, 0.1263691336f, 0.2481409311f, -0.3369658291f, 0.1366972923f, 0.0790789127f, -0.1669985205f, -0.5870024562f, 0.0064585679f, 0.1275013983f, -0.0123744737f, -0.0785571635f, 0.0564007200f, 0.0164693985f, -0.1715783328f, -0.0103783412f, -0.1338956356f, 0.1448897421f, 0.1884437650f, 0.2485030591f, 0.1712224633f, 0.0804730281f, -0.2039992213f, 0.1024008840f, 0.2311436534f, 0.2681400478f, -0.0422725864f, 0.0214624517f, 0.3568672240f, -0.0488088429f, -0.1426577121f, 0.1910750568f, -0.1900978386f, 0.1110125929f, 0.0137765054f, -0.2205220759f, 0.3013247550f, -0.0467777997f, 0.1996828914f, -0.0028532983f, -0.1805487126f, -0.0198891219f, 0.2463551015f, -0.4134387076f, -0.0458893627f, -0.1326767802f, 0.2637216151f, 0.0313774608f, 0.0395812765f, 0.2111845911f, -0.2470091134f, 0.0246213172f, -0.0243562050f, 0.1234462783f, 0.0203654934f, -0.1435368210f, -0.2540173531f, 0.0717165172f, 0.1284645796f, -0.0301740337f, 0.0165603831f, -0.0007507484f, -0.0679962412f, -0.2911192477f, 0.2316912264f, 0.2668507695f, 0.1396430880f, 0.1550057977f, -0.0763196424f, -0.1728645414f, -0.0422118306f, -0.0711551383f, 0.1177822426f, 0.1434582323f, 0.0694069937f, -0.1201015785f, 0.1342457533f, -0.1267381608f, -0.2180844396f, 0.1172174588f, -0.1176996306f, 0.0155327786f, 0.0693907291f, -0.2027548254f, -0.6747037172f, -0.1964841187f, -0.0455440395f, -0.2157261670f, 0.3078500330f, 0.2209297568f, -0.0117123490f, -0.1289376915f, -0.1012175009f, -0.0111688254f, -0.1779581159f, -0.2443989813f, 0.2788403332f, -0.1227516085f, -0.1728278548f, -0.2204362452f, 0.1080610976f, 0.0232337266f, -0.1431297213f, -0.0131402211f, 0.1475441158f, 0.1412216872f, -0.2215516567f, 0.0387357473f, -0.0316974185f, -0.0385333560f, 0.2241564989f, 0.1294973642f, -0.2435321957f, -0.1157530248f, -0.2246323079f, -0.0384054445f, 0.1860109270f, 0.0060033482f, -0.3076762259f, 0.2108649909f, 0.0876019672f, 0.0102197016f, -0.0167728923f, -0.2361860871f, -0.1444030851f, -0.0936381370f, 0.0085317334f, -0.0912058726f, -0.4089827240f, -0.0290694498f, 0.2274979651f, -0.0062830136f, -0.0177394003f, 0.0373174511f, -0.2748482525f, -0.1793655306f, -0.1836946756f, 0.0659252107f, 0.1611919999f, -0.1783195883f, 0.2628056407f, -0.1082970351f, 0.0803481564f, -0.1071202904f, 0.4599534869f, 0.1532713622f, 0.2711534500f, -0.2275533974f, -0.2788183391f, 0.1163176075f, -0.0355302207f, 0.2129486948f, -0.3015173674f, -0.1175378188f, 0.2602267861f, -0.0190273244f, -0.1576765776f, -0.1595689505f, 0.0654922798f, 0.0630094260f, -0.0280558094f, -0.0030159238f, -0.1156249419f, 0.0932359770f, -0.1625350118f, -0.1341803074f, 0.0951986313f, -0.2501215637f, -0.0853790939f, 0.4009241462f, 0.1516543627f, -0.0217089839f, 0.2411420941f, 0.0485214740f, -0.0505450889f, -0.2440815419f, -0.1900687516f, -0.0595215596f, -0.1207687929f, 0.0613582097f, -0.2055310160f, -0.0023740088f, -0.2055847198f, 0.0683753341f, 0.0289207846f, 0.0309793632f, 0.0293734316f, 0.1606648415f, -0.1896231771f, 0.2574711740f, -0.2664238513f, -0.2391207218f, 0.1447506994f, -0.1895916909f, 0.0806639642f, 0.1448055506f, 0.1809271723f, -0.0212716460f, -0.0823034942f, 0.1126273647f, 0.0177378189f, 0.1091159657f, 0.0181904770f, 0.1211147457f, 0.0858726352f, -0.0470518991f, -0.1053065658f, -0.0435812771f, -0.3423857093f, 0.1795730591f, 0.1442683637f, 0.0171203967f, -0.1232733577f, 0.0197662860f, -0.0865173563f, 0.0487105511f, -0.4817317724f, 0.0786597803f, 0.0447805785f, -0.0426641144f, -0.0133308880f, 0.4542239010f, -0.1114933714f, 0.0486325473f, 0.1775498390f, -0.3414220810f, 0.1668665260f, 0.0759459734f, -0.1009027213f, -0.0294409841f, 0.2058104575f, 0.1293456703f, -0.2579624653f, 0.0270376690f, 0.0892208964f, 0.1396000385f, 0.0601541400f, -0.2002716064f, 0.0415306166f, 0.1371221840f, -0.0481920801f, 0.2101003677f, -0.0233937558f, 0.0118431505f, -0.2032245845f, -0.3580039442f, 0.1309430301f, -0.3303281963f, -0.1829480678f, 0.2286034524f, -0.1446908414f, -0.1182394177f, 0.5059437752f, 0.2041235417f, -0.1518013179f, -0.0194130111f, 0.0881351978f, 0.0233723316f, -0.0308467392f, -0.2048311234f, -0.0689772964f, -0.1847579628f, -0.1005688086f, 0.1272756308f, -0.0780260488f, -0.1229329407f, -0.2519571781f, -0.2050954401f, 0.2396063209f, 0.0746601969f, -0.2869381309f, 0.0675784498f, -0.0654852390f, 0.2884931862f, 0.1165096611f, 0.0387661308f, -0.0984654576f, 0.0253059287f, 0.1595401019f, -0.3430871665f, 0.0466891415f, -0.1369853318f, -0.0609804541f, 0.1256059259f, -0.1041629538f, 0.2257249504f, 0.2125534266f, 0.5038377047f, -0.0806380063f, 0.0711748749f, 0.0228262264f, -0.2471624762f, 0.0446062647f, -0.0272846352f, -0.2642348111f, 0.1174986884f, 0.0335166827f, 0.0080268886f, 0.2564722598f, 0.0540463701f, -0.2184919119f, 0.0933624506f, 0.0578034706f, 0.1190304756f, -0.0604334809f, -0.2194709480f, 0.3145955801f, -0.0104966015f, -0.3413642943f, 0.2039058506f, -0.0206178315f, -0.0262779109f, -0.0070342617f, -0.3000091016f, -0.2281409204f, -0.0511053689f, -0.2234256864f, 0.3527249992f, 0.2869999111f, 0.1573148817f, -0.1504475623f, -0.1780165434f, 0.2250956297f, -0.0649520606f, -0.1246469021f, 0.2977423072f, -0.1755619049f, 0.0179643892f, 0.0649915636f, 0.1373041719f, 0.0741162747f, -0.1007920653f, -0.0351818427f, -0.0102092130f, -0.0490779877f, -0.0774873793f, 0.3123860359f, -0.0262864083f, 0.0394111313f, -0.2421522737f, 0.2648712993f, -0.0020404025f, -0.1740645766f, -0.3363442123f, 0.1155300289f, -0.0313611925f, -0.0932820216f, -0.3589821160f, -0.0079791686f, 0.3552171886f, -0.1679062247f, -0.0012470548f, 0.0726681501f, -0.0681888610f, 0.4422639310f, -0.2046054900f, 0.0779496059f, -0.0250942223f, -0.1412340701f, 0.0354965031f, -0.0333186649f, -0.2922613323f, -0.1601431817f, 0.1947422326f, 0.1385475993f, -0.0959585831f, 0.1782017946f, -0.3600034416f, -0.1009536982f, -0.0399452262f, -0.2302283347f, -0.1655440181f, -0.1982525587f, -0.0472754724f, 0.1780979186f, 0.1697592139f, 0.0715265796f, -0.0426189117f, -0.2600128353f, -0.1539576948f, 0.0301674996f, -0.0309497155f, -0.1369593740f, 0.0994029492f, 0.0187605713f, -0.0594704263f, -0.0828450844f, 0.0901090577f, 0.0274251401f, -0.3384768963f, -0.0017137675f, -0.1237644181f, -0.0882645026f, -0.2420088500f, 0.4052151144f, -0.2597233951f, 0.0397778898f, 0.0229046363f, -0.0658762306f, 0.1437943578f, -0.0404352471f, -0.1690538377f, -0.3240667582f, 0.1939389259f, -0.1046409756f, 0.1797336787f, -0.2244231850f, -0.0283102896f, 0.0867316946f, -0.0346858129f, 0.3647678494f, -0.0066985753f, 0.3515453637f, 0.1867767274f, 0.0411000550f, -0.1286663413f, -0.1395668238f, -0.2838909626f, 0.0883490071f, -0.1821518689f, 0.1409454644f, 0.0488674976f, -0.1934698373f, 0.0895054787f, 0.3356126845f, 0.0392386578f, 0.0861052200f, 0.0385963954f, -0.0516975522f, 0.1291412115f, -0.2022265792f, -0.1853708029f, -0.0454503745f, 0.0443985537f, -0.1670970470f, 0.2257476151f, -0.2135353982f, -0.1094189435f, 0.2045791596f, -0.2219686508f, 0.2088013589f, 0.2875271142f, -0.1191359311f, 0.1665174961f, -0.2726184130f, -0.0452680029f, -0.1020457894f, -0.1480241567f, 0.0524322540f, -0.0480020829f, -0.1055703685f, -0.1857186556f, -0.1339611411f, 0.2761042118f, 0.0675856397f, -0.0823332146f, 0.0607793741f, 0.3610982895f, -0.2545854151f, -0.0840956569f, 0.0056027127f, -0.3081104159f, -0.0696790963f, 0.0801401436f, 0.2893211246f, -0.0199772585f, -0.3909356296f, 0.2553989589f, 0.1874058396f, -0.2244227678f, -0.0059487289f, -0.0506674163f, -0.0757190362f, -0.0154197067f, 0.1784335077f, -0.0599031821f, -0.3664176762f, 0.2179133147f, 0.3307448030f, -0.3543608487f, 0.1003635526f, 0.0062691774f, -0.2074378282f, -0.1505443305f, 0.1180582419f, -0.0669466630f, -0.2035389245f, -0.0870102048f, 0.0848636106f, 0.2437857091f, 0.1188976392f, -0.0662868842f, 0.0838332176f, -0.2364872098f, -0.1002091095f, 0.1267686188f, 0.0432473980f, 0.0085762041f, -0.0177165698f, 0.0657616481f, -0.1962676942f, -0.0738022700f, 0.1468055248f, -0.1923815310f, -0.2293697596f, -0.1213430241f, 0.1750754416f, -0.1964992732f, -0.2015316933f, -0.1945604682f, -0.1698026508f, 0.4597584009f, 0.0947570428f, 0.1701944917f, 0.0415718853f, -0.5330713391f, 0.2555683553f, -0.1500579119f, 0.0096725849f, -0.1821426898f, 0.3315362632f, -0.1009499282f, 0.0184101723f, -0.0578544028f, 0.0716799498f, -0.2066319287f, -0.1849621832f, -0.3075998425f, -0.1599344462f, 0.1040152386f, 0.0037644482f, -0.1828852594f, -0.1304046661f, -0.0042273551f, -0.1906335503f, 0.2488318086f, 0.0554269142f, -0.2322221547f, -0.0914264470f, -0.0333974361f, -0.1856617033f, 0.0568821020f, 0.0080913929f, -0.0717348605f, 0.0487064719f, 0.2062886655f, 0.0626216605f, -0.1830808371f, -0.2677354813f, -0.0685580224f, -0.1459797025f, 0.0732871294f, -0.0354231447f, -0.0694972724f, 0.1794470102f, 0.2856853902f, 0.0836246014f, -0.1649903208f, -0.4152396321f, 0.0325252861f, -0.0940971822f, 0.1481152177f, -0.0658633783f, 0.1000407860f, 0.1881288737f, 0.0368626975f, 0.0691952333f, 0.2492094487f, 0.0946353525f, -0.0135252597f, 0.0711932108f, -0.0093223928f, 0.1389674693f, -0.1288411915f, -0.0489282720f, -0.1609219462f, -0.4080018401f, 0.1103142723f, -0.0541340746f, 0.1211580932f, -0.2196682841f, -0.5053012371f, 0.0535008311f, 0.1548203975f, 0.0959275961f, 0.0639795735f, -0.0109201968f, -0.0163283683f, -0.0579498149f, 0.0916736946f, 0.0795884654f, -0.0695014596f, -0.0846725032f, -0.2089065760f, -0.1734916121f, 0.0068057142f, -0.1597397476f, 0.0860808119f, 0.0441910140f, -0.1053044721f, -0.0001153853f, 0.1914131939f, -0.0506614894f, -0.1993651092f, -0.3040578663f, -0.1027399004f, 0.1482134461f, 0.1001698375f, -0.5202490091f, 0.1368072778f, 0.1352134496f, -0.1101999581f, 0.2261793464f, -0.2688854337f, -0.0789038315f, -0.0739390403f, -0.1240214556f, -0.0896461904f, 0.0505744554f, 0.1287215650f, 0.0820560381f, -0.3668128550f, 0.1108756512f, -0.0595188029f, -0.2462456077f, 0.4467734993f, 0.0754904002f, -0.2860811949f, 0.0747019500f, 0.0092898123f, 0.0799122676f, -0.0910744518f, 0.0038237912f, -0.0693434179f, 0.1594728082f, 0.0914185643f, 0.1133254096f, -0.0109286839f, -0.2293025255f, -0.3087490201f, 0.0919776559f, -0.0196077954f, -0.1484801918f, -0.0102655003f, -0.0465577506f, -0.0782813579f, -0.1596765667f, 0.1513751745f, -0.0481254868f, 0.1091129631f, 0.1545393914f, 0.0516005754f, -0.2075779587f, -0.2585654855f, 0.1917158514f, -0.2435672879f, 0.2264972627f, 0.3239572942f, 0.1246880367f, 0.3055711985f, 0.0113136703f, 0.0285548959f, -0.2290529460f, -0.1030029356f, 0.2438224554f, -0.0865738168f, 0.0893399790f, 0.2605146766f, 0.0095319711f, -0.2912292778f, -0.0706219226f, -0.1686300188f, -0.0609797724f, -0.1628335267f, -0.0378818847f, -0.2528358400f, 0.0274259914f, -0.1132969037f, -0.2887422144f, -0.0080404822f, -0.2215410769f, -0.2678475976f, -0.1824634373f, 0.1349073648f, 0.1755044311f, 0.2210138291f, 0.0028247091f, -0.0650051609f, 0.1127798334f, -0.0870750546f, -0.0781296864f, 0.1970891505f, -0.0687174723f, 0.2441931367f, 0.0150915179f, -0.0880492926f, 0.0880668089f, -0.2291087210f, 0.1046171710f, 0.1104439571f, 0.4841864407f, 0.1374039203f, -0.0343375690f, 0.0745824054f, 0.0651531294f, 0.2784977853f, 0.0895396173f, 0.0585586429f, -0.0486600026f, 0.2390153408f, -0.2186657488f, -0.0013367194f, 0.2031426132f, 0.0546242334f, 0.3587615192f, -0.0026437852f, -0.1915410906f, 0.1225539222f, 0.1754803509f, 0.0957191065f, -0.3625432849f, -0.1865592897f, 0.0160403922f, -0.1772458255f, 0.2140633911f, -0.0067025209f, -0.0100091435f, -0.0179027226f, 0.1431035548f, 0.0509588420f, -0.0130023034f, 0.2293820828f, -0.0784754306f, -0.0600751042f, 0.1979001611f, 0.0124007910f, 0.0652682260f, 0.0713112876f, -0.4148827195f, -0.0567444861f, 0.1092203707f, -0.0450870134f, 0.0733294934f, -0.2377527207f, 0.0007849277f, -0.0001937836f, 0.2944851518f, 0.4900847673f, 0.1398669332f, -0.0208609737f, -0.0848137960f, -0.1699779928f, -0.0740363821f, -0.2505952418f, -0.1225204319f, -0.2194865495f, 0.0035349224f, 0.0637066364f, 0.0382436626f, -0.4072443545f, 0.0852194354f, 0.0311946571f, 0.0151415179f, -0.3022373617f, -0.1203530729f, 0.3321882486f, 0.1644137055f, -0.0003907503f, 0.0511304513f, -0.0330672972f, 0.3301921785f, 0.3085771501f, -0.1427966654f, -0.0201715417f, 0.0597740486f, 0.1622323543f, 0.1703347862f, 0.0256036222f, -0.0435446575f, -0.3927943707f, -0.0736759305f, -0.2169288248f, 0.1295153648f, -0.0342337787f, 0.0096861627f, 0.0599469431f, 0.1046147794f, 0.1364153624f, 0.2065840364f, 0.2651947141f, -0.1379257143f, -0.0932880789f, 0.1218813136f, -0.3059924543f, -0.4153322875f, -0.1446713209f, -0.2598983943f, 0.1366964132f, -0.0658821240f, 0.0713762417f, -0.1396928728f, -0.1441170424f, 0.0996084511f, 0.0798159242f, 0.1807428896f, 0.0637557581f, 0.1202677488f, 0.0548836812f, -0.1883662492f, 0.3108334541f, -0.0142293526f, -0.0252673980f, -0.2897411287f, 0.1846353710f, -0.3212665021f, 0.3340266347f, -0.1732249409f, -0.1361163557f, -0.1732587367f, 0.0748293698f, 0.2184997946f, 0.2026523203f, 0.0359173864f, -0.1100406498f, -0.0536563806f, 0.2808355391f, 0.1713236570f, 0.0863631070f, 0.0101536196f, 0.0550282113f, 0.0916189924f, 0.1658796221f, -0.0984230638f, 0.0150974235f, -0.1606902033f, 0.2278532982f, 0.0656121150f, 0.0348768644f, -0.2239156663f, -0.2419203073f, 0.1881647259f, 0.0703066811f, -0.0953891873f, 0.1288696975f, 0.0497561172f, -0.1839112788f, -0.4646235406f, -0.2325651199f, 0.0000283948f, -0.0983606279f, -0.2346741259f, -0.0401052423f, 0.0816283897f, 0.1731103808f, 0.0254753940f, -0.0708799586f, 0.0060857702f, 0.2427221984f, 0.1132346839f, -0.0021534644f, -0.2534320652f, -0.3469305634f, 0.0447079428f, 0.0817783996f, 0.1444990486f, -0.2119982243f, 0.1446238011f, 0.1661857516f, 0.0161875468f, -0.3081338108f, -0.1873435676f, -0.2338036895f, -0.1678598821f, -0.2443332225f, -0.1047307774f, -0.2149958611f, -0.3120341897f, 0.2854148746f, -0.2914424539f, 0.0117105488f, 0.1214243248f, 0.1469559819f, 0.0313634053f, 0.0109315654f, 0.0192696247f, -0.0822257921f, -0.1740743965f, -0.1561730355f, -0.1319601685f, 0.2254201025f, -0.3198917508f, -0.1434683055f, -0.0093840845f, 0.2208451629f, 0.1658814549f, 0.0336165726f, -0.1826429814f, -0.0813420564f, -0.0450844541f, -0.2130945772f, 0.0715069249f, 0.0706205666f, -0.2103762627f, -0.0132439695f, -0.1885417849f, -0.1809503436f, 0.2298887670f, -0.2894138992f, 0.4191280305f, -0.1783840358f, 0.0280759446f, -0.2143265605f, -0.2145369202f, -0.3425567150f, -0.0647419691f, 0.2306414247f, 0.0299790017f, -0.2126316875f, -0.0158878937f, 0.0662214682f, -0.0179293826f, 0.0770488828f, -0.0894731060f, -0.2868172824f, 0.1012983620f, -0.0817984641f, -0.0265359357f, -0.1684559584f, 0.2907498181f, -0.0798927695f, -0.0738328695f, 0.0661746636f, 0.0302597564f, -0.1029907763f, -0.1444911659f, 0.1363477111f, -0.0598670505f, 0.2876094580f, -0.1783399880f, 0.1339980364f, -0.4282994270f, -0.0953994915f, 0.1835438162f, -0.1910677105f, 0.0492418632f, -0.1674996465f, 0.3345335722f, -0.1630887389f, 0.1567293555f, 0.0729568228f, 0.0741109028f, -0.1332119703f, 0.0374660380f, -0.2726529539f, 0.2283734828f, 0.0885241702f, 0.2081511766f, 0.1608312875f, 0.1478928626f, -0.0223865695f, -0.1304775178f, 0.1320102811f, -0.0676253513f, -0.1977353394f, 0.0749956369f, 0.0408732854f, 0.0496407412f, 0.1548082530f, -0.0102853253f, 0.0399053842f, 0.1141539142f, 0.0094458526f, -0.0081510376f, -0.0895868614f, 0.1361916065f, -0.0350506641f, -0.2097408772f, -0.3595370948f, 0.0642693490f, -0.0659145787f, -0.0728839263f, 0.5607796907f, 0.0667654276f, 0.0489602499f, 0.0663860217f, -0.0014564957f, -0.0348575786f, -0.0680814013f, 0.1626697183f, -0.0773386210f, 0.0676065013f, 0.0071123769f, 0.1189922169f, 0.0293360837f, 0.4001826346f, -0.1785662174f, -0.1782927215f, -0.0363011248f, 0.0514695831f, -0.3008299768f, 0.0073385611f, 0.2262423187f, -0.2751800716f, -0.1229889318f, 0.2656078339f, -0.0332249738f, -0.0326361395f, 0.5088449121f, -0.0144461617f, -0.0404925756f, 0.0186563507f, 0.2838889062f, -0.3916594684f, 0.0258339476f, -0.0693061203f, -0.2476870418f, -0.0457747355f, -0.2934814692f, -0.0688576102f, -0.2241897136f, 0.0171345025f, -0.1479985863f, -0.1621941179f, 0.0567488670f, 0.2901661098f, 0.2467896640f, 0.0922256261f, -0.0222963374f, -0.0521908402f, 0.2452124953f, -0.1102849394f, -0.1246159375f, -0.1917604655f, 0.0918815210f, 0.0529272892f, 0.1320993900f, 0.0327059403f, 0.2052579671f, 0.2550702393f, -0.0088566067f, 0.0588688888f, 0.3210300505f, -0.1073230356f, -0.3636688888f, 0.0595931150f, 0.1143166423f, 0.0858970508f, -0.1602429152f, 0.1251686215f, -0.1743472517f, 0.0050120470f, -0.2222822607f, 0.0661911815f, -0.0323976688f, 0.3011276424f, -0.1760063916f, -0.0238056276f, -0.3097265065f, 0.1243935004f, -0.0922264531f, 0.1238104999f, -0.4412417412f, 0.2501153648f, 0.0338003449f, 0.1666955501f, 0.1635388136f, 0.1195291057f, -0.0333245359f, -0.3400056064f, -0.0461495779f, -0.0738173053f, 0.0994429365f, 0.1337637007f, 0.3042187691f, 0.1649368554f, -0.1249096766f, -0.0923584998f, -0.0004664029f, -0.1892863512f, -0.0095800143f, 0.2667404115f, -0.0233349167f, 0.0232768878f, 0.2535994053f, 0.2359734327f, -0.1787447184f, -0.0558437817f, 0.2500053942f, -0.0173081532f, 0.0702573434f, 0.3629675210f, 0.1117453352f, -0.1315055192f, -0.1281300187f, 0.4517807961f, 0.0294861346f, -0.3855811954f, -0.0158812907f, -0.2488445342f, 0.0389914326f, 0.1043226942f, -0.1682118028f, -0.1966051310f, 0.1810236424f, -0.1612608135f, 0.0730655417f, -0.1271738261f, -0.1298996955f, 0.0016521130f, 0.2316209823f, -0.2674562037f, 0.2674601376f, -0.0898340121f, -0.1907730848f, -0.0268810950f, 0.0330924653f, 0.0712299794f, -0.1726247370f, 0.1058689728f, -0.0443980731f, 0.1071578935f, -0.1462202668f, -0.1142637581f, -0.0677080899f, 0.2067002505f, -0.1460906416f, 0.0243443456f, 0.3281835020f, -0.1182092205f, -0.1955429465f, -0.3165836334f, -0.0769533142f, 0.2295319438f, -0.2113051116f, -0.1429143995f, -0.2923868001f, 0.0923713818f, -0.1704562902f, -0.0010293497f, -0.2122862339f, -0.1900308579f, 0.1634181291f, -0.1869581193f, -0.1359200925f, -0.1780882329f, -0.0114237815f, 0.1265363544f, -0.1448033899f, 0.0154644279f, 0.0778988749f, -0.1103883535f, -0.1464838982f, 0.0737205595f, -0.0270587727f, -0.2954317331f, 0.1068501770f, -0.0257891081f, -0.0147799850f, -0.2510964274f, -0.3002443612f, 0.3205350041f, -0.2149486542f, -0.2162228376f, -0.0745176598f, 0.2839093506f, 0.2952552736f, 0.0280844718f, 0.1444766074f, 0.2153970301f, 0.0921767727f, 0.2792451680f, 0.0395767912f, -0.0545713082f, 0.0225509666f, -0.0142137436f, 0.3053407967f, -0.0151727702f, -0.2419461608f, -0.1268878281f, -0.0936351568f, 0.1241158620f, -0.1509131640f, 0.2634610236f, 0.1365895271f, -0.0400580205f, -0.3041740656f, 0.2395077795f, 0.1378475875f, 0.2587099671f, 0.2129119337f, -0.0727031976f, -0.0867711678f, 0.0527943857f, 0.0322086401f, -0.2480475754f, 0.2336161584f, 0.1818175167f, -0.0937961936f, -0.1391808689f, -0.0423037335f, 0.1027539372f, -0.0264627766f, -0.0047083329f, -0.2332122773f, 0.1793138683f, 0.0948114991f, 0.0630915090f, -0.2742964923f, -0.2489596009f, -0.0868110061f, -0.2071770579f, -0.1719640791f, 0.0977567658f, -0.3530528545f, 0.1261847913f, 0.0718013346f, 0.0897631794f, -0.5738623142f, -0.0399482846f, -0.1972367913f, -0.1834791154f, -0.2286997139f, 0.0786646008f, -0.1480460912f, 0.0368859097f, 0.1282603592f, -0.1597403139f, 0.0469287187f, -0.0367658511f, -0.0110409437f, 0.2636247575f, 0.1600620896f, -0.0191734489f, -0.1036960781f, 0.2211070806f, 0.0154170208f, -0.0011980842f, -0.0622444786f, 0.2684053779f, -0.0816641152f, 0.1698803455f, -0.0320838355f, -0.0012753331f, -0.0676895380f, 0.3430934548f, -0.0684184879f, -0.0816938505f, -0.1438856721f, -0.1208988354f, -0.1819334030f, -0.1355651915f, 0.1869186163f, -0.1014348567f, -0.3353494108f, -0.3361211121f, 0.0602356717f, -0.0165193230f, 0.2052370906f, 0.2505296767f, -0.1174006313f, 0.1133970320f, -0.0600768551f, -0.2359247208f, -0.0256616287f, -0.2201319933f, 0.0800063387f, 0.0698630661f, 0.0077931890f, 0.0092137633f, 0.1015491113f, -0.0860257149f, 0.1130934954f, 0.1156580672f, 0.1960256100f, -0.0143563068f, -0.5338848829f, 0.1577396542f, 0.1641701311f, -0.1256100982f, -0.1746501178f, -0.0881803036f, -0.0063535925f, -0.1156245694f, -0.0674274415f, -0.2014007568f, -0.0896102116f, 0.2551470399f, -0.0579209663f, 0.0166880433f, -0.1467058510f, 0.1325999349f, 0.1292474270f, 0.0639432743f, -0.0495465361f, 0.0442045778f, 0.2399267405f, 0.1543185860f, 0.0218244232f, 0.0919002444f, -0.0810386762f, 0.1394438893f, -0.2015827149f, -0.0198586080f, 0.3527453244f, 0.1748577654f, 0.0011844288f, -0.0888092369f, -0.2769277096f, -0.0111799818f, -0.0696272030f, 0.1938024908f, 0.0194227938f, 0.2196487486f, 0.1152521744f, -0.1374881417f, 0.0166074708f, -0.3334987462f, -0.3716783226f, 0.1672484726f, 0.1060574800f, -0.1631903648f, -0.3081601262f, -0.0270139966f, 0.0573545918f, -0.3422094584f, 0.0890980959f, 0.1870244443f, 0.1043303087f, -0.5121776462f, -0.0966025218f, -0.2129712552f, 0.2507632673f, -0.1111748740f, 0.1140684187f, 0.2532711029f, -0.2221212387f, -0.1117794961f, 0.0459032729f, -0.2790902853f, 0.1224573553f, -0.0891359895f, -0.1001967192f, 0.1285404563f, -0.1479230821f, -0.0489095487f, -0.0158527344f, 0.0702704564f, -0.0678624362f, -0.0166104361f, 0.0307871886f, -0.1243995875f, 0.0592245981f, 0.1058906019f, -0.3636464775f, -0.1428678930f, 0.1789698601f, 0.1831486970f, -0.0670370609f, -0.1608368903f, 0.0831828639f, -0.1136282831f, 0.1900298148f, -0.2262487561f, -0.3149544299f, 0.2464616895f, -0.0867064372f, -0.0337325260f, -0.0720917806f, -0.3582675457f, -0.0078171622f, 0.0770512372f, 0.0338595323f, 0.1367332488f, 0.0797238573f, -0.1254824102f, -0.2424809039f, -0.3088482320f, 0.2737204432f, -0.0848651007f, -0.0919352397f, -0.0442310944f, 0.1087862402f, -0.2379069924f, -0.0694673955f, 0.1090385094f, 0.1083411202f, -0.0831608698f, -0.2880084515f, 0.0065601273f, 0.3310909569f, -0.0831718817f, 0.1062800959f, -0.3567411900f, -0.0688201040f, -0.2900920808f, -0.3090485930f, 0.0307382382f, 0.0692482218f, -0.1506127417f, -0.3594112396f, 0.2063530535f, -0.1614982337f, 0.0222681332f, 0.0242619049f, 0.3283396363f, -0.1206365377f, 0.3059433699f, 0.1480924934f, 0.0008272417f, -0.0253226981f, -0.1002451330f, -0.0047190809f, 0.2921899557f, -0.1543715447f, -0.1364282370f, 0.0640276149f, 0.1922620684f, 0.1087092757f, 0.3386118114f, 0.1418793350f, -0.1131345555f, 0.1424179077f, 0.0780090094f, 0.4686439335f, 0.1117685214f, -0.0060284580f, 0.1192383766f, 0.1216022000f, -0.1013559550f, -0.0909413546f, -0.3006619513f, -0.1787133515f, -0.1090755910f, -0.1362732798f, -0.1813561916f, -0.0749607161f, -0.0919116810f, -0.0356134810f, -0.0026124232f, -0.1348196715f, -0.1016637385f, 0.0304604787f, -0.1687259972f, -0.2020879239f, -0.3188088536f, -0.0117540145f, -0.0276042316f, 0.2352216095f, -0.0000420728f, 0.0150568243f, -0.0753297061f, 0.0882601365f, -0.2272593379f, 0.2471581399f, -0.0547347106f, -0.0223661289f, 0.1145916209f, 0.3073967993f, 0.0499175899f, -0.2657094002f, -0.3130107224f, 0.0110927168f, -0.3391513526f, 0.0326889791f, -0.4717802405f, -0.1124695837f, 0.1963334680f, -0.0829945654f, -0.1300070733f, -0.0082789501f, 0.4243978858f, -0.3984078765f, -0.0098925177f, 0.3780975342f, 0.0747741908f, -0.2342487872f, -0.0267268717f, -0.0973543152f, -0.1075963229f, 0.0616289265f, -0.1147062406f, -0.3305570185f, -0.1135792583f, 0.2199854404f, -0.1316654384f, -0.1114854738f, 0.0211305860f, -0.1459970921f, 0.1903580874f, -0.0195016954f, 0.2108334154f, 0.2324083447f, 0.0820559636f, 0.1428425312f, -0.0014769308f, 0.0232115947f, 0.0130624697f, -0.3039025068f, 0.3716508448f, 0.0451400131f, -0.0994475558f, 0.0598842986f, -0.0936591253f, -0.1620580703f, 0.0884352699f, 0.0449119732f, -0.0432890877f, -0.1183409318f, -0.0051422622f, 0.1540800035f, 0.0450587831f, 0.1671485603f, -0.1587014496f, -0.0709574744f, -0.0239635184f, 0.0974519849f, -0.1347021163f, -0.2313893586f, -0.0549479239f, 0.0524358675f, -0.0378089771f, 0.1465446502f, 0.3303024173f, -0.1840693206f, 0.0495605245f, -0.0520485304f, -0.0886073112f, -0.1105659828f, 0.1917608678f, 0.4530239105f, -0.1953123510f, -0.2018278390f, -0.1612341702f, -0.0642598420f, -0.0457339399f, 0.1687414199f, -0.0011034694f, 0.0440051593f, -0.1135589927f, -0.0667737573f, -0.0221922789f, -0.2965610623f, -0.0359006263f, -0.1083133966f, -0.0714272484f, 0.2590191662f, 0.0494714677f, -0.1299985200f, 0.2838055491f, 0.2860711217f, 0.4107824564f, 0.0538581870f, -0.2851307690f, 0.1622843593f, -0.0783024579f, 0.1375339925f, 0.3307155669f, 0.1735673100f, 0.0548045672f, 0.0403099023f, -0.0603495240f, -0.1126354262f, 0.1030398533f, -0.0186031964f, -0.4107493162f, -0.0406352319f, 0.2736031711f, -0.0578101315f, 0.1420518458f, 0.1404791325f, -0.0231236722f, -0.1356303096f, 0.0105898874f, 0.3224668801f, -0.1627922207f, 0.1624311060f, -0.2394189537f, 0.1137757301f, -0.1513582021f, -0.1938007027f, -0.0462937020f, 0.1132871434f, 0.3025425971f, -0.1646120250f, -0.0053995913f, 0.0514998958f, -0.2884753048f, 0.1738879681f, 0.1318508387f, -0.2419033498f, -0.2154754251f, 0.1634002179f, 0.1328539550f, 0.0910973847f, -0.2392320931f, -0.1425729543f, 0.1171886623f, 0.0074343905f, -0.1653254330f, 0.1386978626f, -0.0777802095f, -0.0547202118f, 0.2706162930f, 0.1293839216f, -0.1417694092f, 0.0167976916f, -0.0381100588f, 0.2432868034f, 0.0210643951f, -0.0904497057f, -0.0407815054f, -0.0438715108f, 0.1796701252f, -0.1132111251f, 0.1953020394f, -0.0156567562f, -0.0288351700f, 0.2043694556f, -0.1759912670f, -0.0302527528f, 0.1321340352f, 0.0142014381f, 0.1894242913f, 0.4667956531f, 0.1758888364f, 0.1806811839f, 0.0425101109f, 0.2930276692f, -0.0713219419f, -0.1557000875f, -0.3889852166f, -0.0696547255f, 0.1041676402f, -0.1904869229f, 0.3449125290f, -0.1978302449f, -0.1442116499f, -0.0060395868f, -0.1776822209f, 0.0018629645f, -0.0318384543f, 0.0918907002f, 0.3592728674f, 0.1798526645f, -0.0544314794f, 0.2918069363f, 0.3360342681f, 0.0485446602f, 0.0585179031f, 0.1878921092f, 0.1447711289f, -0.2787703872f, -0.0867081359f, 0.0493829399f, 0.0231362171f, -0.0308674667f, -0.1383453459f, 0.0642005131f, 0.0505852960f, -0.2033542246f, -0.2134996653f, -0.3025916219f, -0.4244193435f, -0.1301504374f, -0.1538975388f, 0.1565400958f, -0.2305218726f, -0.2110541165f, 0.1739191413f, -0.0030049228f, 0.2376711667f, -0.1405877620f, -0.3308319151f, -0.2255608737f, 0.1280552447f, -0.1729135215f, 0.1214095801f, 0.1446238309f, -0.0114473896f, 0.1187704504f, 0.2536878586f, -0.0207543634f, -0.1433695406f, -0.0449613668f, 0.1861769855f, 0.0392098129f, 0.1791934669f, -0.2798981369f, -0.1962257028f, -0.0000709085f, -0.1941343397f, -0.2228575200f, -0.1401632130f, -0.2368790358f, -0.4330667257f, -0.1526598036f, -0.2038629055f, -0.0605693609f, 0.1623448581f, -0.1940997541f, -0.0626527965f, 0.0032052600f, 0.2570389509f, -0.0676536337f, 0.0474493653f, -0.1182212830f, 0.1230764166f, 0.1095102355f, -0.0148851620f, -0.0425001159f, -0.0913799852f, 0.0928471908f, 0.1662453413f, -0.2956348062f, -0.0788758099f, 0.0325927325f, 0.1439575851f, -0.0280826055f, -0.0847512484f, 0.0007900678f, -0.1645905674f, 0.2054487616f, 0.0399262160f, -0.3953612447f, 0.0981703550f, 0.1687073708f, -0.2365617454f, 0.1357742995f, -0.1006041616f, -0.2298196256f, 0.3105842769f, -0.1349129677f, 0.5356308222f, -0.3869008124f, -0.2759714127f, 0.0399362929f, -0.0440140776f, 0.2782756984f, -0.0799594894f, 0.2496418059f, -0.0682313070f, 0.0763313323f, 0.0578305908f, -0.1180559918f, 0.2218951583f, 0.0068132249f, -0.2327677011f, 0.2007458806f, 0.0009848003f, -0.0371840596f, 0.1560950875f, 0.1183151528f, 0.1217174307f, 0.0054660309f, 0.1363905668f, -0.1750212908f, 0.1084011793f, 0.1475664377f, 0.0813362524f, -0.1130893454f, -0.0210465211f, -0.1114304364f, 0.0266036801f, 0.1935922205f, 0.1325572282f, 0.0686604381f, 0.2105391473f, -0.0247613136f, -0.1532962620f, -0.1968282312f, -0.0938336104f, 0.1054214239f, -0.0271032993f, 0.0401509553f, -0.0222364329f, 0.3806781173f, -0.1095883176f, -0.3150346279f, -0.1433480680f, -0.3214269578f, 0.0541114509f, 0.0481091850f, -0.1156813428f, -0.0874004588f, 0.1655847430f, -0.1677636504f, 0.0275962129f, 0.0151422257f, -0.2704750896f, 0.0560887493f, -0.0449096151f, -0.1643524766f, -0.0327120572f, -0.0499089174f, 0.2167430520f, -0.1083846167f, 0.0668501556f, 0.1193224490f, 0.2294584960f, 0.0562220551f, 0.3031112850f, 0.1210194379f, -0.1531995386f, -0.1201387718f, 0.0951110944f, 0.1707654297f, -0.0254462212f, -0.0332650915f, 0.0109090414f, -0.1626389623f, 0.3114496171f, -0.3575536311f, -0.0294713695f, -0.0101669524f, -0.1232256517f, 0.1119657606f, 0.2105069309f, 0.1026272327f, 0.5361744165f, -0.0808913186f, -0.1756112874f, -0.0569392592f, 0.0426844135f, -0.1723542213f, -0.3953548968f, 0.1063305587f, 0.2805333436f, 0.2933399677f, 0.0707370043f, 0.0558030978f, 0.0152781354f, 0.4295809567f, 0.0760028437f, -0.1103095114f, 0.0010955830f, 0.0876236036f, -0.2072152644f, 0.1995038092f, 0.0451000668f, 0.0070083002f, 0.2835873663f, -0.1285172999f, 0.0723040402f, 0.2863382697f, -0.0427076966f, -0.1605175138f, -0.0509277806f, -0.2853464186f, -0.0142649403f, -0.0828451067f, 0.1822000891f, -0.1333074570f, 0.0860157460f, 0.1236869171f, 0.1034575850f, 0.0523989312f, 0.2791031897f, 0.0466422439f, 0.1726671308f, -0.1291504502f, 0.0052703614f, -0.0278447103f, -0.1213770658f, -0.0263021532f, -0.2550124824f, -0.0246042758f, 0.1728317589f, 0.2309640050f, 0.2904745638f, 0.0774442777f, 0.0140444813f, 0.1108034998f, 0.0888451785f, -0.3295336068f, -0.0466635525f, 0.0260235649f, 0.1029808000f, -0.0443977006f, 0.0964928344f, -0.0219579991f, -0.0907071382f, 0.0038314983f, 0.0899963230f, 0.2304697931f, -0.2226861715f, 0.0939033106f, -0.1640535593f, 0.0921607763f, -0.0326898210f, 0.1986695230f, 0.0722969770f, 0.3436567187f, 0.3721934855f, -0.2657732666f, -0.2854330540f, 0.0866019428f, 0.1238600910f, 0.0381639190f, -0.0621018447f, 0.3526148200f, 0.1475292891f, -0.0445354655f, 0.0764265358f, 0.3137307763f, 0.0481541753f, 0.0387362130f, -0.1956078112f, 0.1582598835f, -0.1176592633f, 0.3549581468f, -0.1498153359f, 0.1086587384f, -0.3224817812f, 0.2587509751f, -0.1634674668f, 0.2641415298f, 0.2334783375f, -0.0909176320f, 0.0562046133f, -0.0131336907f, -0.3566142321f, -0.0060988842f, 0.1689437777f, 0.1721247882f, -0.1562905610f, 0.2121404558f, -0.1471545398f, 0.2159834504f, -0.1073392555f, 0.1007674411f, 0.1460073143f, -0.1130539626f, 0.2126773149f, 0.2463176697f, -0.4945217371f, 0.1951201260f, -0.1594268382f, 0.1831762195f, 0.0830809399f, 0.3746217489f, -0.0930239633f, -0.2317426056f, 0.2784618735f, 0.1265040040f, 0.0907935724f, -0.1340181381f, -0.1773444861f, 0.0303422101f, 0.1470693201f, 0.0806433111f, 0.1828308403f, -0.4963887334f, -0.1194444895f, 0.2357879281f, 0.1882518232f, -0.0238661356f, -0.0546648391f, -0.1054346189f, 0.1122097820f, 0.0103192665f, -0.1394356936f, -0.0956681222f, 0.0368553475f, 0.0860054642f, 0.1890835911f, 0.0287905522f, -0.2176426500f, 0.0767845958f, 0.2259752452f, 0.2086533457f, -0.0466933921f, 0.2302053869f, 0.1154881716f, 0.1075215340f, -0.0977077782f, -0.0333437808f, 0.1621147692f, 0.0368137509f, -0.1499543190f, -0.0385626070f, -0.0018382845f, 0.0322603732f, 0.0336592905f, -0.0297218971f, 0.1140759364f, -0.0886230692f, 0.2544592619f, -0.1143418401f, -0.0977585986f, 0.2500696778f, 0.2229452580f, -0.3504103124f, 0.1497981697f, -0.3558631241f, 0.1282246411f, -0.0877628550f, 0.0204449818f, 0.2417199016f, 0.0558576360f, -0.1949983984f, 0.1841095686f, 0.1767203659f, -0.2353947908f, 0.3580906093f, -0.1466998309f, 0.2665220201f, -0.0422933213f, -0.1185021922f, 0.0573137030f, 0.4057490528f, -0.3331778347f, 0.2498935312f, -0.1104452163f, -0.0096092299f, 0.3017608523f, -0.1191285849f, -0.0497706309f, 0.0284135342f, 0.1079877466f, 0.3025158048f, -0.1937266290f, -0.0005384079f, 0.0113314660f, 0.2186023444f, -0.0177118890f, -0.0929149538f, -0.1651301682f, 0.0965792239f, 0.1838205457f, 0.0233519487f, 0.0889123604f, 0.1009961218f, -0.2527788877f, -0.0774520263f, 0.1678190976f, -0.1399690807f, -0.2187463194f, -0.2239467055f, -0.1956412345f, -0.0304812770f, 0.1421897411f, 0.0934528410f, 0.0319175199f, -0.0601562075f, 0.0995907560f, 0.0493742488f, 0.1115572006f, -0.0493156612f, -0.0012660853f, -0.0523910597f, -0.1899883300f, 0.4204496741f, 0.2332792878f, -0.1594607830f, 0.0805331692f, -0.0973531231f, 0.1030268297f, -0.1708536595f, -0.2408540100f, -0.0003094256f, 0.1754319817f, -0.0609636605f, 0.1216738075f, -0.0588104241f, -0.0782427713f, 0.1276310384f, 0.2868447006f, 0.1869312227f, 0.1620669067f, 0.2651799023f, -0.1943937838f, -0.2159790099f, -0.0647366717f, 0.1563777179f, 0.0601995252f, 0.0870923027f, -0.0028334635f, 0.0965041369f, -0.0997289643f, -0.2152993530f, 0.1117415950f, 0.2689405680f, 0.0189969689f, -0.0231753308f, -0.1318376958f, -0.6383893490f, -0.0185203850f, 0.0952556953f, 0.0654878169f, 0.1240684241f, 0.2118494511f, 0.1402273029f, 0.0548380986f, -0.1945997030f, 0.0253218561f, 0.0005717662f, 0.2850659490f, -0.2836540639f, -0.2672195733f, -0.1270790845f, 0.1205188707f, -0.1408721954f, 0.0067578661f, 0.0356358476f, 0.0911709294f, -0.2122463882f, -0.0574288145f, 0.1180011556f, -0.2665380836f, -0.1612069309f, 0.5157895088f, 0.0282102041f, 0.0331720971f, 0.1286896616f, -0.1151065752f, 0.2390158921f, 0.2506731153f, -0.1940502226f, -0.0727697313f, 0.1439393312f, -0.0623665936f, -0.0125310747f, -0.0277240500f, -0.0347927101f, 0.1833053827f, -0.0061360328f, 0.0939299166f, -0.2344937921f, 0.0302142687f, 0.1808402836f, -0.1757446378f, -0.0416137166f, -0.1058491990f, 0.0731947944f, -0.0286920518f, 0.0973330885f, -0.0065674740f, 0.1065598726f, -0.1294449270f, -0.1670263559f, -0.0615112744f, -0.0117954426f, 0.0543372482f, -0.2505160570f, -0.0038707682f, -0.0397243649f, -0.2152135819f, 0.1211303398f, 0.3125136793f, 0.1542751342f, 0.2401643693f, -0.0065288758f, 0.2042562664f, -0.2711657286f, 0.5232046247f, -0.0139352679f, 0.0260041412f, 0.0649996772f, 0.0002880990f, -0.1485533863f, -0.2311869711f, -0.1342578530f, 0.1569221914f, 0.3432878256f, -0.2281353474f, 0.1700480133f, 0.0302494541f, 0.1382653117f, -0.1343806088f, -0.1898831576f, -0.0889167041f, -0.2904195786f, 0.2371907979f, -0.1782019585f, 0.1852167845f, -0.2142888010f, -0.0850198343f, 0.0024328250f, -0.3331451118f, -0.0000839910f, -0.1511159539f, 0.0467343666f, 0.1554179341f, -0.2604386210f, 0.1641107351f, 0.4534406364f, 0.0738854334f, 0.1115944758f, 0.1065833494f, -0.1029268727f, -0.0331665799f, -0.0352234058f, 0.0462963022f, -0.0976656228f, -0.3450965583f, 0.0868270174f, -0.1336908340f, 0.0248601269f, 0.1186867431f, 0.1522799879f, -0.0426991247f, -0.2760933638f, -0.0420667976f, 0.3159551024f, 0.0101118023f, -0.0186444446f, -0.3162432313f, 0.2451034784f, 0.0929677263f, 0.0975348502f, 0.1713917106f, -0.0188444015f, 0.0643624142f, -0.0468046777f, 0.4006833732f, 0.4640307426f, 0.1563731730f, 0.1374215186f, 0.0140946386f, 0.1288988292f, -0.1021455973f, 0.0757327527f, -0.1049808413f, -0.0686838925f, -0.0420608744f, 0.0410874747f, -0.1947107166f, -0.1829837561f, -0.0734048560f, 0.1373545527f, -0.0205527917f, -0.0179224741f, 0.3608097434f, -0.2404296845f, -0.1227508858f, -0.1180490255f, 0.0426171944f, 0.1382814497f, 0.0921827853f, -0.3102931082f, 0.2590907514f, 0.0103603965f, 0.2385845035f, -0.1017977595f, 0.0065903980f, -0.1358594298f, -0.0800081566f, 0.2466073930f, -0.0891154557f, 0.1960469782f, -0.0575518869f, -0.2839248180f, -0.0200362448f, -0.0341835953f, 0.1220146120f, 0.1290266067f, 0.1389526874f, 0.1172142252f, -0.0957840234f, 0.0163911916f, 0.1624529362f, 0.0356720537f, 0.1297163367f, 0.2747968733f, -0.0563033782f, 0.5166751146f, -0.0474059656f, -0.1307450980f, 0.2240787894f, -0.0591495037f, -0.0110646458f, 0.2830147743f, 0.0275993440f, 0.3617231250f, -0.1296202540f, -0.2290158570f, 0.0288789961f, -0.0878736526f, 0.0033992797f, -0.0687799752f, 0.1162677631f, 0.0235907044f, -0.2466668040f, 0.2779065669f, -0.1753471494f, 0.0434987098f, -0.5506960154f, -0.1783370972f, 0.0835437775f, 0.0162807461f, 0.0451310240f, 0.0196021013f, 0.0151894884f, -0.3269363642f, -0.1160199866f, 0.1450938135f, -0.0214306600f, -0.0400045775f, -0.1704234779f, -0.0348810293f, 0.0770390332f, -0.0667271391f, 0.0334021375f, 0.1296397895f, -0.1417764872f, -0.0086564710f, -0.2098514140f, -0.1195415109f, 0.2903176546f, 0.0321408436f, 0.0155846700f, 0.0544507876f, -0.3168227971f, 0.1253253222f, -0.0798253268f, 0.0052056625f, 0.2879497111f, -0.0711400509f, 0.0735899359f, 0.1394847929f, 0.0168611202f, -0.0927011743f, 0.3874771893f, -0.1070047393f, -0.0368531160f, -0.0785318390f, 0.0555963479f, 0.0207829028f, 0.2344683260f, 0.2368937433f, -0.2592606246f, 0.5676323771f, -0.3350511789f, 0.3315316439f, -0.0315572023f, -0.0436125584f, -0.2014297247f, -0.1920197904f, -0.1059658006f, -0.0486342907f, 0.0310167987f, -0.0418816507f, 0.0841986090f, -0.2135347128f, 0.0269676521f, -0.1474440992f, -0.2897653580f, -0.1234829351f, -0.2478635013f, -0.0482832603f, -0.1734122634f, -0.2062083781f, -0.1166773140f, 0.0148147047f, -0.0229343809f, -0.0421838015f, -0.1389914304f, -0.0201049894f, 0.0987323225f, -0.1246465147f, 0.3183735013f, 0.1261144727f, 0.1371175498f, -0.0690411627f, -0.0146939578f, -0.2663959563f, 0.1554831266f, -0.0274759978f, -0.2398882359f, -0.0758064538f, 0.1365293115f, -0.1963518858f, -0.3248324096f, -0.2545900643f, -0.1168442369f, -0.2557977736f, -0.0296988618f, -0.0090315640f, 0.1582231522f, 0.0241993740f, -0.0918261260f, 0.0929308012f, -0.0711648241f, 0.2012518495f, -0.0893028155f, 0.2303650230f, -0.0103855701f, -0.0082240850f, -0.1251136214f, 0.0876181349f, 0.0368745998f, 0.0332993977f, 0.0643755719f, -0.3484231532f, -0.1022779718f, 0.0002746989f, -0.1993429363f, 0.0721879080f, -0.3071477711f, 0.0930251926f, 0.2045914829f, 0.0698919520f, -0.1608694941f, 0.1799910516f, 0.2658683062f, -0.2082126290f, -0.0751701966f, -0.2045781016f, 0.1248910874f, -0.2148913890f, 0.0093178675f, -0.0109675247f, 0.0343876481f, 0.2387232631f, -0.0092874542f, 0.1651403159f, 0.1835055202f, -0.1739339232f, 0.1589163989f, 0.0209840108f, -0.0454190001f, -0.6476323009f, 0.2109950036f, -0.0836573467f, 0.0003675258f, -0.1081428602f, 0.2923088670f, 0.0158926472f, 0.1263374388f, -0.2012291998f, 0.0618227720f, 0.0178121869f, 0.2627567649f, 0.1981158108f, 0.1306582242f, 0.0852586254f, 0.1482381374f, -0.0302633215f, 0.0069486066f, -0.0712846294f, -0.0805526748f, 0.1560363472f, 0.1892048419f, -0.2778554261f, 0.2912085354f, -0.4084373415f, 0.1652515829f, 0.3203732371f, -0.0980471671f, 0.0270776358f, 0.0094806897f, -0.0447938256f, 0.1844946593f, -0.2675747275f, -0.0409469791f, -0.3355320394f, 0.0409652628f, -0.2006213218f, 0.1681661457f, 0.1725451499f, 0.1088903397f, -0.3052198887f, 0.0247384347f, -0.0114768753f, -0.1165290549f, 0.0320317596f, 0.3159995675f, 0.3034086823f, -0.0680100098f, 0.0009391405f, 0.1126975939f, -0.0051887352f, -0.1928271353f, -0.2609348893f, 0.0205578245f, -0.1445941925f, 0.2822215557f, -0.0683374256f, -0.0836452097f, 0.1349956840f, -0.2612299323f, 0.0731069148f, 0.3104641736f, -0.1373340040f, 0.1476395279f, -0.2882212996f, 0.1228725463f, -0.0386212207f, -0.0399879403f, -0.1889795810f, -0.2216006815f, 0.0593619123f, -0.0765733868f, -0.0160925556f};
const float b2[] = {0.0145829450f, -0.0005979416f, 0.0234115086f, 0.0079624904f, -0.0018248069f, -0.0045617362f, 0.0004589553f, -0.0041199704f, 0.0033563871f, -0.0100139482f, 0.0010583950f, 0.0047629145f, -0.0046910332f, -0.0095243026f, -0.0082329549f, 0.0068230964f, 0.0006901939f, 0.0006945005f, 0.0035445669f, 0.0047208667f, 0.0013741746f, 0.0054418496f, 0.0052882205f, 0.0012987228f, 0.0031705527f, 0.0005460409f, -0.0041619847f, -0.0088980058f, 0.0028548974f, -0.0022446613f, 0.0015026948f, 0.0040539405f, -0.0054739187f, -0.0014399232f, 0.0014213542f, 0.0061907060f, -0.0098998500f, 0.0107547296f, -0.0058482788f, -0.0048249727f, -0.0012398730f, 0.0025892151f, 0.0059445621f, 0.0071573672f, -0.0020263819f, -0.0040043322f, 0.0042605177f, 0.0053901440f, 0.0044055907f, -0.0006771729f, -0.0028740203f, -0.0015662269f, 0.0015710500f, 0.0031855293f, 0.0047568758f, 0.0016810704f, 0.0138292555f, -0.0009516811f, -0.0009833775f, 0.0035811025f, 0.0045675132f, 0.0088080475f, 0.0016608957f, 0.0155087234f};
const float W3[] = {-0.0809508935f, 0.0085928487f, -0.0501505621f, -0.0088939220f, 0.0367732123f, -0.0121425679f, 0.0157164689f, -0.0041585523f, 0.0794481933f, 0.0561464019f, 0.0270700399f, -0.0153280823f, -0.0836253166f, 0.0331293307f, -0.0103995251f, -0.0087067503f, -0.0614358857f, 0.0019599916f, 0.0485529080f, -0.0010067247f, 0.0751537904f, -0.0097659957f, 0.0678270832f, -0.0373961553f, -0.0574649386f, -0.0569565855f, 0.1597486138f, 0.0124184694f, -0.1807501167f, 0.0557931103f, 0.0033778111f, -0.0061762570f, 0.0186247434f, 0.0134068588f, 0.0629943684f, -0.0011310697f, 0.0595426299f, 0.0001117408f, -0.0859452039f, 0.0399147570f, -0.0748301446f, -0.0032826604f, -0.0313323960f, -0.1022515371f, 0.0671516582f, -0.0436264239f, 0.0328501314f, 0.1438816339f, -0.0035441548f, 0.0050826347f, -0.0059417784f, -0.1096694022f, 0.0029777386f, -0.1176117659f, -0.0086550070f, -0.0173862465f, -0.0732183084f, 0.0430501141f, 0.0519246347f, -0.0200842451f, 0.0652401075f, 0.0498591959f, 0.0047200038f, -0.0515651107f};
const float b3[] = {0.0228334926f};

#endif