#ifndef PARAMETERS_H
#define PARAMETERS_H

const float W1[] = {0.4917553663f, -0.0541105494f, -0.2186232060f, 0.0696028844f, -0.1249193847f, -0.5016044974f, -0.1849314421f, 0.3507385850f, -0.1660014838f, 0.0955826640f, -0.6101860404f, -0.2830394506f, -0.3119588792f, 0.1535468400f, -0.2058266252f, 0.4872512519f, -0.1983058453f, 0.1997385919f, -0.0622598976f, 0.0657324642f, 0.4308959842f, -0.0333404131f, -0.0545192622f, -0.6177214980f, 0.0001211713f, -0.6644717455f, -0.0395114012f, -0.1186909676f, -0.0042526689f, 0.0547241867f, -1.0442051888f, -0.4650157094f, -0.0083252927f, 0.1103504524f, -0.2781218886f, -1.1713999510f, -0.2031389475f, -0.0895518139f, 0.0813566148f, -0.1981424689f, 0.3708371222f, -0.1614580601f, 0.0895806700f, 0.0585214794f, 0.3298156261f, -0.6206339598f, -0.0558150448f, 0.2282273471f, -0.0745881423f, 0.0599632151f, -0.5567415357f, 0.0349043459f, 0.1637104303f, -0.0519764721f, 0.0643012151f, -0.5488891006f, -0.0655293465f, -0.1020565778f, 0.0015722378f, -0.0296719577f, -0.8104130626f, -0.2871609926f, -0.0253935009f, -0.0091272248f, -0.0286205076f, 0.9926396012f, 0.2646664977f, -0.1092708185f, 0.0857145116f, -0.0762600452f, 0.6842724085f, 0.0793112963f, -0.1415881366f, 0.0295887794f, -0.1540067047f, 0.6313568354f, 0.1873877794f, -0.1607221216f, 0.0454751514f, -0.0207482334f, -0.7408334613f, -0.0232283864f, 0.0284003317f, -0.1426182985f, 0.1862857938f, -0.6063004732f, -0.3837356269f, -0.0699974895f, 0.0577330738f, -0.0808082893f, -0.3059859276f, -0.2035875320f, -0.1643408984f, -0.0746536553f, -0.0332518667f, -0.1881799549f, 0.0438165963f, 0.2040480226f, -0.0889739543f, 0.0747323111f, -0.6030429602f, 0.0111063402f, -0.1064402089f, 0.1315653324f, -0.0339190587f, -0.8624187112f, -0.2268064320f, -0.1745804697f, -0.0396417677f, -0.0275219157f, 0.7273885012f, 0.4156838953f, 0.0569561869f, 0.0676993877f, -0.0204995014f, -0.9095649123f, 0.3115563095f, 0.3891215324f, -0.1563109010f, -0.0783518255f, -0.0179631673f, 0.0394824110f, 0.1186989993f, -0.0260128751f, 0.0356148817f, 0.7468568087f, 0.1442509592f, 0.2064234614f, 0.0134579455f, -0.1208074167f, 0.6241431832f, 0.0798675269f, -0.2515581250f, 0.0803646222f, -0.1096968278f, 0.0530061461f, 0.1632604450f, 0.2752701938f, -0.0790899098f, 0.1006837264f, -0.5113260150f, 0.2670916021f, -0.1007881314f, -0.0457021818f, 0.0110434834f, -0.4332304001f, -0.0294256248f, 0.0778802112f, -0.0246274639f, 0.0307141449f, 0.6807934642f, -0.0152452784f, 0.2804834545f, 0.1547268778f, -0.2513266206f, 0.5981140733f, 0.2533146739f, 0.0733014271f, 0.1183389127f, -0.1260832250f, 0.8924747705f, 0.4571818709f, 0.0284220129f, 0.0895819142f, -0.0090881921f, -1.0050665140f, -0.2628698647f, -0.0479445383f, 0.1324917823f, -0.2064077407f, 0.1857374460f, 0.2066452503f, -0.0327299200f, -0.0671196207f, 0.0282389075f, -0.4835397303f, -0.2916027308f, -0.0890456438f, -0.0202479754f, 0.0257051755f, 0.1715131551f, 0.1376783997f, -0.0939779803f, 0.0632234514f, -0.0604269877f, 0.7150008678f, 0.2339413613f, 0.1357841790f, 0.0937493593f, 0.0458372310f, -0.7052243352f, -0.1644263268f, -0.1788333058f, 0.0812987164f, 0.0135360025f, -0.8911100030f, -0.3826076388f, -0.3295917809f, 0.0889730006f, -0.1585313529f, 0.8176988959f, 0.1346089393f, 0.1336403489f, -0.0313089937f, -0.0208379421f, -0.3730890453f, 0.2498096079f, 0.2106569409f, -0.0531322286f, 0.0968057513f, -0.4988970459f, -0.1131491214f, 0.2822183967f, -0.0756215751f, 0.1229796037f, -1.0928432941f, -0.1187500656f, -0.2087989748f, 0.0996143147f, -0.0338341370f, 0.7384085655f, 0.0748376995f, 0.0962740555f, 0.0333792940f, -0.1347285509f, -0.7146298885f, -0.1253879070f, -0.2018797845f, 0.1387006640f, -0.1429987848f, 0.2070747912f, 0.0352358446f, 0.2243270576f, -0.1004619747f, 0.1013229787f, -0.5581401587f, -0.4004026353f, 0.1434707642f, -0.1531001329f, 0.2364436090f, 0.8845244646f, 0.4705509245f, 0.1425084323f, -0.0093902117f, 0.1110978872f, -0.5228101015f, 0.0191600937f, 0.2896391451f, -0.1070045233f, 0.0061160200f, -0.2075793296f, -0.1311266720f, -0.0062605282f, -0.0187108498f, 0.0216434691f, 0.9136421680f, 0.4502356350f, -0.3194846213f, 0.1216408089f, 0.0953294188f, 0.0939619094f, 0.1123282686f, -0.1593155265f, 0.1037393361f, -0.0878816098f, -0.0006735458f, 0.0595141612f, -0.1702950597f, 0.0558126979f, -0.0517935157f, -1.0694179535f, -0.0915847495f, -0.3070997298f, 0.1240549162f, -0.1477244049f, -0.6220999956f, -0.1979655176f, 0.1859491467f, -0.1113073677f, -0.1178923622f, 0.0773280263f, -0.0590542778f, -0.0791717842f, 0.0732376203f, -0.0916839242f, -0.5740208626f, -0.2556294501f, 0.0833719000f, -0.0856123865f, -0.1342398375f, -0.5080763102f, -0.0439793132f, -0.0546105132f, 0.0584790520f, 0.0821506754f, -0.2872845531f, 0.0608858988f, 0.0766500384f, -0.0238074306f, 0.0338655449f, 1.1293605566f, 0.0646849573f, 0.1729626954f, -0.0362955891f, -0.0768658966f, 0.9137453437f, -0.0593639463f, 0.1172969714f, -0.0211937409f, -0.0051970603f, -0.8511608839f, -0.0745913759f, 0.0080481395f, 0.0837460533f, -0.1293132752f, -0.8650940657f, 0.0481080450f, -0.1895030141f, -0.0194286685f, 0.0612002462f};
const float b1[] = {0.0061547528f, 0.0040032426f, 0.0262442231f, 0.0105349878f, 0.0016308265f, 0.0008343788f, 0.0184571091f, 0.0074820714f, 0.0087797605f, 0.0074043903f, -0.0083032046f, 0.0082263816f, 0.0063327411f, -0.0038830091f, 0.0093689561f, -0.0013489958f, -0.0015638125f, -0.0080490112f, -0.0017893121f, 0.0054068509f, 0.0051108864f, -0.0081105158f, 0.0187810920f, -0.0426150113f, -0.0082766777f, 0.0054007214f, -0.0066839647f, -0.0036292607f, -0.0151347928f, 0.0005490659f, 0.0171382017f, -0.0064440914f, 0.0023589986f, 0.0044445274f, -0.0328836553f, 0.0059338943f, -0.0005787921f, -0.0144621786f, 0.0117568066f, -0.0054120747f, -0.0126696872f, -0.0104998704f, 0.0095289322f, 0.0068116006f, 0.0163429528f, -0.0114539675f, -0.0114174476f, 0.0066843592f, 0.0087346872f, 0.0014955705f, -0.0045008347f, -0.0274277627f, 0.0191761162f, -0.0051396443f, -0.0079657426f, 0.0112204347f, -0.0116285635f, 0.0132348109f, 0.0203323402f, 0.0006213740f, -0.0078670103f, -0.0021303303f, 0.0143738464f, -0.0108820880f};
const float W2[] = {0.2921563983f, -0.0426012166f, 0.2700659335f, -0.1316167563f, 0.1814000010f, -0.0270963050f, -0.0733104795f, -0.0542706214f, -0.0534163006f, -0.0953551903f, 0.0249914248f, -0.2654652894f, 0.2659040093f, 0.3111016750f, -0.2151139677f, 0.1635170132f, 0.0763026699f, -0.2618412971f, -0.2316350639f, 0.0742187873f, -0.1553976238f, 0.1611877382f, -0.0053441478f, -0.4274809361f, 0.2011172175f, -0.0018895474f, 0.0232140720f, -0.2125607580f, -0.1299730688f, 0.2049227953f, 0.1055544466f, -0.1649518460f, 0.2544953227f, -0.1218348294f, 0.0697704479f, 0.0769590214f, 0.0353527889f, 0.1447190642f, 0.1053508446f, -0.1405314356f, -0.2310427129f, 0.1451140046f, -0.1301475018f, 0.2235662490f, 0.2142574042f, 0.0882706642f, -0.1253219247f, 0.1203333810f, 0.0125318086f, 0.0647424310f, -0.1582314968f, 0.0641716495f, -0.0553307869f, -0.1397761106f, 0.1009537652f, 0.1220689714f, -0.1308854222f, 0.0497885644f, 0.1932147890f, 0.0947104618f, 0.4012815952f, 0.0373557582f, 0.5145340562f, 0.0686569512f, 0.0042519001f, 0.0139683234f, 0.1196957156f, 0.1978768110f, -0.0475384034f, 0.0801732838f, 0.1579743773f, 0.1353786141f, 0.0138309887f, 0.1813891381f, -0.0906435400f, 0.1049152687f, -0.1822270453f, 0.0651052445f, -0.0952534080f, -0.2003303617f, 0.0409337729f, 0.0353276283f, 0.0786039904f, 0.4375412166f, 0.0593404137f, 0.0051406836f, -0.2042888403f, -0.1697027683f, -0.1689614952f, 0.2468808889f, 0.1793335378f, 0.0748262033f, 0.1412672251f, 0.0819890499f, -0.1212653369f, 0.0690094680f, 0.0118576232f, -0.0876295045f, -0.3152859211f, 0.0300435387f, -0.2204276621f, 0.0346047170f, -0.0522931069f, -0.1495245993f, 0.0179970656f, 0.0305296667f, -0.3735687137f, 0.0842158720f, -0.0471394882f, -0.2518166006f, 0.1822058409f, -0.0663749427f, -0.0394871980f, 0.1071702987f, 0.0625599399f, 0.2425121665f, 0.1710173488f, 0.2016317695f, -0.3819538355f, -0.1464852691f, -0.1876224428f, 0.3658078313f, -0.0385476463f, 0.1258415431f, 0.0731696635f, -0.4660792947f, 0.1278480291f, -0.1080672815f, 0.0291531980f, -0.2144635320f, -0.1519023180f, 0.1156690493f, 0.0137907974f, 0.3841669559f, 0.0648716986f, -0.2138944268f, -0.0994945467f, 0.0511962026f, 0.2231802642f, -0.0625163913f, -0.1109000817f, -0.0753613636f, 0.0655014813f, -0.1975683868f, -0.0225518830f, -0.1346465200f, -0.0365599692f, -0.2302503139f, 0.0460960530f, 0.0727705657f, -0.2983685732f, -0.2710352540f, 0.0138148386f, 0.3391294181f, -0.1673413217f, 0.1245332435f, 0.0533658303f, 0.1080434620f, 0.2797324359f, -0.0803742632f, 0.0323171094f, -0.1711376011f, -0.2213840783f, 0.2072375417f, 0.2784295678f, 0.0407735333f, 0.0125052920f, 0.0309872329f, -0.0083189933f, 0.0489512347f, -0.3232364953f, -0.1008465216f, 0.0379829891f, 0.2690921128f, 0.0684404373f, -0.0701033399f, 0.1525791585f, -0.2221774012f, -0.1699511558f, -0.1367503405f, -0.2807460427f, 0.1254733801f, 0.0565976053f, 0.1036831662f, -0.2932209074f, -0.0084510390f, -0.2281446457f, -0.1293185949f, -0.1129351482f, -0.2321787626f, 0.0617149584f, 0.3124672472f, -0.1002113149f, -0.1238114089f, -0.2982564270f, 0.1673281640f, 0.2637975514f, -0.1267288327f, -0.2698982954f, -0.3219954967f, 0.0109572513f, -0.0637067705f, -0.0497150607f, -0.0669060871f, -0.3054035604f, 0.0152855301f, 0.2975678742f, -0.0318701714f, -0.2757987380f, -0.2124936283f, 0.0144121209f, -0.0617793985f, 0.2113225013f, -0.4242729843f, 0.1509213746f, 0.0476034284f, 0.1010633707f, 0.1393131018f, -0.1101467311f, -0.0251639262f, -0.1889779866f, 0.0568067841f, 0.0585935935f, 0.2247172743f, 0.2211215347f, -0.4178501964f, -0.1173033193f, -0.0470748320f, 0.1700914353f, 0.0395096168f, -0.2905494869f, -0.3076673746f, 0.1729039550f, -0.0990700349f, 0.1227064282f, -0.0820645317f, -0.0423330255f, -0.1968339682f, -0.0941167548f, 0.1652117968f, 0.1860925555f, -0.1814976037f, -0.0097706048f, 0.2314589769f, 0.0097362744f, -0.1047096327f, -0.4133133292f, -0.0129969288f, -0.0673632771f, -0.0840900987f, 0.2058053911f, 0.1864294559f, 0.6558107734f, 0.0118130427f, -0.0052457694f, -0.1281053722f, -0.2660993934f, 0.1923958510f, -0.1469947100f, -0.0501346514f, -0.1237519607f, 0.3623478413f, 0.1427677572f, 0.0450579301f, 0.1075011492f, 0.1901754588f, -0.1253552735f, 0.0765299276f, -0.1325302422f, 0.2656084299f, -0.0489234515f, 0.2878629267f, 0.3585759699f, 0.0776823387f, -0.0044213450f, 0.0073148962f, 0.0303999856f, 0.1626052111f, 0.0834405497f, -0.0170881730f, 0.4534269869f, 0.2356410772f, 0.0602498055f, -0.3273093700f, -0.0354198292f, 0.0234612897f, -0.0470143333f, 0.1231530085f, -0.3095558584f, -0.2541824281f, -0.0142673375f, -0.1292237639f, 0.1864121705f, 0.0572154261f, -0.0478052683f, 0.1756538451f, -0.1123386919f, -0.1007299498f, 0.1149095595f, -0.2252193242f, -0.2445801646f, -0.0836130902f, -0.0345089547f, -0.0940009728f, 0.1499081999f, -0.1876066625f, -0.1129257530f, -0.0253193229f, 0.0814113170f, -0.0019610669f, -0.0023459888f, 0.2876905799f, 0.1198154017f, 0.1095349491f, -0.1801488996f, 0.2960993052f, 0.1439308822f, 0.0621595271f, -0.0386139192f, -0.0909378603f, -0.1982097477f, 0.3951770365f, -0.3352793157f, -0.0391286723f, -0.1488742530f, 0.1443178505f, -0.1338474900f, -0.2589883506f, -0.0470971987f, 0.0390143916f, -0.3635832667f, 0.0370541923f, -0.1198485866f, -0.0042029158f, -0.1570623219f, -0.0890513062f, -0.0121129444f, -0.2284756601f, 0.0282492563f, -0.0936409086f, -0.1521563679f, -0.1963954419f, -0.1569965929f, -0.1279970109f, -0.1899351329f, -0.1244908050f, 0.2214068472f, -0.0659934580f, 0.1593956649f, -0.0041463939f, 0.2432081103f, -0.0227414779f, -0.1498688012f, 0.2552147508f, 0.0854278207f, 0.0656817332f, 0.4187371135f, -0.3965657949f, 0.1133166701f, 0.1398890615f, -0.0194388404f, 0.2063475102f, 0.0672018826f, -0.3268265724f, 0.1256826371f, -0.1012415960f, 0.1817178577f, 0.2040368468f, 0.0696638077f, 0.3001129031f, 0.1548714191f, 0.0086199027f, 0.1703485698f, 0.2220545709f, -0.1174433902f, 0.1257430464f, -0.0897906721f, -0.1281870455f, -0.0723547637f, 0.1748228222f, 0.0552043542f, 0.0378800556f, 0.3248420656f, -0.1312769353f, 0.2267203182f, 0.0568715259f, 0.1241622046f, -0.0667443946f, 0.1625696421f, -0.3031724691f, 0.1022811830f, -0.2100846022f, -0.0639437959f, 0.1345562041f, -0.0528428517f, -0.0401469842f, -0.0902425274f, -0.0185830630f, -0.4480146468f, -0.1432259530f, -0.2244942486f, 0.0066105989f, 0.1048396677f, -0.0551873595f, -0.1279511750f, -0.1619516909f, 0.3003585935f, -0.0871955976f, 0.5526861548f, -0.1733679026f, -0.1183650121f, -0.2275640965f, -0.0859538242f, 0.2819553018f, 0.1260501146f, 0.1546429843f, -0.0640523136f, 0.2246463597f, -0.0094597768f, 0.2454096675f, -0.1816469729f, -0.0186013337f, -0.1712604761f, -0.0945221707f, -0.0135997590f, 0.1625432968f, 0.1234734133f, 0.0111224502f, -0.3977924585f, -0.0490354709f, 0.1531342119f, -0.1030366272f, 0.0400714166f, -0.1581622362f, -0.0932422429f, 0.0224915519f, 0.2631841302f, 0.3371124268f, 0.0062647793f, -0.1109172702f, -0.2441970557f, 0.0078229290f, -0.0928366557f, -0.1572791189f, -0.0956463441f, 0.0279735643f, 0.0259173457f, 0.1090419441f, 0.1054413021f, -0.0357237086f, -0.1122651026f, 0.0602223128f, -0.1340388805f, -0.2284895480f, 0.1306437850f, -0.0415479764f, -0.1792919189f, 0.3040818870f, 0.0049967468f, 0.2305039316f, -0.0044765677f, -0.0624834895f, -0.0842857584f, 0.0223308634f, 0.0889301524f, -0.0893467888f, -0.1365233064f, 0.0713886172f, -0.0423333906f, -0.2039616555f, 0.1724560857f, -0.1137792170f, -0.0718736649f, 0.0468065552f, 0.1246991530f, 0.0347657017f, 0.1719134748f, -0.0133525683f, 0.1053212136f, -0.3874684274f, -0.2293856293f, -0.3856264949f, -0.1448416561f, -0.2812903821f, 0.0596772470f, -0.0658442974f, -0.1361653358f, -0.1507441700f, 0.0181039106f, 0.3149617016f, 0.4123504758f, 0.1376356483f, 0.2394931763f, 0.0260892212f, -0.0186786596f, 0.2905052304f, 0.0366923846f, -0.3743606508f, -0.0610448904f, 0.0382248759f, 0.1378766000f, -0.0972240791f, -0.1000167206f, 0.2778136432f, 0.2930458486f, 0.2543594241f, -0.1677222848f, -0.2372936159f, -0.2418685853f, -0.0042346804f, -0.0644138455f, 0.0035276660f, -0.2575934231f, -0.1589614153f, 0.1597864032f, 0.1334146410f, 0.2916316688f, 0.0621712245f, 0.0338432603f, 0.1754627824f, -0.0453807376f, -0.1602063328f, 0.0452839769f, 0.1993623376f, -0.1802571267f, 0.0392102040f, -0.2658854425f, 0.0009991524f, -0.0667184815f, 0.0296614561f, -0.0646354929f, -0.0694509074f, 0.1536422670f, -0.0556737445f, 0.1567448825f, -0.2334859222f, 0.0770340189f, 0.1547093540f, -0.1309478730f, 0.2483477890f, -0.2221719474f, -0.2799758613f, -0.2328859121f, -0.0356260650f, 0.0803815275f, 0.1558274478f, -0.2302435338f, -0.0488225482f, 0.2215465158f, -0.1311029047f, 0.0380960926f, 0.0329652056f, -0.4665476680f, -0.0063393777f, 0.1223201826f, 0.0886531100f, 0.0869996697f, 0.0904824510f, 0.1408035159f, -0.2599586248f, 0.0182878561f, 0.0742029622f, -0.1686478704f, 0.3148662150f, -0.1279638261f, 0.2328141779f, -0.2903609872f, -0.0794265270f, 0.1814033389f, -0.0792184323f, 0.0503922552f, -0.4169506431f, 0.0939301178f, 0.4025516510f, 0.2161967307f, -0.1055514887f, -0.0103291338f, 0.1263723373f, 0.0182299931f, -0.2225549519f, -0.0155779580f, -0.0542368814f, 0.0227542520f, 0.2567940950f, -0.1630768180f, 0.0868998021f, -0.1556579620f, -0.0916310474f, 0.1590170115f, -0.0104547236f, 0.0438960679f, -0.2949813604f, 0.0536332242f, -0.0889252946f, 0.0560612269f, 0.4243303537f, -0.0415862389f, -0.0524534062f, 0.0071050054f, 0.0949316546f, 0.0849965215f, -0.3319445550f, 0.0470458120f, -0.0287337769f, 0.0645038560f, 0.0855640844f, 0.2125189751f, -0.0411852188f, 0.0561452433f, -0.2381011397f, 0.0883043259f, 0.0880491510f, 0.1957139075f, 0.3626014888f, -0.2531786561f, 0.3192203045f, -0.2641202509f, -0.4886005819f, 0.1381460279f, -0.2611124814f, 0.1219583228f, 0.2620330155f, 0.1031914279f, 0.0084623182f, 0.1816995889f, -0.0668704733f, 0.0322195068f, 0.1125531569f, -0.3266521692f, 0.1090758070f, -0.2162670493f, -0.1743688881f, -0.2054040581f, -0.0402115807f, 0.1256509721f, -0.0884143710f, -0.2033555359f, 0.0925856009f, -0.0645836294f, -0.0308493134f, -0.0709617808f, 0.3240101039f, -0.4343616068f, -0.2046059370f, -0.1615194827f, 0.2793785632f, 0.0182828140f, 0.1234349906f, -0.2373592407f, -0.1958393306f, -0.2890846431f, -0.0491203293f, 0.1260455251f, -0.1450250298f, -0.0172234587f, 0.0684293360f, -0.1356252432f, 0.1680676937f, -0.0027749292f, -0.0611493178f, -0.2903007567f, -0.0186991002f, -0.0002825040f, -0.2119546831f, -0.0304635465f, 0.0058503137f, -0.4308058321f, 0.0117074046f, -0.1529071629f, -0.0110503072f, 0.0621068887f, 0.0022867527f, 0.1210792810f, 0.1249625981f, 0.1520344615f, -0.0209450237f, -0.2090233266f, -0.0286513455f, -0.3926831782f, -0.1657861471f, -0.1890945733f, 0.0284799803f, -0.3200248480f, 0.0105294874f, 0.0708684698f, -0.2622769177f, -0.2968705297f, 0.0958549529f, 0.1547529101f, -0.0868055895f, 0.1145912185f, 0.0746133998f, -0.0294946954f, 0.0451781265f, -0.1278026998f, 0.2261272371f, 0.1582004428f, 0.1828104854f, 0.2080308795f, -0.1650986969f, -0.1253674477f, -0.1888629049f, -0.1378581822f, 0.1406140774f, -0.1944976151f, -0.0758971944f, -0.0238863956f, 0.2079662830f, 0.0824747533f, -0.1139614284f, 0.0557278506f, -0.1396532655f, -0.0517380051f, 0.3229808211f, -0.3030084968f, -0.0937907770f, 0.0305726491f, -0.0286733564f, -0.0419629999f, 0.0781387612f, -0.0840318128f, 0.2561140954f, -0.0457921065f, 0.1052375138f, 0.1304952651f, -0.2420790344f, -0.4520673156f, -0.1009525880f, -0.0947692990f, -0.0889401957f, -0.1909549832f, -0.2584884763f, -0.1910388917f, 0.0694870278f, -0.1239679009f, 0.0870264620f, 0.1761895120f, -0.1115858555f, 0.1928662956f, 0.1107299849f, -0.0807322785f, -0.0733508095f, 0.1948395967f, -0.3239029944f, -0.1136481538f, 0.0595656969f, 0.1696049571f, 0.0081395172f, -0.0038059535f, 0.3853326440f, 0.1505977511f, -0.3330564797f, 0.3114166856f, 0.1926982552f, -0.1636232138f, 0.0675790012f, -0.1704740673f, 0.0808291882f, 0.4217304885f, 0.0546941198f, 0.1323207617f, 0.1409911215f, -0.0355929844f, -0.0119776996f, 0.0815185457f, -0.0056626806f, -0.2271007746f, -0.0197039675f, -0.0605253652f, -0.3328862190f, -0.2486098111f, 0.0833991989f, 0.2124257535f, 0.0620358698f, -0.2563360929f, 0.1226294935f, -0.1364071369f, 0.2741199136f, 0.2174675316f, -0.1979051381f, 0.1393204480f, -0.1216894239f, -0.4395818114f, 0.0689783841f, -0.0870376900f, 0.1719815582f, -0.0926363543f, -0.2266603261f, 0.1814562380f, 0.0323998407f, -0.0308645573f, -0.1018122882f, 0.0594506860f, -0.1330461204f, 0.5094697475f, -0.0735995993f, -0.0368618220f, -0.1511965692f, 0.0747171640f, 0.0822901726f, -0.0736361369f, 0.2054925561f, -0.1675581038f, 0.0132581368f, 0.0565669201f, 0.3400121927f, -0.0755031556f, 0.1016108096f, -0.2104310095f, 0.0393390208f, 0.0810152590f, 0.0828210637f, -0.0300263371f, -0.1695562601f, 0.0830260143f, -0.2456951290f, 0.2243279964f, 0.1179227233f, 0.2261740863f, -0.3059466183f, 0.1153500825f, -0.2242655009f, -0.0299904812f, 0.1479775757f, 0.0105806123f, -0.0551700965f, 0.3828750551f, -0.2112558186f, 0.0297315847f, -0.1705505550f, -0.2098965347f, -0.0219585765f, -0.0270074587f, 0.3842422068f, -0.1652622670f, -0.0959777683f, -0.0981959328f, -0.1251093745f, -0.2717715502f, 0.0020134114f, 0.4154135287f, 0.0488255136f, 0.0050704679f, -0.0247562155f, 0.0776040554f, -0.3826463223f, -0.0786480755f, 0.0051935129f, -0.2908479869f, 0.0228146538f, 0.1299258322f, 0.2224240303f, -0.1687669456f, 0.2552909255f, 0.0084849428f, 0.1815848798f, -0.1048147306f, 0.1889208406f, 0.0459214002f, 0.1970851272f, 0.0260031335f, 0.2808285058f, -0.2167152166f, -0.1743796766f, -0.0933578834f, -0.1297671199f, -0.0820264742f, 0.1420626491f, 0.2758273780f, -0.0128335245f, -0.1017804146f, -0.1978080571f, -0.1902323067f, 0.0498626046f, -0.0896273777f, -0.0654190034f, -0.0239101704f, 0.1447409093f, -0.1511538923f, -0.3991813362f, -0.2045466304f, -0.0367424600f, -0.0843196362f, 0.0066230185f, 0.1956624538f, -0.0895997137f, 0.1301441640f, 0.1025190055f, 0.0344761461f, 0.2312503308f, 0.0725115091f, -0.0214307420f, 0.1695186049f, 0.1723212451f, 0.1437082142f, -0.1811519712f, 0.1547955424f, 0.1525541544f, 0.3145490587f, 0.0967301503f, -0.0974207669f, -0.1694930047f, -0.1780816168f, -0.0426065773f, -0.1428404003f, -0.0695611238f, -0.2878552675f, 0.0495019816f, 0.2746123374f, -0.2520667017f, 0.0893445909f, 0.0180118158f, -0.1289633662f, 0.0034884827f, 0.1423232257f, -0.3016330302f, 0.1404399276f, 0.3737980425f, -0.1906758845f, 0.1919545382f, 0.0779775158f, 0.1796883196f, 0.0948980898f, -0.0396597050f, 0.0177800674f, 0.2169856429f, 0.1264523715f, -0.1457315683f, -0.1678858846f, -0.1043869331f, -0.3590790927f, 0.0443352014f, -0.0450987890f, 0.0909152105f, -0.1953253597f, -0.0803932995f, -0.1044925302f, 0.0134394560f, -0.0870061815f, 0.2296717763f, 0.0627580658f, -0.1769500077f, 0.0678052306f, 0.1006287038f, 0.4425198436f, 0.3961988389f, 0.0154901445f, 0.3099289238f, -0.0335358754f, -0.0012912222f, -0.0319795907f, 0.0011179138f, 0.1412498504f, -0.2615737319f, -0.2661260962f, 0.1702810228f, -0.1710943580f, 0.2317412347f, -0.0826274678f, 0.1600551307f, 0.0782099366f, 0.1574805081f, -0.0079056583f, 0.0744750872f, -0.1460893154f, 0.1044911891f, 0.0908565223f, 0.2009109557f, -0.2094197273f, 0.0272141527f, -0.1321443468f, 0.2967317402f, 0.1177506596f, -0.1236459315f, -0.1619100571f, 0.2076791972f, 0.0634661317f, -0.2797430456f, -0.1547071636f, 0.1430003643f, 0.5521841049f, 0.0088696061f, -0.2704816759f, 0.1253771484f, 0.1954365224f, 0.0831052661f, -0.0433148444f, 0.0382769816f, 0.0093069728f, -0.0174468439f, -0.1144271865f, 0.0955302268f, 0.0448766015f, 0.1812340915f, 0.2267530560f, 0.1650498211f, -0.1257196367f, -0.2185613662f, -0.0169860292f, -0.2191918641f, 0.0438650846f, 0.0522320718f, -0.0216716547f, -0.2814461291f, 0.2609388232f, -0.0869156569f, 0.2035969347f, 0.0773010626f, -0.1802541912f, -0.1740424186f, -0.0598939657f, -0.0097960867f, 0.0281955879f, -0.4138810635f, -0.1034935117f, 0.0049787411f, -0.2530931830f, 0.0297338273f, 0.2240604162f, 0.0366319679f, -0.1270198673f, 0.2861118615f, -0.1647214144f, 0.2796216011f, 0.2996411920f, -0.1283560097f, -0.0511686467f, -0.2887009680f, -0.1495997310f, 0.0794840455f, -0.2076910585f, 0.0996160880f, -0.0086063873f, -0.0796613544f, 0.0630456358f, -0.1483494341f, -0.1070592701f, 0.2246173471f, -0.1859414577f, -0.2477796376f, -0.2081265748f, 0.3159422874f, -0.0476415157f, -0.3159754872f, 0.1082586050f, 0.0290301312f, -0.2447977811f, 0.1723644286f, -0.0732833371f, 0.0001989671f, 0.1388086826f, -0.0388838686f, -0.0440216213f, -0.2008847743f, -0.0007450820f, -0.1672287583f, -0.2793604136f, -0.0027121645f, 0.3933228552f, -0.1101432070f, -0.0810716003f, -0.1508209705f, -0.0840085819f, 0.0634801239f, 0.0930078477f, -0.0586410277f, 0.0337553211f, 0.1150462329f, -0.0526628233f, -0.1427074820f, 0.2629963160f, -0.1577709168f, -0.1100096628f, -0.2898936868f, -0.2105593085f, 0.3302057087f, -0.3550629616f, 0.0875758231f, -0.1614237130f, 0.2059306949f, -0.1104857847f, 0.2998244464f, 0.0638174489f, 0.3752707839f, -0.0760568455f, 0.0751945823f, 0.1132780313f, -0.0593312941f, 0.2243042588f, 0.1589396447f, 0.0824947506f, 0.2742941678f, 0.0278478879f, 0.0419948585f, 0.3286821842f, 0.0930901766f, 0.2292320579f, -0.1969590336f, -0.1086722985f, -0.2274961323f, -0.0464833081f, -0.0979663283f, 0.0079929186f, -0.1375892460f, 0.0517329574f, -0.0995157734f, 0.0277052298f, -0.0139467027f, 0.1788314134f, -0.1047214791f, 0.0390150137f, 0.0108865881f, -0.0229316838f, -0.2263559401f, 0.1142018512f, -0.0234995056f, 0.0167878196f, 0.0539772101f, 0.0120059932f, -0.1341328472f, 0.0436443873f, -0.0744128302f, 0.0025722149f, -0.3018473387f, -0.0406399556f, 0.0331871249f, -0.0215635989f, 0.0076197693f, 0.0383438990f, 0.2170421183f, 0.2153777480f, -0.1868505478f, 0.0695591345f, -0.1393213868f, 0.0124041531f, -0.2604752779f, -0.2187200487f, 0.1761751473f, 0.3550518453f, 0.3420210183f, -0.2341099232f, 0.0102085816f, 0.1116625965f, 0.3805761337f, -0.0779039934f, -0.2386813015f, -0.0100639919f, -0.1275287420f, 0.2652565539f, -0.2063786536f, -0.0481720753f, 0.3310329020f, 0.1447437555f, 0.1739663333f, -0.0791571215f, 0.2192833275f, 0.0868334696f, -0.0490766540f, 0.1677066088f, 0.0545022115f, 0.0196757223f, 0.0887072235f, 0.0071190326f, 0.1524841785f, 0.0216820650f, 0.1921357363f, 0.0411150530f, 0.0803278834f, -0.5735703707f, 0.1159722209f, 0.0219743140f, 0.1548775434f, 0.0732074380f, 0.1683274209f, -0.2855491340f, 0.2455945760f, -0.1443129331f, -0.1891922802f, -0.1689539999f, -0.1384026855f, -0.2774260938f, -0.1106161401f, 0.0511238463f, 0.0973416120f, -0.2480634153f, -0.0499947071f, -0.2372593880f, 0.2355723083f, -0.0455918685f, -0.0432220697f, 0.3942487240f, 0.3012583554f, -0.3725066483f, -0.0765344054f, 0.2239190042f, 0.3302643299f, 0.0172658078f, -0.0004043319f, -0.1669028252f, 0.0171041247f, 0.0122854523f, -0.1497302502f, 0.2099998891f, -0.2625681162f, 0.1813304424f, -0.2723686695f, -0.1100562960f, -0.0085945316f, -0.1888859868f, -0.0753070787f, -0.0347296856f, 0.0656785071f, -0.1557633877f, -0.0148596931f, 0.1915928721f, 0.2878949046f, 0.1802481115f, -0.0743735358f, -0.0131363031f, 0.3462819755f, -0.2428267449f, 0.1257447302f, -0.1421199143f, -0.0390846319f, 0.0829884708f, 0.1378143728f, -0.2626588941f, 0.0856936425f, 0.0544606335f, -0.0603398494f, 0.1413807571f, -0.0083043100f, 0.1075507924f, -0.4007437229f, 0.0465520211f, 0.0463891812f, -0.2601434588f, 0.0049398593f, -0.1100087836f, 0.2360227108f, 0.0289251693f, -0.0342071019f, -0.2553008497f, -0.2043102533f, 0.1067844704f, -0.1717377305f, -0.0952527970f, -0.0204474777f, -0.2097273618f, 0.0071506961f, 0.0873663947f, -0.2451317310f, 0.1856322140f, 0.0644387677f, -0.0603081435f, -0.2140490264f, 0.1337595731f, -0.4139075577f, 0.1187950745f, 0.0231476929f, -0.1071903482f, -0.5256928205f, 0.2245571464f, -0.1973000765f, -0.0709778666f, 0.1745532900f, -0.2022890449f, -0.2755258381f, -0.0805882961f, -0.2293061614f, 0.0610695668f, 0.0351441801f, -0.0936224163f, 0.1185160428f, 0.1806848794f, -0.2688709795f, -0.2806096077f, -0.1261241585f, 0.3263608515f, -0.1477368921f, 0.0183991343f, 0.1145626381f, 0.2466037869f, 0.2542423308f, -0.0700219348f, -0.0092933038f, -0.0944621488f, -0.0703530237f, -0.1210588589f, -0.0419369340f, -0.1413365901f, 0.0116045978f, 0.2649049759f, -0.3767022789f, -0.1213672236f, -0.1471304744f, 0.3126921058f, 0.2809717059f, 0.0845355615f, -0.1790295988f, -0.0216420759f, -0.2141710222f, 0.0161708556f, 0.1530828327f, -0.1423706561f, 0.0406746753f, -0.0875314996f, 0.2965582907f, -0.3986757398f, 0.0726454332f, -0.0308226515f, 0.2344512939f, -0.2979325950f, -0.2339829355f, 0.0274154563f, 0.1541045010f, 0.0301331785f, -0.0662455484f, -0.0596963726f, 0.5790650249f, 0.0957890749f, 0.1359145343f, 0.0137466155f, 0.0965718552f, 0.1512027979f, -0.0890293717f, 0.0258073322f, 0.1681505889f, -0.1269440651f, 0.1399062574f, -0.2012872845f, -0.1503392309f, 0.1001955420f, -0.2509292066f, 0.2406107932f, -0.0823710784f, -0.2500207126f, 0.2061390281f, 0.2216242701f, -0.1352311969f, -0.0345182940f, 0.0078712674f, 0.0898182243f, 0.1284020096f, -0.1090558320f, -0.1212798581f, 0.0746012107f, -0.3788313270f, 0.1945801973f, -0.0359124020f, 0.2084447742f, -0.1297562718f, 0.3568358719f, -0.2710906863f, -0.1570786238f, 0.1901210546f, -0.0980950817f, -0.1466070116f, -0.0026835981f, 0.1970802099f, -0.0623848401f, 0.0075726467f, -0.3778788745f, 0.2940982282f, 0.1239271089f, 0.0497942194f, -0.0863039419f, -0.2402554750f, -0.2009596825f, 0.1099662259f, 0.0834884271f, 0.2977869511f, 0.1112947613f, -0.1689259112f, 0.2238051742f, 0.1174723804f, -0.2694635987f, -0.1146051958f, 0.0836038589f, 0.0269026291f, -0.2714008093f, -0.0250830892f, -0.4290856719f, -0.0092083849f, 0.0007860005f, -0.1509542018f, 0.2191400528f, 0.0048286137f, 0.0073406748f, -0.0947249159f, 0.2086987942f, -0.0018634917f, 0.2125368267f, 0.0606515855f, -0.0510631837f, -0.2135947198f, -0.0018503804f, 0.0923426002f, 0.3216066957f, 0.0168667380f, -0.1025028750f, -0.0958046690f, 0.0909401551f, 0.2455799878f, 0.0680480674f, -0.2024829239f, 0.1421525925f, -0.0080461903f, 0.1377308518f, -0.1911975890f, -0.1327873617f, -0.0866061598f, -0.0880288705f, 0.0853739753f, 0.4732016325f, -0.2501730025f, -0.1330794394f, -0.0442706272f, -0.1566193253f, 0.0523105860f, 0.0492782518f, -0.3833792210f, -0.0519747585f, 0.2148881555f, 0.1259472221f, -0.1093311980f, 0.0294137970f, -0.1429878324f, -0.1691204756f, 0.2680828571f, 0.0406385586f, 0.1813481003f, -0.0855541751f, 0.0655262619f, -0.0258270353f, -0.0198582914f, 0.0859308839f, 0.1405747980f, 0.0106913354f, 0.1261937320f, 0.2110914439f, -0.1634198874f, -0.0782593414f, 0.1743293703f, 0.0574903376f, 0.0049969116f, -0.0112852044f, 0.2406281233f, -0.0830724165f, 0.2564494908f, -0.0283704624f, -0.0692185760f, -0.2234293669f, -0.1838385314f, 0.3188222051f, -0.2434847057f, -0.2618426085f, -0.2410750538f, 0.1104994267f, -0.0227445122f, -0.2516038418f, -0.2074240297f, -0.1983765960f, -0.1126050130f, 0.0453470685f, -0.2263637185f, 0.0761014447f, 0.1276009232f, 0.0230935663f, 0.0621640757f, -0.1040333807f, -0.1940335333f, 0.0587190427f, 0.0465406850f, 0.2179120183f, -0.2294933349f, -0.0771538317f, 0.0663210452f, 0.1031053066f, 0.0756626055f, -0.0096102702f, 0.0226837024f, 0.2650959492f, 0.0076143197f, 0.0113326758f, -0.4419997633f, 0.0062449086f, -0.1669256091f, -0.0122566903f, 0.0371427126f, 0.2873621285f, -0.0151840914f, 0.2662943602f, -0.2051469237f, -0.3255141675f, 0.0706686974f, 0.2975074053f, 0.0134915365f, -0.1161840856f, -0.1305439025f, 0.0569681451f, -0.1684125215f, 0.0547874868f, -0.0519938953f, -0.1696610302f, 0.0409001447f, 0.2241046727f, 0.2978598475f, 0.3694729805f, 0.0379018895f, -0.0706505328f, -0.1609400362f, -0.3075668514f, 0.0657988340f, 0.1274369210f, 0.2401691377f, -0.0508093908f, -0.0966514423f, 0.0500118583f, 0.2990962565f, -0.3788962960f, 0.2457499504f, 0.2348953187f, -0.3702873290f, -0.1591248363f, -0.0393148921f, 0.0344991125f, -0.1330860853f, 0.3666517437f, 0.0674146563f, -0.0761560202f, 0.1217898205f, -0.0482315198f, -0.2196748853f, 0.0377255194f, 0.0377993621f, -0.0663398355f, -0.1438747048f, -0.0668516159f, 0.3221396208f, 0.0570717119f, -0.1809931993f, 0.0142260743f, 0.1349669695f, -0.1460746974f, -0.0240748674f, 0.0516933948f, 0.1754667312f, -0.4377323389f, -0.0110992398f, -0.1593855917f, 0.0133210113f, 0.1694087535f, 0.0832834467f, -0.0202808511f, 0.1398273855f, -0.3275912106f, 0.0059632077f, -0.2511496246f, 0.0368437991f, -0.1272135079f, 0.2044692934f, 0.1904891133f, -0.0465864986f, -0.2338143289f, 0.2797733843f, 0.3021422625f, -0.1472469866f, -0.1275981516f, 0.0189696793f, 0.2942965627f, -0.3107537925f, 0.1088272706f, 0.0878766552f, -0.1924348325f, -0.1753060669f, -0.2963564694f, 0.0349591523f, -0.0900532976f, 0.1669290811f, -0.0736993402f, 0.0433838777f, -0.1948251128f, -0.0486230031f, -0.3227216005f, -0.0733869746f, 0.1003642008f, -0.0892796889f, 0.0252709202f, 0.0772092268f, 0.1310447156f, -0.1830444634f, -0.1386479139f, -0.3939110041f, 0.1785827428f, 0.2379375696f, -0.2140165716f, 0.1922264993f, -0.0697438493f, 0.1036277190f, -0.3221198618f, -0.1393223554f, 0.1208277419f, 0.1188664138f, 0.2113631517f, 0.1241824776f, 0.0396621153f, 0.2232441008f, -0.3989769220f, 0.2768594623f, -0.0815945789f, 0.0982752591f, 0.1116812900f, -0.2818780541f, 0.0974000171f, -0.1708199680f, 0.0296008866f, 0.0468135774f, -0.1645122319f, -0.0544134229f, 0.1302183419f, 0.1786910892f, 0.0074579800f, 0.2016297430f, 0.1510530561f, -0.1826248020f, -0.2420796901f, -0.0457649417f, 0.1199574023f, 0.2034984380f, -0.2115969360f, -0.2026817203f, -0.2918030918f, 0.3192737401f, -0.2211243063f, 0.0392690971f, -0.1195690036f, -0.1424082965f, -0.0836506262f, 0.1650588959f, 0.0045879795f, -0.0382563323f, 0.0111588798f, 0.2554556131f, -0.2401010990f, 0.2657630742f, -0.1710755080f, 0.2366289943f, -0.0950748920f, 0.0188100021f, 0.1296988428f, 0.1411469579f, -0.1045527980f, 0.0367921181f, 0.3932996988f, 0.1406200230f, 0.0035168983f, -0.0815021321f, 0.3532041907f, 0.2685547471f, -0.0242951345f, -0.1679007262f, 0.4024995267f, -0.1198132113f, 0.0946332216f, 0.1107043177f, -0.1590028703f, 0.0276736487f, -0.1461580396f, -0.1896572113f, 0.1196009144f, 0.2776481509f, -0.1471509784f, -0.1818091422f, -0.0479818173f, 0.0417537689f, -0.0051165908f, -0.2838615775f, 0.2515643239f, 0.2307424843f, 0.1221622303f, 0.2061843127f, 0.0026416995f, -0.0754122734f, 0.0368668884f, 0.2164689749f, -0.3634143472f, -0.1453406662f, 0.1614166349f, -0.3679981530f, 0.4220258892f, 0.0696259215f, -0.2498508394f, 0.2070002407f, 0.1065327600f, -0.1899514198f, 0.2650992870f, 0.1307751089f, -0.2700633109f, -0.0703741163f, 0.2825686634f, -0.3152947426f, 0.0675424561f, 0.0835850015f, 0.1357582510f, -0.2785107493f, 0.1394233555f, 0.1161554605f, -0.2354571074f, -0.0779140294f, 0.1111862138f, 0.2335157841f, -0.1259580553f, -0.0560915917f, -0.1598624438f, -0.0955972970f, 0.0041166903f, 0.0224103220f, 0.0775773078f, -0.1455187052f, -0.0362426005f, 0.4051133394f, 0.0214248020f, -0.0699639618f, 0.0627047420f, -0.0370309092f, -0.0292731877f, -0.0460795201f, -0.0644838512f, 0.3489014804f, 0.1471893936f, 0.0853993148f, 0.0491347760f, -0.0879721344f, -0.4040011466f, -0.2207069993f, -0.1021174565f, -0.1985238492f, -0.1027090549f, 0.4862815738f, 0.0560496524f, 0.3734916151f, 0.1376822293f, 0.0075294212f, 0.2681980133f, 0.3102681339f, -0.0417305902f, -0.1848134100f, 0.0127214333f, -0.0150340609f, 0.1025462970f, -0.0522360913f, 0.2159145921f, 0.0311586279f, 0.0939019471f, 0.0310671162f, -0.0300866030f, 0.0110219233f, 0.2390943021f, -0.0177034717f, 0.0356292836f, -0.1055513769f, -0.0182994418f, 0.2428661585f, -0.1991052628f, 0.0694935471f, 0.0609596297f, -0.2865881324f, 0.0661766231f, 0.1540966332f, -0.0860825703f, -0.0376687869f, -0.0304033440f, 0.3754943013f, 0.0744029880f, -0.2740072608f, -0.0048913630f, 0.0266016312f, 0.4861151874f, -0.0216362458f, -0.3151677847f, -0.1896331757f, -0.2103861123f, -0.1739198416f, 0.0025553154f, 0.0073467446f, 0.0853426531f, -0.1220805645f, 0.0415281206f, -0.2401163727f, 0.1571913660f, -0.1663852334f, -0.3119140565f, -0.0828186423f, 0.1335996836f, 0.1141285822f, -0.0604650788f, 0.1346779764f, 0.0127005493f, -0.0502214134f, 0.0513604395f, -0.1910673976f, 0.0870966613f, 0.0131299123f, 0.1543946564f, -0.0320152193f, 0.2429564148f, -0.1369117349f, -0.3075852990f, 0.0670476407f, -0.3913469315f, 0.0727291405f, -0.1611311436f, -0.1818958968f, 0.1652519107f, 0.0211287718f, 0.4024878442f, -0.2386186570f, 0.2765129805f, -0.1071849838f, -0.1229942515f, 0.0785937309f, -0.1947295070f, -0.1680135876f, -0.0421205498f, -0.0832241476f, -0.1210372970f, -0.0439184271f, 0.0558215193f, -0.4644738734f, -0.1889122576f, 0.1129842922f, -0.0858163089f, -0.0675524324f, -0.2418856472f, 0.0385064557f, 0.2585259378f, -0.1794884503f, 0.0799961910f, -0.3241360486f, -0.1328863353f, -0.1206753477f, 0.0903319269f, -0.0813072696f, -0.0772178620f, -0.1660730392f, 0.2078721821f, -0.2023378760f, 0.0179765616f, -0.0020782913f, -0.2416400909f, 0.1133984253f, -0.2059329003f, -0.1007537097f, 0.0069240262f, 0.2581748664f, -0.0590833649f, 0.0812225193f, 0.2252378464f, 0.0033341460f, -0.2184112668f, -0.0177439880f, 0.0827083066f, 0.1407143325f, -0.1033805907f, -0.1942337304f, 0.2247741967f, 0.4041127563f, 0.0641364679f, -0.0049441718f, 0.1604188681f, 0.0052953479f, -0.1947674453f, -0.1863446683f, 0.1619398147f, -0.0157120805f, -0.2988466918f, -0.1327370107f, 0.0863844678f, -0.2230893373f, 0.0342571959f, 0.1498757154f, 0.1214898601f, 0.0946975723f, 0.1340397149f, 0.2194612771f, -0.0798214227f, 0.1653264612f, -0.2882664800f, 0.0675618351f, 0.3284424841f, -0.0834365338f, 0.1303158253f, -0.0999257118f, 0.2349433601f, 0.1659122109f, -0.1656555682f, 0.0220936462f, 0.0735820532f, 0.0432277992f, -0.1903870255f, -0.2187786251f, -0.1395928115f, 0.0169160999f, 0.2272958905f, 0.1584881544f, -0.2726574242f, 0.0649620518f, -0.2965280116f, -0.1087629348f, -0.0634394810f, 0.1412293464f, -0.1983498782f, 0.0359104760f, 0.0864197612f, 0.0721133500f, 0.2483675480f, -0.2085043490f, -0.4632413983f, 0.0419832692f, 0.0398541838f, 0.0481755547f, -0.1168779135f, 0.1371833235f, 0.3545750678f, 0.1197224930f, -0.0177190416f, -0.0372775421f, 0.1205122396f, -0.0979689509f, 0.1044087633f, -0.3195070922f, 0.2594925761f, 0.0558597930f, 0.2975360453f, 0.0726248622f, -0.0061678230f, 0.3701590896f, -0.3091334403f, 0.1303530931f, 0.0253872331f, -0.4754712284f, -0.0022217929f, -0.1481444389f, 0.0477886498f, 0.2324043512f, -0.0587273203f, -0.2071168423f, 0.3720223904f, 0.2353943139f, 0.0995330364f, 0.0150046395f, -0.0394446477f, 0.2949149311f, -0.0989746451f, 0.0428412072f, 0.0284598842f, 0.2861087322f, 0.1235394254f, 0.0236543603f, -0.0915480480f, 0.1487300545f, -0.0491176657f, 0.0715086609f, 0.0530361570f, 0.0329674222f, 0.2051383257f, 0.0886439979f, -0.1294209063f, 0.0876839533f, -0.2133777142f, 0.2194819301f, 0.1562099755f, -0.1444470882f, -0.0870734379f, -0.1176517010f, -0.0709561929f, -0.0940982997f, 0.0509864315f, 0.1214136854f, -0.1910035312f, 0.2115541399f, -0.1312526911f, -0.2119948268f, -0.1793591976f, 0.3936998248f, 0.1647339314f, 0.0668319091f, -0.0109355506f, 0.1279598027f, 0.0452866033f, -0.1448382437f, 0.0728164092f, 0.0807440951f, -0.0630292594f, 0.0264072008f, -0.0549982414f, 0.0318846814f, -0.0020139443f, -0.3337291181f, -0.1075628474f, -0.0678991601f, -0.2967576385f, -0.0724119768f, -0.0884379372f, 0.2615541518f, -0.2067332417f, 0.1170090213f, 0.2636816502f, -0.0479981154f, 0.1147637144f, 0.0575939417f, 0.2573472857f, -0.3479020298f, 0.0411309302f, 0.2162468433f, 0.2106841356f, -0.1820736229f, 0.1864173114f, -0.2404544950f, 0.0437874161f, 0.0965656936f, 0.0104619758f, 0.0498851351f, 0.0241592787f, -0.0250592176f, -0.2925348282f, 0.4621910751f, -0.0655045584f, 0.0796367154f, 0.2234928161f, 0.2312968820f, -0.1069725752f, -0.0923509225f, 0.0603132956f, -0.0344633274f, 0.2043502927f, 0.1368665844f, 0.1548209339f, 0.1485658288f, -0.0625996366f, -0.0290264636f, 0.1421514452f, -0.2391170263f, 0.2160017788f, 0.2142718285f, -0.3031723201f, -0.0832846537f, 0.1305404902f, 0.1524602622f, -0.0684394985f, 0.0773766264f, 0.0064481790f, 0.0433123820f, 0.1471297592f, -0.0954768881f, 0.0281651579f, 0.1211078092f, 0.5730628967f, 0.3827177584f, 0.2902118266f, 0.0520873740f, -0.3217893243f, -0.0126932599f, 0.1059076488f, 0.0918355808f, -0.0474115536f, -0.0491924733f, -0.1903615147f, 0.1304802746f, -0.0861800909f, 0.2083761990f, -0.1310905367f, -0.2477400601f, -0.1475094110f, -0.1815878153f, -0.0446832068f, -0.0959353969f, 0.0866161734f, 0.1046394929f, -0.1715006381f, 0.0588941835f, -0.1619631946f, 0.1329023838f, 0.2115288377f, -0.0187948607f, -0.2205876559f, -0.2628971636f, 0.0939780921f, -0.1555459052f, -0.1422733814f, -0.2927466333f, 0.3584844470f, -0.0233952142f, -0.0103524812f, 0.1158624142f, 0.0496825278f, -0.0180060249f, -0.1251780987f, 0.3817844689f, 0.0865808502f, 0.0445188992f, 0.2297288775f, -0.1780120730f, 0.0303252451f, -0.1786089540f, -0.0108174300f, 0.0995789468f, 0.2817711532f, -0.2131665051f, -0.1122932285f, -0.1836305559f, -0.0081783375f, 0.1304871887f, 0.3060999811f, 0.0424566604f, 0.0393650532f, 0.0344334804f, -0.0257582851f, 0.3355913758f, 0.1504422426f, 0.0528196618f, -0.0471673124f, -0.1922840923f, -0.2457609624f, -0.2081658393f, -0.4324743748f, 0.3294085860f, -0.2039659619f, 0.0936647281f, -0.0207224283f, -0.0670449734f, -0.1902613938f, -0.1760548949f, 0.0989050642f, 0.0419936553f, -0.0795484111f, 0.1093191653f, 0.0570347942f, -0.2303096652f, 0.2356847227f, 0.1370766610f, -0.1135792807f, 0.2395489216f, 0.0114760697f, -0.2337177992f, 0.0083290255f, -0.1048382148f, 0.1029287502f, -0.2327771038f, -0.0219216831f, 0.0143245030f, 0.3280866146f, -0.2563405037f, -0.2184264362f, -0.0297612585f, 0.0879478380f, 0.4313365221f, 0.1256025285f, 0.1636322290f, 0.0854483917f, 0.0625841096f, 0.1231255457f, -0.0399916098f, -0.1042083278f, -0.1869003475f, -0.2826780677f, 0.0369582735f, 0.1081160307f, -0.0707125813f, 0.1369510144f, 0.0304422695f, -0.0957287028f, -0.1656425148f, 0.0810090154f, 0.1692821681f, -0.1222186014f, -0.0081664091f, -0.0155376168f, -0.1016812101f, -0.1162507236f, -0.0185247120f, 0.2557733655f, -0.4429160953f, -0.3025836647f, -0.1892950386f, 0.2720722854f, 0.0067238654f, 0.0272584483f, -0.2076124847f, -0.0042626765f, 0.0821715221f, -0.1759563833f, 0.1935221553f, -0.0155059351f, 0.0424961187f, -0.0923833326f, 0.0036337411f, 0.0047039082f, 0.1684613824f, -0.0835499763f, 0.0152650699f, -0.0174613707f, -0.0033732366f, -0.0968279839f, 0.2418057621f, -0.1082094610f, -0.2806412578f, 0.0214488115f, 0.0379631855f, 0.1553793401f, -0.1871780157f, -0.1673622131f, -0.0171725731f, 0.3409803510f, -0.1912133694f, -0.1225012615f, -0.2074093223f, 0.0430995040f, -0.0144188777f, 0.0168520790f, 0.0389126353f, 0.4156251252f, 0.1846439987f, 0.2440924644f, -0.0243162848f, 0.0618742108f, -0.0487787090f, 0.0186618138f, -0.0089221885f, -0.2231971920f, 0.2372466624f, -0.1340520978f, -0.1872777790f, 0.1261030883f, -0.2394028455f, -0.0024328195f, -0.1264292300f, 0.1434590369f, -0.2029510289f, 0.4053671360f, -0.0270753056f, -0.0533239506f, 0.0188342091f, 0.1815578640f, 0.2918736935f, -0.0602029711f, -0.0069071110f, 0.2352699488f, 0.0403394178f, -0.2325185090f, 0.1223629341f, 0.0123910960f, 0.0978046283f, -0.0121299159f, -0.0300095100f, -0.3286185861f, -0.0875652209f, -0.1352992356f, 0.1208131686f, 0.2208925486f, 0.0333068967f, 0.4300171733f, 0.1459169239f, 0.0624036975f, 0.2491478920f, 0.0188795347f, 0.0999618471f, -0.2187506706f, 0.0711466894f, 0.1503599584f, -0.3587054908f, -0.1746487617f, 0.0846217573f, -0.0717532039f, -0.0490581915f, 0.2609227300f, -0.0170150008f, 0.1607960761f, -0.1799756289f, 0.1054556817f, 0.0812061429f, -0.1826306581f, -0.1995038986f, -0.1552517563f, 0.2078734040f, 0.0821347013f, 0.1757052541f, 0.1204745695f, 0.0379278064f, 0.0685344562f, -0.1246691868f, -0.1040137708f, 0.2048862427f, 0.1698226780f, -0.0729491860f, -0.0076436847f, 0.0395210572f, 0.2591001987f, -0.0869214311f, -0.0180006083f, -0.0611863174f, -0.3125009835f, -0.1269809604f, 0.1389655620f, 0.0901059955f, -0.1748496145f, -0.0680693313f, 0.0964581817f, -0.2158180028f, 0.3167101145f, 0.0127098644f, 0.0943919718f, -0.1298202872f, -0.2593499124f, 0.0789545998f, 0.0115835005f, 0.3036938906f, -0.2144541591f, -0.2234435230f, 0.1658206433f, 0.0413405970f, -0.0275338590f, -0.3962727487f, 0.2064845115f, -0.2460942268f, 0.0082455678f, 0.2599678934f, -0.0380583704f, 0.2807188332f, 0.1138939261f, -0.0627145618f, 0.1289082021f, 0.0991287902f, -0.1648163497f, -0.2162615210f, 0.2105797231f, -0.0359515101f, -0.0307702031f, -0.1086577326f, -0.1247711256f, 0.0123730935f, 0.1076814011f, 0.2392420024f, -0.4704619050f, -0.4309833050f, -0.1438475847f, -0.0219090767f, -0.0351761691f, -0.0388821289f, -0.0564073697f, 0.0424716510f, -0.0426097438f, 0.0086202901f, -0.1337800026f, -0.0321613699f, 0.1727778167f, -0.0327716395f, 0.2507450879f, -0.2616871893f, 0.2542421222f, 0.0105395988f, 0.1379967034f, -0.0529733375f, 0.0179807432f, -0.2842467725f, 0.0352751203f, 0.1596387178f, -0.0775848776f, 0.1364958137f, 0.2746299803f, 0.1266875714f, -0.1621819884f, -0.1323962361f, -0.0225752518f, -0.4035209715f, 0.1236897781f, 0.1987650841f, 0.0313981660f, -0.0009655412f, -0.2634154856f, -0.0664769709f, 0.0548276156f, 0.0802343413f, -0.0175504833f, -0.0569543503f, -0.1526620239f, 0.0161351170f, -0.0849671066f, -0.0196573325f, 0.0132545568f, 0.1468946338f, -0.0563944802f, 0.0778246373f, 0.1295664907f, 0.0103751840f, -0.1030559763f, -0.3538237214f, -0.1588342339f, -0.3964999616f, 0.3471907973f, 0.3166931570f, 0.0674556792f, 0.1443370432f, 0.0082682194f, 0.0886249989f, -0.4432584643f, 0.1150255948f, -0.0881365389f, -0.0405517332f, -0.0233464222f, -0.3265429735f, -0.1637560129f, 0.1185295060f, -0.1999974847f, 0.1484877318f, -0.0185756143f, 0.1808631718f, -0.2752258778f, 0.0127682099f, -0.0263035093f, -0.3159415424f, -0.2520584762f, 0.3497250378f, -0.2127851695f, 0.1194399968f, -0.1320814341f, 0.1689253449f, -0.0489651710f, -0.1812389493f, -0.1461274475f, -0.0136895403f, 0.0563943684f, 0.1191336811f, -0.2134639472f, 0.2597445250f, 0.1475918889f, -0.1036759317f, 0.1196397692f, -0.0163246989f, 0.0300111491f, 0.0514984168f, 0.1989493966f, -0.0527413227f, -0.0475380719f, 0.2765555680f, -0.2379460186f, 0.0561988987f, -0.2173916996f, 0.0832376927f, 0.1349066645f, 0.0083495677f, 0.0961599126f, -0.2165077627f, -0.0423261486f, -0.1626314968f, 0.3776940703f, -0.2338949442f, -0.0384351872f, 0.7516308427f, -0.0437567867f, 0.1818633825f, -0.0889891014f, 0.0549752600f, 0.0596296117f, -0.1392183900f, -0.0076107900f, -0.0744249672f, -0.0030572445f, 0.2865724266f, 0.0825671479f, -0.1181961223f, 0.1275468618f, -0.0885195509f, -0.2630901635f, -0.1337132156f, -0.1201881617f, -0.0401054882f, 0.0294434931f, 0.0751608461f, 0.0271867644f, 0.1380149275f, -0.0357460640f, -0.0543211401f, -0.1756879091f, -0.1548961997f, 0.0699138716f, 0.2440676391f, 0.2909678221f, -0.1592971385f, -0.1565349251f, 0.1939333975f, -0.1832276136f, 0.1382985413f, 0.2100362927f, -0.1900387704f, -0.1952186972f, 0.0082414960f, 0.2907461226f, 0.0489616506f, 0.3682790697f, -0.0189253241f, 0.0527009219f, -0.0519725941f, 0.3148786128f, 0.1665340662f, -0.0945693031f, 0.0529087186f, -0.1644661129f, 0.0270276535f, -0.0726851001f, -0.1032681912f, -0.0462243520f, 0.3356049061f, 0.0278312098f, 0.0078703724f, -0.0935971662f, 0.1568351835f, -0.0140154930f, 0.0406656004f, 0.0226520710f, -0.2432255000f, -0.3136272132f, 0.0601934157f, 0.0935620219f, 0.0618171617f, 0.4583353400f, -0.1606755853f, 0.2074912935f, 0.2200280726f, -0.0394956246f, -0.1841884553f, 0.1706033796f, 0.0601507761f, 0.2065707445f, 0.0101413699f, 0.1132183596f, 0.3099443316f, 0.0063960990f, -0.0375166163f, 0.0973900780f, -0.2099108696f, 0.0491121970f, -0.0907197595f, 0.2723037601f, -0.1995014399f, -0.2921561897f, -0.0585863404f, -0.1307166219f, -0.1242208257f, -0.1877799779f, -0.2572803795f, 0.3441413343f, -0.0050824988f, 0.2851430774f, 0.0784125850f, 0.1217457280f, -0.0453119390f, 0.0351838954f, 0.2432790548f, 0.0097450092f, 0.1985317171f, 0.0659366623f, 0.0398280881f, -0.0645375177f, 0.0421262346f, -0.3661208451f, 0.0913703591f, 0.1048867851f, 0.3082444668f, 0.2462229729f, 0.0158148911f, -0.0363028944f, 0.1388144642f, 0.0509720147f, -0.0345037803f, -0.0362015665f, -0.0655494556f, 0.2065280378f, -0.2329744101f, 0.1856010407f, 0.0347815566f, 0.1559183002f, -0.2052972019f, -0.3067729771f, 0.0283751916f, -0.2061381191f, 0.0305984020f, 0.1975394785f, 0.3776886463f, -0.0211474057f, 0.1030649468f, 0.2508457899f, 0.1442351192f, 0.0051630675f, -0.2663204074f, -0.1421113908f, -0.2475322485f, -0.3840288818f, 0.0322647579f, -0.2683449686f, -0.0931059122f, 0.1286672205f, -0.0677799881f, 0.0486870967f, -0.1033793911f, 0.3792901933f, 0.1035503522f, 0.0348549597f, -0.2496747375f, 0.0314422585f, -0.3935711384f, -0.0447962731f, -0.0294902138f, 0.1858400553f, 0.0301575363f, -0.1005309373f, -0.1150429696f, -0.2247158885f, 0.0469097346f, 0.1252091229f, 0.0889203176f, 0.0080530364f, -0.0915091112f, -0.2000773698f, 0.1961362064f, -0.2308936119f, 0.3983189166f, -0.2408496141f, -0.0662748888f, -0.1341694891f, 0.1868419945f, -0.2624174654f, -0.0365653634f, 0.0428117961f, -0.1103841662f, 0.1972523332f, -0.1701180041f, -0.0169191305f, 0.1410509944f, -0.2272213250f, 0.0687480569f, 0.0754278526f, 0.1018385664f, -0.1348698586f, 0.1476840973f, 0.0754175782f, 0.0482977703f, 0.0664239451f, 0.3855023384f, 0.1273232400f, 0.0344360843f, 0.2895352542f, -0.2707126737f, -0.0100934785f, -0.3394412994f, -0.0359960720f, -0.0112286210f, 0.2922873199f, 0.2955200672f, -0.1973165572f, 0.1800260842f, 0.0358561948f, 0.1002967209f, 0.1914305985f, -0.0319319665f, 0.2151406854f, -0.1867735535f, -0.0661104620f, -0.1408923417f, 0.1647807807f, 0.1043319032f, -0.0529139675f, -0.1601167470f, -0.0623969510f, -0.0060402993f, -0.1364691705f, 0.1175680682f, 0.0948380083f, -0.3059166372f, 0.0679809675f, -0.0696059540f, -0.0917546749f, -0.0593422242f, 0.3638278842f, -0.1110794470f, 0.2003028989f, 0.3460532427f, -0.1252441555f, -0.2534163296f, 0.0254647676f, 0.0898194164f, -0.1200099215f, 0.2920137644f, -0.0288818851f, 0.1257834285f, 0.1631938517f, -0.4003272057f, -0.2115995735f, 0.1532251984f, -0.1574161053f, -0.1116323620f, 0.0349834077f, 0.1895384490f, -0.0656416491f, -0.0304745510f, 0.2626306117f, -0.2882716954f, -0.0669654608f, -0.0982115790f, -0.2149177045f, 0.3130714297f, 0.1843285710f, -0.3368829489f, 0.0591881163f, -0.0058993627f, 0.1437578946f, 0.1456160396f, -0.1546283513f, -0.1418705285f, -0.1749812365f, 0.0393849611f, -0.0033729377f, -0.1747343093f, -0.1953813434f, 0.4440606534f, -0.1193420216f, -0.0988260359f, -0.1430782825f, 0.2097125947f, 0.0272806771f, -0.1839031577f, 0.2859679461f, 0.2075338960f, 0.0206858553f, 0.1560870111f, -0.0087647289f, -0.1234839708f, -0.1788675785f, -0.2045384943f, 0.2133799642f, 0.1639274210f, -0.1034301147f, -0.0037155254f, -0.2246867120f, 0.2042077780f, -0.2051132619f, -0.0871355087f, 0.2299425006f, -0.0072409897f, 0.0371178910f, -0.0633116812f, -0.4001941085f, 0.0210663751f, -0.0917363018f, 0.0277278014f, 0.1669909507f, -0.1023333594f, 0.2209497690f, 0.0423842967f, 0.2535958290f, -0.0287191793f, 0.1729414612f, 0.2302594185f, -0.0170326941f, -0.0812865049f, 0.0485200509f, -0.1489161402f, 0.0533529744f, -0.3295089602f, -0.0256131403f, -0.3018025458f, 0.0099185100f, -0.0727850273f, 0.2580470145f, -0.0791149661f, -0.3026297390f, -0.0167944618f, 0.1377054900f, -0.1983571500f, -0.1670699120f, 0.1277240217f, 0.0512566864f, 0.0295368750f, 0.0725527927f, 0.1150966808f, 0.1709595472f, 0.2665868700f, 0.0711458698f, 0.4466464818f, 0.0958841592f, -0.1526763886f, 0.2201196700f, -0.2133884281f, -0.0733375847f, 0.0884141251f, -0.0154153826f, -0.0897414759f, 0.2679921091f, -0.0428120531f, 0.1062938944f, -0.0781736523f, 0.1338693947f, 0.0378799662f, 0.0768035576f, 0.0872026980f, 0.0081876488f, 0.2428399622f, 0.0889834687f, 0.3611057401f, 0.1016857699f, 0.2042438239f, -0.2371715456f, 0.2599151433f, 0.1058929488f, 0.3423711360f, 0.0397424251f, -0.0239154696f, 0.2642225027f, 0.2386577278f, 0.1469147056f, -0.0207407847f, -0.1440766603f, 0.0757085457f, 0.0007861146f, -0.4177050889f, 0.1948930025f, -0.0626979396f, -0.1388240010f, -0.0045018164f, -0.1263570338f, 0.2790482342f, -0.0355824158f, -0.0326595791f, -0.0923619792f, -0.0215402246f, 0.0683417544f, -0.1468797475f, -0.2476546913f, 0.1942020655f, -0.0172450300f, -0.0275878441f, -0.0660712495f, -0.0156277008f, 0.2854944468f, 0.0495001823f, 0.3842680156f, 0.0890837088f, 0.1570196301f, 0.0153740635f, -0.1464371681f, 0.2573139668f, 0.0307495389f, -0.0452232137f, 0.1350548118f, 0.1931136549f, -0.2431518883f, -0.0495694131f, 0.0917408168f, 0.0068960777f, -0.2807960510f, -0.1678041816f, -0.1912750006f, -0.0287380051f, 0.0957094282f, -0.3620888293f, 0.2804865837f, 0.3791386187f, -0.1098872721f, 0.0430945382f, 0.3940863013f, 0.1686911136f, 0.0082163857f, 0.2316659838f, 0.0479592681f, -0.3665698469f, -0.2870800495f, -0.0254746582f, 0.0310069639f, -0.1761456430f, 0.1157380790f, -0.2096811533f, -0.0501861013f, -0.0679271147f, -0.0603010245f, -0.2466972768f, -0.1110487804f, -0.0570969880f, -0.0102199269f, -0.0954537094f, 0.0013864752f, 0.2532458603f, -0.1472322941f, 0.2495119423f, 0.0516806990f, -0.1904648244f, -0.1607555449f, 0.2082649618f, -0.2061222792f, -0.1119598076f, -0.1342754513f, 0.2942070961f, -0.2449746132f, -0.2230737656f, 0.2884646952f, 0.1889881194f, -0.2806356549f, 0.0576108135f, 0.3242338598f, 0.3523778915f, -0.3251084387f, -0.0019344592f, 0.1167451367f, -0.0367189646f, -0.0201275386f, 0.1908384711f, 0.2416479290f, 0.0548513159f, -0.1149463505f, 0.2067443132f, 0.2765954435f, -0.0153130665f, 0.3565081060f, -0.1823554188f, 0.3040631115f, -0.0005667835f, -0.0648870096f, -0.0997799262f, -0.1225228533f, 0.2170174122f, 0.0944362581f, -0.0370707251f, 0.2388975918f, 0.1060302109f, -0.0673405901f, 0.2077924162f, 0.0898073167f, -0.0602669641f, 0.2483204454f, -0.0347091481f, -0.0922773182f, -0.0419101231f, -0.1106190011f, 0.0439279750f, 0.0465168059f, 0.1224545613f, -0.1449755579f, -0.0448370241f, 0.0976326838f, -0.1107746884f, 0.2408703566f, 0.3488732576f, 0.1662417501f, -0.0521525815f, 0.0741414204f, 0.0989612341f, -0.0137783894f, -0.0452746153f, 0.2567174733f, -0.0754762515f, -0.0489565581f, 0.3141132891f, 0.3160385787f, -0.0851293951f, -0.0903059393f, 0.1326753497f, 0.1186375543f, 0.0031371098f, 0.0593764372f, 0.1650903374f, 0.1427849233f, -0.1624284536f, -0.1180616021f, -0.3229189813f, -0.2167333812f, 0.2784444690f, 0.1851459742f, -0.0012592812f, -0.1852058023f, -0.1874491572f, 0.2412378341f, 0.0286632869f, -0.1299089491f, -0.2009465098f, -0.0952370614f, 0.3153001964f, 0.2620269358f, -0.0219216831f, -0.1031972617f, 0.0580201708f, 0.1706475168f, 0.2544362247f, 0.0631654486f, 0.0093783475f, -0.1268235296f, 0.0106704580f, -0.0431137010f, -0.0830213949f, 0.3372640610f, 0.1005860418f, -0.3612906933f, -0.1333211064f, 0.1650219411f, -0.0506232865f, -0.3869987428f, -0.0949890390f, 0.2843781710f, 0.1030011028f, -0.2821721435f, 0.1064836383f, -0.0936700925f, -0.2045622319f, 0.0016843630f, -0.2842198908f, -0.1469059438f, 0.2033072561f, 0.0136292847f, -0.1061803922f, 0.1877368689f, 0.0759820789f, -0.0209572576f, 0.0110962819f, -0.0263353437f, -0.1260413527f, -0.1617750674f, -0.4972439110f, 0.1499157995f, -0.0217088908f, 0.0895990059f, 0.0075432076f, -0.2347434312f, -0.1334546804f, 0.0300880168f, -0.0017439437f, -0.0424678996f, -0.3062679172f, -0.0180400815f, -0.0805768445f, 0.2385517508f, -0.1248862296f, -0.0890994295f, -0.1929320842f, -0.2639728785f, -0.1486202925f, -0.3420058787f, -0.1239689067f, 0.0790666416f, 0.0803966522f, 0.1384432316f, 0.2651184797f, -0.1718173623f, -0.3517839909f, -0.1845508367f, 0.0154993962f, -0.0430747643f, -0.0947050899f, -0.1558826566f, 0.1034156457f, -0.4188185036f, -0.1279359758f, -0.0153802829f, 0.0132877445f, -0.0519730635f, 0.0539298579f, 0.1411552578f, -0.1908049136f, 0.2583615780f, 0.0211420916f, -0.1396998316f, -0.0917737558f, -0.0684160665f, -0.1529750824f, -0.0072198459f, -0.0154900895f, -0.0763159767f, -0.1739529222f, 0.2583806515f, 0.1458672732f, -0.0876949728f, -0.0157975834f, 0.2209680974f, 0.2930609882f, -0.1425425708f, 0.1920223832f, -0.0838849172f, -0.2725264728f, -0.0916838050f, -0.1109344959f, -0.0116954139f, 0.0318577737f, -0.0157202650f, 0.0040647495f, 0.1708124727f, 0.0970426053f, -0.0825639442f, -0.0142029645f, 0.2035587579f, 0.1945917010f, 0.2701032758f, 0.0169749577f, -0.1321396381f, 0.2136535943f, 0.1082756892f, 0.2413755208f, 0.0831108093f, 0.3150641620f, 0.2025780976f, -0.1490373909f, -0.0910357833f, 0.0532012656f, 0.2195980251f, -0.0213043075f, 0.1760342419f, -0.2539550960f, 0.1650118828f, 0.0891580209f, 0.1423702538f, -0.0968562514f, -0.4478075206f, 0.0795213655f, -0.0617946982f, -0.1380670518f, -0.1318159401f, 0.1680890322f, -0.0766159371f, -0.0507075451f, 0.0225564111f, -0.0401649624f, -0.0300428327f, -0.2458035201f, -0.3210734725f, -0.2778444290f, -0.1520150751f, -0.1558139771f, 0.2250362784f, -0.0225462615f, -0.2041801661f, -0.1047791094f, 0.0825164169f, -0.0480785109f, -0.0719380900f, -0.1332628280f, -0.3319001198f, 0.2406364232f, 0.0109044574f, -0.0640971959f, -0.0856931433f, -0.1569334865f, -0.0002347342f, -0.1455455124f, -0.1202438995f, -0.0449484028f, 0.2629837394f, 0.2435548753f, -0.2093279958f, 0.0520462729f, -0.0629956648f, 0.0372514986f, 0.1877069771f, 0.2432463020f, 0.0768771246f, 0.0858699679f, -0.2069299817f, 0.0602151714f, -0.2020289600f, -0.1063072607f, 0.1559462994f, 0.0011783155f, 0.1448367685f, -0.1704383343f, -0.1664336771f, 0.1026793197f, 0.0004656168f, -0.0094664274f, 0.4011524320f, -0.2867990434f, -0.1342877895f, -0.2070636451f, 0.0385274664f, -0.2258863598f, 0.1155505478f, -0.3299456537f, 0.1671456546f, 0.1790098697f, -0.2184848487f, 0.0000437137f, -0.0580883324f, -0.1823697686f, 0.0734092593f, 0.3023401201f, -0.1002668291f, 0.4615136981f, -0.1756839603f, -0.1677470207f, -0.2049095780f, 0.1643852293f, 0.0010143494f, -0.1311642826f, -0.1931257844f, 0.0543060042f, -0.2954490483f, -0.0188730843f, -0.2000166327f, -0.0984079093f, -0.0343297981f, -0.3380623758f, 0.3423125446f, 0.2034728527f, 0.2513732612f, 0.0958459601f, -0.1541355699f, -0.2494634837f, -0.0523676202f, 0.1602578610f, -0.1950443685f, -0.0504606292f, 0.0963913947f, -0.1373295784f, 0.0377121307f, -0.2247179002f, -0.1337418705f, -0.1348649859f, -0.0331632718f, 0.1966772228f, 0.0381384604f, 0.0639929622f, 0.0563352965f, 0.1843534708f, 0.2650683820f, -0.0558410548f, -0.1002975255f, -0.1404408365f, -0.1176839322f, 0.1191732660f, -0.1246798038f, 0.2898055017f, 0.1006754264f, -0.1937614828f, -0.0138918646f, -0.3155825138f, 0.1462964267f, 0.0877729803f, 0.0518171042f, 0.2531897128f, 0.1930560023f, -0.1921541244f, -0.2153394222f, 0.0722232684f, 0.1786258817f, -0.1057144925f, -0.0058516962f, -0.2659043372f, -0.3792409897f, -0.0927812532f, -0.0282370131f, -0.0400655568f, -0.4576027691f, -0.0803558603f, -0.0291700736f, -0.0491020977f, 0.0590172932f, 0.1064343750f, -0.1589878201f, -0.2665681243f, -0.1438623518f, -0.1930382103f, 0.0423022956f, 0.1624230444f, -0.1782185584f, 0.0476074442f, 0.0334086977f, -0.2473526597f, 0.1128547043f, -0.0134639312f, -0.0072424184f, -0.1520707160f, 0.0059705800f, 0.3220085502f, 0.2698518336f, 0.1236703023f, 0.0740349516f, 0.0534031056f, 0.5809042454f, 0.3057540655f, 0.1959503442f, 0.2129865140f, 0.1334555447f, 0.1209569052f, 0.0663930252f, -0.0117788073f, 0.3548336625f, -0.0062032486f, 0.0753356889f, 0.1677200198f, 0.1046014801f, 0.0318187065f, -0.0263656471f, -0.0134601193f, 0.1994179040f, 0.3144571781f, -0.0757663548f, -0.2916031182f, -0.1772205979f, 0.0557343513f, -0.0806894153f, 0.0055498029f, -0.2413771600f, 0.0085464129f, 0.3581245542f, -0.0765030533f, 0.0315444395f, 0.0848581567f, -0.0285670403f, -0.0829233304f, -0.1433342844f, 0.1010941491f, -0.0081212800f, 0.2116840035f, -0.0412013307f, 0.2783312500f, 0.1737597436f, -0.0679465756f, 0.3748636842f, -0.1363196373f, -0.0696223602f, -0.0902509242f, -0.0133776162f, 0.0311188679f, -0.0283493921f, 0.0623563528f, 0.1005398706f, -0.0395688601f, 0.1728713512f, -0.0693264008f, 0.1683392823f, 0.0765286684f, 0.2090541869f, 0.4597394466f, 0.1368381828f, -0.1806425601f, 0.2232206613f, -0.1069451198f, 0.3078602254f, 0.3530173004f, -0.0349368714f, -0.1425094604f, 0.0709392056f, -0.5075926185f, -0.0893100724f, -0.0599371269f, -0.1148949116f, -0.0949920267f, 0.2330420911f, 0.0869073644f, -0.1060344353f, 0.3778830171f, -0.0143069774f, -0.1548564136f, 0.2414847761f, -0.0694049373f, -0.1021276712f, -0.0729502961f, 0.1367908865f, -0.1707173139f, -0.0699952394f, -0.1221270114f, 0.1091783568f, -0.0699551478f, -0.1725041717f, -0.1237009838f, 0.1344273984f, -0.0799355805f, 0.0795928836f, 0.1255560070f, -0.0600703545f, -0.2568178177f, -0.0870296583f, -0.0753685459f, 0.1316169202f, 0.1890567243f, 0.3151350319f, 0.2266842723f, -0.1853965819f, -0.1170166209f, -0.2038655728f, -0.0028529086f, 0.2829811573f, 0.1419852674f, -0.1911721528f, -0.1528022587f, 0.0276006199f, -0.0080543654f, 0.1354793906f, -0.1724993438f, -0.0674825683f, -0.0685013831f, -0.0248713493f, -0.1736128032f, -0.1763953716f, -0.2059128582f, 0.0602712817f, 0.1579523236f, -0.2708293200f, 0.3477027118f, 0.3802523911f, 0.0073922505f, 0.0792962536f, 0.0840746909f, -0.0873471946f, 0.0337600484f, -0.1118884087f, 0.0212971158f, -0.2069854885f, -0.1916910708f, -0.0203732941f, 0.0113256099f, -0.1133966371f, -0.1368389130f, 0.2405058593f, 0.0990089402f, 0.3184590042f, -0.0523787588f, -0.0295063332f, 0.4211703837f, -0.0242161192f, 0.1004037783f, -0.2652850449f, -0.0772874951f, -0.0299309436f, 0.0107154315f, 0.0279147923f, -0.1014628634f, -0.2150105834f, -0.0594135560f, -0.1458866745f, -0.0634728298f, -0.1695025265f, 0.1566875875f, -0.0804856569f, 0.0462710932f, -0.3664338291f, -0.1696914285f, -0.2185416222f, -0.0188326780f, -0.3340444863f, 0.2586598694f, -0.1091814488f, 0.2636073232f, 0.1647533625f, 0.0010690816f, 0.0810448676f, 0.0559859872f, 0.1082904339f, 0.0420468226f, 0.0701464042f, 0.3612704575f, -0.0757281706f, -0.2723123133f, 0.1407299042f, -0.4102734923f, -0.0833481997f, -0.0076709245f, -0.0835498273f, 0.1395159513f, -0.0030427543f, 0.0203541070f, -0.1218904033f, 0.0076584606f, 0.0596325807f, 0.2606105804f, 0.1047115847f, -0.0344094373f, 0.1064197794f, -0.0234972108f, 0.2932270169f, 0.1868938953f, -0.2660126984f, -0.2144063860f, -0.2675504982f, 0.0210319962f, 0.0516737178f, 0.1262020469f, -0.0494023487f, 0.2308629751f, -0.0967944413f, -0.0352801792f, 0.0736962929f, -0.1797997653f, -0.1595503539f, 0.2580326498f, -0.1232556179f, 0.0501844622f, 0.1163755134f, -0.0650751591f, -0.0713610798f, 0.0133114569f, 0.1187431961f, -0.1307471544f, -0.1365990937f, 0.0069138417f, -0.2718998194f, 0.1143887043f, 0.3580387235f, -0.0300340857f, -0.0010835588f, -0.1571068466f, 0.2068120539f, 0.2917040288f, 0.3196927905f, -0.4714039862f, 0.1864600331f, 0.1424581856f, 0.0405417979f, -0.1640557647f, -0.0621488541f, -0.1916100681f, 0.2894630432f, 0.0145525401f, -0.0695740506f, 0.3416523039f, 0.0172281116f, 0.1191922575f, 0.3265765607f, 0.1225629225f, 0.1290756911f, 0.0617981963f, 0.0384574719f, -0.0388102531f, -0.0957837626f, -0.2635717988f, -0.1102055386f, -0.0037992320f, 0.4944043756f, 0.0518107675f, -0.2084030211f, -0.0429100171f, 0.0512436628f, -0.0203788429f, 0.1694260538f, 0.1335681975f, 0.1346131414f, -0.2288471609f, -0.2343447953f, -0.0363739692f, -0.0371523164f, 0.1275180429f, 0.1087454259f, 0.0556579158f, -0.0835129544f, -0.1342096925f, -0.2577594519f, -0.0811819658f, 0.2236676216f, 0.1232377440f, -0.0636891350f, -0.1926422566f, 0.2980807722f, 0.0658508614f, -0.0418608896f, 0.0178415310f, 0.2631312311f, -0.0064708274f, 0.1181751341f, 0.1280441582f, -0.1175945029f, 0.0353211053f, -0.2167857885f, -0.2575657666f, 0.2108838409f, -0.5325132012f, -0.0117016323f, -0.2754587233f, 0.2094579786f, 0.3335790336f, -0.0647499189f, 0.0838294178f, 0.0575265698f, -0.2824189663f, 0.0894866139f, 0.3004823923f, -0.1761250347f, -0.0922865421f, 0.0206732675f, -0.1004808098f, 0.1660935730f, -0.1912055910f, -0.1575866193f, 0.2126393169f, -0.0887399688f, 0.0749433339f, 0.1240998134f, 0.0287978910f, -0.0067317318f, -0.2354539633f, 0.0265011825f, 0.0083975205f, 0.0249704923f, -0.2181361169f, -0.0203858949f, -0.3693415821f, 0.1791587174f, 0.2070159465f, 0.0855230391f, -0.0713608861f, 0.1302673966f, 0.1077835634f, 0.1633647531f, -0.1072535738f, 0.0106150378f, -0.1845505089f, 0.0837641656f, -0.0015730844f, 0.4427495897f, -0.1935180724f, 0.2364754975f, 0.0027007889f, -0.0473291613f, -0.1549283266f, 0.1513568908f, -0.0110241240f, -0.0228247680f, -0.3512694240f, 0.0182461794f, -0.2848713696f, -0.0311910957f, -0.2982458472f, -0.0079989871f, -0.1364034712f, -0.3231884539f, 0.1316058338f, -0.2799770236f, -0.1843009740f, 0.1924490035f, 0.0838243216f, -0.1800168753f, -0.1363969445f, 0.3444252908f, -0.2453137040f, -0.1747693717f, 0.0765836388f, -0.1564922333f, -0.0299628116f, -0.0156601928f, 0.0643603280f, 0.0377783850f, 0.3097503781f, 0.0723022074f, 0.1610001624f, 0.1522308141f, 0.1930258870f, 0.2291411310f, -0.0234149881f, -0.0265158936f, 0.1051278263f, 0.0565548837f, 0.3003781140f, -0.0827477872f, 0.1290924400f, 0.0438344963f, -0.2182678282f, -0.1400096416f, 0.0783148333f, 0.3604333997f, -0.2216206342f, 0.0972061306f, 0.0064197537f, -0.4714633822f, -0.1890327632f, -0.0824320167f, 0.0066661970f, -0.1559803784f, 0.1103303656f, -0.2124867588f, -0.1437681764f, 0.2185430080f, 0.1391347647f, -0.1611054540f, 0.2174035162f, -0.2561780214f, 0.1068627909f, -0.2011510581f, -0.0776265040f, 0.1283113509f, 0.4150340259f, 0.0031684299f, 0.0369902328f, -0.0543933697f, -0.2139749974f, -0.0897813812f, 0.2432381511f, 0.0242441483f, -0.2460804284f, -0.1957796812f, -0.0866954550f, -0.0299919117f, 0.0575264990f, 0.1751672775f, -0.1790821850f, -0.1848218590f, -0.1204154193f, 0.1399897039f, 0.0315762982f, -0.1485820264f, 0.0313593745f, 0.3208912909f, -0.3051644266f, 0.0199745186f, -0.2711425126f, 0.0576803833f, -0.0436250865f, 0.1467076093f, -0.0701896697f, 0.4095113277f, 0.3013017476f, -0.1878912598f, -0.0414057113f, -0.0616247393f, 0.2768996656f, -0.1549983323f, -0.0169866439f, 0.0802431330f, 0.0153344143f, 0.2282524407f, 0.1096790805f, -0.3452019393f, -0.2338219136f, 0.1138810590f, -0.0717173293f, 0.2693654001f, -0.0919525772f, 0.0896527469f, 0.1108198538f, -0.3158634007f, -0.3147432208f, -0.0697245300f, 0.1383466125f, 0.2413539290f, 0.0920083895f, 0.0960393623f, -0.0030546137f, -0.0643852130f, -0.0672317371f, -0.0392723978f, -0.1350491792f, 0.1134648249f, 0.1211592332f, -0.3757508993f, 0.1929687262f, -0.4095164835f, -0.0635049865f, 0.0885716975f, 0.0784644037f, 0.0911641419f, -0.1093585119f, 0.1527987868f, 0.2576295435f, 0.2965242267f, 0.1134454161f, 0.0479253270f, -0.1904182285f, 0.2420258522f, 0.0437160954f, -0.0631696433f, -0.0892481878f, -0.1131395996f, 0.1331438124f, 0.0177543424f, 0.1305053085f, 0.1538212895f, -0.1210778654f, 0.2174237669f, 0.1490919143f, 0.1401493847f, 0.1918649226f, -0.0152753126f, 0.0711029768f, 0.0837978199f, -0.2678140998f, 0.1217532307f, 0.1956255436f, 0.1616853178f, 0.0815776959f, -0.0972255692f, 0.0702048764f, -0.0730689839f, -0.1262159497f, -0.2649973929f, -0.1211776212f, 0.0198945869f, -0.0475704595f, -0.0719368085f, -0.3607023656f, -0.2029620856f, -0.2340610176f, 0.1120486706f, -0.0639846548f, -0.3256612122f, 0.1502920687f, 0.0694914609f, -0.1908731163f, 0.1180576235f, 0.0311220791f, 0.1512688845f, 0.1566574126f, -0.0966952592f, -0.1017743945f, 0.0149736656f, 0.2338756174f, 0.1788582653f, 0.0655591562f, 0.0653928667f, 0.1739882529f, -0.1566386074f, -0.0332152918f, 0.2389199138f, -0.0345299281f, -0.2082305104f, 0.0069701029f, 0.1526173353f, -0.0498832576f, 0.2404562980f, 0.2749587595f, 0.1452888995f, 0.0469932891f, 0.0380033664f, -0.2069597691f, 0.0484739318f, 0.2408710569f, 0.1170463413f, -0.3304128945f, 0.2147320956f, -0.1115809381f, 0.2772601247f, 0.0555096231f, -0.0211140718f, 0.3271109760f, -0.1277241111f, -0.2715413272f, -0.1171622649f, -0.3057823479f, 0.0637339056f, 0.1755650789f, -0.2494808584f, 0.0500913784f, -0.0258173198f, -0.5685091615f, -0.0490988865f, -0.0668973699f, -0.0625891238f, -0.2366646826f, 0.0122992257f, -0.3180204630f, -0.2325081229f, -0.2479232252f, 0.1150264442f, 0.0173659083f, 0.2961194813f, -0.1456742436f, -0.0680497587f, -0.0018635133f, 0.2726769447f, 0.2080532312f, 0.0477908589f, -0.0492749102f, 0.0515678376f, -0.0805826411f, -0.1533828378f, -0.0090592466f, 0.0327471830f, -0.1032687575f, -0.1616890132f, 0.2145224959f, -0.4909885824f, 0.3685602844f, 0.0470170267f, -0.2760663033f, 0.2964459658f, 0.1109306365f, 0.0681084543f, 0.0932008475f, -0.0790151954f, -0.0474210791f, -0.1741040796f, 0.1617524475f, 0.1135777086f, 0.1573215425f, 0.1496746391f, -0.1777889282f, 0.0693562850f, -0.3285045624f, -0.1637372822f, -0.0481839515f, -0.0292143263f, -0.0851275474f, -0.0295329168f, 0.0667595118f, -0.0566364415f, -0.0029527470f, -0.0798489451f, -0.0096291155f, -0.0375171080f, -0.3278778791f, -0.0815527961f, 0.1499385685f, 0.1932727396f, -0.2665338218f, -0.2743110955f, 0.2582942545f, 0.0071614129f, -0.2684149146f, -0.0710144788f, 0.3618842661f, 0.4323330224f, 0.1023999751f, -0.0108075431f, 0.3533044457f, 0.3019489646f, -0.1713157892f, 0.0760953128f, 0.0390065312f, 0.1279723197f, -0.0345027968f, -0.1559909582f, 0.0795311928f, -0.0533897541f, -0.0913630575f, -0.0745055079f, 0.1642475575f, 0.1705451012f, 0.0011381580f, -0.1350611001f, -0.1168738976f, -0.1324650049f, -0.0579031743f, 0.0608301722f, -0.0885863528f, 0.2104379535f, -0.0686928332f, 0.3772388399f, 0.1058737636f, 0.0220384579f, -0.1863868833f, -0.1431514025f, 0.3568595350f, -0.0034368299f, 0.2060927451f, -0.3196900189f, 0.1756904274f, -0.0515177138f, 0.0774050727f, 0.1460256428f, 0.0876325071f, 0.2883308530f, 0.1107103080f, 0.1095075309f, -0.0154759614f, 0.0646368489f, 0.1121535376f, -0.1807290465f, 0.1519175172f, 0.0463516824f, -0.1382819414f, -0.2431321740f, -0.0625489429f, 0.0866574198f, -0.1188998148f, 0.1593336165f, -0.1937589198f, 0.2018585652f, -0.0567359664f, 0.2504891455f, -0.1612702459f, -0.0548077561f, -0.2280772924f, -0.0707926527f, -0.0424603596f, -0.0748106614f, 0.2548538148f, -0.1584461331f, 0.2310198247f, -0.2263142616f, -0.2077183425f, 0.2072838843f, -0.0504451580f, -0.0805234015f, 0.2315416783f, 0.0976211056f, 0.0970900580f, 0.0096884714f, -0.1695078760f, -0.0022186374f, -0.3100340664f, 0.0603789948f, -0.0154593699f, 0.1137055382f, -0.1833648384f, 0.1270202547f, -0.1960567236f, -0.1872139126f, -0.1519937366f, 0.0462444425f, -0.1425004452f, 0.0228050686f, -0.0005638683f, -0.1073576063f, 0.1699218601f, 0.2474867105f, 0.1222041547f, -0.0130497850f, 0.0010389272f, -0.5657231808f, -0.4573939741f, 0.2499942034f, -0.2870630920f, -0.1631712914f, -0.0326765515f, 0.2332626730f, -0.2226619273f, 0.3550153971f, 0.0344501361f, -0.0044195321f, 0.0304996762f, 0.2103681862f, -0.0108216517f, -0.0780890062f, -0.0119172679f, 0.0827831924f, 0.0582814664f, 0.1886474192f, 0.3179040849f, 0.1274899095f, -0.2028445899f, -0.0269959774f, 0.1303498000f, 0.0172656439f, -0.1327937990f, 0.0474499092f, 0.1276599616f, 0.0505047441f, 0.1959306002f, -0.1572535038f, 0.0581743829f, -0.2631017566f, 0.2278755456f, -0.1148696840f, -0.0596736372f, 0.0364874192f, 0.1503072381f, -0.1299712807f, 0.0804281384f, 0.1628208309f, -0.1470062882f, 0.1998680234f, -0.1149925217f, 0.2337472141f, -0.2606111765f, -0.2344892174f, -0.2783575654f, -0.0138413236f, -0.1056914851f, 0.1037132293f, -0.0694071874f, 0.1029155105f, -0.2355542928f, 0.0003049897f, -0.1610771120f, 0.1048538536f, 0.2750357985f, 0.1171089783f, 0.1550838351f, -0.0259566419f, 0.0762955621f, 0.1083050817f, -0.2034432739f, -0.0414066315f, 0.4501238763f, 0.0624201037f, -0.0378507078f, 0.0917132422f, -0.2782807350f, -0.3634763062f, -0.0775298029f, -0.4153870642f, 0.0816293433f, 0.2000491321f, -0.1129588932f, 0.1444542408f, 0.1987588853f, -0.1832588613f, -0.3616004884f, -0.0972041637f, -0.0700839087f, -0.0657065883f, -0.2587096691f, -0.0973980054f, -0.1623758376f};
const float b2[] = {-0.0384200849f, -0.0252428036f, -0.0026875113f, -0.0338627547f, 0.0067661190f, -0.0061480142f, -0.0059635835f, -0.0261092167f, -0.0231838990f, 0.0084885033f, -0.0045281122f, 0.0110622086f, -0.0042827153f, 0.0091953594f, 0.0058725048f, 0.0008673313f, 0.0472304448f, 0.0108619379f, -0.0240411405f, -0.0179105215f, -0.0069289249f, -0.0201684348f, 0.0218702033f, 0.0283666831f, 0.0158716068f, -0.0167495292f, 0.0024961743f, 0.0022693649f, -0.0004037181f, -0.0060851239f, -0.0092675872f, 0.0217050575f, 0.0157562289f, 0.0024789923f, 0.0009653891f, -0.0199617818f, 0.0061666742f, -0.0042039356f, 0.0095993364f, -0.0160464048f, -0.0156390145f, 0.0370877795f, 0.0207321756f, -0.0158094335f, 0.0056552691f, 0.0031600224f, -0.0086477948f, -0.0083942106f, 0.0043274369f, -0.0136481375f, -0.0064921123f, -0.0027681906f, -0.0253707655f, 0.0107971728f, 0.0215386376f, -0.0173550248f, -0.0133152660f, 0.0018404464f, -0.0116908662f, -0.0110889012f, 0.0154253794f, 0.0121289017f, -0.0221954957f, -0.0149181662f};
const float W3[] = {0.0004363662f, 0.0010378711f, -0.0030921546f, 0.1185481250f, 0.0001081949f, -0.0005108601f, -0.0010223631f, 0.0012446914f, 0.0001118117f, -0.0010252374f, 0.0001863910f, 0.0014421381f, 0.0006621277f, 0.0006022948f, -0.0015504495f, 0.0006405727f, -0.0007692777f, -0.0002759937f, -0.0209673215f, -0.0083147231f, -0.0258344114f, -0.0011037189f, -0.0018522716f, -0.0272270031f, -0.0028364216f, -0.0792684630f, 0.0023419936f, 0.0116905607f, 0.0000127949f, 0.0001555892f, -0.0014956149f, 0.0009861821f, -0.0002279992f, 0.0007474622f, 0.0025703574f, -0.0016074013f, 0.0003896940f, -0.0010020448f, -0.0007256410f, -0.0006677550f, 0.0008485676f, 0.0009355312f, 0.0006095037f, -0.0006486171f, 0.0038689487f, 0.0016205473f, -0.0041272119f, -0.0005944213f, -0.0022752807f, 0.0006729836f, -0.0017260055f, -0.0023699659f, -0.0032225952f, -0.0000163172f, -0.0015165872f, -0.0003867160f, -0.0023136670f, 0.0029041821f, 0.0017781069f, 0.0029428927f, -0.0112445438f, 0.0013505719f, 0.0068828664f, 0.0010314953f, 0.0001446375f, -0.0006124584f, -0.0001785393f, 0.1048936769f, -0.0013287649f, -0.0007256779f, 0.0010962192f, -0.0000443085f, 0.0007623666f, -0.0000700969f, -0.0005575636f, 0.0009455858f, 0.0009601365f, 0.0007154240f, -0.0000501974f, -0.0000915521f, -0.0016982069f, -0.0008680461f, -0.0235281307f, 0.0000190244f, -0.0351497978f, -0.0014219908f, -0.0005620213f, -0.0345395170f, -0.0001765940f, -0.0755797327f, -0.0140174599f, 0.0178338066f, -0.0007249152f, -0.0011398215f, 0.0005094869f, -0.0007490376f, -0.0000044277f, 0.0003468425f, 0.0000108169f, 0.0003470118f, -0.0001905091f, 0.0021598670f, 0.0034558314f, 0.0011738619f, -0.0005838388f, -0.0011741606f, -0.0008194903f, 0.0004415073f, -0.0048174863f, 0.0012954558f, -0.0050770743f, -0.0006986028f, -0.0023981715f, 0.0010850352f, 0.0011722554f, -0.0020973992f, -0.0005783192f, 0.0005149379f, -0.0012512760f, 0.0006517776f, -0.0014145757f, 0.0002259296f, 0.0004416421f, -0.0020261968f, -0.0086380104f, -0.0016593490f, 0.0021182892f, -0.0066683195f};
const float b3[] = {-0.0008411753f, -0.0000559334f};

#endif