#ifndef PARAMETERS_H
#define PARAMETERS_H

const float W1[] = {0.1177440435f, 0.0754530504f, 0.0097297644f, 0.1159303784f, 0.2336385995f, 0.0966433957f, -0.2992762327f, -0.1363068223f, -0.2944134772f, 0.1336059123f, -0.1429138184f, 0.0656967312f, -0.1849414706f, 0.0123106213f, -0.0558164977f, 0.1627271920f, -0.0444173366f, 0.0227785949f, -0.2618827522f, 0.0240654256f, -0.1269301474f, 0.1218600795f, -0.0911120623f, -0.0433965921f, 0.0274605229f, -0.0879586861f, -0.3594660461f, -0.1474252492f, 0.0733467937f, 0.0077530411f, -0.1658048183f, -0.0701183826f, -0.1885706037f, 0.3197585940f, -0.1832509786f, 0.0279026795f, 0.0639124960f, -0.0208213143f, 0.2633397877f, 0.0880197808f, 0.0099187158f, -0.1050281003f, 0.0659818873f, -0.3700509071f, 0.1667049378f, 0.0158643257f, -0.2013353407f, -0.2862261832f, -0.0279076379f, 0.1029781774f, -0.1951283664f, -0.5342399478f, 0.1837798208f, -0.2686326802f, 0.0134247337f, 0.0097706961f, 0.0404548198f, -0.3612949848f, -0.1939072609f, -0.2522399724f, 0.1286160052f, -0.1876747608f, 0.2709483802f, -0.0805896446f, -0.0228235219f, -0.2412775010f, 0.1313795149f, 0.0856779143f, -0.2209630609f, 0.0976576954f, 0.2805887461f, 0.1009850278f, 0.1946776807f, -0.1769836694f, -0.1874246150f, -0.1117135137f, -0.0287327096f, -0.0861264095f, -0.2952901125f, 0.2579303682f, 0.0247624386f, 0.2899473906f, 0.0174256675f, 0.1427792162f, -0.3884136081f, -0.0965973958f, -0.1578404456f, -0.3600785732f, -0.0753436759f, -0.2164896131f, -0.1659548134f, 0.2284092754f, 0.0546704791f, 0.1292810738f, -0.0056545078f, 0.0802490413f, -0.3185928464f, 0.0592047982f, 0.1979869008f, 0.0456257872f, -0.1881664246f, 0.3038405776f, -0.0076352893f, -0.0629752353f, 0.1680283844f, 0.0726417303f, -0.0817381069f, -0.1512862295f, -0.0584881082f, -0.1859388798f, -0.0463776812f, -0.4051257074f, 0.2514870167f, -0.0802087560f, 0.1293154359f, 0.1789881289f, -0.0691801161f, -0.4421840012f, 0.0361180343f, -0.0381066576f, -0.1735718548f, -0.1228885204f, -0.2481438816f, 0.0542853028f, 0.1208484769f, -0.0716217756f, -0.1289564520f, -0.1747247726f, -0.2649373114f, -0.1798330545f, -0.1532887369f, -0.1146622896f, -0.0170301739f, 0.3262695670f, -0.0663561746f, 0.0441319607f, -0.0510506220f, 0.0846088529f, 0.2532137930f, -0.3892398477f, 0.1408504695f, -0.1539469212f, 0.1206327230f, -0.0265830625f, -0.0744976923f, -0.2617121041f, -0.2227080911f, 0.1908305734f, 0.3419665992f, -0.2379900962f, -0.0418731533f, -0.1068781838f, -0.0709784701f, -0.1012254804f, 0.2064315975f, -0.2250178754f, -0.0396495834f, -0.0133289006f, -0.2971005738f, -0.4604873359f, 0.1239376068f, -0.2432352155f, -0.0896711573f, -0.0591619834f, -0.1745416224f, 0.2185183316f, 0.1120979637f, 0.1134897992f, 0.0695897266f, 0.0030569639f, 0.2923810184f, 0.2341937125f, -0.0455821045f, 0.0154369185f, 0.0729965717f, -0.1118441448f, -0.1159576476f, 0.2517196834f, -0.2015926093f, 0.1044659689f, 0.1294011772f, -0.1397649795f, -0.0009362152f, -0.0520157404f, -0.0520779416f, -0.1867220402f, -0.3008020818f, -0.1472738236f, 0.1812348664f, 0.0294023752f, 0.3491042852f, -0.3661853373f, 0.1064231098f, -0.0472286753f, -0.0102421185f, 0.0811696798f, -0.5720180869f, 0.0619089752f, 0.0307547711f, -0.1314671189f, 0.0524683781f, -0.3484410346f, 0.1763246208f, -0.0900715292f, -0.2060083300f, -0.2817251682f, -0.0819384158f, -0.1168956235f, 0.1209501177f, 0.1957441270f, 0.1284783930f, -0.1342761666f, -0.1113601103f, 0.1836885661f, 0.1978795826f, 0.4294425249f, 0.2667646706f, 0.0605941303f, -0.0515277609f, -0.0073689092f, -0.2029794604f, -0.3466905951f, -0.1535660625f, -0.1179407462f, -0.1416906267f, 0.2271977812f, -0.1703814864f, 0.0638351738f, 0.0629800186f, 0.3897795975f, -0.1761776656f, 0.1854911745f, 0.4400541186f, 0.1967825741f, 0.0202096961f, 0.1418958902f, 0.1331201047f, -0.0940057412f, 0.0321167149f, -0.3139879704f, 0.4607050121f, 0.0198146608f, -0.0974336788f, 0.2182708979f, -0.1862555444f, -0.3454625010f, 0.2156276554f, 0.2059716582f, 0.1046962738f, -0.0266401209f, 0.0965708271f, 0.6930437684f, -0.2875144184f, 0.1131282970f, 0.2468580604f, -0.1930249333f, -0.0211094785f, 0.1054685414f, -0.2270148993f, 0.0586409941f, -0.1038377881f, 0.2656005025f, -0.1788507998f, 0.1835545450f, -0.0879631639f, 0.0001464395f, -0.0626949444f, -0.0928244144f, -0.0988913924f, -0.2240278870f, 0.0507598966f, 0.0430716723f, -0.0761278421f, -0.2810082734f, 0.0653341860f, -0.0217277240f, -0.0187455378f, 0.1287526637f, 0.0744054765f, -0.1218849793f, 0.1155769303f, 0.0127781387f, -0.1136242598f, 0.0529584698f, 0.1165531129f, 0.0179555491f, 0.1094791815f, -0.2026145607f, 0.1249746457f, 0.2213468552f, 0.0671054646f, -0.2288153619f, 0.1530231982f, 0.1771589369f, -0.1099826023f, 0.2144826949f, 0.0392189920f, 0.1510142237f, -0.1121816561f, -0.0277841631f, -0.2303397954f, 0.0300589968f, 0.1718339026f, 0.0384899601f, -0.0072171711f, 0.0141934659f, 0.1684016585f, 0.3026049137f, -0.0325518213f, -0.0061112572f, -0.0934535637f, 0.5077778697f, 0.2102919966f, 0.0263089836f, 0.0650516674f, -0.2335620970f, 0.1723873466f, -0.2046994269f, -0.0269172490f, 0.1702297032f};
const float b1[] = {0.0182009991f, -0.0160778239f, -0.0055764141f, -0.0026803883f, -0.0017745320f, -0.0205871519f, -0.0173849370f, 0.0180355441f, -0.0028451697f, -0.0193178486f, -0.0266182572f, -0.0004390190f, -0.0150380228f, 0.0106489835f, -0.0084540285f, 0.0000930002f, -0.0065385574f, -0.0131850149f, 0.0165600311f, 0.0003701130f, 0.0129807936f, -0.0160515513f, -0.0274593551f, 0.0016098886f, 0.0046946197f, -0.0149497092f, 0.0075212303f, -0.0225824919f, -0.0122031542f, -0.0211418532f, 0.0060305856f, -0.0140483268f, -0.0173307378f, 0.0041460586f, 0.0186056942f, -0.0011782206f, -0.0165115260f, 0.0010225864f, -0.0194237400f, -0.0355842747f, -0.0180780850f, -0.0057579088f, -0.0012140177f, 0.0029488627f, -0.0218106154f, 0.0043653208f, -0.0026374387f, 0.0190837421f, 0.0161587987f, 0.0190769136f, 0.0310147814f, -0.0159682222f, 0.0145287942f, -0.0029630300f, -0.0079256473f, 0.0062057963f, 0.0154577997f, 0.0160917025f, -0.0173279420f, 0.0015611545f, -0.0086050043f, 0.0023633854f, 0.0331500545f, -0.0041539115f};
const float W2[] = {-0.1266646236f, -0.3550275862f, 0.3700132072f, 0.0459089801f, 0.0109045012f, -0.1892814636f, -0.0067167403f, 0.1606501043f, -0.0022649681f, -0.1652213782f, -0.1223691031f, 0.0372300111f, 0.1116664782f, 0.2526120245f, -0.5331051350f, 0.3043754101f, -0.1605393589f, 0.2379410267f, -0.1093259454f, -0.2558325529f, -0.2729932964f, 0.2559275925f, -0.0302256327f, -0.1712645143f, -0.1331805438f, -0.0375464894f, -0.1821296066f, -0.0160370208f, -0.1780844331f, -0.2428573668f, -0.1178501844f, 0.0250515491f, 0.0816869736f, -0.0264801122f, -0.1086654961f, -0.2555627525f, -0.0719425753f, -0.0071928944f, 0.2731604278f, -0.0734743699f, -0.1574752033f, 0.0658691227f, -0.1182174161f, 0.0311621204f, -0.0802409500f, 0.1441816241f, 0.2131389827f, -0.1164995134f, -0.1260655671f, 0.0876046792f, 0.1724390388f, 0.0893590748f, 0.1094802767f, 0.1981081367f, -0.0126579674f, -0.2030455470f, 0.1732986271f, 0.1788589805f, -0.1721066833f, -0.3575718701f, -0.0614358634f, 0.1248050854f, 0.2426931858f, 0.0802824795f, -0.1264710575f, 0.0672664940f, -0.1013077572f, 0.2019850910f, 0.3515709639f, 0.2148970515f, -0.2048083395f, 0.1136245653f, 0.0608492643f, -0.2729129195f, 0.3365411758f, 0.1023977250f, 0.0420568734f, -0.1489987820f, -0.4496079087f, 0.2011305243f, 0.1012983844f, -0.0539229885f, -0.0430007800f, 0.2347377688f, 0.1103738770f, -0.0263070092f, 0.2284565717f, 0.2229889929f, 0.0622686185f, 0.0849509090f, 0.3018177450f, -0.1882221997f, 0.2673682272f, -0.0658793226f, -0.0632352978f, 0.1908067763f, 0.1019847468f, 0.1174459308f, 0.1888773441f, 0.1049428955f, -0.0528064892f, 0.2203050256f, -0.2002386451f, 0.0767669380f, 0.2234960198f, -0.0277572628f, -0.2359650433f, 0.0848534033f, 0.1313177645f, 0.0690267310f, 0.3697058260f, 0.1283895522f, 0.0418143496f, -0.2319140732f, -0.0728684217f, 0.1694607288f, 0.0075805187f, 0.0778931081f, -0.1867747158f, -0.0943595096f, -0.0407150015f, -0.0671534315f, -0.2273339331f, 0.1311285049f, -0.3572257161f, -0.1234960556f, 0.0167826042f, 0.1182704195f, -0.1505036056f, -0.3021661341f, 0.3505005538f, -0.3410391510f, -0.1404222995f, -0.2369463891f, -0.4271485507f, -0.0601351149f, 0.2315743715f, -0.0700762495f, -0.0002281926f, 0.0873104557f, 0.0161170941f, -0.2697561979f, 0.1028710157f, 0.0032179453f, -0.0731794462f, -0.0569496751f, -0.0321096145f, -0.2007780522f, 0.1159085110f, -0.1507723629f, -0.0686482936f, 0.1193486303f, -0.1932223290f, -0.0713718906f, 0.0700544044f, -0.1394078135f, 0.1087289229f, 0.1604273915f, 0.1921708882f, 0.1739364415f, -0.0478735641f, 0.0531514734f, 0.0401748531f, 0.0176637881f, -0.1379020363f, -0.2706436217f, -0.1908243299f, -0.0250428189f, -0.0989543125f, 0.0091192899f, -0.1554367244f, 0.0681532547f, 0.0873606279f, -0.1924704462f, 0.0896639302f, 0.1089116335f, -0.1835403144f, 0.0355370864f, -0.0653492808f, 0.0629479215f, -0.1727944613f, -0.1909679770f, -0.1459675729f, -0.0857667029f, -0.0910833031f, 0.1368121207f, 0.4455002844f, 0.1547458321f, -0.0589227006f, 0.2732376158f, 0.5377990603f, -0.0114888493f, -0.1984077394f, 0.1102156490f, -0.1032133102f, 0.1783601791f, 0.0654945970f, -0.0709971040f, 0.1779633313f, 0.1235450208f, -0.1089547873f, -0.0179177038f, 0.2923463881f, -0.1130293012f, -0.4028481841f, -0.0808069855f, 0.1656628102f, 0.3987160027f, -0.1869454235f, -0.2012135386f, -0.3248762488f, 0.0308348350f, -0.1667210609f, -0.2503526509f, -0.0397211611f, -0.2933729887f, 0.0984474421f, 0.1305302680f, -0.1805574447f, 0.0685519949f, -0.2076400667f, -0.2688577473f, 0.4215972722f, -0.1113605350f, -0.0820094869f, -0.1929370910f, 0.2090590745f, 0.1959843785f, 0.0764286295f, -0.1018787250f, -0.1490001380f, 0.0827812552f, 0.0121330814f, 0.0305971503f, -0.0487141982f, 0.1307489872f, 0.0129321208f, -0.0499841310f, -0.0663341433f, -0.1590423882f, -0.1160121039f, -0.0986939222f, -0.1455488205f, 0.2252366245f, -0.2335754335f, 0.2270171493f, -0.2829792798f, 0.0721368119f, -0.2877230942f, 0.1302010864f, 0.0034634594f, -0.1600662768f, 0.1316513419f, 0.0941630453f, 0.0265599061f, 0.0719720498f, 0.1181966662f, 0.0582135990f, -0.1553376168f, -0.1808679104f, 0.1501005143f, -0.1143534780f, 0.0911592990f, -0.3328448832f, 0.0110979015f, 0.1836592406f, -0.0368258506f, 0.2042422891f, -0.2527233958f, -0.2884049416f, -0.0317588188f, -0.0553433336f, 0.0870191604f, -0.0877415612f, 0.1401410550f, -0.2660449743f, -0.0551447682f, -0.2191563100f, -0.2856678069f, 0.1552423537f, -0.0392358899f, 0.1918876618f, -0.1698004901f, 0.1470904201f, -0.0676204488f, -0.1459745765f, -0.2550275326f, -0.0447386503f, 0.1061074063f, -0.0953323394f, 0.5114525557f, -0.0176226757f, -0.2189875841f, -0.1616155207f, 0.2515448332f, -0.2066366524f, -0.2433239222f, 0.2938047051f, -0.0621835068f, -0.2240964323f, 0.2122296542f, 0.1594959348f, 0.0034465124f, -0.0263203643f, 0.0637411326f, -0.1447334141f, -0.1536538452f, -0.2156350762f, 0.2673121095f, 0.0884010792f, -0.1925885230f, -0.2418918461f, 0.1578490883f, 0.0658474267f, -0.0640698895f, 0.0071313586f, -0.2233555764f, -0.0304741096f, 0.0813727900f, 0.2347741723f, 0.0023673773f, 0.0794455484f, -0.0162457172f, 0.3176618814f, 0.0792778805f, 0.0775041431f, 0.2057468593f, -0.1359912902f, 0.1529115736f, 0.1810289919f, 0.0515266247f, 0.2693562210f, 0.3857187331f, -0.5464649200f, -0.0260936562f, -0.1770292073f, -0.0932374522f, -0.0593276806f, 0.2517116666f, 0.0228174608f, 0.1852656901f, -0.1507410705f, 0.0415634885f, -0.1274268180f, -0.2015208751f, -0.4050769806f, -0.1384924948f, 0.1592559814f, 0.0052103186f, -0.2681313753f, 0.2346943021f, 0.2756074369f, 0.1426439434f, 0.1124120727f, -0.2509230673f, -0.1918930262f, 0.1766648889f, -0.1699617356f, -0.1703182906f, -0.2101103067f, -0.0303861443f, -0.0169066377f, 0.2551242113f, 0.0873750299f, -0.2453569174f, 0.0856282115f, 0.0475332960f, -0.2348361462f, -0.0306532830f, -0.0187054686f, -0.1154209673f, 0.0765040144f, -0.0256257821f, 0.1684490442f, 0.0322660953f, 0.0412460417f, -0.0009994557f, 0.0116734337f, -0.0864143148f, -0.1568218768f, -0.1753169000f, 0.0926579386f, 0.0486395061f, 0.1120539680f, 0.0296817198f, 0.4503495991f, 0.0038941356f, -0.0056411936f, -0.1199880540f, 0.1599586308f, 0.1629936993f, 0.1046355069f, 0.0840374902f, 0.0168697201f, 0.0489033945f, 0.1434625387f, 0.1337023675f, -0.1417561024f, -0.0193973426f, 0.3229302764f, -0.0634950325f, 0.0484785698f, -0.1242650002f, 0.0953544527f, -0.2092404664f, -0.2375345826f, -0.2167765051f, -0.0756661668f, 0.0128522394f, 0.0078133699f, 0.0786894858f, -0.0005943556f, -0.2652637661f, 0.1609914452f, -0.1918845177f, 0.3201822937f, -0.2313159406f, 0.1125610322f, -0.3025051355f, 0.2614991367f, -0.2253429592f, 0.2200392783f, 0.1459351778f, -0.1125486419f, 0.0726239681f, -0.2023586780f, -0.1824477464f, 0.0032302856f, -0.1320310235f, -0.1290513426f, 0.0584685244f, 0.2375723571f, -0.3260404468f, -0.0163751673f, -0.0100251054f, -0.4717113972f, 0.2310870886f, 0.2557671368f, -0.0468680412f, 0.1774624586f, 0.0939693153f, 0.1153737754f, 0.1439003646f, 0.1488809884f, -0.0260369182f, 0.2370406836f, -0.0253960099f, -0.0594179705f, -0.4435001612f, -0.0782477930f, -0.6298002005f, 0.0692021996f, -0.1407629699f, -0.3279417753f, -0.0433622114f, -0.2796180248f, 0.0641003996f, 0.0554102808f, -0.2550613582f, 0.1636076570f, -0.1849987358f, 0.0321963951f, -0.0316229239f, -0.0309394803f, 0.1094371229f, 0.0784148350f, -0.0192679707f, 0.0026004277f, -0.2511695027f, 0.1031848341f, -0.1786191911f, -0.1905831099f, 0.2110935748f, 0.0362145044f, 0.0096344138f, -0.0756133795f, -0.0011132767f, 0.2062983066f, 0.0135844322f, 0.0821832046f, 0.3004949689f, 0.1264710277f, -0.0444757342f, -0.2670839727f, 0.0213276185f, -0.1220199764f, -0.1433085054f, -0.1014185548f, 0.1219549254f, -0.2541887462f, -0.1202639118f, 0.1868500710f, -0.0044263573f, 0.0324092768f, -0.0201980844f, 0.3937138915f, -0.1737491935f, -0.0933137909f, -0.0648440570f, -0.0244960841f, -0.0269958675f, 0.0741337091f, 0.2017447650f, 0.0124661671f, -0.1088711694f, -0.2474007607f, -0.1152529716f, -0.1964757442f, -0.0347926393f, -0.1053634286f, 0.1647908092f, -0.0337732062f, -0.0567963421f, -0.1034740731f, 0.1663115174f, 0.0969635621f, 0.1314410269f, 0.0869460329f, 0.2845875919f, -0.3177750707f, -0.2516857684f, 0.0429068394f, 0.1103172153f, 0.1768408269f, 0.0750284567f, 0.1056994349f, -0.0953045040f, 0.0450135618f, -0.2962207198f, 0.5476878285f, 0.1643693000f, -0.1055061072f, -0.1218149960f, -0.3722037077f, 0.0502733476f, 0.2521318495f, -0.2651949823f, 0.1918408126f, 0.2218593359f, 0.0287296679f, -0.3898335993f, 0.0744957328f, 0.2286274135f, -0.0790445879f, -0.0151454620f, 0.1099151298f, 0.0769146457f, -0.2452519387f, -0.0679629296f, 0.0901838690f, 0.0035874334f, 0.2683776915f, 0.0169141777f, -0.0285947789f, 0.0945397168f, 0.1098224819f, -0.0432868861f, 0.0807846785f, -0.0036189873f, 0.2264273763f, 0.1566431820f, 0.0033623977f, -0.0195441265f, 0.0550996214f, -0.0780482218f, -0.0146040181f, -0.1375568062f, 0.0380573422f, -0.1889635026f, -0.4249466956f, 0.1487353295f, 0.2243494689f, 0.0931871235f, -0.0057642055f, -0.1056663692f, -0.0534528345f, -0.1621373296f, 0.0290847328f, 0.0431915298f, 0.0640233010f, -0.0017860023f, 0.1102643833f, 0.2649452686f, 0.0543478243f, 0.2145992219f, 0.1939263940f, -0.3100206852f, -0.2012051642f, -0.0376118831f, 0.0312309526f, 0.0387647226f, 0.0614923723f, -0.1096899658f, -0.2896127999f, 0.2476837039f, -0.0158167891f, -0.0764046609f, 0.1576364338f, -0.1858844906f, -0.1447580308f, -0.4746235013f, 0.0547971241f, 0.0356865264f, -0.0444682427f, 0.0403853469f, 0.2794765234f, 0.1169273481f, -0.1935455948f, -0.2607041001f, 0.1547037065f, -0.1698362380f, -0.0487486497f, -0.3423671722f, -0.0261954200f, -0.1554395705f, -0.1362053901f, 0.2840832770f, 0.1519118547f, -0.2104020268f, -0.2036066651f, 0.1269634962f, 0.0410057753f, 0.2030343711f, -0.0669664890f, 0.0343664736f, -0.2417267561f, 0.1889804155f, 0.2186440974f, -0.0434526503f, 0.0645386651f, 0.0924479291f, -0.2367281169f, -0.0776104257f, -0.0708960146f, -0.0589927398f, 0.1519230455f, 0.1684819907f, -0.0569251180f, -0.0144632487f, 0.4966743290f, 0.2674598396f, -0.1343841851f, -0.2460360080f, 0.1730598509f, -0.1930453479f, -0.1931713969f, -0.0012597840f, -0.2139135599f, 0.1374057382f, -0.1603667736f, 0.3565977812f, -0.0855418593f, 0.1682569236f, 0.2360608876f, -0.0309166294f, -0.0989168212f, 0.0650663599f, -0.0183610301f, -0.1022375673f, -0.0973685607f, -0.0523601286f, -0.0578310676f, -0.0164600573f, -0.2721469998f, -0.0041622184f, 0.0721821338f, 0.0973961651f, 0.0025664365f, 0.0051726671f, 0.2703450620f, 0.3091160357f, -0.0384382829f, -0.1965888292f, -0.0942409858f, -0.2148101926f, 0.0862131640f, -0.1430000514f, -0.2018011361f, -0.1454990506f, 0.1865421683f, 0.2017823160f, 0.2739331424f, -0.1690173447f, 0.1538594514f, -0.0438749753f, 0.0864369720f, 0.0255395900f, -0.2745239437f, 0.0808146894f, 0.3575303555f, -0.0925048441f, -0.3489831984f, 0.1266001463f, -0.0662057251f, -0.2373781055f, -0.1585066170f, 0.2165787220f, -0.1917052269f, 0.0096075134f, -0.0935910866f, -0.4273877144f, -0.0446981154f, -0.1264641732f, 0.0825125724f, 0.0773347393f, 0.1755430996f, 0.0720039755f, -0.0622387156f, -0.1345503181f, 0.0229892507f, 0.1003074422f, 0.1628779471f, 0.2105425298f, 0.2353139520f, -0.0174758099f, 0.0373485424f, -0.0452159569f, -0.4159061015f, 0.1156624407f, 0.1757062823f, 0.0183733683f, 0.2296827286f, -0.3859872222f, -0.1769585162f, -0.2793956101f, -0.0170065593f, 0.0694206730f, 0.1835085303f, 0.1788583994f, -0.1006831676f, 0.1680782288f, -0.1192784980f, 0.2649606168f, -0.2164454907f, 0.3446230888f, 0.0362013280f, -0.0378739461f, -0.2004860491f, -0.1696124226f, -0.2425996363f, 0.0224438272f, 0.0049782959f, 0.0238632429f, 0.2980723679f, 0.1779775918f, -0.0244253036f, 0.0087906215f, -0.0507112071f, 0.1848819703f, -0.0412250906f, -0.1469631791f, 0.1291254014f, 0.0399996229f, 0.1448953599f, -0.0713931397f, 0.0145120444f, 0.1072434857f, -0.0555004701f, 0.1515622884f, -0.5303993225f, 0.1678426862f, -0.0563207269f, -0.3921526968f, 0.2747011781f, 0.1380709112f, -0.0018378031f, -0.1931055933f, -0.1323307604f, 0.0353456326f, -0.2236106694f, 0.0308070797f, 0.1870347261f, -0.0416538231f, -0.2106416225f, 0.1235778481f, 0.0181764066f, -0.2403839976f, -0.0132351071f, -0.0305393878f, -0.0244197436f, -0.2608602643f, -0.0892752632f, -0.1121995449f, -0.0773070306f, -0.3568589389f, -0.0503977276f, 0.1675454229f, -0.1463612765f, 0.2588710785f, -0.0920068994f, 0.3116589785f, 0.1864556223f, 0.3741409779f, -0.0471847095f, -0.2072334290f, 0.0399386063f, -0.0554969423f, 0.3070933521f, -0.0218054261f, 0.1161703467f, -0.0666988939f, -0.0875254199f, -0.2557789981f, 0.0070817033f, 0.0004802117f, 0.3193155527f, -0.0371256918f, -0.1462778449f, -0.0655283332f, 0.1598891318f, 0.1032072157f, 0.4014298916f, 0.1500115395f, -0.1276785880f, -0.1472819299f, 0.0247666650f, -0.2607158720f, -0.2093804777f, 0.0744913220f, -0.2368914485f, -0.2139817923f, 0.0723646060f, -0.0035776952f, -0.2815084457f, 0.1804365069f, 0.1875439137f, -0.0591727756f, 0.1967765838f, 0.0285811685f, -0.2393440455f, 0.0657956004f, 0.2507062256f, -0.0819942728f, 0.2075339109f, -0.0324214064f, -0.1772605330f, -0.2454860210f, 0.0264466293f, -0.1687412411f, 0.1324775368f, -0.1788213700f, -0.1913861334f, 0.0729497969f, -0.0325678438f, -0.0405833088f, -0.1160038263f, 0.0277878996f, -0.2730059028f, -0.0683318451f, 0.1531501412f, -0.2431754023f, 0.0589841753f, -0.1116348654f, -0.1914665103f, -0.1104952767f, -0.2167804837f, 0.1042722762f, -0.2941841781f, 0.2414777130f, 0.0157751497f, -0.0599152520f, -0.1259382069f, -0.2483497262f, -0.0835460424f, 0.2304096371f, 0.0097318478f, -0.1037818864f, -0.2489777058f, 0.0610243641f, 0.1203278750f, -0.0967493355f, 0.2284159064f, 0.0163874924f, -0.1140091121f, -0.0986324921f, -0.2809199095f, -0.1474778056f, 0.2186396271f, -0.2420395613f, -0.1954399049f, 0.1293366253f, -0.2819749415f, 0.3074946404f, -0.0949244127f, -0.2982328534f, 0.0248179417f, -0.2924866080f, -0.0600405633f, 0.1739266366f, -0.1214934438f, 0.1701928228f, 0.0781692937f, -0.0471144766f, -0.0087997811f, 0.1160236821f, 0.4996802807f, -0.0608512983f, 0.2784330249f, -0.1322030425f, -0.3430728316f, -0.0612997413f, 0.2414450198f, 0.0754946917f, 0.0330525823f, 0.1075344458f, -0.1279055029f, 0.1342009157f, 0.2441800088f, -0.0477315225f, 0.0582108423f, -0.0436481126f, 0.4362374544f, -0.3521357477f, 0.0903672278f, -0.0224084482f, -0.0714943558f, 0.1605505645f, 0.1479914486f, -0.0659244880f, 0.0082808742f, 0.0269241780f, 0.1270337105f, 0.1344688386f, 0.4376818836f, 0.1592198163f, -0.0340225697f, -0.0402260982f, -0.1660896242f, 0.2323935777f, -0.1646978855f, -0.2649963498f, -0.0307261925f, -0.1972527951f, 0.0679173395f, -0.2071997225f, -0.2480549067f, -0.1745038480f, 0.2851629257f, -0.0344189033f, 0.0991972014f, 0.0210406724f, -0.1158770621f, -0.1788257062f, -0.2292773426f, 0.2040646672f, -0.0009521699f, 0.1354206502f, -0.0295057818f, -0.1096333638f, -0.1605612636f, 0.3108333647f, 0.0283059441f, -0.2047479898f, -0.1918520331f, 0.0081317155f, -0.0056837690f, -0.2634982169f, -0.0940608680f, 0.1654387861f, -0.2116837651f, 0.1889477670f, 0.1446417719f, 0.0626108125f, 0.2107626647f, -0.0462278351f, -0.0592900291f, -0.0825461000f, 0.1604492068f, -0.1261812747f, -0.3137976825f, -0.3265480697f, 0.0634267181f, 0.3908154070f, -0.1867161542f, 0.0126070809f, -0.0321405604f, -0.0293675326f, 0.0820641294f, -0.2793810070f, -0.1953440011f, -0.1924598217f, -0.1193798110f, -0.2588463724f, 0.0965185314f, 0.0051301899f, 0.1888614446f, -0.0833131224f, 0.2387470156f, -0.0225428008f, 0.4177477658f, 0.0335208662f, -0.0591686517f, -0.1718080342f, -0.0452944599f, 0.2166200727f, 0.1824173331f, 0.5313221812f, 0.0297155436f, 0.1240903363f, -0.2554829419f, 0.2243170589f, -0.0708000138f, 0.0023638180f, 0.1055786610f, 0.0088952444f, 0.0818281472f, -0.0241365880f, -0.1540016532f, 0.1462530494f, -0.0675542578f, -0.0170419142f, 0.1820989549f, 0.1208931431f, -0.1011114717f, 0.0186792128f, -0.0413253605f, -0.1708393544f, -0.0651337504f, -0.1017347947f, 0.0491008908f, -0.0460974686f, -0.2426374555f, 0.3700945675f, 0.0601791553f, 0.0784864351f, 0.0833358988f, -0.0461531803f, -0.1165995374f, -0.0071743019f, -0.1138636991f, 0.0486780293f, -0.1993975043f, -0.5403697491f, -0.1255237460f, -0.0805616230f, 0.0972335264f, 0.1207518205f, -0.2996912599f, -0.0630793944f, 0.0258775316f, 0.1020586565f, -0.2131584436f, 0.1100326180f, 0.0308784097f, -0.0647798032f, -0.0812644809f, -0.2993647754f, 0.0856426582f, 0.0499895364f, -0.0346788839f, 0.3534326255f, -0.0506379567f, 0.1278541982f, -0.1495583057f, 0.2450050563f, -0.1761717200f, 0.0504152961f, -0.0643543303f, -0.2181570381f, 0.0419210754f, -0.0798395127f, -0.0283545051f, 0.2526291609f, 0.0090578869f, 0.0472332537f, 0.1160634980f, -0.2407949567f, 0.2153329551f, 0.2618815601f, 0.1188025177f, 0.3370873332f, -0.0524526574f, -0.0986519903f, 0.1144716218f, 0.1639977545f, 0.2016429305f, -0.2495078146f, 0.1226011142f, 0.1465387046f, 0.1867792159f, 0.3485859036f, 0.1264906377f, 0.2593401074f, -0.1574528813f, 0.1589453667f, -0.2233173996f, -0.1081074849f, -0.2160722911f, -0.0252658427f, 0.0171799231f, -0.1554464400f, 0.1306125820f, -0.1191995069f, 0.2397794574f, 0.0935072079f, 0.0032211340f, -0.0703404248f, -0.1097333357f, -0.0117241982f, 0.2105260491f, 0.1948284060f, 0.2932816446f, 0.1511307508f, -0.0816771016f, -0.0623832867f, 0.1211382002f, -0.1809980720f, 0.0319813266f, -0.0402637310f, -0.1162186116f, 0.3691253960f, 0.0408843495f, 0.0776296705f, -0.1171137616f, -0.1702318788f, -0.4037041366f, -0.2210602015f, -0.3012714386f, -0.0863746181f, 0.0873919874f, 0.0382900946f, -0.0644572750f, -0.0696804225f, 0.0664584413f, -0.0766762942f, -0.1780994534f, -0.0476798490f, -0.0987801626f, 0.1717586964f, 0.0181368086f, -0.2541302443f, -0.0081864577f, 0.5274174809f, 0.1743092090f, -0.0956209451f, -0.2292702049f, 0.1583489031f, -0.0869066864f, -0.3027096093f, 0.0248007774f, 0.1476815343f, 0.1145715117f, 0.4410190582f, -0.0554700904f, -0.0612517595f, 0.0776278973f, 0.4182575643f, 0.1824700981f, 0.0333315209f, -0.0540237986f, 0.0615108423f, 0.0904193595f, -0.0479635596f, 0.1482235938f, 0.0577590726f, 0.3208025992f, -0.1125655472f, 0.0221540816f, -0.0356100909f, 0.0915361047f, -0.0218880363f, 0.0186259653f, -0.1024228409f, 0.1430689692f, -0.2632376850f, -0.1936336309f, -0.1245418638f, 0.2044122219f, -0.3500542939f, 0.0657043904f, 0.0045215669f, -0.1095035225f, 0.3287981153f, 0.2293677628f, -0.0249040909f, -0.2458771765f, 0.1582210958f, -0.2683548033f, -0.0618884005f, -0.0390227064f, 0.0640368983f, 0.0833340287f, -0.1207360923f, -0.1849680692f, 0.0137745570f, -0.0667818263f, 0.2521504462f, -0.0984922871f, 0.2586003244f, 0.0195005927f, 0.0924129412f, -0.0760309994f, 0.3185540140f, 0.1545390487f, 0.0851227194f, -0.2368368208f, 0.2208708525f, 0.0938059762f, 0.3217745423f, 0.2566337585f, 0.0484184586f, 0.4703241587f, -0.0588451736f, -0.1662379205f, -0.0708983019f, -0.1424388289f, -0.0339504518f, 0.1099789888f, 0.0020972297f, -0.2111349702f, 0.3385803998f, 0.0215619598f, -0.0346790031f, 0.2462499589f, -0.1783728004f, 0.1029083058f, 0.3688034117f, 0.2127052248f, 0.0504080057f, 0.0811124966f, 0.1614942402f, -0.4245466888f, -0.0610301755f, 0.0517657511f, 0.0957092121f, 0.1013962775f, 0.0655192807f, -0.3351245522f, 0.2212326676f, 0.1232437566f, 0.3610236645f, 0.0672745779f, -0.1543767005f, 0.2589106858f, 0.0856477991f, -0.0396492071f, 0.1301661581f, 0.0607705824f, 0.0224910844f, 0.0712992921f, 0.2592717111f, 0.0933196023f, 0.0628416091f, 0.0990186483f, 0.1345120370f, -0.1769462824f, -0.1613183767f, -0.0673644990f, 0.2920540273f, 0.2356361449f, 0.0074848370f, -0.1195610836f, -0.2173694223f, -0.0831799731f, 0.1110503748f, -0.1639742106f, 0.3097988367f, 0.1153419316f, -0.1658481807f, 0.2385461628f, 0.0562362038f, 0.1135075092f, 0.0973247215f, -0.1537563056f, -0.2592151165f, -0.2281722873f, -0.1078466997f, 0.0814464688f, -0.0038222333f, -0.0365774557f, -0.1364225298f, 0.1835497171f, 0.0095371045f, -0.2414097935f, -0.1497976482f, 0.0534400903f, 0.2355934232f, 0.3580391705f, 0.1018437892f, 0.0289089289f, -0.1892114282f, -0.2036688328f, -0.3455427587f, -0.0654455200f, -0.0918498486f, -0.1185357645f, -0.2178390175f, -0.0205259118f, 0.0670215786f, -0.0521935970f, -0.0811645612f, 0.0851030052f, 0.0769987404f, -0.0287798569f, -0.0152548505f, 0.1741412729f, -0.1019765958f, 0.0122034075f, -0.1915566772f, -0.2451495677f, 0.1677134484f, -0.2650774121f, 0.0468479991f, 0.0979655385f, -0.1449936181f, 0.0173111688f, -0.0468506031f, -0.2463642806f, 0.1555801630f, -0.0522219650f, 0.1830632538f, -0.2766990662f, 0.0110369669f, 0.4014896750f, 0.1979791522f, 0.1552483886f, -0.1687535942f, 0.2554521561f, 0.0452819541f, -0.0672385097f, -0.1679515988f, -0.1353689730f, 0.3532712162f, -0.1619171947f, -0.0562557839f, 0.1679493338f, 0.0975803882f, -0.4550248682f, -0.3353712261f, 0.2428695261f, 0.2085820735f, -0.1469526887f, 0.1380786896f, 0.0379276760f, 0.1888196617f, 0.2423207462f, 0.0262351576f, -0.0361478738f, -0.2114091218f, 0.2133898735f, 0.1475653648f, -0.0513142757f, 0.0278928317f, 0.1323506832f, -0.0028523938f, -0.1326403469f, -0.0942937434f, 0.0488129817f, 0.0434566662f, -0.1165419295f, 0.2320420593f, -0.0620157830f, -0.1021177918f, -0.0487566032f, 0.1146677285f, -0.5060316920f, -0.1006552204f, 0.0171964262f, -0.1067519635f, 0.1425602734f, -0.0202352311f, 0.1284876913f, -0.1100064442f, 0.2735011280f, 0.3364295661f, -0.2696543634f, -0.3227383494f, 0.1088385880f, 0.1773867011f, -0.1905418485f, -0.2281713784f, -0.0528641082f, 0.2180045992f, 0.0648004115f, 0.2112961709f, 0.2369648963f, 0.0278531089f, -0.0395658724f, -0.1443796158f, -0.0883075744f, -0.0573648959f, -0.0569199249f, 0.1071987078f, 0.0467524678f, -0.0698288083f, 0.2030702531f, -0.0012253865f, -0.2779025137f, -0.1916759610f, 0.2586258650f, 0.0438857153f, 0.2266699225f, 0.1903081983f, -0.0514236093f, 0.2006486654f, 0.1116525605f, 0.4829705358f, -0.0796682835f, 0.1915143430f, 0.0384677090f, -0.1196499541f, 0.0817824006f, 0.1553208232f, 0.0283102263f, 0.0199960060f, -0.0502640456f, 0.4008706510f, -0.0160772428f, 0.2046822309f, -0.1813516021f, 0.1590774059f, -0.0798455030f, -0.2183263153f, 0.0640333444f, 0.2360489219f, -0.0592017807f, 0.1900049448f, 0.1531422585f, -0.1140929908f, -0.1176467165f, -0.0235845000f, -0.3213957846f, 0.0633116588f, 0.0752555802f, 0.0024641943f, 0.0266374182f, 0.0430621505f, 0.2565041482f, -0.1818784177f, 0.0602413118f, 0.1771882772f, -0.1759000272f, 0.0735521987f, -0.1686041653f, 0.0923113003f, -0.1445592344f, -0.0977445170f, 0.1943184882f, -0.2488196790f, -0.5475672483f, 0.1908099204f, -0.1216326132f, 0.1721075922f, -0.0092566703f, 0.0223970879f, -0.0768492520f, -0.1708236635f, 0.2098969519f, -0.2649507523f, -0.0266385172f, -0.0876631513f, 0.4445185363f, -0.1226942986f, 0.2550994456f, 0.3199154735f, -0.0321899466f, 0.0475962907f, 0.0053550061f, -0.0024473378f, -0.1106554568f, 0.1835112721f, 0.1404291093f, 0.0612476692f, 0.1702325940f, -0.1924007982f, 0.2103241980f, -0.0816160366f, 0.2469673008f, -0.1415688843f, -0.0762349144f, 0.2363454103f, -0.0360842720f, 0.0482212640f, -0.0821983740f, -0.0055970647f, 0.2570983171f, 0.1596906781f, 0.1032285318f, -0.0138029698f, 0.1670486182f, -0.0983736739f, 0.2534852028f, 0.1207446456f, 0.0831016451f, -0.0269146468f, -0.0276289526f, -0.0203727465f, -0.0669810176f, 0.0237635449f, -0.1037105918f, -0.2376645058f, 0.0935040638f, -0.3208925724f, 0.1596555114f, -0.0398738272f, 0.2477967292f, -0.1135275960f, 0.1096203476f, -0.4635840058f, -0.1060878783f, 0.0599121787f, 0.0245176479f, 0.1647570133f, -0.2806113362f, 0.4496062994f, 0.0960443616f, -0.4347677827f, 0.3321774006f, -0.0324892402f, 0.0652404502f, -0.0081057595f, -0.0832418650f, -0.0470828451f, -0.0115069747f, -0.0092781568f, -0.2073647678f, -0.0369358025f, 0.0786170438f, 0.0852492750f, 0.1388796121f, 0.2814277112f, -0.0429484174f, -0.1932460815f, -0.2314359397f, -0.3352125287f, -0.0445547737f, -0.2060547471f, 0.0637992620f, 0.2674838603f, -0.2569306791f, 0.0493657365f, 0.2176341861f, -0.0085432762f, 0.0621272884f, 0.2133681178f, -0.2056760043f, -0.0296831895f, 0.2690007091f, -0.0884985998f, -0.0508582965f, -0.1904923767f, -0.0676855519f, -0.0355242565f, 0.0694060847f, -0.0576412380f, -0.1056293845f, -0.0323227495f, 0.0612486154f, 0.0644869059f, 0.0498601720f, -0.2857038379f, 0.0493410714f, 0.4566106200f, -0.2290421873f, 0.1273338050f, 0.0195974503f, -0.1739815325f, 0.0102864001f, -0.0199904088f, 0.0360055864f, 0.1469740272f, 0.0096499706f, -0.2839186490f, 0.0626425520f, -0.2814094424f, -0.2560240328f, -0.0689273104f, -0.1111109704f, -0.0581190623f, 0.3289809525f, 0.0676507726f, -0.2031985670f, -0.0242837351f, 0.0000028437f, -0.0453885384f, 0.2274135798f, 0.1919556260f, 0.5700508356f, 0.3320104778f, 0.1694849879f, -0.3071007431f, -0.2047531456f, 0.1390997022f, 0.0043292660f, -0.1858365238f, 0.0290827435f, -0.0083090793f, 0.0826463252f, -0.0182877835f, -0.2318560481f, 0.1110499576f, -0.1892197728f, -0.0920011923f, -0.0085129533f, 0.1990735531f, 0.3262106478f, 0.0550651476f, 0.0071073542f, 0.1988327503f, 0.0160938930f, -0.1121286377f, -0.2715335786f, 0.3023651540f, -0.0031113082f, 0.2427394092f, -0.0565492064f, 0.1245176643f, 0.0685710087f, -0.2408492863f, -0.1958502382f, 0.1173095554f, -0.0455006436f, -0.1798686832f, -0.2465732098f, -0.1596676856f, 0.0228616521f, 0.1806675494f, 0.0019140024f, -0.0929162800f, -0.0477467105f, -0.1529018581f, 0.0761473253f, 0.0041103065f, 0.0232788082f, 0.1459188908f, -0.3245635331f, 0.1344065666f, 0.1376924962f, 0.0713278428f, 0.1182098240f, -0.1993137598f, -0.1572419405f, -0.3305458128f, 0.3655658960f, 0.1140379086f, -0.0404309928f, -0.1140777990f, -0.3455814421f, -0.4133438766f, -0.2177080363f, 0.0092590451f, 0.1615569592f, -0.0030572119f, -0.0997100025f, 0.0283076111f, -0.1790411025f, -0.2755658627f, -0.1243879870f, 0.0154037597f, -0.0025511954f, -0.1158213913f, -0.1749984622f, 0.2433697730f, 0.2307770997f, 0.1482550800f, 0.2342944443f, 0.1875084043f, -0.3337907195f, -0.0651438460f, -0.0967110246f, 0.2735159099f, -0.0649362803f, 0.1080253720f, -0.0633415878f, -0.0569600910f, -0.0672800615f, -0.1335674375f, 0.1181746498f, 0.1419217736f, 0.0995556265f, -0.1048652604f, 0.1534112096f, -0.2590893209f, 0.1242797896f, -0.0419785567f, -0.2456427366f, 0.2095468044f, -0.0638218746f, -0.0006883827f, -0.0318849050f, -0.0793571249f, -0.2048891038f, -0.1852402389f, -0.0594445728f, 0.0383390859f, -0.1816077977f, -0.2150425762f, -0.3836041093f, -0.0033009928f, 0.1568477601f, 0.2716518641f, -0.2848346829f, -0.0330092795f, 0.1199058518f, -0.1512744427f, 0.0317865685f, -0.0435448736f, 0.3176992536f, -0.1539188176f, -0.4211876690f, 0.0989261940f, 0.1506776363f, 0.0572201945f, -0.0920992047f, -0.4891396761f, 0.2265011817f, 0.0858853608f, 0.0923837125f, 0.3056271970f, -0.1794642508f, 0.0492686667f, -0.0411294661f, 0.2384365499f, -0.0525770746f, -0.3173376322f, -0.1087454632f, -0.0143977329f, -0.1572234333f, -0.0182202291f, -0.1401621550f, -0.1992663890f, 0.0858050957f, -0.1175967902f, -0.0036166487f, -0.0262161940f, 0.2737591863f, -0.0400485210f, -0.1474618018f, 0.0565095171f, 0.1134995297f, 0.1703354120f, 0.1643560231f, 0.0623574965f, -0.0349445082f, -0.3432927728f, 0.1526928246f, -0.3296943009f, 0.0078542056f, 0.2425750792f, 0.0297887903f, -0.1831019968f, -0.0936833173f, 0.3427700996f, 0.2336978614f, 0.1993545592f, -0.1722056270f, 0.0711910576f, -0.1014946997f, 0.1134115607f, 0.1045501083f, 0.1020801812f, 0.0366141349f, -0.2164576799f, 0.1010471880f, 0.1532527804f, -0.1049466357f, -0.2587226331f, 0.1578983217f, 0.0685816854f, -0.0428595543f, 0.4091169536f, -0.1427745223f, -0.1151338071f, -0.1440238059f, -0.0915627405f, -0.1426676214f, 0.0998757780f, -0.0114647644f, 0.0070793987f, -0.2324518412f, 0.2519616187f, 0.0874791965f, -0.1176733822f, -0.2540692687f, 0.1918752939f, -0.0515721105f, 0.0376247540f, -0.0155914761f, 0.1135965735f, -0.1476415396f, 0.5159441829f, -0.0042503388f, 0.1687905490f, -0.1951103508f, -0.0486283414f, -0.1291362643f, 0.1193416789f, -0.2326740175f, 0.0855404213f, -0.1950363517f, 0.0964771509f, 0.3268674910f, 0.1096419394f, -0.1667542905f, -0.0667630881f, 0.2023361027f, -0.0543596782f, 0.1986683756f, 0.2166044414f, -0.1050450578f, 0.1371679008f, -0.0661816001f, 0.2172067761f, -0.0268472563f, 0.1006638780f, -0.0635674819f, -0.0669098794f, 0.1436895728f, 0.1128856093f, -0.0050131227f, 0.3765723705f, -0.3127807677f, 0.0583119430f, -0.0512401983f, -0.2970417738f, -0.0179102886f, 0.3383287787f, 0.0756811127f, -0.0017064713f, -0.3165941834f, -0.0717534050f, -0.0435926095f, -0.0377975255f, -0.3247514069f, 0.0909552053f, 0.1035785303f, 0.1626885384f, -0.0900401771f, -0.0554056950f, 0.1630766988f, -0.1409623027f, -0.2808057964f, 0.0291301161f, -0.3225576580f, -0.2256399691f, 0.0157462526f, -0.2158931643f, -0.3582201004f, -0.2822628319f, -0.0032996505f, 0.2017960995f, 0.2370918840f, 0.1500708312f, 0.2642008364f, 0.0568165109f, -0.2625658810f, -0.0385079570f, -0.0162770133f, 0.2795682847f, 0.3216134310f, 0.0331507176f, -0.0306551736f, 0.1234663948f, 0.1145140678f, 0.2145728320f, 0.1621035188f, 0.0132480673f, -0.0246926043f, 0.0131395198f, 0.0650380552f, 0.0917631984f, -0.0207186751f, 0.3267028928f, -0.1180752143f, 0.2062135786f, -0.0868393704f, -0.0350129530f, -0.3621410429f, 0.2324419022f, 0.0982579440f, -0.0464869961f, 0.0592441000f, 0.1663543582f, -0.0846778825f, -0.1218274385f, -0.0929605365f, -0.2061426640f, -0.1335554868f, 0.2540163398f, 0.0110123875f, 0.0226013847f, 0.1119664386f, 0.2200078964f, 0.0640455037f, -0.1177609116f, -0.0531829186f, 0.1386511773f, 0.1513850391f, 0.1952922195f, -0.2712551653f, 0.2759939134f, -0.1835653931f, 0.1147997901f, -0.1141257063f, -0.2106831968f, -0.2598748207f, 0.0455537550f, 0.0011873756f, 0.2908362448f, -0.2772027254f, 0.2459795624f, -0.2399030924f, 0.3049738705f, 0.0633280277f, -0.0576543398f, -0.1409121752f, 0.4021918774f, -0.4306244552f, -0.2760386169f, -0.1192414761f, 0.1133397743f, 0.1712689102f, 0.1559943557f, 0.0928932950f, 0.0467250720f, -0.0171665885f, -0.0093420614f, 0.0165127013f, 0.1462126374f, -0.0436341502f, -0.0705717728f, -0.1304958612f, 0.2056153566f, -0.0806411430f, -0.1383742988f, 0.0918133929f, 0.1638984680f, 0.2936426699f, -0.1883797497f, -0.0743765756f, 0.1740344167f, 0.0504511781f, 0.0273480527f, -0.0112763355f, 0.0868785605f, -0.2320282757f, -0.2256375700f, -0.0647121742f, 0.2536436617f, -0.0888689086f, -0.3103219569f, -0.2347819507f, -0.2590861917f, -0.0690082014f, 0.2601785660f, -0.2026130557f, -0.1325728744f, -0.2505642474f, -0.0148646832f, 0.1331749707f, -0.0835475102f, 0.2620756626f, 0.2309231907f, -0.1633693874f, 0.0946879238f, 0.2863769233f, -0.2570847273f, -0.1566885859f, 0.1545192450f, 0.1601613164f, 0.0918708816f, 0.0353821144f, 0.0619100109f, -0.1340762973f, 0.0433782823f, -0.1800300926f, 0.1867177337f, -0.1029571295f, -0.1411486268f, -0.0033609243f, -0.0042132628f, 0.1189017072f, -0.1501838565f, -0.2788993120f, 0.2667943537f, 0.1308307201f, -0.2138839662f, -0.2741765678f, -0.3975178301f, -0.0019499953f, -0.2920936346f, 0.0074652620f, -0.1646651030f, -0.0045788730f, -0.0561959669f, 0.0098319696f, -0.0970952287f, 0.0359548926f, 0.3070497811f, 0.3028077483f, -0.0349977352f, -0.1093125269f, 0.1425161064f, 0.0672207996f, 0.4468539953f, -0.1547244936f, 0.2151361704f, 0.0487899855f, 0.1844556630f, -0.2826344967f, -0.3173592985f, -0.1261503398f, -0.1207995266f, -0.0051552011f, -0.2678756714f, -0.0108816037f, -0.1594119519f, 0.0412054695f, 0.1242752895f, 0.1430684924f, -0.1215415075f, 0.2189533263f, 0.2307504714f, -0.0244782194f, -0.3852493763f, -0.0810514316f, -0.1310389787f, -0.1758721769f, -0.0896061286f, -0.1210856587f, 0.0264207628f, 0.1408583224f, -0.0974962935f, 0.2177397609f, -0.0547791757f, -0.1458608508f, 0.2067847848f, -0.0052964557f, 0.1167297661f, 0.0555219501f, 0.1968742162f, 0.0932428986f, -0.3809514046f, 0.3615389168f, -0.0223695077f, 0.1766085625f, -0.0281355698f, 0.2766321301f, 0.1057996899f, -0.2651359439f, 0.0096272193f, -0.1791756004f, 0.2845789194f, -0.0143588446f, 0.1024011895f, -0.1658209711f, 0.1373886764f, 0.0227263086f, 0.0464169532f, -0.1330754608f, 0.1515436918f, -0.0088332221f, -0.2208704501f, 0.1377570182f, -0.0754080936f, -0.3541114926f, -0.0034147259f, 0.1333404183f, -0.0632315949f, -0.1140652969f, -0.2063993216f, 0.0860990658f, -0.0673179775f, 0.0512499176f, 0.0392653458f, -0.3860186636f, -0.1477770656f, -0.1752303541f, 0.1142378151f, -0.0144968610f, -0.0451163426f, 0.1501801312f, 0.2616984844f, 0.0845157728f, -0.0091207698f, 0.1634697914f, 0.0070046345f, -0.1151404157f, -0.1272739172f, 0.2764220238f, -0.0812071711f, 0.3203589916f, -0.0320688337f, -0.0208785255f, 0.0147550609f, -0.2296854854f, 0.2796888649f, 0.0526140593f, 0.1375948340f, -0.2680977285f, 0.0184207838f, 0.2373441607f, -0.0254986640f, -0.0757019445f, 0.1655493230f, -0.1796898842f, 0.5487513542f, 0.1661635041f, 0.3226875067f, -0.0765476525f, -0.1733209044f, 0.3898876607f, 0.0772339478f, 0.0242614932f, -0.1751499921f, -0.1164030284f, -0.1437028497f, 0.1927833259f, -0.0201643612f, 0.2028256059f, 0.1043631509f, 0.0979265273f, 0.2477726638f, 0.1357798874f, 0.0781329274f, 0.1463651359f, 0.1707318276f, 0.1986217499f, 0.1768027991f, -0.2098500431f, -0.0889203250f, -0.1992501318f, -0.1374811530f, 0.1713054627f, -0.1565655023f, -0.0596251972f, -0.2783928812f, -0.2684388459f, 0.1566091925f, -0.1044299230f, -0.2403957695f, -0.0099945338f, 0.0191266090f, 0.0677011460f, 0.1335495412f, -0.3571242392f, -0.1599740535f, 0.0799833164f, 0.0143732829f, -0.0505182967f, 0.2432174236f, -0.0175304525f, 0.0520483032f, 0.0486568063f, 0.0337266102f, -0.0632518977f, 0.0409131795f, 0.1857630312f, -0.3251593411f, -0.0706832334f, 0.1146165505f, 0.0297162365f, -0.1776163727f, -0.0339529775f, 0.1682226658f, 0.3605370522f, 0.1468097568f, 0.1488553882f, -0.2923993766f, 0.2001012415f, -0.1695448011f, 0.0877414569f, 0.3086924851f, 0.0500569083f, 0.1050633341f, -0.3750964999f, 0.0436776765f, 0.0696171224f, -0.0694280490f, -0.1170048341f, -0.0860647857f, -0.0529638007f, 0.2321762592f, 0.3686383367f, 0.2875833809f, 0.2738600075f, -0.0346265733f, 0.0937897414f, -0.0099066487f, 0.0624033660f, -0.3677844107f, 0.1643690020f, -0.0553150922f, 0.1462916732f, 0.2514165342f, 0.0894490555f, 0.1410975158f, -0.1063476503f, -0.3333628178f, 0.0898740813f, -0.2356055230f, -0.0513973236f, 0.0521017089f, 0.0186627209f, 0.3449752331f, -0.0809034556f, -0.0597513951f, -0.1711904556f, 0.0608178936f, -0.0568727925f, -0.0705541074f, 0.2378681749f, 0.3534981012f, 0.0369214341f, 0.0592239797f, -0.0287917946f, 0.0130699696f, 0.2137705237f, -0.0462426953f, -0.2997424304f, -0.1369961649f, 0.0723840371f, 0.2456925511f, 0.1368085444f, 0.1369735301f, 0.0779117793f, -0.0362634510f, 0.0447117575f, 0.0897809193f, -0.0438775122f, 0.0069265850f, 0.1935583353f, 0.0734127909f, -0.1561326683f, 0.0238757245f, -0.0371652357f, -0.6050845981f, 0.0499696992f, -0.0617489927f, 0.0405395254f, 0.1581732184f, 0.2447409183f, 0.3192993999f, -0.2571110725f, -0.0725860819f, 0.0046107755f, 0.3225793839f, -0.0144949928f, 0.3812379837f, 0.0265122913f, 0.0756632313f, 0.0106743984f, -0.0705559477f, -0.3167591393f, 0.1779384315f, 0.2646210492f, 0.0310706161f, 0.1248055845f, 0.2972314954f, -0.0489553511f, -0.0615262315f, -0.0583284199f, -0.0238487571f, 0.0858869553f, -0.0809522048f, -0.2301242650f, -0.0390610024f, 0.1665064543f, -0.3011098504f, -0.3672642410f, 0.1660917848f, 0.0416804627f, -0.3758895099f, 0.0969005004f, -0.1244217232f, -0.2191636562f, -0.1528551579f, -0.1354230344f, -0.0279880334f, 0.0343280062f, 0.1303108633f, 0.1274543852f, 0.2697276473f, 0.0429590046f, 0.1412707269f, 0.0499457791f, 0.0365996845f, 0.1242537647f, -0.1332471073f, 0.1532557309f, 0.1043499559f, 0.2678970397f, -0.0257352870f, 0.4617086053f, -0.0824895650f, -0.2233946323f, 0.2004294246f, 0.1091459543f, 0.1932191551f, -0.0808674693f, -0.1253245622f, -0.1923734397f, 0.0170857999f, 0.1546006650f, 0.0130441422f, 0.2208753973f, 0.0431962907f, 0.0932893008f, 0.0451925807f, -0.2541074455f, 0.3283390105f, -0.1876245886f, -0.1665877998f, 0.2351167202f, -0.2374511808f, 0.0540598035f, 0.3709035218f, -0.0925715193f, -0.1869071573f, -0.1643828303f, 0.2010254860f, -0.1660844237f, 0.3176704645f, -0.0296287443f, 0.3058551252f, 0.0343201347f, -0.0085040145f, 0.0159916449f, 0.0803018063f, -0.0627935305f, -0.0264572557f, -0.3928374946f, -0.3823382854f, 0.1812103242f, 0.0287396330f, 0.0066288221f, -0.0236621480f, 0.0636985600f, -0.0330461487f, 0.0413796157f, 0.0920122489f, -0.0897482410f, -0.3393027782f, 0.2367531061f, -0.0392431766f, 0.1196934730f, 0.3656841516f, 0.0867663026f, 0.0284264144f, -0.0218276139f, 0.1291123629f, 0.3425171375f, 0.0353882797f, -0.2165985405f, 0.0767911226f, 0.1879660189f, 0.1082677841f, 0.0714949518f, 0.1369456351f, 0.2790049016f, -0.2310714722f, 0.0173803326f, -0.0404755920f, 0.0544050299f, -0.0228610225f, 0.4178913236f, 0.1450126171f, 0.0057548871f, 0.0055849962f, 0.0367050469f, 0.2932898998f, -0.1790437102f, 0.0282591693f, 0.0629760027f, -0.0853887796f, 0.0156650487f, -0.3103598654f, -0.1423404366f, -0.1406464130f, 0.0408966728f, 0.3233664632f, -0.2241971195f, -0.0722656101f, -0.2677051127f, 0.0394100770f, -0.1513682902f, -0.0759486705f, -0.1504126936f, 0.0783247054f, 0.0509090349f, 0.1097756922f, 0.1661730707f, -0.0001155628f, -0.1208295599f, -0.1142232195f, -0.0980441049f, 0.2045167685f, 0.4247718453f, 0.1815101504f, -0.0654562339f, -0.3223738968f, -0.0804448202f, -0.1216358095f, 0.0179798342f, 0.0297705308f, -0.2790011168f, 0.0536043346f, -0.4571057558f, 0.0306517817f, -0.2298608571f, -0.0980567113f, -0.0088595459f, 0.0661027655f, 0.1442398429f, 0.2402485013f, 0.0740301609f, -0.1046693772f, -0.3198222816f, 0.1050673574f, -0.0078909080f, 0.0192745719f, 0.1336644292f, 0.0081815496f, -0.0190134328f, -0.0045435578f, 0.1647029966f, 0.0757548213f, 0.1882182062f, 0.0470531173f, -0.5292227864f, 0.0243896004f, -0.0200226344f, 0.0048061688f, -0.2918083668f, -0.1896092743f, -0.0396323912f, -0.3560618162f, -0.0395500362f, 0.2192376554f, -0.1237802953f, 0.2550914884f, 0.1243753731f, -0.1435120106f, -0.0842626914f, 0.2082128823f, 0.5240920186f, 0.0033782348f, 0.0312713571f, -0.1113420352f, 0.1020011529f, -0.0609345809f, 0.0508076474f, -0.3133318424f, -0.0262894183f, -0.1090678945f, 0.0979977474f, -0.0437650569f, -0.2392678559f, 0.1814827621f, -0.2419916540f, -0.0332378596f, -0.1233179495f, 0.2105592489f, -0.1834442466f, -0.2891850173f, 0.2147754133f, -0.0806626379f, -0.0456930138f, 0.0563308522f, 0.1334990710f, 0.0194486305f, -0.0993133560f, 0.0120536340f, -0.1011119932f, 0.0683890283f, -0.3105434179f, 0.2741265595f, -0.1993797570f, -0.1960716099f, 0.2827508748f, -0.2580122650f, 0.0545755737f, -0.0037918519f, 0.0213681962f, -0.4129056633f, 0.1004923284f, -0.2911367714f, 0.1222339049f, -0.0723354369f, -0.2504369318f, -0.1812475026f, -0.0340807512f, 0.1460157782f, -0.2965211272f, 0.0649961531f, 0.0221805330f, 0.2413353622f, -0.1188253537f, -0.1256869435f, -0.0488494597f, 0.0596260764f, -0.0121924607f, -0.0116504449f, 0.2590192556f, -0.0127508352f, -0.3187088072f, -0.0033554523f, 0.2550736964f, 0.2991330922f, -0.0670956597f, 0.1954591274f, -0.0755864531f, -0.1030560136f, -0.1758103967f, 0.1027060300f, 0.2742900550f, 0.1205024421f, -0.0336869657f, 0.3070592284f, 0.1085793301f, -0.2498578280f, 0.2314261347f, 0.0760894790f, -0.1357294917f, 0.0650214851f, 0.0062986547f, -0.0765035450f, 0.1722101122f, -0.0096981274f, -0.1964785755f, 0.3639103770f, -0.1783930212f, -0.1480789483f, 0.2322539985f, -0.0409658775f, 0.1033221856f, 0.3862437606f, 0.1269014776f, 0.0751287267f, 0.0938217193f, 0.1107605621f, 0.0251616929f, 0.0242429208f, 0.1832760274f, 0.0599343665f, 0.2703162730f, -0.3398029506f, -0.3282016218f, -0.2945735753f, -0.1105569080f, 0.2079762369f, 0.1387255937f, -0.0676262602f, -0.1158703640f, -0.0495772026f, -0.0626839474f, -0.2996129990f, -0.1597205997f, -0.1001503021f, -0.2316021472f, 0.1528460532f, 0.0259665679f, -0.0959268063f, -0.2041729689f, 0.1635839939f, 0.1169554517f, 0.0983867943f, -0.3193626404f, -0.1607926041f, 0.2244121581f, -0.0412807949f, -0.1461746246f, 0.2612098455f, 0.2002063990f, 0.1263354719f, 0.1493207514f, -0.2093443274f, -0.2849988937f, 0.3351753056f, -0.0349806882f, -0.2930917144f, 0.0760175288f, -0.2130339444f, -0.0624882467f, -0.0726553500f, -0.0454164557f, 0.0888905004f, 0.3045224249f, -0.0151291648f, 0.2593462169f, -0.0501247719f, -0.3613788188f, -0.1100851744f, -0.1175909489f, 0.2973762751f, 0.2432101369f, 0.0705204234f, 0.2122345567f, -0.0660291389f, -0.0583087206f, -0.0694087073f, -0.1342031956f, 0.3036947846f, 0.1227957979f, -0.4830722809f, 0.2782325149f, 0.1429891139f, -0.0076204478f, -0.0852516443f, 0.1788576543f, 0.1189600602f, 0.1441234797f, 0.0539702810f, -0.2243796736f, 0.2877313197f, -0.2299587131f, 0.0827159956f, -0.2133591324f, -0.1283203214f, 0.0152061908f, -0.0043021133f, 0.0574485734f, 0.1551843435f, -0.0978748575f, -0.0754021406f, -0.0223348904f, -0.1302618831f, 0.1353897005f, 0.0374988616f, -0.1106517389f, 0.0716488957f, -0.0815192908f, -0.2356285155f, 0.0454500653f, 0.1747866273f, -0.0495378710f, -0.0679508224f, 0.1383523643f, -0.1729311794f, -0.1783872545f, 0.1541339606f, -0.2986532152f, 0.0024677662f, -0.2216731608f, 0.1963981390f, -0.0144785438f, -0.0034237192f, -0.1019758359f, -0.0031288941f, 0.2416381836f, 0.1068485677f, 0.2191747576f, -0.1419321299f, 0.2061878294f, -0.2639665008f, 0.0168338865f, 0.0584177487f, 0.1121312380f, -0.1501456499f, -0.0992804319f, 0.0760478154f, -0.0109953526f, 0.3209935129f, 0.2225391269f, -0.2429944426f, 0.1883152872f, 0.1734893471f, -0.0376101695f, 0.0636501610f, 0.2310862541f, -0.0578809381f, 0.1881273240f, 0.0611671172f, -0.0883672759f, -0.1067407280f, 0.0206413995f, 0.0729337707f, -0.1089104414f, -0.2844990194f, -0.0199456047f, 0.1086136997f, -0.1756418198f, 0.1263022423f, -0.0207842775f, -0.3623682857f, 0.0140489750f, -0.4158100784f, 0.0011953815f, 0.2450786233f, -0.4138588309f, -0.2210620195f, 0.0366000235f, 0.2352451384f, -0.1124413535f, 0.3079324365f, 0.1579960883f, -0.3877849877f, 0.1178378686f, 0.1058468595f, 0.0755258948f, -0.0550954342f, -0.0229245033f, -0.0412865318f, 0.1468663961f, 0.2776043117f, 0.2580230534f, 0.0404220484f, 0.1541481614f, -0.0991281867f, -0.0868438855f, 0.0665302947f, 0.2568900287f, -0.2748263776f, 0.0823318139f, 0.1613569111f, 0.0029824129f, -0.1453787833f, 0.1451140791f, 0.3785036802f, -0.1149358526f, -0.1895932704f, 0.2942594290f, 0.0107720988f, -0.2540507913f, 0.2982378602f, 0.0723730922f, -0.1789450943f, 0.1970697045f, -0.0002328025f, -0.2579544485f, 0.1980523467f, 0.0979205966f, 0.0190414488f, 0.1045700833f, -0.1291304678f, -0.3392709792f, 0.1498055756f, 0.0523511879f, 0.0718465447f, -0.2563742101f, 0.2645886540f, -0.0287860949f, 0.1919658929f, 0.0245212112f, -0.2084886730f, -0.0013223746f, -0.2998702228f, 0.1550360024f, -0.3045974374f, 0.0482814573f, -0.3016596138f, 0.1639915854f, -0.0976815149f, -0.3259211779f, -0.0736171752f, 0.0248735510f, -0.0051079909f, -0.1903848648f, -0.1721996665f, -0.0228759963f, 0.1546808034f, 0.0003867897f, -0.3005306423f, 0.1130059510f, 0.1229541302f, 0.3966558874f, -0.2248455733f, -0.2095581591f, 0.3017998338f, 0.1782214046f, 0.1988678575f, 0.0256716721f, -0.0403563604f, 0.2652170658f, -0.0112857558f, 0.1817552447f, 0.2603007853f, 0.0691197589f, 0.0061602849f, 0.0578628480f, -0.1576251090f, 0.1430915147f, 0.1477474421f, -0.1887806803f, -0.0671601593f, 0.0395072028f, -0.0851381421f, -0.0047730785f, -0.0836828798f, 0.0907520503f, 0.3172594905f, -0.1152309403f, -0.2423795760f, -0.0084946360f, -0.2202309519f, 0.2100282162f, 0.1345401257f, -0.0625942945f, -0.1402119845f, -0.1798452139f, 0.1187816784f, 0.1953705996f, -0.3172693551f, -0.1238965988f, 0.0197260063f, 0.2592656612f, 0.0597985089f, -0.2356768698f, 0.2485002130f, -0.0254404601f, 0.1797301173f, -0.1461109668f, 0.0904048458f, 0.0092281476f, 0.0030284994f, -0.3322391212f, -0.1379177272f, 0.0416249074f, 0.3719649911f, -0.0537852198f, 0.0835562274f, -0.1309039742f, -0.0088932794f, -0.3304125071f, 0.0480271503f, -0.0036009359f, -0.3158133030f, 0.2876676619f, -0.0281912293f, 0.2903133929f, 0.0193916485f, 0.2837150991f, -0.1347863972f, -0.3865168989f, 0.0765745565f, -0.0614340566f, 0.1864601523f, 0.0106609780f, 0.0768180192f, -0.0941233784f, 0.1096346080f, -0.1091057956f, -0.0976895019f, 0.3231322765f, -0.0574824475f, 0.2682466805f, 0.0790341049f, 0.5490939617f, -0.1297431439f, 0.0724220797f, 0.1211474016f, -0.0674099401f, 0.0702470094f, -0.2701261640f, -0.1988845170f, 0.2801046371f, 0.1557068229f, 0.0596576482f, -0.0572662391f, -0.1674242467f, 0.1119317934f, -0.0011200537f, -0.0843527615f, -0.0967263430f, 0.3454766572f, 0.1872449815f, -0.0958567187f, 0.2787068188f, 0.0420590118f, -0.1492079943f, 0.0308026299f, -0.1806120276f, -0.0597144440f, -0.3373457491f, -0.1029423326f, -0.1103697121f, 0.0084582977f, -0.0360549763f, -0.1809279919f, 0.1632822007f, -0.1141157225f, 0.0097639263f, 0.0723392814f, 0.0717015192f, -0.1867971718f, 0.1552341580f, 0.1358737946f, -0.0360268168f, 0.1722622365f, -0.1784582138f, 0.1096961349f, 0.0228409879f, 0.1227426305f, 0.1619397402f, -0.1456990391f, 0.0283948444f, 0.1907333881f, -0.0851499885f, -0.1940836608f, 0.1328538507f, 0.0383054055f, 0.0696590245f, -0.1626424938f, 0.1126706451f, 0.2116735876f, -0.0631704852f, 0.1307310760f, 0.0615696348f, -0.0737916604f, -0.5532519817f, 0.1100414023f, 0.3042776287f, -0.1128182039f, -0.0895075202f, 0.0789490640f, -0.0402305238f, 0.3127341568f, -0.0450276174f, -0.1143982336f, -0.1816609055f, -0.1239500195f, 0.2797066271f, -0.0052333409f, 0.3025093377f, -0.0724976659f, 0.2531194091f, -0.0375840962f, 0.0243883356f, -0.3971992433f, -0.1098934561f, -0.1108781770f, 0.0817271918f, 0.0390967242f, -0.1782764792f, -0.0958424211f, 0.4029439390f, 0.2207477093f, 0.0785674751f, -0.1307952851f, 0.0697376728f, 0.0912884325f, 0.0158598889f, 0.0061147846f, -0.1771218628f, -0.2203933895f, -0.0948029160f, -0.2644262612f, 0.2481655478f, -0.0931668654f, 0.0124526415f, 0.0777631775f, -0.3682188988f, 0.1934227198f, -0.1680363864f, -0.0612691566f, -0.0545025989f, 0.0010658349f, -0.3764240146f, 0.4973287582f, -0.0024389490f, 0.4790359139f, -0.0100411950f, -0.0544186793f, -0.3327116072f, -0.3345309794f, 0.0607576147f, -0.2533832192f, -0.1299658865f, 0.3272648752f, -0.0047660135f, 0.1799402982f, -0.0287259910f, -0.0521050878f, 0.0415518805f, 0.2789171934f, 0.0557875633f, 0.1237159595f, -0.0497339740f, 0.0530608110f, 0.1700593680f, -0.1169379354f, -0.1056981608f, -0.2038574368f, 0.0521175377f, -0.0324856341f, 0.1268422455f, -0.0847856030f, 0.0952264443f, -0.0830664933f, -0.1841086000f, 0.1048046350f, 0.1589075774f, 0.0251252800f, 0.1362980455f, 0.0497011356f, -0.1699008495f, -0.2284052372f, -0.0754011497f, -0.2340571135f, 0.0258080792f, 0.2689657807f, -0.3236516714f, -0.0649532303f, 0.2751589417f, -0.1558822691f, -0.0766959190f, -0.1070186719f, -0.1984824687f, 0.0436508730f, -0.1229608431f, 0.1556185484f, -0.1364798844f, -0.0750352666f, -0.0598990805f, -0.1072729453f, 0.1137187257f, 0.2733657956f, 0.0367060751f, 0.1121316105f, -0.0547415540f, 0.0821320713f, -0.1987449527f, -0.1917171180f, 0.3131005466f, -0.2885906398f, -0.1536510736f, -0.2057981938f, 0.4439656734f, -0.1884834617f, 0.0351138525f, 0.1458067596f, -0.0358159393f, -0.0580713563f, 0.0538216792f, 0.0010971229f, 0.1110794246f, -0.2403264195f, 0.2336436808f, 0.1698116958f, -0.2691285908f, 0.1998723149f, -0.2673207819f, 0.2080930769f, 0.0494152233f, -0.1868274063f, -0.0646620691f, -0.1338635236f, 0.0736228749f, -0.0088787349f, 0.0703046396f, -0.1506408155f, -0.1235015616f, 0.2334986329f, -0.0254081450f, -0.3875309229f, 0.0803434029f, -0.2025023103f, -0.3489515781f, 0.1449857652f, 0.0375850685f, 0.0054567861f, 0.0026285802f, -0.2293761075f, -0.0255606603f, 0.2384723127f, -0.0024694905f, 0.0469895937f, 0.0116008529f, 0.0064502964f, 0.1603252888f, -0.0677210465f, -0.0831277072f, -0.1140082255f, -0.1982065290f, 0.2249560207f, -0.2349144667f, -0.1003237963f, -0.3231354058f, 0.1731160134f, -0.1485078186f, 0.1164171398f, -0.1360098869f, 0.2470656186f, 0.1457950622f, 0.0641125068f, -0.0616948791f, -0.1879542172f, -0.1181288883f, -0.0059436350f, -0.0285084415f, -0.0409460329f, -0.1666013598f, 0.2250599861f, 0.1325969547f, -0.2548808455f, 0.0405546837f, -0.0098587452f, -0.2768832147f, -0.0105780857f, 0.1715513319f, 0.0550453588f, 0.1234779283f, -0.0776573196f, 0.1319963187f, -0.1586523503f, -0.0723438114f, -0.0231187269f, -0.1001252979f, -0.1867043227f, 0.2401110828f, -0.0327110738f, 0.1115380004f, 0.2731443942f, -0.1013980880f, -0.1127692983f, 0.1951701641f, 0.0817811266f, -0.1720855981f, -0.2572442293f, 0.4397419989f, -0.1993379444f, 0.0955562443f, 0.1826640815f, -0.3524265885f, 0.3160229623f, -0.0883054137f, 0.4371402264f, -0.0174446627f, 0.2580944598f, -0.1162244976f, 0.1900564581f, -0.2387283891f, -0.1235407889f, 0.0316596441f, 0.0762013942f, 0.0911331102f, 0.1362102777f, -0.0452868491f, 0.0388855487f, 0.2611006796f, -0.0378919840f, -0.1529522091f, -0.1323288232f, 0.2397207171f, 0.1394405216f, -0.2463589609f, -0.0014330237f, 0.0642612502f, 0.0427486151f, -0.1061975732f, 0.1334675699f, 0.2768496275f, -0.1092089787f, -0.0448028482f, 0.0666282550f, 0.1571626067f, 0.1632402986f, 0.1859811991f, -0.2767278552f, 0.2241855711f, 0.0473991185f, 0.2045316398f, 0.1881158948f, 0.0112252524f, 0.1176237464f, 0.0528329052f, -0.2964994609f, -0.1390253305f, -0.1467635185f, 0.3860463500f, 0.0798681378f, -0.2229351401f, -0.1386866719f, -0.2586634159f, 0.1263475269f, 0.2151261568f, -0.0084282197f, -0.0022087805f, -0.2598126233f, -0.0050799632f, -0.1308570653f, -0.3474063277f, 0.2867477536f, -0.1537397802f, -0.0342050828f, -0.2971495986f, 0.0278588664f, 0.0009215673f, 0.0604508296f, 0.2544809878f, 0.0806076974f, 0.4103392065f, 0.0725015178f, -0.2684382796f, -0.1457221508f, -0.0772913545f, 0.2323960513f, -0.1414022893f, -0.0264902674f, -0.3510113060f, -0.1766775548f, 0.0559171475f, -0.1226372123f, 0.0755840689f, -0.0079647321f, -0.2257110626f, 0.0398555957f, 0.1648024470f, -0.0685885325f, 0.0516837053f, -0.2636664510f, 0.0667492896f, 0.1510560960f, -0.0771280751f, -0.1587407291f, 0.0262420867f, 0.2265660614f, -0.0640227571f, 0.0254391991f, 0.3814973235f, 0.4374373555f, -0.0632976070f, 0.0709052235f, -0.2789881825f, -0.2004048228f, -0.2959788144f, 0.0403585322f, 0.1916517615f, -0.2869196236f, -0.1481506974f, 0.0553921536f, 0.1322756112f, 0.2448231727f, 0.0661238953f, 0.1010115668f, 0.4056445062f, 0.0477215834f, -0.1305836439f, 0.1800379306f, -0.0469532683f, 0.0330168866f, -0.2851112187f, -0.1507083178f, 0.0527545772f, -0.1685158610f, 0.0612986982f, 0.0847023651f, 0.1299088448f, 0.3733045459f, 0.0830603540f, 0.3290643692f, -0.0268080924f, -0.0774812847f, -0.1139763519f, -0.0848808959f, -0.0574642383f, -0.0599307157f, -0.0373256020f, -0.1361489296f, -0.3267020881f, -0.2023193985f, -0.1100366041f, -0.0709290951f, -0.0771775767f, 0.2047339231f, 0.1329811513f, -0.2991676927f, -0.0166926086f, 0.2426981628f, -0.3398677111f, -0.2892266810f, -0.0326112024f, -0.1360924095f, 0.0360608622f, -0.1816033721f, 0.3206194043f, 0.1134018973f, 0.0404987298f, 0.1877622157f, 0.0356127657f, -0.1976501793f, -0.2170135379f, 0.1041524336f, -0.3427373171f, -0.1137294024f, -0.4308279455f, -0.3184098005f, 0.1020935103f, -0.0421379022f, -0.2531774938f, -0.0485824198f, 0.0386246480f, -0.0663614422f, -0.2679192722f, -0.0814943835f, -0.2114803642f, 0.1338803023f, -0.0891005993f, -0.0586984977f, -0.3665039539f, 0.0173370894f, 0.0506652258f, -0.0662148222f, -0.1292690188f, 0.0767398328f, -0.2863039970f, -0.0945327729f, 0.0199685656f, -0.1026458889f, -0.0389255136f, -0.2024516016f, -0.1487163454f, 0.2337974459f, -0.5322455764f, -0.1023360491f, -0.2008527666f, -0.0053986725f, 0.1442360282f, -0.2891183197f, -0.0323805660f, 0.2023951858f, 0.1235183924f, 0.0356618091f, 0.0471487008f, -0.1887183189f, 0.0870774761f, 0.0200625174f, -0.1653427929f, 0.0318654478f, -0.0729364082f, 0.0281948019f, 0.0905301347f, -0.0566767789f, 0.2359393686f, -0.1887825280f, -0.1894016713f, -0.0868697688f, -0.1020680740f, 0.1678832918f, 0.1238505989f, -0.0730144754f, 0.0101966504f, 0.4729873538f, -0.4025275707f, -0.0378778577f, -0.0391383581f, 0.2370422035f, 0.2376116216f, 0.0194724947f, 0.1332307756f, -0.1031962708f, -0.0508073792f, -0.3239080906f, 0.0634802803f, -0.3180972934f, -0.1666243970f, -0.0040998720f, -0.0617871955f, -0.0430616066f, -0.0882160962f, -0.0518718809f, -0.2375973463f, -0.0936948359f, -0.0807658434f, 0.1137760133f, -0.3521660566f, -0.0792191103f, 0.0592497513f, -0.2961914241f, 0.0744827166f, -0.0350682475f, -0.1389744133f, -0.0403451286f, 0.0936226994f, -0.0543877780f, -0.0589119680f, 0.0463094078f, 0.2254459411f, 0.3763622642f, -0.1510978341f, 0.2207159549f, -0.0117908176f, -0.0985293537f, 0.0184781719f, -0.1833646148f, -0.2916339338f, 0.2183578610f, -0.1761109382f, 0.0946055427f, -0.0208714176f, -0.0605961457f, -0.1065158397f, 0.0525147207f, -0.0718129948f, -0.0138243735f, 0.0536685102f, 0.1927440912f, 0.0392213427f, 0.1209980324f, -0.2489812523f, 0.0834691823f, -0.4497811496f, -0.4093782604f, 0.1747316569f, 0.1376527250f, -0.0748066977f, 0.3472385108f, -0.2206621766f, -0.0148177957f, 0.0632566139f, -0.2800868154f, 0.4057264328f, -0.1850458384f, 0.0352484174f, 0.0187915526f, 0.2743672431f, 0.0650495067f, -0.0590372719f, 0.0867329836f, 0.2521222234f, 0.0422360748f, -0.0092406422f, -0.1079015061f, 0.0079372656f, -0.1040678993f, -0.0599102303f, 0.1823983341f, 0.0580907874f, 0.2429723591f, 0.0172449593f, 0.1591920257f, 0.0873323977f, 0.0779079422f, 0.0297919307f, -0.0185512565f, -0.0610800311f, 0.1350822449f, 0.2997260392f, 0.0110425884f, -0.0219904203f, -0.2705024183f, -0.0919562951f, -0.0123525793f, 0.1032280102f, 0.2780197263f, 0.2156093121f, -0.1990417540f, 0.0642092302f, 0.0401665308f, -0.0744366273f, 0.2257415354f, 0.1997946501f, 0.0377270393f, 0.0921814367f, 0.0844480768f, 0.0989061072f, 0.2233550102f, -0.0217760652f, 0.3000023365f, 0.3124778271f, 0.0733479634f, 0.1513678133f, -0.2778192461f, 0.3469433486f, 0.0866080001f, 0.3282934725f, -0.0557865053f, -0.2589623928f, 0.0435757674f, -0.0161620397f, 0.0788177326f, 0.1737224460f, -0.1498740911f, -0.1662375480f, 0.0355388671f, -0.2590223253f, 0.0926974416f, 0.0869124308f, 0.1742882431f, 0.0174468495f, 0.1786960661f, 0.2858534455f, 0.0827035829f, -0.0653232336f, -0.0165823530f, -0.2404432893f, 0.3441227674f, -0.0217970945f, -0.2328382581f, -0.2086044997f, 0.1000954509f, 0.0526705384f, -0.0679156780f, 0.0598033071f, -0.1529418528f, -0.0225767065f, -0.0785748959f, -0.2469372302f, -0.1902188957f, -0.0763723776f, -0.0756907389f, 0.1759248972f, 0.1171724573f, -0.2515062690f, -0.0523787849f, 0.1840566248f, 0.0217590779f, -0.0723665953f, 0.2258908153f, 0.0381220058f, -0.1271280944f, 0.3504491448f, 0.0904605389f, 0.3008840382f, -0.0275960490f, -0.5971899033f, -0.0373884700f, -0.0685955733f, -0.1240829080f, -0.0808920041f, 0.3369961083f, -0.1556438059f, 0.3303214014f, -0.0132392365f, -0.1445457637f, 0.0701383054f, 0.0147993490f, 0.2521296740f, -0.1508074850f, -0.0341734886f, 0.1949452609f, -0.4795740843f, 0.0428204164f, 0.0626029074f, 0.0322269276f, 0.2605057955f, -0.0237831697f, 0.1870908290f, 0.0391817875f, -0.0292619392f, -0.1146655679f, -0.0069074477f, -0.1674568057f, -0.0716301650f, 0.0906376839f, 0.0186333228f, -0.1965709478f, 0.0441144072f, -0.0781443790f, 0.3631155193f, -0.1742393672f, 0.3110877573f, -0.3287422657f, -0.1277234107f, 0.0579256713f, 0.2492055893f, 0.2136589140f, 0.0709243342f, 0.0557972193f, -0.2823896110f, 0.2260839194f, 0.2381334752f, 0.0011025012f, 0.1369998157f, 0.2066247612f, -0.1935486943f, -0.1517343670f, -0.0489437990f, 0.1826613545f, -0.2419534326f, 0.1825701743f, -0.0944818109f, 0.2253021747f, 0.1620021015f, -0.1811108738f, 0.1021271795f, -0.1616876125f, -0.0851382837f, -0.1483645737f, -0.0818882957f, -0.1651771069f, -0.1558469385f, -0.0288921148f, -0.1453354061f, 0.0432861783f, 0.0354852229f, 0.0917367116f, 0.0662253574f, 0.3049732447f, 0.2626677155f, -0.2045616657f, -0.2657928467f, -0.1191489920f, 0.0884905159f, -0.1876158714f, -0.2813563347f, -0.1132004708f, 0.0306918211f, 0.1637698561f, -0.1736628413f, -0.0234440174f, 0.2810840309f, 0.3421756327f, -0.0988776460f, -0.1227385178f, 0.0230551790f, 0.1215905622f, -0.1858370006f, 0.1979673356f, -0.0240199100f, 0.4061711431f, 0.0647280738f, 0.1806290895f, -0.0928529203f, -0.0083687119f, 0.0700565577f, -0.0466786362f, 0.0131249093f, 0.3055550456f, -0.2308245599f, 0.1537146419f, 0.0040971623f, -0.2530854642f, -0.1746833473f, 0.0479708053f, -0.0590303056f, -0.2807054520f, -0.2138705254f, -0.0723683983f, 0.2056702524f, -0.3276316822f, 0.3342712224f, 0.2211179435f, -0.2276411355f, -0.1357262135f, 0.0743748918f, 0.2333050519f, 0.1629599631f, 0.1230428368f, 0.1550599039f, 0.0294298884f, 0.0563519374f, 0.3171496093f, 0.0328649506f, 0.2034578621f, -0.0088956114f, -0.0089808740f, 0.0846032053f, -0.1889312565f, -0.0703978464f, -0.2726749778f, -0.3141912818f, 0.1742244661f, -0.1568450183f, 0.0372275040f, 0.0535239913f, 0.1171529740f, 0.0403530411f, -0.1176726073f, -0.1248940155f, -0.2396306098f, 0.0376603492f, -0.0106576299f, 0.0958739817f, -0.0303853452f, -0.2055724263f, -0.0129746487f, 0.0737814158f, -0.0713724121f, 0.0220048148f, 0.1015890837f, 0.0096067758f, 0.0747777075f, -0.0319354832f, -0.5470952988f, -0.3455043733f, -0.1136956736f, 0.1341103315f, -0.2797995806f, 0.1330299824f, 0.2023724914f, 0.3956969678f, 0.0926497430f, -0.3077830374f, 0.3521541655f, 0.2889193892f, -0.2305216342f, -0.1176321357f, 0.0448555164f, -0.0486177914f, -0.0339758843f, 0.1075708270f, 0.0233006626f, 0.2252290100f, 0.0106647536f, 0.1199334562f, 0.0941952094f, 0.2278824896f, 0.1334835440f, 0.0676533505f, -0.0773041546f, -0.0686918497f, -0.0935817063f, -0.0491498336f, 0.0343593620f, 0.0484806672f, 0.0801939890f, -0.0737153441f, -0.1959072202f, -0.0693855286f, 0.2235780358f, -0.4422409534f, 0.0096985344f, -0.0508763492f, 0.0676237494f, 0.1292063147f, -0.0713257566f, -0.3527578115f, 0.0965994000f, 0.2070738822f, 0.1563481092f, 0.0958350450f, -0.2369999737f, -0.2734578252f, -0.1687202901f, -0.1306736320f, 0.0310793389f, -0.1472854763f, 0.1153461337f, 0.1476022601f, -0.1132788062f, 0.0644832999f, 0.2772808671f, 0.3269678056f, 0.1267662346f, 0.0477340892f, -0.2113655210f, -0.2031130195f, 0.1490590572f, -0.0304630902f, -0.2036417574f, 0.0432352386f, 0.1996074468f, 0.0296805520f, -0.0664507523f, -0.0669629276f, 0.0244887359f, 0.0027703007f, 0.0409325585f, 0.3996931911f, -0.0873716474f, 0.1118592322f, -0.1002063900f, -0.0296682194f, 0.0375588685f, -0.3677816093f, -0.1369820684f, -0.1930136085f, -0.1277392060f, -0.1896843761f, 0.0631113946f, -0.2029808313f, 0.1430294961f, -0.1717563272f, -0.0812911466f, -0.0267939847f, -0.0303636286f, -0.0244334359f, 0.2776557207f, -0.1076067910f, 0.0558778346f, 0.0678511113f, -0.0930891037f, 0.0175216701f, 0.1443550885f, -0.2206849903f, -0.2050035298f, 0.1302634925f, -0.1546531618f, 0.2844918370f, -0.1673202515f, 0.4712633491f, 0.4458572865f, 0.0676427111f, -0.1206416860f, 0.0789817274f, 0.0145314066f, 0.0101253083f, -0.0341911241f, 0.0854634568f, -0.0701849386f, -0.2225796580f, -0.1539416313f, -0.1761521995f, -0.1276053190f, 0.0546072982f, -0.1428213716f, -0.3990887702f, -0.0081076846f, -0.2748036683f, -0.1328248978f, 0.1675628424f, 0.0927114710f, 0.1085731089f, -0.1541596949f, 0.0454198904f, 0.1098636016f, 0.1749281585f, -0.2948799431f, 0.3282141984f, -0.2456659824f, 0.0594532192f, -0.1804025620f, -0.0822192505f, -0.3481639624f, -0.2446750551f, -0.3400235176f, 0.0844625682f, -0.2676642835f, -0.2722508013f, -0.1633069068f, -0.0446440466f, -0.1905821860f, 0.0238561295f, -0.3733767569f, 0.0338775553f, -0.0490304120f, -0.1617212892f, 0.1274605095f, 0.1456011683f, 0.1722733080f, 0.0063173934f, -0.0462572724f, -0.0442545675f, 0.0286104269f, 0.1917525232f, -0.0858970955f, 0.0762146637f, -0.1173948571f, -0.3172977567f, 0.0885837525f, 0.3545126319f, 0.0294180308f, -0.0084218634f, -0.1783495694f, -0.0162536576f, -0.1959722489f, -0.0517768264f, -0.0420891643f, 0.3060744703f, -0.3485703468f, -0.1791987717f, -0.0490971915f, -0.0355865136f, -0.0002229920f, 0.2839475870f, 0.0102215642f, -0.1211721003f, -0.1845232248f, 0.1774016917f, 0.1982001066f, -0.3135731816f, 0.0594157800f, -0.0817335173f, 0.1767574996f, 0.2671237886f, 0.2282675803f, 0.1701387763f, 0.1313837469f, -0.0448317379f, -0.0900544822f, -0.1022228003f, 0.1087515131f, -0.2904344797f, -0.3880222142f, -0.3048217893f, -0.1166334525f, 0.3030541241f, 0.1540158242f, 0.0359018855f, -0.1629255563f, 0.0992955044f, 0.2240821272f, 0.0717849582f, 0.0638786256f, 0.1473011225f, 0.0650473386f, 0.3095154464f, 0.2852302194f, 0.1857783347f, 0.4772977829f, 0.0372113623f, -0.0321539827f, 0.1855801642f, 0.3062959611f, 0.0303183980f, -0.2479128093f, -0.0891400725f, -0.0221260674f, 0.0588423237f, -0.0711733103f, -0.1301282793f, -0.0655242056f, -0.1500299871f, -0.1094200909f, -0.0562105104f, 0.0738457218f, 0.0972698778f, -0.0235737842f, 0.0645511746f, -0.0653643608f, -0.1226729900f, 0.0899716467f, -0.2105215341f, 0.1426152438f, -0.0626348555f, 0.2291810066f, 0.0709286034f, 0.0526962094f, 0.0001277012f, 0.0336491801f, -0.3306020498f, -0.0493849255f, -0.0288011003f, -0.1517803818f, 0.3193489015f, 0.1270198822f, 0.3049751222f, 0.2316633612f, 0.2373061478f, 0.0972378999f, -0.2436051816f, -0.1833842993f, -0.0874404535f, -0.0672955960f, -0.0778132975f, 0.0244981665f, -0.0131474780f, 0.0832380354f, -0.1953123808f, 0.0815167651f, -0.1268042177f, 0.3517327309f, 0.0296453144f, -0.0235027503f, -0.1133943051f, -0.0300366059f, -0.2968801558f, -0.1768996716f, -0.3001409173f, -0.1563024372f, 0.3225217760f, 0.1247937381f, 0.1263547987f, 0.2189924568f, 0.1491749287f, 0.2149925083f, -0.2347669899f, -0.0848543495f, -0.1629922837f, -0.1302250624f, 0.1567309052f, -0.0234735832f, -0.0882981196f, -0.4045506120f, 0.0656219423f, -0.0763735548f, 0.2063876837f, -0.1614811122f, 0.3970220983f, -0.1477391571f, 0.0856711641f, -0.1052947938f, 0.0292637888f, -0.1859502792f, -0.1638967246f, 0.1338445991f, 0.1684812903f, -0.3800339699f, 0.1813688725f, 0.0750801042f, -0.1384627819f, -0.2360386848f, 0.1610863358f, 0.2040370852f, -0.1055661663f, -0.1352791637f, -0.2751525640f, -0.2615689933f, -0.2241598070f, 0.2446679175f, -0.0837037265f, -0.1500252485f, 0.0735249072f, -0.1704385132f, -0.1328675002f, 0.1681900769f, -0.1351734400f, -0.0684966668f, 0.1728337407f, 0.0413957946f, 0.1077499464f, 0.1935253739f, 0.2153310627f, -0.1410607994f, -0.1375502199f, 0.3206489980f, 0.0139370803f, 0.0140990335f, 0.0698848367f, 0.2105204165f, -0.1705970317f, -0.0798068866f, 0.0487773307f, -0.1324979067f, -0.0870362520f, -0.1776802391f, 0.1362783611f, 0.1099689901f, -0.2352081090f, 0.3149581552f, 0.0575383082f, 0.0526007004f, 0.1219332814f, -0.0526314601f, -0.2107389718f, 0.0504152849f, -0.1547665149f, -0.2789662778f, -0.0935538337f, 0.3018706739f, 0.0405397452f, -0.5228461027f, -0.0987059325f, -0.0267077275f, -0.0971714333f, 0.2273897231f, -0.0394717455f, 0.0975144431f, 0.0763652176f, -0.2232841402f, -0.2048859447f, 0.2041491121f, -0.2003981471f, -0.1612613946f, -0.1171843037f, -0.0504767336f, -0.0330664180f, 0.1637213379f, -0.1973806769f, -0.1542724967f, 0.2006815970f, -0.0878095999f, -0.0247491412f, -0.1394047737f, 0.2001982331f, -0.1221848875f, 0.0232996903f, 0.0834596902f, 0.0440836251f, -0.0962750316f, -0.0642746016f, 0.0803901479f, 0.1673519462f, -0.1978637874f, -0.0712336004f, -0.1022084132f, -0.3455549777f, 0.0973681286f, -0.1071960926f, 0.0321685672f, -0.2317032814f, 0.0104206270f, -0.0525955334f, -0.1073775440f, -0.1549387127f, -0.0137955183f, 0.2080091834f, 0.3896373510f, 0.1478819102f, -0.0478753224f, -0.1646550894f, -0.1858916283f, -0.1209696531f, -0.0214624833f, 0.0803631097f, 0.0194238126f, -0.4754367471f, 0.2238475829f, -0.2018242329f, -0.2532572448f, -0.3205877244f, 0.1359799802f, 0.2097920179f, 0.3213786781f, -0.0101529025f, -0.1599001437f, -0.1264744103f, 0.0641729683f, -0.4490586817f, 0.1382566541f, 0.2616187632f, -0.1711094230f, 0.1846117228f, 0.0339855328f, -0.0123149762f};
const float b2[] = {-0.0044196402f, 0.0094461646f, -0.0036649434f, 0.0079568112f, -0.0032540902f, -0.0125842635f, 0.0058123949f, -0.0064269858f, 0.0083589070f, -0.0105117606f, 0.0078022801f, -0.0037429328f, -0.0060060564f, -0.0020608979f, 0.0002009112f, -0.0096900221f, 0.0007717007f, -0.0072535975f, 0.0039631957f, 0.0098283822f, 0.0013829193f, 0.0027270836f, 0.0005053470f, 0.0039792974f, -0.0035788000f, -0.0021964312f, 0.0004999847f, -0.0064139278f, 0.0155117093f, -0.0104458360f, 0.0103568416f, -0.0105057769f, -0.0097092297f, -0.0081260474f, 0.0052194973f, -0.0031043827f, -0.0049512931f, 0.0172595587f, -0.0022763901f, -0.0103314910f, -0.0013884467f, -0.0124178762f, 0.0031710234f, -0.0082455864f, -0.0141720278f, -0.0066207950f, -0.0063911388f, -0.0086044269f, 0.0099507403f, -0.0065384367f, -0.0150103671f, 0.0067701596f, 0.0078831734f, -0.0064150123f, -0.0037232956f, -0.0000642866f, -0.0039773476f, 0.0081260856f, -0.0053601237f, -0.0033554088f, -0.0103240591f, 0.0069202506f, 0.0035685196f, -0.0105241090f};
const float W3[] = {0.1422333717f, -0.1224245578f, 0.1074324995f, -0.0681426078f, 0.1116986349f, 0.0191155411f, -0.0643656105f, -0.0113408174f, -0.1092793792f, 0.0735127777f, -0.0327978879f, -0.1584315896f, 0.0276108291f, 0.0054014563f, -0.0429838523f, 0.0305301491f, 0.0155275911f, -0.1180229411f, -0.0140302451f, -0.0097013190f, 0.0963176936f, 0.0970831141f, 0.0753295720f, -0.1281300038f, 0.0829720572f, 0.1206813306f, 0.0294265039f, 0.0691397265f, 0.1792714745f, 0.0525524132f, -0.0699010715f, -0.1590700001f, 0.0748322979f, 0.1238749102f, -0.1635498554f, 0.0311293676f, -0.1554614604f, 0.1648203284f, 0.1602630615f, -0.1881683469f, -0.1280767173f, -0.1862026751f, -0.0116599258f, 0.0582940616f, -0.1620425880f, 0.1222845539f, 0.1067742929f, 0.0485440269f, -0.0382596254f, 0.0633356646f, -0.2692073882f, 0.1295284182f, -0.0498509444f, 0.1277062148f, 0.0381178185f, 0.0081692273f, 0.1448365748f, -0.0427841581f, 0.0350746997f, 0.0934889093f, -0.1672434211f, -0.1148193404f, -0.1345874667f, 0.1162256300f};
const float b3[] = {-0.0847797319f};

#endif