#ifndef PARAMETERS_H
#define PARAMETERS_H

const float W1[] = {0.0620835051f, 0.1772697121f, 0.2373737842f, -0.0581379384f, 0.1099919006f, -0.0456440933f, -0.0640443340f, 0.2595877647f, -0.0778207779f, 0.0673222467f, -0.8172588348f, 0.0702322945f, 0.0182424989f, -0.0119190915f, 0.0298734736f, 0.3068547249f, -0.0869503096f, -0.0881897211f, 0.0471768007f, -0.0664746463f, -0.5172300935f, -0.0043107225f, -0.0735942796f, 0.0183341037f, -0.0215384644f, 0.5054398775f, 0.0250739213f, 0.2130622864f, -0.0629279688f, 0.0743856430f, -0.0431269109f, 0.1119280830f, -0.2161053270f, 0.0806881785f, -0.0423096865f, -0.6500582099f, -0.2126123756f, 0.3873565197f, -0.1393120140f, 0.1090828702f, -0.5686793923f, -0.0341851823f, -0.1803913563f, 0.0494263545f, -0.0553458631f, 0.2244379818f, 0.1715945005f, 0.4893354177f, -0.2614781559f, 0.2838152051f, 0.7304839492f, 0.2483805865f, -0.3532366455f, 0.1082476377f, 0.1259946823f, 0.5280198455f, 0.2332529277f, 0.1286498159f, -0.0112018203f, 0.0732683390f, 0.7114946842f, 0.3129722178f, 0.0949130803f, 0.0614843108f, 0.0493462905f, -0.2403071076f, -0.2478058785f, -0.2929724455f, 0.0950642824f, -0.1571449488f, 0.5368517637f, 0.0875821710f, 0.3449734151f, -0.0815198496f, 0.1689825505f, -0.5227801204f, 0.0138920611f, 0.0032245617f, -0.0035658816f, 0.0105547681f, -0.0332968086f, -0.1368230879f, -0.4509884715f, 0.1353368759f, -0.1746415645f, 0.9347533584f, 0.1658191234f, -0.1616663039f, 0.1085183248f, -0.0690053105f, 0.0707437545f, 0.0960912257f, 0.2497513294f, -0.0606990680f, 0.0912694708f, 0.9396127462f, 0.3043923080f, -0.5451147556f, 0.2502306402f, -0.1634239256f, -0.1866087914f, -0.0737682283f, 0.4301973581f, -0.1450413018f, 0.1243773326f, -0.8756164908f, -0.0501070693f, 0.2782155275f, -0.1126839519f, 0.1298372149f, 0.8893133402f, 0.1210681200f, -0.1389863044f, 0.0025574798f, -0.0236086361f, 0.0752571970f, 0.0447874889f, -0.3097624183f, 0.0996505618f, -0.0951599851f, 0.9793797731f, 0.3029676378f, -0.4845320284f, -0.0176839903f, 0.2594137788f, -0.6108160615f, -0.2269618362f, -0.1066090390f, -0.0090538412f, -0.0606611334f, 1.1931381226f, -0.0948622450f, -0.0288859904f, -0.0132193649f, -0.0605674833f, 0.6888894439f, -0.0264797006f, -0.2169961780f, 0.0007093966f, -0.0690354109f, 0.9111089110f, -0.0368565060f, 0.2888403833f, -0.1383570284f, 0.0406999141f, -0.6666438580f, 0.0890093073f, -0.0285435580f, 0.0125935413f, 0.0049453801f, -0.4350574613f, 0.0768381655f, -0.2677565515f, 0.0942914411f, -0.0766253695f, -0.7727895379f, -0.0189996958f, -0.1284264922f, 0.0015787559f, -0.0389481224f, 0.8567972183f, 0.4375886619f, 0.4577559829f, -0.1045959741f, 0.2219619304f, 0.2836343646f, 0.0627284795f, 0.4163375199f, -0.1582680047f, 0.1740398407f, -0.6339815855f, 0.0200148355f, -0.2200614512f, 0.0582650378f, -0.0656994656f, -0.7116188407f, -0.2875590622f, -0.0288945679f, -0.0801354051f, -0.0199637953f, 0.0098051988f, 0.0505212843f, 0.0137749584f, 0.0133101847f, 0.0023172204f, 0.3310544193f, -0.2745484412f, -0.0307512563f, -0.0413505360f, -0.0459198914f, 0.3598036468f, 0.0231046285f, 0.1217130199f, -0.0327427462f, 0.0368830115f, -0.0741781816f, 0.1898123622f, 0.2053990960f, -0.0336422622f, 0.0766142383f, 0.0045458106f, -0.1336311251f, 0.4141113460f, -0.1482281238f, 0.1043522879f, 0.6181350946f, 0.2044290900f, 0.2423156500f, -0.0544680022f, 0.0888498798f, -1.1782494783f, -0.6285083294f, 0.2968768477f, -0.2534995079f, 0.0686486661f, 0.1743247211f, -0.0808294192f, -0.2086197138f, 0.0589689575f, -0.0769928172f, -0.6417971849f, -0.7075542808f, 0.0107327560f, -0.0278207082f, -0.1674265116f, -0.7822040319f, -0.0660256371f, 0.2438288629f, -0.0599138513f, 0.0545121394f, 0.4992857575f, 0.0424623303f, -0.0155536626f, 0.0140251750f, -0.0025174120f, 0.1729714423f, -0.0045042271f, -0.0802100152f, 0.0399209112f, -0.0452994630f, -0.5813647509f, -0.1199993491f, -0.0148208225f, -0.0699706301f, -0.0853224024f, -0.2961497307f, 0.0866802484f, 0.3708187342f, -0.2791498005f, 0.3223320544f, 0.1045046970f, -0.0876302645f, -0.2535881996f, 0.0727539435f, -0.0924690515f, 0.0402822420f, -0.0131504182f, 0.0455111861f, -0.0084723393f, 0.0047195409f, 0.9881247878f, -0.0680543482f, -0.2274108231f, 0.0850050077f, -0.1567120701f, -0.8343541026f, 0.0176562574f, 0.0039123693f, -0.0765467137f, 0.0854891390f, -0.4480810165f, 0.4807208776f, 0.2365214825f, 0.0611220971f, 0.1507973373f, 0.2002089322f, 0.0636344776f, 0.2393205464f, -0.0718838871f, 0.0899984837f, -0.2060445398f, -0.2410265654f, 0.1889468729f, -0.0874860138f, -0.0033911786f, -1.0725796223f, -0.2484009564f, -0.0417975076f, -0.0572270229f, -0.0392845310f, -0.4803462923f, 0.0216548331f, 0.0444260389f, -0.0468707606f, 0.0449786447f, 0.2388108224f, 0.1271579713f, 0.2133046240f, -0.0478332080f, 0.0852475241f, -0.9436388612f, 0.0142713888f, 0.2692066431f, -0.0571129806f, 0.1040393710f, 0.7059393525f, -0.1077514887f, 0.2242767662f, -0.0581689775f, 0.0574039407f, 0.9847165346f, 0.1687179059f, 0.1623543948f, -0.0245773550f, 0.0908349305f, 0.9493952990f, 0.1809324771f, -0.3179330826f, 0.1696345359f, -0.1225051358f};
const float b1[] = {-0.0023104623f, -0.0002853539f, 0.0146311531f, -0.0047319564f, 0.0080675250f, -0.0072135394f, 0.0017829241f, 0.0084970826f, 0.0090794964f, -0.0003737940f, 0.0038240834f, -0.0084608030f, -0.0104984716f, 0.0025541594f, -0.0001532786f, 0.0082485769f, 0.0029924742f, -0.0132196946f, -0.0019355315f, -0.0176999252f, 0.0018931818f, 0.0086448314f, -0.0090871034f, -0.0015408532f, 0.0224974491f, 0.0098587247f, -0.0141179999f, -0.0083017191f, -0.0102529805f, 0.0083874771f, 0.0053340495f, 0.0119593535f, -0.0169491991f, -0.0029288826f, 0.0087457895f, 0.0120729171f, -0.0005613834f, -0.0013801620f, -0.0067217196f, -0.0013488609f, 0.0009150858f, -0.0082490509f, 0.0119415605f, -0.0023610801f, 0.0063346592f, 0.0118255364f, -0.0089612091f, -0.0053873882f, 0.0068787569f, -0.0264395643f, -0.0003289366f, -0.0000255399f, -0.0076793418f, 0.0171273574f, 0.0001016707f, -0.0026980322f, 0.0029564470f, 0.0151225384f, 0.0116086006f, -0.0048193615f, 0.0051733227f, -0.0093490453f, -0.0163297206f, -0.0097610708f};
const float W2[] = {0.2946943641f, 0.0794241354f, 0.0847179443f, -0.0801365897f, 0.1629251242f, 0.0508030504f, 0.2403507531f, -0.0341580622f, 0.0883414298f, -0.1019333377f, -0.0544396490f, -0.0721535087f, -0.3148209751f, -0.0516917482f, -0.0850989521f, 0.0440290011f, -0.3193165064f, 0.1200973988f, -0.1240768060f, 0.1906927526f, 0.2757883072f, 0.1154753342f, -0.0630660877f, -0.1596726626f, 0.1133540645f, 0.0725836828f, 0.2681407630f, 0.1801449656f, 0.0286518130f, -0.2192719430f, 0.0187487770f, 0.2647915781f, 0.0714078322f, -0.2196659148f, -0.0214307867f, -0.1161712855f, -0.0555103272f, -0.1693513691f, -0.1988095194f, -0.1828734279f, 0.4974338114f, -0.5425000787f, -0.2233209908f, 0.1721492261f, 0.0462181233f, 0.0467941053f, -0.3620603979f, -0.0388287455f, -0.1639716476f, 0.0369780213f, 0.0391986296f, -0.1176793501f, 0.2579827905f, 0.1210107431f, 0.2305258662f, 0.1163725629f, -0.1143601537f, 0.1357660741f, -0.1087971479f, 0.0137427039f, -0.3236854076f, -0.1212143451f, -0.1734466106f, 0.1254135966f, 0.1962225586f, -0.3176526129f, -0.1339166164f, 0.3651235998f, 0.0194542836f, -0.1861945540f, 0.0687119812f, 0.1179061905f, 0.0831345171f, -0.2922157645f, -0.0896781310f, -0.1550435424f, -0.1614458710f, -0.0856310949f, 0.0113802813f, 0.4475932419f, 0.1678322107f, -0.0632193312f, 0.0663756654f, 0.0517792627f, -0.0657392442f, 0.0786784291f, 0.1533308774f, -0.2304723114f, 0.1441035420f, 0.0650141537f, 0.3241724074f, 0.0658665150f, 0.2366415858f, 0.2119022906f, -0.1081473306f, 0.0295141116f, 0.0276438668f, -0.1714652926f, -0.1586994231f, -0.1702615321f, 0.1212864071f, -0.0677053109f, 0.0181483924f, -0.3076189756f, 0.1008266434f, 0.0115727596f, 0.1988781244f, 0.0904466808f, -0.1815313399f, 0.0679470301f, -0.0955924466f, -0.0971964821f, 0.2649331987f, 0.1117847487f, -0.1301130503f, -0.1245664582f, -0.0478849001f, -0.2277080566f, 0.3987370133f, -0.2470537275f, 0.1278706044f, -0.0247872267f, -0.1402954608f, -0.1487160027f, 0.3055513799f, 0.1731978506f, 0.2289437354f, 0.0656601787f, 0.0391766392f, -0.5255767107f, 0.0300918538f, -0.1131010279f, 0.1030963436f, 0.1529483199f, 0.0351628028f, 0.0692137107f, -0.0880568102f, -0.1911565959f, -0.1024075225f, 0.2013896257f, -0.0939531699f, -0.0689132735f, -0.0707215816f, -0.1640761793f, 0.1954208910f, -0.1791261733f, 0.1118329018f, -0.4098061621f, 0.0190656520f, 0.0175766237f, -0.0282421038f, 0.2289946824f, 0.1197730750f, -0.0323224515f, 0.1865483075f, -0.0009675871f, 0.0361838676f, -0.1105744615f, 0.0933731720f, 0.0758526251f, -0.6227271557f, -0.1198927984f, 0.0192592237f, 0.0329576619f, -0.1740226597f, 0.2858240306f, 0.0872691199f, 0.1076390147f, -0.0719690993f, 0.1458165199f, -0.0340105966f, 0.1307771802f, 0.2324082553f, 0.1710926592f, -0.1277273297f, -0.3535217345f, 0.0222429894f, -0.3082905114f, -0.0718813464f, 0.0422648750f, -0.0264614429f, 0.0329260975f, 0.2397952676f, 0.3460732400f, -0.4122923017f, 0.3540732861f, 0.2711620629f, 0.0409159884f, 0.1216044724f, -0.2418379784f, -0.1703118980f, -0.1220042184f, -0.1205267310f, 0.1506862193f, 0.2071929276f, 0.1325120777f, 0.0287101176f, -0.1153747886f, 0.2185764462f, 0.2329187542f, 0.2542237341f, -0.0100257564f, -0.1332971603f, 0.1859719753f, -0.0282106120f, 0.0792847127f, 0.0443453528f, 0.1225669980f, 0.0163451564f, -0.1394867897f, 0.1166971400f, 0.1510185748f, 0.0547992662f, -0.0566757172f, 0.1083026826f, 0.1979325563f, 0.2610620558f, -0.1434931308f, -0.1619841009f, -0.3487917185f, 0.1700514555f, -0.1585555673f, 0.1405723989f, -0.1878410131f, 0.1576615125f, 0.0635087043f, 0.1638244838f, 0.0105765592f, -0.1081765369f, -0.0299680494f, 0.2784352005f, -0.3659796715f, -0.0394895189f, -0.1246813685f, -0.1128250510f, 0.0349055417f, 0.2328770906f, 0.3395786285f, -0.2052295953f, 0.1055778116f, 0.2145001292f, 0.0254027601f, -0.5197252631f, -0.0676320195f, 0.1539295316f, -0.0718698651f, -0.0760162771f, 0.2938831449f, 0.1379503459f, 0.1525974423f, -0.1414007843f, 0.3625015914f, -0.0749204606f, 0.0240613278f, -0.0240464211f, 0.3831664920f, -0.0336925723f, -0.1515972614f, 0.2587698400f, -0.3481965959f, -0.1149400696f, 0.3805077076f, -0.1185106859f, -0.2317864299f, 0.0152280070f, -0.0122367293f, -0.2535429001f, -0.2537096441f, -0.0787450895f, 0.0462113619f, 0.0426345319f, -0.1662841141f, 0.1293752640f, 0.0884446949f, 0.2375822514f, 0.1348420680f, 0.0066971155f, 0.1098515317f, 0.3056192994f, -0.2306755483f, 0.0916680545f, 0.1605612040f, -0.1013552696f, -0.1417414248f, 0.0766595304f, 0.1812042445f, -0.3401444256f, -0.0198089611f, -0.2067469209f, 0.0160119180f, -0.0925477445f, 0.2861918807f, -0.0206338931f, -0.0630679429f, 0.0584972762f, 0.1234263927f, 0.1470201164f, -0.0993269384f, 0.2004031539f, 0.1509076953f, -0.1390890181f, -0.0819699466f, -0.1110019609f, 0.0534695946f, -0.3205216825f, -0.3041123152f, -0.3222309947f, 0.0872568339f, -0.1255683601f, 0.0227926504f, 0.2390994430f, 0.2255281955f, 0.2382341921f, 0.0475822315f, 0.3419082165f, 0.1809701920f, -0.3229135573f, 0.0877940580f, 0.1770353764f, 0.2160031497f, 0.2448694110f, -0.0372757465f, -0.0570151173f, -0.1251787841f, -0.0009325109f, 0.0685819983f, -0.0540454425f, 0.2692330182f, 0.0137058143f, 0.1267141104f, -0.1112856194f, -0.1998690665f, 0.0340483077f, 0.1917980909f, 0.2546734810f, 0.2224050015f, 0.1377466470f, -0.2260590643f, -0.2851910591f, -0.3426664770f, 0.2383478880f, 0.0637413636f, -0.0774281695f, 0.1578840017f, -0.1044148132f, -0.0505381152f, -0.0143015077f, 0.1419197917f, 0.2983886302f, 0.0342291705f, 0.0385992117f, -0.0811970085f, 0.2733648717f, 0.3450392783f, 0.0218462832f, -0.0940103307f, -0.2454926372f, -0.3109260798f, 0.0457509421f, 0.0321045890f, -0.1052795723f, 0.0689960793f, 0.0486904010f, -0.2645793557f, -0.1147947162f, -0.1860215962f, -0.3489674032f, -0.4332613945f, -0.0354463607f, -0.0782448798f, 0.1769471169f, -0.1746224761f, -0.0210304968f, -0.0146791255f, 0.2195448130f, 0.3499791324f, 0.1152224243f, -0.0860993639f, -0.4036377072f, 0.0912991688f, 0.0459676385f, 0.1867019087f, 0.2784518301f, 0.0652746856f, -0.1418960840f, 0.0957778543f, 0.1703199744f, -0.0407996438f, -0.0412234217f, 0.1808623523f, -0.2167835683f, -0.3273543715f, -0.2114995122f, -0.1540054232f, -0.1329024583f, -0.3183062673f, 0.4007465541f, 0.2374622226f, 0.0758185908f, 0.1778998822f, 0.0025848802f, -0.1351612657f, 0.2791667879f, 0.0463825390f, 0.1692969352f, -0.2301150709f, -0.0185858868f, -0.0191960465f, 0.1435342729f, -0.0666915998f, -0.1772394627f, 0.1571755111f, -0.1569183618f, 0.0525171757f, 0.1762322485f, -0.1399252266f, -0.2981287539f, -0.0848994479f, -0.1896950752f, -0.1270620674f, -0.0477726012f, -0.1035389453f, -0.0706822500f, -0.2932282686f, 0.2610052824f, 0.2824861109f, 0.1019441560f, -0.0343825631f, -0.1928021610f, -0.1131540388f, -0.2931905687f, 0.5395066738f, 0.0921869278f, 0.0372325145f, 0.0543455854f, 0.0482178740f, 0.1596150398f, -0.0263382457f, -0.0589765348f, 0.1711684763f, -0.1932197362f, 0.1560271978f, -0.1670615822f, -0.0965464637f, 0.0554369912f, -0.0354217179f, -0.2714108229f, -0.1454072744f, 0.2311415821f, -0.0321894400f, -0.4543668032f, 0.1775902659f, -0.2698399723f, -0.2719993889f, 0.2535353601f, -0.1590657532f, -0.0208350047f, 0.0432273261f, 0.1328698546f, 0.0800742805f, -0.0165896937f, 0.0139149781f, 0.2336079329f, -0.2868722975f, 0.0568256415f, 0.1558145434f, 0.1648288965f, -0.1986609399f, -0.0082281996f, -0.0203840602f, 0.1266093850f, -0.1517497450f, -0.0948522016f, 0.0550573096f, 0.0485005900f, 0.0636266693f, -0.3447668552f, 0.0491677411f, 0.2888576984f, 0.2047836035f, 0.0195378289f, 0.0176683348f, 0.2083923966f, 0.3323802054f, -0.1731703728f, -0.4818620384f, 0.1428945810f, -0.1548003703f, -0.0154679948f, 0.2451971024f, 0.1328406930f, 0.0160304233f, 0.1014905572f, -0.0509088784f, 0.1415396780f, 0.0293802544f, 0.0188660230f, -0.0932342485f, -0.0424859039f, 0.1621298194f, -0.0241460651f, 0.0095849866f, 0.0249491259f, 0.2003593892f, -0.1528052986f, 0.2087633312f, -0.2721710205f, 0.0999849364f, -0.2612664700f, -0.0038135643f, -0.1413599104f, -0.1231769770f, -0.0428720005f, -0.2375187576f, 0.1340013146f, -0.2263254821f, -0.1417725533f, 0.1062737480f, 0.1608154029f, -0.0505688637f, -0.1531173885f, -0.2897242308f, 0.1971099824f, -0.1673187912f, -0.0733928084f, -0.0449270234f, -0.0913872793f, 0.3319419920f, 0.4895317554f, 0.1508785188f, -0.4046666920f, 0.0076916749f, 0.2373485267f, -0.0769988671f, 0.1295488328f, 0.1031622514f, 0.1161773577f, 0.1667252630f, -0.0056890761f, -0.0251246151f, -0.0096046347f, -0.1935686171f, -0.1050023809f, 0.0228382088f, 0.3496028185f, -0.0892681852f, 0.0938933492f, 0.1949514002f, -0.0097944094f, 0.0372832231f, -0.0866669267f, -0.3343048096f, -0.1319347173f, -0.1748316288f, -0.2612654269f, 0.0023348189f, -0.0423113331f, -0.2599913478f, -0.1307350993f, -0.0738354549f, 0.0836656988f, -0.1403651386f, -0.3484457135f, -0.1099321097f, -0.0049665207f, -0.1878976971f, -0.3494896293f, 0.1272072196f, -0.3125010729f, -0.4565285444f, 0.0304369777f, -0.2086993307f, -0.2518213391f, 0.1626343131f, 0.0934915319f, 0.0529735349f, 0.0924756899f, 0.1423982233f, 0.3059213758f, 0.0665976480f, 0.0807471126f, 0.1852346063f, 0.0943741575f, -0.4382614195f, -0.6236306429f, 0.1315147728f, -0.0029693756f, 0.0466191657f, -0.0551557578f, -0.1331835389f, -0.1120496616f, -0.0555907600f, -0.0908060148f, -0.0867437273f, 0.0676467940f, -0.1757747233f, -0.1116534844f, 0.4400473535f, -0.1562798321f, 0.0721072704f, -0.0246455520f, -0.0386055298f, -0.0197465271f, -0.1162760109f, 0.0877319872f, 0.1836277992f, 0.3555048108f, -0.2494705766f, 0.0446796753f, -0.1050949618f, -0.0702496842f, -0.3203704655f, -0.1773765981f, 0.1951967776f, 0.1036152616f, -0.1736570746f, 0.0329606570f, 0.0027538533f, -0.0034729650f, -0.2386222333f, 0.2176358402f, -0.0390052795f, 0.1713130176f, -0.0669417456f, 0.1247634292f, -0.0376510844f, 0.1485521793f, 0.0030887888f, -0.3462395668f, -0.2566467524f, -0.0446150228f, 0.0608613566f, 0.0930941328f, -0.2268734574f, -0.1989282668f, 0.1870591491f, -0.2086577863f, -0.1236346662f, 0.2490589768f, -0.3157033026f, -0.0213629883f, 0.0076694675f, 0.0651287213f, -0.0021936835f, 0.4355042875f, 0.0990777761f, 0.0707487091f, -0.0535057113f, 0.1673161238f, -0.0336023532f, 0.3403486907f, 0.1420637965f, 0.2315006405f, 0.3165054917f, -0.1547001451f, 0.0086851958f, 0.1656307131f, 0.1192227975f, 0.2045852691f, 0.3266201317f, 0.2693622112f, -0.0467143431f, -0.0886995867f, -0.0561157390f, 0.0181337371f, -0.2329552174f, -0.0522641577f, 0.1402598023f, 0.0851635188f, 0.1993481815f, 0.0949549749f, -0.0340245925f, -0.3259547055f, -0.0910105705f, 0.0867196098f, 0.0199192334f, 0.4121440053f, 0.0975931361f, 0.4288296402f, 0.0774855986f, -0.0740742981f, -0.1881545633f, 0.0384976976f, 0.1563338488f, -0.1332263350f, -0.1590176374f, 0.1088340729f, -0.2185158879f, 0.1706590205f, -0.1452394873f, -0.1102748886f, -0.0968659371f, -0.0133182639f, -0.0185791645f, -0.0283895172f, 0.2275758535f, 0.1449049115f, 0.2608359754f, -0.1028553322f, -0.2240151465f, -0.2436432242f, 0.1209886819f, -0.2435942739f, -0.3613476753f, 0.0794338807f, -0.2143874913f, 0.2053769827f, 0.2608038187f, -0.0989200026f, -0.1883365065f, -0.3646833599f, -0.3459128439f, -0.0354438610f, 0.3293868303f, -0.0858827233f, 0.2042877823f, -0.1834625900f, 0.1947950721f, 0.3596988916f, -0.0524683371f, 0.0163588580f, -0.0204553232f, 0.2715469301f, 0.0451559089f, -0.0492584892f, -0.0527046882f, -0.3339945078f, 0.0064842026f, -0.1190954298f, 0.1321767569f, -0.1353383213f, 0.0448882394f, -0.0010856498f, -0.3818834126f, 0.0602487400f, -0.0041736849f, -0.3439296782f, -0.1130207628f, 0.0492166057f, -0.2129329741f, 0.4684253037f, -0.0882978290f, -0.1342868656f, 0.1286232471f, -0.1891182512f, -0.1414448619f, 0.1356032044f, -0.0372313261f, -0.0503541455f, -0.1162263975f, 0.0881945267f, -0.0290333666f, -0.1724371910f, 0.0394484550f, 0.0150835244f, -0.1396937966f, -0.0027356027f, 0.1559210569f, -0.1415993869f, 0.1323641986f, -0.1473424733f, 0.1257576644f, -0.3244903088f, 0.0501885973f, -0.0739179403f, -0.1958415955f, 0.1544951349f, 0.1396814734f, -0.3139859140f, -0.2251924276f, 0.0354269929f, 0.3474422991f, -0.0805155262f, 0.1062172502f, -0.1849058568f, -0.0362816788f, -0.1884378493f, -0.1998365670f, -0.0795385018f, -0.0685980991f, 0.0357594863f, 0.2072103322f, 0.1508488357f, 0.2122792155f, -0.1270356178f, 0.0637837127f, 0.0807321966f, 0.1065046713f, 0.0587221943f, -0.2936982810f, -0.0485147201f, -0.0155908531f, 0.1322722435f, -0.1384194791f, -0.1763286293f, 0.1393497586f, 0.1053086892f, 0.0933204368f, 0.0458208136f, 0.3989385366f, 0.0853432417f, -0.1283849031f, -0.0981017500f, 0.1235392913f, 0.0261465125f, -0.0932155997f, 0.0073260819f, -0.0619996302f, -0.1879829615f, -0.2206399441f, -0.1092918888f, 0.0284450371f, 0.1226136386f, 0.4507354200f, 0.0298897624f, -0.1863562614f, -0.0198997874f, 0.1352642775f, 0.1113058329f, 0.2361293137f, -0.2890179753f, -0.1316785812f, -0.1575381756f, 0.0419671498f, -0.0113885570f, 0.0445023887f, 0.1964434534f, -0.0514795408f, -0.1285140216f, -0.2543971539f, 0.1494866759f, 0.1810017377f, 0.0166496281f, -0.3236631453f, -0.1228386909f, -0.2506072819f, -0.0911456272f, -0.1356767118f, 0.0362184756f, -0.0046036923f, 0.0749815404f, 0.2052583992f, 0.0150604201f, -0.1744087785f, 0.1392922103f, -0.0586673431f, 0.0207664128f, 0.1600965410f, 0.0313724503f, -0.1639853418f, 0.2176148891f, 0.0431487150f, -0.0274209380f, -0.0524359941f, -0.0150926802f, 0.2297399044f, -0.2144474387f, -0.1122385114f, 0.1718809903f, -0.1233990714f, -0.2365303934f, -0.3674631119f, -0.1342034489f, -0.2393435389f, 0.4038975239f, 0.0182044506f, 0.0312516913f, 0.1029672325f, -0.1832682043f, 0.1356630921f, 0.1256096214f, -0.0208620317f, 0.2169591784f, -0.3480944932f, 0.2765422165f, -0.1419197619f, -0.3702776730f, 0.5024780631f, 0.0123546068f, -0.0257880166f, 0.0402446426f, -0.0619653724f, 0.1504269838f, 0.1104817167f, 0.1748701036f, -0.0307428185f, 0.0263277553f, -0.1791678369f, -0.2181928307f, -0.2029726654f, -0.1385379285f, 0.0127079217f, -0.0617910475f, -0.0334553085f, 0.2209995240f, -0.4398796856f, 0.0205904096f, 0.1164665073f, -0.0557809174f, -0.0465501845f, 0.3622339368f, -0.1120782271f, 0.2242368758f, -0.2939884663f, 0.1855030507f, 0.0958109871f, -0.0146176256f, -0.0895452648f, -0.1005149335f, 0.0386654921f, 0.3254367411f, 0.0057796775f, 0.3185307384f, 0.1145599335f, -0.3061286509f, -0.1532682031f, -0.0340206213f, -0.1405336559f, -0.4303424358f, 0.0231166296f, 0.1388307512f, 0.2057304680f, 0.1979768872f, -0.1997744888f, 0.1414417624f, -0.0231542774f, -0.5098456740f, 0.0391373523f, -0.0505502596f, -0.0288644452f, -0.0203564446f, 0.0963122547f, 0.0032423367f, -0.1257654428f, 0.0774473175f, 0.0680451468f, -0.0336763933f, 0.2660935223f, -0.2368190438f, 0.0410161801f, -0.1004526913f, 0.2451697886f, -0.1837513149f, 0.1519856900f, 0.1229638904f, -0.0051576779f, -0.0015712136f, 0.0161373653f, -0.0686339065f, -0.3190802038f, -0.0509134196f, -0.1524986923f, 0.2170857936f, 0.0357289016f, 0.0553110093f, 0.2944772840f, -0.0568429455f, -0.2132437378f, -0.0276130065f, -0.1223647520f, -0.1651757509f, 0.2180552930f, 0.0971027240f, -0.1844263524f, -0.2449215204f, -0.0272772927f, -0.0249864012f, -0.3528106511f, 0.0139603484f, -0.1508447826f, 0.0666335449f, 0.2139205486f, -0.3726637363f, -0.0150096798f, 0.1009234935f, 0.0694955364f, -0.1394927353f, -0.0505358949f, -0.0998229608f, -0.2764917016f, 0.1257806718f, -0.0280107204f, 0.0788805857f, 0.1336703002f, -0.0244415458f, -0.3574409783f, -0.0082745906f, -0.1951344162f, 0.0112567851f, 0.3513567448f, -0.2744050622f, 0.2509410977f, -0.0382369533f, -0.0811732411f, 0.0065998924f, -0.0454606861f, -0.1684499979f, 0.3877134025f, 0.2767661810f, -0.2026066631f, -0.0421396680f, -0.1883326620f, 0.0880682692f, 0.0151433265f, -0.4550230801f, -0.1430067122f, 0.3270478547f, 0.1887378395f, -0.1115587056f, -0.3349044025f, 0.1191393659f, 0.1951055080f, 0.0516977236f, 0.3022388816f, -0.0945779979f, 0.1396291107f, -0.1293885410f, 0.2171154469f, -0.0646756291f, -0.0212814286f, 0.2975224555f, -0.0245806724f, -0.0281203613f, 0.1591725200f, -0.0736969933f, 0.3510240316f, -0.1509218663f, -0.2274350375f, -0.3694897294f, -0.0218079127f, 0.1669034511f, 0.1406991035f, -0.1077310145f, -0.0652551576f, 0.0059765014f, -0.0351091735f, -0.1444028020f, -0.1746893674f, -0.0192158669f, 0.1314318627f, 0.1542483717f, -0.1431504786f, 0.3034747839f, 0.3188995719f, 0.1840411127f, -0.0705411211f, -0.2711833417f, -0.1002595723f, -0.0469256788f, 0.0689753741f, -0.3251976371f, 0.6011198759f, 0.1875522435f, -0.1048633680f, -0.1030152738f, -0.0734227896f, -0.0797589421f, -0.1073463932f, -0.1669282466f, 0.0767928213f, -0.0157527532f, 0.2709796131f, 0.1517948806f, -0.2119373232f, 0.0037055563f, 0.0057526925f, -0.1467518806f, 0.1000603512f, -0.1925268769f, -0.1065595895f, 0.0428206846f, -0.1033839434f, -0.1595113277f, -0.1277797371f, -0.0148787359f, 0.0252342783f, -0.3215904832f, 0.0103715714f, 0.0574271046f, -0.1132281721f, -0.2206357569f, 0.3511089683f, 0.0827551186f, 0.4068164527f, -0.0598828606f, -0.1052589715f, -0.2421416342f, -0.0532079004f, 0.1928228438f, -0.0706736594f, 0.0468899645f, -0.0124880029f, 0.0418372937f, 0.4015709460f, 0.2180197984f, -0.0639695898f, -0.1162170842f, 0.2292565256f, -0.0857231393f, -0.0058401064f, -0.0331420973f, -0.2923190594f, 0.2837695777f, 0.0225921553f, 0.2802653909f, 0.0311554559f, -0.0699874833f, 0.2999392450f, -0.2200892866f, 0.0213073213f, -0.1834178567f, 0.0318109579f, -0.0487323143f, 0.1789351702f, -0.1967693269f, 0.1497030556f, 0.1391468048f, -0.1639982760f, 0.0619997382f, -0.0060039144f, -0.1382052302f, -0.0520575605f, 0.0434095412f, -0.0973235965f, -0.1568761319f, 0.0234091654f, 0.0074741011f, 0.0183205232f, 0.0741451457f, -0.0619543567f, 0.0136133349f, 0.0614588037f, -0.0080181956f, 0.1574887335f, 0.3264282644f, 0.2336599082f, 0.0306469612f, -0.0031736006f, -0.1837868690f, 0.2075029910f, -0.0626366287f, 0.1844943464f, -0.0445204489f, 0.2474411577f, -0.1239378899f, 0.2295914143f, -0.2102841139f, -0.4276279509f, 0.2557453811f, 0.2542701662f, -0.1906813085f, 0.1305804402f, -0.3287559152f, -0.0323720500f, -0.2653426826f, -0.0576858446f, 0.2131736726f, -0.0120121129f, -0.0377930999f, -0.1998373419f, -0.3795674741f, -0.2526731491f, -0.0858425051f, 0.1266211569f, -0.2749444544f, 0.0198536795f, -0.0318396054f, 0.1831897646f, 0.0484394766f, -0.6702179909f, 0.0127893835f, 0.1189238429f, -0.1148174107f, -0.0208215714f, -0.0117798224f, 0.0794149712f, -0.1227983981f, -0.0517620631f, -0.0998922214f, -0.1866483390f, -0.1094909832f, -0.2287965864f, 0.2110577673f, 0.1199461818f, -0.1520810127f, 0.0635581389f, 0.1082099378f, 0.2924423814f, -0.0413409323f, -0.0961496681f, 0.0193562806f, 0.1727003157f, -0.0817015171f, -0.0636348575f, 0.1796989292f, 0.2429374903f, -0.1138280258f, -0.2641603947f, 0.1531646997f, 0.1310192645f, -0.1914609671f, -0.0738730654f, -0.2728969455f, -0.1931726784f, -0.2505296171f, 0.1405031383f, 0.0113939904f, -0.0412511192f, 0.2837899327f, 0.3312262595f, -0.0124455001f, -0.1460016221f, 0.0917351544f, -0.2923904955f, -0.2541562915f, -0.2433504909f, -0.1266123950f, -0.1739495844f, 0.1966843158f, -0.3864189088f, -0.0695772469f, -0.1975522935f, 0.1491745412f, -0.1658394933f, -0.2628011405f, -0.1493275166f, -0.0526584573f, -0.1171736345f, -0.0742177516f, 0.0716954693f, -0.0148443719f, -0.3113169670f, -0.3030079007f, 0.2725694180f, 0.0849887505f, -0.2169461399f, 0.1086559221f, 0.0311592352f, -0.3045107424f, -0.2597179711f, -0.1867329478f, -0.2629881799f, -0.2721699178f, -0.0260789003f, -0.2077312022f, -0.3295040727f, -0.0598571785f, 0.0293901395f, 0.1687519997f, 0.2840427160f, -0.4959611893f, -0.1777722090f, -0.0342085920f, 0.1095594540f, 0.0105759986f, -0.0205213856f, -0.1973816603f, 0.2809824646f, 0.0095796091f, 0.1622705609f, -0.0278953779f, -0.0468984544f, 0.2943510115f, -0.1527265906f, 0.2342676669f, 0.3829323351f, -0.0458351001f, 0.1393437833f, 0.0761042535f, 0.0182732027f, 0.1305737048f, 0.0424810648f, 0.0643629879f, 0.2207947075f, -0.2667989433f, -0.2739782929f, 0.0534336269f, 0.1246831641f, 0.1888987124f, -0.0730767921f, 0.1309296191f, 0.3563730121f, -0.2454237044f, -0.3037666380f, 0.0537612066f, 0.2222282439f, 0.0734069273f, -0.0812692270f, -0.3643467426f, -0.1782139838f, 0.1928988248f, 0.0068663745f, 0.0001253400f, 0.0410037339f, 0.0632357374f, 0.0000532591f, 0.2230140865f, -0.0417063050f, -0.1683284044f, 0.0405260175f, 0.0484032333f, -0.2153715193f, -0.0103917876f, -0.1584785432f, -0.0278234743f, -0.0613192022f, -0.0263882130f, 0.0573986769f, 0.0775420964f, 0.2982222736f, -0.1486493945f, 0.0820910484f, -0.1492879540f, 0.2787699401f, 0.0913221538f, 0.2834859192f, 0.3417808414f, 0.0860868990f, -0.0714364946f, -0.2777841985f, 0.1827788055f, -0.2100822181f, -0.0737296864f, -0.2968982160f, 0.1375966370f, 0.2491558641f, -0.0252727624f, -0.0345150083f, 0.1482004523f, -0.0525972955f, -0.1652761251f, -0.3372187018f, 0.2408518344f, 0.4504388869f, 0.1948304176f, 0.0006416132f, -0.1455574781f, -0.0447921045f, 0.0897084102f, -0.0198204145f, -0.1021307111f, -0.3716847003f, 0.2457712144f, 0.2447759658f, -0.2084561437f, -0.0012329238f, 0.0982302427f, -0.2235188335f, -0.1265423298f, -0.0113427751f, 0.2556023002f, 0.1892810911f, -0.0964456722f, -0.0322236270f, -0.2364267260f, 0.4381282032f, -0.0752067640f, 0.0597048178f, -0.0262461025f, -0.1489201486f, 0.1335482746f, -0.0209878050f, 0.3668065071f, -0.0869913101f, 0.3561880589f, -0.1210353896f, 0.0828774422f, 0.1042057350f, 0.1393066347f, 0.1611933559f, 0.1823546439f, -0.2505483031f, 0.2009402215f, 0.0620943643f, -0.3079683185f, 0.1880625188f, 0.3962933421f, -0.0954021588f, 0.2901215255f, -0.1513494551f, 0.2166796476f, -0.2045601606f, -0.1215690672f, -0.0630905405f, 0.1984269023f, 0.2361409068f, 0.0649683103f, -0.2457292527f, 0.1161468849f, 0.0325767174f, 0.0965126380f, 0.0015333786f, -0.2256055921f, 0.0214984976f, 0.3297829330f, -0.1430680454f, -0.1158643886f, -0.0544617921f, 0.0844519734f, -0.0290502347f, 0.0917017981f, -0.1683031470f, -0.1136409640f, -0.2851364315f, 0.0290682353f, 0.0812852755f, -0.1159901470f, -0.1341096163f, -0.0312550962f, -0.0274303537f, 0.0114978543f, 0.0409258008f, -0.2845644355f, -0.0090957386f, -0.0179751869f, -0.0686480030f, 0.1159550175f, 0.0963076577f, 0.2450917065f, -0.2610254884f, -0.0447090827f, 0.0581013896f, -0.0756547526f, -0.0061591640f, -0.3459993303f, -0.0267033577f, 0.0706898794f, 0.1501853317f, 0.0301098563f, 0.1128592715f, 0.2009423375f, -0.1271138936f, -0.0799187422f, 0.0935896337f, 0.0055342587f, -0.1581472009f, 0.3780251741f, -0.1874140799f, -0.1330339015f, 0.0295613650f, -0.2872187197f, 0.5427482128f, -0.0710311979f, -0.0068596890f, -0.1937179118f, -0.0074767754f, 0.0204865951f, -0.1692549437f, -0.1108953655f, -0.0443465114f, -0.2057995498f, -0.2053086013f, 0.0831615701f, -0.0962457806f, 0.0822901726f, -0.0402805991f, 0.0659515932f, -0.0679627955f, -0.0044061611f, -0.0363857523f, -0.1066990718f, -0.0076427935f, 0.1141580716f, 0.0206770077f, -0.0427517854f, -0.2825327218f, -0.1698472649f, -0.2577169240f, 0.1286940277f, -0.3925288618f, -0.4200646281f, -0.1570414454f, 0.3510045707f, -0.1260298491f, -0.0185159575f, -0.3256317675f, -0.0714863613f, 0.0755142421f, -0.0948901847f, -0.2173767239f, 0.0437737107f, -0.3053438365f, -0.3144480586f, -0.0982001424f, -0.1873573661f, -0.2899377644f, 0.0696946904f, -0.2249990106f, 0.0629052967f, -0.1649473459f, 0.1495998055f, 0.4674324691f, -0.1314904243f, -0.2986163497f, 0.0234854221f, 0.0999421552f, 0.2995721400f, -0.2992183566f, -0.0840100050f, 0.0089864712f, -0.2217506021f, 0.1017569676f, -0.0398259461f, 0.0855943486f, -0.4444046915f, 0.0733364597f, 0.1046026498f, -0.1354479641f, 0.2559819818f, 0.0154058067f, 0.0135381976f, 0.1678742021f, -0.5400703549f, -0.0172781609f, 0.2013644576f, -0.2274807394f, 0.4627294838f, -0.0433587469f, 0.0034026566f, 0.0234255400f, 0.1089757234f, 0.0566966869f, 0.0687343776f, -0.0410664007f, -0.0890680701f, -0.0780254453f, -0.1420475096f, 0.0557662994f, -0.1285055727f, 0.0270937327f, -0.1063643619f, 0.2790026069f, 0.0053230608f, 0.1785848290f, -0.3100544214f, -0.0382701643f, -0.0282023083f, -0.0742282495f, 0.1174592152f, -0.3390553594f, 0.1531108916f, -0.1627350301f, -0.2813695967f, -0.1135354042f, -0.0377804898f, 0.0990815908f, 0.0150828315f, 0.2644302547f, -0.1352521479f, 0.1431093514f, 0.1022538766f, -0.0784268528f, 0.1028859019f, 0.1603393853f, -0.0143940412f, 0.1882324666f, 0.2447062284f, -0.0037232814f, 0.1633226722f, 0.1693426669f, -0.0510607660f, 0.2598178983f, 0.0685095638f, 0.1376545727f, -0.2632087469f, -0.0817943141f, 0.2647207081f, -0.1486504823f, -0.2047996074f, 0.4285126626f, -0.0396723747f, -0.0612257943f, -0.1234073490f, -0.0248847734f, 0.1250354648f, -0.4164658487f, 0.3239218593f, -0.0937456265f, -0.0731443465f, -0.1515120864f, -0.0352069438f, 0.0254860874f, 0.1633364558f, -0.0548921935f, 0.1922638118f, -0.0916988030f, -0.0545024239f, -0.0845676288f, -0.3620851040f, -0.0687980205f, 0.0215013810f, -0.2853648961f, 0.0108859167f, 0.0598503128f, 0.2687032521f, -0.0083972402f, 0.1326064318f, 0.2396588773f, 0.0086592501f, 0.2814117968f, -0.0365719311f, 0.0514946952f, 0.0010300581f, -0.4327068925f, -0.1851923913f, -0.1874221712f, 0.1352027655f, 0.4151189327f, -0.1304507405f, 0.3649693727f, 0.0034240249f, -0.1721085608f, 0.0419136286f, -0.2051226050f, 0.2976851761f, 0.0032807374f, -0.0200851448f, -0.0928924009f, -0.2555026114f, 0.1100850925f, 0.1181562245f, -0.0231189895f, 0.1244098321f, 0.1769212782f, -0.0601291060f, 0.1467356086f, -0.0133265909f, -0.0330721475f, -0.0461385660f, 0.3094071150f, 0.2648613155f, -0.0837162510f, -0.0237085391f, -0.2788525820f, -0.3476797938f, 0.0148310782f, 0.0373965427f, -0.2143683881f, 0.3159095049f, 0.0550303832f, 0.0075927023f, -0.0846541673f, -0.0209377930f, 0.0234107729f, 0.0739370435f, 0.0553541780f, -0.0706763268f, -0.1336990595f, -0.0713263750f, 0.0172413848f, 0.1622081697f, -0.1368272305f, 0.2012542039f, -0.2693824470f, -0.1431670934f, 0.0909454674f, 0.0924446881f, -0.0873905569f, 0.0333560146f, -0.3319484591f, 0.0438023955f, -0.3106530011f, 0.0606171042f, 0.1810387969f, 0.4273745418f, 0.0469180979f, 0.1372090578f, -0.0831329077f, -0.0718623549f, 0.0649028495f, 0.0959352106f, -0.1543689370f, -0.0445143133f, -0.4002031386f, -0.1180489883f, 0.0978350788f, 0.3158250153f, 0.2437108904f, 0.2704777122f, -0.0479487777f, -0.2572479546f, -0.1629385352f, -0.0562172532f, 0.1795297265f, -0.0964900628f, -0.0741055310f, -0.1310904920f, 0.3416708410f, 0.1042965055f, 0.1321508139f, -0.0315831043f, -0.2039388269f, 0.3407137096f, 0.0209168736f, 0.2106772512f, 0.0777912512f, 0.0426933169f, 0.1233528629f, -0.1324093491f, 0.0988407284f, -0.0300488155f, -0.1082363725f, 0.2194555402f, 0.0920063779f, -0.0105071310f, 0.0148057099f, 0.2318806499f, 0.2679093778f, 0.1212823763f, -0.0443333797f, 0.1346834153f, -0.0994200334f, 0.0450683311f, 0.0433632992f, 0.0412235372f, 0.1568622142f, -0.0076537970f, 0.2246163189f, 0.0300969407f, -0.2346623838f, -0.0317257009f, -0.0134840962f, 0.1702301502f, 0.0265244711f, -0.2433592230f, 0.0286668986f, -0.0075854799f, -0.1218588725f, -0.0438187681f, 0.2238985300f, 0.0853704587f, -0.0344351083f, -0.1187062636f, 0.0857760683f, 0.0021183493f, 0.0592367202f, 0.1827404946f, -0.0432258025f, -0.1267471015f, -0.2671581209f, -0.1396135241f, -0.0165681113f, -0.1595534831f, 0.1088135764f, 0.0831763521f, -0.3883701861f, 0.0274752006f, -0.3607903719f, 0.1723431498f, 0.4733369350f, -0.1892920882f, -0.2115248442f, -0.4013725817f, 0.1628034711f, -0.0749066845f, -0.1013590097f, -0.1466480196f, 0.1599960327f, -0.0108512882f, -0.0257876050f, -0.2543550730f, -0.0573909841f, 0.1956707239f, 0.1844843477f, 0.0464835130f, -0.3091193140f, 0.1142717302f, -0.1955005676f, 0.0070971758f, -0.1377009600f, 0.6494017243f, 0.3049079180f, 0.2568169832f, 0.3890721500f, 0.0169248432f, -0.1877583414f, 0.1826658249f, 0.2333159447f, 0.0358293578f, -0.0794514865f, -0.2831856310f, 0.1783064753f, -0.1102359518f, 0.1017301083f, -0.1098069698f, 0.0865740329f, -0.0069932952f, -0.0424448028f, 0.3077760339f, 0.0956508517f, -0.0972034410f, -0.2668473721f, -0.1062137857f, 0.1073128581f, -0.0330933444f, 0.0265392866f, 0.1340671331f, 0.2909512222f, 0.0449701138f, -0.1933213323f, 0.2279202938f, 0.0678559542f, 0.0734093264f, 0.1178322881f, 0.1718666255f, -0.2769691646f, 0.1904617548f, -0.0614152625f, -0.0301088337f, -0.1859839410f, 0.0814527571f, 0.2479795218f, 0.0555978864f, -0.2516897321f, 0.1138494536f, -0.1569647491f, -0.1548405886f, 0.2617221773f, -0.0873601139f, -0.2901877761f, -0.2071459442f, 0.1061421111f, -0.1056148037f, 0.2884893119f, 0.1253717244f, 0.1147155315f, 0.0067878528f, -0.1844555736f, -0.1349975765f, 0.2757897973f, -0.1033582836f, -0.1921461225f, 0.1786575615f, -0.0688987002f, -0.0058348919f, -0.0416428857f, 0.1125520617f, -0.4672431350f, -0.2873960733f, -0.3458683789f, 0.0398165919f, 0.0235015005f, -0.0871252567f, 0.1677469611f, 0.0981437564f, -0.0607522465f, -0.1371112019f, -0.0926541910f, -0.2086243927f, 0.3487914503f, 0.0283397771f, -0.0575800277f, 0.1654591262f, -0.1096638143f, 0.3519846201f, -0.1241987050f, -0.0486401059f, 0.0613420606f, -0.0695437118f, -0.0237497278f, -0.3900696635f, 0.2637409866f, 0.3303211033f, 0.0892260969f, -0.3017933667f, 0.1194174290f, 0.2175151259f, 0.0292142257f, -0.3217850924f, 0.0404423475f, -0.0998233855f, 0.0569105931f, 0.0657359213f, 0.1624874175f, 0.1507031322f, 0.1936834306f, 0.0171870049f, -0.0853007659f, -0.0327684432f, 0.1111071333f, -0.0195100717f, 0.1377539337f, -0.1459945738f, -0.2353248596f, -0.0510955453f, -0.0588667877f, 0.1117583141f, 0.0419035517f, -0.0156968720f, 0.0890987292f, 0.0856083408f, -0.3062043488f, -0.1578989178f, -0.1059927568f, -0.0334657095f, 0.1219546795f, -0.3905228376f, 0.0305742156f, 0.2184716463f, 0.0524393283f, 0.0449356288f, 0.0178337116f, -0.1492175311f, 0.2574664950f, 0.3907738626f, -0.3078900278f, 0.1784692556f, -0.4678686261f, 0.0707940385f, 0.1907308996f, 0.1628909260f, 0.0865886435f, -0.0179906022f, 0.2308052629f, 0.4609593153f, 0.0592814870f, -0.0609997362f, 0.0854045674f, 0.2225455344f, -0.0908314735f, -0.2229920030f, -0.3397008479f, 0.0725509003f, -0.1064109877f, 0.0442731008f, -0.2024763823f, -0.2614069283f, -0.0948104709f, 0.0611380488f, -0.0147074861f, 0.3803913891f, 0.0362615287f, -0.0212622229f, 0.1429258585f, 0.0173116885f, -0.2867380977f, 0.1952781081f, -0.3235153556f, 0.0155291716f, 0.2261272967f, 0.0171342008f, -0.0544240214f, 0.0774699524f, -0.3335255682f, 0.0780801922f, 0.1740005314f, -0.3863851130f, 0.0050027436f, 0.2252341211f, 0.1494907141f, -0.0281431600f, 0.2359822243f, -0.0018709856f, -0.3437387049f, 0.0469955504f, -0.1036809832f, -0.2158964425f, 0.2016227692f, -0.0430162810f, 0.2255122513f, 0.1978030652f, 0.1410905123f, 0.0823023245f, 0.1753255278f, 0.1535385996f, 0.0608230680f, 0.1702162176f, 0.0662106499f, 0.4063589573f, -0.1699191481f, 0.0044279010f, 0.0192458015f, 0.0750653893f, 0.1363092810f, 0.1261706799f, -0.1607432961f, -0.0268498603f, -0.2456394285f, -0.3508951664f, 0.1979347020f, -0.0713440999f, -0.0609102771f, -0.1463279575f, 0.1359249055f, 0.0730175376f, 0.0410598256f, 0.0024894718f, -0.0143447546f, -0.2074141502f, 0.1765139103f, 0.2341374606f, -0.2443561554f, -0.1107750013f, -0.1412115246f, -0.1118128747f, 0.2982731164f, 0.2260491401f, 0.0409488231f, -0.1815465391f, -0.2873190343f, -0.2162577212f, -0.0080730962f, -0.3802787662f, 0.1742427349f, 0.1903963089f, -0.2647580504f, 0.0227839388f, -0.2747479975f, 0.2999425232f, 0.0533047393f, -0.1802142560f, 0.1360966563f, -0.1756354421f, -0.4085708261f, 0.0193217229f, -0.1164826378f, -0.2988128364f, -0.3426010311f, -0.0026579469f, 0.1433160901f, -0.0657778904f, -0.1276097596f, 0.2145125568f, 0.0893980488f, -0.0795764104f, -0.1898586005f, 0.2425141484f, -0.3654764295f, -0.0400780849f, -0.1448186934f, 0.0575065166f, -0.0288976133f, 0.4139575958f, -0.2955182493f, 0.1794771999f, 0.0263209939f, -0.2963043153f, -0.0527633242f, 0.0974159315f, 0.2300168723f, 0.1784359962f, 0.0575257130f, 0.0248002224f, 0.0479994938f, 0.3059735298f, -0.2346473783f, 0.0095597599f, 0.1197777092f, 0.0311899837f, 0.0167325847f, -0.1451759487f, -0.0710569173f, 0.0767981485f, -0.3835354447f, 0.2260968089f, -0.0086840158f, -0.1910358816f, -0.4172212481f, 0.1000118554f, -0.1787558347f, 0.1440269053f, 0.0399574414f, 0.1007865444f, 0.1504419595f, -0.0930984840f, -0.0515995286f, 0.2704522014f, 0.1938457191f, -0.0211280771f, 0.1234776080f, 0.3677383959f, 0.1192277223f, 0.0318992808f, 0.2092229575f, -0.0546940900f, 0.1324148625f, -0.3182110190f, 0.0369007923f, -0.2701772153f, 0.0921138003f, -0.5017532706f, 0.0055151959f, 0.1089451164f, -0.3256098330f, -0.0627190098f, 0.0850201324f, -0.0132256225f, 0.3481544852f, 0.1727661341f, -0.1733960807f, -0.0993797481f, -0.0310084298f, -0.0019821234f, -0.0753132775f, 0.2188869268f, 0.0310092457f, 0.1036052853f, 0.0350973159f, -0.0697405264f, -0.1102792844f, -0.2092107236f, 0.1921964735f, -0.4048874080f, 0.3069071472f, 0.1747750789f, 0.2320324779f, -0.1054804474f, 0.2471615970f, -0.1982082278f, -0.1050666720f, 0.0730431378f, 0.1392911077f, 0.1350792050f, 0.1833712012f, 0.2677557170f, 0.1499607861f, -0.0394763872f, -0.1882154644f, -0.1790162027f, 0.0102281617f, -0.3410712779f, -0.0728570893f, 0.0792537332f, -0.0499957986f, -0.1447960436f, -0.2568175793f, -0.0356520973f, -0.3827898502f, -0.2603313029f, 0.0348846875f, 0.1709256172f, -0.1424608678f, -0.2558513880f, -0.3152044415f, 0.0824263468f, 0.1585967392f, -0.1427959502f, 0.0303962845f, -0.4335713983f, 0.0490225963f, 0.0090387054f, -0.1311378926f, -0.0607246011f, -0.1770495176f, -0.1308774501f, 0.0962760597f, 0.2045556009f, 0.3288228512f, -0.0293141622f, 0.1071807593f, 0.2060247064f, -0.0990243554f, 0.1946434379f, -0.0884428322f, -0.0715425611f, 0.3782283962f, -0.2782785594f, -0.1173552945f, -0.2550480664f, -0.0469190627f, 0.2135245502f, 0.0075721764f, 0.2836700976f, -0.1725977510f, -0.2479174733f, -0.0858275965f, 0.0119990204f, 0.0672696829f, -0.1274065971f, -0.1882770509f, -0.2564925253f, -0.1765312254f, 0.1612835675f, 0.2650866210f, 0.0728739277f, -0.0576388165f, -0.0914865285f, -0.1128542423f, 0.1317345500f, 0.1079066917f, 0.0043366984f, 0.2064820528f, -0.0263695382f, 0.0631810576f, 0.1657420546f, -0.0948663130f, -0.0056004180f, -0.3137454689f, -0.1591973752f, -0.1577170789f, 0.0587080829f, -0.0855098814f, 0.1195840836f, 0.5256555080f, 0.1949521452f, 0.1226041764f, -0.2429786623f, -0.1996411532f, -0.0073044025f, 0.1199877635f, 0.0463703983f, -0.1535256952f, 0.1436101347f, -0.0807502344f, -0.1108900532f, 0.0299291275f, 0.0842319429f, -0.1039206088f, 0.1522437185f, -0.2890253961f, -0.1472815573f, 0.0771086812f, -0.0369425006f, -0.0018882060f, 0.2054437250f, -0.1423338056f, 0.2071468383f, 0.1246001869f, -0.0353012867f, -0.1243096590f, 0.0915343612f, -0.0578371882f, -0.0682622939f, -0.2494062632f, -0.0084187957f, -0.0181759540f, -0.1306329817f, -0.2143120170f, -0.1617935598f, 0.4591391683f, -0.0752177462f, 0.0008089395f, 0.3640576303f, -0.0276715085f, -0.2453957945f, 0.0299222004f, 0.0970489457f, -0.3110308647f, -0.1264185607f, -0.0869140849f, -0.1098942086f, -0.1744490862f, -0.0573548377f, 0.0335294418f, 0.1226747483f, 0.1891229898f, 0.0495720319f, 0.4613237679f, -0.1953580976f, -0.0485947132f, 0.0290989503f, -0.2130243033f, -0.1485367864f, 0.3236778975f, -0.0957598612f, -0.3131983280f, -0.0244460925f, -0.1368203759f, 0.1504988968f, -0.1323523074f, -0.4161607027f, 0.2050371021f, -0.2069866359f, -0.1143809259f, 0.0119016618f, 0.0358114243f, 0.2186004072f, 0.0082913395f, -0.0355196185f, -0.1481471807f, -0.1437287480f, -0.1173199564f, 0.0645194352f, 0.1472187191f, 0.1671171784f, -0.1242216453f, 0.1152234674f, -0.0010869388f, 0.3409648538f, -0.1622379422f, -0.1268792450f, -0.2426299006f, 0.3604601026f, 0.0017252627f, -0.1076688617f, -0.2700237632f, 0.0058296588f, 0.1681025922f, 0.1821325272f, -0.0542082898f, 0.2831316292f, 0.4547670186f, 0.0055154958f, -0.1753489971f, -0.1456955075f, -0.0459251627f, -0.1374357343f, 0.2094076872f, -0.1215188876f, -0.0655143335f, -0.0226427075f, -0.1157828420f, -0.1232119575f, 0.1387170255f, -0.1677262336f, -0.0117619038f, -0.2296973914f, -0.2470152676f, 0.0670858026f, 0.2485849857f, 0.0712636113f, 0.2033815682f, 0.5099283457f, -0.0495722368f, 0.0637009218f, 0.0375815742f, -0.0588403158f, 0.0819137171f, 0.0945823118f, -0.0925298408f, -0.3916954994f, -0.1195584238f, 0.0060875905f, -0.1161957234f, -0.2605094910f, 0.1287086755f, -0.0669348836f, 0.3205418885f, -0.0715094060f, 0.0838384032f, 0.1098254174f, 0.0086629791f, 0.1172107458f, 0.0125790359f, 0.0263820235f, 0.0464687571f, 0.1881419867f, -0.0451197363f, -0.1493546367f, 0.2610628605f, 0.0969590843f, 0.0421601534f, -0.5822085738f, -0.2935751677f, -0.0130249932f, 0.2848817706f, 0.0338988043f, -0.0470473208f, -0.1794978827f, 0.1062338501f, 0.2607464790f, 0.0650716349f, 0.1261270046f, -0.1414814442f, 0.1354691684f, -0.2030300051f, -0.3331360817f, -0.1868409067f, 0.0385042503f, 0.2320357412f, -0.1164750010f, 0.0516539738f, -0.1447023600f, -0.1070522368f, -0.1210176498f, -0.0378481634f, 0.3403358757f, -0.0575010814f, -0.0820190310f, 0.1938142329f, 0.2289794385f, 0.0063976794f, 0.0549956448f, 0.1977042854f, -0.3264521956f, -0.1988695413f, 0.1912048161f, -0.2930841744f, 0.3760005236f, -0.1091504470f, -0.0070359278f, -0.2281889617f, -0.2796507776f, 0.2643507719f, 0.1672111750f, 0.1340170205f, -0.0052952021f, 0.1177431867f, 0.0614475422f, -0.0645066500f, -0.0135296471f, 0.0237620529f, 0.0973399654f, 0.0878438801f, 0.1036154702f, 0.1591416597f, 0.1037809774f, -0.0976786092f, -0.0694046617f, 0.2372294962f, -0.1047816873f, 0.0838776380f, 0.2083372027f, 0.1107424647f, -0.3604614735f, -0.2677898705f, 0.2246368676f, 0.2383729666f, 0.0830942616f, 0.0122121787f, 0.0956290960f, -0.0740520582f, 0.0697097108f, 0.3866414726f, 0.0653261691f, -0.1119557396f, -0.0573928319f, 0.0191962197f, 0.1373560727f, -0.3130639493f, 0.1852520108f, -0.3129592836f, -0.0363715366f, -0.0183318965f, 0.0201198254f, 0.4818961322f, -0.1326521933f, -0.0976134241f, -0.1299019158f, -0.0129355611f, -0.0862233415f, 0.2803541720f, 0.3063656688f, -0.1582970470f, -0.1110478193f, -0.0458510667f, 0.1049966142f, -0.0773690492f, -0.4149285257f, 0.3586024046f, -0.1133193821f, -0.1214145273f, -0.0192751363f, -0.0009054436f, -0.1808137298f, 0.0666372031f, -0.1544442773f, -0.0990153626f, -0.2174308747f, 0.1780217886f, 0.0294513032f, -0.2354161590f, 0.2520258129f, 0.2588603497f, -0.1911713034f, 0.1683048606f, -0.2211309671f, 0.2267433554f, -0.4315715432f, -0.0426197499f, 0.0606763959f, 0.1518838704f, -0.0104254605f, 0.1295716912f, -0.0253560431f, -0.1149209440f, 0.0108245648f, 0.1910266578f, -0.0460090712f, 0.1658157557f, 0.1160044223f, 0.1677544713f, -0.0135967340f, -0.1820917130f, 0.4589186609f, -0.2754165828f, 0.3342704177f, -0.0797980428f, -0.0259903166f, 0.4657031298f, -0.1208882034f, 0.0689412951f, -0.2858349681f, 0.0406213552f, -0.1277116686f, -0.1789268106f, 0.0341782719f, -0.1338878721f, 0.0350511707f, 0.4297018945f, -0.2024251819f, 0.0729438365f, 0.2236080319f, -0.1196988150f, 0.0096660648f, -0.5058004856f, 0.0363418683f, -0.1849988997f, 0.1230561659f, 0.1352822036f, -0.1222997457f, 0.2057641000f, 0.1152971759f, 0.2424636930f, 0.2145711631f, 0.0653941631f, 0.1257899851f, -0.2737099826f, 0.1266117543f, -0.2100394964f, -0.1413436085f, -0.0022259720f, 0.2019617707f, -0.2480583489f, -0.0323877856f, -0.3313858807f, 0.2382118404f, -0.1939160526f, -0.1551517695f, 0.1945591420f, -0.0547667593f, -0.0720951483f, 0.0982495919f, -0.0112222806f, 0.0973058715f, -0.1081940532f, 0.0479369722f, 0.2213877439f, 0.1847581267f, 0.1154697165f, -0.0823616832f, -0.0015433041f, 0.0574642383f, -0.2823092639f, 0.0049944930f, -0.0367952064f, 0.2135055512f, -0.2192403227f, -0.3508957326f, -0.0476553664f, 0.0698840991f, -0.2284667194f, 0.3561007082f, 0.2583585382f, 0.1178512573f, -0.0432631597f, 0.2323184013f, -0.0140830334f, -0.0840029418f, 0.2176044136f, -0.0565243587f, -0.0833448321f, 0.2220245153f, -0.0536527708f, 0.1238312498f, 0.2569996715f, 0.1416768581f, 0.1910856217f, 0.2424501032f, -0.0472753607f, -0.2964676619f, -0.1240407452f, -0.1790011972f, -0.0006198284f, 0.1924261898f, -0.1068177000f, -0.0303338114f, -0.1370785683f, -0.0089882463f, 0.0977129415f, 0.2051979303f, 0.0565509722f, 0.0900302902f, -0.2928366959f, 0.2552998066f, -0.1977714300f, -0.2924794555f, -0.1348771006f, 0.1525927931f, -0.1555018872f, -0.0401335582f, 0.1332708895f, -0.2435714602f, 0.0354866236f, -0.4093493223f, -0.2978383303f, 0.1880043596f, 0.0177591816f, 0.1466869563f, -0.0512935594f, -0.1122154742f, -0.0351473577f, 0.2601616681f, -0.0283845104f, -0.3200049698f, -0.0352443755f, -0.0357403569f, -0.0726485103f, 0.1949751824f, 0.2458192557f, -0.0050582304f, -0.1417989433f, 0.2347769439f, -0.1723844856f, 0.2068694681f, -0.2085596323f, -0.2756150663f, 0.2285247147f, 0.1337354183f, 0.2638268173f, -0.1240942925f, -0.1659736782f, -0.3216169178f, -0.0570450015f, 0.0583992489f, 0.1821173579f, -0.2026675642f, -0.2138956785f, 0.2639871538f, -0.0599398091f, 0.0055850232f, 0.2703790069f, -0.1478549689f, 0.0771872550f, 0.1025819778f, -0.1443872005f, -0.1879850179f, -0.0726354793f, -0.0509216674f, -0.0633930042f, -0.3525339365f, -0.0660305172f, -0.1641785800f, -0.1277256459f, 0.0048711277f, -0.0785157979f, 0.1259364486f, -0.0077907857f, -0.1239788532f, -0.2496954501f, 0.2078928947f, 0.1329091042f, -0.1873792112f, 0.2883926034f, 0.0786961690f, 0.2752817571f, -0.1634802818f, 0.1178343520f, 0.1556335092f, -0.4364119768f, -0.2401976734f, -0.3407868743f, 0.1450541019f, -0.1081999242f, -0.1393787563f, -0.1769388467f, -0.0740028545f, -0.1000070795f, 0.1484789103f, -0.1526757926f, 0.0039373571f, -0.1723279953f, -0.2147544175f, -0.0161681380f, 0.3868643939f, 0.2400147915f, -0.0284478236f, 0.1931805611f, 0.0517771840f, -0.0995021462f, -0.1822167337f, -0.1545002013f, 0.1895491034f, 0.0696679205f, 0.2133120596f, 0.0458058231f, -0.0398399159f, 0.0468835682f, -0.2158670276f, -0.1015477628f, 0.0106790550f, 0.4002516270f, 0.0945316479f, 0.0031230920f, 0.0100705596f, -0.2177075297f, -0.1997296363f, 0.2433047444f, -0.1546563953f, 0.0222288501f, -0.2085998356f, 0.0795533955f, 0.0669841543f, 0.0966534764f, -0.1445978582f, 0.1786476672f, 0.0144333700f, 0.1063401848f, -0.2745011747f, 0.0358639807f, -0.3606318235f, 0.1926294416f, -0.2246797532f, 0.2339097559f, -0.0107725998f, 0.1390562803f, -0.1989388019f, 0.2359420657f, -0.1563716531f, -0.3200143874f, -0.3397636414f, -0.0586636849f, 0.2032081038f, -0.0404971689f, -0.0690786317f, -0.1757866889f, -0.1598720402f, 0.2796711624f, -0.0429447033f, 0.2486446649f, -0.1658399254f, 0.1801508814f, -0.1616472751f, -0.1844647974f, -0.1168697029f, -0.1309846342f, 0.1833077818f, 0.1808489859f, 0.5131837726f, -0.0246399585f, -0.0459545441f, 0.0455031618f, -0.0795027316f, -0.0219819173f, 0.0768138468f, -0.0805612653f, 0.0782015845f, 0.0157322399f, -0.0724875107f, 0.0980155766f, -0.1070900336f, -0.0725389197f, 0.0170424245f, 0.1794070750f, -0.2681365609f, -0.2296122909f, -0.1008914858f, 0.0341090336f, -0.2645024359f, 0.1662444323f, -0.0804785937f, -0.1019672230f, -0.0430811644f, 0.2158055156f, -0.0302090496f, 0.0935042202f, -0.0762478933f, 0.1089705974f, -0.1016657725f, -0.1142764762f, 0.0534292087f, -0.2783956826f, 0.0870468467f, 0.0018793932f, -0.2016262859f, -0.0129881455f, 0.1033630446f, -0.1964735389f, 0.2443315387f, 0.0088639138f, 0.2563615441f, 0.1155548319f, 0.2523225546f, -0.1268146187f, -0.2785702944f, 0.3259861767f, 0.0520993844f, 0.0500615276f, 0.0696104243f, 0.1294954866f, -0.1673738509f, 0.1450897455f, 0.1874215752f, -0.0252862796f, -0.1720338613f, -0.0133836074f, 0.1050593257f, -0.0015801303f, -0.1645617932f, 0.1563749909f, -0.3621847630f, 0.1727855057f, 0.0077366000f, -0.2164380550f, 0.1562484503f, 0.0581579916f, -0.1807710528f, -0.1749992073f, 0.0887715593f, -0.0997706726f, 0.2275440842f, 0.2873451114f, -0.0946399942f, 0.2807276547f, 0.3024616539f, -0.2168232799f, 0.2824474573f, 0.1267534047f, 0.4472044110f, -0.2365295142f, 0.0422280319f, 0.0762156993f, -0.0625610650f, -0.2470744997f, -0.2754839063f, 0.1892933995f, 0.0247589462f, 0.0986908302f, 0.0366072245f, -0.0487129577f, 0.2662538588f, -0.1018860936f, -0.1708402783f, 0.1017097011f, -0.0560810156f, -0.3756964505f, 0.0881137773f, 0.4424976110f, -0.0171302035f, -0.3544296026f, -0.1954523176f, -0.1733379811f, 0.1769960076f, 0.0135900751f, 0.2709966898f, 0.0887059495f, -0.1102801263f, 0.0616359860f, -0.0933654234f, -0.1207640171f, -0.0502664708f, 0.1595220268f, -0.2227303237f, -0.0230435617f, 0.0692116842f, -0.2179896832f, 0.0555006415f, 0.2804184854f, -0.3622133434f, 0.1108234078f, -0.4392312169f, -0.1617613435f, 0.0122380070f, -0.1759072989f, 0.1704894900f, -0.2169580907f, -0.1583323032f, 0.1553940624f, 0.2773576081f, 0.0376624390f, -0.1671107858f, -0.1215382963f, 0.0378375500f, 0.1627241969f, -0.1295325309f, -0.0670660064f, 0.0690506920f, 0.1798556596f, 0.1241070777f, 0.1977719665f, -0.2520240843f, 0.2464258969f, 0.0490122959f, -0.2845405042f, 0.1463518888f, 0.1409787089f, -0.0224077348f, -0.3491611481f, 0.1105168387f, -0.0968010202f, 0.1383045316f, 0.2027393878f, 0.0690643489f, -0.1776938587f, -0.1325734854f, -0.3140694201f, 0.1367432475f, -0.0525513962f, 0.1883194000f, -0.0222009104f, 0.1407564282f, -0.0602515489f, -0.0007402403f, 0.2017494738f, -0.2779648900f, 0.2363027781f, 0.2519356906f, 0.0252781752f, 0.1926757097f, 0.2649967968f, 0.1230643615f, -0.1292173862f, -0.1666016430f, -0.1072433665f, -0.0200899150f, 0.0131007731f, 0.3313279152f, -0.1902881414f, 0.2381163538f, 0.1591702104f, 0.1223409325f, 0.0294182468f, -0.2396124303f, -0.3222735226f, 0.0921291560f, 0.2376727313f, -0.3390339315f, 0.0243658908f, -0.1006783694f, -0.0072740465f, -0.0541792624f, -0.0290050339f, -0.2829159498f, -0.2378777266f, 0.0273021106f, -0.0902704373f, -0.3620694578f, 0.0807541832f, -0.0708167404f, 0.2291451991f, 0.0641492158f, 0.2217050046f, -0.2360639274f, 0.2061658502f, -0.0450704657f, -0.1087084636f, -0.0251455065f, -0.0021505957f, -0.0072284671f, -0.3330196142f, -0.1862134933f, 0.0763088018f, 0.3137251139f, 0.3931573033f, 0.2406489849f, 0.1106660441f, 0.2548813820f, -0.1808708310f, -0.0915418491f, 0.0024717615f, 0.0398528241f, -0.2205612659f, -0.0257263929f, -0.0022437323f, 0.2214210480f, 0.1950735301f, -0.3188946843f, 0.3961852491f, -0.1088859141f, 0.2362914830f, 0.1552592665f, -0.2182840854f, 0.1272625625f, 0.2020329684f, -0.4151423872f, -0.0924341306f, 0.2316811830f, 0.1149073988f, 0.0260211360f, -0.0114553086f, -0.1289474815f, 0.1309504360f, -0.1001482382f, 0.0290904045f, -0.3132848740f, -0.0473641343f, -0.0562065467f, -0.2578767240f, -0.2424564660f, 0.1978437901f, 0.0225899629f, -0.3509325385f, -0.0030902985f, -0.0822712705f, 0.1124209240f, -0.1076669917f, -0.2292684913f, -0.0680060536f, 0.3583007455f, -0.2137996703f, 0.1479280591f, -0.1187179834f, 0.0758898035f, 0.0586748794f, 0.0076136347f, -0.0115464982f, 0.3180244565f, -0.1828141361f, 0.0599870868f, 0.2546513379f, 0.0364944600f, 0.2214666754f, 0.2897602022f, 0.1676421613f, 0.1833817214f, -0.0211009756f, -0.1237318590f, -0.0834118724f, 0.3056066036f, -0.0874496549f, 0.1373707354f, -0.2362252921f, -0.0223845858f, 0.1120432615f, -0.0854587257f, 0.1051622406f, -0.0329772718f, -0.1382629871f, 0.0371676423f, 0.2413254827f, 0.1485611349f, 0.0560324416f, 0.0927376896f, 0.0563338622f, -0.0825242028f, -0.1642424017f, 0.0080330977f, -0.2622976899f, -0.3513025939f, -0.1248539016f, -0.2713440359f, -0.2948134840f, -0.1463029832f, -0.0103832148f, -0.1824942678f, -0.0188408289f, -0.0988037363f, 0.0586907268f, -0.0428684689f, 0.1906385571f, -0.1353888214f, -0.2021688819f, 0.1204140410f, -0.1276990026f, -0.2611287534f, 0.0646355748f, -0.2512633502f, -0.1983660460f, -0.1272924542f, -0.0934072137f, 0.2607308626f, -0.2645286322f, -0.1192386225f, 0.0443624705f, -0.0204518680f, -0.2604104578f, -0.0107751573f, -0.2132172287f, -0.1383883953f, -0.3195914328f, -0.0732263178f, 0.1185718924f, -0.2849794328f, -0.0580685921f, 0.3032134175f, 0.1413844079f, 0.2270279676f, 0.0165222269f, -0.2265591174f, 0.1330724210f, -0.5248508453f, 0.0723022819f, 0.1233812720f, -0.1194239259f, 0.0228316486f, 0.0044498504f, -0.2377572954f, -0.3083729148f, 0.2826980948f, -0.0693215057f, -0.0144697949f, 0.0763543695f, -0.0677945912f, 0.0133552840f, 0.3097470105f, -0.1195614710f, -0.1750813127f, 0.0980469212f, -0.0212676395f, 0.1816885173f, 0.2701939344f, -0.0332648978f, -0.1480835676f, -0.0196688380f, -0.3689192235f, -0.0999699235f, 0.2364989519f, 0.0316197500f, 0.0552541353f, -0.2624580562f, 0.1992792785f, 0.1715088040f, 0.2039978653f, -0.0000600089f, -0.1219924688f, 0.2319774628f, -0.0480284952f, 0.2429901063f, 0.1381146312f, -0.0391523428f, -0.2528664470f, 0.2433602810f, 0.1816195548f, -0.2018723339f, 0.1856501698f, 0.0074126571f, -0.0185436923f, -0.1296674758f, 0.1730814427f, -0.0991692618f, -0.0047448548f, -0.1786717027f, -0.1329959184f, -0.2560152411f, 0.1498945802f, -0.3687996566f, -0.2771803439f, 0.0894489959f, -0.0906994268f, 0.0386306532f, -0.0107630920f, 0.1151251644f, 0.2432954013f, -0.0975509956f, -0.0593629479f, 0.1329589635f, 0.0132407974f, 0.0882519484f, -0.0830175951f, -0.1462907195f, -0.2092134058f, 0.1345926523f, -0.1965639740f, -0.0723508149f, 0.0863973573f, -0.2586133480f, 0.2003199458f, 0.1699255854f, -0.3487033248f, -0.3849671185f, 0.3044230640f, 0.3872357905f, -0.1886167377f, -0.0295048971f, 0.1863477528f, -0.1447697133f, 0.0677981898f, 0.0341519043f, 0.0769339725f, -0.1942097843f, 0.1008176878f, 0.0567631349f, -0.1441555619f, -0.1469824314f, 0.0238252748f, -0.0993585214f, 0.0805914551f, -0.2289102674f, -0.2731158733f, -0.1013860479f, 0.0145652769f, 0.0823646113f, 0.2619357109f, -0.0965405405f, 0.0041995202f, 0.1815545559f, 0.1260206699f, 0.0569978282f, -0.2390877604f, -0.1371112168f, -0.0149314981f, -0.0490240827f, -0.0328937061f, -0.0849718302f, 0.3545270860f, -0.2601688206f, 0.0307277907f, 0.3181297481f, 0.1107651815f, 0.0359890237f, -0.0708844215f, -0.1471532881f, 0.1126151308f, 0.1366993189f, 0.0491488054f, -0.2204656452f, -0.3853769898f, -0.0056068371f, -0.1233691871f, 0.0394169576f, 0.0052028489f, -0.4317715466f, -0.0439873710f, -0.1916625798f, -0.1787302345f, 0.1680361032f, 0.1858539879f, -0.1980502605f, -0.0229425225f, -0.0844876021f, 0.2458778471f, 0.3923425078f, -0.1087539345f, -0.1142118946f, -0.3112338781f, -0.0280972011f, -0.0618097857f, -0.1506949961f, -0.1061651483f, -0.0974798575f, -0.1503675431f, -0.3286124468f, 0.0353747793f, -0.1181226671f, -0.2308803201f, 0.1068580076f, -0.0470172539f, 0.0762834325f, -0.0866620764f, 0.3201544285f, 0.1678699255f, -0.3262504637f, 0.0783142298f, 0.3812733591f, -0.1435074359f, -0.1414192468f, 0.1798124909f, 0.0833261460f, 0.0087809199f, 0.0807792321f, -0.0253970828f, 0.0145488773f, 0.1145267263f, 0.1832709312f, 0.0671848431f, 0.1137125939f, -0.2193200141f, 0.1761119366f, -0.2239833325f, 0.1013372764f, 0.1084891185f, 0.1186689734f, -0.2411661446f, -0.0087242005f, -0.1463238150f, 0.1012942642f, 0.2761176229f, 0.1957140714f, -0.2292162627f, 0.2375269234f, 0.0068782396f, -0.0625482723f, -0.1114044115f, 0.0545359254f, 0.3274415135f, 0.1119327247f, -0.0708286017f, 0.1125620455f, 0.1668998748f, 0.2730693519f, 0.0275227223f, 0.0139474729f, -0.2128092796f, 0.1077981591f, 0.1767557859f, 0.0367350429f, -0.1405969411f, 0.2634825706f, 0.1530820131f, -0.2031033933f, 0.0219426062f, 0.1484202445f, 0.2192921340f, -0.1359482557f, 0.1908864677f, -0.0462667868f, 0.3884471655f, -0.1109431535f, -0.2757786512f, -0.2258725166f, -0.0520413741f, -0.3465946019f, -0.0376638845f, -0.2698096037f, 0.2444386184f, 0.1915522814f, -0.2114253342f, -0.0611061789f, -0.4868303835f, -0.0482152775f, 0.1288762093f, 0.1106592268f, -0.1569464058f, 0.2454530150f, -0.1671553701f, 0.0060759634f, 0.2843369544f, 0.2218090445f, -0.2196588814f, -0.0137375370f, 0.1272459328f, 0.0459004790f, 0.0293356385f, 0.1811867207f, 0.1583399773f, 0.0567958653f, -0.3344525099f, -0.2213635594f, -0.2826943994f, -0.1880791336f, -0.2333655357f, 0.0454298407f, -0.2751466930f, 0.2949378788f, 0.1600136310f, -0.1045206562f, -0.4032879472f, 0.0582429171f, -0.0474378318f, -0.0935048610f, 0.0244198758f, 0.2529996932f, 0.1294738799f, -0.0963368863f, 0.0563658662f, -0.1576601863f, -0.1205849573f, -0.1083699241f, 0.0181265883f, -0.0775757656f, -0.2613986731f, -0.1307091415f, -0.1532839239f, -0.0570024028f, -0.1304901391f, -0.1619565040f, -0.1813038141f, 0.4189084172f, 0.4504632354f, -0.0120604895f, -0.0342343561f, 0.0620292872f, 0.0698738322f, 0.3451268971f, -0.0438119844f, -0.1712546349f, -0.0046544955f, 0.2739357352f, -0.1508022100f, -0.3200252652f, -0.1070597693f, -0.0225124825f, -0.3700946271f, 0.2853503227f, -0.0959608927f, -0.1004231423f, -0.1297628582f, -0.2239528894f, -0.1201600283f, -0.0181120448f, 0.0057574278f, -0.3134536147f, -0.1525075883f, 0.0532659777f, 0.0157075021f, -0.2587146163f, -0.0404008813f, -0.2148991972f, 0.1714694649f, -0.0950687975f, 0.2875160873f, 0.3551066816f, -0.1331449598f, 0.1597664505f, -0.1133234426f, 0.2518557310f, 0.1073878855f, 0.1203428507f, -0.1551369727f, 0.3117832839f, -0.2220283300f, 0.0876416042f, 0.1826241314f, -0.0741910785f, -0.0523520373f, 0.2074248791f, -0.0755327791f, -0.0113575300f, -0.0328643918f, 0.0265275724f, -0.0331369042f, 0.3068785071f, 0.0516910404f, -0.0483810902f, 0.0557989180f, -0.1593582183f, -0.2812187076f, -0.4093767405f, -0.0306158420f, -0.3589988351f, 0.0897591785f, -0.1572114676f, 0.0847588032f, -0.0981120765f, -0.0025025709f, 0.1711528152f, 0.0045043267f, -0.3791606724f, -0.1674569398f, -0.0103071081f, -0.1769339293f, 0.0678926259f, -0.2266859114f, 0.1573605388f, -0.3187968731f, -0.0359084420f, -0.1703536808f, -0.2355348915f, 0.0245233197f, -0.1662755311f, 0.0014699198f, -0.2311884016f, -0.0720008388f, -0.0097706281f, 0.0377043001f, 0.0341744386f, -0.0910095647f, 0.0770753846f, 0.0636256039f, 0.0692451969f, -0.0046494426f, -0.1252865046f, -0.3012584150f, 0.0423384011f, -0.0829679742f, -0.2701831162f, 0.0626516938f, -0.2255226523f, 0.1746594161f, 0.1094777957f, -0.1123108044f, -0.2487439811f, -0.3509353995f, -0.0464276560f, 0.0515372530f, -0.0095567619f, -0.0198910553f, 0.0785241500f, 0.3166890442f, 0.2653672099f, -0.2597993910f, 0.0480886325f, 0.0364748351f, 0.1630359441f, 0.2026601881f, -0.3860383332f, -0.1639804542f, 0.1876491308f, -0.1912900358f, 0.1279961914f, 0.3026838601f, -0.3163839579f, 0.3206274807f, -0.2178477049f, -0.0911235139f, 0.1480498612f, 0.0120294690f, 0.2184562534f, 0.0398484208f, -0.3587251604f, -0.0359541215f, -0.1778235734f, -0.0202355664f, 0.1051022261f, -0.1269095242f, 0.1271316111f, 0.1347984821f, -0.1692595482f, -0.0099609951f, 0.1549788117f, -0.1979251802f, 0.1136449948f, -0.1294560730f, 0.1549480259f, 0.0809232444f, 0.2584317029f, 0.1791703850f, -0.1452991664f, -0.2830573320f, -0.1433062851f, -0.2302648723f, 0.0076680663f, 0.0153648378f, 0.2404022366f, -0.0159374308f, 0.1746590286f, 0.0230517611f, -0.2650244236f, 0.0295062289f, -0.0807254016f, -0.1997065395f, -0.0111717805f, -0.2149590701f, 0.1326433569f, 0.0449941941f, -0.1549794078f, -0.1701835841f, -0.1200876907f, 0.0974799022f, -0.2132108659f, -0.2066968232f, -0.0241354015f, 0.2985131741f, 0.1641561538f, 0.0164552350f, -0.2189882845f, 0.3741138279f, 0.1951591969f, 0.0170810521f, 0.0109037375f, 0.0796785578f, 0.0618239716f, -0.0723089650f, -0.0264646914f, 0.0873018354f, 0.1573320627f, 0.2055922896f, -0.0325035825f, -0.2491051853f, -0.2549000680f, -0.1812473834f, -0.0030263911f, 0.1328856349f, 0.1763766855f, -0.3176175356f, -0.1436375231f, -0.3733785450f, -0.0719800740f, 0.0755945519f, -0.1577090770f, -0.0574417263f, 0.1444808841f, -0.4125697017f, 0.1265226007f, -0.0954564959f, 0.1515987366f, 0.0666348264f, 0.2429272681f, -0.2567805648f, 0.0134948576f, 0.1735965908f, 0.0129951211f, 0.7713074684f, -0.2846457362f, 0.1616749316f, -0.0228181798f, -0.0705217868f, 0.0109646879f, -0.0852879062f, 0.0795119330f, 0.1761957258f, 0.2121747285f, -0.1868186146f, 0.1143202409f, 0.2515726686f, -0.0746461228f, 0.0333917588f, 0.3146892190f, 0.0895813629f, -0.0618096255f, -0.1993551403f, -0.0440715589f, -0.2030111849f, -0.2992475331f, -0.2491490990f, -0.1509571970f, -0.1133298054f, 0.0148389386f, 0.2439240962f, 0.2202601582f, 0.2522139251f, 0.0069752554f, -0.0069757216f, 0.0152032543f, -0.2214832455f, 0.2277042866f, 0.0939877480f, -0.0610909835f, -0.0020726637f, 0.0607256889f, -0.1330663860f, 0.1415990591f, 0.2448686808f, -0.3934286535f, 0.0232680663f, 0.0278953370f, 0.0692077726f, 0.0566093326f, -0.0819168985f, -0.0901597962f, -0.4226267636f, 0.0986853316f, -0.0243090112f, 0.0434705094f, -0.0386697128f, -0.5209583044f, -0.2139812410f, -0.0352426730f, -0.0574622899f, -0.0265127756f, -0.2486621588f, -0.3317216933f, 0.0471723713f, 0.0839565843f, -0.1823261082f, -0.1949605048f, 0.2136356384f, 0.0649306551f, 0.0713645145f, -0.3445495367f, 0.3100344837f, 0.0422500446f, -0.0344466045f, 0.2881237268f, 0.0571756810f, -0.1574547887f, -0.0034516458f, 0.0185616054f, 0.0022381665f, -0.4806346297f, -0.3582155406f, -0.1334779710f, -0.3218672276f, 0.0366870575f, -0.0628600493f, -0.1057976335f, 0.0718654245f, 0.1081951112f, -0.2492960095f, -0.0043744254f, 0.4467828572f, -0.1200736240f, -0.2050524503f, 0.1483530551f, -0.1170867980f, 0.2260639369f, -0.3127088845f, -0.0104393978f, 0.0474590808f, 0.1634318829f, 0.3229606748f, -0.2597387433f, 0.0076628495f, 0.0971739143f, -0.0192191973f, -0.0225996152f, -0.2238314301f, 0.2850882411f, -0.0916305557f, 0.1415326297f, 0.0060485052f, 0.0984916240f, -0.1008390486f, 0.1815599352f, 0.3708218336f, -0.1614123732f, -0.1966412663f, 0.1887484938f, -0.1246337891f, 0.2291319817f, -0.0546809360f, -0.0610003248f, 0.0636641011f, 0.2336307615f, 0.1889131963f, -0.1097062454f, 0.0775435269f, -0.0917456523f, -0.0992646813f, 0.0327303745f, -0.2280298918f, -0.1424632818f, -0.2287402004f, -0.1232198402f, 0.0110519771f, -0.0061587817f, 0.2016563267f, 0.1091667563f, -0.1627249271f, -0.0138279293f, -0.0010193262f, 0.0688817278f, 0.3679735959f, -0.0345268250f, -0.1577216685f, 0.1846740395f, -0.2235591412f, 0.3624334633f, -0.1278242916f, 0.0409451313f, -0.1055473089f, 0.1074007824f, 0.0283488296f, 0.2000733316f, 0.1646773070f, 0.0858621374f, -0.0016179559f, -0.2090929151f, -0.0412001982f, 0.0949304104f, 0.1544143111f, -0.1660676748f, 0.1549253613f, -0.3801631331f, -0.0827223733f, 0.1019486561f, -0.0799770653f, -0.1543878466f, -0.0326131172f, -0.0341191441f, -0.2236455828f, -0.2618506551f, -0.0561294630f, -0.4613859057f, 0.0601365790f, 0.1349247545f, 0.0532776639f, 0.2842839956f, 0.3155902922f, 0.0340113007f, 0.2467949539f, 0.0259084962f, 0.0977686048f, -0.2412910312f, 0.1566315144f, -0.2093957961f, 0.1236116663f, -0.4487599730f, 0.2231860608f, -0.2829488218f, -0.1318200231f, 0.2306121290f, 0.1178528890f, 0.1107338518f, 0.1764670014f, -0.0911962837f, 0.0068249675f, 0.1468393505f, 0.0737345070f, -0.1215038747f, -0.1604551375f, 0.0405381359f, -0.4996039569f, 0.0518833734f, -0.0107314372f, -0.0583743751f, 0.0013626728f, 0.0076169670f, -0.3215013146f, 0.1623726785f, 0.1786762476f, -0.0149163166f, -0.0436894447f, -0.1263450086f, -0.0331764184f, 0.0026566309f, 0.3152955174f, -0.0259365197f, 0.1957882792f, 0.0762604475f, 0.4049252868f, -0.2024044842f, -0.0160423554f, 0.2432071418f, 0.1514091939f, 0.1424757093f, -0.0431866944f, -0.3628455102f, -0.0742832646f, -0.1963445991f, 0.0599642806f, 0.3511237502f, -0.0556062199f, -0.0436121747f, -0.0258713830f, 0.1065336168f, 0.2476322502f, -0.2959991992f, -0.0049966155f, -0.3638144135f, -0.0636925399f, 0.0164210387f, 0.0989462137f, -0.2215705961f, -0.0850897580f, 0.0662461072f, 0.0094208932f, -0.1616070420f, 0.4376261532f, 0.0044428925f, 0.3060057163f, 0.1673387587f, -0.0934066996f, 0.2347854674f, 0.0222390927f, -0.1718559414f, 0.0793660134f, 0.2499307245f, -0.1580828428f, -0.0479131527f, 0.0377603546f, -0.1290571243f, 0.3405672312f, 0.0786619335f, -0.1076874062f, 0.1190872118f, 0.2654643655f, -0.1521581262f, 0.0395005122f, -0.1608453244f, 0.2343079299f, 0.2277580798f, -0.1090082005f, -0.0470564440f, 0.3331810832f, -0.0956117660f, -0.2430936098f, -0.2579564452f, 0.1193839982f, 0.3298925459f, -0.3238264322f, -0.0765359551f, -0.2689258456f, -0.1303322017f, 0.1494062990f, -0.0253208112f, 0.0775348693f, -0.1343324631f, 0.0887355432f, -0.1285210997f, -0.0316872895f, -0.3748819530f, -0.1117681265f, -0.0356323197f, -0.0126921004f, -0.2134950459f, 0.0653865486f, -0.0065644905f, -0.0012090063f, -0.0465857871f, -0.1862284988f, 0.0469341017f, 0.1412740499f, -0.1313600540f, -0.0063093440f, 0.0491022468f, -0.2653661668f, -0.1856357455f, 0.3277584016f, -0.0988001972f, 0.4352206290f, 0.2484112829f, -0.1996743828f, -0.1952113360f, 0.1971082389f, -0.0309568346f, 0.2120082527f, 0.0616042204f, 0.1768203825f, -0.1353733093f, 0.1618110389f, -0.1513093114f, -0.2089836448f, -0.3046925366f, -0.2286690325f, 0.0889094397f, 0.0337974951f, -0.0432018302f, -0.2041739225f, 0.3067420423f, 0.1380607486f, 0.0289198123f, 0.2477953285f, -0.2116662264f, 0.0794536099f, -0.0393101759f, 0.0972800851f, 0.1193285733f, 0.0821515247f, 0.1330965906f, 0.0247111861f, 0.3333628178f, -0.0244364850f, -0.0097161215f, -0.0809605196f, 0.0836760029f, 0.1914494634f, 0.1691233367f, 0.0619093776f, -0.1343507022f, 0.2057215422f, -0.1050497890f, 0.2574996054f, -0.2609027624f, -0.1116246358f, -0.2351008654f, -0.0228817891f, 0.0340967365f, 0.0715226904f, 0.1312631965f, 0.2229136825f, 0.0675833598f, -0.0591405295f, 0.1937188953f, 0.0011501185f, 0.2473485768f, -0.0035102104f, 0.0640833303f, -0.2525708675f, -0.0850807577f, -0.1289043427f, 0.1983210593f, -0.0808706284f, 0.0629292727f, -0.0013768924f, 0.1301736385f, 0.1011700854f, 0.0766801834f, 0.1420801282f, -0.0650087595f, 0.1438708901f, -0.1484362334f, -0.0303425938f, 0.0062314160f, 0.0932662934f, -0.0490789562f, 0.1436707526f, 0.0588325933f, 0.2970298827f, 0.0531715974f, -0.0455836691f, -0.0326513089f, -0.1108926982f, -0.5066683292f, 0.1129417792f, 0.1882279813f, -0.0352632590f, -0.1922985315f, -0.0158388261f, 0.0051311399f, -0.1040449366f, -0.0248098671f, -0.0677014440f, -0.1227456927f, 0.0764311701f, -0.0599785782f, -0.2096121460f, 0.1853961498f, -0.0318883397f, 0.1262473315f, -0.2511550188f, 0.0488841794f, 0.0013418136f, -0.2451618910f, -0.4064725041f, 0.0043666484f, 0.0284732487f, 0.1349651217f, -0.2512868345f, -0.0292085297f, 0.3635934889f, -0.1075584888f, 0.0006440552f, -0.1294345707f, 0.3272519112f, 0.2205775678f, -0.0388931334f, -0.3961124718f, -0.1966786087f, -0.0152380886f, 0.1664287150f, -0.0305544659f, 0.0739212483f, 0.1365990490f, -0.0032874665f, -0.2188464701f, 0.1700177640f, 0.0218216330f, -0.0474409871f, -0.2340871692f, 0.4171223044f, 0.0531783625f, -0.2945577502f, -0.2341713458f, -0.0853208452f, -0.0089074001f, -0.1410354525f, -0.1508443505f, -0.2567323148f, -0.5234530568f, -0.1050953120f, 0.1704843938f, 0.0561342388f, 0.0595182888f, 0.1321648806f, 0.0354785062f, 0.1874950379f, 0.0927177370f, 0.2548025846f, 0.0799340680f, -0.2912934422f, -0.0270438660f, 0.3216580153f, 0.2320118546f, -0.0360418521f, 0.1409389228f, -0.1190526858f, -0.1835836321f, -0.1020735279f, 0.0311035253f, -0.1193362772f, -0.2382740229f, -0.1611153930f, -0.0145041402f, 0.2940393984f, -0.2286912799f, 0.1908963770f, -0.1118142903f, 0.0307404343f, 0.1987974644f, -0.0750799403f, -0.0199244656f, 0.1581140757f, -0.0059850053f, -0.1484148055f, -0.1077392101f, 0.3804270625f, 0.0884443894f, -0.1424564868f, 0.1369575560f, -0.0962832049f, 0.2961128056f, 0.1590777040f, -0.2543369234f, 0.0733770654f, -0.3304798007f, -0.0731176585f, -0.2617028356f, 0.2622284293f, 0.0804433897f, 0.2747206986f, 0.2346805036f, 0.0304066073f, -0.1353587061f, -0.2663786113f, 0.0180007461f, 0.3291800618f, 0.0786741674f, -0.2663673162f, -0.3928384781f, -0.3404257894f, -0.1291095018f, -0.0588852279f, -0.2390980124f, -0.0736077726f, 0.1562319547f, 0.0174478460f, 0.0178096723f, -0.0138071608f, 0.0320718512f, -0.1014813483f, -0.1101110801f, -0.0544704720f, 0.1409146935f, 0.0955359116f, 0.0019288666f, -0.1531419903f, 0.0018786395f, 0.0413741879f, 0.0976240262f, 0.1352510452f, 0.2131292075f, 0.0818530023f, -0.0009005949f, 0.1998058110f, -0.3941310048f};
const float b2[] = {-0.0073586488f, 0.0055883923f, -0.0166831668f, -0.0073295059f, -0.0131899342f, 0.0010279047f, -0.0016914973f, -0.0002293731f, -0.0190655477f, 0.0068405103f, -0.0079954015f, 0.0045459741f, -0.0013925646f, 0.0060271700f, -0.0099260686f, -0.0145591814f, -0.0026375956f, 0.0012499861f, 0.0131916851f, 0.0227028038f, -0.0098759560f, 0.0009425451f, -0.0028876080f, 0.0020305549f, -0.0023998783f, -0.0007636343f, -0.0015540291f, 0.0095516406f, 0.0032955268f, -0.0088128885f, -0.0113262059f, -0.0093439510f, -0.0023188463f, 0.0058125509f, -0.0030547704f, 0.0075969016f, -0.0011934831f, -0.0064526950f, 0.0342625156f, -0.0023299970f, 0.0229686052f, -0.0012887454f, -0.0002759890f, 0.0064352346f, -0.0007161486f, 0.0015002561f, -0.0018255312f, -0.0093284957f, -0.0101752551f, -0.0216197204f, 0.0124402856f, 0.0169721469f, -0.0126746828f, -0.0028047755f, 0.0063393945f, -0.0039593456f, 0.0175818894f, 0.0032021238f, -0.0046737697f, -0.0019238024f, 0.0060611381f, 0.0354339182f, 0.0065678204f, -0.0078465082f};
const float W3[] = {0.0063485913f, 0.0014483989f, -0.0343184583f, 0.0007997930f, 0.0005111904f, -0.0032908991f, 0.0008877645f, -0.0003926001f, 0.0396552198f, -0.0011929701f, 0.0007729150f, -0.0010992466f, 0.0006541193f, -0.0027404767f, -0.0005029107f, -0.0009864471f, -0.0017578002f, -0.0017760068f, -0.0321842059f, -0.0086571164f, -0.0005724622f, 0.0003702192f, 0.0007733607f, 0.0025017748f, -0.0005693149f, -0.0004878409f, 0.0003683163f, -0.1541254967f, 0.0006583052f, -0.0077130836f, 0.0004928727f, -0.0003351244f, 0.0036544318f, 0.0002944109f, -0.0004045110f, -0.0005920787f, -0.0004784801f, 0.0070033660f, -0.0912109241f, 0.0001551030f, -0.0064913859f, -0.0019198169f, 0.0013897826f, 0.0018792792f, -0.0000580427f, 0.0104459440f, -0.0001305560f, -0.0460395403f, 0.0002705333f, 0.0016968402f, -0.0012267656f, -0.0085653607f, -0.0004694891f, -0.0001774869f, 0.0009023272f, -0.0957651585f, -0.0010571048f, -0.0050194347f, 0.0008376024f, 0.0068677003f, 0.0001066709f, -0.0358676016f, -0.0020681627f, 0.0012020608f, 0.0064958665f, -0.0001425113f, -0.0103293899f, -0.0002043365f, -0.0041332268f, -0.0075512589f, -0.0013566312f, -0.0020378442f, 0.0116361491f, -0.0041963467f, 0.0030348168f, -0.0016673710f, 0.0026067530f, -0.0015390778f, -0.0000803506f, 0.0036766885f, 0.0025639639f, 0.0006949640f, -0.0100345481f, -0.0023831259f, 0.0022266125f, -0.0031180745f, 0.0027471259f, -0.0026355309f, 0.0020577728f, -0.0005935594f, -0.0003435253f, -0.1112319455f, -0.0000267445f, 0.0064672083f, 0.0038530871f, 0.0040295343f, 0.0032155656f, 0.0015729488f, 0.0001985726f, -0.0062501365f, 0.0002367749f, 0.0012124261f, -0.0449847318f, 0.0015924185f, -0.0087357983f, 0.0034186526f, 0.0012558706f, 0.0024292914f, -0.0012138211f, 0.0134080360f, 0.0016511481f, -0.0071350229f, -0.0002841640f, -0.0020482601f, -0.0012098398f, -0.0052853310f, 0.0043455865f, 0.0000886662f, -0.0022071740f, -0.0856201574f, 0.0016228134f, 0.0181480777f, 0.0001865372f, 0.0048258775f, 0.0054768305f, 0.0572787262f, -0.0001295619f, -0.0016225502f};
const float b3[] = {0.0095679127f, -0.0008165091f};

#endif